svm_type c_svc
kernel_type rbf
gamma 0.03125
nr_class 80
total_sv 240
rho -0.037230505874703453 -0.051518072961593116 -0.064395315519553867 -0.11022556386749809 -0.087784766257539434 -0.066562405529563093 -0.070593281299184671 -0.20838502524239153 -0.034960911350190978 0.012110629536733244 0.0046644939370782696 0.00282730671981828 0.01742401016614992 -0.0044079661212362434 0.0051563357073730531 -0.0088140036142240873 -0.015673107230470763 -0.097433907633335801 -0.048311223091466203 -0.0077031866964108603 -0.026330922469593454 -0.066064971284721399 0.035988190690200393 0.021039663401246442 0.0067590238164510728 -0.027489772892046304 -0.038847993616073537 0.018270063638528455 -0.02191004046699958 -0.0013984619261408939 -0.0062112239490629611 0.0041251473969775706 -0.023129984832656918 -0.01927645035185558 -0.0043367251858566066 0.0081882411057975519 0.0082224895148599337 0.023697878829079807 0.012981946717305987 -0.013747158557658899 -0.01497138050302739 0.0024304165295769911 0.0047134687803486357 -0.0012374914900479389 -0.020792107071479517 -0.01497138050302739 -0.051311856025838598 -0.013747158557658899 0.0024304165295769911 -0.029816197971454447 0.0040051112127021801 0.021120111910637406 0.0098559309102763185 0.012264146316605625 0.019717682435670753 -0.029816197971454447 0.0040051112127021801 0.021120111910637406 0.012264146316605625 -0.045714116422538122 -0.0021630570780856854 -0.029863590438382742 -0.026467041301514727 -0.035417615734069159 0.0082550048312429996 -0.0022633048029887782 -0.026874091706672903 -0.029863590438382742 0.0082550048312429996 -0.026073942827990526 -0.010319321971900738 0.0010319703661902351 -0.0116902480386994 -0.0062143158514860845 -0.0080016480068872773 -0.0126840039678566 -0.0077691086593106419 -0.0014567540762581033 -0.011746017569531407 -0.014408923615417091 -0.030481725291306414 -0.079347932572533184 -0.052736358411348848 -0.032524628924968733 -0.034952621204275808 -0.1947067419343094 0.0026313091953678995 0.048380912184203727 0.041724229634482975 0.041182363628260603 0.052134849976121674 0.032115677734582126 0.042576784626904361 0.028934701634967874 0.02188290718127529 -0.062069881924523791 -0.014822738578009318 0.024882201515988689 0.0063110136042327002 -0.033551294583403599 0.068526726983651864 0.053744708961417781 0.039285350782194563 0.0050420104299247525 -0.0062820078674710152 0.050889631008540374 0.010618353212515761 0.034863239734606165 0.030484329784940714 0.041629991938172024 0.013354307913091662 0.018190585029755534 0.031879712612924445 0.043759982479643696 0.044846786196510648 0.059265047788090615 0.048926642799593405 0.019864506381216184 0.020469174990512706 0.036889440772508157 0.041303075078265923 0.034549296370430187 0.014493316210271367 0.020469174990512706 -0.016609135509203156 0.019864506381216184 0.036889440772508157 0.0064541069957311783 0.039134894932891198 0.056564396604050576 0.043997299844966066 0.047194978889111859 0.055299814047975245 0.0064541069957311783 0.039134894932891198 0.056564396604050576 0.047194978889111859 -0.0091447485700517934 0.03374722536109237 0.0063434225389851877 0.0089562752991566314 -0.00047031028452580075 0.042401056106803232 0.032139528148702974 0.0092989562178715218 0.0063434225389851877 0.042401056106803232 0.0097602056580741118 0.026012929831897538 0.037424724695725942 0.024529642228085211 0.029724985895927803 0.02770645751676477 0.022826527215343066 0.026689047078377437 0.03480627656681775 0.023478294738670236 -0.013645156629389364 -0.060755572046282839 -0.040751497115012726 -0.018058842972654872 -0.018719988865167823 -0.16595585257286033 0.01709540162556434 0.061476090894938384 0.056056067422450062 0.053937019702524257 0.066313146458173142 0.044716382590031932 0.055557775434040869 0.043635834486745635 0.036319874731061512 -0.052327229278883919 0.0022946576965437349 0.037027941546397637 0.018504482521217055 -0.021402029672942264 0.080560413213512885 0.065706053549808865 0.051413077350942089 0.017198191539824589 0.0058902948217306314 0.062929926093342373 0.022760397269130681 0.050629118955896536 0.046762975921329712 0.056328079247840522 0.025755240771252259 0.031141329105415588 0.045139244865703511 0.060051044129887036 0.059076358893304724 0.072479187563603054 0.063131173160769577 0.032229054043932968 0.03428593196119472 0.049146970370838407 0.054162914211430158 0.047028164175631021 0.027303501910870696 0.03428593196119472 -0.0034210902280714765 0.032229054043932968 0.049146970370838407 0.019781471955049226 0.054730521315340508 0.069060427321017318 0.055776414999773122 0.058537162899780081 0.067830359446142699 0.019781471955049226 0.054730521315340508 0.069060427321017318 0.058537162899780081 0.0045221261766489954 0.045357701567970886 0.020661473694429052 0.022634900734740684 0.012525850326115896 0.054995886841921138 0.04553042379149317 0.022757315236261042 0.020661473694429052 0.054995886841921138 0.022372453321579097 0.038111407915159212 0.049315570172578732 0.03730964275775988 0.042275787177740144 0.040382627786556019 0.035668262474172714 0.040223222793588025 0.046300627991868411 0.035796904027649214 -0.051444354115581237 -0.026557353872438502 -0.0053333082880295925 -0.0060027595398303149 -0.15898783457030752 0.031556154812552119 0.074453191046773393 0.070388065564532809 0.06866716886449685 0.078312210410863156 0.060134987765793853 0.069119059386952023 0.057012148687784092 0.050570600353614652 -0.035817116541746886 0.015767159671216443 0.047631055369094073 0.029150647538624133 -0.010801373776232812 0.091101381066155382 0.076388265610748254 0.061980455880057024 0.027789023218654892 0.016521970089232445 0.073476202662209944 0.033355445166220916 0.062919555244779837 0.058270998765360349 0.069674741999504394 0.041331579259014657 0.045683524760756829 0.0600691257684213 0.072298850093339903 0.073400536475496117 0.084185535108510845 0.075152946126898212 0.043479817885116984 0.045358296456855435 0.06035664453322593 0.067806712202070477 0.059836995254634234 0.039534483176741929 0.045358296456855435 0.0090837522913323927 0.043479817885116984 0.06035664453322593 0.034633909076969359 0.065653120078842234 0.08177745089415811 0.066749887298420976 0.070013698246138359 0.079528942838359568 0.034633909076969359 0.065653120078842234 0.08177745089415811 0.070013698246138359 0.018936630483253242 0.05784841029825849 0.033331683036428694 0.035047631243289454 0.025064418588821812 0.06648752161032119 0.056599420992752697 0.035674373875155055 0.033331683036428694 0.06648752161032119 0.035241667244856695 0.051656424992354809 0.062763982412477645 0.051580945256546766 0.055655098888127197 0.0536479232323816 0.047577696650485148 0.051628781340189084 0.058372151346654161 0.047799879531145638 0.024353186091520162 0.044663491306374453 0.050577505387308132 -0.12313697674646445 0.0819041374469867 0.11929825762070295 0.11349170186263918 0.11366496824340461 0.11908143155249118 0.10202262870649359 0.11242532112013859 0.10380497121294362 0.098986637947398995 0.014565598446044015 0.05924424072947216 0.08366516972659209 0.065386201904188701 0.025258533742653817 0.12692093619344702 0.11245346164714358 0.097803242050337844 0.063756731002570607 0.052638395366066841 0.10940192430773614 0.069267500533865836 0.10434694829946217 0.10312829929146945 0.11377086205680274 0.085987297780915808 0.092259489405071657 0.10432760567730059 0.1140387116411513 0.11500552172806296 0.12478232330490781 0.11514728174993744 0.081628520999690576 0.088323588250645166 0.099850293700969206 0.11020969392343925 0.10075640253132258 0.080248344766252394 0.088323588250645166 0.049977903647219435 0.081628520999690576 0.099850293700969206 0.075640688531950634 0.10583315952473114 0.12338054015770106 0.10548958561979997 0.11064185670450932 0.12138551110935177 0.075640688531950634 0.10583315952473114 0.12338054015770106 0.11064185670450932 0.063325345908987266 0.1001461247981414 0.076001938335987784 0.076324385715558857 0.06686524498157774 0.10596694654074422 0.096981941047139461 0.078132191577273039 0.076001938335987784 0.10596694654074422 0.078790747443848369 0.09447175708441162 0.10606555873500374 0.093894714109401145 0.097755639471533665 0.095220425187730329 0.089409254861190071 0.091622348356545771 0.099662439449810514 0.088881824596265382 0.020930719370976163 0.022717861341029693 -0.13580961012092033 0.058923999745741452 0.097888310786677812 0.092158640220970867 0.089703607141107478 0.10061434243874412 0.079960960916722154 0.092254742016923283 0.081077285661241005 0.077118983850984438 -0.0097259515249719011 0.039440066361003216 0.068057995908955407 0.04977225677646574 0.0096683123446008167 0.11141069925288362 0.096753671356107393 0.08236009980455393 0.048233448048399574 0.037003794877107365 0.093893338386220146 0.05376570109511003 0.08677362671693846 0.084125680271324846 0.09244045276553832 0.061845595825049872 0.066420507470283038 0.080006089487813625 0.097486207774370393 0.094188285762848836 0.10734603868452786 0.097544521954192262 0.064378720072126541 0.069089277514923844 0.082020629179808416 0.088544131508872401 0.080968632644328242 0.060000785717122203 0.069089277514923844 0.031215765395612837 0.064378720072126541 0.082020629179808416 0.053633815966846125 0.088341300261322656 0.10393946095908391 0.088316798983237646 0.091815751137055909 0.1016148788545949 0.053633815966846125 0.088341300261322656 0.10393946095908391 0.091815751137055909 0.040887456585745267 0.079598440684644209 0.055202807059107246 0.057020208474513091 0.047465754554994861 0.08897021495105284 0.07839852330090076 0.058167449831957589 0.055202807059107246 0.08897021495105284 0.056697878474636393 0.072794995305717855 0.08389183008210814 0.072030400434050332 0.075546705024739105 0.074060639743729048 0.069119534365155291 0.073128936584856544 0.079973625627439787 0.069504711439086098 0.00029705189957134141 -0.14935696630778758 0.035429820112323492 0.078076909192520527 0.071253732673392578 0.06924130258349119 0.080783051925643376 0.061220151329339001 0.072022286755464252 0.059905216946398943 0.054704413504902516 -0.027997234263729246 0.019797631358095542 0.052022774999145954 0.033520330839847796 -0.0064260044772604802 0.095358256623283441 0.080604834992432345 0.066330213219499098 0.032157423558147512 0.020889017673748494 0.077851025230303045 0.037704021682593299 0.064608022458654366 0.060821934891690271 0.069912130899273131 0.043310691712268617 0.048525337507209186 0.061016368778227213 0.074838443527582982 0.074903180994115873 0.087201293470192523 0.076680324607920097 0.047524594473402182 0.049339062668148324 0.064198623554366341 0.068784305947930155 0.062501495869330417 0.042550385565952226 0.049339062668148324 0.01270267193923579 0.047524594473402182 0.064198623554366341 0.035956992962533872 0.067493295975195211 0.084014939694592297 0.070850021464583829 0.074250704842315926 0.08239431249374482 0.035956992962533872 0.067493295975195211 0.084014939694592297 0.074250704842315926 0.021170305250679592 0.061804695884159329 0.036341139097602844 0.037819866204182769 0.028842038939556929 0.070275852482031803 0.059909680389346888 0.038670100711870596 0.036341139097602844 0.070275852482031803 0.038575484816726881 0.054487244662680151 0.065735495654362763 0.053797797693965026 0.057784320084660917 0.056011657367225576 0.050953010960661148 0.054781532952129376 0.061772369403415767 0.051558406571072329 -0.16657667149960106 0.037066986708940965 0.08166506306745798 0.075154652291448229 0.07322044986186392 0.083683743169997937 0.064235027799057154 0.074819716819083379 0.063235850593162904 0.05763329664511449 -0.031978027278491132 0.018123112493967464 0.051861001887121345 0.033425948125368317 -0.006601711701499681 0.095298011308906527 0.080543507374148102 0.066147321046411758 0.031979314854558974 0.02073878606330333 0.077694048212308256 0.037545434285106899 0.067648174816912557 0.06387625895098327 0.07550915244461727 0.044952531109598452 0.05029178095248843 0.063749265637352573 0.076736263582886266 0.076905746611167766 0.089538378622213213 0.079452348979632784 0.047866684013048048 0.050329149338072691 0.064997871685598299 0.072301394968282459 0.063795364080231745 0.043654257225877985 0.050329149338072691 0.01317354123761999 0.047866684013048048 0.064997871685598299 0.037182477809351216 0.06977623528040329 0.086749843106861166 0.071460353880975172 0.075378715612960293 0.084590834374383209 0.037182477809351216 0.06977623528040329 0.086749843106861166 0.075378715612960293 0.023064069967525008 0.062831240872025629 0.037723018019662893 0.039494525561005696 0.029570494081130813 0.071139337655614449 0.06155567655780933 0.040416522184310431 0.037723018019662893 0.071139337655614449 0.040037516648469329 0.055804817568250731 0.067443528110165796 0.055216255812786476 0.060245140848165145 0.057768251453134696 0.052048310448075334 0.056068585676578499 0.062882010258101487 0.052322960884337133 0.17920925439293167 0.20875995194177396 0.20852416559259215 0.21956483461366263 0.20389259262623236 0.20306779337902944 0.2106243145802186 0.2018818257458371 0.20134850799561979 0.12628913248352533 0.16558939573330886 0.16193525624347085 0.14398303211918431 0.10444812240856903 0.20479704865611401 0.19091145031894061 0.17580500967799795 0.1423657264705083 0.13146687498823989 0.18753642312728727 0.14781705410696977 0.19286811789214309 0.20018090471175423 0.2093272307097834 0.18743107001794265 0.19139265184263662 0.19790149498806089 0.20259505123806862 0.20489710221550808 0.21118601435375814 0.2061426461396523 0.16239999968254173 0.17660995834720783 0.18516292815026181 0.20262278602350933 0.18949650991101874 0.16956593783359922 0.17660995834720783 0.13895281314740102 0.16239999968254173 0.18516292815026181 0.17569236500707233 0.19056748048843566 0.207729817399539 0.18739536113709801 0.19485619723592962 0.20489092281007437 0.17569236500707233 0.19056748048843566 0.207729817399539 0.19485619723592962 0.16203874424495956 0.19128711693400682 0.16622081173343575 0.1645203217961137 0.15818737070775699 0.1901872592257898 0.18416509585548657 0.17181920932577721 0.16622081173343575 0.1901872592257898 0.16795747337011344 0.18367744641792458 0.19649680634887789 0.18798402608946332 0.1880390176420095 0.18537559510493654 0.18029108862694579 0.17714936364896808 0.18936952420618744 0.17785783669631494 0.046778511039258869 0.040029743889617435 0.037623735330378001 0.050694034211819373 0.029859391858802698 0.03966923832738966 0.026629569886744961 0.019269932395717674 -0.068457681984290475 -0.015282801362393052 0.023252997618268188 0.0046888041479322051 -0.03515430188622895 0.066800282574301609 0.05194010267418326 0.037665624308953011 0.0034213060397355177 -0.0079032037521747124 0.049168451466937872 0.0089926171573762141 0.033701809618726701 0.029400192130068201 0.039296825378510203 0.010863136195529874 0.015485053835722682 0.030311685209797986 0.04412016080533069 0.044336887148566984 0.057736478755725962 0.046933373158723979 0.018002373535427642 0.018456374914289767 0.03455296576356405 0.038299713056201473 0.032309562980228627 0.012470232552795 0.018456374914289767 -0.018475447978784459 0.018002373535427642 0.03455296576356405 0.0043912393983132781 0.038456882866393087 0.0550588289718974 0.041715651280684586 0.044929587358272682 0.053098171169084524 0.0043912393983132781 0.038456882866393087 0.0550588289718974 0.044929587358272682 -0.011429780372467687 0.030685686202114867 0.0049087176662941743 0.0070433931799452716 -0.0027158363962767229 0.040283487128581173 0.030255694209870454 0.0073226840777528305 0.0049087176662941743 0.040283487128581173 0.0074941025986129438 0.023676398203253918 0.034768612252341381 0.022066657996592454 0.027380215713353199 0.025629853758363175 0.020356507814697059 0.024773492770992413 0.031400107562235748 0.02114844368036008 -0.0076948655869368754 -0.0095681686958050995 0.0053739903140664026 -0.016037696135231112 -0.0065375158571499515 -0.021117159633160396 -0.027989159017168419 -0.10662096030019678 -0.057944761357325007 -0.018690086752590516 -0.03729345776841636 -0.076929461680816574 0.024919003041528012 0.009986710500970079 -0.0042284412923081901 -0.038459982758787543 -0.049788008050834026 0.0072540276230352767 -0.032890240456494822 -0.012947575394231275 -0.018322534202243265 -0.0081165798425747605 -0.035077331931603943 -0.030873907894262725 -0.016184851868076413 -0.0038966291870775153 -0.003675875527773194 0.01167622664753816 0.0011356166618186338 -0.024736495809215744 -0.025894288652087896 -0.0088482861166707897 -0.0070707348219848877 -0.012731774456135577 -0.031715814931537967 -0.025894288652087896 -0.061794057899258827 -0.024736495809215744 -0.0088482861166707897 -0.040053965053734278 -0.0077369473257545866 0.0090830844653497968 -0.0015024234197698969 0.00062642286291982995 0.0077279536116385021 -0.040053965053734278 -0.0077369473257545866 0.0090830844653497968 0.00062642286291982995 -0.056618716382696499 -0.01367335084948286 -0.040373783269821939 -0.037438718648046453 -0.046184904314383941 -0.0031316480080103453 -0.013610364434955008 -0.038233878104683205 -0.040373783269821939 -0.0031316480080103453 -0.037302602306943426 -0.021820255467170136 -0.010563761572526005 -0.022980885272867218 -0.017689929175800482 -0.019484367107280628 -0.02394960402403834 -0.019049130095066143 -0.012776321342574415 -0.023080635881216286 -0.0018777906519829642 0.012887649635594722 -0.0083804342909840537 0.0011077048057548514 -0.013462329753855286 -0.019842892712377266 -0.10064332816974968 -0.050327931866701529 -0.011559090474290344 -0.03017244491917348 -0.069844916817730376 0.032069006092423864 0.017137523407203033 0.0028968190259787085 -0.031345044177761704 -0.042677499375303525 0.014392787897522873 -0.025769558526958964 -0.0054661345746644706 -0.010915707818406955 -0.0004084206126900229 -0.027137146414442464 -0.023291842033300408 -0.0087085441185799691 0.0037502673933756999 0.0039307232534562149 0.019430104851907801 0.0087826524610281464 -0.017598465886915098 -0.018960861490116557 -0.0015380790522111223 0.00048835637344913382 -0.00526263062515422 -0.02451678178679911 -0.018960861490116557 -0.05475777430613557 -0.017598465886915098 -0.0015380790522111223 -0.033045078133784649 -0.0002685918990033577 0.016724733552573673 0.005768138024189913 0.0080356603702269481 0.015363168553155835 -0.033045078133784649 -0.0002685918990033577 0.016724733552573673 0.0080356603702269481 -0.049485211371398309 -0.0060817823612821518 -0.033605987691991066 -0.030060603925785634 -0.039347863600066653 0.0042073644655446696 -0.0062289324983358443 -0.030659309306890054 -0.033605987691991066 0.0042073644655446696 -0.030034917732746035 -0.014265834002774376 -0.0030144256474700063 -0.015622765052111126 -0.010287945058902615 -0.011924469923719755 -0.016555863815832825 -0.011707516909424851 -0.0054341997770475737 -0.015496023869180286 0.014772026253172131 -0.0065063658833570057 0.0031367825595911849 -0.011740753379212992 -0.018469685355023489 -0.10081949075161771 -0.048670905056091666 -0.0098511517669398006 -0.028438946843166831 -0.068145382559787332 0.033783180730841182 0.018848649766393132 0.0046023752174836454 -0.02964148611442699 -0.040966195206665904 0.016094419818794489 -0.024059839193291393 -0.0035888222493145497 -0.008877034786406458 0.0013875709093681479 -0.025815862203872872 -0.021874836668273348 -0.0069535241682802526 0.0055083178102474139 0.0058124070725105665 0.021199609284136878 0.010523944029501214 -0.01585309406788208 -0.01690793104901131 0.00020490313805836445 0.0023175116498347094 -0.0035926572902706278 -0.023340318996386666 -0.01690793104901131 -0.053590737513334215 -0.01585309406788208 0.00020490313805836445 -0.031549951763547274 0.0015037665647801551 0.018427728419995695 0.0075151963702990779 0.0098270087803783157 0.017124626791441167 -0.031549951763547274 0.0015037665647801551 0.018427728419995695 0.0098270087803783157 -0.047684778570246035 -0.004479536223650383 -0.03155170086634549 -0.028212109609210247 -0.037814325557803709 0.0059934598669940326 -0.0044254685298262819 -0.028768704609767101 -0.03155170086634549 0.0059934598669940326 -0.028722956972010018 -0.012589339062194595 -0.0012408807479571777 -0.013771435518835945 -0.0084280250251412368 -0.010276479708424255 -0.014746818882549403 -0.0099353328342849465 -0.0036353640818327648 -0.013853649933637191 -0.021801296366057783 -0.012517303476105093 -0.026345076714495975 -0.032862960883939245 -0.10873817932886855 -0.062870998787933938 -0.023829003210656518 -0.042481928536437043 -0.082204857700120121 0.0198376362141395 0.0048713689278950152 -0.0093537268260687201 -0.043586394093929233 -0.054948854794078496 0.0021298516999885548 -0.037991347998756482 -0.018554074500727751 -0.02391328437919707 -0.013346025426633748 -0.039021674610741422 -0.035535875889700662 -0.021205297607316636 -0.0091664059256649829 -0.008879271659474117 0.0064527416395779831 -0.0041826440246453553 -0.030142944656067375 -0.031971205704133247 -0.014225991514318732 -0.012462292019730098 -0.018058825793558341 -0.036857059792690182 -0.031971205704133247 -0.066476415898939892 -0.030142944656067375 -0.014225991514318732 -0.045468735298845271 -0.013205359583136856 0.0036715640710934284 -0.0067964952568457986 -0.004671574068302313 0.0024451879754624579 -0.045468735298845271 -0.013205359583136856 0.0036715640710934284 -0.004671574068302313 -0.06088004674778006 -0.018822512115404415 -0.045012762096388964 -0.043269622230961591 -0.050918694380005104 -0.0083778956661261974 -0.019088286014145518 -0.04268250255426289 -0.045012762096388964 -0.0083778956661261974 -0.041708195897076389 -0.026807806934703981 -0.015869516773643622 -0.02865636337420643 -0.02335059368129094 -0.024760954827151186 -0.029281932814232067 -0.024494666343734848 -0.018038613773108791 -0.028131230297245468 0.0092774585033852316 -0.0050176510686371139 -0.011198900540305918 -0.087175041087131741 -0.0445961345588703 -0.0037741257408329299 -0.022385542559064758 -0.062174262789967634 0.039950262035526242 0.025067532844012155 0.010687497298602086 -0.023567781783522004 -0.034892198668933679 0.022201572364872899 -0.017986232633966582 0.0028027947674202076 -0.0022765698167967405 0.0079494228149673066 -0.019075930861221401 -0.014781826422704883 4.2677253017762346e-05 0.011867265086082622 0.012278297626151588 0.027644020013143381 0.016787625141801665 -0.009647700938472276 -0.010890750541607958 0.0065429315168384116 0.0089231463025002591 0.0031560215884571881 -0.016630644307006223 -0.010890750541607958 -0.046876862667688458 -0.009647700938472276 0.0065429315168384116 -0.026196393406196002 0.0079923413296930732 0.025119677686603951 0.014105985879963539 0.016578636859248413 0.023832641511741023 -0.026196393406196002 0.0079923413296930732 0.025119677686603951 0.016578636859248413 -0.040915544784669265 0.0020360518143871047 -0.024737467784123054 -0.022293831088933569 -0.031053695430321229 0.012407725844613632 0.0019123272932768224 -0.022553145828859297 -0.024737467784123054 0.012407725844613632 -0.02154668459971458 -0.0058808410315093164 0.0058170715254853679 -0.0073088090815161119 -0.0017950856736002154 -0.0035778701619388364 -0.0085657798039559963 -0.0037640023306454527 0.002719790485120973 -0.0076329360916446197 -0.014547862703687063 -0.021111468387183027 -0.099813060788360455 -0.053956826151166738 -0.012713269336345543 -0.031332124053355448 -0.071019178593058438 0.030948581724638265 0.016014569474214879 0.0017565699772293692 -0.032491367375976687 -0.043846806953330014 0.013254346009916622 -0.026910082478536834 -0.0066122982223571344 -0.012049099071093194 -0.001379465420330481 -0.028591993474707044 -0.02442562847903762 -0.0099030570500478685 0.0026822631504057805 0.0027802372999091583 0.018368978079595276 0.0074297534048671796 -0.018670806159052224 -0.020367110745329649 -0.0027129156408935659 -0.00070157292474658619 -0.0063907270883583021 -0.025701139526657511 -0.020367110745329649 -0.056296935029391391 -0.018670806159052224 -0.0027129156408935659 -0.035014530773700529 -0.0014010304400204978 0.015480715851499571 0.0047668677079560342 0.007040309394862671 0.014411303750890505 -0.035014530773700529 -0.0014010304400204978 0.015480715851499571 0.007040309394862671 -0.051126049086679753 -0.0074839515156281599 -0.033944878740669461 -0.031298674079073406 -0.040525852007859291 0.0031196752458039242 -0.0074090432603867223 -0.031992423062655005 -0.033944878740669461 0.0031196752458039242 -0.031141889136980978 -0.015576594223899684 -0.0042336828991462227 -0.016880971852248888 -0.011377181086422028 -0.013193835791168456 -0.018010529605330894 -0.01289185696287856 -0.0066273524515972253 -0.016968543551208661 -0.0068998418628173222 -0.090150578024882355 -0.038974206470181627 0.00061309658676701414 -0.018033934148598819 -0.057764504488151659 0.044245385918277806 0.029334522164658178 0.015071267262207503 -0.019187900783437847 -0.030579060170048245 0.026588049132313347 -0.013609549436246675 0.0077627869733769206 0.0025132127932500884 0.013168636136040315 -0.014474332865371019 -0.0099197055570100501 0.0046212954093036657 0.017276117256920784 0.017156178029770038 0.032881078555328694 0.022211732837688219 -0.0052093227591474859 -0.0058024776850911395 0.011215488925241913 0.013988237771761983 0.0078819504109764269 -0.011798645368835105 -0.0058024776850911395 -0.042325677535767048 -0.0052093227591474859 0.011215488925241913 -0.02006975636567886 0.012884459107699019 0.029978209987763155 0.018510278235424501 0.020891197378656346 0.028727271469882174 -0.02006975636567886 0.012884459107699019 0.029978209987763155 0.020891197378656346 -0.036260036414718429 0.0067818477038696342 -0.020611853245052009 -0.017043090460609683 -0.026589974421191296 0.016957285453636589 0.00655627515204011 -0.017473505791894568 -0.020611853245052009 0.016957285453636589 -0.01714530136280586 -0.0012248009474825855 0.010147230609379486 -0.0024899496076230539 0.00286772692892533 0.0011443976934604676 -0.0036363962092410486 0.0010794106881150916 0.0075560486833607075 -0.0027477006305907594 -0.086065957737596524 -0.034462882731607782 0.0065359833083062898 -0.012074747098202965 -0.051856223660887442 0.050119107259973261 0.035229650137046965 0.020972888967817457 -0.013277963019314396 -0.024638393742319031 0.032476066952959161 -0.0077015393085780341 0.014234823663146127 0.0095003331970188315 0.019856409692368761 -0.0073202893301494874 -0.0034538168937829649 0.011231213325813741 0.023921183842411254 0.024018440023896883 0.038627048763915137 0.028543573637306318 0.00086843626188745637 0.0002598989061999463 0.017251440336577651 0.020102331022764725 0.013848939968091936 -0.0055765391237895907 0.0002598989061999463 -0.036462382134851527 0.00086843626188745637 0.017251440336577651 -0.013990394429092947 0.018947447541893859 0.036142178295346709 0.02441166367000519 0.026991645776061283 0.034914932033459092 -0.013990394429092947 0.018947447541893859 0.036142178295346709 0.026991645776061283 -0.030028179912882747 0.013135263791238415 -0.013605946558462242 -0.011167509867956617 -0.020396759911604206 0.023342490588238857 0.012811579909916203 -0.0110767417145135 -0.013605946558462242 0.023342490588238857 -0.010722940569082089 0.0051572786152576508 0.016537565044745319 0.0038932772385144462 0.0090752642986313033 0.0074701952451589858 0.0024610016510065828 0.0073030613649724537 0.013675642243990786 0.0035199341644746077 0.043929811322788385 0.073337568210868287 0.054984758594227912 0.014970647540852053 0.11659042086537369 0.10196192705055616 0.087604526695008914 0.05350367875143739 0.042299806802342105 0.099112492102606142 0.059055211206881696 0.093141755285802971 0.09286411341498152 0.10126968446363345 0.068572886356979446 0.074702911107903849 0.087382525296499924 0.10507968307969179 0.10266431877973296 0.11369214318014116 0.10384953076197141 0.06966680474294544 0.075367769038318197 0.086923183913278468 0.095262187800812678 0.08760807765248331 0.066778651541754552 0.075367769038318197 0.037853177122186749 0.06966680474294544 0.086923183913278468 0.060144635579689659 0.095987824524798385 0.10927442269959869 0.093188293590033514 0.096888228301954107 0.10726665807477918 0.060144635579689659 0.095987824524798385 0.10927442269959869 0.096888228301954107 0.047846584153256232 0.084712851868660399 0.062613393333847564 0.063755779141132105 0.052765989964411501 0.093297958110360291 0.084496106543072866 0.064077190692363589 0.062613393333847564 0.093297958110360291 0.063475819623758908 0.078676034575554346 0.089542673049352137 0.078564177918083386 0.082913974744140598 0.081190780485700859 0.07500546033680533 0.078627470389337165 0.085523286930055523 0.074753857877858224 0.033855184435698939 0.015287344930342639 -0.024631653844472298 0.077419763649814552 0.062622300155991309 0.048206619748831968 0.013983011261385084 0.0026705060221757899 0.059812370399812652 0.019541329450608377 0.043916772753365162 0.040899331516105565 0.049201139779078217 0.022853336029617619 0.028352939809306425 0.041253572631581886 0.053758161480733611 0.053254529535811994 0.067522481755655686 0.057137532241324507 0.029030079225025953 0.031034431470804324 0.046759151041910745 0.050585364721097391 0.043997533868023873 0.023469701871569798 0.031034431470804324 -0.0065646689986609301 0.029030079225025953 0.046759151041910745 0.017009432511994667 0.047784070012565523 0.065325232921907575 0.053519296485206369 0.056582884939072119 0.064525125632525035 0.017009432511994667 0.047784070012565523 0.065325232921907575 0.056582884939072119 0.0011539676870013567 0.043850142637510643 0.017126226047608013 0.019345516533811859 0.0093678753348203411 0.05266302996735673 0.041889140939921576 0.019291322810599153 0.017126226047608013 0.05266302996735673 0.019248694836560557 0.035826698901230698 0.046387145672754863 0.034760615551550141 0.039593848860286315 0.038053843077639413 0.032794930039594689 0.036597235405342619 0.043595167385227562 0.033303520228016983 -0.019326754305572322 -0.058624788656026418 0.043581148198220725 0.028666346706208278 0.014474776549832015 -0.020353521589572026 -0.033710520009271945 0.025928051625528914 -0.014489301981376998 0.006448815198153296 0.0017451280526223272 0.011215278866046147 -0.013757386592377914 -0.0096253846376249258 0.0035927538956134347 0.01499572628791763 0.015247391786655703 0.029995160251731729 0.019783868091007933 -0.0057123392162145908 -0.0058704468451018814 0.010078262150010835 0.012052940241460147 0.0066231665541983641 -0.011795504774613214 -0.0058704468451018814 -0.040194249492492597 -0.0057123392162145908 0.010078262150010835 -0.019307366805068327 0.01131872810593298 0.027333481169966367 0.017212389175194298 0.019315447738720345 0.02616517703703267 -0.019307366805068327 0.01131872810593298 0.027333481169966367 0.019315447738720345 -0.033254647016906162 0.0056434821106481686 -0.018589569733014354 -0.016591360342490945 -0.025334561538184572 0.015703362142181366 0.0055952766002260804 -0.01671086274567558 -0.018589569733014354 0.015703362142181366 -0.01640902670997885 -0.0018888002718830885 0.0087014408768911998 -0.0030157362766293559 0.0019346437206741167 0.00034161994438263051 -0.0041315046465932011 0.00035935294591682242 0.0063793130551071898 -0.0033600049756519978 -0.039931086426659719 0.062099336891810991 0.047276091034640033 0.033273292412189653 -0.0013216911091161164 -0.013048025226994357 0.044500790793311269 0.0043693481567216134 0.0251650568468995 0.020392745115050924 0.029835218032394584 0.0048185547259596119 0.0089607191793544486 0.022194440024425197 0.033605755630833928 0.033834429976427501 0.048698195284237113 0.038456924667981909 0.013000939827045777 0.01276401365756095 0.028709058326682316 0.030729935278235327 0.025243399854332702 0.0067801804813871188 0.01276401365756095 -0.021648954920724144 0.013000939827045777 0.028709058326682316 -0.00073060298701203548 0.029989090305216012 0.045985489178976012 0.035926494273681352 0.037975731693325694 0.044890485680272096 -0.00073060298701203548 0.029989090305216012 0.045985489178976012 0.037975731693325694 -0.014691876987065379 0.024234885728800778 -1.0258087747040586e-05 0.0019820094413191248 -0.0067575719346633202 0.034291931038141182 0.024213380758966816 0.0018640970339817969 -1.0258087747040586e-05 0.034291931038141182 0.0021732063440204437 0.016700349927043969 0.027287071109909623 0.015578698672245738 0.020529986315866354 0.018931779122896498 0.014467971318792692 0.018952621253938286 0.024989435952364331 0.015230725463959078 0.10165074877025258 0.086920936106506849 0.072705999336022994 0.038684846741694819 0.027513928537810216 0.084134609104646652 0.044294015768914723 0.06482185076044554 0.060113059388363387 0.069510094186133409 0.044597284408548578 0.048759470715156551 0.061894006967182363 0.073228442130759644 0.07349233403089056 0.088312465318693675 0.078065871876744145 0.053380457209546567 0.052649336321647554 0.068764818729239618 0.070461398898289951 0.065105829668662504 0.046607580203388899 0.052649336321647554 0.018258775657767391 0.053380457209546567 0.068764818729239618 0.039111477531919223 0.069615476641458979 0.085526403640215867 0.075749695435423425 0.077737206916878174 0.084467230361503567 0.039111477531919223 0.069615476641458979 0.085526403640215867 0.077737206916878174 0.025208399880368344 0.064030829563939642 0.039825817313593879 0.041887495898314385 0.033118434953189856 0.074160580573126508 0.064238346374142177 0.041713484330109574 0.039825817313593879 0.074160580573126508 0.041998478903862678 0.056471878440822687 0.067025593021191085 0.055385244340418228 0.060331852237749367 0.0587627001170564 0.054396450093835445 0.058922090910781134 0.064867736814867252 0.055121396356138712 -0.015232826018301936 -0.029164566727675933 -0.063317238415491098 -0.074555295193932961 -0.017808830374809823 -0.057744767968884003 -0.037200791249839577 -0.041902836504472248 -0.03242072773075351 -0.057327065017613227 -0.05326846209390107 -0.040037384588006757 -0.028599862036189846 -0.028348857746875625 -0.013636503522299051 -0.023850354065550614 -0.049413227405172816 -0.049549354787494469 -0.033633068413025533 -0.031635174950087337 -0.037026943147502329 -0.055393422310420826 -0.049549354787494469 -0.08357262263576215 -0.049413227405172816 -0.033633068413025533 -0.06298263974655216 -0.032303658439192952 -0.016285287820409673 -0.026506041826698083 -0.024372715252621246 -0.017506772360830539 -0.06298263974655216 -0.032303658439192952 -0.016285287820409673 -0.024372715252621246 -0.076753065411033328 -0.037994142589341445 -0.062170161340980447 -0.060158131426378547 -0.068852296370472327 -0.027934549992879119 -0.038043607173941389 -0.060276038111288351 -0.062170161340980447 -0.027934549992879119 -0.059921923330208508 -0.045480875958629076 -0.034941075428068194 -0.046657384326369254 -0.041720179939889045 -0.043278625623152871 -0.047754862783020234 -0.043257470201028179 -0.037271136548896924 -0.046964512100541006 -0.014239907948799859 -0.048493098077858926 -0.059718251814700501 -0.002814441571644313 -0.042852052749076497 -0.022265696357884973 -0.026995815275603224 -0.017484054135310564 -0.042437684908706447 -0.038352891130122239 -0.025105404641807435 -0.013674958609842068 -0.013423087869651405 0.0013196899978619161 -0.0089083183196317552 -0.034536113635307404 -0.03463907472082476 -0.018714345186335093 -0.016703396725363206 -0.022103279100142217 -0.040494789225839628 -0.03463907472082476 -0.068746348006202648 -0.034536113635307404 -0.018714345186335093 -0.048091899030964835 -0.017363976052777237 -0.0013347097527968675 -0.011550416342402845 -0.0094152748807888719 -0.0025379863100966223 -0.048091899030964835 -0.017363976052777237 -0.0013347097527968675 -0.0094152748807888719 -0.06195007514763614 -0.02309004806100572 -0.04727056217098332 -0.045271434972199646 -0.054003830638244842 -0.013011772180130747 -0.023149187160512688 -0.04539445417362184 -0.04727056217098332 -0.013011772180130747 -0.045040931662201487 -0.030571515402904505 -0.020015394456519009 -0.031769936220609286 -0.026793920660269973 -0.028365981357235972 -0.032869703716975798 -0.028344207405233402 -0.022359492604083212 -0.032072738718297904 -0.034337078914027576 -0.045559592787470578 0.011516464823423016 -0.028680342515720905 -0.0080143794604409183 -0.012710278119496557 -0.0032422468519824276 -0.028192021224930336 -0.02406370801322481 -0.010862634155351339 0.00053760228577370481 0.00079185390398783936 0.01552026124497133 0.0053165704631752816 -0.020118532348070286 -0.020318662947565621 -0.0044074501735834595 -0.0024336630758176221 -0.0078433319644013334 -0.026238846567092841 -0.020318662947565621 -0.054551448891604397 -0.020118532348070286 -0.0044074501735834595 -0.033729326011792383 -0.0031394268525892569 0.012869313093346617 0.0027452426804199497 0.0048394556706760836 0.011679354213106343 -0.033729326011792383 -0.0031394268525892569 0.012869313093346617 0.0048394556706760836 -0.047628476117429396 -0.0088100223601290436 -0.03300348248807284 -0.031022024398435651 -0.039714383481630151 0.0012284723647059768 -0.0088680828414579149 -0.031148245315422998 -0.03300348248807284 0.0012284723647059768 -0.030831908806220474 -0.016331205910162825 -0.0057578238775771173 -0.017457859301185819 -0.012518595109017159 -0.014108620143361233 -0.018567872846437409 -0.014088210372175372 -0.0080820550993233736 -0.017797371208015538 -0.011518736523523615 0.045781023638001732 0.0056159680887053519 0.026231188134270111 0.021542387722520599 0.030998622312252502 0.006052608618332754 0.010184932724754368 0.023377752899079781 0.034769745332250336 0.035028674843531026 0.049737261366401476 0.039546957289357074 0.014178338065707403 0.013948304113989266 0.029866461958151912 0.03181781763350712 0.026412448284187751 0.0080124052125173355 0.013948304113989266 -0.020338153023052672 0.014178338065707403 0.029866461958151912 0.00051360015436647264 0.031102573397216157 0.047084495768489908 0.037019338234916717 0.039099460088120312 0.045914818436792133 0.00051360015436647264 0.031102573397216157 0.047084495768489908 0.039099460088120312 -0.01340467436678979 0.025441316873690018 0.0012346905024950702 0.0032196571839921972 -0.0054942405306254672 0.035489905393213055 0.025381997364111036 0.0031053238985726205 0.0012346905024950702 0.035489905393213055 0.0034095421741456408 0.017908295300376239 0.02848546472438333 0.01678817021226504 0.021729920326214555 0.02014027358300342 0.01568123610700296 0.020161226912366007 0.026168824228978805 0.01644822318371408 0.056985508397427838 0.016984059889609375 0.037614827772952726 0.032879121864797085 0.042338786194237095 0.017379580935192568 0.021526264387331667 0.034700616445387071 0.046111700803883882 0.046335902295967235 0.061107226623925447 0.050940083766141814 0.025892716916418274 0.025323874063007096 0.041249321074232993 0.043268018667640955 0.037789342460549651 0.019334525076162061 0.025323874063007096 -0.0090520005279819144 0.025892716916418274 0.041249321074232993 0.01182572390163115 0.042427331582490853 0.058423433088215786 0.048337328651591349 0.050437530846439559 0.057296006779507774 0.01182572390163115 0.042427331582490853 0.058423433088215786 0.050437530846439559 -0.0020975954131022688 0.036793558295990673 0.012553442152912354 0.014546266826686123 0.0058268144483575104 0.046850730301392245 0.036745376514247509 0.014429959628693414 0.012553442152912354 0.046850730301392245 0.01474662855885559 0.029238713777380368 0.039817299860146441 0.028128671034985953 0.03306511084091393 0.031474170125705365 0.027027172862831003 0.031518276607080765 0.037549508219675988 0.027796157177264538 -0.040133866705490691 -0.019504377172042783 -0.024204451769257607 -0.014733460827067578 -0.039675712926248004 -0.03556728692209124 -0.022345491758930035 -0.010945518052983204 -0.010688884066935226 0.0040458688401282692 -0.0061721758688248448 -0.03167848065194722 -0.031881224728493106 -0.01593625608076189 -0.013934567114397231 -0.019345498169351005 -0.037723051037391347 -0.031881224728493106 -0.066007135108079942 -0.03167848065194722 -0.01593625608076189 -0.045228761373225047 -0.014626507443261957 0.0013934905206429507 -0.0087714129752326179 -0.0066599416673914372 0.00019791328613618354 -0.045228761373225047 -0.014626507443261957 0.0013934905206429507 -0.0066599416673914372 -0.059135525707193069 -0.020334488114385846 -0.044502342679566494 -0.042495952235938071 -0.051197727306591966 -0.010264777859769508 -0.020363656552392678 -0.042633300849400944 -0.044502342679566494 -0.010264777859769508 -0.042300563530781495 -0.027825723060147786 -0.017254159410204171 -0.028970029362884887 -0.024017960863474807 -0.02560600633383826 -0.030066363188794815 -0.025585144988922864 -0.019587452486451658 -0.029301685676250008 0.02065284319801354 0.015962096787105039 0.025421670252812431 0.00047884625584530263 0.0046050133435376625 0.017813280575441116 0.029202176217105705 0.029456330268661918 0.044149172753238895 0.033977959785642088 0.008557649273452329 0.0083649009383487249 0.024257485159986481 0.026236338318874192 0.020829122256972168 0.0024339879826154806 0.0083649009383487249 -0.02591468318745992 0.008557649273452329 0.024257485159986481 -0.0050651576236786068 0.025523316547425901 0.041514862736843926 0.031414668975588485 0.03350132980089935 0.040320757187635642 -0.0050651576236786068 0.025523316547425901 0.041514862736843926 0.03350132980089935 -0.018973059325422637 0.019857356066136863 -0.0043447154817053578 -0.0023568816562504016 -0.011066317496445426 0.029897485778037813 0.01980839466575781 -0.0024709922694996548 -0.0043447154817053578 0.029897485778037813 -0.0021656968281735683 0.012332753795837132 0.022908530080216566 0.011211350696734632 0.016154198291367518 0.01456378643144497 0.01009690581621174 0.014578793513858518 0.020588699105442237 0.010866616595274645 -0.0051505099654095181 0.0053559842016543688 -0.021367485289739318 -0.017214059248769998 -0.0030865702423797212 0.0092397230054800782 0.0096972252874823368 0.024998851460732597 0.014323103421735296 -0.012456375743289817 -0.013875230860575937 0.0037138262490740113 0.0059116140670558391 0.0002394159996466406 -0.019303610110131396 -0.013875230860575937 -0.05113615288279643 -0.012456375743289817 0.0037138262490740113 -0.027701040755837483 0.0050420001226150974 0.022031452100040302 0.011080947315641942 0.013381936467868775 0.021116352885426435 -0.027701040755837483 0.0050420001226150974 0.022031452100040302 0.013381936467868775 -0.043698898706695626 -0.00081008136470017385 -0.027935164936292726 -0.025022285190328532 -0.034554000970247391 0.0094885334711633084 -0.00085423694410577302 -0.02492957381345989 -0.027935164936292726 0.0094885334711633084 -0.024387195415962178 -0.0088661955972102365 0.0024759909670298329 -0.01011048217756616 -0.0047352795542427648 -0.0064222061540877345 -0.011113804236257583 -0.0064145109265689145 -5.0796390235692271e-05 -0.010221179828236497 0.010579476688734357 -0.016703868802305583 -0.01281031293399517 0.0018447107786261588 0.014526196665797726 0.014763687624048435 0.030304196764628772 0.019311605581501714 -0.00757059457900746 -0.0087863696281397004 0.0087165039210002418 0.011215348099529295 0.0051412661949173195 -0.014558519061312655 -0.0087863696281397004 -0.045857768110233836 -0.00757059457900746 0.0087165039210002418 -0.023186026384005434 0.0103495407108026 0.027134872865541271 0.016062232611763937 0.018586720433201923 0.026245550492722675 -0.023186026384005434 0.0103495407108026 0.027134872865541271 0.018586720433201923 -0.038979204756121391 0.0041200188559992424 -0.022787714996809066 -0.020172951335301524 -0.029407080841484901 0.014345624384236791 0.0040146930881957282 -0.020045079272815201 -0.022787714996809066 0.014345624384236791 -0.019665707679709588 -0.0038178351633378735 0.0074646389318787513 -0.0052781910158431339 0.00020025744312539059 -0.001501909421463744 -0.0063049906331717814 -0.0015143485419668236 0.004901528665681552 -0.0053419852817527804 -0.027292035573020252 -0.023077281376110755 -0.0084263034930781421 0.0041043507735194487 0.0043300987421863368 0.019758792927583906 0.0092818209617227653 -0.017241707377957192 -0.018615667237757361 -0.0012365384042618657 0.00094366066744544389 -0.0049811279657749254 -0.024392111822605773 -0.018615667237757361 -0.05584588968689657 -0.017241707377957192 -0.0012365384042618657 -0.032771851592712002 5.3264872645029727e-05 0.017304794123734188 0.0061235494637880659 0.008355573726290073 0.015869861557122052 -0.032771851592712002 5.3264872645029727e-05 0.017304794123734188 0.008355573726290073 -0.050080495183061534 -0.00585707631643681 -0.033243432938739846 -0.030181693860079156 -0.039812553555448403 0.0046410536225640229 -0.0059881898424876236 -0.030302633725589532 -0.033243432938739846 0.0046410536225640229 -0.030284046914219476 -0.013995914627461824 -0.0025441748481993126 -0.015271414113720778 -0.0099827509945477656 -0.011527843633912455 -0.016348989426686045 -0.011502768331946323 -0.0050877328712386804 -0.015218159399069465 0.0051476405906409305 0.019312023452756125 0.030956069377587696 0.031502860198327272 0.045483788035240634 0.035472613887030442 0.008192947595552379 0.0081488155041040209 0.024496146183304493 0.027692660469068018 0.02135265525762987 0.002079001065982607 0.0081488155041040209 -0.028302528642745878 0.008192947595552379 0.024496146183304493 -0.0060731004073160226 0.026010266486910721 0.043941999687472595 0.031465067850666183 0.03416957559387504 0.041590779573333778 -0.0060731004073160226 0.026010266486910721 0.043941999687472595 0.03416957559387504 -0.022447130889489842 0.020626006317281807 -0.0055828764233787328 -0.0030812496662238182 -0.012838429520218145 0.030424607270115627 0.020082272844235791 -0.003268020006017296 -0.0055828764233787328 0.030424607270115627 -0.003036761945255997 0.013035528307559692 0.02437319914044846 0.011705344171752114 0.016835319712362819 0.015203739148585532 0.010184049945398592 0.014849292608974012 0.021241527532546985 0.011036460194920132 0.01428852783291829 0.0265478769578367 0.027456880106647027 0.041878780261705904 0.031238488408088849 0.0040408599445882331 0.0038944776510678528 0.020545237550595934 0.023896891917778423 0.017853112925070986 -0.0023404206726622165 0.0038944776510678528 -0.033470100880207652 0.0040408599445882331 0.020545237550595934 -0.010728445228392799 0.022028741313344914 0.040070819199533973 0.027723680705822002 0.030402258996072989 0.038029886777619218 -0.010728445228392799 0.022028741313344914 0.040070819199533973 0.030402258996072989 -0.027359727172556445 0.016608058500218181 -0.011237687144147935 -0.0078216453186146662 -0.017631876543917565 0.026176840967002287 0.016035122931174917 -0.0078046648106518081 -0.011237687144147935 0.026176840967002287 -0.0074869382116089902 0.0085741374822690015 0.020406574317776774 0.0073695413190046069 0.012863891773532797 0.011180233494945792 0.0061024417820130933 0.010659839372006394 0.017258546376012231 0.0067388203028275985 0.012151430292329938 0.012667527937480732 0.027553728061245761 0.017115429223250798 -0.0094368912836238928 -0.010304142030457855 0.0066086948271644125 0.0091200656361396012 0.0030604441080054907 -0.016126852438085888 -0.010304142030457855 -0.046334917466314463 -0.0094368912836238928 0.0066086948271644125 -0.024880237752529507 0.0081301490998248512 0.025835927038485359 0.013853673243939107 0.016167535348884834 0.023781270943573907 -0.024880237752529507 0.0081301490998248512 0.025835927038485359 0.016167535348884834 -0.041413013563832472 0.0022009396941749613 -0.024457226524003464 -0.021929394333825916 -0.030700608977209776 0.012462659477368437 0.002068080469843248 -0.022109448722343741 -0.024457226524003464 0.012462659477368437 -0.021560048522867161 -0.005842337303217403 0.0055175306781268469 -0.0071134585489872363 -0.0017601705235527011 -0.0034599018526776082 -0.0080832938141943856 -0.0033950364626600372 0.0029206184471618365 -0.0072386529950811511 0.000206693212339885 0.015474869042237735 0.0051683416397419633 -0.020945613832495647 -0.022896379121163851 -0.0051056487277117589 -0.0032672748150121074 -0.0090205867328128075 -0.02824958414632096 -0.022896379121163851 -0.059763026442561505 -0.020945613832495647 -0.0051056487277117589 -0.036174140575179779 -0.003936355178173403 0.012970418108713279 0.002235198752006872 0.0043990197482602052 0.011675921722238828 -0.036174140575179779 -0.003936355178173403 0.012970418108713279 0.0043990197482602052 -0.053792074638866767 -0.0098047272504882665 -0.03702061303830384 -0.034230544411544737 -0.043722290628432768 0.00068944229926786642 -0.009785734507122109 -0.034764067955406215 -0.03702061303830384 0.00068944229926786642 -0.033960827763688882 -0.017984039597848903 -0.0066522318578716736 -0.019132844284801585 -0.013808751371466033 -0.015566634574941667 -0.020069229572522197 -0.015386407901320334 -0.0090109631631675718 -0.019223571754023793 0.015312893811131212 0.004819713481588616 -0.02113416931245685 -0.022645537821581681 -0.0053509755318832562 -0.0036096680715680062 -0.0091458274526261072 -0.028970021583456799 -0.022645537821581681 -0.060213578128048235 -0.02113416931245685 -0.0053509755318832562 -0.037125721660755569 -0.0043367148120685749 0.012902570423924476 0.001980535994329949 0.0041772281856690954 0.011430462894893764 -0.037125721660755569 -0.0043367148120685749 0.012902570423924476 0.0041772281856690954 -0.053627051170575597 -0.0099801575590302855 -0.03825744282189255 -0.034500186932074961 -0.044343326907257896 0.00041798031876386717 -0.010091061080675885 -0.034752405171648217 -0.03825744282189255 0.00041798031876386717 -0.034359275912800122 -0.018389121617233564 -0.0069388174050017898 -0.019448577265702982 -0.014221402303802687 -0.015868473796473253 -0.020402397162349022 -0.01560112978999135 -0.0092706900883322129 -0.019510489266737412 -0.010473260619317972 -0.036239974369562021 -0.038647410600876321 -0.02077241245832832 -0.01912049517864273 -0.024793742789653416 -0.044463710996876106 -0.038647410600876321 -0.075707660296098864 -0.036239974369562021 -0.02077241245832832 -0.052573563585462578 -0.019788875711792459 -0.0027415799615443334 -0.013139806392013891 -0.010979110882097956 -0.0040539270730585537 -0.052573563585462578 -0.019788875711792459 -0.0027415799615443334 -0.010979110882097956 -0.06834170408619035 -0.025429268918794354 -0.052435481790171899 -0.049518884119871286 -0.059810588961498802 -0.014793179014419634 -0.025886296840282864 -0.049355944005048287 -0.052435481790171899 -0.014793179014419634 -0.049382587940964451 -0.033590940398366784 -0.022610998804295013 -0.035073637294041615 -0.029503070102695553 -0.031250503854286814 -0.036244890691926157 -0.031080375010422896 -0.025179523114848584 -0.035218114817766329 -0.026042311763905295 -0.027870056709171045 -0.010170288320978606 -0.0084920204125961078 -0.013929802169170079 -0.033101997982568708 -0.027870056709171045 -0.064126669266298147 -0.026042311763905295 -0.010170288320978606 -0.041729863416419349 -0.0089837688033601905 0.007912600586023848 -0.0026410885621481355 -0.00048997241110438586 0.0067997572203711667 -0.041729863416419349 -0.0089837688033601905 0.007912600586023848 -0.00048997241110438586 -0.058710469000653132 -0.014926896603505104 -0.041756522419397063 -0.03851333529908918 -0.048186683174103524 -0.0042501594347184842 -0.014832503453377777 -0.038989924837644047 -0.041756522419397063 -0.0042501594347184842 -0.038762393911195785 -0.022780623675136554 -0.011681477851265295 -0.024219017050904897 -0.018684028155791569 -0.020448950164203641 -0.025260768929126293 -0.020514852708521849 -0.014397840696836741 -0.024212924032180654 -0.00020836838526890124 0.016081958439259799 0.018529450630994284 0.01267184240186893 -0.0062235722220846112 -0.00020836838526890124 -0.035180894821839399 0 0.016081958439259799 -0.013897336863672819 0.017191293599736982 0.033542909720148367 0.023170686983934364 0.025392684461891749 0.032549681821927905 -0.013897336863672819 0.017191293599736982 0.033542909720148367 0.025392684461891749 -0.028400477941707691 0.011680872890956538 -0.013292770343655225 -0.011223292977734578 -0.020153841321191732 0.021857621282073223 0.01149609593032057 -0.011369128070201823 -0.013292770343655225 0.021857621282073223 -0.010946498525780736 0.0038498139135323176 0.014688500747394523 0.002725077792808896 0.0078190395082476365 0.0061931719286765184 0.001593711465606356 0.0062094419077761464 0.012353785738335956 0.0024077225986394511 0.017229044549774728 0.020491693487756427 0.014766382793426689 -0.0061448062035697366 0 -0.036976759466244763 0.00020801185311730163 0.017229044549774728 -0.01452591210882774 0.01915737763623299 0.035626292724224379 0.02500931430622207 0.027640223948264417 0.035378307359119288 -0.01452591210882774 0.01915737763623299 0.035626292724224379 0.027640223948264417 -0.030681665678136794 0.013271748157469551 -0.013783058674115098 -0.010999584079805497 -0.021360222728239054 0.02346192194777454 0.013433728828908802 -0.011802670654154523 -0.013783058674115098 0.02346192194777454 -0.01126054824665372 0.0046267799430540976 0.015988437672626376 0.0040049767541480343 0.0086671999127786118 0.0075162348858423223 0.003134328989639076 0.0073320549475983316 0.013552707434302376 0.0028208229640942317 0.0020990776949347421 -0.0034058512231778617 -0.023425130224873178 -0.017236084761030526 -0.054155164602172928 -0.016081273205754674 0 -0.03148793891310233 0.0013244267104545789 0.017856125431950195 0.007554146302868151 0.0099602826904129499 0.017069493126650164 -0.03148793891310233 0.0013244267104545789 0.017856125431950195 0.0099602826904129499 -0.046639591170758686 -0.0046452177060397103 -0.031071341380749792 -0.028212887289092412 -0.038584204404964205 0.0061113306276550138 -0.0046717270547815227 -0.028503388843901609 -0.031071341380749792 0.0061113306276550138 -0.027999741537821195 -0.012630627531902168 -0.0013587400108383179 -0.013912931394966235 -0.0085898011100988443 -0.010280214142169501 -0.015463549175022399 -0.010572802145790051 -0.004088790846370728 -0.014518682080514546 -0.005633744067934765 -0.025727080213794537 -0.020495227062180134 -0.058242617459918038 -0.018530305532196704 -0.0020990776949347425 -0.034177365185297313 -0.00074334120457728947 0.016173235659012016 0.0054243925589645969 0.0077520875346334265 0.015300677570820072 -0.034177365185297313 -0.00074334120457728947 0.016173235659012016 0.0077520875346334265 -0.051764160180811702 -0.0067029547818542 -0.034904410899940452 -0.031605959616967917 -0.042089182498189048 0.0038645236648797011 -0.0071740514198843216 -0.031750225361001076 -0.034904410899940452 0.0038645236648797011 -0.030859678765171466 -0.014918088703624814 -0.0032828161742290674 -0.016269047999368898 -0.010842455680937188 -0.012495932375197721 -0.017681469888201615 -0.012680174944647555 -0.0059903327252904147 -0.016675058402538499 -0.020184862337329818 -0.014756837619004259 -0.053359737188250544 -0.012670857652745856 0.0034065155749631176 -0.028605569298154509 0.0049120402275329026 0.021894452471749471 0.011170189426474034 0.013515890964802746 0.020803146659777439 -0.028605569298154509 0.0049120402275329026 0.021894452471749471 0.013515890964802746 -0.044926353598782921 -0.0011801149449628327 -0.029123675643134252 -0.02609891427334152 -0.036192382874226145 0.0096968187447218929 -0.0011406080251600435 -0.026146865011359665 -0.029123675643134252 0.0096968187447218929 -0.025799806835025391 -0.0093529096987662198 0.0023052224243696987 -0.010735719280174026 -0.0052555400793676517 -0.0071020721041842568 -0.011769748206177174 -0.0066577197501869433 -0.00031037604982916934 -0.010816947108886471 0.0061442323800102866 -0.033646555163164449 0.0062225654151319568 0.02342458237963933 -0.0084501953301275579 0.024593858196177622 0.040686521151433709 0.03002604970621962 0.032826642675878447 0.039880509501618804 -0.0084501953301275579 0.024593858196177622 0.040686521151433709 0.032826642675878447 -0.024154136520977861 0.018730348601387319 -0.0086866074854058395 -0.005183574810832133 -0.016999311751638768 0.028478373676339753 0.018748354525449176 -0.0059545441243055346 -0.0086866074854058395 0.028478373676339753 -0.0052345507214699187 0.010930791123654622 0.022521311683961237 0.0095516225694603791 0.015074062375518128 0.013341404162627584 0.0089507050351567679 0.013090385223141534 0.020005823864723632 0.0093984917577815078 -0.036976759466244763 0.00020801185311730163 0.017229044549774728 -0.01452591210882774 0.01915737763623299 0.035626292724224379 0.02500931430622207 0.027640223948264417 0.035378307359119288 -0.01452591210882774 0.01915737763623299 0.035626292724224379 0.027640223948264417 -0.030681665678136794 0.013271748157469551 -0.013783058674115098 -0.010999584079805497 -0.021360222728239054 0.02346192194777454 0.013433728828908802 -0.011802670654154523 -0.013783058674115098 0.02346192194777454 -0.01126054824665372 0.0046267799430540976 0.015988437672626376 0.0040049767541480343 0.0086671999127786118 0.0075162348858423223 0.003134328989639076 0.0073320549475983316 0.013552707434302376 0.0028208229640942317 0.035180766938401671 0.054154926480461441 0.023653699995597091 0.054946918403896296 0.071105247549024905 0.058836656854903753 0.061993372982926696 0.069950706302088078 0.023653699995597091 0.054946918403896296 0.071105247549024905 0.061993372982926696 0.008304942226146788 0.049299886692138507 0.023911978899458453 0.026604430932218644 0.01775596834332788 0.05935754835828682 0.050092597293940895 0.026971272390991161 0.023911978899458453 0.05935754835828682 0.027997890040152348 0.043071517865587917 0.053937662369403006 0.040734028234812147 0.046517974037635551 0.04504631238025502 0.04088079610188592 0.046430968832755153 0.051769651577725256 0.042351873650413735 0.016081958439259799 -0.013897336863672819 0.017191293599736982 0.033542909720148367 0.023170686983934364 0.025392684461891749 0.032549681821927905 -0.013897336863672819 0.017191293599736982 0.033542909720148367 0.025392684461891749 -0.028400477941707691 0.011680872890956538 -0.013292770343655225 -0.011223292977734578 -0.020153841321191732 0.021857621282073223 0.01149609593032057 -0.011369128070201823 -0.013292770343655225 0.021857621282073223 -0.010946498525780736 0.0038498139135323176 0.014688500747394523 0.002725077792808896 0.0078190395082476365 0.0061931719286765184 0.001593711465606356 0.0062094419077761464 0.012353785738335956 0.0024077225986394511 -0.03148793891310233 0.0013244267104545789 0.017856125431950195 0.007554146302868151 0.0099602826904129499 0.017069493126650164 -0.03148793891310233 0.0013244267104545789 0.017856125431950195 0.0099602826904129499 -0.046639591170758686 -0.0046452177060397103 -0.031071341380749792 -0.028212887289092412 -0.038584204404964205 0.0061113306276550138 -0.0046717270547815227 -0.028503388843901609 -0.031071341380749792 0.0061113306276550138 -0.027999741537821195 -0.012630627531902168 -0.0013587400108383179 -0.013912931394966235 -0.0085898011100988443 -0.010280214142169501 -0.015463549175022399 -0.010572802145790051 -0.004088790846370728 -0.014518682080514546 0.032483459210463417 0.050107040649812751 0.039056925963469984 0.042198464228224521 0.048406934710367285 0 0.032483459210463417 0.050107040649812751 0.042198464228224521 -0.016156072251596966 0.027373377366874233 0.00047918701124744146 0.0032610572711306864 -0.0073307952697977017 0.03651502276709593 0.027289034752120161 0.0026833489984131459 0.00047918701124744146 0.03651502276709593 0.0031794041298481407 0.019755691570128086 0.031749667512564007 0.018234145953919135 0.024527219230885799 0.022267896591884145 0.016822210411970601 0.02147079035617221 0.028224832713595382 0.017676686571698921 0.017014093981197076 0.0060458178079945343 0.0082723638882595974 0.015712537384671158 -0.0324857456401745 0 0.017014093981197076 0.0082723638882595974 -0.048242678649654765 -0.0058416916170140618 -0.032672506987833853 -0.029797065179288637 -0.039052803332622718 0.0044538932547761806 -0.0060155164486726245 -0.029882847944232238 -0.032672506987833853 0.0044538932547761806 -0.028948779046261419 -0.013787311899268165 -0.0026892222789781256 -0.015102646671441811 -0.0098276872564611872 -0.011515386564537515 -0.01608578301483472 -0.011339805553253564 -0.0052078581507449435 -0.015175365268485048 -0.010378477958247886 -0.0082898553402932732 -0.0012642747412285481 -0.050098111271879964 -0.017014200153966829 0 -0.0082898553402932732 -0.06645898461368259 -0.022764687356782498 -0.051002059020838257 -0.047272540977320698 -0.055745737468476241 -0.012019425799662352 -0.022447404429801022 -0.047542244594841333 -0.051002059020838257 -0.012019425799662352 -0.047500372485352528 -0.031391376161755392 -0.019707015621949615 -0.032474220405089405 -0.02697202884703508 -0.028905776120799656 -0.032883459304642093 -0.028383154492236749 -0.021801893435525712 -0.0321996370618731 0.0021602858934417287 0.0093876449420211439 -0.039053564773779394 -0.006044055829538003 0.01037839873721063 0.0021602858934417287 -0.052455765474696346 -0.01212318077431688 -0.037328551470623798 -0.035053090428864134 -0.044261049062097539 -0.0016002401098506713 -0.01219370305790019 -0.03505847169063845 -0.037328551470623798 -0.0016002401098506713 -0.034687122284724488 -0.019883234059782321 -0.008844990874696335 -0.021203868880595209 -0.016086786635893489 -0.017716381097155735 -0.02249028898810311 -0.01744837082695851 -0.011375984914182102 -0.021526532278593052 0.0071898022291523025 -0.042204356901703349 -0.0082723638882595974 0.0082907506735532838 0 -0.055621844505528865 -0.014673159575546735 -0.040758321450888264 -0.03794473073954225 -0.047190114890269891 -0.0038489457205872803 -0.014581638663015206 -0.037851650476796138 -0.040758321450888264 -0.0038489457205872803 -0.037715771304802116 -0.022569260391340714 -0.011238937148889626 -0.02397781046331468 -0.018879505122305639 -0.020367228190496339 -0.025535383602389976 -0.020029202143243979 -0.014046132781350572 -0.024233787695532402 -0.048406934710367285 -0.015716370810735087 0.001264253620876746 -0.0071917899263029342 -0.064047060567609435 -0.021573957287820866 -0.048286927489805086 -0.0458373207868105 -0.054576507250789892 -0.01087402539273355 -0.021976829242872337 -0.045626163894186778 -0.048286927489805086 -0.01087402539273355 -0.0448312305395605 -0.029726591022244109 -0.018369486192657852 -0.03124736237089026 -0.025722781489724202 -0.027363508482828938 -0.032084012769286116 -0.027195659553789192 -0.02088278746662044 -0.03100225348071324 0.032483459210463417 0.050107040649812751 0.042198464228224521 -0.016156072251596966 0.027373377366874233 0.00047918701124744146 0.0032610572711306864 -0.0073307952697977017 0.03651502276709593 0.027289034752120161 0.0026833489984131459 0.00047918701124744146 0.03651502276709593 0.0031794041298481407 0.019755691570128086 0.031749667512564007 0.018234145953919135 0.024527219230885799 0.022267896591884145 0.016822210411970601 0.02147079035617221 0.028224832713595382 0.017676686571698921 0.017014093981197076 0.0082723638882595974 -0.048242678649654765 -0.0058416916170140618 -0.032672506987833853 -0.029797065179288637 -0.039052803332622718 0.0044538932547761806 -0.0060155164486726245 -0.029882847944232238 -0.032672506987833853 0.0044538932547761806 -0.028948779046261419 -0.013787311899268165 -0.0026892222789781256 -0.015102646671441811 -0.0098276872564611872 -0.011515386564537515 -0.01608578301483472 -0.011339805553253564 -0.0052078581507449435 -0.015175365268485048 -0.0082898553402932732 -0.06645898461368259 -0.022764687356782498 -0.051002059020838257 -0.047272540977320698 -0.055745737468476241 -0.012019425799662352 -0.022447404429801022 -0.047542244594841333 -0.051002059020838257 -0.012019425799662352 -0.047500372485352528 -0.031391376161755392 -0.019707015621949615 -0.032474220405089405 -0.02697202884703508 -0.028905776120799656 -0.032883459304642093 -0.028383154492236749 -0.021801893435525712 -0.0321996370618731 -0.055621844505528865 -0.014673159575546735 -0.040758321450888264 -0.03794473073954225 -0.047190114890269891 -0.0038489457205872803 -0.014581638663015206 -0.037851650476796138 -0.040758321450888264 -0.0038489457205872803 -0.037715771304802116 -0.022569260391340714 -0.011238937148889626 -0.02397781046331468 -0.018879505122305639 -0.020367228190496339 -0.025535383602389976 -0.020029202143243979 -0.014046132781350572 -0.024233787695532402 0.044256770886085761 0.017024755592758171 0.019493955519728982 0.0089601784706894172 0.053254700811068832 0.042751506677377517 0.018882721607459681 0.017024755592758171 0.053254700811068832 0.019975686498877033 0.036112386762688319 0.048293760669575692 0.035951503343543877 0.040158020959659306 0.038692711235749778 0.03347113349991581 0.038658272087331427 0.044590410013312605 0.034075741162845063 -0.027465933779163773 -0.024139078351735607 -0.034363605904897267 0.010970325202348299 -0.00023977892668614718 -0.025270891386676399 -0.027465933779163773 0.010970325202348299 -0.024452309560964423 -0.00826218484560662 0.0034627011434255599 -0.0098165381863934992 -0.0040699759255371989 -0.0059373899353053249 -0.011043244393615904 -0.0061104060438428578 0.00060647109597177895 -0.010061577426054893 0.0023761730206102055 -0.006674728037568709 0.036413406945331954 0.027150642955526258 0.0025293265548139276 0 0.036413406945331954 0.0031535417482083474 0.020176390479438852 0.031506074350253425 0.017843440455640489 0.023889377187473054 0.022176457179942575 0.017667594438974674 0.022174166988577115 0.028882989581106449 0.017753779060788219 -0.009728172475022662 0.034646163216351174 0.024747341987538123 -0.00087547711341603594 -0.002377030811377297 0.034646163216351174 -2.7338579153561268e-05 0.016537191014756238 0.027973597763015876 0.015733849567973631 0.020849802046883442 0.019298394175810651 0.014026594833532696 0.019339886632154368 0.024779864920814191 0.014597466669510199 0.044195752404873029 0.033893040305964468 0.010558864264487917 0.006652514798637898 0.044195752404873029 0.010438349171776743 0.026689699195636202 0.037979020291876775 0.025098374759709954 0.029837610759997957 0.028352910155210909 0.025336735045512149 0.029337802993499588 0.036627919525677545 0.02597112491792199 -0.010772233049413242 -0.035411477100069283 -0.036424126165199654 0 -0.033636102306982163 -0.018353740979968166 -0.0073468478595231984 -0.020187817180299841 -0.014321146601457205 -0.016213244010129104 -0.021410076675623224 -0.016744475523891234 -0.0098759022057329868 -0.020467068926994729 -0.024764213756391883 -0.027139200032159815 0.010770080818006974 -0.023193469121079391 -0.0077851125336634948 0.0034573124862179935 -0.0095512545096906303 -0.0039089934029726504 -0.0057027620517169685 -0.01042812766911363 -0.0062782838903792772 0.00068015902212830305 -0.0098558755001735623 -0.0025511181473916685 0.035412402056847696 0.00057328189849425884 0.016871283232879151 0.029129976524793499 0.016014019972019327 0.021141294666899502 0.020085065309000314 0.014500535831324247 0.019587249975057928 0.025425975746028579 0.01609118031940875 0.036413406945331954 0.0031535417482083474 0.020176390479438852 0.031506074350253425 0.017843440455640489 0.023889377187473054 0.022176457179942575 0.017667594438974674 0.022174166988577115 0.028882989581106449 0.017753779060788219 -0.033636102306982163 -0.018353740979968166 -0.0073468478595231984 -0.020187817180299841 -0.014321146601457205 -0.016213244010129104 -0.021410076675623224 -0.016744475523891234 -0.0098759022057329868 -0.020467068926994729 0.016969819715841276 0.028116486947785142 0.014937883546645827 0.020241269151572011 0.018948418991011354 0.013673966991940949 0.018538500059048023 0.025295623068411498 0.014684786784220425 0.01180967841670205 -0.0013309756469732251 0.0041565511531725377 0.0024033209172826496 -0.0024981772604076549 0.0023159170271088467 0.0089728895644037628 -0.00146559463659524 -0.012962692351343189 -0.0076773466815267142 -0.0093840963624224616 -0.014150677034802139 -0.0091943884151625081 -0.0026821869110343721 -0.013552080208928558 0.0054966024947366576 0.0040908816029166508 -0.0013205452794562099 0.0034751869154729998 0.010377304754561303 -0.00042288083289920424 -0.0017180528348381332 -0.0064965189877016936 -0.0019104603938875999 0.0047306795506229108 -0.0056453831474489674 -0.0047377988418156793 -1.6797240462311845e-05 0.0065402136512142071 -0.0040139026304006568 0.0051253192116428219 0.012002078981699431 0.00067135047925066804 0.006740838866204503 -0.0043451329900136065 -0.010834374145789914
label 0 1 2 3 4 5 6 7 8 9 10 11 12 13 14 15 16 17 18 19 20 21 22 23 24 25 26 27 28 29 30 31 32 33 34 35 36 37 38 39 40 41 42 43 44 45 46 47 48 49 50 51 52 53 54 55 56 57 58 59 60 61 62 63 64 65 66 67 68 69 70 71 72 73 74 75 76 77 78 79
probA 4.4534550500294401 7.016885662203066 6.6710192557536496 7.2108537255023464 5.3437918449937687 7.4545584351053158 7.6598904136331152 6.5471356053917926 7.9522192835746397 7.0339403966915253 6.5309183629777108 7.2645833738303685 6.8155470035192112 4.3060722803652087 6.8866409104309367 7.5073515019581176 6.8801357138796524 6.2104378798037985 7.1460537216912758 4.3994636351927916 0.51893586999230845 6.071539454515734 4.9366483563782708 6.4180274810178508 5.5544757148545534 5.8801910441194503 -5.6878855067346734 5.2607069504644031 5.7446735285903543 4.5301183101600007 4.3623925126202021 7.5697783302477273 4.9735285315828426 7.3649487506369562 4.8096269521334367 7.701429466274325 4.6655979170240744 7.3468086260527796 7.7091339324801593 5.5203942438588696 7.5418406905471294 7.1181420845664718 4.576381402421581 4.8017899058745224 5.2257441191514413 4.8895895817168471 6.2499160806996885 5.5339656232931196 5.0942348318209278 8.7036791450920461 7.8109637964015857 7.1060545876472867 4.9820463094134251 4.7528116722765361 6.8669451369530456 7.1528382792836949 7.8680543814792854 4.5028807919720908 4.7917511813462408 4.9776758572061279 6.9379076686631604 7.0345919356616795 5.0707270656437524 7.6980511244598802 7.7229712215314672 4.9400889648194557 4.9844796967555736 7.6233892980463693 5.019588202718559 5.0786479773536088 7.1580229714130867 4.7449334668237908 6.7990616684204843 7.557090481693618 4.7398939877715609 7.4928437122742526 7.8106306303666768 7.3579459770635269 7.7575605240333898 8.1090971533173963 6.5142416522968656 7.3130009516954848 6.4506017038298813 5.0267860315186379 6.8250653257525977 5.195621274733452 7.6031712189173684 4.8988701344886669 6.5662498143218215 7.0241054159542564 8.4303345299129493 8.542912277757134 4.7049822555824639 4.3462541633019427 6.3233253637037894 7.5528807931309707 5.6859977696953186 -5.1814335686035173 -10.904854563530677 -11.337480576706517 5.5823494253846375 3.9301250039889979 5.7322582414278012 -11.061339197376771 -10.616076705665506 2.8102787953968997 -10.263697791043136 8.4022896922141275 7.5827661564552846 7.7525913139920579 7.5037008964395033 7.8558053780624784 9.0237747061879681 5.0255941666173598 4.730898700677864 4.9127950538093019 4.9717852885767702 0.0018822818849326406 6.9553148614649878 5.5745200343295043 7.0321523312748049 5.1347678675390087 6.8528967454947392 6.6620871838751388 1.7563722078153248 0.061459979513097951 5.1293752032618363 6.8454528881436971 7.2842786147090246 4.9620032433681915 5.4039946285361173 5.2253321268273707 6.6106578703576382 5.2379172915503496 5.1596358396196544 4.9620931097217431 7.2985902029322052 5.0908440538817716 7.2829164475037809 5.5757097437576686 5.6195119776780746 6.2019161448468267 5.3013560442414986 6.059606438871417 5.5400286715467217 6.9291557286730203 5.9036565797434255 5.180341711100561 8.130402100315262 5.0342448965828384 7.560925887321277 6.1305944996231068 6.5382697064924402 6.9783966475063943 5.7002455948823156 8.344834506007329 5.2972349752714889 7.0126612781959725 5.0348225999674749 8.3994469532406555 8.1841540451716206 4.5848265821743768 -4.4839595327117143 7.3515324848327301 6.9622245188183349 4.7240178744841232 4.7505929917426251 8.9794779386676442 7.0357924216533627 7.9164973361159845 7.7260030699302469 6.9147548337755786 4.5644634492721927 5.2971026920076785 6.031826384288558 -10.733414197558673 -9.9031714554199741 5.6800277488690769 5.9441970757755742 6.1507112244273747 -12.836269627345464 -11.420790720731196 5.8964766407302553 -7.8668548063626957 7.2643319367403096 7.103324315946506 8.0554925638334769 5.5903681671141188 6.9733890935967677 5.273892162091105 6.4070340890988184 4.9173092196632098 7.9472456565398986 8.2210410698550245 -3.441426308145501 6.5500852437296384 5.8469174134473638 6.5633136856139114 8.3025263350244067 2.5078708786336956 7.7108256045842563 -0.48899223839279998 -3.3266927899973324 2.8332792916148746 3.7669891574709902 7.0090292084039802 8.2214696679000454 5.8610952773170588 5.7264351636637949 7.003900642125866 3.6466653602048646 7.2243049524225285 7.3371222777016509 5.7826138887584584 5.4228758063794888 3.6530680607950496 6.9430392053256185 4.2496511167698845 3.0239707407026795 5.7256325923429827 4.7641116755515398 5.1519189075062037 6.9076981396610266 3.6964420255697479 3.4809011900829816 5.6845813296949776 5.5896278871111198 5.6198480540371047 5.8349117901189986 4.9545845803711819 4.1059817657207542 5.5827149789769459 4.5386888604656921 5.8094123064111001 6.4310271457287618 5.8885118146314932 4.8377113762582411 3.9397142986120079 2.7930851869807354 5.7139752978485943 5.1276403722746196 6.4651694308079897 6.5775645958231213 6.3439708371061698 7.9900183335590516 6.6109385833969689 4.6888861269667457 6.5528155263690353 4.4083647948281133 5.5275252545445381 -7.6112635090617706 5.1602785347890405 -10.089858744474791 0.74168842864243723 -2.9735720385506497 -5.7437216306065135 5.7116786253836151 -9.9799646698936115 6.1077419751512911 5.2010764272878234 8.9402461178768977 7.5946178140653355 6.764236117737858 5.8403394961374246 5.0198714103581352 8.0073826118762117 7.702556590176564 7.6073793814804462 8.8809777543297681 6.4712698626481115 6.0523787424648949 5.7082544441105725 0.3908613545735411 6.0507265301093014 5.1292499452190876 5.6136878593716126 5.7081891044707103 -1.2841108042203668 -6.8568910824882607 5.9745767517163983 4.937053361700225 6.9663091446376439 5.362515969210933 -0.2352661538598988 1.6006759944924744 5.4882611414849496 5.3960587304230812 5.3491255209887694 5.2229396999951652 1.7161296163505053 6.3579508728412479 5.7631614965834395 5.4382300423944425 5.6369657783295573 3.0418953645218005 5.7162534630303137 1.8211354247045048 4.808878470906742 5.4981877790506033 2.0503389825643552 5.7881299967580251 5.6670342021209308 5.1327770706921205 6.200885689794478 4.6540905175359235 5.4654541889240518 2.1771740447297381 5.9754080094789908 5.7401651433829155 1.1109112116973123 6.1541037680078254 4.958390884559126 5.8843126296319346 1.800658212333738 8.5590749138604547 5.4133118712936907 7.8568058252692214 7.8516886306569331 2.3143988355434666 4.2323814742423629 5.0645448617789075 5.0199833191033871 4.6526431765398772 4.5349160518953804 5.0055045903657138 4.0982268350236115 -11.002717636663833 -7.8917367406868939 -7.4509464186371055 -7.9864113078781163 -13.442244376484339 -10.701994635817115 -8.701777826582143 5.6034319174171925 5.0946133726919376 5.4724526309983261 7.0869005677490291 5.1730005923648115 5.1605671902508998 7.4951503477570043 7.0693366566637135 5.5705789606153582 7.3575135114992163 5.7406777941610017 2.7440946737042982 -9.5873522016171595 5.9111409202303271 5.4657260223649695 5.4302508946713273 6.3943787113312593 -3.5512328005280067 0.54782429169551439 5.6870380876318594 -9.1947527303892009 -5.3924397360597558 1.0247324936564974 6.0444764039961294 4.2198753112603802 -6.5616462730745484 5.9547328494060814 5.7849834529923898 0.89864174891868054 0.67006864516088294 2.9982168760511581 6.0686496141905231 5.5484127182689482 0.015116850278251118 5.8145826289660887 5.9996595825792651 5.8149097251241555 -9.460740213836603 6.0605446327389947 5.7680676845274723 2.0943250528907504 5.5206088316452693 1.3375999938408878 2.6729247221309738 5.706467588432675 4.575220840384759 5.8752902078986775 5.8434726491529787 -1.7198752878390866 -4.4168844761962713 5.6814289336268962 6.115571397043599 4.9900059090189472 4.2295373496183899 -4.4089706229938095 4.4550411539707193 7.1120704658107181 6.6602525840524125 5.1645546107873637 5.0159496285215432 2.7676402888018266 5.5654848101007897 8.0328799943156515 7.9612216550300108 8.0396229189912187 8.8527521414692156 -12.11604181285472 -11.037685647535818 -8.9017284873290876 -4.5112194114724433 -6.9064201712780093 6.1062533129372989 -11.061821320734081 -11.136450302383727 -8.4917798527468875 -11.70960378463827 7.8345904227635428 4.8760233994584992 6.3935168143116012 2.2740558548856997 2.7539206603838799 3.7482803460636704 7.7556964359228342 6.5887882609805599 5.3625842976300104 6.1345349281161656 5.9298781983596269 1.9505522646453382 6.0187015778331059 5.5402420526166472 -1.0424500067953217 -9.0949227619562389 5.7163208730526627 5.748876353626466 -11.916978419550851 -5.0733623466235889 6.2690424590251199 4.6043518822806213 5.8919941978397752 -4.7390553531441757 -3.4781060111102149 5.9807474878267426 -4.1402566944501302 5.5714383935492036 3.8162638817945518 -3.1543460105814138 2.18260394779765 5.997452218897128 5.8005255750353095 5.8439889303975532 -5.0763931357227667 -1.7809794052938097 -3.288623110344457 0.56985900167615511 -0.26191974958242736 -1.5354297438168982 -6.0467542572379687 -0.61224680225806827 1.3634699320546291 1.2245803031205569 -2.6736297455919651 5.7999445062154189 -4.1666491494467168 -4.5068929366722585 6.0255643355784949 6.1708529708285838 4.2117494622799994 -8.3669878224008958 7.7241179615778659 6.7566439169408712 8.4190945524606242 6.882436078023904 5.8108018708320461 3.922066873470615 8.7107125074676173 6.5846440092761558 7.3518999913226173 5.4492229294678136 9.1715887196435411 -9.7716862734877044 5.8271189241897643 1.8501353734107302 -0.60505532179268096 6.0955004964593007 -7.7881115133176184 5.1101187120259395 -10.653090948806499 -5.8628139127050636 4.9335064293034208 5.6265756357663088 5.3365364485588564 5.4428841066284654 4.4784719809709337 5.5704160584902089 5.840192208152871 6.9623140035973217 5.4317649663839669 5.5310174508520751 5.5626180444082269 -6.1033584392172617 -1.3784064859201597 -5.2473183394487215 3.3104510683673896 1.180079283074424 -4.5632773656456012 -1.3784064859201597 6.0134144650316763 6.0999726233873801 6.001896621076857 -1.5270000203335379 2.0733602826260173 4.8748162058007161 -3.4840013221178485 0.0083235643878379062 5.8341365154957225 -0.51127249388686635 5.8064098870995755 4.1546044263089916 0.7251365804683938 0.98946764679150589 1.7207834055604332 -3.0315545188795618 6.3785458448505885 6.1204926687912309 -1.2640974219053229 -1.9114448174444514 0.12822222931947264 6.0024863069979677 6.0033095322406007 6.1641921963406787 5.833650514430115 5.8197706644162013 3.1119131850829285 5.917371340293168 5.7677672001765714 -2.4920041557651715 -4.6598773225623695 -0.47645317052411879 -2.8853417833697081 4.6558083273990389 4.2414708576841598 4.807090166504004 4.7447605807043844 7.1056874100956628 7.2286769548457093 8.478177112351613 4.7583276066990825 6.9962263049980322 6.3103514866248878 6.8212397626704568 4.7196240569683443 6.0530510930125372 -13.223465361402525 -9.9045981253673663 -0.74009494115675456 5.9275140438911658 6.0431239208065355 -12.971026390565331 -11.286281423195136 -4.4276489032046245 -11.217569332340918 8.4392268617821369 7.7684513185018131 7.3954901286072268 7.8967550165874751 6.6962780169759837 5.0967996962117077 5.0292394551103534 4.8538874162766206 9.0140647940974201 6.9597216303650304 6.2253685910412822 3.5488232069810421 -0.059271881946550822 7.2704892135847361 5.7770411776262005 -0.021746835366805887 5.7479307633375889 5.8855202141768892 -6.5488750805018938 -0.72357771830882689 5.5179520437593927 5.5179103588785363 7.983487942641351 -0.54222619690217089 5.7145463827709007 5.5730058078716507 4.7874760607601763 5.5870677167516858 5.2547265055871328 2.9118322851993486 5.3196122703478599 3.8728578707942942 5.3746192827630441 3.9235933763747366 5.8521232334511 1.6723941428717153 1.957836376650852 5.746876562345701 6.391774064503899 6.0366544798749553 4.8340921319492702 5.3136799319827253 6.2569504087398649 6.4247356734221883 5.7206219950026593 5.1522623971078119 2.0285251189072788 0.77317035306898674 3.501090536656605 0.9773353298017633 6.6436582952267882 -10.703528755255165 -13.766392700165646 6.670492225964531 -9.9122413455196927 6.3830003928675749 5.3464543319678484 -7.8860398562520793 6.3922876807871951 -4.2250898715224512 -3.5625620170878358 -4.8328090409972946 -6.1401320316366927 -5.224220832410774 -1.408239285457469 -1.0587872154801901 -7.028927571172142 -6.0808853450373288 -5.7810984647919561 -1.6502035093770742 -5.3827634871491181 -9.0211186998234343 5.1322344506225539 5.8807359450352328 -10.142714666463117 7.2893638073238538 -10.624568329974073 -11.087322878963217 -12.279524800904866 -12.166649048895147 -10.325400052990528 -2.9927434323748279 2.1459916447455956 0.098708276514357984 4.6119375022993649 -8.8831874792809788 1.2277213967405478 4.8797455894913568 -8.1306791427488214 -2.9927434323748252 -8.4702457314713211 -9.0756167194193331 2.8754189295608072 4.0332541079679709 -0.028209031540759884 -9.7670417699732095 3.5335857986925987 6.5501884309357159 -9.2248092640052963 4.6683138473098511 -9.208996169823223 4.8108528611673309 4.0186130468596746 -9.6539158387340134 1.600496990775125 4.0711902451525566 1.3911879878870239 -9.728219613572767 -10.772840786222527 4.4956592237608284 -9.2323691569592032 -10.220564021383611 -10.430871362702003 -11.976055778900173 -10.978575988340706 -9.8106224223191631 -10.391198518075878 -9.6197473438861234 0.76872871655585995 -9.3039736957118446 -8.7388951594820465 7.1642803274353319 7.1623726469360429 4.7003770658212538 6.7298422893758731 6.4378473441893522 4.8388241616825285 4.4904730850720576 6.4892517473805862 8.3888716692741649 5.3740829317895411 6.1132566067428113 5.7574843660442214 4.5555171689122655 5.6010089133688012 3.8676130317573132 0.16531792345317628 -8.4587421173537614 -12.606663107908059 2.9707992462992876 6.2439602869447901 7.2276475189966858 7.2633116882144293 8.0160773468814366 8.1769214144905185 6.5152432062801626 6.582982985528246 4.2666700473519024 7.0813222040633281 4.8578217390966509 7.6225933415664304 5.858157778617394 5.2972975296555349 4.0034505568670236 7.7486627604213529 7.1094727340281381 5.6520820720816909 5.1962700504369002 5.8534682155663873 -1.083237375074394 5.6603889540188677 5.6986683917892682 4.8209661107382447 6.7867914056708107 5.354553961628608 6.3172426445291512 7.5678670622791309 6.7148518192374365 8.5892059914240857 4.8428106399090387 5.9865145704469072 5.3817641637103115 6.4267796793725021 7.5842618378699607 5.6211105843177132 5.8213905517705813 5.7464024670710687 5.5936569633985096 5.2784845881387872 5.8427411697515144 5.0434647455877899 5.4499525782327618 5.1654929344856626 7.5051002871148578 7.3112552593471234 7.7672017426777602 5.3695113225388438 5.8735768214673332 5.663973815001027 5.5805021656506817 4.4667125459928982 7.2989854331712118 7.120408012784309 6.7884562783099076 4.731774026112479 4.4382799082213316 6.949953760415303 7.6540100408195633 5.2906209579030286 7.1809235431037868 5.4978030618539808 2.5802740227027101 6.0398514020875131 7.5071024369913166 8.8310211858063035 5.2560886193334859 5.9402387600375892 -1.0019493924043703 5.0886092435894845 5.7407742687725554 7.2036493080322197 4.6017936522016987 7.4493898521444191 4.9560135223870248 6.8580774879038362 8.1135717171516504 6.9949327369865824 4.5559070705283871 4.4532980953471641 7.7539665877711643 5.4252888284148559 5.0722512702613303 5.0467763093631746 7.3306276533225097 4.8088324879987114 5.2320089769334137 5.0657164395498437 5.5590431291898952 5.48907579427234 5.1401897895595141 6.472444803800264 8.0183630702418736 4.4642865352363099 5.0182884956807481 4.8945046048321563 4.6721795737272869 5.1680260169381267 4.8619517724064663 6.8148121485240125 4.8404161860725221 9.1691032941459856 4.8635780356184872 4.8920696382871078 7.4320288724894032 5.4499740656895606 7.3946541549500919 5.009749136250492 4.8129036704789607 7.3927885243434428 4.8369238671484025 7.0108553531186732 4.8892420308968711 7.075266550278501 4.9073978896950523 8.0431400918256468 8.6080631571621105 5.0401469348331993 7.6985608569589905 5.0406707531283734 6.6812461795260543 4.2641450601495174 4.5919290763141651 4.6981821843427793 4.6166805802146484 7.114702637442603 4.724445018887903 4.8964872655034943 9.0679017898417698 4.9990079895168567 1.2995838079529307 -9.4203396375770865 4.8313040768540558 6.5854468671893569 5.9282073039333509 6.0251792053177029 -1.9722344502359404 7.6638917780328661 1.8230231142691031 4.5963116953778282 4.4699268202011631 4.2958790451868945 5.0887971074558918 7.33079507932153 6.7538490958261344 7.0985829712344817 7.301929187838093 7.6065275120710183 4.5502736489901201 5.4603395999055859 5.0176081731645432 5.1904094240049456 4.7191645519103167 4.9135958017084276 7.166958088845651 4.9866856531421089 3.8750345286436794 5.6222801366540027 5.1716190087378102 7.4151394561308113 4.5158453610198981 4.529305381638844 7.7641052988842381 8.4981417139879998 7.0337561368643762 5.276262665204146 7.042054879500065 7.6460169672254938 7.1019429514558432 7.3086728096832019 4.9520820598528079 8.5648898493795702 6.9235461308882522 5.426590257475258 7.7576595648849667 5.0861539213026798 5.0432433904203888 6.7080142719739335 5.0924930022679042 7.0605122042515562 6.964475429021455 8.0629081941599985 4.8727188024526304 4.925621092458023 7.4003265285596482 5.1578035552782069 5.2015464678837686 7.4692158394548889 5.2745310216671539 6.9383075677859019 7.292498836562916 7.4346446558091186 7.6019327887787984 4.4813630137428451 7.5760872470372504 5.808823061228197 5.047425515386867 0.66824438531236907 6.1995040094841647 4.8981940862671056 5.142677056039795 6.1799792193810461 -0.26629128657985413 6.1004407940225827 5.235698441781655 1.4682988178083702 4.669089258318821 6.6196349653807172 6.5861439469402363 7.8783829776509666 7.237428749304871 6.9659802854003479 7.0005250577046967 4.3593932464182394 7.5389479714097076 4.6714742636349085 5.9136183336238402 5.0632600382943149 6.2361404401816563 4.5956457659443686 9.3810436777337323 5.0366192766782065 7.002966470571848 4.4751444604903359 5.5459601255252773 7.0243138602820228 5.0861706616545206 4.7809086066268529 7.2419682399355727 8.3367910734621642 8.2882001247191983 4.6187747344926704 5.0498034957973932 7.2999467826274085 7.6462976245054133 7.1161677716120169 5.2233213782699153 8.0611384520183016 7.0298599922512537 7.1697171126387262 5.3479315520509605 6.9012077562623437 7.3165052677554199 9.0947734283558503 4.7804410597176226 7.6638454927580852 7.30459513521288 7.7271364938122042 4.6913238271016109 4.8924738063533875 6.9624751796492195 4.9075274880921018 8.2731249513686436 7.1283928201716176 7.2358697523815598 8.062671133335293 7.3307046254691404 7.0862291928273367 7.6663508608323321 6.5101123068484634 5.6716576747429279 5.2090595277780345 6.7746666844079027 4.245231194360696 -7.4881528683878305 4.6284649787195171 7.1676530936642493 5.1662545473052841 3.2807670334207746 0.82523475086587106 4.9754711721668992 4.7011717743978316 7.2816565693214645 4.4451073941240908 7.6854462688294394 5.2684260335062003 8.8664978444602802 7.7735472391885274 7.3639650597813819 4.7209093058248275 7.638760848707622 8.0442749543108238 6.8872751257561378 7.5097348570378673 4.8599834613303754 7.5346165381987982 7.6619284419644886 7.6165206094383757 4.7470655757368707 3.732449923141437 7.1310811703986605 4.8501817772808886 8.3952994507660001 7.4432354168914596 7.2636901365152164 4.8070820582116056 7.3324050691068505 7.4159421033681889 6.6146910884408348 4.666678241421093 7.398491406940912 7.3324050691068505 7.3541959693674945 7.8721418062025039 6.9046301378400807 7.0821680332913628 5.5314023669272334 4.8023282980676036 7.7324808327219818 5.1643450581690251 6.9277833260345618 4.807623383028889 7.255625669346383 7.5215344980947361 7.4395623943344349 7.5078074590143515 4.6637977360712224 8.061161042262377 6.7850029716085629 4.9088380412803767 7.3831197321210045 5.124704090854368 6.8112283708170427 7.3488432176896108 4.8523014472085624 5.4716273832118825 7.063264716597641 3.8146598209753462 5.9598145440191201 5.7936254163797152 4.9732467657124166 6.4837693457236911 5.5238520138422738 6.1453722837465481 -3.5295472429060153 7.5630884270524188 5.9695789468880935 7.2050324191146355 7.5526822502078357 7.4801972965995835 6.4519341212517869 8.561285703162774 4.7094571868702033 4.8622294335038356 4.8822352310287123 4.6593439266739178 7.5083235377717452 5.5821579478802974 7.9873837929818858 6.7228994325971003 4.6605157225440932 6.7655851432225385 7.2332772966632479 7.2929360684543854 5.6927604007860557 4.3780619719028149 7.6091777473837743 8.0063765175070127 5.0629671857188496 7.438851993836658 7.2702428473047567 4.6804621979290078 7.3375636101812463 7.3035489007166818 5.0630161699190772 4.6817434795157427 7.7785585851005941 7.4816924894468047 4.800919936227471 4.8853458730352468 5.0022522369887152 5.3664944978428908 5.0615271302039337 7.415520800906279 6.7440910974906227 4.9382241370593905 8.3463879283430007 5.217863598721979 4.6403732741365804 7.5017867798224804 7.3970235760507936 7.4495209725038061 7.7054620257970265 7.6185915859493516 5.0177582204009257 4.9693143968646121 6.7588728008444141 4.5485334750488988 7.5794964092751593 7.7998454072935397 8.0930707575545444 4.9957900451549753 1.3848481853167676 -8.7908797110350108 7.5366957378434272 7.4693582882971663 6.8804312821814344 0.69790561707003229 5.7076000525268213 7.2381033307798255 5.6949476633288354 4.6321279498609504 4.4674187588492531 6.895263310950984 4.9028900454058046 8.4172446491601765 7.2210005629731082 6.9246627673638033 6.8673393735496955 4.4969989028292527 6.9760842315854248 5.5358070368907049 4.6623726006057202 4.7936680655518025 7.0216311425541136 7.0280631287539901 6.8486118933721682 4.662279613537029 5.5343135857902448 5.9732998475907815 8.7949109207583316 4.8034765076625972 4.8866320382372921 7.3202087634749535 7.488044083201201 7.0012631949678701 4.490305591344276 4.8012249623013519 4.9410365113654571 4.6195901002359525 7.2090541594974109 4.9554273664498147 7.0867924047256565 4.993595614536261 7.9727650372275285 5.4293130306649093 4.8850728997665227 7.9236677304214016 7.1548294426671335 4.9671729878305637 7.2550199983597627 6.7872794965059908 4.7934145678033238 7.3559811875613317 4.5176059573373877 4.6116699770068008 6.9601544074534196 7.1147497806776858 7.8193653000752326 4.8833999323474657 7.7953749885834283 4.3993640563171414 8.723129359030148 6.0753321855850775 2.920105930989628 -1.9062289544427038 5.9469968123201866 5.0637107120942773 5.3112674220371261 5.6280944023495376 -2.4275204627390403 -3.8749264928569036 6.7974358582779102 -0.76441283989615993 8.3107188107923768 7.2364991327819803 7.4483484928713661 4.9214301432086947 7.0107526310340118 7.1191806154931339 7.3951920983487227 7.863174220125952 4.5264005719841283 4.5780434125371574 4.6327503810668409 6.5809405958662639 8.5901907345303083 8.1602421589580274 6.5366364416203337 5.9849257515154424 7.9803424196154342 2.7751369499866456 5.6869758894945823 7.1774253274690647 5.2640691132088087 7.3049570383818088 7.5033198172422102 7.2660837426947182 5.0333910668302728 7.742482223855828 5.2990173723086507 6.9755966490936094 7.5034922015773144 5.0180430124247453 5.2895841031262361 5.0345206844724562 7.3892713727842576 6.2184405329943635 6.0846957206438761 7.6231413701199893 8.2107549501898465 8.2416683403432813 7.6111211882018139 7.6231413701199875 6.4850444755733907 6.5296769817925222 7.5373140882342451 7.8318899995716933 7.2257876721501164 8.0357734472936588 8.770234980110498 7.2715137840387101 6.9175563529714479 6.3764052412010583 7.1573620536090887 5.979205642419001 5.9646774553248161 5.8941568731900054 6.2345205488402549 5.2553263681568474 6.121127310983022 3.9181740482713381 5.9665358616645348 -7.8562713694372741 5.5273341001819691 -1.6530126502529412 4.7127225782783313 8.5776966320984744 6.7507023007127973 6.2853036544383629 4.7536835706578673 6.7451556150534531 8.2224454037867183 7.6371885089811675 4.7450183411715505 6.959117618882054 3.2959140614905071 5.1707642483236063 6.0956851458139507 8.0998387246039183 4.9902578749226718 6.3968917371268645 4.9940594109135805 3.7258840358859246 3.1498498245647966 5.6720671348468699 6.7809165799202029 5.1277510914054751 4.6892329790288976 5.2882481720786325 5.1446735550977962 4.7486857596320835 5.6218766222804799 6.6322728244927109 4.7211022039276997 9.255469791496326 5.1287628575895612 6.9283574825313057 6.928173297159784 6.8807203659523841 5.5400448435071814 5.108827633122254 5.1226461531051335 5.2343012521694128 10.593305289357207 7.3567830296471755 5.1542179238087948 4.922545446652272 7.9045366337577629 6.963916043978462 5.122617158061729 7.2699104621180668 8.376218784402516 8.4088323403210889 5.1102622677960126 5.2031568132902244 5.1810869860568527 -12.629075892052922 -10.603584838256843 -8.6413883989930351 -7.2306687906463898 -10.857704830151732 5.5765020288746259 -10.980958568341785 -9.8379213739225939 6.1601536304353708 -11.268023742726959 6.3564233798781462 4.6698830905504778 7.0573092493742982 6.0149406746761587 4.2386808736770529 3.3299810459840051 7.4196531493276927 5.3711804316192762 5.2700389660890972 4.0899320502494678 -11.686469222214576 6.0487084671890097 -8.3295538925987298 5.777549974490082 -0.51043277505053042 -8.3441953610932647 -0.49925199671171416 -6.1460010616021865 -12.474847174016393 -6.8549136831447353 -6.362247090270075 5.7248381305309222 5.7369391373564147 -6.6203189880285507 -4.4160243663296725 5.6402699953891053 6.1655732243530688 5.076922589070441 5.937675119612897 -6.7803513567963041 -0.24554685754574862 -4.9157608768019259 6.3729012665148854 -3.2337385649792552 5.9658304586972601 6.3588136332314358 -5.514902190317394 -1.1284884807935884 -0.48822892650699667 -5.4220801417389337 6.262291883662539 6.2314406772526336 6.0762778554365555 -0.31201059423660393 -0.58214795675036424 6.0357853200470082 -4.395260013718949 -6.1857725803240839 5.9958044038497142 6.2003301326185358 -6.0857370456057058 -8.662126713240502 -11.52949010547812 5.6324976789608305 5.9234771878103958 6.1381559462765845 6.2543042376974052 -14.530455507756018 0.62052402613736179 -7.3744342980969702 5.5974666182110147 5.2538453571401309 6.6258980782133357 5.5624936800287275 5.324258125159643 7.2700456296555442 6.6459133971803332 4.991935905397904 5.247658127139661 5.6744389846121877 5.912284195590126 5.7499729164186704 5.3681078634503052 8.0433976852230131 5.6257102744437528 6.3191796476139466 5.6389720711083138 -5.9175728766940114 6.1380489713021964 5.6903063465781933 5.3074646527442306 4.4565966711061025 7.3961980274330328 5.8589222167167083 5.6347586426393672 8.4208428262863162 4.1719565180477796 5.7177826035155634 5.2134549732383002 5.3517436847628241 5.3393634449217258 5.0938152642631236 2.6301045448514961 3.1912239442169068 -0.86521057462663109 6.2436443421521357 3.96224498495434 5.5598387101024036 2.2309244752935724 6.2436573647559666 2.576012379104399 8.4773164455485048 5.5369564290013527 6.2516789351187017 4.3667983618320427 5.1034657958052669 5.0333692648644366 4.0646088445675606 5.7527929064048893 4.354349160522557 3.6510712538756671 6.014720618638429 5.1579950241029291 7.5007165291690638 5.3159232672340515 2.1057279215372584 5.5945220163403988 6.7220484471582109 5.870562234271139 4.3345763567646047 3.1021651871270035 5.6708818827261416 -1.3744426443863602 0.16099630655742669 3.692471622766643 5.6095043948570797 5.6053511708280288 5.3709885859167334 6.405160178710795 2.7171370080488493 5.930884862931582 5.8596802428429493 5.5672336528329787 5.7002525391791821 -0.47108550763387613 1.5792483728809412 5.8723426575587485 5.8347990993510086 5.6339676466317634 -2.6256429935113914 5.6425193679371572 5.4117052963941692 6.2010260285273855 5.5311154231819595 7.0596008517040065 -2.6256429935113914 4.9883877446280138 6.6273155461777851 5.5321028208468306 -5.9112010520164988 3.9725907386316792 -1.1455979940350476 -1.2805571414858961 6.0699489235180684 5.6226792376347641 5.7377648777488828 5.9536221366677591 5.9628287656480357 5.5486491123206783 6.0125222115639625 2.3450990724859357 4.6962229392056267 5.8314645385987953 2.9985996778298678 2.9100094778937255 1.916646153222048 2.8911774177381604 4.1848466759417624 2.1214736200847852 -12.404541639030134 6.5740859790875623 4.4454931711244958 2.7429949941959579 -3.7483145918126937 6.1870038407605623 5.6168704891350316 6.1431550517977973 0.48116337951682908 -0.49323975575401108 1.2757207480773798 5.745974045362618 -6.2075584076492767 6.0152603678243848 1.912505263636803 1.8863792422271832 5.0986238710406671 3.2909147047948744 -1.5737786363824975 -2.6416339794419494 5.7805156430768418 1.7448877986077964 0.38078667924222825 -3.8240900613199189 -2.7993845679856229 5.397937476558087 6.0402314763399163 0.3876082481720024 -8.8537673627177504 5.9060002791291852 5.6404622916733462 5.8516903872769497 5.766364658540426 3.9618591911240895 -6.1467302747564156 1.3437090605746429 4.0260491500525255 3.3386167027928364 -9.7426521584486903 -0.11014547973731521 -6.4467725627103105 -6.5113101505168975 6.1586928022123022 5.8518445564928703 -0.38771955053721874 -6.2252061228571813 -4.8443215538390323 5.8578558383096393 -5.0779882583335709 -2.6802762272609431 0.11158657018890773 6.0255479390393072 -0.6970193596575468 -1.7282963013054407 5.8012020803220672 -2.68144691207852 -0.35809251433142775 5.8374451403172358 6.1280954739567308 6.3330308076819106 6.0485771679769975 -12.297355130062805 -12.311365284760651 -5.2801036748016585 5.5915080814631279 6.0601308345595877 -8.7302564267450684 5.9161903836845013 -10.748141929843712 5.2518836066190158 -8.0092738408201889 -9.7062045706308773 6.1289967208229559 -5.6436351574353942 6.2083205569858642 5.9987982117787784 -9.4126138256353187 5.431171793662803 5.9877978326389947 6.3912841745131574 5.3470192809347301 6.0472439864463823 -10.340671313337296 5.3750088870027284 -8.4756107512781096 -12.44598641297817 5.8646204084519509 -7.1577395313526315 -8.0707059919884134 -8.9848409717304083 -6.6688465851246823 -12.272765930260952 -10.604037956226904 -7.4367870344157296 5.6401147596274326 -10.255289759031296 -11.315530206681876 4.958115050225878 -11.844872245068871 4.5406142574735275 -8.7991431518972139 6.0795307264533136 -13.249194599947231 -11.799209617411574 6.123127682876329 5.3039764914442573 -10.041109818498446 6.0726590074742619 -11.798851351255816 -10.271542229327816 -10.738616762998385 -13.469127010754965 -10.796142280980604 -10.924169201883606 -9.7288700633742913 6.8113955203475136 7.2710112726849259 5.4170950559993223 5.613493330186885 7.2865810750846407 5.416864978329202 7.8510224583092567 7.3490775055966839 7.5474841407055946 5.3952601856457187 7.5415857686840102 7.266825495804202 7.836219881963352 4.8407979964124825 7.7615164614565701 4.7682138346242722 5.2279792689659912 7.0346066324580052 6.7489346492438465 4.8876298412099715 7.268926654475008 5.3719765360984999 7.0346066324580043 5.6678733802724075 5.2279136364528016 4.911316479594575 5.3775120882849032 7.7522315228820871 7.453710969489225 7.9726510754887556 4.7403162723554422 4.6260227585526597 5.4916394590097068 4.8468551530626032 7.4266466477470789 7.6986380064356199 5.7902826923317035 5.0292286038434542 5.14996874128496 6.2396061814176056 5.6189130574336605 4.8457357512281511 4.9592631865293608 5.3359795216338854 5.9503660480048204 4.7808701352800078 6.5922909913818986 7.282691583213369 4.9591198153714631 7.0021660094755367 7.0558003167429355 7.6189423584331122 6.7692933497474606 5.1356848112388551 7.7387521458251536 5.1387724861194997 7.9849813559283565 4.1907251958045943 1.4551802271515866 7.3508806018089077 4.2581672126735217 6.8500616009043078 6.3797505777427528 5.1019131938271896 5.3184250409376626 5.4448312153237488 5.2693829308404716 7.0984143544570601 7.1119326715069269 7.7999855976413839 7.575034395115595 5.3507544503524969 5.6731437183937166 6.8110124320378267 7.8497225623583189 5.2232944582257268 5.3190275069257726 5.4546912871258693 -1.2480055098765832 5.34930106456118 5.1045182187720011 5.6156896685655964 6.6910788177080116 7.3113194467833171 7.674617224700941 7.4549596810748096 4.8617864602534331 5.608046882192725 6.9823269461589579 8.1088135449256438 8.4001823227070673 5.805941890477528 6.8081528802918507 5.604983049257803 4.6820670244045735 3.277656060118455 5.029361059217039 5.2589647453439037 5.0762577277962961 3.9123848962480143 8.1786784783407818 4.8046067290898895 5.3545729060293343 7.2224860101779793 6.9053403596182141 5.2924712648784791 