svm_type c_svc
kernel_type rbf
gamma 2
nr_class 80
total_sv 240
rho -0.041317639764506815 -0.24186430808261264 -0.029860595431077556 -0.1331413320157864 0.0034981095595886286 -0.0040205003892732167 0.015125916468966367 -0.40558439705916421 0.034714452624917173 -0.073956444393604409 -0.34231263535488665 -0.33361714197481201 -0.1963467028718083 -0.14568074527361871 -0.20975845240147462 0.025206816593015689 -0.075939649427974834 -0.064579361153167023 -0.033257279905581583 0.034631674821210365 -0.058427547686621673 -0.012849422247304336 0.025243391056086816 0.03550394341538491 -0.012422228811375356 -0.069870824612716681 -0.31099948047669318 0.035472085053325851 0.035505835972704382 0.0042418404743746812 -0.081409708351793161 -0.20111599528809807 -0.0091973040740938802 -0.027059641348932142 0.01795144489340841 -0.075839659000762463 -0.14655112936989992 0.021253727037735193 0.014583452765099134 0.035276222314695301 -0.065159521063830342 -0.0079109820895226796 0.033696579323661172 0.0022741514900526923 -0.067586340646939996 -0.065159521063830342 0.0029030358605369295 0.035276222314695301 -0.0079109820895226796 -0.20833257360642812 0.017486014040952274 0.0041898465393869306 -0.15235016247685415 -0.18892120950658864 -0.052280719120302958 -0.20833257360642812 0.017486014040952274 0.0041898465393869306 -0.18892120950658864 0.023421977076123004 -0.20050504644749501 -0.00048953632253291156 -0.27962143829316527 0.015796518599566087 -0.16319593506745245 -0.015783454212012164 -0.27462331916222521 -0.00048953632253291156 -0.16319593506745245 0.027074530170495003 -0.23016495142714288 -0.19490195568016846 -0.34844003212038599 -0.21384795327946163 -0.23998140377010313 -0.29374712642662154 -0.24069896556419001 -0.22019743944217676 -0.28052244613926863 -0.23151973403432816 0.0058597819167596496 -0.067758921162703004 0.042479502330228451 0.028673272273506082 0.047628160152729103 -0.3782913227574341 0.066934673728137842 -0.046636887888021679 -0.30365533888383101 -0.3026231082493584 -0.15805219953281369 -0.1086942566913638 -0.17391882095925673 0.057461421022326355 -0.032644302797817208 -0.020818708204154414 0.00060924376915539994 0.066572621299024373 -0.026186944178622395 0.019842765081715195 0.057470734713836014 0.067670938054115184 0.02227405057152616 -0.037416033405409867 -0.28167021532633274 0.06763264741731824 0.067666313782120027 0.036447837213032783 -0.042019371809827018 -0.17658569379253428 0.029920079339816288 0.0040975419319830815 0.050773109422727253 -0.035509140067795576 -0.10832122543129112 0.053648106792023753 0.046698245871181467 0.067128140129064137 -0.022540931181814491 0.021271186418886551 0.066339853144768104 0.026310974005613007 -0.055263807877017977 -0.022540931181814491 0.031619759905192807 0.067128140129064137 0.021271186418886551 -0.17013264460153762 0.050147619270243519 0.037187514189624134 -0.11866461570385028 -0.15193517222928496 -0.0094582492928465892 -0.17013264460153762 0.050147619270243519 0.037187514189624134 -0.15193517222928496 0.056555320292921728 -0.16791803335939925 0.033572520087062643 -0.248929081034588 0.055221645129987229 -0.1281353024801373 0.0062798572374770725 -0.24420103556423237 0.033572520087062643 -0.1281353024801373 0.066160021113321102 -0.19339199921460057 -0.15728456621222212 -0.31952020016432436 -0.18116573095631128 -0.20914379469959662 -0.25242830993227733 -0.20804590852271135 -0.18098213978064134 -0.24814446037716417 0.23513906763561784 0.13832175643629577 0.2366616205334553 0.21676725692557705 0.23475437667442345 -0.20379636756712438 0.25293143705615556 0.22317415154148348 -0.037995011548815127 -0.12262539592905009 0.13222675401191339 0.26681309542322174 0.1228813029526068 0.24340743862949787 0.17400385121393436 0.19212725416768603 0.20822471245618956 0.25294054210257449 0.19051174646023927 0.208967781765208 0.24443471813546366 0.25399643902849595 0.22331622717633048 0.17184081722664957 -0.098288113792266721 0.25396587437716167 0.25399825565378881 0.22432798796373363 0.16006981538855233 -0.030805180931875238 0.23282129220810799 0.26389550073573181 0.24739572063635515 0.18580518926985459 0.093782236951803141 0.27444571681360364 0.23436772270878883 0.25339812194023442 0.24004212381335022 0.25033599389669797 0.25186086958784076 0.27361858370339326 0.22754306276538994 0.24004212381335022 0.23473542267476177 0.25339812194023442 0.25033599389669797 0.075599248365829944 0.25681827925811285 0.22857695952533053 0.19576733983994082 0.078427106682444861 0.30371898357361599 0.075599248365829944 0.25681827925811285 0.22857695952533053 0.078427106682444861 0.24294284994184381 0.063811904378451745 0.24796946742612777 -0.062284717562791948 0.25258628532361843 0.15765515198546587 0.33778777396283327 -0.056704846620252346 0.24796946742612777 0.15765515198546587 0.26609752418729976 0.010677191079001927 0.18056450732504248 -0.14193935018584394 0.027968564971434313 -0.020757183291797723 0.0047463100154990657 -0.0075620046755132944 0.14021766920906248 -0.034915699684538067 -0.08484055953113083 0.045986781962532669 0.026772213987354593 0.045994977310069213 -0.39822699486557928 0.061616539244767475 -0.064830315792232321 -0.32231113844371156 -0.26143765337485741 -0.017937961671360501 0.029364021551364666 -0.17359738422384108 0.05295855587081217 -0.03738991814045272 -0.032549778335849711 -0.0071237108188165451 0.061278902864478187 -0.033925495937185017 0.01595897052793881 0.056493878166910781 0.061769437793638193 0.017263898450577287 -0.008773734005441779 -0.3108931290345327 0.06174511536421879 0.061758932004582434 0.031279783408776483 -0.048732095115992226 -0.18161819177901375 0.021572280597653398 -0.0036016964180826867 0.044384056339949685 -0.042305512119945023 -0.11366637202473945 0.05116329170638579 0.047585049587918614 0.062393588469658118 -0.047446324548027212 0.0091412954483686085 0.060952175876246018 0.018717958711457632 -0.064340045996110276 -0.047446324548027212 0.034535618796541712 0.062393588469658118 0.0091412954483686085 -0.18219603862548217 0.044813337242428086 0.035031351669342528 -0.13008643306782772 -0.16607009038407369 -0.030841463059174418 -0.18219603862548217 0.044813337242428086 0.035031351669342528 -0.16607009038407369 0.053174368587645009 -0.13025260802154476 0.02098803689757589 -0.27516883510848261 0.039413419148391554 -0.044075049821614178 0.0023519821953801329 -0.26659851431609016 0.02098803689757589 -0.044075049821614178 0.05257369829669737 -0.050889056162989332 -0.025385599735628723 -0.37044899803770415 -0.096407302311024373 -0.25023706486342884 -0.2772715151080527 -0.22063389954251025 -0.20964560057140003 -0.16876090478134115 0.1183485479689208 0.10132164520499416 0.11964815332483685 -0.31850133339098147 0.13440971457195638 0.049449819588940402 -0.23842957616606472 -0.2395600968577922 -0.092200924136905824 -0.037759681276614492 -0.13570070599466871 0.12629349957753902 0.032791424600728529 0.066140411964284204 0.096958836209290897 0.13608689257391424 0.067581514790271663 0.093472341232584286 0.13635257437456541 0.13501280311251887 0.11568625949390919 0.03071973251653445 -0.21779906832840146 0.13498626307750686 0.13501465248149991 0.10476394724203748 0.043119346616243136 -0.11089506242642493 0.12132618396654936 0.088745195256349899 0.13907568465982587 0.046124171628956802 -0.03280963470826035 0.14573827739714387 0.12695894965381474 0.13607476597192511 0.060172721319800983 0.11247954890983469 0.13478760364262349 0.1064520025868424 0.039511799582347872 0.060172721319800983 0.11120135611320953 0.13607476597192511 0.11247954890983469 -0.10138314418713819 0.1397348513585735 0.11972451651130818 -0.043950794252722081 -0.079146365085174128 0.067414522426577903 -0.10138314418713819 0.1397348513585735 0.11972451651130818 -0.079146365085174128 0.12730266088279554 -0.10050362558948779 0.12180004719375996 -0.1840849741617859 0.12644881731170113 -0.060288310783317978 0.08521978485603332 -0.17922445113690921 0.12180004719375996 -0.060288310783317978 0.14476560141607228 -0.12783143623459881 -0.090141892410791291 -0.25707127583299277 -0.11476744240588423 -0.14333070919128502 -0.18973276773438411 -0.14233369748504704 -0.11155298991111262 -0.18349015112150988 -0.015810602293923205 0.0053677649989955301 -0.41296143789652201 0.025370331984787085 -0.088823003410676379 -0.33415671401548552 -0.33895860917984538 -0.19572056967220072 -0.14625213766100123 -0.20934943837965525 0.015657903752257112 -0.074665293041460398 -0.06768284266362154 -0.042574098187369312 0.025824588754871116 -0.071147015817167855 -0.0222559634260408 0.016557025524939525 0.026705506934781142 -0.020099310651896008 -0.078323394785780209 -0.31888324454861955 0.026675281115623936 0.026707375525665104 -0.0048209812970989195 -0.086830850731359252 -0.21316141874575623 -0.016241392192616274 -0.039103873351782108 0.0093676055173034668 -0.078211285601522809 -0.15016524303651549 0.010114277096284468 0.0057376441492297987 0.026172425282869057 -0.081991293137833723 -0.023916535956292298 0.025034166504592215 -0.018101313432682536 -0.096806211498634928 -0.081991293137833723 -0.0051390402814402974 0.026172425282869057 -0.023916535956292298 -0.20733059201918499 0.0092042950107597294 -0.00099911590897009696 -0.15724923427065393 -0.18940008987506504 -0.067751654830362759 -0.20733059201918499 0.0092042950107597294 -0.00099911590897009696 -0.18940008987506504 0.014477756967282452 -0.20660932805045429 -0.015061238030957878 -0.28699574750519224 0.0039181741149234518 -0.16727098363714935 -0.039430074907939913 -0.28245977210654899 -0.015061238030957878 -0.16727098363714935 0.018178668352145887 -0.23120893905053172 -0.19519603619535664 -0.35576701095892171 -0.22038001660251594 -0.24810105754383838 -0.2881874966885381 -0.24666837302866904 -0.21594950335431382 -0.28582680570037872 0.02282480162108777 -0.40225411846753106 0.038678804344881072 -0.073361022058450895 -0.3222272732516574 -0.32757122200847771 -0.18283360422982484 -0.13297676892606178 -0.18199205650171202 0.028664320717453017 -0.062899517726548601 -0.0551017684730149 -0.029069521121186562 0.038674694835455929 -0.0557498004419184 -0.0082226859397327625 0.030888570132267246 0.03950592940994746 -0.0076358377458587284 -0.065565988948208129 -0.30738287717232432 0.039473917157756368 0.039507567424770573 0.0084219259620793695 -0.071513293816434079 -0.1909437817953954 -0.005324544614408293 -0.025738226923328427 0.021365165074343218 -0.063683233951310786 -0.13385116068295913 0.022764850796149705 0.019199379193536207 0.039923789833636966 -0.067195550162958612 -0.01415588874000121 0.038392061319318653 -0.0051733641462487221 -0.082221668273784063 -0.067195550162958612 0.0075602187414357718 0.039923789833636966 -0.01415588874000121 -0.19398769695334442 0.0203311714300414 0.0083853650191289698 -0.14242448835886842 -0.17567981270106436 -0.051527150041184577 -0.19398769695334442 0.0203311714300414 0.0083853650191289698 -0.17567981270106436 0.02784971044093321 -0.19423971624366074 -0.0030409325179366624 -0.27521479600825027 0.015675228630277236 -0.15458522423028109 -0.026061627111363447 -0.27055984670431205 -0.0030409325179366624 -0.15458522423028109 0.02717492415078929 -0.21878116369321185 -0.18259070909014832 -0.34453449574182987 -0.20802718430249023 -0.23605377103741731 -0.27597317615121181 -0.2346117310772482 -0.20221346384902372 -0.27403594334518538 -0.41792191838020259 0.019669068479829872 -0.092360597513756915 -0.33909768876817054 -0.34424283574757175 -0.20100563380967204 -0.15150624140364097 -0.20022735148606907 0.0098466848765900589 -0.082140501873870606 -0.074535875717905778 -0.048227471025271161 0.019676028267960274 -0.074894782340593255 -0.027941414390560373 0.010249294133482981 0.020654487748049222 -0.02724118991470165 -0.084333033904886182 -0.32434248999181786 0.020622474575533331 0.020656171049358817 -0.010911556963314644 -0.09057744301015476 -0.20951694124636 -0.025624551789717676 -0.04464090198393339 0.0022926410310429093 -0.082899000840429685 -0.15247357280251536 0.0034801355353558743 -0.00095139198855236464 0.020095191325044018 -0.086302775027492562 -0.033231139465222125 0.019023614378654744 -0.024023231717234767 -0.10099396200745425 -0.086302775027492562 -0.011942865961961613 0.020095191325044018 -0.033231139465222125 -0.21205073587709888 0.0003538145760930669 -0.011873162173140115 -0.16092923550290875 -0.19386176322180859 -0.070933450632473638 -0.21205073587709888 0.0003538145760930669 -0.011873162173140115 -0.19386176322180859 0.0081294518550409714 -0.2123402507489113 -0.02209397172100212 -0.29254531960423374 -0.0034817487067126825 -0.17296893138660308 -0.044937274565619856 -0.287939285208824 -0.02209397172100212 -0.17296893138660308 0.0079645875643752934 -0.23662780320414956 -0.20075591906028234 -0.36101990478254481 -0.22599302248766137 -0.2537177969234134 -0.2932772454795145 -0.25244542367138328 -0.22025594782647961 -0.29139684518316034 0.43398849944737988 0.33967531108079524 0.093042626739029147 0.10576678652610223 0.25113081042363627 0.31563886650933615 0.23950047543597566 0.4257076733331901 0.35098145998910285 0.35590247661728897 0.3778721921500518 0.43391658673181738 0.35510625716404204 0.39503721162766103 0.42570759589752805 0.43485083498804783 0.39595427617126727 0.33820130404501436 0.16836735078915158 0.43482490490027148 0.43485218150131894 0.4090328631186666 0.34214473532721273 0.2293962591033929 0.39845231044133683 0.38241808508328839 0.41982688894111742 0.34793605785543286 0.28393976238579749 0.42109209364694755 0.41686055231818503 0.43436391852909595 0.34480557829154357 0.39044697130826056 0.43290315839735455 0.39792865709515546 0.3312797534323243 0.34480557829154357 0.40821226401238636 0.43436391852909595 0.39044697130826056 0.22646504648669383 0.4181864854090997 0.40798467119961579 0.27700922433250313 0.24420350441919605 0.35855249910097542 0.22646504648669383 0.4181864854090997 0.40798467119961579 0.24420350441919605 0.424352853321253 0.24817323927000121 0.39979350333636376 0.18856798895298568 0.41502244582256603 0.27218134568067825 0.38080912974535847 0.27180286818293153 0.39979350333636376 0.27218134568067825 0.42411088684260578 0.22917593436540368 0.24871173823646797 0.17326817407116044 0.25572271023305632 0.11591795694181224 0.14484108604377535 0.22895783274056036 0.21913865607038044 0.16988688046238828 -0.11123903865095358 -0.35620920332158695 -0.36138476319212059 -0.21966120559951188 -0.17052714481127337 -0.21714338272408573 -0.010002853852774883 -0.098270426359065133 -0.092352880189428443 -0.067050941186548266 -7.6038930217194308e-05 -0.093252893819842253 -0.047267576811669855 -0.0099692884319301442 0.0011072116071275944 -0.04597309427421415 -0.10369283544241407 -0.34165246239901581 0.0010753507837526256 0.0011090627075710966 -0.030405618460716256 -0.10798214319814914 -0.22715245325321101 -0.043458156412933685 -0.064045539332056076 -0.017312897002918347 -0.10142815954184742 -0.17108583853322287 -0.016397070283994803 -0.021013093632046276 0.00050608717682690577 -0.10491680355975534 -0.052454973454810629 -0.0012121782903952688 -0.043624724550451778 -0.12016962702721688 -0.10491680355975534 -0.031216327469241727 0.00050608717682690577 -0.052454973454810629 -0.23065812697084342 -0.019163376642122223 -0.031871902444548975 -0.17981824596292817 -0.21264925806569424 -0.089435331666651449 -0.23065812697084342 -0.019163376642122223 -0.031871902444548975 -0.21264925806569424 -0.011661116006666044 -0.23086628156286906 -0.041445408554278362 -0.31037383353038911 -0.023028699532184504 -0.19188663152887009 -0.064380037568128892 -0.30575691179647263 -0.041445408554278362 -0.19188663152887009 -0.011875278772024911 -0.25496453890210208 -0.21947065599141677 -0.37794989477792207 -0.24451916648213343 -0.27194362755557594 -0.31102590233147609 -0.27057169155449917 -0.23880357745567216 -0.30920607325115695 -0.27485893670935929 -0.28258460957850384 -0.085454225190474298 -0.0028520918795512788 -0.19039983109806072 0.10124349477643003 0.0050419826404221133 0.018917251674834049 0.030831907974762287 0.11162139672781964 0.036388471947649666 0.065658086450332748 0.10235524569118987 0.11232348528614701 0.071834411088178285 0.012157319988211993 -0.2437947421975091 0.11229783697955648 0.11232535813132671 0.081268733888560429 0.0087316233104434149 -0.21623200901136594 0.058600829997664632 0.096210190090986858 0.10056459237497495 0.01178323647154785 -0.074268516421434158 0.071629107816109927 0.09203880782821959 0.11176006369590887 0.005414517247167217 0.067388796927004738 0.11023015822603206 0.069922759507638391 0.0087670442388052914 0.005414517247167217 0.082862661598159679 0.11176006369590887 0.067388796927004738 -0.11894694997946158 0.10268115515479855 0.084519675176795608 0.010917739091001754 -0.12505349278154784 0.018458623641307612 -0.11894694997946158 0.10268115515479855 0.084519675176795608 -0.12505349278154784 0.10057268942535506 -0.1245812842827666 0.072834241869919172 -0.21612194292160411 0.096577155359982417 -0.055450584186290598 0.078555900404328319 -0.20869105654310913 0.072834241869919172 -0.055450584186290598 0.1057445254949156 -0.17143575145144838 -0.046837980755247088 -0.28903220467549917 -0.14248978418807179 -0.17008349940901654 -0.23021176578947231 -0.17784493197218262 -0.12727601372218694 -0.21457664973593218 -0.060064625516356551 0.29899106719800483 0.54232205800596367 0.16996302053954515 0.34728831262933541 0.2703453451361138 0.2789100883942553 0.31204042868799764 0.35604783161123033 0.28023674906476809 0.31451124688907672 0.34742175643714912 0.35708731251641995 0.32019131733899681 0.3122652349337327 0.017107307110351511 0.35706003834799055 0.35708894802594182 0.32950937703986988 0.26022484948440161 0.16136582456386442 0.33247727999842674 0.35472365128184369 0.34419903221489112 0.27193515492274617 0.20338402656867338 0.38329801900274324 0.33781919243158076 0.35653774302494762 0.28893939499648125 0.33051648008528589 0.35496822510230502 0.37126036062218915 0.32241752643244576 0.28893939499648125 0.32940760522405349 0.35653774302494762 0.33051648008528589 0.21388581476438426 0.34801234570897144 0.32865053768423064 0.3066879312643917 0.19917903906772819 0.31878956448671358 0.21388581476438426 0.34801234570897144 0.32865053768423064 0.19917903906772819 0.34602169107340353 0.24834112442715395 0.35944779472337451 0.058332516419212367 0.3412168026611333 0.39538912297528372 0.42530991335077961 0.067524092082030224 0.35944779472337451 0.39538912297528372 0.35657712556625182 0.15800736546851935 0.32988349489732899 -0.03088429155870449 0.16448396702880314 0.086993836367770291 0.064240688522413603 0.11771407037409749 0.22720164580507632 0.073708688977226489 0.14364496696942297 0.12359708579962654 0.16005584011844778 0.35250377677655548 0.27340864569707624 0.27901927360495155 0.30620081589909565 0.36119931393645793 0.27827510043179698 0.31987849458852363 0.35264265728618732 0.36233596654244016 0.32144916498180454 0.43404153583177368 0.03813800707604683 0.36230837368774149 0.36226255837403704 0.33473235988922773 0.26399576381647888 0.15597497903639895 0.3255008417728591 0.33475029202676176 0.34685144601767343 0.27073525728773723 0.20407238503970079 0.3704514217197914 0.34297439699684573 0.36178119032538114 0.27153544668280288 0.32127741463942677 0.36007693261994794 0.33208975126529577 0.27824093324303073 0.27153544668280288 0.33405120614320172 0.36178119032538114 0.32127741463942677 0.17717230190391728 0.34675558553694641 0.33356436078049584 0.23396185716243698 0.18298727971815745 0.28992314957650023 0.17717230190391728 0.34675558553694641 0.33356436078049584 0.18298727971815745 0.35115283086459564 0.1301389146285851 0.33775276447026958 0.2061878253164996 0.34162088047294265 0.29510058072254747 0.34645918778410295 0.38751368287044929 0.33775276447026958 0.29510058072254747 0.35179209273638351 0.1067889283529766 0.27437250966299903 0.10860044971088352 0.27449459500615547 0.032632281067440295 0.077173793071548938 0.19062547528800547 0.16774728066339076 0.15165277203724434 0.047767348069358548 0.0089894160723250367 0.21000952526836256 0.12780341637733281 0.13677257003247792 0.16983835230607239 0.2195811889569822 0.1374650162056302 0.17458342966502324 0.2102463365184897 0.22075040771087506 0.18075727633809915 0.17807365084314383 -0.14378687765368744 0.22071995642271727 0.22068593684169457 0.19063945525621451 0.11697134937782155 -0.021024257822062214 0.19307138332038279 0.19062316008273369 0.20762369780196668 0.12825468265394094 0.056772998551818388 0.21340140124204829 0.19977722492053959 0.22010885702077496 0.13440792193547271 0.17919932749711101 0.2183690134768943 0.20294294166538221 0.12433643115748332 0.13440792193547271 0.19033197565966031 0.22010885702077496 0.17919932749711101 0.00023868315909124786 0.21067961149227096 0.19006481613131779 0.043442937137604463 0.0053960133447520037 0.15574866584875843 0.00023868315909124786 0.21067961149227096 0.19006481613131779 0.0053960133447520037 0.20858009468913555 0.15404862118393345 0.19360591801536423 -0.10009832107443084 0.20009744862450821 0.07975405048164437 0.19615315638149289 -0.062231302556459339 0.19360591801536423 0.07975405048164437 0.21294990921120618 -0.033596322634004978 0.052453944880687532 -0.20633545257379016 0.0090343129482281723 -0.098420218313605812 -0.19377560595292423 -0.013004401904825871 -0.063999595681399415 -0.050692350590590261 -0.050008049219865493 0.16066350655670594 0.075549979835685691 0.082776948307575413 0.11404255316029621 0.17044057183204267 0.083583816195291663 0.12461166727513312 0.16072782927751569 0.17161209461062166 0.12901783192690749 0.13883509617973847 -0.19806205994797924 0.17158050971858541 0.1716139674282752 0.14091423108164874 0.065464182124454859 -0.081687759396537954 0.13525365472643805 0.12141199715043856 0.15809410165877477 0.075123028701207004 0.002451485428492764 0.15609775998838352 0.15020666313095732 0.17097414542863879 0.080032250332618196 0.12889416964466677 0.16923005148600467 0.15659662568042987 0.09543166778834089 0.080032250332618196 0.14062665355061393 0.17097414542863879 0.12889416964466677 -0.037787560868369388 0.16133964352185645 0.14005456056869844 0.023004449549966079 0.0041912146024923446 0.10601745263706053 -0.037787560868369388 0.16133964352185645 0.14005456056869844 0.0041912146024923446 0.15921360693902914 0.073024621804116563 0.13883792467901981 -0.03057670645233624 0.15073121953105037 -0.050906613427910773 0.15760117119881664 0.0098302105032845415 0.13883792467901981 -0.050906613427910773 0.16662828019095488 -0.094367451152955847 -0.088495784211057305 -0.1177565708429185 -0.018054515242305245 -0.082144141638633761 -0.28052976991413131 -0.055665355292888109 -0.093440122954531898 -0.085497534203863718 0.20785815299411503 0.14843720984096712 0.17357417092422991 0.18234318482243903 0.21771694873581549 0.18627335440541889 0.1757714685877538 0.21331517431385763 0.21805906880751436 0.19900307908886086 0.11746751644401847 -0.13471888048365832 0.21805375910450911 0.2180609397502502 0.18815881365197817 0.1466881836227181 -0.0094637812481182179 0.21517111476972542 0.20762009184210925 0.21887913642903944 0.15298098131281593 0.058457152119737621 0.24043911219948377 0.20345623476974298 0.21777284042229703 0.20269389029997364 0.22789484242746097 0.21682460523694713 0.20988649489771602 0.14679441343157085 0.20269389029997364 0.20413862820949821 0.21777284042229703 0.22789484242746097 -0.012815328581250195 0.23299631246456409 0.2058052704995473 0.059523748900915774 0.007916802151109386 0.21494316224105736 -0.012815328581250195 0.23299631246456409 0.2058052704995473 0.007916802151109386 0.20904302712944164 -0.015395254429678873 0.22012183851682618 -0.10055790654007968 0.22126482833408603 0.031424664762463257 0.2118409947186026 -0.095392201686128178 0.22012183851682618 0.031424664762463257 0.24415657276909433 -0.047491494743188534 -0.0038265063661878118 -0.1759779621128654 -0.029591467719663884 -0.058506263953928161 -0.11512077695018495 -0.058023603708008402 -0.026076054759463566 -0.1012225189602813 -0.089272666945451065 -0.082538184409713569 -0.057051581159451498 0.010069615604459703 -0.083358914422652794 -0.037170516046462661 0.00040437856186428394 0.011239126322368306 -0.036116627711700752 -0.093672989303074203 -0.33271423419935547 0.011207268180622841 0.011242945510257396 -0.020665346223748975 -0.098306009632724803 -0.21773549278510229 -0.03333155216332253 -0.053958296269533995 -0.0071618324325683084 -0.091483545569038885 -0.16128698149367884 -0.006227817033334534 -0.010788004555280541 0.010754199797913528 -0.095069840970999006 -0.042408237366917005 0.0092619645434803156 -0.033532902769276431 -0.11020229249794121 -0.095069840970999006 -0.021374740854094524 0.010754199797913528 -0.042408237366917005 -0.22107522100331986 -0.0089914133391567168 -0.02162555752920195 -0.1700408822288921 -0.20291070000664804 -0.079439793556737873 -0.22107522100331986 -0.0089914133391567168 -0.02162555752920195 -0.20291070000664804 -0.0013361286242993136 -0.22135620419715252 -0.031524217292475419 -0.30117382508462648 -0.012941056681546629 -0.18213024541438264 -0.054307280425472775 -0.29659177682429755 -0.031524217292475419 -0.18213024541438264 -0.0016848902294079166 -0.24551521047685188 -0.20973647381646457 -0.36920839465647082 -0.23497099986080813 -0.2625930869127025 -0.30178367912952336 -0.26120232829163925 -0.22917832524382273 -0.30003205947813227 0.028077019387210331 0.074129611697575773 0.099481085313171055 0.039107773462716329 0.055451662200313286 0.095185169441700024 0.098845334502901006 0.06705920122485548 -0.0060140274831450222 -0.25240719672428819 0.098788243210807369 0.098846766840276504 0.069452163426153568 -4.640320894067111e-05 -0.15447923998771737 0.086628943109292422 0.043471990055219234 0.093592553298870687 0.018156497229707445 -0.065370416179606469 0.09302444728279291 0.084009149831386895 0.10046054547667155 0.0086254369362783554 0.072395197308757375 0.097956362087421631 0.060015515687625344 -0.018680155644491436 0.0086254369362783554 0.068946840425446757 0.10046054547667155 0.072395197308757375 -0.14026851945642871 0.099524987440983106 0.076027650988311032 -0.087250042713799394 -0.12188816031163217 0.020537338011535389 -0.14026851945642871 0.099524987440983106 0.076027650988311032 -0.12188816031163217 0.087697885303193959 -0.13648380174333344 0.064053077220834337 -0.21928282411198077 0.082683469928548428 -0.096736979434687023 0.039050684631374552 -0.21438235562643171 0.064053077220834337 -0.096736979434687023 0.099328244223660891 -0.16280901566856051 -0.12609003202963917 -0.29093827167660635 -0.15059908124303739 -0.17895293311660221 -0.22342622927179209 -0.1778265280380644 -0.14958356539737416 -0.21828752904733192 0.042128352564177858 0.093567776583009923 0.014698641005579174 0.048050990239735691 0.08658578937227572 0.093277648271432215 0.060251380414947681 -0.011682198774600812 -0.25774769643833501 0.093245232038247347 0.093272716555113031 0.06261589759129968 -0.032560611391108517 -0.20042090532162929 0.055124457334637049 0.034439536782500273 0.078956319649791856 0.003687062840174483 -0.090208956939264062 0.087067512271550851 0.077248721101199666 0.093352347983501269 -0.0070001824752936393 0.058347212333688565 0.092101544103534438 0.0550830699102264 -0.020736490101561131 -0.0070001824752936393 0.06295547118213346 0.093352347983501269 0.058347212333688565 -0.149270568239005 0.087955967732895601 0.068545961772030872 -0.096483228110646857 -0.13052962097870283 0.0071192229696364871 -0.149270568239005 0.087955967732895601 0.068545961772030872 -0.13052962097870283 0.08155613334851454 -0.14225712609601954 0.058678814035796535 -0.22479194270188715 0.075688047344286344 -0.10391330836941513 0.032986539277953558 -0.21987090811592905 0.058678814035796535 -0.10391330836941513 0.090178769086924251 -0.17036422454070529 -0.13371670977907682 -0.296186167029797 -0.15677904926089156 -0.18440034992820778 -0.2326878580916284 -0.18361789170464529 -0.16076107642964518 -0.22414986437247833 0.06770782150115727 -0.035618034834149666 0.022422977138561614 0.060178479512961215 0.068125643435627534 0.02366519912546881 -0.037607398226400572 -0.28280884867777467 0.068095409518468777 0.068130416615566 0.036908430655450082 -0.07073678578376405 -0.19922604058606971 0.014180619747107189 0.028812083345647835 0.040362687063221402 -0.047894901955886256 -0.14857910916149111 0.062797474409444914 0.048526878274650076 0.068029274151496066 -0.042263136308751066 0.01479508638191541 0.066034883851614115 0.031382518524765354 -0.036668765704681368 -0.042263136308751066 0.036252470847613211 0.068029274151496066 0.01479508638191541 -0.15763039083816821 0.050812520097139276 0.040181044300293851 -0.11240278360382988 -0.12692174648543325 -0.021443706928050959 -0.15763039083816821 0.050812520097139276 0.040181044300293851 -0.12692174648543325 0.055637035660596551 -0.16900303137766379 0.027900150912908806 -0.25142664263907449 0.045424996198086681 -0.13190550604772028 0.0081254632426220313 -0.24497209664338213 0.027900150912908806 -0.13190550604772028 0.058688826549455501 -0.20712777602302812 -0.16299223734099155 -0.32070696311898411 -0.18760857356587998 -0.20918758664656653 -0.27183284192744001 -0.2136861158124729 -0.18777976445711678 -0.25455388453964889 -0.094297436116684508 -0.047437815770476205 -0.010156858565493058 0.0011988818615340836 -0.046460263804807549 -0.10366074869160487 -0.34157248026859416 0.0011670673297456105 0.0012007687580929413 -0.030835489266398217 -0.10944607324587428 -0.22781136569022042 -0.043447606348958723 -0.064136364185309422 -0.017335477951913127 -0.1028354467909675 -0.17225795724486134 -0.016338932715437387 -0.02123431954811042 0.00047669952900959538 -0.10528990160197739 -0.052531846332252552 -0.0012390465954469217 -0.043497164317557423 -0.12029378193319477 -0.10528990160197739 -0.031072079750523503 0.00047669952900959538 -0.052531846332252552 -0.23063163715293536 -0.019199138351422344 -0.031794948988764456 -0.17983475051451311 -0.21265247641488708 -0.08967468148376978 -0.23063163715293536 -0.019199138351422344 -0.031794948988764456 -0.21265247641488708 -0.011545812597034135 -0.23083014203811147 -0.041432470522576585 -0.31027132329052187 -0.022978425457986142 -0.19181912861593106 -0.06430944793690703 -0.30574802248868355 -0.041432470522576585 -0.19181912861593106 -0.011805517167502623 -0.25495602296078584 -0.21934450322636781 -0.37796376999786441 -0.24436456947017671 -0.27183102896659039 -0.31099865482612271 -0.27057166943410466 -0.23878992402869462 -0.30910396355876629 0.048719402735702085 0.087838982884576935 0.094302015684379167 0.055472284384958825 -0.010672720632014054 -0.25687503127376415 0.094265935942280832 0.094299378506885675 0.063233611059835715 -0.021436641449823376 -0.1766573212706688 0.043005937649142713 0.029575085375865454 0.081383122984166764 -0.014851136432563847 -0.10514851431653427 0.087898333049257982 0.076282725456659664 0.094006152727834566 -0.018087481962833923 0.052700753712379672 0.092539396658768938 0.052903929225838899 -0.035806161430621777 -0.018087481962833923 0.063215019957176835 0.094006152727834566 0.052700753712379672 -0.15498899701000954 0.085926792659394069 0.06907658148108331 -0.1030447747695203 -0.13844697245454132 0.0029472134917700177 -0.15498899701000954 0.085926792659394069 0.06907658148108331 -0.13844697245454132 0.082307826372390674 -0.1415456269726651 0.057069904545885695 -0.22410818683740433 0.07403399269853371 -0.10353128508712046 0.031642500115418491 -0.21904911020532677 0.057069904545885695 -0.10353128508712046 0.088203613366646005 -0.17209061676229423 -0.13364995191688744 -0.29553143741254417 -0.15636984073000371 -0.18343081867097458 -0.23476373905185818 -0.18347341230213945 -0.16339390313202581 -0.22413787752614545 0.037683202417111344 0.048035957516962012 3.3773534766106651e-05 -0.057046993883767876 -0.29964663986198142 0.048004209160066258 0.048037856669908029 0.016843162398804873 -0.066894846261556534 -0.18503912822758428 0.0030690381710334023 -0.01732589452752693 0.030536846854055468 -0.05752364037122986 -0.12717028672562919 0.031795381292942064 0.027075290828291701 0.047687954417430033 -0.060048417247383183 -0.0059060992964279991 0.046123975628511615 0.0034580382569408801 -0.073922477758712954 -0.060048417247383183 0.015920923407041175 0.047687954417430033 -0.0059060992964279991 -0.1858974362751584 0.028725310101158669 0.016816731486822768 -0.13422909994545565 -0.16749012660400886 -0.043534353619839129 -0.1858974362751584 0.028725310101158669 0.016816731486822768 -0.16749012660400886 0.035546305185375021 -0.18603231883608065 0.0056103247364684547 -0.26720205048059059 0.024115617664910865 -0.14622893494509737 -0.017546935433843915 -0.26257582154373943 0.0056103247364684547 -0.14622893494509737 0.035920721993751417 -0.21062552604381427 -0.1742804492619032 -0.33694794208917905 -0.1998952349216577 -0.22790856276901125 -0.26800938133313362 -0.22655151235983942 -0.19412249078207067 -0.2660831962626094 0.011140972634616206 -0.038938230439045034 -0.093797198821864283 -0.33285954764052944 0.011109085282023408 0.011142796748322388 -0.020923219168398888 -0.10379251722673072 -0.22034804559573037 -0.034932350223969677 -0.054466383137870777 -0.0071991310920554016 -0.095483087993535443 -0.1633563012893598 -0.0065635709196985069 -0.013738410485736338 0.010485301573162449 -0.097049117685292105 -0.043556288745579243 0.0090623543057368541 -0.033584194825445716 -0.11066872187588467 -0.097049117685292105 -0.021339906437907966 0.010485301573162449 -0.043556288745579243 -0.22121357440333211 -0.0095149383300665424 -0.021788506707283245 -0.17031532401898716 -0.20321354351743345 -0.080958574030984581 -0.22121357440333211 -0.0095149383300665424 -0.021788506707283245 -0.20321354351743345 -0.001606161795431103 -0.22138471278738572 -0.03184572292186634 -0.30125504667787134 -0.013131417214570654 -0.18213858835223617 -0.054479903424856063 -0.29673340962277156 -0.03184572292186634 -0.18213858835223617 -0.0017530512577849202 -0.24565351892405743 -0.20985624712759754 -0.36933148969313051 -0.23501220829786565 -0.26262026742883471 -0.30198378224175648 -0.26130353093360664 -0.22941415972244913 -0.30005992785372415 -0.046954789781571832 -0.10482428775844327 -0.34259383347084854 -3.1805266608804523e-05 1.8974183307837391e-06 -0.031376443451707044 -0.10891379383611367 -0.22822376643030037 -0.044049419742960554 -0.065141973464228176 -0.018388795224502614 -0.10248827501869702 -0.17218692555506401 -0.01745484446250847 -0.021997346918012944 -0.00063428678905476886 -0.10596838886383558 -0.053532792035679594 -0.0024329485022155212 -0.044593058366478727 -0.12125306122801303 -0.10596838886383558 -0.032236315744953108 -0.00063428678905476886 -0.053532792035679594 -0.23171748513176807 -0.020199805977857473 -0.0326458303510496 -0.18090105811146528 -0.21364760646936784 -0.090483181446492963 -0.23171748513176807 -0.020199805977857473 -0.0326458303510496 -0.21364760646936784 -0.012734983755329539 -0.23202012247091541 -0.042471189463527466 -0.31135123998006958 -0.024108510546613556 -0.19295411795219489 -0.065467622050927807 -0.30675252215063603 -0.042471189463527466 -0.19295411795219489 -0.012968629768911477 -0.25595763016081563 -0.22047645215871525 -0.37889498568263952 -0.2455096699340803 -0.2729566184748371 -0.31203065065464231 -0.27159317929853305 -0.23984570198330538 -0.31020625813174335 -0.058314163920834793 -0.30060745235630199 0.046922776921737457 0.046956401752768072 0.015740608863056341 -0.080174289169323912 -0.20679300145453272 -0.00012779319921517405 -0.017305557382105419 0.029929956069794452 -0.06329744222952631 -0.14089978533363814 0.032138872565217184 0.02524295008312542 0.04685847119228153 -0.067577663960890252 -0.0034708696970953746 0.044800247197486855 0.0036512846202392695 -0.076681045630880157 -0.067577663960890252 0.01497127999447441 0.04685847119228153 -0.0034708696970953746 -0.19384452427792223 0.028815687675324983 0.014628764944058001 -0.14120738357870713 -0.17644475133439608 -0.046160574014872106 -0.19384452427792223 0.028815687675324983 0.014628764944058001 -0.17644475133439608 0.034635871686133482 -0.18771564454944731 0.005397129849425023 -0.2685296521848981 0.02354925034863475 -0.14914682771235352 -0.018204751287243508 -0.26377372045835124 0.005397129849425023 -0.14914682771235352 0.035939676942869293 -0.21480053340197416 -0.17808131072205946 -0.33802648372847571 -0.20177221060253966 -0.22904818523514212 -0.27447051494794372 -0.22824973494328385 -0.20270616628903851 -0.26801999583814984 -0.44342639578110371 0.10479282463100086 0.10482605311321086 0.073687377932082562 -0.004157914000391701 -0.13061548663187642 0.061593249310083031 0.034081888496969102 0.086798708509881695 0.0023669775408523574 -0.069367109872519206 0.090931464048967611 0.083009236186648669 0.10418154622811042 -0.0012306196345778161 0.052305239074565392 0.10240952075728584 0.062527367446616897 -0.020125552732054412 -0.0012306196345778161 0.072805382178930469 0.10418154622811042 0.052305239074565392 -0.14424252925914807 0.085316997851715523 0.072418211660079002 -0.10196258494068178 -0.12471282234732201 0.01462455220318124 -0.14424252925914807 0.085316997851715523 0.072418211660079002 -0.12471282234732201 0.092187811396309563 -0.19663367741520374 0.063870408790384151 -0.49098789548049498 0.080957780169535518 -0.11818079916504583 0.042407383135042692 -0.42924591071030394 0.063870408790384151 -0.11818079916504583 0.092143127446932538 -0.31224231505690131 -0.18356507958194243 -0.56603480698672548 -0.30503348577992717 -0.22012511437582488 -0.28202265550486411 -0.29744082494423396 -0.17605263336295709 -0.34294428211361477 0.34264438015266213 0.34267385259617872 0.31468873669205549 0.24285055624745164 0.12458220738478354 0.30337321080880947 0.29884572001749049 0.32640985686989371 0.24901820526363358 0.18148960607058517 0.33427519123979949 0.32317167740961772 0.34211447425747749 0.24617748666082787 0.29515896068064118 0.34052684284792378 0.30359003617405955 0.23449829470651493 0.24617748666082787 0.31389714469757202 0.34211447425747749 0.29515896068064118 0.12636875839967246 0.32514410598030413 0.31360175412781111 0.17948102470855243 0.1443178346192254 0.26116525240074423 0.12636875839967246 0.32514410598030413 0.31360175412781111 0.1443178346192254 0.33143392382025688 0.1250166203780394 0.30595599850428457 0.050210360632287683 0.32118315271422299 0.17807911123508316 0.28607788421994601 0.056805894505408655 0.30595599850428457 0.17807911123508316 0.331214758935576 0.090669500351077029 0.13901382463293313 -0.088751899755910316 0.10855735455818388 0.099893002687291121 0.036294782132986723 0.088612916315191539 0.11539956014725206 0.02996663049136733 3.3702299233050438e-05 -0.0313446535779189 -0.1088857888623479 -0.22819327213398613 -0.044017700376746162 -0.065110420006948277 -0.01835699307377598 -0.10245675651206572 -0.17215410739235146 -0.017423541565136591 -0.021965471901506602 -0.00060247185342529651 -0.1059244899956177 -0.053499880411179618 -0.0024011307687882063 -0.044561299087783647 -0.12122222562697939 -0.1059244899956177 -0.032209365783612484 -0.00060247185342529651 -0.053499880411179618 -0.2316870993219651 -0.020170548197996557 -0.032613974842724582 -0.18086990193806071 -0.2136181978098067 -0.090451625000830024 -0.2316870993219651 -0.020170548197996557 -0.032613974842724582 -0.2136181978098067 -0.012703227055980848 -0.23192709759648408 -0.04244137182885932 -0.31132249626285152 -0.024076725145244938 -0.19292366778512837 -0.065447669918681103 -0.30672455176872609 -0.04244137182885932 -0.19292366778512837 -0.012936371889452661 -0.25611186454821627 -0.22044678935171488 -0.37886789877622923 -0.24547906666973332 -0.27293852467692337 -0.31199306619509981 -0.27156340487754171 -0.2397591455728354 -0.31017757587319011 -0.031378262057106115 -0.10891829730678876 -0.22822554609596049 -0.044051310754305878 -0.065144170181045832 -0.0183906931294841 -0.10249015952941226 -0.17218880978091969 -0.017456742065148117 -0.021999244716769128 -0.00063617328174108367 -0.10597026759966512 -0.053533467941339792 -0.0024348324926553519 -0.044608307082685351 -0.12125493190397153 -0.10597026759966512 -0.032238219403811455 -0.00063617328174108367 -0.053533467941339792 -0.23171927628760014 -0.020204093167515067 -0.032647727113315657 -0.18090291146150861 -0.21364938904481987 -0.090482330608009753 -0.23171927628760014 -0.020204093167515067 -0.032647727113315657 -0.21364938904481987 -0.01273687855665998 -0.23196015045057872 -0.042475226390748431 -0.31135295976231281 -0.024110407424966503 -0.19295599064377542 -0.065481255036698369 -0.30675421505686656 -0.042475226390748431 -0.19295599064377542 -0.012970529171634765 -0.25595938705392213 -0.22047818308782621 -0.3788966044368085 -0.24551145572714475 -0.27295835193317286 -0.31203239130582533 -0.27159495294815983 -0.23984750207403907 -0.31020797463999406 -0.078427914589460412 -0.19834838731767448 -0.012926715976914393 -0.033849643876790451 0.012903751532537519 -0.071465870145092272 -0.14161067417805429 0.014177766507661504 0.010409977729437695 0.031303778485723792 -0.074941573792566649 -0.022238765788551624 0.029393023613915836 -0.013422527433527743 -0.090248530765925497 -0.074941573792566649 -0.00086795787027432736 0.031303778485723792 -0.022238765788551624 -0.20184058384785752 0.011216933782177601 -0.0012958489790047955 -0.15036942500589967 -0.18350928454436807 -0.059311414272533704 -0.20184058384785752 0.011216933782177601 -0.0012958489790047955 -0.18350928454436807 0.018722108962567912 -0.20214801521490613 -0.011134540688663935 -0.28271481878134175 0.007283119992866933 -0.16251122613025648 -0.034176956798635146 -0.27813488557208982 -0.011134540688663935 -0.16251122613025648 0.018489973202680959 -0.22650671235131747 -0.19037201678444271 -0.351739426403199 -0.21581061431640922 -0.24373591578732148 -0.28350208551713946 -0.2423033672596008 -0.21000668927149743 -0.28155152600480132 -0.1560887673665789 0.075786430276304481 0.050308700838703119 0.1000454674158282 0.022886091503061635 -0.065134241193856635 0.10240781579650587 0.093402369072117783 0.10960561263660594 0.0072176172703804211 0.068578922297165057 0.10725915887057846 0.069275825196611351 -0.011190861557164403 0.0072176172703804211 0.078291773370339865 0.10960561263660594 0.068578922297165057 -0.13044436333026918 0.101537001424436 0.084949580846282347 -0.078415824952055402 -0.1130942077578679 0.022887338904064539 -0.13044436333026918 0.101537001424436 0.084949580846282347 -0.1130942077578679 0.097039101444776343 -0.12642147168966819 0.072666341335891407 -0.2095771678492693 0.089620274155025811 -0.08641925693961898 0.046818986767511395 -0.20475014916359321 0.072666341335891407 -0.08641925693961898 0.10592737725909851 -0.15277362601538216 -0.11575523935096427 -0.28167506699854677 -0.14069114092449544 -0.16910576468988758 -0.21345360514499645 -0.16792844089926426 -0.13905474430652995 -0.20858191986799759 0.21227518562508244 0.22046248536614499 0.22595045673240385 0.17480023516501145 0.072172916268374576 0.25084521335629739 0.21040082598431811 0.22778500262831125 0.18524193897516139 0.22791759399154343 0.22675834181539109 0.23323789290869978 0.19248151648299913 0.18524193897516139 0.20351109811767021 0.22778500262831125 0.22791759399154343 0.010995060320374549 0.23946555752666446 0.21001551024974643 0.11399752397914244 0.023831019905566585 0.20556996487281398 0.010995060320374549 0.23946555752666446 0.21001551024974643 0.023831019905566585 0.21712412417176488 -0.0008147086598375284 0.22607170010428337 -0.0912500432678683 0.22658672377243558 0.054065932734725458 0.29474184231439687 -0.085429918731083798 0.22607170010428337 0.054065932734725458 0.24164702720863215 -0.038656870246933935 0.017794537194758563 -0.16682776082750542 -0.018335705628519813 -0.04820406963513401 -0.10515813274966716 -0.048797793285626147 0.012005910976042332 -0.093002252532407084 -0.0084529470326570304 0.026527683567806801 -0.060692620146116823 -0.14030150215000114 0.038585257554629653 0.024891518272999295 0.04393354178154868 -0.061608321605932402 -0.002426474934373605 0.042803373515998028 0.012417727928457127 -0.068650357733968131 -0.061608321605932402 0.012414202151071063 0.04393354178154868 -0.002426474934373605 -0.20057671761961959 0.029243919670854851 0.015823608618639486 -0.14155046604822696 -0.17812440877537983 -0.042559384280350186 -0.20057671761961959 0.029243919670854851 0.015823608618639486 -0.17812440877537983 0.03233960728050652 -0.19193650406941257 0.0063820736675716016 -0.27164815708490514 0.021306858610366922 -0.15521924019336067 -0.013968393650094621 -0.26671575850103196 0.0063820736675716016 -0.15521924019336067 0.035013790969716158 -0.22351020928369428 -0.18669763369458325 -0.34102355947238711 -0.20666591818431609 -0.23188051843405533 -0.2860075456249917 -0.23270910592640379 -0.21189585842597949 -0.27281053414263051 0.047468481107039918 -0.039367081108891304 -0.13975001123158989 0.036658611546267823 0.043575835802507144 0.064533601895728335 -0.063332979483055787 0.0050840552982372757 0.062783383091105732 0.014582495607365019 -0.084371801003869262 -0.063332979483055787 0.033267617321796207 0.064533601895728335 0.0050840552982372757 -0.21561759789542573 0.045131364848382871 0.033644761732806922 -0.13132626812209297 -0.22732019462163899 -0.039659188743006148 -0.21561759789542573 0.045131364848382871 0.033644761732806922 -0.22732019462163899 0.052499319498414632 -0.18014220345566737 0.01826850419528897 -0.27162382001871077 0.042223178645064696 -0.12694778258315029 -0.0044908732897495866 -0.26079953361550695 0.01826850419528897 -0.12694778258315029 0.053714862052849116 -0.24544481091179404 -0.15972118755119158 -0.34259556371080696 -0.19848597678403343 -0.21899404325424263 -0.29367547179348108 -0.22873539392986031 -0.24126967717598258 -0.27321688847855968 -0.087428870048377405 -0.14657463902086806 0.0012601879456700452 -0.0038324090901752706 0.017858367578193243 -0.091855557252322084 -0.03344870801521959 0.016016585378919649 -0.026604837989881017 -0.1052837624303421 -0.091855557252322084 -0.013924624469672653 0.017858367578193243 -0.03344870801521959 -0.22302290478552902 0.00057810707325527903 -0.014892435643443598 -0.17242334743978308 -0.2076105711611701 -0.076483956350811136 -0.22302290478552902 0.00057810707325527903 -0.014892435643443598 -0.2076105711611701 0.005659855074921079 -0.21478633247819282 -0.024459363695836626 -0.29483437917689254 -0.0057223721686277184 -0.17742007369101434 -0.047854671798055963 -0.29005298270943142 -0.024459363695836626 -0.17742007369101434 0.005773913207898101 -0.24211296504551696 -0.2072781015870212 -0.36308576168641893 -0.22934898722980354 -0.2559524645706695 -0.30236562623643165 -0.25535483757559124 -0.23087911231018121 -0.29428913880454427 -0.095076453837189059 0.096255714240385926 0.084747336912525617 0.10214096771138037 0.0018772867803539262 0.068194529808901783 0.10044709905265987 0.070456002203938342 -0.016483347156323446 0.0018772867803539262 0.071621820887266083 0.10214096771138037 0.068194529808901783 -0.1441063118748597 0.093652937310559403 0.07732800451576434 -0.089478086292954631 -0.1291043939111505 0.016021586202915862 -0.1441063118748597 0.093652937310559403 0.07732800451576434 -0.1291043939111505 0.090297771305083596 -0.13319422206296236 0.070656095663961346 -0.21597716702405034 0.083447588423221974 -0.095480072850371342 0.042152865886664538 -0.21112869212142082 0.070656095663961346 -0.095480072850371342 0.099514429523445427 -0.16161472247510925 -0.1260509998065579 -0.28777023224618226 -0.14783407809643034 -0.17542701491821597 -0.22559786641668769 -0.17485952972341837 -0.15637220459822174 -0.21564769426312244 0.18301797769431064 0.15264232022718113 0.17179023683544573 0.083625822792898666 0.14312698461273446 0.17007410558996097 0.14081834076344632 0.083171790376561347 0.083625822792898666 0.14128755617198246 0.17179023683544573 0.14312698461273446 -0.064036839849475655 0.16689565648729962 0.14701502271093278 -0.013412080472119109 -0.047665550330625063 0.096794088187746305 -0.064036839849475655 0.16689565648729962 0.14701502271093278 -0.047665550330625063 0.15992529894389018 -0.062638490362344812 0.14253743423413384 -0.14773465654406343 0.15358923902001612 -0.022450864748076987 0.12146713793152526 -0.14230971922281668 0.14253743423413384 -0.022450864748076987 0.16668513746179803 -0.092431419926180647 -0.053929446900291299 -0.2214987771340092 -0.078205125038511139 -0.10585954889336407 -0.16042514705663122 -0.10570831398975167 -0.085108337170792303 -0.14751654596766522 -0.0046707786738931353 0.016932198237021075 -0.10423086477127937 -0.040498952271097156 0.015136173600957826 -0.01539296289297174 -0.089744211244719985 -0.10423086477127937 -0.015057971157418403 0.016932198237021075 -0.040498952271097156 -0.19384059951272942 -0.0037437342107656292 -0.011576780861445415 -0.07933425179805334 -0.197388920595685 -0.079828339499861387 -0.19384059951272942 -0.0037437342107656292 -0.011576780861445415 -0.197388920595685 0.0047626518901409277 -0.22688721612182697 -0.029370469865061227 -0.31001139791102977 -0.0067623697866430492 -0.17152630984628481 -0.037637174162425638 -0.30134270772720845 -0.029370469865061227 -0.17152630984628481 0.0059522625893632724 -0.2724190075119684 -0.19970915681977783 -0.3768572185605818 -0.24875735182311243 -0.26285186905856983 -0.3226183951298815 -0.27723402007318576 -0.15571774040206332 -0.32020785990140005 0.020038498437563182 -0.087164029337593527 -0.032584888791578399 0.019845246201533728 -0.022717386755026256 -0.10001950131773187 -0.087164029337593527 -0.01029877605537937 0.020038498437563182 -0.032584888791578399 -0.21092236761939767 0.0018658427706565259 -0.011094407110131856 -0.15986334318317183 -0.19275506415650559 -0.071262463336791371 -0.21092236761939767 0.0018658427706565259 -0.011094407110131856 -0.19275506415650559 0.0093927872371141734 -0.21110209248217002 -0.021058048680825087 -0.29130879022470152 -0.0022437054718089616 -0.17164886983254371 -0.043703506522787365 -0.28669981339262723 -0.021058048680825087 -0.17164886983254371 0.0094076360100633603 -0.23537552493298097 -0.1994538366977123 -0.35995233838361845 -0.22472465353077006 -0.25261171512235953 -0.29205214132333096 -0.25111002444126806 -0.21905728072996164 -0.29014607705553613 -0.10549402662050543 -0.052991674120138561 -0.0017142064367208249 -0.044054023782082674 -0.12064976870713849 -0.10549402662050543 -0.031696086936190006 0 -0.052991674120138561 -0.23111667071787709 -0.019677463734479001 -0.03230940850243378 -0.18028251516595972 -0.21311187576797117 -0.089995535395366422 -0.23111667071787709 -0.019677463734479001 -0.03230940850243378 -0.21311187576797117 -0.012130724301389556 -0.23143007852563172 -0.041925720765388863 -0.31078849259884039 -0.023505873080822359 -0.19234065751245408 -0.064857007272089109 -0.30618905243357558 -0.041925720765388863 -0.19234065751245408 -0.012366864488887875 -0.25540634284507141 -0.21988656364992862 -0.37835362421684976 -0.24490565901243122 -0.27237734192415203 -0.31145372589776471 -0.27106522997904708 -0.23925281181270583 -0.30960968628652102 0.067281848169392214 0.10407294806841255 0.074310958522106355 -0.0085339678025844468 0 0.077480703717109703 0.10550630102985877 0.067281848169392214 -0.14381614524200895 0.093822286887846842 0.078888014807996024 -0.083628769969659955 -0.12301902916248404 0.022323212370573775 -0.14381614524200895 0.093822286887846842 0.078888014807996024 -0.12301902916248404 0.094363551896812434 -0.13309683370708725 0.07830334457598756 -0.21444741332385509 0.091982648927935159 -0.095636328524021638 0.064268539168236688 -0.2086342548830418 0.07830334457598756 -0.095636328524021638 0.10540636495675147 -0.17503011892942152 -0.12707641498793287 -0.28547278613203297 -0.14783826740335182 -0.17243981616970319 -0.23662411795533067 -0.17462070689768813 -0.14727841888177792 -0.21820770255261931 0.05136454749951045 0.011456396460381622 -0.069604780815619868 -0.06729667559645662 0.021494527215872219 0.052997946331491998 0 -0.19430448111745083 0.032174816745440524 0.021098103687286065 -0.13385772115628924 -0.17492114301515641 -0.048177778807252769 -0.19430448111745083 0.032174816745440524 0.021098103687286065 -0.17492114301515641 0.041271425317809592 -0.184107834437262 0.014039806283630567 -0.26408733183273042 0.030579505840601418 -0.14893095449613747 -0.00256162269305262 -0.25847877742432934 0.014039806283630567 -0.14893095449613747 0.044332922268264269 -0.21645417232854347 -0.17999908304856849 -0.33322954529491428 -0.19899263048444252 -0.22318810599155348 -0.28245821074404343 -0.22557594704865705 -0.20446840361135599 -0.26662868175446508 -0.042266546315226472 -0.11896158968453689 -0.10409701853273388 -0.030157404626193676 0.0017162006477477161 -0.051368721950243952 -0.22941910118481049 -0.017980123266772074 -0.030271773427990267 -0.17858090463909707 -0.21139765142994901 -0.088666582564435673 -0.22941910118481049 -0.017980123266772074 -0.030271773427990267 -0.21139765142994901 -0.010359500867823541 -0.22966233176140385 -0.04019342228756706 -0.30916762397451186 -0.021819650217558207 -0.19060553163659585 -0.0631001905973234 -0.30463696724847161 -0.04019342228756706 -0.19060553163659585 -0.010566248005698914 -0.25367434721877674 -0.21821077535291866 -0.37681209201606203 -0.2432420047412904 -0.27081528274345473 -0.30983090516884693 -0.26942312208721281 -0.23751614535014676 -0.30798709466816071 -0.064170121293845403 -0.074296624812994899 0.012437453526786421 0.04404467579624155 -0.011469280325084425 -0.22711987392846397 0.023786948355540734 0.012171758621077914 -0.15707440242047019 -0.19952038336740943 -0.05144807509924116 -0.22711987392846397 0.023786948355540734 0.012171758621077914 -0.19952038336740943 0.031916787000343429 -0.19775617338525586 0.0021246903992998734 -0.27452607748859698 0.021222304715464695 -0.17060517560353719 -0.014415484521531687 -0.26823370988557466 0.0021246903992998734 -0.17060517560353719 0.031259204556890879 -0.24433575994954901 -0.20445573913133017 -0.34258517842941066 -0.21183182819802351 -0.23238474484995916 -0.31608935599627214 -0.23829538721601526 -0.2465201753868983 -0.28334975617867836 0.0084917608845548956 0.090649446357846108 0.12064151328249219 0.069590340037606016 -0.15960175368348528 0.10508104483832147 0.09133584795693557 -0.077252997558074188 -0.13991298165872179 0.02265468667913834 -0.15960175368348528 0.10508104483832147 0.09133584795693557 -0.13991298165872179 0.10881289110922415 -0.12066207519636556 0.075312220613218073 -0.20671418742299563 0.1034711763230846 -0.072888331400100217 0.083760109013103642 -0.19844627192918976 0.075312220613218073 -0.072888331400100217 0.11288611957340601 -0.19113488171881723 -0.12081289749696633 -0.27761707830187637 -0.1408554132259042 -0.1596660873625935 -0.258888968328231 -0.17107590784281457 -0.17283218829059668 -0.21431500444738813 0.077480703717109703 0.10550630102985877 0.067281848169392214 -0.14381614524200895 0.093822286887846842 0.078888014807996024 -0.083628769969659955 -0.12301902916248404 0.022323212370573775 -0.14381614524200895 0.093822286887846842 0.078888014807996024 -0.12301902916248404 0.094363551896812434 -0.13309683370708725 0.07830334457598756 -0.21444741332385509 0.091982648927935159 -0.095636328524021638 0.064268539168236688 -0.2086342548830418 0.07830334457598756 -0.095636328524021638 0.10540636495675147 -0.17503011892942152 -0.12707641498793287 -0.28547278613203297 -0.14783826740335182 -0.17243981616970319 -0.23662411795533067 -0.17462070689768813 -0.14727841888177792 -0.21820770255261931 0.031696467161171721 -0.021490554842704884 -0.20145710658236129 0.012176685357102377 -0.0005447671538943514 -0.15045047483276883 -0.18320354480859438 -0.061047758414560699 -0.20145710658236129 0.012176685357102377 -0.0005447671538943514 -0.18320354480859438 0.021067080514058686 -0.20140503982286931 -0.011154768177562399 -0.28195505569461027 0.01031165636611639 -0.16180050098804735 -0.033712134975738349 -0.2773428930035336 -0.011154768177562399 -0.16180050098804735 0.022124949818868488 -0.22581880982496719 -0.18991760963086837 -0.3509003707876 -0.21495754344533621 -0.24290076243951789 -0.28291586679678843 -0.24146833589305439 -0.20995822669534633 -0.28081947582719463 -0.052991674120138561 -0.23111667071787709 -0.019677463734479001 -0.03230940850243378 -0.18028251516595972 -0.21311187576797117 -0.089995535395366422 -0.23111667071787709 -0.019677463734479001 -0.03230940850243378 -0.21311187576797117 -0.012130724301389556 -0.23143007852563172 -0.041925720765388863 -0.31078849259884039 -0.023505873080822359 -0.19234065751245408 -0.064857007272089109 -0.30618905243357558 -0.041925720765388863 -0.19234065751245408 -0.012366864488887875 -0.25540634284507141 -0.21988656364992862 -0.37835362421684976 -0.24490565901243122 -0.27237734192415203 -0.31145372589776471 -0.27106522997904708 -0.23925281181270583 -0.30960968628652102 -0.19430448111745083 0.032174816745440524 0.021098103687286065 -0.13385772115628924 -0.17492114301515641 -0.048177778807252769 -0.19430448111745083 0.032174816745440524 0.021098103687286065 -0.17492114301515641 0.041271425317809592 -0.184107834437262 0.014039806283630567 -0.26408733183273042 0.030579505840601418 -0.14893095449613747 -0.00256162269305262 -0.25847877742432934 0.014039806283630567 -0.14893095449613747 0.044332922268264269 -0.21645417232854347 -0.17999908304856849 -0.33322954529491428 -0.19899263048444252 -0.22318810599155348 -0.28245821074404343 -0.22557594704865705 -0.20446840361135599 -0.26662868175446508 0.2271237252611423 0.20140901672473702 0.078702818979636838 -0.00038648333618886843 0.16798039220892114 0 0.2271237252611423 0.20140901672473702 -0.00038648333618886843 0.21964484529344638 -0.0025809965792600465 0.20417780963511767 -0.099104631898587522 0.2117344731530206 0.061278389362055451 0.21751320699046695 -0.08629236610919605 0.20417780963511767 0.061278389362055451 0.22758384276964747 -0.099263368955703549 0.00092424500692113009 -0.17342568052603294 -0.02187447684329728 -0.046312740205272623 -0.17091856129961078 -0.059334156484784795 -0.009578070373261291 -0.10778411053344143 -0.013752641540806786 -0.17342936905362427 -0.20839546023957614 -0.078196578478791287 -0.22717885201252508 0 -0.013752641540806786 -0.20839546023957614 0.0075532882525282232 -0.21385056150211779 -0.023016249074078805 -0.29397924984855561 -0.0039559538097925975 -0.17867784164335457 -0.045962019280603859 -0.28872223907137395 -0.023016249074078805 -0.17867784164335457 0.0081493021282542932 -0.2440997326346144 -0.21046428357924696 -0.36192165856141822 -0.22943570725611542 -0.25444712348466791 -0.30846652906788025 -0.25581221793899106 -0.2358157776788746 -0.29491788400614988 -0.15140357909202853 -0.18383341677527346 -0.068343194499726381 -0.20145093935024203 0.013737135878169151 0 -0.18383341677527346 0.020241581948963156 -0.20086451236600308 -0.010459105644873956 -0.28148793645318887 0.0087700388107145606 -0.16146796956543666 -0.033626516169228148 -0.27697590456959964 -0.010459105644873956 -0.16146796956543666 0.021618191221146554 -0.22541456316506725 -0.18942078321222458 -0.3505567169470864 -0.21463212078703589 -0.24248787777381062 -0.28267457608160373 -0.24111235069867812 -0.21035117904412259 -0.28041440943898283 -0.089844538912155117 0.10799285165270951 -0.078682043314392769 0.17343093868747916 0.15141105366142821 -0.089844538912155117 0.16856305843824304 -0.055108069543451293 0.12275684964451146 -0.15356150753208148 0.16363324939840659 0.03487594372582261 0.16692259315805291 -0.14311502065406037 0.12275684964451146 0.03487594372582261 0.17534299602473755 -0.18515833037302201 -0.014910365959280818 -0.23072315749170669 -0.08082244856799492 -0.10247717845211098 -0.26000221131082074 -0.1262957033991747 -0.091521026026005314 -0.15255021686957598 0.15232787395033529 0.00032891264403512818 0.20833287895324012 0.18387214679974787 0 0.20148636281712604 -0.019346237092488856 0.18343856199870431 -0.11324560562215802 0.19449614491689896 0.053906236826335302 0.19518924138113905 -0.10366563087689779 0.18343856199870431 0.053906236826335302 0.20799620287324183 -0.11129770140822437 -0.00045282367186007228 -0.1876902181469621 -0.043215896859229858 -0.064451010168551232 -0.17922732086287022 -0.07801467065209422 -0.016893433277252748 -0.12446511467439832 -0.16799791971545885 0.078189409186370323 0.068337327132785161 -0.15239591129470817 0.07887423754368994 -0.15157252398538359 0.05516100782398365 -0.23107590817493195 0.072858599228913204 -0.1121331779381473 0.041740097856663848 -0.22463356033141549 0.05516100782398365 -0.1121331779381473 0.084684556962358257 -0.19603910569072655 -0.15285868556126961 -0.30131289639681813 -0.167044212594091 -0.1882686132787286 -0.26073808230596951 -0.19495107096384021 -0.18082400766677478 -0.2392570800779987 0.2271237252611423 0.20140901672473702 -0.00038648333618886843 0.21964484529344638 -0.0025809965792600465 0.20417780963511767 -0.099104631898587522 0.2117344731530206 0.061278389362055451 0.21751320699046695 -0.08629236610919605 0.20417780963511767 0.061278389362055451 0.22758384276964747 -0.099263368955703549 0.00092424500692113009 -0.17342568052603294 -0.02187447684329728 -0.046312740205272623 -0.17091856129961078 -0.059334156484784795 -0.009578070373261291 -0.10778411053344143 -0.013752641540806786 -0.20839546023957614 0.0075532882525282232 -0.21385056150211779 -0.023016249074078805 -0.29397924984855561 -0.0039559538097925975 -0.17867784164335457 -0.045962019280603859 -0.28872223907137395 -0.023016249074078805 -0.17867784164335457 0.0081493021282542932 -0.2440997326346144 -0.21046428357924696 -0.36192165856141822 -0.22943570725611542 -0.25444712348466791 -0.30846652906788025 -0.25581221793899106 -0.2358157776788746 -0.29491788400614988 -0.18383341677527346 0.020241581948963156 -0.20086451236600308 -0.010459105644873956 -0.28148793645318887 0.0087700388107145606 -0.16146796956543666 -0.033626516169228148 -0.27697590456959964 -0.010459105644873956 -0.16146796956543666 0.021618191221146554 -0.22541456316506725 -0.18942078321222458 -0.3505567169470864 -0.21463212078703589 -0.24248787777381062 -0.28267457608160373 -0.24111235069867812 -0.21035117904412259 -0.28041440943898283 0.20148636281712604 -0.019346237092488856 0.18343856199870431 -0.11324560562215802 0.19449614491689896 0.053906236826335302 0.19518924138113905 -0.10366563087689779 0.18343856199870431 0.053906236826335302 0.20799620287324183 -0.11129770140822437 -0.00045282367186007228 -0.1876902181469621 -0.043215896859229858 -0.064451010168551232 -0.17922732086287022 -0.07801467065209422 -0.016893433277252748 -0.12446511467439832 -0.21995046113882211 -0.031308971663165784 -0.29977818626732927 -0.011596539395343964 -0.18066073285675519 -0.052903753963913343 -0.2951788177503164 -0.031308971663165784 -0.18066073285675519 -0.00021495028941116649 -0.24404229608550917 -0.2083397939060482 -0.3680266888243553 -0.23352025288507269 -0.26110079357677479 -0.30049894944414168 -0.259844988819459 -0.22780829252975168 -0.29863957480480269 0.19931130265404817 -0.039460270596582768 0.20972958313002013 0.043166098026649731 0.19058902709367251 0.027425142736981399 0.19931130265404817 0.043166098026649731 0.22187705776382585 -0.019662057781703234 -0.021606359182721132 -0.17118599226182366 0.017406669635410921 -0.15922093610275487 -0.16924497076993375 -0.042736989248519514 -0.024615217102007318 -0.11184593348196574 -0.2779796294094139 0.021492515154741338 -0.1588033859454353 -0.012855441128883446 -0.27129870246669602 0 -0.1588033859454353 0.032425740119834311 -0.23228129424850155 -0.19166873796222128 -0.34657955082700947 -0.21290939917872231 -0.23522051158481772 -0.30092706903633076 -0.2398840319455546 -0.21112527273332038 -0.28383678893329956 0.28946696599551963 0.1632873040551007 0.26385688117857309 0.14394979753875323 0.27798681753401772 0.1632873040551007 0.29978810605764578 -0.13393494539447134 0.10916089146322421 -0.045258521307618815 -0.034854787982278541 0.11458778626390649 -0.011075762629936703 -0.012844082297837525 0.079385359387772469 -0.029313028730169218 -0.17092479279506201 -0.042679732491687349 -0.28485164742846469 -0.021505145697457189 -0.17092479279506201 0.010366373867580152 -0.23479813656411538 -0.20002177027048895 -0.35808025196666432 -0.22321061528862821 -0.25052209987114821 -0.29322534528954253 -0.24958551032845566 -0.22234097333263167 -0.28879824099890777 0.15144446141162482 -0.16088351261507655 0.15881035132519908 0 0.1835458298713494 -0.17886507530987922 -0.063819686468063574 -0.26406834068385115 -0.082816976942797035 -0.12071021402371167 -0.25530543624061836 -0.12739230760765499 -0.16322380300286357 -0.21959012360573907 -0.25498032526200126 0.01284066669820008 -0.1514641036561496 0.049626694994835123 -0.24482643786549665 -0.20213434398091898 -0.33347443315604375 -0.20063602263392577 -0.21841391316909745 -0.32438050188895601 -0.23204300170074363 -0.24931323853045609 -0.28913272357773701 0.27133693156452626 0.16088436296591122 0.29498004246637477 -0.19528593608061748 0.074123365541021502 -0.30402660715786606 0.014381951383199778 -0.11697552517034215 -0.023902223928517468 0.00044204608173511513 0.067185641689867653 -0.14085584064474718 -0.1588033859454353 0.032425740119834311 -0.23228129424850155 -0.19166873796222128 -0.34657955082700947 -0.21290939917872231 -0.23522051158481772 -0.30092706903633076 -0.2398840319455546 -0.21112527273332038 -0.28383678893329956 0.1835458298713494 -0.17886507530987922 -0.063819686468063574 -0.26406834068385115 -0.082816976942797035 -0.12071021402371167 -0.25530543624061836 -0.12739230760765499 -0.16322380300286357 -0.21959012360573907 -0.24754115245141062 -0.21345601791762828 -0.36781208326693487 -0.23402951779309203 -0.26097352416078645 -0.30685541967185037 -0.26053700837913868 -0.23858615843045669 -0.29981627724318033 0.1148760665434711 0.032785798684570967 0.18761719763278961 -0.021660671501705458 -0.072540979889972074 -0.031123080947430288 0.068710786264114837 -0.058586075901985141 -0.19615708335725848 0.011625871882742101 -0.088285261974044002 -0.26236456906883271 -0.083114256732630454 -0.1390271369444282 -0.16884610013085719 0.1542642001782715 0.068025913906726729 0.077946650549488017 0.21150587817550792 0.16277321741779657 0.10684238217173317 -0.068318508478399778 -0.11463754093697452 -0.087605628590907633 -0.010630347294173502 -0.1789625669869572 -0.044432299194871766 0.037449440248558223 0.03830489906029632 0.047962649087264442 0.11659142142505292 0.17276860776254979 0.079712037434145372 0.034792165422782205 -0.13355158814010715 -0.064631979574298212
label 0 1 2 3 4 5 6 7 8 9 10 11 12 13 14 15 16 17 18 19 20 21 22 23 24 25 26 27 28 29 30 31 32 33 34 35 36 37 38 39 40 41 42 43 44 45 46 47 48 49 50 51 52 53 54 55 56 57 58 59 60 61 62 63 64 65 66 67 68 69 70 71 72 73 74 75 76 77 78 79
probA 3.829441627528348 -2.666643923620061 4.0643637436298432 4.2690907586253957 3.9524491665257204 4.4820437706287493 6.5960060964758105 -3.1604868671450679 6.1345628366243181 4.1892570010670944 -3.3864188948195806 -3.0344672202510301 -1.9386998382943095 6.547708603865189 -0.098173616460190738 6.0454369438847779 4.3857337765223088 10.264699535295385 4.6020870157429092 6.0356231859388831 4.3110636102544113 5.0990883207052091 4.365888154059884 9.0340416555057494 13.114034322830175 3.3888623726752134 -3.3760377884846506 4.7990382199809565 4.7985028018515843 5.1352105653184408 5.7132718655803245 0.58735612705230877 3.6710648447515943 6.7593890556409306 4.2421148198410439 4.3707220123603712 4.2718111547026014 4.7051828776554734 6.458309926680954 4.6643029826212565 5.98882590716115 3.9271901770257429 4.6010929011426462 3.788508687860805 4.0048170743937277 3.5627512120032008 6.975782817719967 4.7213317879616383 3.7294046408416928 -7.1485481996398486 4.8495967206242252 5.4612352656223733 5.1885913155333716 -0.74177600040473579 5.1624616620329054 -5.8323040671905035 5.4178296745387238 3.7757586944987294 0.67422816562119603 4.5384818369545199 -4.2936488784489413 4.2095506082699465 -4.0355485838054603 6.4845809625618092 -7.7253382830176598 4.0132879903408973 -4.7460611392489334 5.4054868940014726 1.4409075337618538 3.5833673668533645 -3.1923683890062109 -0.76278255155947661 -2.8909997183739997 -3.9289288157732747 -5.8713494715448675 -3.9169915770044619 -4.1914952526327616 -3.5283872350279686 -3.9755357354508405 -3.2852151804844474 0.25461553260690817 1.2573503015509808 3.161871317658127 3.6905312027378052 1.2132796473242879 -2.6466523912047641 1.8795257985012928 4.8233088734043115 -3.0203096221198633 -2.7693396487674815 -2.4328513978355213 -6.8049044383628168 3.3966771326331004 4.3543481048490511 -0.77961946921093983 0.77020882574016469 -0.9883380464450221 1.7850589685421474 -1.077530248009636 -0.40840023477880832 4.4688549572284266 2.0209736041452682 4.4086098219508099 -3.6868343446270186 -3.0770533759723762 2.0217225096324718 1.7812134911682436 0.34511837891990077 -2.407852687140434 -3.102718301478677 4.1317075603360749 0.068634743253218375 1.9352571000561201 4.1508741368098212 6.0658443283117212 4.9636468583624849 4.2924383595603022 2.0198408416100389 3.207259389699165 4.525126422378893 1.9891185579173944 4.9345617133758113 -9.9956392024005094 5.275063320336506 4.5989356769975887 1.7889886752855326 2.5558716299581397 -4.4030995780757385 2.4732171716752966 4.9606960574359338 -1.6041890958285452 -2.2574812450861397 5.0738677929519858 -3.3421907397402295 4.4685096480833266 4.9606960574359338 -3.9370333700065046 4.394696959715322 -3.1943660401283269 4.1676772303057481 -3.3692889131028454 3.9712740167511131 -4.6617923631095 2.7938627993397418 -4.537521178518241 3.6479092682569503 -5.152247698597848 4.0135409159248923 -3.0944054449746417 -1.752190929671229 -2.7026828016023723 -3.347249939344445 -2.6344542531202895 -3.4597779146529626 -5.1517022173559903 -4.5000749068647803 -3.9982965189420963 -1.9471033314111936 -2.8920312790406082 -5.066736448821394 -4.5160727517583554 -4.1027042200310921 -1.9418058194861534 -5.1127584927993626 2.7898119307604725 6.352665409055092 -2.0898356908755953 -0.96839607346016388 1.0603330926287313 2.5941819991672328 -5.0023557779671908 -4.6630270455870066 -2.1995727024135507 -2.0013217909140093 -3.754575322717276 -4.9763820696381105 -4.4672281344289138 -4.2089780141341748 -3.7288112787136587 -4.5579747067499907 -3.9394095571238901 -2.3464408681024618 -3.9730304406202714 -4.9614298241668857 -4.7589575301062883 -4.4227187061260906 2.8104532218496963 7.6956346230317454 -2.6270867220360046 -3.2756702688060302 -5.6942908639817542 -6.1715265960268244 -1.1906653943891592 -4.9048002690470458 -5.174586428856859 0.49467210397763678 12.090657122411912 -5.1536772501258765 -1.9344606336270345 -9.6839632681730219 -0.40646379436797264 -5.066913421754033 -4.9552917194732249 -4.6237788812818881 -3.7764238818209801 -6.493732658206544 -4.9515316526221422 2.0173847319755622 -1.8991786678764624 1.0441023199081902 -2.8833364331697307 -5.8293775749276122 -5.0023176341590982 -3.0013461234477057 -4.0081602604513993 -2.0487012063607755 -2.4839766222430231 -2.3950630310176475 -5.5068047004680087 -0.63090558399093677 1.4584351418541694 -2.5410630345380976 -1.9559724408262662 -2.4707786226926367 -4.8985163839411952 -1.6155567154857644 3.048046218393365 -2.3796883726481446 -2.4889355358225642 -2.2391617441325828 -2.2217208484641775 -2.8854835413816535 -0.77208426591238311 -2.6945126326093596 2.5063590965124325 5.3390405249689188 3.9097018483483001 4.476950997813657 -2.3653836714507515 2.9089678474137881 4.5261480021495615 -1.8520822708331517 -1.0132724243584315 0.67105403021294607 1.1563245864765983 -3.6252547117014506 3.9964703866310485 0.57880838994306583 3.7860814887575271 3.6621595138476053 2.7584142629717481 2.782144807725476 2.4779519466606423 4.5565636220930354 2.3718976839159414 3.5202211945200399 3.1655826189675387 -3.1147492879391874 4.6880004880888313 4.6858697180073374 2.5227742062243097 -2.0344956444774218 -2.7044416692346234 5.2208564259495684 2.9474309474535083 2.9642539053714305 -2.3101601390647923 -4.809946700342679 4.4823956024103762 5.4056242581045986 4.314618150123656 2.5231089240893114 1.2825182736864404 3.0593670297599203 1.1945221653263389 2.0437057063306798 2.5226597951396976 6.2060684330010067 3.5215082411901042 4.5877340982808903 -2.3045252590498277 4.0794629990115778 4.5834847418645142 -0.54366735505254038 -3.2341755879508538 4.6010093295071188 -2.9530316901086264 4.7967611218129891 4.9673520532930686 -4.3325443165452908 3.3190759288664906 2.6218662843804394 2.8777264561413576 -0.72849046533285278 2.5580602183660552 2.4517510725210068 1.9911295805593412 -1.7989478008787845 2.046422571558538 1.4720526924199302 4.5517496304466629 2.9414065908875968 1.1240590997105471 -2.2440938636670773 0.55753098182160277 -1.5179791959501812 -2.2874195021066921 -0.74462105941581291 -0.071996494949919831 -0.39976220319664146 4.6955051314367546 5.7262787438168923 -5.0009271869249519 -2.2292981181238289 -8.0930102602970457 5.4139743225093593 -2.7763989639044477 -2.6396690966873835 -2.8123432992160682 -5.149643773459383 3.8384202541525059 5.7127336618437585 3.7120213966373994 2.993599409509188 4.7544900434867134 5.7615760702532182 4.3588654116649757 -4.7029894453821779 3.6382467437355102 -8.5888693374066278 6.348696240608585 -6.6564714395211109 -2.8658679137913685 6.0097703914130349 6.3710688390599479 4.6623324400501955 5.3135949768293829 -0.51628169189996009 3.3859639032360751 0.7747747181637531 2.5942292009664185 3.9716901121146271 -6.2063733509421306 4.2134922202105169 1.9946234485243126 -6.456278165270386 3.5459180250134965 4.8737241048538849 5.4587366291739059 5.1819462245848458 -2.2795554312859432 6.8556123482841764 5.265902959274305 -6.2731104227866021 4.0293745260639682 -4.6417897822460805 4.1570406340891228 10.787576858228713 -3.8284009088941997 -2.8368224317763939 3.7895697834388611 -4.4489557375238231 6.1541435962886233 5.9335744892007929 -3.7744518507220608 5.9620367404685002 -3.3706691763867052 4.9143086264349449 -3.6256902591724631 5.4359421425341159 -4.9601582193315563 3.6881686846557633 -3.9604987081507539 4.7631338384136948 -6.2073455725961209 8.3757910436169549 -3.1558962249169311 -3.7833898566681965 -2.5562106651258927 -3.7960020456438586 -2.8365048371054922 -3.254816375208649 -3.495511612306454 -7.197694100533643 -4.4349008552578155 4.1958249822575784 4.1427008452008662 -2.4849211172584171 4.3113100452947837 -1.4211190495179082 -3.2353669761481476 -3.7009413352236469 -2.3387415650997401 -8.0408987285811957 4.7910787273981867 7.1297045067934013 2.2427157568749321 3.8517358759000011 4.8862663213522302 8.1263629196192362 2.7785422638384722 5.0619429645173595 6.0219477492016154 6.4163737912428225 4.8405665626821195 -6.0733920499840366 -3.4333298279496942 8.7037763370688079 8.7040692057679561 6.2143901531296439 5.9718301438895143 -2.5923453437101198 5.5445857127537561 4.2604553603283177 6.2747329242660426 2.5589734534718609 -7.4638533209668543 4.1628571693905103 5.8076807378114816 4.3587051112928368 1.6967809319832468 4.4288303286701538 4.3216001901748848 4.6196563529866284 -8.3879756934135123 4.4598948029103775 4.5884741111608367 7.0953665630329619 7.7490362148081493 -4.1037150338142334 6.4247220942818242 3.5124628930999644 -4.8616494179146681 -5.8155973153538536 4.5414696556351011 -5.7517788583376355 5.2493850160630577 5.9182297284648655 -5.2739682733321329 6.3452128046055671 -2.0298740558020003 4.8102817571719356 -4.0215603483970757 7.0920557503751001 -7.3470491193252787 3.4295450275707058 -3.9241227959100882 12.021689134467826 -7.9189600616239018 6.8100546517070599 -3.7665038597064568 -4.5463765561091343 -2.9713795608782743 -4.1151472629640553 -2.3510702912724692 -3.9594828860350653 -4.2398372069055723 -4.9796087229759207 -5.5229665036608502 3.8254126920027463 -2.4510176059280111 7.7169495742163043 -3.5645803547389869 -3.1460344116667684 -2.9913025477416588 11.560166483220399 -5.2785328522130808 -3.7345015917946123 6.0437951135470609 -0.066774536558006609 -5.5771030806964621 0.85630102360281957 5.6758750218849325 6.1832763291903872 4.7743352167202318 5.4693604985682933 4.7961747491001638 3.334173426845759 2.8834515500684912 -3.3704879346287102 5.5574262488478503 4.796352435270685 4.6235626077215892 4.6726866982742576 -2.1652776742780744 5.6900626017214897 5.9830157421132766 4.8908687857903264 -5.9213266069861969 -0.44501289235684671 5.895737898096999 4.4364527430123575 7.3466909026543865 -3.8221314187848687 2.340853157092277 6.314303810217309 1.9337038830711946 -13.854652188034649 -3.8221314187848687 5.1504313120647227 4.4152542424957035 5.5205836228446969 -5.2713524092260009 5.748112120834068 5.973874360613209 -4.9873383617473781 -4.9261795040362335 3.9727689636338068 -5.4971646718342582 4.7605625766655324 8.0384757698398825 -5.150291596991492 5.8368820880096983 -3.5045067227759783 3.0641447784909284 -7.2282994902397348 5.217391115264312 -6.2892651669490061 -1.7653881863356455 -3.7270030319045788 5.2233263313528342 -2.5621732740269731 4.7631648407562972 -2.9330394284139443 -3.9089752629487959 -2.8906994880006924 -3.1483293394033254 -2.3162120899336318 -3.8004585692567678 -4.0990048660336971 -5.1947772097227931 -3.8612799395736137 -2.5051161786363769 4.441744235030554 5.6284845877741398 -4.1236674953937866 -3.0886804093450766 -2.3295450087402094 -8.2118200360033633 -3.4062645492598849 7.1800538220972276 0.72233438832241936 0.65945405227542342 5.4611532706471682 4.465493466630968 -6.2526523680618435 5.6385861731734863 8.1202926867497389 4.6298711795726089 4.7557932308102169 -4.104724094260459 -3.5057841457119756 6.5251805415524649 6.5152637862254652 8.0971184127910423 -2.6121822996106747 -3.1608251844697399 6.1834812312463798 3.5415649341278508 4.8060760727552791 5.3109081037010526 3.7730781425001667 8.8439544286759819 6.6457518598488639 4.2855807605764005 -1.3599583995389821 5.7688932537017212 7.6169486496069894 4.7133525799821214 -7.2663489297109871 4.7225603063386261 4.8160789367975028 6.353177521275593 7.5129314591410976 -5.7780841994258312 4.4875624875753797 8.1266853813633482 -5.2347584804600533 -2.3483862483453137 5.9606205510592307 -5.6791787387294628 4.3771625331178701 4.4330101165019338 -5.177435157191705 4.5661192854472121 -3.5650879381760081 4.8921579358526586 -3.6098541310928205 4.9239917237375739 -7.6449081470639131 3.7082500542796337 -6.2480721804969859 4.4754731074260956 -0.4007763082198193 7.9407828409367944 -3.415551254044161 -4.5784281561149429 -2.9493443294096546 -4.0713307069520486 -2.8731750777501217 -3.9448179901852791 -4.2784372187040889 -5.739917738525234 -4.0461806809808216 -3.1717153099571029 -2.2667584506455336 -1.7452765812230004 -1.9003304812057489 -1.9139096862401175 -2.3888504424125689 -2.1140804636496262 -2.5276960796717525 -2.5126259162160278 -2.3262695908018545 -2.3817210667628532 -2.7840508238877932 -2.3126067282656515 -2.4270289118780273 -2.7506146787296233 -2.9151077232957006 -2.4385260460888283 -1.8228858689229872 -1.938960029833523 -2.9150810623361374 -3.1733567338406941 -2.4823537097753041 -2.8962088489772873 -2.7318209790922441 -2.4394050192009864 -3.0157555704684 -2.5127798545102817 -2.2857314496305192 -2.1324380373495329 -2.5086523907945666 -2.4997544529441873 -3.1728376655871173 -2.5691907438139676 -2.9813620842915305 -3.1644271202898104 -2.4202167722047947 -2.7145372360123239 -2.5341387229887054 -2.4743010075929979 -3.1728375818095409 -2.4277948210613824 -2.0006071815004658 -2.7960105370730202 -2.7545154280584878 -2.2889038389780687 -2.0228809991726693 -2.6577965708973168 -2.1762216359795419 -2.5106305574544217 -2.798537663075567 -2.0187668520345041 -3.087549348815342 -2.243524000355853 -2.4438826070816995 -2.4754756094272485 -2.8297321068566417 -2.2995122222865882 -2.3872645491219284 -2.0742694922286939 -2.7490024061646854 -2.1068033958468719 -2.5233238006583805 -1.9139144930996983 -2.0103833888053178 -1.8968452856861049 -1.9758186093963674 1.6325084142253725 -1.8423975628951252 -2.3900915744502358 -1.9940329757569983 -1.9069766776533181 -1.2392425292482343 -3.4106434770719947 -5.4668142632588728 -2.2457797108748512 -4.5854134615838262 -1.2942241170001716 4.0987600553265358 0.11086479602458496 1.3066201883408 6.1657041872554963 4.2562546204488294 4.8250824982911311 4.8839121410226545 4.2511986500652181 6.9576208359437102 5.3553426692347745 -0.36483044142256082 -3.6039613520138807 6.9393760036086372 4.2793671829776114 6.6869204358734722 -1.1675620557893212 -3.1529537594386654 8.2393845516507707 5.2300073675123135 6.5345587223107158 5.4646289591439112 -8.1820982212516533 4.5168801364527189 6.8081702388146397 4.1876431295466832 5.0797060855719094 7.6126070832964388 6.968819773574781 4.3121073946909885 6.0048266772950081 5.7512006423074338 4.7254371188685109 6.576507911137762 5.1221264401120594 -6.1686455083300844 4.6030365033760932 6.3132871209773542 -5.419064514922515 -5.5021533984728661 1.4332313228450353 -6.0650238937033123 7.039781434564139 4.6262612255741988 -5.4931531417574577 4.4280690847554274 -3.5793633964807783 5.1475776613595405 -9.3223085240867061 4.6476461808969489 -7.9407046693438152 5.4210681998529777 -5.4528687929811035 8.9616108308792217 -7.8523490999606507 4.4689841798586123 -0.38238965743638176 -4.5726285084313973 -3.0681030588526381 -4.2013141915181516 -2.1478463045629943 -4.1381332062817213 -4.1489964811643754 -5.2579497945652918 -4.2476337723573216 -2.639696819261482 -2.6661943886029911 -0.34263785880079389 3.2397584148518219 3.0645819733890338 -7.7784922869547479 1.7585701767886825 4.2187125107177463 3.1141939793348743 5.4185523105474944 4.3536710381401047 6.3687732448752916 -8.4975697415363456 -3.1401516142942625 4.3164876199113733 6.5883584509539705 -2.9992379643704208 5.3140523596511962 4.4830014485836669 -4.2329361976271516 4.5397427331702769 0.72343382290664049 3.708846052131106 3.3798462613321423 18.573668235349384 8.8012937770914252 6.8845921719359202 2.6741884101696654 -3.4696058882637377 5.306373763392858 3.4316875882813287 3.8485623909295277 -5.9264883326104387 3.7825366849586874 3.3768720928403968 3.7644628246115364 4.6251582897795398 4.4859347634719802 3.9909040165444565 1.6420543020121565 6.1809086189980746 5.6095558375010084 2.7159530207462881 3.3025425039696681 3.0131564056012361 3.522827107675738 5.1795094912937003 -1.0835334598822026 5.1433728789303075 -4.3581047365481238 -1.2982487070869897 3.3804849270016915 -3.19461849348709 5.3039186054196561 -0.45161458700967744 3.4427252626251188 -4.3336981683809022 2.7667625076187612 5.4310312651740169 17.88186379122368 -1.1785037265338105 0.37548334187727123 -3.5610385781879632 -2.9886249625654027 -2.7962504885934631 2.2328043225201881 -3.3730129635677386 3.5791353780492576 -3.5191762692790447 -2.4013469047751426 -1.8135369835120771 4.7862825826421522 -2.6327012312681917 -3.30572331107154 -3.7018397599077906 -4.0089785902462118 -3.1964720039043679 -3.3595590702403593 -2.998339935835491 -3.136519690893909 -4.2248913677788122 -3.4172084968613969 -3.1737143613565442 -4.3829383947591074 -2.0336123369053292 -3.3807096322538444 -3.4172189180498931 -3.7240366637511899 -3.237044009843856 -3.2254300106872535 -4.1371965766989485 -3.5076130166746906 -3.3522098806035934 -2.919677542609048 -2.6620732003748078 -3.4358665228567915 -4.3215202971539002 -4.5025994809018393 -4.3331491665026194 -4.1503393317900192 -4.9412294026730246 -5.4327162391084478 -3.7423645513778938 -3.6917726930094483 -3.2216443539607535 -3.4137192161195515 -4.2032688614533482 -3.2920591831658705 -4.3054347233740451 -4.3416799265057264 -3.6873228025903413 -3.0485292812595106 -3.3040092567979551 -4.0645068115447147 -3.3571548212472107 -3.210215872999763 -3.0967168924846411 -3.3111764258641014 -1.3601669196903297 -3.2462376722980464 -2.2225545274355469 -4.3193225129614827 -6.8929441353288565 0.23110337446862886 -2.912480689131562 -3.2200812392765843 -0.88975999413352125 -3.4439744887504919 -2.2909136186697197 -2.5740300492675892 -2.154335844627711 -2.9335678162574297 -1.9925193383424258 -3.9016249667320508 -2.7656143467533036 -4.844684762384122 -3.2126216162172443 -2.9799032725481438 -0.56683927934556766 -2.2044693547721339 -3.1020363758270464 -2.836314434848735 -2.7681587704351656 -2.9192387567364082 -3.1439712968502604 -2.7499265246872207 -3.3628946436318659 -3.3817382416872936 -3.4412640640653835 -2.9753781042990992 -4.3430286358240666 -2.4552676557591817 -3.8984314191176233 -3.1494188802386716 -3.6439379736646416 -2.7225254941728503 -2.1717027162946207 -2.9464234850558491 -2.8845334664953306 -3.1038421158765197 -2.7207662658982459 -2.6544759535282241 -3.0970185499707044 -5.1409793633804259 -3.146485941333649 -3.0582730498618802 -2.9794786956529453 -3.8846975700487971 -2.9622885151440248 -3.5418951295339025 -2.7406201237804417 -2.9902525088801628 -3.8932942646839872 -2.945234951676067 -2.7003644141178875 -3.6938512531377685 -2.9884498726247335 -2.6543448704867543 -2.4203291615075559 -3.1723691159373058 -2.612960959345263 -3.0554089198751049 -3.0128023237741388 -2.3921243223475557 -5.2775980622710357 2.6291032287530163 -2.97827959779895 -3.8063155927425427 -3.7576670446273042 -2.4860983776187005 -3.0340554554224362 -6.1674646258236852 -3.3147069437659917 -3.3268184395591227 -3.1015794732968387 1.5045327777321356 -1.8635325333565089 -0.4820094040299483 -5.2720993335074153 -0.75057050377689494 -2.499503557684442 -4.4484358500847625 -2.4205394221097261 -0.69147823139331377 2.4863631988412145 -1.8429952712516213 -2.2901091352851348 -2.3015421062470129 -1.4916952299473794 -1.1858581060518945 -2.2321179625756526 -2.2118593792400869 -2.440826319489974 -2.0097693741614284 -2.9590779525893587 -1.2253753465044575 -1.5822198129293017 -2.3545575555538654 -1.7239191954997688 -2.226413814367679 -3.0278282288776781 -2.0139756624152994 -1.7946227182219923 -1.2033120647657587 -0.8961938990936561 -2.1222697639609449 -2.275122513509086 -2.239756185956534 -0.53861533729468325 -2.3415286232351189 -2.2428447695444147 -1.8565033914881202 -1.740533795187901 -2.240440103270787 -1.5263290325121319 -1.0282039999989232 9.7867498804856066 -2.9833057517607511 -2.9579280227358042 10.755827439035169 -1.2592643575403633 -1.9539672486019644 -2.9771619315775921 0.076807406767209915 -1.5404496999911241 -1.7585258876630614 -1.2035770240065333 9.9035430257944981 -3.0222698808061246 -1.5404496999911241 -2.3108629967756413 4.5733634010186979 -1.7264869043723523 -2.9583146888565879 -2.2596387943171665 2.4038236400943078 -0.77402481336611162 -3.5584895762144262 -1.3972876053824204 3.6816829912287727 -2.1065070050391714 1.1155718280090559 2.1264938981936963 -2.7751620441658846 1.1555548344263373 -1.7482485327638089 -2.1572703194192369 -1.750813221362099 -0.78956672728436583 4.1081047702383415 -2.863255393758033 -4.7705960597957535 -2.3256380290600269 -0.83461851001590337 -7.558960523423794 -8.0557132633042343 -1.7270510318769554 -1.2078398910519375 0.64952578665546612 -4.5615227142307058 -0.18197633884859613 3.2817045138610599 -2.7327675157486211 -8.0465599624682511 1.8839940114792419 -5.0624108147457676 -5.7977399542236601 -3.9316390286314684 -4.3254683209053306 2.7185645614255392 2.2621142217629822 3.1208179403908862 -5.8948560718431899 4.3815052200517304 -5.1208772340327116 -8.0243652326471171 -7.9894031427856094 -4.0764493687836749 -0.13028648843879437 -0.93112616824411232 4.1783888699270442 -4.0785157641439538 0.3196783789307156 -4.5763052158224431 -5.0013999432305125 1.9180673769653591 1.930746771770838 -5.1258241655801386 3.2706579000465692 5.0817571490992455 0.66250041107741853 2.4298492587107554 1.9315485863966451 -0.052814019054223948 1.6464098223564299 -7.5225695084055406 2.7215228070064761 3.5557992419318865 -0.30419302991081093 -5.0086199731060415 2.5652202729012803 6.2048895146642442 -0.84476856602511941 2.3871180764123117 4.3402790085471281 2.3498804480234972 2.3284587319839201 2.4098547072855019 -1.6115619969142698 0.13060923895182261 -0.87546243753024333 5.6316311957738847 2.2527231901162725 2.70035977172373 1.2297474275354432 -3.3737999868016169 -4.3766393306688061 -0.15750158913999621 -3.429124858193938 -3.679522785025612 -3.186892406051903 -4.7818140496349528 -3.7055991677568962 -3.765100930421434 -3.3357749128659879 -3.5467596135811648 -2.7595664778667022 -3.6812382985845868 -1.265339386503012 -1.8530159620454982 -3.2212717104409769 -0.9584207199482444 4.5700323078518856 -2.0591465637146031 -3.6772882701811422 -6.9711540722951044 -4.5010788611911714 -0.15939043296249944 -4.8676799113859728 -1.2529836580127678 3.7172754290847312 3.1635565603832019 -4.7525216715505794 -1.3002387884718307 -2.2530091274347424 3.7179754354143637 0.39473808680582417 -3.7671633117365713 -0.66527534256166354 -2.6772366619726089 -0.86118677937607679 -4.7218026181884447 -2.5556212406105017 -3.2520379326018451 3.3771991625925568 -3.1829867228915694 5.5124778435486981 5.8884622442013734 -3.6826618961795354 -1.3772682425896381 -2.7624843136982218 0.70138794410526384 -2.4208819571134632 0.38336896798609227 -2.9184017355584668 0.12393734356904267 -2.4832632687467422 1.5214909366991807 -3.1810563730768227 -1.2367061107234851 -2.3816995517357307 -2.6688790222568937 -2.2871775483993817 -4.1545288846424127 -2.2891452479279524 -2.5817635442838558 -2.64772245953414 -2.7951714021196192 -2.5696500020735042 3.6630844253864341 0.43248876292888 5.1006098854500044 7.3281268990382804 -0.96208147185636528 5.0422713167013846 4.2564909977948009 4.4572615545204819 5.0601391339638822 -1.1852815712885401 -3.5464636550097395 7.3451991823353797 7.3455844653082973 8.3199392319835948 -2.1654369482637921 -4.0045186181679231 4.8362395670097351 4.4625712017152672 6.3764124546531811 -7.6425852313540039 -7.9922569002463861 4.6172913426347755 4.4224918422553552 6.3157492666125421 -5.9310045830596341 7.5619638197392094 6.914107606622804 3.9788635155977525 -9.5020519510487205 -2.5983448476906528 6.9951721031424592 4.2219262394732651 6.3176071790810173 -2.9392329739216128 6.8458257204417636 6.9768678058894942 -7.3750369692109432 -1.8898765387297434 0.49168286537868622 -3.7034300321273506 8.4147817206678983 6.9768572531722057 -1.6974479898551822 4.3796564597869132 -2.0350244590294513 5.5346786238439316 -3.6575593409617029 7.6453476651758594 -7.6211141420581061 6.8598655122980094 -3.9688027054110302 5.3150725645574717 -7.6211141420581061 7.6814959575929542 -3.559961666149841 -4.6025506902398972 -3.0417681116875048 -4.0823682192752759 -3.158305763350723 -4.0998118201211673 -4.5846917374241212 -5.9454409742126417 -4.1733381939788989 6.2291969870701225 3.4059787579196192 4.1825325464371099 3.5982947816179265 3.4916240129317044 4.3573136848602889 -0.03013073795765437 4.7315595780516722 -0.55694496374887514 -2.9401717392706037 4.2836492293627364 -0.028949854785835245 3.2523409531077636 6.9189445448388494 -2.0065045662553609 3.1033341904308469 5.2106114541254698 3.1920905510360087 7.5721224644282534 -4.6503649361678523 4.4236681735447103 1.4729967889512374 0.81661518064128291 4.3391162281460929 4.0796693319178274 0.45023444105487775 4.7531297696586208 -4.7081987829446277 3.9792635790319482 -5.2641537294661598 0.76689928075825453 6.0161804512547867 -4.2814290587926997 3.6544536884877661 4.2400448614393422 1.4757037926747008 -2.3419381698922255 4.4520040907584812 -4.4773544642196175 4.0692703710230198 3.8734149945083596 -4.4164662212925467 3.8845069195209505 -3.7038073658130908 0.60279267580482365 -3.023058313331326 4.5661173953462235 -3.7674110269416996 4.7630287400375693 -4.3760014464005579 0.80056196500427501 -4.5186337666449248 4.4403966161536159 -2.8279603680070688 -3.603266713906943 -2.5793277333683209 -3.4006127536680006 -2.5714079992504484 -3.2108896079292895 -3.3770829646654357 -4.176362924157873 -3.8156641311494268 3.5679433097662998 4.1811784319985907 4.0823004071620694 -0.012787865778516679 4.3699170460881804 1.4730137640620777 3.7763293177381718 -6.2763823850143741 -3.0940271089471185 5.8569225004455898 1.4732700638863956 -4.0813069148477217 3.5102986727380596 -1.0036727039529603 3.1094710431622086 4.8644342279145345 4.9553265606667516 3.0425591658483837 4.4302013398513251 3.3613693631350179 4.3872188234228986 2.260152781770703 3.9380821600741553 5.408095352272726 5.319035829776535 5.4259008331734124 -0.7951556184137426 6.76213298594595 0.073142941056731678 2.6391267310818223 6.5891571109365143 -5.4329017613112569 4.0821510356651487 4.2721265853906703 -5.5629843842571951 -4.4634402080563005 4.1721935987671239 -4.5724643366798254 6.7743926685710729 4.5422722679675553 -5.2484248977329102 0.21313410152058143 -3.8536808248355023 5.0483263357569204 -3.1911381896393407 5.1355071462333974 -4.149655118604537 -0.32002234043907629 -3.3709940722139256 4.3813298831527154 -5.845581905090441 4.6719432235859362 -3.1297974749284778 -3.4355608594654035 -2.7105110602779083 -3.6776375209121714 -2.8812809045568004 -3.531154923485234 -3.8096243955942954 -5.2028232705823845 -4.5313238453209195 5.1620091554942169 8.2453926258344072 3.8519695382482864 5.0007168778045497 5.4253799455235203 3.997383505762667 4.3994658963640108 -3.2137921977606996 6.749504544547734 4.7008125608668019 1.0968387692352561 3.9504313707479004 -2.1329880606539273 3.541702575915362 3.2262860970706759 5.3627715916211072 7.0875494617617658 4.4932202599423787 3.233411333462481 6.659748907126783 5.3034930909418447 4.2525481402893366 5.3693410743700545 4.8361762614968775 4.0434923860391478 4.2322894625129264 3.8577058729044844 1.8129101659630007 5.3990597973910743 4.112864120030256 1.9445866062465886 5.063642255026509 7.3202540702172865 2.0484626066537661 2.3178404027876951 3.9646447510108209 -1.501136424432296 3.4727830972656162 4.3145878216666427 -0.0025791689708068118 3.707055957802643 -2.5096415809241774 2.8815334747115275 -3.3542563049258582 4.6042454589072452 -5.218575263114424 3.38374138152516 -4.828327865256087 4.2885195196201087 -5.2188990308895837 7.6071026632114043 -2.6102148739114299 -3.14850063857366 -2.8170337207764233 -3.6993573659531145 -2.7917955854140573 -3.7007077263839738 -4.0483564608744746 -0.85955075769148959 -3.8428953841357898 1.9079437332461286 4.9090885151794756 4.2596711614161462 6.9309827413114879 8.0095241612144878 -4.7686826445277379 -4.9363844763971532 6.9845860416274297 4.2764304999682414 7.7478287841415181 -0.020378821304310839 -2.5046398637814762 7.2956412212033852 7.5532164519227862 6.5728497027121948 5.746483185511865 6.7720075030740841 4.3622840560312088 6.8068023409080647 6.9285099339185008 5.687615136199387 7.4436541251419222 6.9689983434630021 4.9149846305137821 -6.4806147557320157 -0.13756945010290184 4.7857880177040037 4.1727408370305596 5.1332644596478616 -6.3586714016149175 4.487479324284033 4.6960072249483096 -4.9683964045936806 -0.96879407184435007 1.7192682714236334 -6.3586714016149175 6.595242714210519 7.8085474104660948 -3.6079383204230844 7.0043930232024971 -3.5794499506282422 8.8654952762201749 -3.714610207892298 4.6411770741763014 -7.9476900490365123 5.3304346906038109 -5.0751597374171364 4.9354714160028035 0.87190324611513392 4.4513783637436459 -3.9698421456933479 -4.5712905476084194 -4.5177100145211355 -4.1190802268258127 -2.8101235809458265 -4.1922532549648608 -4.5144594684096297 -6.1499120536134688 -4.2711777050817687 -15.870191674485078 3.7275574296397784 0.29164162943589389 21.439852882602654 -9.240580614765058 -4.0710099123135954 4.8329655148476585 5.8023604130341901 -4.4919178583605364 6.8943869317919102 -1.9381458649612588 3.5980882268700247 6.2606482503939622 4.1681854341345206 5.0653609428459037 2.750131844957405 4.5788058622295997 1.8270884108712178 1.1659666993406628 4.6681323750262944 3.9489078942644658 1.2225321213475129 3.2739061625796366 2.8240227002738907 8.2809572844176778 5.456070848484778 5.3549492292588274 7.0907521442015611 -5.5047179845541869 3.9359397077763116 4.8605888647810858 -0.71293685726718459 -0.22037239732531616 5.0336997386690259 -5.3696231114415829 8.1531446980707365 3.4195915384036941 -6.6542573417057023 -0.56530818003854522 -3.5543909590496963 1.9190843740924348 -3.1507635696710388 5.4131791554563549 -4.0082392174711226 0.2747369885589403 -3.3807321496793938 5.951983304438671 -2.62479131725105 3.604306275134709 -3.1247167413377919 -3.9563756806148556 -3.0414733702857433 -3.6733973396117392 -2.7897898537960297 -4.167915695271887 -3.7065855026017283 -4.9750749440632118 -4.2062708946564591 4.1360912452522474 4.9832718295718843 5.1709157720650678 -6.3899798450409175 -3.2933782982957416 5.632899965652217 5.0440946286301003 5.2643920662472263 0.13461647659241863 -2.5413835446676276 9.0155976495370478 5.4919219349718498 6.6392980542579965 -3.7715877388287491 3.019618289746353 5.9622651193755711 4.3868277906196411 4.6062507428428248 -2.22450455035061 5.633453373029182 4.8796761566643756 5.4349435622132471 4.7430709222809186 4.8004314835471709 3.709916809596757 4.5775992913763366 5.6283722125615574 -5.3704947457822056 4.5418718451177771 5.4706965234556151 -5.5415108044297492 -5.1020896777509943 -3.5529175691183164 -5.2094167228663144 9.2005790587094829 7.4886100787899039 -3.1479290175338766 5.0599761446277114 -4.2575170572511256 5.3063405149143872 -3.4642265408625321 5.2188528806945218 -6.6604808932675619 5.406623528451985 -3.6624599656203642 2.3400940042332765 -3.0393413311960171 4.9388660856243769 -3.3453447063000215 -2.9851388043402607 -2.8605528853447248 -3.9295642328914604 -2.8585051275670876 -3.7514894831785939 -4.0110257223262353 -5.1516189901044047 -3.7852852735395981 6.8348542216690227 7.8108275232767959 6.253125411304528 -5.1441474520962647 7.8237963119198213 4.3406237111990773 8.3576047013066166 2.8552598776838258 -3.8398239481890593 4.2661560319314509 6.5744599599969424 6.6260953734077974 2.5036517836056209 2.2610817484532544 7.3875034758103713 3.9496404537653689 4.133468446881694 0.089943706338301427 8.4902633051310641 3.9272923316844839 4.1572669326542959 6.520498481996956 0.08994370633830201 4.8189850237706855 4.1334663425579476 4.9756335730465366 -5.0385164824277533 6.2096171875756259 7.0168285891862734 -5.2262781639389901 -1.4573180997326187 5.3356716714727401 -3.7254759839922174 4.1724935725644476 5.950925910168233 -5.4978987018532806 4.5146178573735964 -2.0427851658972451 10.528787990791702 -3.6555020154114488 4.6060195507982558 -0.3116838282030357 5.413208053675941 -3.9754472713912157 6.4959310078893733 0.39628949283087067 7.0901971074569028 -3.8707528727968357 -1.6459958386487117 -2.9919103438225041 -4.1663341296182423 -2.8088695170006486 -4.0463420570322608 -4.2484999418892642 -5.9115546971965607 -6.022169133312115 5.3543540656947002 -4.4279119100917628 -3.6566600886299749 6.9330106373461353 6.931341674052808 7.9272671209403924 -1.7745459224851758 -2.5373025454456664 7.6937754883965477 6.0827612336679353 4.5322086577383915 -0.72674511750350823 -11.249437548900485 7.1427794375963831 8.027279822509076 4.2721527403948727 -3.8806837925240329 7.6417383599630808 6.9858636861247181 4.7240227401231989 -6.9487558927743667 5.0931906142851373 7.865790684854189 4.2716224479069806 5.1496468779837308 -3.0927455502233845 8.1138909205293164 8.2168192652903951 -5.4075407627762866 -5.494608142734708 5.4102528779533641 -1.7149903275071243 6.6765022612379434 6.7256957862515669 -6.4164309003867794 4.4754824549868299 -3.5746699133663209 4.9552680833804779 -3.7786450262547779 7.8059158136268829 0.93058426401511274 5.4049136060303793 -4.0613837709414664 5.557538687717634 -8.9614361769980064 7.0066174043645084 -3.5506171160940467 -4.5628130565013256 -3.0392074300247418 -2.5132918011780419 -2.8706069516738615 -5.7505795267056365 -5.6738047061232759 -6.1704069390091938 -6.1505644735930218 -4.7273740398013793 -4.1658174443516716 8.8374906447354302 4.9743723580263612 5.3111331671508299 3.7999877478222075 -0.48267535644997417 4.0429747570687029 6.7612385887430184 4.5083055926358577 4.338123615309291 8.4208025174364316 3.7263019971047218 6.2018890569875698 4.8978619989877439 4.2602727445117941 4.5015983310515875 4.9761070160182888 4.6146280140480673 -6.1641720552742649 4.7971821206316356 5.2337099759351551 5.6866587207491452 4.178570355781968 -5.9558490412608309 6.3991170006747131 7.4811234768813355 -3.9952938414694548 -5.1589929524400722 5.0603997065954385 -3.6564786495901069 6.3991170006747131 8.6180069655516576 -4.5685548449218745 7.2976905912508228 -2.3105856612362898 4.8333765429302131 -3.4294861902789449 4.9095877941253576 0.39277865504069787 2.2844590005972352 -3.6873204448444148 4.7184284391232989 -0.23034434261337519 8.3091665009085549 