svm_type c_svc
kernel_type rbf
gamma 0.0078125
nr_class 80
total_sv 238
rho -0.72166078069474648 -1.1268971485442247 1.2561426986502595 0.015255237503798294 0 0.025469985219558604 0 0.012372941239041943 0.033097966150296657 -0.63890534092904194 -2.0895369746910948 3.3750779948604759e-14 0.39971120089296092 -0.44905044031556962 0.10320665633425999 -0.037076712755163735 -1.8886844803490253 0.032629062831714462 -1.936879603450592 -0.88473726497283234 0.043304071713586891 -1.0336262593915109 -0.25633381563525864 0.088784463045262066 -0.0078700876993281696 -2.6645352591003757e-15 8.3266726846886741e-17 -0.39912631772490847 0 -0.77238233290365788 -0.63342645479827064 0.019688330982468694 0.12905555103948776 0.84052874843486891 0.59450398340379884 -0.029541183873354453 1.7763568394002505e-15 0.2900914866195668 -0.95270227961784837 -0.00050142434464365421 -0.015761173032413291 -3.0764890495633979 -0.57905787055062985 0.2209064123038797 -1.5142805129914121 -0.015761173032413291 -2.3632953624416575 -0.00050142434464365421 -3.0764890495633979 0.013645400901807844 0.032647996957275445 0.013519538763323428 0.15204104917826849 0.034180928640875331 -1.0682059558396453 0.013645400901807844 0.032647996957275445 0.013519538763323428 0.034180928640875331 -1.5461398656956284 -3.5527136788005009e-15 0.046481698937359033 0.027182664120383875 -1.3152738593532585 0.10972219502375236 -0.87424077830417046 0 0.046481698937359033 0.10972219502375236 -3.009604648487441 3.5527136788005009e-15 -3.5527136788005009e-15 0.011876586135740301 5.3290705182007514e-15 -1.7763568394002505e-15 0.028821838326225018 -8.8817841970012523e-16 0.068356705865244352 -1.7763568394002505e-15 1.62489513206504 1.9889390302812349 -4.0618282356969946 -1.5855327148681331 -0.92510303713990127 -3.0580438167217965 0 -0.91034778407052552 0 0 0 0 0 8.8817841970012523e-16 -0.74709316217386024 1.4664965498343794 -1.3294830051649975 1.2884018952558876 0.13641271952414402 0 0.066451832247693521 0 -0.058952637706747163 -0.10981731812350042 0 0 4.4408920985006262e-16 0 -5.6621374255882984e-15 0 0 -3.4416913763379853e-15 8.8817841970012523e-16 0 0.012805316756657761 0 0 0 0.016927853834395563 -2.7200464103316335e-15 -7.7715611723760958e-16 0.029146686251493345 -3.3306690738754696e-16 0 -2.7200464103316335e-15 0.0092568832591550763 0.016927853834395563 -7.7715611723760958e-16 0 0 0 0 0.0022868572367267144 0 0 0 0 0.0022868572367267144 0.02715145263408535 0 0 0.0022800695355163505 0 0 -1.3877787807814457e-16 0 0 0 -3.8302694349567901e-15 0 0 0 0 0 0 0 0 0 0.61133187053235949 -0.96337521840051954 -0.4980047815788084 0 -1.0290228050912262 0 -0.018681113944073027 0 7.3274719625260332e-15 0 0.032287694860169545 0 3.5527136788005009e-15 -0.19270144241308529 -0.61807444314907001 -1.6607989979451687 0.0026800863582396054 0 0 -0.13513064575133454 0.015356728445352392 0.037801796900038855 -0.083443443251668276 0 0 -0.065691181688894262 0.0038063223276777213 -0.04396924713106367 0 0.013559142120367828 0.15814268695829356 0.15005783800505182 0.39198001066166133 0.027711084430079563 0 0 0 -0.041222560565168632 0.13108052970484713 0.037221855769644485 0.0053691469618403114 0.3195744385728525 0 0.13108052970484713 0 -0.041222560565168632 0.037221855769644485 0.016094181752247319 0 0 0 0 0.15073142615136381 0.016094181752247319 0 0 0 0.042812026994949348 0 0.14116345190721682 0.0062240194644366045 0.1426529037070568 0 0.36569227129759829 0 0.14116345190721682 0 0.17665569336455206 0 0 0 0 0 0 0 0 0 -1.5146715393743218 0.13333030703979828 -0.026978524207790056 -0.65242883431875909 0.0032619860012296242 -0.15545314048238817 5.2180482157382357e-15 0 -3.5527136788005009e-15 0.023279167481351559 0 9.1038288019262836e-15 -0.74019029008574588 -1.6665882252672675 -4.5468683282349112 -2.3487157429521157 7.7715611723760958e-16 0 -0.34526816458752085 0.022370983209650502 -0.10903333983639277 -0.15184880750074703 0 0 -0.19094704918592043 0.0061217906937065265 -0.20703326720217871 8.8817841970012523e-16 0.0046141116656579868 0.031934412203641814 1.3877787807814457e-15 0.13168554544665384 -2.0816681711721685e-15 8.8817841970012523e-16 0 0 -0.28792204019464929 0.011463275616782424 0.050917030573086053 -0.31238271827471614 0.19296259406526284 0.007732341801986997 0.011463275616782424 -2.2204460492503131e-16 -0.28792204019464929 0.050917030573086053 0.015109007750770282 0 0 -8.8817841970012523e-16 2.7755575615628914e-16 0.080883228042151992 0.015109007750770282 0 0 2.7755575615628914e-16 -0.093060297820927576 0 0.061711088440981422 0.0050478381905279673 0.079207296771641594 -1.0547118733938987e-15 0.10669293268483099 0 0.061711088440981422 -1.0547118733938987e-15 0.039178280683332206 0 0 0 0 0 -8.8817841970012523e-16 0 0 0 0.13441872809842698 0.1000398580634678 0.69882144098427534 0.0009048037287630907 1.0359246141044864 0 -0.0059912298342958597 -0.0047847797369693175 -0.0017489105876540097 -0.0067770853722566955 0 0.19231100353173583 -0.17066739354231517 0.13875017574686149 1.3720373254533156 0.04795128439055743 0 0 0 0 0.083784714782783432 -0.0027039761718771088 -0.00027610304808366415 0.0033888323319620447 0 0 0 0 0 0 0 0.0070519337035188463 0 0 0 0.05817560296618967 0 -0.0080582177805591151 0 0 0 0 0 0.05817560296618967 -0.0080582177805591151 0 0 0 0 -0.0033603526135455946 0 0 0 0 -0.0033603526135455946 0 -0.001655604787466899 -0.00038537161080268227 -0.0020301680679427215 0 -0.0049626671881534967 -0.010372535417027243 -0.0027454986097614938 -0.00038537161080268227 -0.0049626671881534967 0 0 0 -0.0022205040548342629 -0.0024937506768040719 -0.00341457187736637 -0.0026343035884992673 -0.0037881730957536608 0 -0.0038074125633266731 0.102964946862874 0.087205764143282058 0 -0.12365555945538383 0 0 0 0.0066272608407511461 0 0 0.095077469429657099 -0.059192543243841628 0.083790426015420458 0.57913499889844144 0.034439989628648415 0 -0.017380903469219222 0 0 0.064555782747059878 0 0 -0.0012931441945218207 0.0074898743952478393 -0.0066170676620933566 0 0 0 0 0 0 0 0 0 0.00034624260350012148 0 0 0 0 0.012690287860108082 0 0.007766554770545186 0.00034624260350012148 0 0 0 0 0 0.00083124585886928948 0 0 0 0 0.00083124585886928948 0.0020128869053288472 0 0 0 0 0 0 0 0 0 0 0 0 0 0 0 0 0 0 0 -0.16560855676000369 -0.0050540514378072214 0.15053757842731694 0 -0.0076686810417385329 -0.0046781029638578251 -0.0029385465274838068 -0.0055816870539634562 0 0.0095575498922570671 -0.084111808410701983 -0.081237568951368411 -0.053241745958358289 -0.0083995730869064738 0 0 0 -0.0095022072921023097 0.14072003038455019 -0.0027395236730344118 -0.00080406516763275226 0.0083199376106097775 0.0089993526415781747 0 0 -0.00026661173544279454 0 0 0 -0.0045053467387924382 0 0 0 0.046881752393120112 0 -0.0083724389900159558 0 0 0.0041060907691994842 0 0 0.046881752393120112 -0.0083724389900159558 0 0 0 0 -0.0046136535724618025 0 0 0 0 -0.0046136535724618025 0.0022173665865986569 0 0 -0.0040129715497504003 0 -0.0038516978929429937 -0.00030084419552041847 -0.0015678685977955538 0 -0.0038516978929429937 -0.0034501597326732207 0 0 0 -0.0036492067788271667 -0.002139147711025767 -0.0012598723753322082 -0.0033699656163290541 0 -0.0032832225811747378 0 -0.083646275428765654 0 0 0 0 0 0 0.067304452938948892 0.19123255997694721 0.14183344027892547 1.6158902814349543 0.065896024637618442 0 -0.0055489390061378248 0 -0.020142211080281695 0.12916592498021409 0 0 0.0013300604830558127 0 0 0 0 0 0 0 0.0066919861101145351 0 0 0 0.030396628268963621 0 0 0 0 0 0 0 0.030396628268963621 0 0 0 0 0 0.0012282189241406376 0 0 0 0 0.0012282189241406376 0.01053117818065552 0 0 0.0018448545652331825 0 0 0 0 0 0 0 0 0 0 0 0 0 0 0 0 0 0.043485181261384065 -0.0070491208615440408 0.034353946477015063 -0.02608603335679105 -0.013132137126721399 0.10445183596369373 0 0 0.002370893014900898 -0.0031488588255625069 0 0 0 0 0 0.0081463520669196911 0.22148373696364251 0 0 0 0 0 0.006055569445995908 0 0.18439478529159428 0 -0.0098659622706154804 0.064106293085952948 0.17994802385507461 0 0 0 -0.0039181378195678462 0 0 -0.0055691682795947633 0 0 0 -0.0039181378195678462 0.056301988469864436 0.017225011258423007 0.0067991247837237605 0 0.0014421585377591601 0 0.056301988469864436 0.017225011258423007 0.0067991247837237605 0.0014421585377591601 0 0.16285069431820912 0 0.025400752925834845 0 -0.012003073894072977 0 0 0 -0.012003073894072977 0 0.040781436129407739 0.017194387870943535 0.03459235024234706 0.014586125842565727 0.0024028727354114729 -0.013150521944462163 -0.0032080334821659867 -0.016174494650140352 -0.012500672405476809 0 0 0 0 0 0 -1.5882384099535463 1.1657047108827259 -0.27473546827504863 0.48877037881559515 0.22108666057819937 0 0.13364601325958422 0 -0.11056745737318324 -0.043170382532497872 0 0 -1.1379786002407855e-15 0 -5.2180482157382357e-15 0 0 1.7763568394002505e-15 1.0061396160665481e-15 -1.7763568394002505e-15 0.0095593927729520772 0 0 0 -0.044052329727089716 -2.6090241078691179e-15 0 0.052222897549265179 -2.3314683517128287e-15 0 -2.6090241078691179e-15 0 -0.044052329727089716 0 0 0 0 0 0.0029362287082786865 -4.4408920985006262e-16 0 0 0 0.0029362287082786865 0.039039296275652426 0 0 0.0028035374475481691 9.7144514654701197e-16 0 -3.3306690738754696e-16 0 0 0 0 0 0 0 0 0 0 0 0 0 -1.1104585340676798 8.8817841970012523e-16 -0.92551935118360462 -0.74636556852713831 -0.065021567943439981 0.0014298528234496326 0 0.0068683900845332765 0 0 0.11954760630935074 0 -0.074062356059396123 0.016006801693290468 0.039773311901828999 0.035424730041986173 0 0 0 0 -0.066386383164848711 -1.8239287681361707 0.27558956055165579 0.9167209268512283 3.2503215361009112 -0.10932952546515717 -0.012401697520302827 1.4624786947954067 0.33601542710447629 0 -0.46692877352182671 0.0084372173655137914 0 1.4376880339652709 0.22896044226242079 -0.46692877352182671 0.24375275514831007 0 0.0084372173655137914 -1.1170897613544302 0.51317187320364488 -0.61488263694971279 -0.7452585753639982 -0.3313237762569845 0.086226166036938195 -1.1170897613544302 0.51317187320364488 -0.61488263694971279 -0.3313237762569845 0 0.39361811216179782 0.0057419230767340197 0 -0.06688460088357473 -0.1937673946900384 -0.20662964096489439 0 0.0057419230767340197 -0.1937673946900384 -0.39583081342931103 0.18028243466501678 -1.1116442514975302 0.093496635569285849 0.21264817608111289 0 -0.16420969837144456 0.049672242046291247 -0.15362864400578061 0 0 0.20441736852547598 0.4742983174705131 1.0936970186235202 0.0078799363140899352 0 0 0 -0.014207915070072871 0.067323958683074267 -0.0069395245257446335 0 0 0 0 0 -0.0068458649489104018 0 -0.022389077929465751 0 0 0.17826835136342772 0.74428831852978095 1.2484572941151588 -0.0074921395224086945 -0.064193275699044386 0.41995556464046829 0.14942965631537103 0 0.49972163555449001 -0.020764172248082607 -0.0032185138240927724 0.067394166920148879 0.051572393331318786 0.49972163555449001 -0.031175887527123154 0 -0.020764172248082607 0.13530956004525302 0.17126367069163018 0.015476474457161363 0.25748307060765152 0.084196910804597611 -0.053713568321154669 0.13530956004525302 0.17126367069163018 0.015476474457161363 0.084196910804597611 -0.029135544214705589 0 0 0.012312368650079749 -0.048466282027712748 0.13193639489949571 0.23971511032450465 0 0 0.13193639489949571 0 0 0 0.027894424474353769 0 0 0.15358040242716553 0 0.017642745907664608 0 0.10261981517771283 0.39802579795751469 -0.052838112713120361 0.003078965461301634 0 0.0023968548227975401 0 0 0 0 0 0 0.0083406688109154206 0.19491999860314321 0 0 2.7755575615628914e-17 0 0 -0.010833075786379279 0 0.40807990425780988 -0.052068466599437736 0.02150003505541731 0.0065583626463108224 0.34544619074902316 -0.012253377658673464 0 0 0 0 0.018341410132048781 0 0 0 0 0 0.10301899302097652 0.071348392358020526 0 -0.039885436016157939 0.0080449438478302094 0 0.10301899302097652 0.071348392358020526 0 0.0080449438478302094 0 0.53756742051313322 0 0.023825140882819191 0 0 0 0 0 0 0 0.34432479781447267 -0.063651874557999435 0.14472005509912281 0.2014970315521831 0 -0.030172747850920723 0.057843204336740429 0 0.018750150878571542 0.13265700075722359 0.89336424889271659 0.0054975852762212084 0 -0.0076974369070412956 -0.018525463564779864 0 0.095255853746861671 0 0 0 0.015870316509252025 0.0067302954090755667 0 0 0 0 0.021950629995558763 0.092032494191786052 -0.049162752222016493 0.64266849737761578 1.7328487154936199 -0.08992102413368544 0.14269317397858372 0.84300191674505076 0.10652529690196215 0 -0.025292913835624441 -0.12097777020382128 0 0.05816333019322599 -0.13604282159870895 -0.025292913835624441 -0.030047096411115953 0 -0.12097777020382128 0.04025863237494591 0.16536826307295427 0.14345127289952281 0.15279765348930172 -0.041096057273640733 -0.035150633526511793 0.04025863237494591 0.16536826307295427 0.14345127289952281 -0.041096057273640733 0 0.12436270998969999 0 0.071855710654008434 0 -0.25382405864462732 0 0 0 -0.25382405864462732 0 -0.0083096279088889571 -0.10844355499454372 0.076129770904142649 -0.14774899786671145 0 -0.11446029475141946 0.021071004405092648 -0.031465014564988236 0.050934342679645285 1.1144052024712461 0.0090894532372087656 0 0 0 0 0.08219143333677921 0 -0.045327365800932162 0 0.0084106226522053327 0 0 0 0 0 -0.062760501506252064 0.01801416131192151 0.097999990587844005 1.1003916510586707 0.87545931894429352 -0.0074998438404828352 0.11754372170873774 0.58077562809190619 0.073880412669402179 0 0.22399690783475296 0.11180824611061187 0 -0.12892873256693671 0.35475843106134836 0.22399690783475296 0 0 0.11180824611061187 0.12676402401336653 0.21662987607114914 0.11080738161603761 0.055840619752032611 -0.21909460642247103 0 0.12676402401336653 0.21662987607114914 0.11080738161603761 -0.21909460642247103 0 0.33370927835065256 -0.26603043626132372 0.039793959193379802 0 -0.30681635086547732 -0.27218845734658986 0 -0.26603043626132372 -0.30681635086547732 -0.3015400112035343 -0.12177862970565517 0.13191588952483624 0.077271166963933546 0.013270056179325512 0 -0.087326518026682245 0 0.081922235835290416 0.020631661810565572 0.015907617127918366 0 0.0089372694611726203 -1.7763568394002505e-15 -0.11040664931393522 0.22435705950125057 0 0.040127515504605658 0.049321175974110974 0.047009050017446215 0.059198166117732653 0 0.008829540825348826 0 1.2434497875801753e-14 -0.94774351330211992 -0.0046181798627812146 -0.43366217605727486 0.19776455827258851 0.54914664242622957 -0.8133874243112077 0.13009253670252219 1.0640661032806265 0.24244051216806825 0 -0.54765007710799596 -0.32516190780104498 -0.070915083194880491 -0.022696184615207504 -0.40889830615572081 -0.54765007710799596 -0.25024321161877489 0 -0.32516190780104498 -2.0813217620852185 0.43201395825617378 -0.0084765155302482034 -0.27747722870585367 -0.63987132060086405 -0.14205194280398406 -2.0813217620852185 0.43201395825617378 -0.0084765155302482034 -0.63987132060086405 -0.26950056920855076 0.42965867655049639 -0.78708990353748598 0 -1.0104087465303158 -0.28110928126591778 -1.411565003795676 0 -0.78708990353748598 -0.28110928126591778 -1.2847282980605208 0 -0.17369375453789265 0 0.12111211199320386 0 0.064054434123804349 0 0.14093076715168401 0 0.69885878225262166 -0.08743984113090518 0.5114696337645912 0.24381294599071116 0 0.19670571432555539 0 -0.076474611300308359 0.12254478330164886 -0.0011789015763233775 -0.0016414345645082162 0.034369163695285788 0 -0.0080885926355538373 -0.01102220720824562 0 -0.00090896603949593613 -0.015276157539294399 0 0.0056168034916445654 0 0 0 0.14223154085743128 -0.017029138296351175 -0.01678070569573149 0.0078865707617135072 0 -0.0021278437356745325 -0.017029138296351175 0 0.14223154085743128 -0.01678070569573149 -0.0070866970874599216 0 0 0 -2.5181345214888202e-05 0 -0.0070866970874599216 0 0 -2.5181345214888202e-05 0.0055871417090849682 -0.0066618632149283803 0 -0.00079598497066069897 -0.026853007535310076 -0.0058414849071206296 -0.013517259977867362 -0.0029809690261291925 0 -0.0058414849071206296 -0.0099932618737131884 -0.0052853520048846509 -0.0034742108626298618 -0.0042558110750112229 -0.0038443689326150992 -0.0038849340789304612 0 -0.0022761599788764055 -0.00069971806308758344 -0.0024759311192615319 0.025616749166134253 0.60969100354700645 0.11862401732344187 0 -0.074741883261223149 0.037674562552808932 -0.028693555856545882 -0.045310915722645909 0 0 0.0094208375564283353 0 0.029153884623455955 0 0 -2.2759572004815709e-15 3.5527136788005009e-15 -3.5527136788005009e-15 0.025643005474625048 0 0 -8.3266726846886741e-15 -0.11901721721153782 0.02328655212662149 0.067675358534330654 0.12922801776678999 0.17833813183573269 0 0.02328655212662149 0.034843824126178272 -0.11901721721153782 0.067675358534330654 0 0 0 0 0.0020671263216433347 0.032034479529923846 0 0 0 0.0020671263216433347 0.04770974931874998 0 0 0 0.029016797671445448 0 0.045727958880005339 0 0 0 0.0098406141850570245 0 0 0 0 0 0 0 0 0 3.5566391392811658 0.079015615149472862 -0.0040836735377330971 0.03068976790142619 -0.0058863519437645853 0 0.0078619937154919186 -0.00021836460892995144 -0.0014840157007440884 0 0.0012939296971267746 -0.011641456672875139 -0.0027214313493600473 -0.0036081739371322578 0 -0.009226785548700359 -0.0080677501106292734 -0.0044062629223272157 -0.0047079657971391305 -0.0054805788766091375 -0.0072435008426123782 0.034200890460292788 -0.0066726447837861065 0 0 -0.0058505471125624197 0.012993406052497098 -0.0066726447837861065 0.0043197344142439425 0.034200890460292788 0 -0.0027965449358178097 -0.0044707002852333337 -0.0039407888840910597 -0.0057247941266803277 0.0011054392019958302 -0.00388472761848103 -0.0027965449358178097 -0.0044707002852333337 -0.0039407888840910597 0.0011054392019958302 0.010388339433912236 -0.0010431266745025841 -0.0054654027209443635 0.0017716423799821756 -0.0077395286721724426 0 0 -0.0011957505567561091 -0.0054654027209443635 0 -0.0065415628208713812 -0.0022098498998584654 -0.0013548579745284598 -0.0018443560109528551 -0.0011240066133247836 -0.00092643276921548084 0 0 0 0 0.08444583706885149 0 5.5511151231257827e-16 0.029315880586907928 -0.015726191155238652 -0.16789849843686186 0 0 0.0010226853026688947 -0.0035108891713646214 -7.2164496600635175e-15 0 0 0.00051899135152727127 0 0 0 0 0 0 -0.07528530321078418 -5.1070259132757201e-15 0.003024985506464295 0.073936433657571687 0.12452678531203661 0.01549142007808154 -5.1070259132757201e-15 0.011082937010485202 -0.07528530321078418 0.003024985506464295 0 0 0 0 0.0024475693212155127 0.03471671527736319 0 0 0 0.0024475693212155127 0 0 0 0.0037174315066975001 1.7763568394002505e-15 0 -2.0539125955565396e-15 0 0 0 -3.3306690738754696e-16 0 0 0 0 0 0 0 0 0 0 -0.72045790563281209 -0.42183363968869991 -0.0205589051367377 0.072512118001160725 8.8817841970012523e-16 0 -0.94466635531684273 0 -0.3077311223491494 0.014117169983524025 0 0.18984811817488156 0.087336626355024191 0.42471167977675739 0 0 0 -0.18737785886687475 -0.28520305060491125 0.17638662198053479 0 -0.2900199395602544 -0.59593641255550167 0.037726667976412998 0.17638662198053479 -0.062475087397579232 -0.28520305060491125 0 0.019133552248463331 0 0 0 0 -0.098032174885414047 0.019133552248463331 0 0 0 0.006693680842695361 0 0.046418586770450208 0.0041884327867486876 0.067432324436551797 0.014112337777753406 0.12266042794528624 0 0.046418586770450208 0.014112337777753406 0 0 0 0.0057818108149592651 0 0 0 0 0 0 0 -0.016564557265872193 0 0.030157663553935805 0.040001788946030993 0.0050805669696829718 0 0 0.0044063946139156346 -0.050951774110681351 -0.28153801382429572 -0.012386288951431172 0.018988002859640252 -0.10278390385467033 0 -0.096369104151095897 1.4567860627262756 -0.20884684030163866 0 -0.032639936490247268 0 0 0.020406313546790161 0 -0.032639936490247268 0.056843812664407294 0 0 -0.12150734007286458 2.3248768986926738 -0.28540358306763169 -0.21562502979320955 -0.031484398341348897 0 -0.12150734007286458 2.3248768986926738 -0.28540358306763169 -0.031484398341348897 0 0.043465519293876563 0.047959180872441921 0 0 -0.066019420033977441 -0.048086088005130423 0.048580185746617856 0.047959180872441921 -0.066019420033977441 -0.032611253831573907 0.05565426840619981 -0.1003015012202793 0.033496132558818552 0.053393547681146715 0 -0.057045079346553042 0.061203830325583332 -0.036831104053150834 0 -0.029326875361435373 0.047784054788617671 0.19035049009380151 0 0 0.011612990143981473 0 -0.021442775066330289 -0.0097902794842912675 0 0 0 0 0 0 0 -0.023243909718541234 0 0 0.049810778750773166 0.7843666185716982 -0.027484658656066575 0 0 0 0 0.049810778750773166 0 -0.0031269886135628006 0 0 0 0 0 -0.0031269886135628006 0 0 0.062176508066864811 0 0 0.0033713230985197239 0 0 0 0 0 0 0 0 0 0 0 0 0 0 0 0 0.083775231475399212 0.052040578218253974 0.015508717455827548 -0.0012117428736096263 0 0 -0.10652282000327543 -0.058940031360617463 -0.013441186337939707 0.27597857508030066 0.26569333148806851 0.61207223148996448 0 0.034136643663736997 0.08686071100594206 0.3595209020074458 0 0.12689199524724773 0.00071078755022451878 -0.10999907559428067 0.36305903413555485 0.051188515775630571 0.12689199524724773 -0.18946145969160666 0 0.00071078755022451878 -0.024439276114055081 -0.060311575074995294 -0.045646799184842123 0.041999942421314052 0 0.078098559558433547 -0.024439276114055081 -0.060311575074995294 -0.045646799184842123 0 -0.20043658724742608 0 0 0.0058806077107484214 0 0.01135975036755619 0 -0.0025874912685476537 0 0.01135975036755619 0.080711976702950827 -0.01733504933926042 0 -0.0095150595399682066 0.020571339580360042 0 0 0 -0.0090388121404410462 0 -0.23302596012188076 0.0030337065598979862 0 -0.51219689870103258 0 -0.081295906322219572 -0.025991766198458877 0 -0.057333832317675644 -0.047658912418913089 -0.070896269621223806 -0.0023059136466594722 0 0 -0.036755617236207988 0.013757593206294869 -0.05165179038380896 -0.0035649149151159455 -0.18744188317320873 -0.10886306144677593 -0.019163581514589322 -0.05165179038380896 -0.028056519596570611 0.013757593206294869 -0.0035649149151159455 0 0 0 -0.0048975474974324029 0 0 0 0 0 0 -0.091774525766028472 0 -0.0067022801957587865 0 -0.065026721125205342 0 -0.043094929630618145 0 -0.0067022801957587865 0 -0.048600718407270184 0 0 0 0 0 0 0 0 0 -0.0074044651189063559 -0.013398224517005263 -0.090341242012393463 0.01408264525264033 -0.060856680802412889 -0.043638590716817603 -0.032715966332790912 -0.057025310245430304 -0.048220675747964049 -0.068107172600260571 -0.0056408143642685885 -0.016466458026051501 -0.040766737393642095 -0.053676198320486833 -0.028304237226245421 -0.046884237137976875 0 -0.17842710393771818 -0.070780537294040713 2.7755575615628914e-16 -0.046884237137976875 -0.058535391546166625 -0.028304237226245421 0 -0.024455388306076201 -0.033477707231819358 -0.033893450808759364 -0.037348068931607421 -0.001055844267172236 -0.0028261874411101839 -0.024455388306076201 -0.033477707231819358 -0.033893450808759364 -0.001055844267172236 -0.075680182983780556 -0.019404589884276079 -0.032170299355850605 0 -0.067131150272696949 0 -0.02034511240265004 -0.012678165611923073 -0.032170299355850605 0 -0.023113623933428321 -0.01767387621576445 -0.021752614313682039 -0.014057828282710814 -0.01227350139874094 -0.0075119582336027361 -0.013204337034944946 -0.00074360342187048312 -0.022123474476268487 -0.0013953083542086002 -0.066318971544960414 0 0 -0.0020803787628361635 -0.0072930869334534064 -0.015201844442387221 -0.024105470382156918 -0.048479242152648656 -0.041715486902903644 0.0047407070717269129 -0.075444745055630522 0.39161208313594786 -0.019046798147053273 -0.00083217243959208176 0 0 0 0.010455236427627771 0 0 0 -0.00083217243959208176 0 0.038588965822931386 -0.014986146095744585 -0.044372777660923651 0 0.0059213035840341988 0 0.038588965822931386 -0.014986146095744585 -0.044372777660923651 0.0059213035840341988 0 -0.34337463663964424 -0.00046581620320586731 -0.86511644194980131 0 0 0 -1.0306719804374345 -0.00046581620320586731 0 0 -1.2273743660213492 0 -1.7747647059998144 0.053030131434225782 -1.8787613759165391 0.068249693572138989 -1.7957132679166896 -0.083709312789417456 -0.34187614997717758 0 5.5511151231257827e-17 0 0 0 0 0 0 0.0090835608640923351 0 -0.0086240674896399163 -0.0020962159346262638 0 0 0 0 0 0 0 0.00063273899852468729 0 0 0 -0.0091403397025559743 0 0 0 0 0 -0.0091403397025559743 0 0 0 0.0040251625332898373 0 0 0 0 0 0 0 0 0 0 0 0 0.0088851655637450944 0.011646540137497996 0.0016881707871960749 0 0 0 0 -0.026211213340607498 0.0085856414557566457 0 -0.025632777677542278 -0.021071959266706464 -0.039365912221819982 0 0 0 -0.0095952997954384753 0.0061577529692664707 -0.02636635879122683 0 0.20028212361578687 -0.080255547155062487 -0.0067949284694067231 -0.02636635879122683 0.024432030359320771 0.0061577529692664707 0 0 0 0 0 0 -0.018847106636447796 0 0 0 0 -0.068159697716418277 0 -0.02232285133953581 0 -0.025605166199626644 0.0076368061474610992 -0.019892530305892275 0 -0.02232285133953581 0.0076368061474610992 -0.01212624441828219 0 0 0 0 0 0 0 0 0 0 0.0013550401450982965 0 0 0 0 5.5511151231257827e-17 2.7755575615628914e-17 0 0 -0.00023661322445536824 0 0 0 0 0 0 0 -0.00023661322445536824 0 2.7755575615628914e-17 2.7755575615628914e-17 -2.7755575615628914e-17 0 0 0 2.7755575615628914e-17 2.7755575615628914e-17 -2.7755575615628914e-17 0 0 2.7755575615628914e-17 0 -2.7755575615628914e-17 0 2.7755575615628914e-17 0 2.7755575615628914e-17 0 2.7755575615628914e-17 0 0 -2.7755575615628914e-17 2.7755575615628914e-17 2.7755575615628914e-17 5.5511151231257827e-17 0 -2.7755575615628914e-17 -2.7755575615628914e-17 0 0.075238363354028698 0 -0.030734783453295385 0 0.069238574787254148 0 0 0 -0.031661221358406676 0 0.016674765285395982 0 0.13552419482334244 0.050114699883618996 0 0.016674765285395982 0.014186822798977095 0 0 0 -0.011391036818530939 -0.0034246087180615317 -0.00033980560810172961 0.0029114439541008917 -0.015812778535964783 0 -0.011391036818530939 -0.0034246087180615317 0.0029114439541008917 0.06379648912214958 0 0.068638851863474779 0 0.15148194540996515 0 0.16052085787796244 0 0.068638851863474779 0 0.031744696132493783 0 0 0 0.0066434331090958658 0 0 0 0 0 -0.06035857856468959 0.54768781746384765 0.89147362702725153 1.3496253446069124 -0.015832953842975339 0.0012727552871624713 0.020285310347101994 0.37832584255238721 0 0.33033676097909614 0 -0.024987401185641616 0.67430954180967739 0 0.33033676097909614 -0.051307681491313095 0 0 -0.036933621530092338 0 0 -0.02985551584188743 -0.019042478829140272 0.12693250469797129 -0.036933621530092338 0 0 -0.019042478829140272 -0.041998750947431683 -0.030132077786846012 0.01839000195003803 -0.012054043221603731 -0.037532933419245497 -0.017472730181415153 0.029420818468100574 -0.0031544057765531264 0.01839000195003803 -0.017472730181415153 0.12779979435744782 -0.014737179113117968 -0.032278790964692182 -0.0052461858899059037 0.0037035655792280325 -0.0087210900614546061 -0.021942046989122204 -0.012227450361523262 -0.018599956571345222 -0.012775440675742836 -0.10602630620850836 0.68673497776519898 0.12234090989393399 0.0013164409994473394 0.14657952661002721 1.4349794257152109 0.16959659229897783 0 -0.23703583763130498 -0.027322754797430508 0 -0.02846480397708322 0.050089202304593114 -0.23703583763130498 0.11717211787155794 0 -0.027322754797430508 0.23389328725467537 0.41109626300543417 -0.047900645178400703 -0.27425983040103596 -0.018649130492231786 -0.034577139828237381 0.23389328725467537 0.41109626300543417 -0.047900645178400703 -0.018649130492231786 0 0.45404888295642959 -0.047446163404369253 0 -0.034543986737059461 -0.0042524964914843755 0.02121508241423303 0.011019493808148706 -0.047446163404369253 -0.0042524964914843755 -0.057142707324801936 1.4210854715202004e-14 0.11550675079069173 0.06050469861329779 0.24345464010633591 0 0.099932018247246457 0 0.21677989401081729 0 -0.89648146101958126 0.7683353617223394 -1.269459041283125 0.171356287640819 0.29329651965709941 -0.42904105136336596 0 2.4424906541753444e-15 -0.25070598808532535 0.13708042196286066 0.13853006087567815 -0.13184458650531891 2.4424906541753444e-15 -0.2946880965093942 0 -0.25070598808532535 0.036926906760010682 -1.3766765505351941e-14 0.065946792507217092 0.083705721982942863 -0.15531954953254734 -0.15590883436920955 0.036926906760010682 -1.3766765505351941e-14 0.065946792507217092 -0.15531954953254734 -0.056344117273960492 -1.2878587085651816e-14 -0.081569530785091479 0.0080784740151401691 -0.39099757794953338 -3.3306690738754696e-16 -0.11327813567541012 4.4408920985006262e-16 -0.081569530785091479 -3.3306690738754696e-16 -0.073835039447497516 0 0.026766991119120582 0.020579147572849187 0 8.8817841970012523e-16 0.06165890971445237 8.1462614431870861e-15 0.052651058300795979 -1.6653345369377348e-15 0.54239859435715843 -0.69224897851780243 -0.092428492734300094 -0.1403776777514249 -0.12389280744957093 0 -0.36336081613004234 -0.45526929682314748 0.030940461710817088 -0.17684831723472494 -0.35477191025997068 -0.36336081613004234 -0.113171526403797 0 -0.45526929682314748 -0.91557236249026008 0.080660856363762801 -0.54493238649157993 -0.4327124125481267 -0.5664590157135867 -0.35958095052657191 -0.91557236249026008 0.080660856363762801 -0.54493238649157993 -0.5664590157135867 -0.086292934634277216 -0.56495693876865605 -0.71086517183254927 0 -0.58227588996315516 -0.32343593222378475 -0.6322413054385978 0 -0.71086517183254927 -0.32343593222378475 -0.48338184039391308 0.06466346811622449 -0.22525237247344684 0.011803817932009899 0.04325054168982765 -1.7763568394002505e-15 -0.069300359629976577 0.013956505946399375 0.05503757497629528 0.019857782126866397 -1.6964240000256989 0.26642881718948391 2.0503854024146841 -1.2170101637274731 0 -1.0953594951931909 -0.99071390010033522 0.23239865487387165 -0.052730964252334311 -1.00471870243602 -1.0953594951931909 -1.0413934624158756 0 -0.99071390010033522 -2.3864499154160983 0.25839390884684071 0.28573035435481597 -0.56014458103486464 -0.85699421379371865 -0.16168715249226082 -2.3864499154160983 0.25839390884684071 0.28573035435481597 -0.85699421379371865 -0.91408553024919692 0.28270005801217474 -0.93270551014850933 5.3290705182007514e-15 -1.537394005880615 -0.29823834939176241 -1.2690531046826363 5.3290705182007514e-15 -0.93270551014850933 -0.29823834939176241 -1.1451706597931433 0.0045685964317661032 -0.5649005766547377 0.051960912307649126 0.14741985073167546 -1.7763568394002505e-15 0.10299614584179757 -5.3290705182007514e-15 0.18671587954810498 -3.5527136788005009e-15 -0.42192373759867891 0.22137006721230909 0.2485676259034876 -0.0085307017971992891 0.20433216356826134 -0.030728093800246103 0 0.51319056554874853 0.078021782152078487 0.20433216356826134 -0.068687789828714679 -0.0085307017971992891 -0.030728093800246103 -0.11112987018058659 0.057525401737305637 0 0.12913159251553297 -0.056114046692739873 -0.014494547006260294 -0.11112987018058659 0.057525401737305637 0 -0.056114046692739873 0 -0.090777877575651478 0.067673835488537462 0.014983896624772822 -0.0094933807931199977 -0.069066334849134728 0.053324971165017172 -0.029218489324718797 0.067673835488537462 -0.069066334849134728 0.190379444072969 -0.063023174672870816 -0.076741197090724869 0.0069839548121010432 -0.074355820710718376 0 -0.092041946091223042 0 -0.061764885289065895 0.0018975747181252389 0.5674087902127386 -0.069764347431844051 0 -0.14346996312599958 0 0 -0.055899309428331337 0 -0.14346996312599958 0.031703841371259485 0 0 -0.20743655385844467 0.18414024100810428 -0.034299391138809039 -0.14874596620525241 -0.025018076956004904 0 -0.20743655385844467 0.18414024100810428 -0.034299391138809039 -0.025018076956004904 0 0.13823663919790571 -0.079990246411748858 0 0 -0.17896281580840304 -0.049288647447560126 0.016384324706604076 -0.079990246411748858 -0.17896281580840304 -0.037983807116969172 0.07422855471228576 -0.23040028977244664 0.033413020647082216 0.067264032117590938 0 -0.13858508302951533 0.0062147012363739512 0.0090757611021518077 0.012080003540397996 -0.28259463806670237 0 -0.82556293845601159 0.051567954746596915 0 1.0613047690775894 0.11214306553733407 -0.82556293845601159 0.14295494464909156 0 0.051567954746596915 -0.80412559369894698 0.57429601441644174 -2.1956401509344388 -1.0522100173373319 -0.34783412182027801 0.078443656385433144 -0.80412559369894698 0.57429601441644174 -2.1956401509344388 -0.34783412182027801 0 0.0012651518847612963 -0.23441781155441027 -0.19693949348556142 0 -0.45030296913593559 -0.29536335281914305 -8.8817841970012523e-16 -0.23441781155441027 -0.45030296913593559 -0.35032169636539195 -0.15922315181546517 -1.1308147156263288 0.040115824701827396 -0.6255796816607907 0 -0.75007074123562423 0.0048696220705372424 -0.68641306641846367 -0.30671353401379681 0 0.20325446235496331 0 0 1.8511301435380281 0 0.20325446235496331 0 0 0 -0.14204618870692634 0.30656067189303549 0.28635934581383338 -0.44115254526420955 -0.14211211682072147 0.1548202946977677 -0.14204618870692634 0.30656067189303549 0.28635934581383338 -0.14211211682072147 0 -0.018303743371253425 -0.24990332399355009 0 -0.093294825361714517 -0.083097603118052421 -0.15707039266189948 0 -0.24990332399355009 -0.083097603118052421 0.097859348787772873 0 -0.076190712073797115 0 0.014387145238875965 0 -0.12130189524700923 0 0 0 0 0.032923267513230214 -0.075191646429030326 0 0.028407253024944835 0 0.0066665696324285434 0 0.032923267513230214 0.00743048299319796 0 0 0 0 0 0.00743048299319796 0 0 0 0.010775964494012497 0 0 0 0 0 0 0 0 0 0 0 0 0 0 0 0 0 0 0 -0.93500278169843443 -0.10283439667531402 -0.48974642251813949 -0.9150323307753464 0 -0.95476909605284632 0 -0.93500278169843443 0.053569202584933882 0.34365061603218416 0.080491537825263984 0.3127205973822314 -0.46952670412733583 -0.13849857299953322 0.053569202584933882 0.34365061603218416 0.080491537825263984 -0.46952670412733583 0.10205915516646538 0.023046147326079423 -0.81913758514091839 0.0061422656440261276 -2.0355821896985122 0.087875120281122751 -0.18578712916637671 3.8857805861880479e-15 -0.81913758514091839 0.087875120281122751 -1.7009809752944633 3.5527136788005009e-15 0 -1.8873791418627661e-15 0.025841806112365889 0 0.018534879054970272 0 0.062444132201668924 -5.3290705182007514e-15 0 0.90713851828247294 0.19458775209269397 0.93491317698477105 0 -0.033028323220976243 0 0 -0.024598040552579803 -0.036158120991455378 -0.038814061100747678 -0.038279232772007669 -0.47926273327398905 0 -0.024598040552579803 -0.036158120991455378 -0.038279232772007669 0.088189332279450319 0 0.30522636867637321 0 0.12914262841359772 0 0.78054440592706165 0 0.30522636867637321 0 0.65326531019138334 0 0 0.0085213645080868539 0 0 0 0 0.021727935029064577 0 0.41802598049731299 0 0.099984066778397884 0.075364365534326475 0.074957738347021199 0 0.016848734146302963 0 0 0 0.001914417375666962 -0.17143302750814546 0.016848734146302963 0 0 0.001914417375666962 0.0057905622275435647 0 0.054709388909945311 0.0054685988271360592 -0.052441145162959189 0.0094765828352163777 0.10318515638415193 0.0012272672836339815 0.054709388909945311 0.0094765828352163777 0.054377851331336366 0 0 0 0 0 0 0 0 0 -0.52431947574251825 0.48973007960626547 -4.2921131703088395 0 -0.90640896114832259 0.047199830076989982 -0.53539954593600758 -0.62508713713250486 -0.050966014713585216 -0.0021788774104629649 -0.24000826008424991 0.047199830076989982 -0.53539954593600758 -0.62508713713250486 -0.0021788774104629649 -3.2866114542961156 -0.079455806131442777 0.049427761812020694 -0.016354742659848077 -1.7994880637706197 0.029162118066053167 -0.089953999864748224 0.0026801774979245702 0.049427761812020694 0.029162118066053167 -1.2741694591616508 -0.030607322819009946 -0.13369728711417059 0.020315361181024515 -2.8421709430404007e-14 -0.01683234360668362 -0.095171368348015539 -0.033838094600455393 -0.032086008827591272 -0.043839388451443223 0.91487289503042712 -0.28628515996656168 -0.028467907189649411 -0.1989017466933635 -0.029985024207224879 0.04874530711867283 -0.10034354964719476 -0.29409947008699644 -0.23094069860284827 -0.20461284215007711 -0.029985024207224879 0.04874530711867283 -0.10034354964719476 -0.23094069860284827 0.026852775017704344 -0.13188384999634215 0.18623586467763747 0.02099822179519388 0.73334768820426333 0.091405813392886157 1.0307579704761332 0 0.18623586467763747 0.091405813392886157 0.516509150558359 0 0 0.009544930235927793 0 0 7.1054273576010019e-15 0 0 0 -0.95476909605284632 0 -0.93500278169843443 0.053569202584933882 0.34365061603218416 0.080491537825263984 0.3127205973822314 -0.46952670412733583 -0.13849857299953322 0.053569202584933882 0.34365061603218416 0.080491537825263984 -0.46952670412733583 0.10205915516646538 0.023046147326079423 -0.81913758514091839 0.0061422656440261276 -2.0355821896985122 0.087875120281122751 -0.18578712916637671 3.8857805861880479e-15 -0.81913758514091839 0.087875120281122751 -1.7009809752944633 3.5527136788005009e-15 0 -1.8873791418627661e-15 0.025841806112365889 0 0.018534879054970272 0 0.062444132201668924 -5.3290705182007514e-15 -0.0068259711072215417 -1.5099033134902129e-14 0.030788198096002955 0 -0.095926343077857537 -0.19949106621221982 -1.2434497875801753e-14 0.30913319131674305 0.030788198096002955 0 -0.095926343077857537 -1.2434497875801753e-14 -0.1092307869312651 0 0.099385979075843636 0.0083724954996190291 -0.17148418908847096 0 0.76463136059200576 0 0.099385979075843636 0 0.42833050603218398 -0.017921313670063738 -0.03768437006235912 0.0040244316755047695 0 0 0 0 -0.043120775119265119 0 0.032923267513230214 0.00743048299319796 0 0 0 0 0 0.00743048299319796 0 0 0 0.010775964494012497 0 0 0 0 0 0 0 0 0 0 0 0 0 0 0 0 0 0 0 0 -0.024598040552579803 -0.036158120991455378 -0.038814061100747678 -0.038279232772007669 -0.47926273327398905 0 -0.024598040552579803 -0.036158120991455378 -0.038279232772007669 0.088189332279450319 0 0.30522636867637321 0 0.12914262841359772 0 0.78054440592706165 0 0.30522636867637321 0 0.65326531019138334 0 0 0.0085213645080868539 0 0 0 0 0.021727935029064577 0 0.17719778965032842 0.080818062423348477 0.059731040891593125 -0.072530019851951372 0 0 0.17719778965032842 0.080818062423348477 -0.072530019851951372 -0.014818444396733049 0.15310686768334653 -0.015701954797103346 -0.010158968940330587 -0.025780367054337727 -0.022754338958575926 -0.06710241649545752 0 -0.015701954797103346 -0.022754338958575926 -0.10503505457930512 -0.0094866023676279578 0.039156880682102449 0.041171235469567656 -0.086510447120549144 0 0.16951624046720887 -0.024337397357535522 0.17740302431103261 -0.027446462000963606 -2.8973254874095979 -0.34568814506177553 -0.20272522547209446 -0.022402361613193006 -0.17888967410301898 0 -2.8973254874095979 -0.20272522547209446 0 0.0109774841588924 -0.13427127619434984 0 0 -0.17864667302122281 -0.18104190840073903 0 -0.13427127619434984 -0.17864667302122281 -0.18944157898043909 0.12181696880931873 -0.30132702116226762 0.053407875756650271 -0.25453426359029285 0 -0.19215531447739637 0 -0.25482302331317841 -0.038320668025882153 0.24763576336422302 -0.024185840584353208 0 -0.080756430020339526 2.8957798470166489 0 -0.024185840584353208 0 0.16505576335567282 0.065419618730472459 0 0 -0.051002245241496311 0.0072274632279068539 0.015484636518617707 0.065419618730472459 -0.051002245241496311 0 -0.067341503090672092 -0.15169976452695214 0.044136588777947017 0.065567991225724959 0 -0.010964852518731177 0.025649799355771202 -0.14623882549416381 0 -0.27496045851870932 -0.068115703491229335 -0.059836468594029558 0.34550597595185711 -0.25130974243043369 -0.27496045851870932 0 0.33539159050393152 -0.13321883382422561 0.011895318520629883 0 0.073420406115480022 -0.16006723993605709 0.01531072370927474 -0.13321883382422561 0.073420406115480022 -0.27558597855538164 -2.9309887850104133e-14 0.29570820246479396 0.047915300949359918 0.089659139136832433 0 0.24872519290961331 0 0.074672303619432293 0 0 0.072573396946879809 0.20291522668990708 0.024123607684968257 0 -0.020311075726399203 0 -0.020720133028978422 0.00081737961654047668 -0.027877468883893346 0.069667565727323105 0.17128718842329499 0 -0.020720133028978422 0.069667565727323105 -0.0045193684952199815 0 -0.0060684838328341484 0.020106066479302059 0 0 -0.011409103626354365 -0.017888059748909058 0 -0.026668877722270362 0 0.020639429502823999 0 4.2632564145606011e-14 -0.13235916475116702 0 -0.137288098112854 0 -0.11649524397190532 -2.886579864025407e-15 -0.16959253565903765 0 -0.137288098112854 -2.886579864025407e-15 -0.28438606299852509 0 0 0.0028772618234361737 0 0 -2.886579864025407e-14 0 0 0 0.17719778965032842 0.080818062423348477 -0.072530019851951372 -0.014818444396733049 0.15310686768334653 -0.015701954797103346 -0.010158968940330587 -0.025780367054337727 -0.022754338958575926 -0.06710241649545752 0 -0.015701954797103346 -0.022754338958575926 -0.10503505457930512 -0.0094866023676279578 0.039156880682102449 0.041171235469567656 -0.086510447120549144 0 0.16951624046720887 -0.024337397357535522 0.17740302431103261 -0.027446462000963606 -2.8973254874095979 -0.20272522547209446 0 0.0109774841588924 -0.13427127619434984 0 0 -0.17864667302122281 -0.18104190840073903 0 -0.13427127619434984 -0.17864667302122281 -0.18944157898043909 0.12181696880931873 -0.30132702116226762 0.053407875756650271 -0.25453426359029285 0 -0.19215531447739637 0 -0.25482302331317841 -0.038320668025882153 -0.024185840584353208 0 0.16505576335567282 0.065419618730472459 0 0 -0.051002245241496311 0.0072274632279068539 0.015484636518617707 0.065419618730472459 -0.051002245241496311 0 -0.067341503090672092 -0.15169976452695214 0.044136588777947017 0.065567991225724959 0 -0.010964852518731177 0.025649799355771202 -0.14623882549416381 0 -0.020311075726399203 0 -0.020720133028978422 0.00081737961654047668 -0.027877468883893346 0.069667565727323105 0.17128718842329499 0 -0.020720133028978422 0.069667565727323105 -0.0045193684952199815 0 -0.0060684838328341484 0.020106066479302059 0 0 -0.011409103626354365 -0.017888059748909058 0 -0.026668877722270362 0 -0.077139066737932957 0.0022255071472115548 0.40904051458473267 0.016393404317696685 0.21263552132471414 0 -0.077139066737932957 0.016393404317696685 -0.08126876121876192 0 0 0 0 0 0 0 0 0 -1.4210854715202004e-14 -0.32770316268868571 0 -0.19470912012183128 0 -0.0059217013047222654 -1.4210854715202004e-14 -0.19470912012183128 0 -0.5644142863026258 -0.63162619075247906 -0.026793002742606598 -0.83064754070938929 -0.025488194220032307 -0.57238652489147901 0.094953002121811264 -0.55191127301941867 -0.29562627241415373 0.0085264226579942568 -0.65184546266819143 0.11242338148892173 0.05947536992002378 0 0 0.11242338148892173 -0.35344691941839201 0 0.063575187075129505 0 0 0 0.056786716431499934 0 0.061634655107659898 0 0 -0.082301388155315555 0 -0.10824051253262224 -0.0085264226579942568 -0.082301388155315555 0 -0.030051288778771723 -0.038609267259764879 -0.11236710552979995 -0.065882096873583595 -0.14282192626244192 -0.054729739137561295 -0.41665696172034317 -0.056611529564380834 -0.078127031202416111 0.046046694720195097 1.4624710854021632 0 0.65176063389927752 0.046046694720195097 1.03055378736964 0 0 0 0 0 0 0 0 0 -0.066074323371115545 0 -0.11271423103258689 0 -0.069212545144304541 -0.0084694780078090268 0.10488907897050308 0.03078407883340345 0.035671506977254998 0 0.32198544802705609 0 0.14899190861288936 -0.023242244451348135 0 -0.05975310181864521 0.065886049839951125 -0.65029226041712351 0 0 0 0.013561304688492912 0 0.072188942984578897 0 0.043523406979942413 0 0 0 0 0.1419709892785784 0 -0.095780068938233806 0.14044703336565059 0.095347880153295234 0.037222583344482675 0.0031335574049254126 -0.017499911785768152 0.042210258946409361 0.11242338148892173 -0.35344691941839201 0 0.063575187075129505 0 0 0 0.056786716431499934 0 0.061634655107659898 0 -0.069212545144304541 -0.0084694780078090268 0.10488907897050308 0.03078407883340345 0.035671506977254998 0 0.32198544802705609 0 0.14899190861288936 -0.023242244451348135 0 -1.0658141036401503e-14 0 0 0 0 0 0.020971071852556214 0 -0.25953927775659719 0.45585445302091809 -0.23036130890498702 0.07570522278312182 -0.070829423930859461 0.29061723280886559 0.22913542156073513 -0.011715971413100351 0.11855604653246408 0.14732646877483896 0 0.21225080313083211 0 0.87640708163445635 0.00072996169155314927 0.04072179510348229 -0.030569112211492402 -0.061126532582599424 0.16489039509109779 -0.16171060008510219 -0.063791576588003426 -0.051261446408557045 -0.038001924373361362 0.065148613456138052 -0.13923588295386113 0.017728462210657971 0.0086990782620388427 -0.47834603909523521 0 0.02394376300945485 -0.074037575563200134 1.0002744823094478 0 -0.02722690246520354 0.32499492586489603 0.11766737494087676
label 0 1 2 3 4 5 6 7 8 9 10 11 12 13 14 15 16 17 18 19 20 21 22 23 24 25 26 27 28 29 30 31 32 33 34 35 36 37 38 39 40 41 42 43 44 45 46 47 48 49 50 51 52 53 54 55 56 57 58 59 60 61 62 63 64 65 66 67 68 69 70 71 72 73 74 75 76 77 78 79
probA -1.5690764611222416 -1.7549255974175002 -0.56026676813895326 -0.92966223849739749 -0.81066498241715179 -0.88555759153432212 -1.0295863522904001 -0.72946344934365537 -1.178705786746542 -0.62544665349901929 -0.76061580840643628 -0.34851577805843542 -0.24403984139990562 -0.47324062298502539 -0.47565101213904765 -0.97287350127040739 -1.965524703724568 -0.98613099077707023 -0.66485548018843665 -1.1980196419912099 -0.6350587105527713 -1.2453516080831042 -1.3268337257490237 -1.3094969212679792 -0.99835562913845977 -0.4070713980828945 -0.75838537737400802 -1.4193845615559495 -1.3605374803238901 -1.1782322469290456 -1.0056903291777253 -0.429567624654276 -0.72975332406834903 -0.66597391397083383 -0.1318391964801752 -1.0416173575395533 -0.66727096698281951 -0.65381268489381716 -0.8439899713229857 -1.5121040382368731 -0.66778235260905039 -0.48431192081019969 -1.4641710397431056 -0.61054821072304144 -0.6424947189280158 -0.54115767544696813 -0.57079571932832396 -1.5843477227871199 -0.22762842374730094 -0.30091917542899449 -0.70788462976873434 -0.74253735636341134 -0.55660052746581101 -0.96238898637468084 -0.80399482802507261 -0.30435099324630388 -0.66858621262408369 -0.92000576511912502 -1.0024498833296032 -0.56326911187080797 -0.44709852605864353 -0.61828804248836411 -0.39575447378678058 -0.72847418888727644 -0.39675761551587696 -0.55614451823360633 -0.47512498639062328 -0.70685846862203594 -0.48429663621685054 -0.33351012343682784 -0.43666628737216356 -0.56413715313237622 -0.47090632681846656 -0.34521670582090735 -0.48853729235425919 -0.44802865417290472 -0.40827540733106521 -0.45178422449465366 -0.43376568108314612 -1.0693248536943825 -1.5312663774552298 -0.5391491349017542 -1.0584520064731806 -0.77532133049165763 -0.52191372518383961 -1.1657526298125305 -1.3875853563239471 -0.96427248845151858 -1.032000620410422 -1.0709314405437715 -1.0823540635438542 -0.92136587592829011 -0.74096587009761605 -1.2563252826140465 -1.1125273065297077 -1.3939595845441564 -1.2592687651766152 -1.360494692612034 -1.1725900615612501 -1.4664937208354303 -1.2334628688883291 -1.3775578076092716 -1.6416005655809522 -1.1186747439194982 -1.2363478575795008 -1.3846465591671369 -1.2533237457310717 -1.1165688122424124 -1.0163136736117906 -1.0766274694807338 -1.0115398198538483 -0.73181267385997861 -0.75187858882175929 -1.1005615791301055 -1.1864876423257564 -1.0107915883112899 -1.0486263936458926 -1.3921550762682238 -0.90436157022794128 -1.013817804213067 -1.3579796199176042 -1.1618157923646533 -1.010272430915939 -0.90930582684659422 -1.0979163646248318 -1.4035375644959813 -1.0138018803372721 -1.079668062519606 -1.1237429173261619 -1.0779693735226989 -1.116277810356912 -1.1011170087743145 -1.1421045298461583 -1.1681038085305773 -1.2465704516349272 -1.0779693735226992 -1.1006814665055813 -1.1358801469750632 -0.98308292297144761 -1.0993233482731239 -1.204276698397996 -0.99239710028318728 -1.1019424940947011 -0.88514463488332551 -1.1728645180267316 -1.0406571425815672 -1.1056420632345969 -1.058060341142963 -1.1052656128636749 -1.1085814877987579 -1.170742352366678 -1.1328068592414928 -1.1498760298672974 -1.1081946595226024 -1.2628680604526694 -1.1130821144153606 -1.2111079782257956 0.53942138778874327 -0.81740530459443494 -0.90399371212669322 -0.60118992220685086 -0.72374158478334272 -0.68173146183132871 -1.353314680037746 -0.80382318503358563 -0.69263081820050409 -0.65998693709893552 -0.69645620557373555 -0.53883360610278841 -0.72191539427534324 -1.2014066200638265 -1.5559324575310922 -0.60083211642595402 -0.015818270167771518 -1.3336198606937677 -0.92686245652117383 -1.3792192693474936 -1.0865796133373855 -1.3474474041728191 -1.4038232642565809 -0.83850919002400892 -1.0462908922634515 -1.6248080156334117 -1.3414103929159982 -1.4151160783183296 -0.71899039398353093 -0.78845680725990697 -1.4231359287563083 -0.78668790769721164 -0.60395583792988561 -0.83536121549130871 -0.8363815060025247 -0.85050892980903292 -1.0837951717097907 -1.32297981280065 -1.0446349573021316 -1.1647304223982144 -1.4444854947097896 -0.94680234305575517 -0.88677292879205616 -1.0447361797779173 -0.98331666418292762 -1.3817532191116511 -1.1205348526448213 -0.66292813932168082 -0.95490189982892315 -0.80698831348982003 -0.83310647314015451 -0.7922247617933712 -1.3403808446348489 -0.6661080298423272 -0.97349934675959016 -0.81506976066438563 -0.79569354159501693 -1.3528900712552649 -0.68625749868662322 -1.0438800285369452 -0.85429876417532136 -1.0136039708841176 -0.79860792554654858 -0.57694489390591086 -0.87548692359535052 -0.83714706371919034 -0.79464137496581688 -0.91476460827657391 -0.78097872527958345 -0.73451923232531657 -0.85858529246985882 -0.7947873523965483 -0.86042015728061283 -0.79194354022093527 -0.92424309894035528 -0.79709926851336343 -0.85333631584536718 -0.8468431934919598 -1.2959194500418714 -0.30391889962389412 -2.0209814609272763 -0.62227078108861578 -1.3491303634325815 -0.89358586320017563 -0.69901853979172768 -0.67860537968003842 -0.72343619862223163 -0.64325551408047743 -0.79589859770257709 -1.5115081393501186 -0.49160911186188583 0.16569517530302089 0.38473446536612904 -1.4836117726651972 -1.0149935092598579 -1.521484979252308 -1.1440861052442917 -1.4491531631692363 -1.530062570851864 -0.86082104006525284 -1.0315011013297426 -1.4876931138598242 -1.3081533006357147 -1.4157695502432186 -0.83322578971200789 -0.86640280995396024 -1.2409713900322665 -0.97682312222529288 -0.93703098913874161 -0.82199061020708386 -0.84178934036770625 -0.97415451517569929 -1.1832022573194696 -2.3378745455304073 -1.1856884311542422 -1.0853534810444383 -1.5011083749351208 -1.1418345532560783 -1.1152031369789632 -1.185598708558357 -1.0468169512791727 -1.5411209063766274 -1.2596351961777583 -0.75171412506108193 -1.0684868087529233 -0.93656076061095295 -0.93156327519366411 -0.80696867715362375 -1.2635510147721087 -0.75013510549954665 -1.2412963964109147 -1.0813235018928489 -0.80709391319511437 -1.426470943788879 -0.68793470674959023 -1.0397678783249558 -0.85710711012916574 -1.2455108282911374 -1.0053246544018208 -0.94377288074230381 -0.88145224318998328 -0.84810984247081267 -0.80576071734732091 -1.1797442029172207 -0.80996391290561609 -0.810652599451267 -0.85084748717259495 -0.83341164816025082 -0.84503301401691511 -0.84626017496177475 -0.84173055035951794 -0.84781438362592054 -0.84895046142940001 -1.2810690749465201 -1.558411046354494 -0.69799794180301844 -1.3653224706702172 -1.0404896807725743 -1.2533511532554058 -1.3584074597464346 -1.3510255332314873 -1.3708217066138735 -1.269620560832545 -1.091459436492799 -1.8101165407491233 -1.1420648378451705 -1.9507899566230371 4.6860312193111957 -1.4120711091950866 -1.3606365444905151 -1.4155573977905407 -1.3124036730556152 -1.3307027730463945 -1.4715649885495345 -1.3307454423520535 -1.3807860145059898 -1.3470448856411101 -1.3541723636502974 -1.3231086773159091 -1.357994800762454 -1.3978266657615166 -1.21637402970705 -1.0758534473313757 -0.96175824753528716 -1.4066802546878094 -1.3156534677830338 -1.2226982948362515 -1.2523168658173309 -1.4589664497382384 -1.2174347811593718 -1.279805532999942 -1.2883743465912907 -1.1886727970351403 -1.3191830477118496 -1.2174347811593713 -1.4077721039864557 -1.4483099018889292 -1.2854045455478353 -1.3796256425575844 -1.3085938985582908 -1.3173404558324728 -1.3184600855003692 -1.385158125765799 -1.2820575906416194 -1.3696300188335007 -1.3122061743083295 -1.3217763844080983 -1.3853191296160559 -1.3174443772693678 -1.268755700893559 -1.2889282693528692 -1.3671800434967105 -1.2723603158363075 -1.3693880037229851 -1.2001700158509758 -1.3787514118467583 -1.2854072352551038 -1.3708376503001873 -1.2930075268060741 -1.345628403632031 -1.3913636702461432 -1.3789772163733138 -1.3788417154125092 -1.3620284374676086 -1.3585706481090256 -1.3516488541082532 -1.3629734260659527 -1.3893543485385023 -0.82691522507705462 -1.4745668652536197 -1.3207558292407799 -1.1120939804365637 -1.2440774873310823 -1.2999331117871979 -1.3083914628426037 -1.3257166662953892 -1.2303417126504581 -1.2359053290111446 -1.4590259425162755 -0.70166707752868718 -1.1164424282149676 -2.4523463245667334 -1.4409066669129436 -1.3435103264919039 -1.3970516362068826 -1.3479837457457977 -1.3899607196523043 -1.5403786964371922 -1.3083289712553485 -1.357167280272449 -1.3801314769629138 -1.3431926401087095 -1.3169710076379062 -1.31969087955054 -1.3135405456781386 -1.2077911091365081 -1.1228116814009903 -1.0327807077265161 -1.3363557787363161 -1.279746929813496 -1.2294958577994579 -1.2631628981365119 -1.4823214814219594 -1.1896703980873349 -1.2134279079768051 -1.2900305847927469 -1.2886154651066879 -1.2847236899858789 -1.2214905564219412 -1.3687195407385728 -1.4502278181539665 -1.2134279079768051 -1.3455037331164332 -1.3136228974602748 -1.3022388867861154 -1.2990720818917549 -1.3358412193598412 -1.2965337477936962 -1.3455037331164332 -1.3128940109317042 -1.3028049193395741 -1.3347378922073463 -1.3154840010215052 -1.2883985803749114 -1.2138315037747436 -1.3507826582463975 -1.2447787959433272 -1.3168753559899733 -1.10243707334138 -1.3430578070980341 -1.2211299688764101 -1.3123237881758507 -1.2356807773505243 -1.3159193895401162 -1.3182702920070408 -1.3465998559057655 -1.3375276605985957 -1.3398413297323579 -1.3183245217057691 -1.3159746243676671 -1.387012011243538 -1.3384286176853284 -1.1663091973089987 -1.3536275056007303 -0.75871482637832699 -1.2621404915876235 -1.3386986053749641 -1.3418096353180518 -1.3519030689210341 -1.2787871620502405 -1.1406083379276553 -1.3657912917638273 -0.70760872600167779 -1.4532649482476387 -1.0069732489527436 -1.3704138607381167 -1.3537404302021161 -1.4205802619748251 -1.3258955340774436 -1.4508264558169661 -1.5392706732103976 -1.329391535796709 -1.3718276655616692 -1.3622828939064042 -1.3957599190402288 -1.315365952491161 -1.3554559811844453 -1.3398818904372842 -1.2005192981181263 -1.1940119896446315 -1.0337157319131998 -1.3719969910925087 -1.3768582891651318 -1.2455077666250376 -1.2950012012344223 -1.4228774865023988 -1.2408828730767587 -1.258692794760756 -1.2356520890920764 -1.2138841500125237 -1.309091111106699 -1.2408828730767587 -1.3664152393193252 -1.4468676455316314 -1.2632318024915608 -1.3672603954947742 -1.3194019048760248 -1.3273846034887129 -1.3219007992442047 -1.366771266664641 -1.3174432848213948 -1.3661501039786987 -1.3162063136930671 -1.3243652462443793 -1.3652527186697905 -1.3326405665787988 -1.278485167065595 -1.2641342018068367 -1.3534125110984103 -1.2890855053303532 -1.3520506149113718 -1.1847965059073495 -1.3661151257087609 -1.2634431176617849 -1.3522128650639336 -1.3939966480034167 -1.3840996892467967 -1.3418212729533292 -1.3668411316995059 -1.3695014828279881 -1.3829940377241166 -1.3442303142085017 -1.3406182261324289 -1.3492084777249507 -1.3628951444250856 -1.2793529145675651 -1.1345118130159626 -1.2900231028527316 -1.2642855125367165 -1.2706885026455796 -1.2842759170128448 -1.1848698363318848 -1.0011558476737428 -1.3816883081486131 -0.74009772986999245 -1.1137360258260918 -0.92238596897173919 -1.4744513557387875 -1.3123272350082418 -1.4102944148773962 -1.3025850733350115 -1.4130610434848034 -1.6408996396865492 -1.2773716096816246 -1.3348991079158719 -1.3803354702942372 -1.3197809587718541 -1.2291575034773246 -1.2555459589153104 -1.2640386679774147 -1.135322999087663 -1.0407235052854149 -0.93137298714563332 -1.3156122124950513 -1.3127334492998142 -1.1879875040451446 -1.2105574086773292 -1.5133132771012809 -1.140183857891826 -1.2155088778529775 -1.2714816598683507 -1.1952834608247338 -1.2421664456586103 -1.1408906315730172 -1.3689396716978142 -1.4687678218660545 -1.2170584114416529 -1.2923259576005484 -1.2910372031124244 -1.263881917459021 -1.2495739877853704 -1.3653079964242456 -1.2383115992664562 -1.2916455181604662 -1.3622150301811851 -1.260212049778807 -1.3053206447429051 -1.2897284765031913 -1.2061142858562643 -1.272857497113087 -1.2967481109423258 -1.2539214458344712 -1.2927369523811403 -1.1147380534300797 -1.3189673331241212 -1.2080167998314051 -1.3171707620625397 -1.2029925549629794 -1.2853787469834346 -1.2785027756324057 -1.3167288194594013 -1.3058685620056905 -1.2945236232021333 -1.2825894889862539 -1.2883060226361964 -1.2913166294761844 -1.3105009384254889 -1.0476460812719777 -1.4789037488206049 -1.4076256625416661 -1.4561833662027821 -1.4080755958178166 -1.4768940836418338 -1.4520744428499752 -1.259789626533987 -1.0872098948211266 -1.361518266512094 -0.86290946684826686 -1.1920496505434073 -1.3835883599967487 -1.3025460474158623 -1.2744629116410953 -1.311284108602994 -1.3218938870016808 -1.5099866664601713 -1.323086963090865 -1.3420165245720854 -1.37349386461759 -1.3156294969728763 -1.3656288998461468 -1.4296103532026594 -1.1303543227233197 -1.5038277925915804 -1.3044861508374612 -1.3570071680371103 -1.453392789239861 -1.4320223375194412 -1.3790534911715582 -1.2744972731923507 -1.3600347631280245 -1.3449345523247107 -1.2310482268338021 -1.2235800595422086 -1.4117060594208399 -1.2461861500775762 -1.3191090931476914 -1.2744972731923507 -1.1875300568436 -1.4044456546101445 -1.4373081298322412 -1.3862913901110601 -1.3727044930170993 -1.3752280071912459 -1.2692817143962738 -1.4045625059164344 -1.4292651227083879 -1.3624490010171526 -1.3715849482967797 -1.3269688890559013 -1.4935609852235174 -1.1088443556653691 -1.4421097136637799 -1.1733153032168517 -1.4151422927981268 -1.1889736697464004 -1.374859871698614 -1.1088443556653687 -1.3664427205730736 -1.1010509244724611 -1.4562134312672506 -1.4202564378223816 -1.4226400811337241 -1.4262121244348842 -1.4127716334705562 -1.3556319495535409 -1.4197716481381015 -1.4226524642379152 -1.3678684702811217 -0.82226764333686142 -0.94908672055118959 -1.0042872921663868 -0.97660458242469717 -0.82515237281213183 -0.69747519145052816 -0.96714243455940641 -0.90084987330393773 -1.4113207316164622 -1.5372593141087552 -1.2846932814164647 -1.0797716526025407 -1.3868034460030434 -1.0620090691598234 -1.4481439312267583 -1.5262139541737516 -1.063499262178633 -1.204184942386147 -1.3571252777124028 -1.2882131220769046 -0.80642269101940867 -0.88728394032039049 -0.93176910235848831 -0.80416865213037969 -0.63612167429701583 -0.53277096529201384 -1.1567268347327089 -1.0039154881350592 -0.86600025627684762 -0.86784932434407647 -1.505305583884269 -0.88736712870613565 -0.90685913835604726 -1.2424900068831028 -0.81231465784006074 -0.83216190624655995 -0.72860674140904003 -0.89161237800467519 -1.5198715739788005 -0.94708557062874654 -0.96168626818635583 -1.0152824902824085 -0.95419148993050296 -0.91844893562168439 -0.99857269464731702 -0.98871609635319435 -0.96062924863731336 -0.99468499795211784 -0.99191624852131988 -0.99874511656151632 -0.87254733680990704 -0.90055768350373666 -0.89797262932469335 -1.087089423106838 -0.78058389262353389 -1.0230698972790817 -0.94034049522832908 -1.125806578224652 -0.89797262932469324 -1.0206185752419825 -0.7795893643416395 -1.0259148358064765 -0.99602034570178932 -1.1119066191930558 -1.0564620546097769 -1.0998632800760582 -1.0269448329189712 -1.2314606222329534 -1.0543007011582237 -1.0971218471320365 -1.1264846152865688 -1.2043061514560216 -1.018055043016445 -1.785142743400755 -1.0924890451368925 -1.0700740502290007 -0.83489230624353383 -1.3940941390269468 -0.75086911590050975 -0.92094563978809174 -1.2921302570639539 -1.0161393408397437 -1.2765948918406111 -1.1856708537554979 -1.2832347138885063 -0.66117491739346945 -0.95315383589082203 -1.1327947291849214 -1.3583192114356089 -1.0708684369306531 -1.4446263412933713 -1.6228676206383241 -1.4930616627338782 -1.6687309255463012 -2.5682726338868123 -1.5296902673074813 -1.3976182684384588 -0.46622702425378948 -1.5598005952783858 -1.1660588490693591 -0.41159873042885159 -1.0669042542054539 -0.88096353861351706 -0.68544796374910655 -1.5841887128258527 -1.0840543028981557 -1.2779105691262538 -1.1170746959401539 -1.0408638669233141 -1.2805240763801109 -1.1014575526212749 -1.953348712818086 -0.75681575054188244 -1.8154925889111571 -1.4606385209790682 -1.3432226426955285 -1.3450535412131404 -1.6612191016170508 -2.0282710773985371 -0.78828051350225958 -1.1592893545596099 -1.3133472545113627 -1.1607137710280762 -0.91622395957710157 -1.4322616728629038 -1.7012322810797065 -0.69669787398866967 -1.3020224161409792 -2.132532951087164 -1.4473372684077215 -0.92646616774217228 -1.1923440302649793 -0.60803791505453397 -0.97045943123308454 -0.77798185010963705 -2.082690129528332 -0.96208261939710593 -1.1001774811020726 -1.2388886965306378 -1.0826077774687108 -1.3788597605820281 -0.39543934096634087 -1.0086029875079656 -1.224385898811738 -1.041563424086787 -1.3655935386898237 -0.7178088508594419 -1.0949029026346682 -1.2448005424750117 -1.2731423259250669 -1.354922236843541 -1.2940187441331343 -1.2904876667592065 -1.0546545703523573 -1.2961370965849408 -1.3471434942854565 -1.3748571204924507 -1.3941697767174535 -1.3917448746221259 -1.1299452540553587 -1.5248497976938127 -1.6492200774361157 -1.1025764781004121 -1.4744203426764626 -1.4392300781159684 -1.3324230949160634 -1.6037306948918475 -1.3172147368287381 -1.1536928429504765 -1.4762714263096253 -1.1771912204499102 -1.3984265612003228 -1.5655416371131108 -1.221051502041838 -1.1612898574549457 -1.1998059030106387 -1.7342467372031072 -1.1582774055753136 -1.2541277490412166 -1.1684700662003094 -1.17590483285436 -1.5638325360924605 -1.2831494129836456 -1.2487684587140158 -1.2659777473967533 -1.1499114732347038 -1.4949794770711342 -1.2580524902108405 -0.98267855934312198 -1.2426214525062558 -1.2652901392116433 -1.2695533015531162 -1.565967481675633 -1.6357719339664891 -1.3052253530540743 -1.2431955768645886 -1.6844155928813171 -1.255407222080688 -0.96996637143253261 -0.99644210949794887 -1.246445501407196 -1.18429846123502 -1.1439439315617899 -1.3140411005223775 -1.2207790728044574 -1.030469159549843 -1.2298032842281161 -1.4188911563145312 -0.3723334615405352 -1.2567019044326193 -1.235823178859119 -1.0708418542967018 -1.3494578634609309 -0.82947686255320285 -1.1123861795922441 -1.2954642893835746 -1.2997521506726888 -1.2694943258946239 -1.3170267600113561 -1.3032566952739368 -1.361782548510116 -1.3009650421850942 -1.3873601759022067 -1.3725678728283863 -1.3113550333031914 -1.3175199498371581 -1.2846816802937204 -0.93772892117363504 -1.4518121403951545 -1.0775506539866011 -1.3842697741409444 -1.4071827209677168 -1.4282011416061164 -1.405578923924335 -1.2369689561137813 -1.1489873835843072 -1.0096679655066363 -1.2608415969662869 -1.0494537688022976 -1.1030575502507016 -0.99038970406514604 -1.2312304849304789 -1.3441958537451602 -1.0096671616595534 -1.7266748701012311 -1.3292589897001961 -1.3475257467476864 -1.3109255813445364 -1.3118659944597773 -1.1120592399892115 -1.6783289483687216 -1.4029579126705698 -1.3493268059882546 -1.3092852913696935 -1.2037619829406874 -1.4434522360384721 -0.90174088663021623 -1.4100207056432705 -1.168714975100803 -1.3863835563011859 -1.0295125205015225 -1.2463364827920982 -1.0997566888230705 -1.3827909662650917 -0.85791273554929148 -1.4845762873209538 -1.4867449383852005 -1.3698673936963466 -1.5544070960788732 -1.1378164295806625 -1.2813775812025856 -1.3717968705368502 -1.3196507743438677 -1.3512398557645311 -1.7061803751937203 -0.86471228808911416 -1.227257839618735 -1.0237779154191315 -1.3695411540452216 -0.82434879576355369 -0.98389883896497043 -1.3507201180223438 -1.232870225428423 -1.1454286382509442 -1.2523657995457644 -1.3125409800458898 -1.2759728535411798 -1.2772281772719385 -1.3444245952333496 -1.3700802967488575 -1.215236844952992 -1.1444082861425728 -1.0464726424640509 -1.0136773715344198 -1.5647412516630816 -0.56525465040555967 -1.4945437650266493 -1.5929389261359799 -1.0035790774370505 -1.1698901074473815 -1.2115214823235876 -0.87486391668318786 -0.91473690545185815 -1.0431377004375226 -1.3292946968754302 -1.2257393776500669 -0.8788893177397602 -1.3500509636878015 -1.2262613555800428 -0.97194621597065511 -1.1805727271673359 -1.2791275824155079 -1.079165961109724 -1.4531858080518105 -1.5469573160129351 -0.93965313083018698 -1.0505661316787032 -1.3020412502669294 -1.0222518570504777 -1.5469573160129351 -1.0605127888765042 -1.2529368353770762 -1.0109116791980484 -1.2868522526815884 -0.84769498160481083 -1.4557380582468979 -1.2184497961574323 -1.1576589716259973 -1.0565020675447949 -1.759611817743628 -0.93125122994336162 -1.2440888914454564 -1.3444270658515973 -1.1702625818081391 -1.2051862607789261 -0.96624083128737515 -1.6488710580914299 -1.0672819101411133 -1.3659243937500041 -1.5936682852258051 -1.2740481645754191 -1.0966916292189086 -0.82418470091835117 -1.2803595985624525 -0.66607695081773222 -1.0600028410025835 -1.4997947363264788 -1.128189040352604 -1.3613374981178983 -1.2519929363444353 -1.2251913266058034 -1.1384416603093628 -1.1875928907385955 -1.248122938148635 -1.3688145865958188 -1.222653675338347 -1.309085651778058 -1.2226623714844997 -1.2101443544391459 -1.5495935518174118 -1.1576695029576758 -1.7210528834273573 -1.5554408948339042 -1.6581461982721954 -1.4585706754395096 -1.1107679243120334 -0.95059029166340248 -0.98449581326621927 -1.1119612891166875 -1.5805275289550116 -1.1775242942695781 -1.0233212116929173 -1.0892755841517825 -1.1107667154111835 -1.118240944277018 -2.445224049236574 -1.3609899989718721 -1.4200870055595729 -1.5511127024017359 -2.1464833070135403 -1.082825335946132 -2.2858143185817532 -1.3611483271509195 -1.4125857920372034 -1.6052168647559804 -1.0652315397614613 -1.3290903982790072 -1.0486474452185 -1.2794319088294703 -0.93251601827414576 -1.8341256047643129 -1.430710960308077 -1.1070435376979395 -0.98197338760411434 -1.5893022233692358 -0.92858269538712823 -1.3404291716794774 -1.4151158782470226 -1.0267289071141312 -1.2567747122919417 -0.84679300217627762 -1.5932524968729735 -1.2114904801151343 -1.4874882212658695 -1.2086749260785212 -0.88578310414963168 -0.49414957776216845 -1.0842056454767164 -0.53308206592086027 -1.2641256300628561 -0.95916197630279354 -0.99485634236722709 -1.210875904115581 -1.2801711479853171 -1.1974799000457155 -0.78193596196414117 -1.0319809103595501 -1.2885369834633909 -1.3782123134832267 -1.2955645608005042 0.19340176818406593 -1.2174670125697908 -1.5237860098347897 -1.432924179897118 -1.7203408545055836 -1.4433387198296501 -1.0499172200735429 -0.50715430019850705 -1.4141643662824577 -1.1207102222356331 -1.9881086563835269 -1.279862882152963 -1.2533690746141899 -1.6814030522432459 -1.2664273559211146 -1.9877145336201225 -1.6823837700829845 -1.1207102222356329 -1.3481942316155542 -1.2574522378575728 -0.7387758324076048 -1.3055900454126455 -1.7240128792999216 -1.5497279981832135 -1.7806998673512837 -0.39697556464169409 -1.0651938684771221 -1.6501871842114495 -1.5326399694993924 -1.2276707430983378 -1.2437790904130606 -0.91604208105585716 -1.0095744683967043 -0.83506341130849515 -1.4211576773345285 -0.8801036870960407 -0.8012642830593778 -1.2136918623415198 -1.4797774874336529 -1.0968581581785879 -0.97573476444418361 -1.4903267390251516 -0.68435727204173746 -0.80773166368227201 -0.76529886485369158 -1.2127098451235521 -0.98617569557915208 -1.3016344037694607 -1.1245076199622248 -1.1702402639144645 -1.4382395637532479 -1.322922574633367 -1.4654266727521339 -1.2498331933104614 -1.420429112294475 -1.1473486917963496 -1.4473651263749456 -1.5843802281669841 -1.2138412489365664 -1.3167160241599771 -1.2796136537822831 -1.310104667881915 -1.0963257197192693 -1.2206027025823725 -1.17896182058594 -1.073095689099574 -0.89794194110812242 -0.65173430395188447 -1.2461095623186986 -1.1931562655634695 -1.0161789502516372 -1.1371529821825115 -1.5531061626436478 -0.99004689544395519 -1.1178208856780749 -1.0553382232830448 -0.83799864865705154 -1.1228844769566728 -0.98946040739457664 -1.1823851459353238 -1.6137083326207322 -1.1170049096496613 -1.2689260450433251 -1.1559225921771181 -1.1783584045790292 -1.1385574914282532 -1.2456731004982842 -1.0245190809494891 -1.2534909219695232 -1.1655521099327681 -1.1783584045790294 -1.2618741664425044 -1.1803431886386351 -1.12764366176729 -1.0594427701758842 -1.262505363632638 -0.98717956792767447 -1.2472320131946715 -0.95228118481084645 -1.2859418456747087 -1.0610678675917573 -1.2472320131946715 -1.0365622696474548 -1.2317917836111163 -1.2169066105980706 -1.2914102336353466 -1.2656964121380705 -1.2557142503302841 -1.2168217194458466 -1.2512119391177519 -1.2365316155907413 -1.2735700589827299 -0.97309906552199699 -0.47104073506821681 -1.3232231241119361 -1.2067650011922471 -1.4453835489578981 -1.1814512201658958 -1.3815329618803378 -1.496226434558837 -1.1374881509249417 -1.2214337070511132 -1.4080532301789173 -1.3301200481115978 -1.1323981051377165 -0.85975498674917572 -0.99393645712777812 -1.151271791888588 -0.49489689942610426 -0.63955067753532935 -1.0221844684274144 -1.017563492303005 -0.97556173502679711 -0.95625855387790992 -1.4104512951359109 -0.92482846444475564 -1.155331175585594 -1.4457522998668799 -1.2399280856291142 -0.92481850173295821 -0.94400605721540487 -1.0541657365696171 -1.4134399826324588 -1.0607303197514386 -0.99990510804325261 -1.0376816805428719 -1.0248648320340392 -0.98380951428659047 -1.0799689784838251 -1.5505300129232733 -0.9931876563957337 -1.0411166785890837 -1.0184064702141904 -1.076518974884328 -1.196087281784336 -0.96517671402258443 -1.1190627209777928 -1.1252410130222088 -1.1510994632048999 -1.1749301074337857 -1.0869846156129397 -1.1534379530977608 -1.1235478294020997 -1.1130390053699313 -1.0521335982335016 -1.053343872518975 -1.0181601797164264 -1.143715099833845 -1.0982959038513569 -1.1204502670376972 -1.0685376618757685 -1.1142041799605125 -1.1436762794302069 -1.1932690287639731 0.34235695947902911 -1.4512116651115234 -1.3712138674633854 -1.4460205297933146 -1.3701274976486302 -1.3651931818880163 -1.4399490374773587 -1.3406072272813345 -1.380352970330915 -1.3782534867144938 -1.3601404576185507 -1.3389796357475736 -1.3676501740035709 -1.3469073222984571 -1.2273547962587641 -1.1144984062575209 -1.0089676041278557 -1.3867376267006972 -1.3664854584750699 -1.25468020913608 -1.2822084788706729 -1.4517939707058392 -1.2399290302974295 -1.2687326969210153 -1.316428651190124 -1.3209500124269731 -1.3344228297531249 -1.2396443844055101 -1.391963587987098 -1.4415253729049744 -1.2768388896599014 -1.3827576218037567 -1.4357902492432053 -1.3329321628519037 -1.3342155721759339 -1.3834514319494096 -1.3297674749937325 -1.3835540412940406 -1.3376522538276956 -1.3817520859402106 -1.3832740581600487 -1.3621100700039144 -1.2661647934218194 -1.37774538447314 -1.3663112769717769 -1.2959787458178513 -1.3977041352315422 -1.1579402930277296 -1.3791207669733265 -1.2757479272716241 -1.364691924925699 -1.2881470378694246 -1.4022839988546323 -1.3602678600853477 -1.3819611699954477 -1.378557219386751 -1.3828023559720191 -1.3591419811931857 -1.3498677258337943 -1.3766079733577214 -1.3862123889760571 -1.1554067522681468 -0.9817842318080624 -1.3812874275816827 -1.2488098903011562 -1.5215147437933758 -1.5623036574223597 -1.1087351783696495 -1.1309853281059845 -1.3647287973304194 -1.3212252480091016 -1.0965982413002404 -0.76507109521244931 -0.83046718825970745 -1.0810744107079624 -0.55021927676505644 -0.65252588091085273 -0.81536628573223402 -0.87686409350450756 -0.81125830505110463 -0.88001224687041935 -1.578308613257563 -0.95561627977059527 -0.78347588923290834 -1.4203841314449543 -0.93130228725333153 -0.95401589264184894 -0.75042306919448931 -0.79435252420083746 -1.4733033124524961 -0.97561576955241247 -0.99937397409051543 -0.95538497749077911 -0.89789849369374108 -1.0475978780980715 -1.0600943149620108 -0.97799130635587939 -0.8206168030005796 -0.95538497749077911 -0.87500878148746053 -0.83346005476235896 -0.95801179524551139 -0.91869345339232689 -0.8401967894210125 -0.94487066471931158 -0.90034588160671147 -0.85427638731777666 -0.68734438489424365 -0.99669623218914571 -0.89261510939103361 -0.85427638731777678 -0.75351742175408598 -0.90633367860813274 -0.85574674522049898 -0.98545241172657827 -0.91601641283330471 -0.98706623848079911 -0.86604000502282508 -0.94348732854776141 -1.1114727327138378 -0.94406760808490964 -1.0504485579515737 -1.4186464165042263 -1.2879585270781424 -1.2102685758348797 -0.80130734827740657 -1.0251324824562735 -1.2910030734972762 -1.4012456641782749 -1.3841661884896246 -1.6007225844914057 -1.2991163355207782 -0.93903021250015295 -1.4562972917327388 -1.3177562243393055 -1.1029948271693719 -1.0521241200083884 -0.97450400781102342 -0.80492189674233561 -1.2717749112352104 -1.4011211050942962 -1.6517614200149444 -1.0984886250021226 -1.7048969547178161 -1.0865123475549965 -1.227216958212866 -1.3300404828149859 -1.4931193956676756 -1.350960230389739 -1.0984919582934871 -1.0662345734418355 -0.97918254828225126 -1.0028813927433713 -1.0900538757797442 -1.1283085629134608 -1.4730988766422952 -1.0662345734418355 -0.8948210905658982 -0.96441970916194097 -1.1243629685497736 -1.7151293719038971 -1.0599695541172875 -1.4376177481547776 -1.1105119274981075 -1.5157819342033789 -1.125052681371461 -1.3925851085363772 -1.253393747662169 -1.4946579365562196 -1.1313133880675961 -1.3282966960999836 -1.1040146734702452 -1.009210586605235 -1.1632540920629024 -1.0510167206544776 -1.1119137022570111 -1.0107716061655549 -1.1095567272293203 -1.118056650114553 -1.1383814962548426 -1.265805123008851 -1.104335939421089 -1.2326929473450119 -1.2799838310150784 -1.1494187239168263 -1.2303500314154532 -1.3093085419228672 -1.3702081272640088 -1.288284145456414 -1.3493142898001758 -1.2313540486562315 -1.2430555444370153 -1.5807765235529478 -1.1672947387051433 -1.3705010319553457 -1.4223238468168662 -2.7106896565266285 -0.65347341409909998 -1.1934918298681718 -0.74510827630483634 -1.2836581349561884 -0.99974431511145156 -1.4645049375487789 -1.295983120701625 -0.73787895262531744 -1.3692115789186339 -1.1934918298681718 -1.1903089630567931 -1.5052611257205506 -0.77591579920238496 -1.0342480915198959 -1.5474916726064636 -1.5221048669733863 -1.2875893744653122 -1.5672672937332903 -0.63372070563392757 -1.6316569747006566 -1.4222566759885686 -1.132600443851606 -1.2747561566752768 -1.1115833016657404 -1.2800866605180616 -0.96103341917877816 -1.4511044067658525 -1.2098883125489777 -1.1027065749361094 -1.1143246517447991 -1.3976633058380805 -1.0934754833064984 -1.4196844013809895 -1.6233375781212587 -1.1693216918707059 -1.4726564640819702 -1.1456642842318057 -1.5263895027908436 -1.2047353931650857 -1.5703098074331974 -1.3900443274407279 -1.2013691590745528 -1.7690103860078503 -1.1866268650079737 -1.2177012012052191 -1.3349132817331573 -1.4639341559752563 -1.359403440012249 -1.2958681008161808 -1.3136294120123548 -1.2494729848230977 -1.0546625742227123 -0.96538971488405867 -0.6278023627790642 -1.2638429500881661 -1.28541563232401 -0.93780341161872161 -1.0787454256700506 -1.4101380771549517 -1.1021424467241219 -1.1985629706360508 -1.6661685277403331 -0.59715196790208069 -1.2160468177001948 -1.1930764762808501 -1.147168695636712 -1.3648526800185408 -1.2289900116337129 -1.2984815007885158 -1.1393644673642211 -1.1778134953655943 -1.1511206408109984 -1.2941793612971062 -1.1236206077533368 -1.2984815007885155 -1.1394751495908875 -1.177814067060359 -1.2939009352153985 -1.1328505031436222 -1.1297250297034682 -1.1058688577076168 -1.2761278661820583 -1.2225596005281552 -1.285547910872795 -1.230691202333605 -1.3085297761431958 -1.1332839722616554 -1.3377316347862585 -1.050971334735032 -1.2485194871962468 -1.2913018065968447 -1.3166882136148377 -1.2906970754465363 -1.2584329039592164 -1.2243748180844116 -1.2663703158757118 -1.2568677903213272 -1.2930841966941089 -0.99097646373845849 -1.0835367014349278 -1.1113809817617255 -1.2528607718472802 -0.96491560730648596 -1.3464671048505268 -1.4973136468865045 -1.447829437575328 -1.2243140870335536 -1.6197914803306408 -1.4203065880045858 -1.2375711980759685 -1.2131136096346473 -1.3454180949742003 -1.1665776054359349 -1.7348624956314791 -1.2380645134153463 -1.3243763817174035 -1.2568323839776825 -1.2464828520599369 -1.4006848769681857 -1.6392778528920184 -1.3243763817174035 -1.6234303697069319 -1.2380645134153472 -1.3729462081078063 -1.2841861837548332 -1.3226042922059773 -1.2348375374117013 -1.3903867129003775 -1.3075004479278212 -1.5253584008661547 -1.2383778319151444 -1.3720354593073569 -1.1903194929723011 -1.3023224631228016 -1.2955871315802374 -1.2001250085399755 -1.2878370303069311 -1.2048012352233852 -1.3377822804068977 -1.2243340166503027 -1.2630288263162734 -1.226477492251832 -1.2878370303069295 -1.2278062701459824 -1.4028223011256451 -1.1327581014010495 -1.2174436097840002 -1.2093162891496037 -1.2037724722410992 -1.1339969818882647 -1.2355363932510244 -1.2703549735626323 -1.1776875541531802 -1.2352018354031264 -1.2062733189988981 -1.2204348044056299 -1.3241983925941505 -1.0007104534332218 -1.2796304825930482 -1.3082269101944224 -1.3394732340088826 -1.2755768014559656 -1.185959496940195 -1.2391081101189234 -1.1000684913324765 -1.3090940094350514 -1.2385220937375305 -1.0475678106776698 -1.1880274459327511 -1.5519790753339235 -1.2952261106134717 -1.3001236014497095 -1.3066867809676574 -0.83766056649570597 -1.2930620971820914 -1.3007915041363649 -1.2581937270815842 -1.5347690823894606 -1.2882171111020708 -1.326081163054478 -1.1765288605357507 -1.2723795575503438 -1.2601739999095107 -1.2933749283619211 -1.2153571895405726 -1.3325669182583868 -1.1795252769369544 -1.257760716577156 -1.2967785286751226 -1.3614888722017611 -1.2470014690405211 -1.2959864039369222 -1.2726196826551095 -1.3046110667456507 -1.3034954623306509 -1.3078561340208972 -1.3131142488886471 -1.2402004853490631 -1.3066483588686493 -1.259017272543163 -1.2979595228465628 -1.2593385717712164 -1.3120578863830308 -1.2961598455471932 -1.264656312959745 -1.2730813906772998 -1.2755049372259533 -1.2859271644643604 -1.3276900478611424 -1.2649979106675637 -1.4284130546540432 -1.0663459624139249 -1.3620197558239626 -1.2370937806327325 -1.3033896380848677 -1.3357766260662549 -1.1602990609979495 -1.1699154731737731 -1.0954178593859982 -1.3016029622214975 -1.2559393256685096 -1.1279340317493365 -1.1772005203140734 -1.1068484050917713 -1.3429552990649489 -1.2798173445003349 -0.99837461135925232 -0.93995723126811059 -1.2335082279373479 -1.2499815162283592 -1.2880895973609761 -1.0986256351600647 -1.1844488007768592 -1.3094070249810323 -1.2268192475449846 -1.2589925878796944 -1.2516584853536423 -1.3006239301328704 -1.1197630261705012 -1.4197069509725735 -1.2268192475449846 -1.2561399486809943 -1.3010887957786559 -1.1953252576650804 -1.2382421049663279 -1.1962802429415083 -1.3035031151848178 -1.2634502704008703 -1.3164663457766592 -1.153699345180105 -1.329347561931123 -1.2149368091728689 -1.3027913180181785 -1.179931288972492 -1.2939208054808624 -1.3802235731702399 -1.3316993511986619 -1.3126550957358882 -1.3029438843170835 -1.2783596840558564 -1.2994263825315935 -1.2993920305878335 -1.3231590896146765 -1.4144601967422743 -1.2307889261323237 -1.3670806342673378 -1.2326047317339679 -1.2158008646865308 -0.81267196787950802 -0.73754056070594154 -0.9481589620312203 -0.63667818451483782 -1.2726337483195427 -1.3740754647383322 -1.5916156079130186 -1.0278783428069209 -1.2000604872595975 -0.62579571493648045 -1.0684077134998859 -1.0445394096715623 -0.80209843635677636 -0.89171729853667903 -0.76771779128401141 -1.1745349938382206 -1.1999620625562106 -0.97340277886242077 -1.0955641458538341 -1.4687062971778291 -1.0476657121251458 -0.74635282387194835 -1.1717806283084506 -1.0110956653750629 -1.0757425457904215 -1.4318911155618379 -1.0533640440608987 -1.1635555947481164 -1.0939834172166072 -1.6818656802345506 -0.92089304188758991 -1.2907150453674194 -1.0924225800330851 -1.0988188188487906 -1.043066206532232 -1.3011059432305616 -0.92089304188758991 -1.0988188188487897 -0.87776899091162786 -1.3894173140847577 -0.80997638108836978 -0.43285554606449683 -1.3071726904324334 -0.32052767665232135 -1.0473661654408157 -0.67199382319385859 -1.3299941614956137 -1.6352771838582028 -1.3520269116314518 -1.3833847443781295 -1.3493551306077041 -1.3932652122678031 -1.2068590010891089 -1.0185844715856736 -1.0511557371454845 -0.98367917607460409 -1.3907530791841214 -1.1634731066444344 -1.0579792719622105 -1.1595142967512098 -1.3687859089844789 -1.0150311489408554 -1.2227068107999339 -1.2396264415381046 -1.1705263518639906 -1.2541986047016171 -1.018341653591869 -1.3849080512944494 -1.3111673389539706 -1.2276715492595085 -1.3608535125816761 -1.1002286754626296 -1.2707657346893491 -1.2396518032102513 -1.3675129410036486 -1.2377951363637116 -1.3598666459921149 -0.89384144526255538 -1.265297680495886 -1.3542396548156246 -1.3738193269216141 -1.1193226038395836 -1.1826804108807414 -1.3388267061291912 -1.221463679722937 -1.2970317737382036 -1.1715188622920962 -1.3649725801273658 -1.1937399267432478 -1.2970317737382018 -1.1417947288200663 -1.2141867888396844 -1.2916956111316786 -1.3327345058713902 -1.3409187214698555 -1.2507832402707959 -1.268676761223785 -1.1304731789035414 -1.3689751687957039 -1.3579129920511865 -1.3475531834002186 -1.4139586096784171 -1.3922718883524128 -1.2268076726460659 -1.2711265524353972 -1.2050011931107689 -0.94621556020402253 -1.3416150957465454 -1.2631910374661945 -0.95751243195868185 -1.1157510015746095 -1.4488629228138523 -1.3148557289445704 -1.2960722758899272 -1.7557252021284302 -0.59336724454847634 -1.3069811653164032 -1.3198584262782784 -1.2897004327342463 -1.5607405636615106 -1.3053756834430124 -1.3470281427537132 -1.1970293810824595 -1.2222917004232283 -1.2159463550417204 -1.3503657238618474 -1.2884649974259934 -1.4228402687277311 -1.0798697154780135 -1.2161657025470261 -1.354985057882544 -1.4150141735500441 -1.2367519380654375 -1.3540632737427054 -1.3750228183901492 -1.3266935195628722 -1.3532486710079741 -1.4345031240674704 -1.3421964136973481 -1.3188324552831423 -1.3548293148504083 -1.2748910792697072 -1.289902482619955 -1.2774739120809091 -1.3731952095445872 -1.3258208850205568 -1.2990194961522439 -1.2948263481023692 -1.367477741097876 -1.2971544508247643 -1.330487599957076 -1.4014783746748849 -1.3706752745539175 -1.3746616574968773 -1.3751015974340175 -1.3355294537409212 -1.3203845172433466 -1.3717495785250517 -1.3657360484938232 -1.3935178812281006 -1.3600900204080604 -1.3531638235656744 -1.3390587674641945 -1.3588882439624599 -1.3296449257483247 -1.3183522756904418 -1.3620488657733894 -1.3382622383458216 -1.3637958393644507 -1.3541324869714106 -1.3588882439624599 -1.3741974785338631 -1.3977374856392193 -1.3749781396191618 -1.3835701365057052 -1.3863229252327618 -1.3514306545438834 -1.384445457597459 -1.3529337213359454 -1.3632993350718747 -1.3863229252327618 -1.3913621538027172 -1.3614433815927005 -1.371306009997026 -1.3746011525138966 -1.3573256038744461 -1.3756228124937946 -1.3558571605945209 -1.3792811394278572 -1.354618252062264 -1.4083730150328952 -1.4001358563075794 -1.3692093991143615 -1.3684247565823868 -1.4055388133793727 -1.3769180087790174 -1.3728613571466812 -1.3712371716840657 -1.3893522396118891 -1.3697976364425981 -1.3778909900912408 -1.3860947390433285 -1.1847480411394213 -1.3899247767177125 -0.88313654925022611 -1.0923052727763589 -1.2464578842753875 -1.247831615901015 -1.1265583802967805 -1.261960791348717 -1.3102274860653358 -1.3880348404888252 -1.2785754076948312 -1.497955851892834 -1.2870765588359694 -1.2045823173880794 -1.3880348404888252 -1.3269611070233123 -1.3230523518926305 -1.2897877479942423 -1.2766101121294666 -1.1019595538227516 -1.1584557300617775 -1.1584606796767563 -1.4390923520183065 -1.515729118776608 -1.266644634805836 -1.1008525512406289 -1.150489103106231 -1.3930303115256528 -1.5038793437683402 -1.1966944886067554 -1.4288480213706884 -1.3288183720594602 -1.4846147623773942 -1.3509800687841786 -1.4214219879412933 -1.3468401958004643 -1.4875527522121752 -1.3470807980607542 -1.4018516729423949 -1.2507276666079732 -1.2546976062849613 -1.3338751343740334 -1.3417887621653464 -1.3385836387364927 -1.3085639578615653 -1.3095782150267714 -1.2743225285608613 -1.3312774253736761 -1.3731871410501093 -1.3444451730455926 -1.2359838894271828 -0.86959622254253999 -1.1586688550265012 -1.3796711207618837 -1.4061388852484369 -1.6470226711450766 -1.3756084749905622 -1.5065815971420529 -1.2124969470194509 -1.1879472009460854 -1.3678117692881437 -1.2620480825593658 -1.5154970662523677 -1.4767897116323621 -1.2438089778821895 -1.2124969470194509 -1.3589879765754691 -1.4763750855822133 -1.154884591561997 -1.3688156777179725 -1.5061839979828919 -1.6260677259587459 -1.3793613432588454 -1.4711968875222112 -1.3314449455616071 -1.4026698652460181 -1.2451777183219315 -1.1507440322585683 -1.5622494228423041 -1.3316269584811782 -1.3153141728282576 -1.3946900624248817 -1.5904713004581355 -1.3736867852697772 -1.4290212321822338 -1.3801993657830736 -1.666692241560636 -1.2368369252595934 -1.2795987839490943 -1.3642293611492764 -1.3732804710288458 -1.2586275413495762 -1.4238339471923294 -1.3389474184409682 -1.2950673050713351 -1.3758676311555811 -1.2662356004156849 -1.4547756379258641 0.13248437173547314 -1.586385630844829 -1.3750634520210947 -0.99254810038426156 -1.2177724757458748 -1.2596223199161276 -0.7911089528145353 -1.233269611097167 -1.1289088174263919 -1.4291746689259519 -1.3829255179687354 -0.8104618080983117 -1.4651533663401757 -1.1421567652939297 -1.2357339896695161 -1.3057119583987609 -1.413773845121292 -1.4078051856451634 -1.4189410900097517 -1.4858631165017242 -1.3710841894025203 -1.9404238522235338 -1.4135818486270335 -1.4549108624458331 -1.4714720413184772 -1.0760122358892976 -1.1236651061107876 -1.0580354838674162 -1.2112233433082285 -0.98896219138099883 -1.2820526362637641 -1.1355270059985669 -0.99934369351524011 -1.0705118897452364 -1.2702663774577436 -1.0553339387987557 -1.0732291837061791 -1.7721858467923859 -1.047697503711525 -0.82440094818925902 -0.9560065517080758 -1.3642723489014221 -1.1547892039759562 -1.2893627357104258 -1.3451958547063501 -0.81327986693617815 -0.93584646027980911 -0.27276613219927137 -0.52505860833178053 -1.2157863728659761 -1.8532353942084743 -1.0873816496240964 -1.5060839785956848 -1.4816123165200044 -1.554428016592883 -1.7715969396853517 -1.5992641199702586 -1.4741524759676967 -1.5490200461064003 -1.0867504359767346 -1.3958471779815986 -1.0088400664106978 -1.2276690874977754 -1.1431714315049826 -1.2888765881928224 -1.8520875991307413 -1.4903354480197253 -1.008708641476133 -1.0516124929493647 -1.2469438180260402 -1.4559908505845647 -1.4812205840139476 -1.1344047898113669 -1.652977385420821 -0.84318894380889842 -1.508185866530839 -1.0364661552985659 -1.7415238055926461 -1.0327641469642121 -1.4695108924711395 -1.1693776682323993 -1.5646458780824146 -0.93382840091411023 -0.85288397389346471 -1.0336461994880264 -0.81695694342176739 -0.81844453171451226 -1.0275465151611758 -0.79208938199299506 -1.1284781127550549 -1.0921400859419805 -0.65352643922531672 -1.1275633537295924 -1.0159269369413226 -1.5485407926878962 -1.4664279436590471 -1.1104048703743612 -1.680529142689321 -1.4212510971642074 -1.4721609610336746 -1.9929610070698716 -1.4837264737210576 -1.3451147972238426 -1.649041720249204 -1.1207103988063414 -1.4112222722424244 -1.677442656558954 -1.4868443158175693 -1.4155004960342241 -1.5118396623531027 -1.6176313792212664 -1.4839228825927173 -1.6240650322242194 -1.5133049618741741 -1.4891350539136452 -1.5904818047611202 -1.3855988415022722 -1.4682248381218259 -1.5483537801320562 -0.98916372053639545 -1.2452509073801394 -1.5235702389589283 -1.6696081079590472 -0.9815537960151679 -1.5006676947831332 -1.6650554205624295 -1.7404963754958109 -1.288749728946367 -1.5455511961421513 -0.9916714980253879 -1.2812768507290222 -0.86507638592807368 -1.3244350437344521 -0.92097823234084264 -1.3525200134228264 -1.2040905294754565 -0.69143343317870865 -1.2313770412839324 -0.78095647838724458 -1.534678569941639 -0.86843194875161878 -0.69892351152366783 -1.1085673127957025 -0.93317250101802096 -1.1265159261500468 -1.2358965202470502 -0.94277438993452845 -0.91775598760619748 -0.98848535996947651 -1.1085726604392518 -0.1878299351297755 -1.0602664738447778 -1.0924620845143838 -1.9560275269661542 -1.4864270718093142 -1.3888247547065304 1.3570352200540226 -1.0425289642091586 -0.81884797409794163 -1.4907265158801251 -0.95455427359746325 -1.2975507134169451 -1.0104737026954216 -0.88624062840252826 -0.78900743121684758 -1.3631121217742872 -0.93566067495292704 -0.7384208029897581 -1.3307251176138244 -1.426918239055375 -0.81401011874939888 -1.1422649354518501 -1.129756643503633 -0.74464422575956279 -0.80859561116725043 -0.7176470206115364 -1.104785443377355 -0.84933477723109196 -1.296430826081824 -1.042275234175255 -1.0893393234355999 -1.4796872577505957 -1.2435991834891647 -1.2324303121035922 -1.4132143905704535 -1.3224238612646764 -1.1013539879738505 -1.7242337371439118 -1.51793716827065 -1.4614934544205371 -1.4539168329146688 -1.2382209474975305 -1.2545818777434741 -1.5929891349041463 -1.3068223658622533 -1.1011305404432514 -1.624238675137857 -1.4544231945737234 -1.2062749614219233 -1.6210314968741633 -1.2885279449864131 -1.170331010230973 -1.475039982880672 -1.1430769092974049 -1.2552581751490541 -1.6601256900144441 -1.3537990519631637 -1.0509152523089849 -1.5744405839790137 -1.5478797028563198 -1.4037669155377646 -1.6256720293214897 -1.5062569350010671 -1.5788329700532302 -1.4202818383342137 -1.4553559688059168 -1.4220100659462624 -1.4511931851037276 -1.2167547616247842 -1.5699448208596782 -1.2664380762917162 -1.5076655381657957 -1.4156898797583759 -1.1922067958346205 -1.3075533375689925 -1.2216856996564149 -0.95747963226004984 -1.0811599317724572 -1.0987592463400813 -1.4207013904132419 -1.41642449139187 -0.95747963226004984 -1.1818492713620108 -1.151619374694157 -1.0811416112332581 -1.5606989324657474 -1.4847950877280991 -1.4819511370555971 -1.3634457042110584 -1.5689115778649485 -1.1230543206092998 -1.5651129294376056 -1.3788395044166957 -1.4239967299097687 -1.4658329907892054 -1.1620971490817638 -1.462090253658382 -1.5646293735864509 -1.4492792150741765 -0.992971799350156 -1.3417113248887254 -1.3742282561233381 -1.30764268734334 -1.4168076643346157 -1.4551140318675027 -1.4558300923561551 -1.3301304284135429 -1.5072919375166358 -1.157069169401975 -1.4506877606239725 -1.0399117027408193 -1.7427936675811311 -1.4165739047237531 -1.4839290580945257 -1.4566818782266475 -0.52635128680032095 -0.94333641473228047 -0.62058874292067057 -1.0683340676495032 -0.75293600455884646 -1.0178739672295523 -1.2041571555808575 -0.78320657905816282 -0.76844449896425238 -0.94333641473228047 -0.95244778804704133 -1.390377380381586 1.503451007442375 -0.88215108653375895 -1.2682745484087483 -1.5670342516485294 -1.3938121914132975 -1.3009688600406319 1.2559895081084971 0.0035914881259711253 -1.531722547622784 -0.7536117911991479 -1.363043040231914 -1.3042769576463931 -1.3591852031736837 -0.82839476145214286 -1.3571746927740911 -1.5926706517897298 -1.0051790776794429 -1.3445690729925697 -1.3738307836982226 -1.257224942927784 -1.4171255328069545 -1.3387336682480531 -1.0266946019430856 -1.53067206802841 -1.0254394448023463 -2.2649360788739452 -0.99511213499330475 -1.4827127276631071 -1.452498297057609 -1.0118834018778018 -1.307299550308668 -1.148479402905527 -0.86972386870809726 -0.74567832170316839 -1.2723473208131486 -1.663394962841513 -0.9521302166732043 -1.0264122175900563 -1.2975500460120217 -1.6625528034624808 -0.8871674475150545 -0.76663082447877373 -1.4626563625230529 -1.535304987817635 -1.3656188509521847 -1.4612979424205601 -0.89238907207314089 -0.807548492001259 -1.4937419770534184 -0.91206800123528531 -1.4989493874939717 -1.5819633407383187 -1.2676479626505588 -1.2958519525015313 -1.423741839560354 -1.8578821541473585 -1.2091588091123886 -1.4901099854719115 -1.4514619819172849 -1.4170987925472525 -1.2100315445703731 -1.327662184826635 -1.1711593356029859 -1.171907319107381 -1.1139175405722244 -1.4761152918768761 -1.2707663510748619 -1.2938212726369938 -1.3155454735719097 -1.1464721105807685 -1.2639005524447098 -1.566320677084921 -0.90586252140171541 -1.1872893013700152 -1.2919683233192429 -1.1642056284637108 1.3862943609145788 -1.1648640629864886 -1.2540082803731223 -1.1420674237512631 -1.1680597743757901 -1.1558083195032087 -1.2489625204003303 -0.9899630227652958 -1.2616531808556852 -1.1420674237512631 -1.1680597743757899 -1.2218188880497647 -1.1889752167858407 -1.1387760695336475 -1.1250127834449897 -1.2414809587408855 -1.2030219002946514 -1.2290767184955009 -1.0546244321462008 -1.2796968663310557 -1.1128607581899117 -1.2290767184955014 -1.0569808783694574 -1.2393773028498893 -1.1956533011750949 -1.29376877226107 -1.357993275281508 -1.2342021365029168 -1.1586048697425879 -1.3213486798638165 -1.3461363767428445 -1.2630793651957692 -1.1542440214128775 -1.5176873154745307 1.066882118447017 -0.97305520155447034 1.3862943609145808 -0.88368337749186965 -1.265085241321767 -0.64792329031175988 -1.1593967299249386 -0.9752797727954754 -0.99047010895407472 -0.80158809643440088 -1.2225621333891319 -1.6412987511857657 -1.0478666930541181 -1.1014498929602849 -0.8067510240006055 -1.2030327694615253 -1.5898266682872089 -0.81851495521598916 -1.1308701154369869 -0.71625827348990201 -0.76136092592770177 -0.93340661142043813 -0.97048545655680618 -0.73650480908112159 -1.3538035238304096 -0.91918413662789711 -0.58589211052325929 -0.93291088262260735 -0.55538519170813516 -0.75309618810968115 -0.63504859906982414 -0.70534458015539037 -0.62773929521490635 -0.69855350828891949 -0.66872045996794049 -0.80265126202400894 -1.1425448372025941 -1.1696912690881998 -2.0638761915236308 -0.90559204731182441 -1.0628256307420716 -1.3728696656450448 1.3862934462004592 -1.0760898620925174 -1.28638231039372 -1.2089920978930631 -1.1744378036225409 -1.2531315138672283 -1.5326662136104834 -1.093736278544956 -1.249739667506137 -1.1891024600709457 -1.2016201116826966 -1.1264789431227129 -0.88945291766576073 -1.2816071373432512 -0.94012154774050405 -1.155902963129966 -0.96635007339607604 -1.0561752821383164 -1.1026316003720233 -1.2854997989696411 -0.9653981846221461 -1.538416363658857 -1.1068631008418788 -1.0263766500229512 -1.2476876679721107 -0.98081309863394228 -1.0298745466271522 -0.83358575885820096 -1.0469960839331698 -1.1429283885092505 -1.0190521055191808 -0.44583916629343423 -1.1465628694538246 -1.5157123410320836 -1.0416013816885368 -1.5653576686179282 -1.1425849512907342 -1.1099063685520223 -0.90722886373895562 -0.89937476778800696 -1.0586620076882296 -1.2724141211035211 -1.2036723870300823 -1.1158314582239763 -1.0245775209699273 -0.89937476778800796 -1.1170432723917991 -1.4581860744445705 -1.0150341654372412 -1.1159973342013028 -1.1556447579149596 -1.3391559327709159 -1.1533400693269364 -1.2358754914884913 -1.1642073934176054 -1.3265113301137523 -1.177389465965178 -1.4267001738711269 -1.1912173397658776 -1.0011590358430444 -1.1804497737954294 -1.079224584083311 -1.1816620826155764 -1.0380582116914909 -1.1364338705793371 -1.082332503685568 -1.1592851142934224 -1.6512496065195097 -0.2995206417312356 -0.13342475291771538 -0.86371228357958918 -1.1698004419658135 -1.2402380595859046 -1.5407253462259312 -1.1641920982080474 -1.9574623097046948 -1.6341760574781456 -1.3726987417876679 -1.2497198721673475 -1.5407441303659866 -1.4083964407405949 -1.5944947297088183 -0.53931413945605278 -0.96996514142112056 -1.5610351285543185 -0.77866559976765248 -0.4919454155806679 -0.54227108240886679 -1.863585487955429 -0.92623370887608192 -1.8085720856382574 -0.52833706428620764 -0.23692447816213125 -0.96732192091921954 -1.0228431045424649 -0.95778721694564217 -0.74265056876377289 -0.89848631304474158 -0.65907913572864463 -0.80119622156695969 -1.0561939600427543 -0.87169814580845806 -1.0030100371784192 -1.77165025505133 -1.199900120620756 -2.2498204102241521 -1.3503465127196876 -1.5864814682371964 -1.2223095383050742 -1.2436363723636943 -1.5254887400896997 -2.038968116586827 -1.3537076510392227 -1.387670173007074 -1.3203452174113162 -1.5480335105875551 -1.1318825172525038 -1.1095346016658161 -1.4710808283826018 -1.0286229517648722 -0.61238184437584053 -1.1331914972543229 -0.689013156239076 -1.1147789994363342 -1.7605752618677752 -1.1253249026228334 -1.4365387809430237 -1.0850695753922006 -1.1301562727985663 -1.1535236321595608 -1.1046008167296455 -1.1921003895525424 -0.89321289824712025 -0.94115545203242301 -1.1580524061327873 -0.97347318769524804 -0.78125206817855319 -1.1398407370793764 -0.88796406850598031 -1.0478666930541181 -0.99786932437674658 -0.99016255739309467 -0.89952500209167419 -1.2527022768219478 -1.6412987511857657 -1.019154299704675 -0.9081240914617662 -1.0756380838768116 -1.2579219199193612 -1.3375648225229364 -0.96045200591453961 -1.1322452144886592 -0.7158996310653627 -0.78279382369611139 -0.86523647686121952 -1.1623687142500216 -0.7458837966147317 2.3071668244520716 -1.0392491611436017 -0.55949431823106976 -0.76766546282968051 -0.55538519170813472 -0.75431959722101483 -0.63574389958398281 -0.73912997571483985 -0.53671074770426563 -0.89542102785893296 -0.68457127009047869 -0.78517055494689181 -1.1555482884072048 -0.9398021971552093 -1.4774844279140935 -1.1708979671771698 -1.158050702622236 -1.248110311683301 -1.3173590639172572 -1.3660764640914302 -1.4621598471863704 -1.139139366757113 -1.142072222563735 -1.381100878576865 -1.2739327374360798 -1.0202066502659566 -1.4504076935221661 -1.2672522031096694 -1.3352897518988038 -1.2151187378393804 -1.4029446781808794 -1.368820288920698 -1.4541349626472353 -1.3329918717769316 -1.912516848451548 -1.3345724768584522 -1.2849964287520725 -1.3944625965298643 -1.3459048517542069 -1.2423791828070889 -1.1104721504190533 -1.2571377989828054 -1.4058289487572502 -1.2834275797622403 -1.2043631508185715 -1.3820920033443549 -1.1420674237512631 -1.2660887131911167 -1.2770758024214033 -1.2200508479828607 -0.9899630227652958 -1.2648953683770263 -1.2433298875835308 -1.1680597743757899 -1.2222814284678667 -1.1853385485806429 -1.2169288793984741 -1.1242635407332136 -1.2470660753452687 -1.2030230336083567 -1.2294400239806516 -1.1480987871199788 -1.3786870629561065 -1.112815089873229 -1.2290767184955014 -1.0776196264580964 -1.2516642992176346 -1.1956533011750949 -1.2855163234797109 -1.2521657886263338 -1.2412202634267118 -1.1586030408197967 -1.2348795446616354 -1.2315172391325038 -1.2630793651957692 -1.0687548236266486 -1.2510842957032653 -1.2093939756068877 -1.1766901263143577 -1.2278228760397512 -1.5022107679515093 -1.0760898620925194 -1.4138470194270267 -1.1425744626441316 -1.2016201116826966 -1.1265131225489011 -0.88939286867605161 -1.2816071373432503 -0.95066998163840633 -1.1831047869761477 -0.935841508199591 -1.0561752821383164 -1.1005515390843239 -1.326341768770833 -0.935841508199591 -1.4351393186126487 -1.0837742782357702 -0.99884759984788529 -1.1417422562657287 -0.98081309863394006 -1.0212564594291975 -0.83358596234824878 -0.9503361105978082 -1.2231469839298075 -1.0250781816298924 -1.5333216477757616 -1.4922683598851998 -1.6469054478582852 -1.5193768650438744 -1.3050530684709238 1.3862965879991642 -1.5692726749098467 -1.5038425089612513 -1.5850815437994283 -1.186374146763806 -1.8279891581855137 -0.96219967587827737 -1.3242319528969098 -0.89487831457019107 -1.2517003197352845 -1.0860948208071759 -1.3338786423238287 -0.96960442393695279 -1.3472045685556464 -0.843209491407233 -1.4106583068283223 -1.6276155452267151 -1.4058985544700058 -1.3714638949160145 -1.1137606852196489 -1.4525275562042581 -1.2275011960127096 -1.5040157746168108 -1.3035540300224164 