svm_type c_svc
kernel_type rbf
gamma 0.03125
nr_class 2
total_sv 204
rho 3.4791554783977552
label 0 1
probA -1.5885836103751216
probB 0.13017974325942652
nr_sv 107 97
SV
19.075172743642103 1:-0.452253 2:-0.622683 3:-0.549924 4:-0.654439 5:-0.625064 6:-0.552469 7:-0.509292 8:-0.449247 9:-0.316372 10:-0.180738 11:-0.268263 12:-0.384942 13:-0.548653 14:-0.678903 15:-0.796873 16:-0.871655 17:-0.872959 18:-0.846504 19:-0.829572 20:-0.850236 21:-0.861348 22:-0.592737 23:-0.555632 24:-0.764184 25:-0.904913 26:-0.959357 27:-0.977324 28:-0.988391 29:-0.888321 30:-0.893025 31:-0.911303 32:-0.939578 33:-0.944874 34:-0.952635 35:-0.943358 36:-0.936302 37:-0.951839 38:-0.968956 39:-0.975472 40:-0.991569 41:-0.993256 42:-0.991276 43:-0.97986 44:-0.956192 45:-0.947485 46:-0.76426 47:-0.789977 48:-0.853064 49:-0.976331 50:-0.88665 51:-0.877847 52:-0.712813 53:-0.596483 54:-0.69124 55:-0.783763 56:-0.743356 57:-0.779592 58:-0.906367 59:-0.886514 60:-0.86837 61:-0.850676 62:-0.873718 63:-0.951704 64:-0.991096 65:-0.946588 66:-0.733804 67:-0.358741 68:-0.433795 69:-0.690722 70:-0.789729 71:-0.934372 72:-0.850458 73:-0.930233 74:-0.996553 75:-0.976013 76:-0.922684 77:-0.820985 78:-0.881376 79:-0.948798 80:-0.967877 81:-0.983936 82:-0.974586 83:-0.983738 84:-0.976517 85:-0.994069 86:-0.953819 87:-0.973999 88:-0.967444 89:-0.901076 90:-0.988991 91:-0.739148 92:-0.659163 93:-0.803735 94:-0.869284 95:-0.97585 96:-0.885107 97:-0.487923 98:-0.634361 99:-0.585413 100:-0.661642 101:-0.733836 102:-0.569209 103:-0.413054 104:0.000328192 105:0.212329 106:0.427203 107:0.372944 108:0.054917 109:-0.312004 110:-0.560865 111:-0.751307 112:-0.836619 113:-0.827992 114:-0.769855 115:-0.783019 116:-0.845049 117:-0.919744 118:-0.506298 119:-0.51058 120:-0.966274 121:-0.559924 122:-0.216443 123:-0.40535 124:-0.477458 125:-0.477171 126:-0.30765 127:-0.172093 128:-0.213162 129:-0.0648519 130:0.00544465 131:-0.0213542 132:-0.220924 133:-0.248581 134:-0.362466 135:-0.558397 136:-0.603179 137:-0.715315 138:-0.891824 139:-0.98405 140:-1 141:-1 142:-1 143:-1 145:-0.485166 146:-0.894034 147:-0.865874 148:-0.898295 149:-0.899317 150:-0.806061 151:-0.803255 152:-0.78036 153:-0.785112 154:-0.678506 155:-0.709328 156:-0.661192 157:-0.697578 158:-0.804961 159:-0.776709 160:-0.905581 161:-0.894498 162:-0.883047 163:-0.88709 164:-0.823455 165:-0.824982 166:-0.627315 167:-0.670094 168:-0.680384 
53.341199355686761 1:-0.954936 2:-0.995638 3:-0.906565 4:-0.868384 5:-0.992868 6:-0.817901 7:-0.745219 8:-0.756385 9:-0.762073 10:-0.818299 11:-0.947207 12:-0.966596 13:-0.988024 14:-0.973342 15:-0.968731 16:-0.998918 17:-0.994041 18:-0.994824 19:-0.972545 20:-0.971492 21:-0.97872 22:-0.938954 23:-0.901175 24:-0.85461 25:-0.979335 26:-0.979088 27:-0.909459 28:-0.809675 29:-0.956309 30:-0.883041 31:-0.906055 32:-0.943523 33:-0.965488 34:-0.991711 35:-0.942389 36:-0.945455 37:-0.981225 38:-0.968721 39:-0.98353 40:-0.997938 41:-0.994738 42:-0.995578 43:-0.999035 44:-0.997788 45:-0.99473 46:-0.876932 47:-0.854505 48:-0.871402 49:-0.621925 50:-0.497401 51:-0.707201 52:-0.901816 53:-1 54:-0.639202 55:-0.633099 56:-0.444191 57:-0.563848 58:-0.80618 59:-0.883567 60:-0.771583 61:-0.995946 62:-1 63:-0.955673 64:-0.926027 65:-0.942878 66:-0.837716 67:-0.791218 68:-0.580609 69:-0.964386 70:-0.906977 71:-0.970245 72:-0.927009 73:-0.706395 74:-0.513605 75:-0.576835 76:-0.833121 77:-0.987071 78:-0.761057 79:-0.855538 80:-0.815172 81:-0.853414 82:-0.94312 83:-0.950401 84:-0.887573 85:-0.981317 86:-0.956551 87:-0.936367 88:-0.936152 89:-0.953786 90:-0.929679 91:-0.921423 92:-0.811668 93:-0.955767 94:-0.938583 95:-0.990485 96:-0.961199 97:-0.954589 98:-0.972687 99:-0.991363 100:-0.970966 101:-0.927105 102:-0.858051 103:-0.77799 104:-0.765671 105:-0.761986 106:-0.784402 107:-0.86313 108:-0.989783 109:-0.930728 110:-0.969306 111:-0.992905 112:-0.99655 113:-0.998499 114:-0.984555 115:-0.957855 116:-0.962491 117:-0.977734 118:-0.950097 119:-0.972571 120:-0.997499 121:-0.94084 122:-0.931208 123:-0.957476 124:-0.979305 125:-0.760072 126:-0.859108 127:-0.747508 128:-0.79113 129:-0.883106 130:-0.905626 131:-0.914583 132:-0.988317 133:-0.99319 134:-0.976541 135:-0.943331 136:-0.93526 137:-0.989489 138:-0.96554 139:-0.984688 140:-0.990733 141:-1 142:-0.992985 143:-0.934669 145:-0.767888 146:-0.535252 147:-0.735144 148:-0.929354 149:-0.941816 150:-0.876768 151:-0.820743 152:-0.903181 153:-0.928371 154:-0.956642 155:-0.85423 156:-0.776631 157:-0.965202 158:-0.917505 159:-0.972598 160:-0.973252 161:-0.966507 162:-0.964255 163:-0.975501 164:-0.930683 165:-0.989297 166:-0.717474 167:-0.646101 168:-0.606996 
0.9391364893794738 1:-0.267704 2:-0.308615 3:-0.071145 4:-0.312798 5:-0.490576 6:-0.569959 7:-0.528683 8:-0.519974 9:-0.51331 10:-0.521027 11:-0.621854 12:-0.660127 13:-0.73241 14:-0.796628 15:-0.875029 16:-0.924932 17:-0.930402 18:-0.904264 19:-0.871053 20:-0.889911 21:-0.875948 22:-0.573022 23:-0.524534 24:-0.703901 25:-0.955058 26:-0.96172 27:-0.854551 28:-0.94805 29:-0.925618 30:-0.981172 31:-0.915295 32:-0.936088 33:-0.988678 34:-0.950436 35:-0.948688 36:-0.985625 37:-0.988683 38:-0.995636 39:-0.988324 40:-0.99728 41:-0.998419 42:-0.993073 43:-0.998416 44:-0.994496 45:-0.964152 46:-0.755549 47:-0.807883 48:-0.869545 49:-0.603239 50:-0.74934 51:-0.790228 52:-0.531664 53:-0.549585 54:0.352992 55:-0.953162 56:-0.873956 57:-0.965015 58:-0.975655 59:-0.750921 60:-0.878436 61:-0.932432 62:-0.760256 63:-0.794244 64:-0.815068 65:-0.991098 66:-0.80372 67:-0.691246 68:-0.442659 69:-0.393627 70:-0.868702 71:-0.966491 72:-0.804425 73:-0.852405 74:-0.872906 75:-0.933486 76:-0.776984 77:-0.683739 78:-0.191662 79:-0.960815 80:-0.919447 81:-0.996653 82:-0.98693 83:-0.864417 84:-0.958022 85:-0.98191 86:-0.902992 87:-0.933082 88:-0.942789 89:-0.966221 90:-0.924736 91:-0.87912 92:-0.723209 93:-0.657529 94:-0.955536 95:-0.992731 96:-0.879879 97:-0.333816 98:-0.40837 99:-0.231286 100:-0.257398 101:-0.46851 102:-0.461864 103:-0.254883 104:-0.173613 105:-0.129281 106:-0.100878 107:-0.187268 108:-0.381013 109:-0.574906 110:-0.732822 111:-0.856049 112:-0.911163 113:-0.916098 114:-0.868377 115:-0.806809 116:-0.815571 117:-0.832812 118:-0.431202 119:-0.452586 120:-0.648574 121:-0.228244 122:0.0327181 123:-0.058299 124:-0.0628234 125:-0.201432 126:-0.000550358 127:0.133555 128:0.124464 129:0.198559 130:0.130672 131:-0.128646 132:-0.163569 133:-0.0811578 134:-0.166973 135:-0.270214 136:-0.404624 137:-0.406306 138:-0.585176 139:-0.802196 140:-0.945012 141:-0.999886 142:-0.979295 143:-0.84966 145:-0.739965 146:-0.838965 147:-0.616299 148:-0.82704 149:-0.89021 150:-0.967677 151:-0.734273 152:-0.695159 153:-0.855337 154:-0.986162 155:-0.949675 156:-0.795401 157:-0.880538 158:-0.762721 159:-0.840809 160:-0.927068 161:-0.974163 162:-0.986928 163:-0.97614 164:-0.972556 165:-0.958161 166:-0.811203 167:-0.847472 168:-0.855281 
42.428066671374289 1:-0.550966 2:-0.618321 3:-0.551145 4:-0.714926 5:-0.876719 6:-0.978395 7:-0.95206 8:-0.901113 9:-0.881743 10:-0.904976 11:-0.922038 12:-0.871156 13:-0.851796 14:-0.845533 15:-0.865701 16:-0.903283 17:-0.917292 18:-0.934257 19:-0.916274 20:-0.892801 21:-0.834534 22:-0.546736 23:-0.520387 24:-0.586288 25:-0.936127 26:-0.983696 27:-0.952705 28:-0.993081 29:-0.964194 30:-0.910997 31:-0.973819 32:-0.995942 33:-0.978215 34:-0.931236 35:-0.933183 36:-0.988167 37:-0.995453 38:-0.995323 39:-0.973943 40:-0.985189 41:-0.986654 42:-0.99449 43:-0.989706 44:-0.960595 45:-0.908266 46:-0.536949 47:-0.575901 48:-0.681755 49:-0.603862 50:-0.705979 51:-0.909258 52:-0.790869 53:-0.770396 54:-0.0910668 55:-0.644028 56:-0.389522 57:-0.626822 58:-0.621723 59:-0.546057 60:-0.478901 61:-0.895946 62:-0.775 63:-0.918624 64:-0.933562 65:-0.874629 66:-0.957665 67:-0.944767 68:-0.85374 69:-0.69447 70:-0.870155 71:-0.945495 72:-0.854018 73:-0.854915 74:-0.889633 75:-0.989488 76:-0.93876 77:-0.937345 78:-0.32181 79:-0.84744 80:-0.675809 81:-0.794177 82:-0.765218 83:-0.707897 84:-0.719451 85:-0.966489 86:-0.94808 87:-0.970031 88:-0.960174 89:-0.984967 90:-0.958661 91:-0.980305 92:-0.905834 93:-0.75394 94:-0.971596 95:-0.990099 96:-0.898873 97:-0.568599 98:-0.640088 99:-0.609405 100:-0.672808 101:-0.819299 102:-0.877825 103:-0.816103 104:-0.714473 105:-0.657534 106:-0.6428 107:-0.660477 108:-0.722435 109:-0.761858 110:-0.768748 111:-0.856049 112:-0.902415 113:-0.91925 114:-0.910987 115:-0.869155 116:-0.860544 117:-0.888139 118:-0.650194 119:-0.690831 120:-0.893027 121:-0.790458 122:-0.840604 123:-0.750343 124:-0.828529 125:-0.833483 126:-0.954871 127:-0.824585 128:-0.912017 129:-0.96237 130:-0.905626 131:-0.998437 132:-0.946362 133:-0.985244 134:-0.885005 135:-0.958189 136:-0.907514 137:-0.891892 138:-0.862159 139:-0.921514 140:-0.977833 141:-0.999749 142:-0.9873 143:-0.930493 145:-0.817627 146:-0.975803 147:-0.867572 148:-0.970158 149:-0.923602 150:-0.627273 151:-0.980083 152:-0.892116 153:-0.922753 154:-0.952952 155:-0.979176 156:-0.755045 157:-0.904215 158:-0.940184 159:-0.833959 160:-0.881419 161:-0.871531 162:-0.889756 163:-0.849169 164:-0.820625 165:-0.814157 166:-0.547869 167:-0.542416 168:-0.425926 
34.560252268025785 1:-0.716738 2:-0.693566 3:-0.520611 4:-0.598432 5:-0.614875 6:-0.592593 7:-0.577161 8:-0.62017 9:-0.63298 10:-0.616693 11:-0.701044 12:-0.790032 13:-0.880614 14:-0.951662 15:-0.990778 16:-0.978397 17:-0.987129 18:-0.970055 19:-0.955374 20:-0.99711 21:-0.958681 22:-0.974233 23:-0.995853 24:-0.882388 25:-0.981069 26:-0.978025 27:-0.902494 28:-0.941014 29:-0.889812 30:-0.891884 31:-0.888601 32:-0.931764 33:-0.966737 34:-0.980969 35:-0.98464 36:-0.97376 37:-0.993294 38:-0.999869 39:-0.98563 40:-0.987922 41:-0.98506 42:-0.987506 43:-0.988096 44:-0.96611 45:-0.944237 46:-0.781961 47:-0.768018 48:-0.81221 49:-0.999844 50:-0.957806 51:-0.88097 52:-0.740795 53:-0.319003 54:-0.561145 55:-0.59719 56:-0.515566 57:-0.591837 58:-0.646067 59:-0.79661 60:-0.601239 61:-0.963514 62:-0.535256 63:-0.712206 64:-0.74726 65:-0.865727 66:-0.760103 67:-0.749241 68:-0.591136 69:-0.701031 70:-0.738857 71:-0.911986 72:-0.950407 73:-0.997489 74:-0.983329 75:-0.922974 76:-0.838734 77:-0.621084 78:-0.87053 79:-0.808255 80:-0.756857 81:-0.797523 82:-0.778531 83:-0.843683 84:-0.76143 85:-0.984579 86:-0.850799 87:-0.902976 88:-0.902805 89:-0.951188 90:-0.882948 91:-0.859425 92:-0.817375 93:-0.904913 94:-0.926091 95:-0.982829 96:-0.981006 97:-0.765217 98:-0.768282 99:-0.621881 100:-0.58459 101:-0.650049 102:-0.58404 103:-0.439733 104:-0.459797 105:-0.471747 106:-0.459675 107:-0.52679 108:-0.65943 109:-0.813882 110:-0.964772 111:-1 112:-0.991252 113:-0.997298 114:-0.957482 115:-0.937654 116:-0.955026 117:-0.944602 118:-0.781008 119:-0.761755 120:-0.755547 121:-0.437786 122:-0.126678 123:-0.307956 124:-0.234294 125:-0.36795 126:-0.0456797 127:-0.0418605 128:0.0364807 129:0.160929 130:0.0362976 131:-0.130208 132:-0.109931 133:-0.0959137 134:-0.281969 135:-0.31237 136:-0.49711 137:-0.514414 138:-0.723179 139:-0.880682 140:-0.96718 141:-0.999863 142:-0.991995 143:-0.919168 145:-0.922339 146:-0.812265 147:-0.748727 148:-0.856882 149:-0.967114 150:-0.660606 151:-0.712898 152:-0.805809 153:-0.932584 154:-0.939114 155:-0.971367 156:-0.960582 157:-0.976682 158:-0.822821 159:-0.993476 160:-0.954351 161:-0.897368 162:-0.875875 163:-0.824457 164:-0.792333 165:-0.856483 166:-0.738005 167:-0.694944 168:-0.570645 
20.885438877128767 1:-0.294528 2:-0.263904 3:0.242748 4:0.105013 5:-0.183902 6:-0.132716 7:-0.30676 8:-0.455141 9:-0.536867 10:-0.588443 11:-0.662983 12:-0.634146 13:-0.638847 14:-0.713439 15:-0.823867 16:-0.878809 17:-0.844834 18:-0.75159 19:-0.644609 20:-0.656595 21:-0.680233 22:0.121487 23:0.311679 24:-0.0667849 25:-0.879769 26:-0.890064 27:-0.621963 28:-0.675989 29:-0.725916 30:-0.541578 31:-0.793914 32:-0.886704 33:-0.94706 34:-0.932166 35:-0.891223 36:-0.845029 37:-0.837971 38:-0.895345 39:-0.957644 40:-0.983905 41:-0.978915 42:-0.948816 43:-0.862062 44:-0.834911 45:-0.844476 46:0.0840124 47:0.105405 48:-0.266945 49:-0.562753 50:-0.583678 51:-0.500367 52:-0.0515464 53:0.184172 54:-0.464007 55:-0.511319 56:-0.22855 57:0.0507289 58:-0.203184 59:-0.278556 60:-0.385211 61:-0.672973 62:-0.773077 63:-0.570625 64:-0.50411 65:-0.29822 66:-0.556126 67:-0.354322 68:-0.288643 69:-0.155576 70:-0.686047 71:-0.921301 72:-0.754323 73:-0.786469 74:-0.729253 75:-0.750382 76:-0.614187 77:-0.577325 78:-0.813252 79:-0.870428 80:-0.774401 81:-0.638889 82:-0.757957 83:-0.750381 84:-0.720698 85:-0.840302 86:-0.858177 87:-0.810469 88:-0.838641 89:-0.776169 90:-0.838239 91:-0.664188 92:-0.646481 93:-0.439809 94:-0.867499 95:-0.982467 96:-0.871747 97:-0.335749 98:-0.38326 99:-0.119002 100:-0.0262423 101:-0.167435 102:-0.117232 103:-0.182468 104:-0.218247 105:-0.330479 106:-0.499068 107:-0.657294 108:-0.727544 109:-0.778829 110:-0.830834 111:-0.893204 112:-0.911286 113:-0.867092 114:-0.771974 115:-0.706932 116:-0.736584 117:-0.80625 118:-0.0625 119:-0.0525078 120:-0.700079 121:-0.334351 122:-0.413591 123:-0.489026 124:-0.445676 125:-0.339302 126:-0.389103 127:-0.354153 128:-0.719599 129:-0.782226 130:-0.858439 131:-0.915625 132:-0.916091 133:-0.818388 134:-0.901564 135:-0.968901 136:-0.965318 137:-0.829129 138:-0.842815 139:-0.886364 140:-0.966195 141:-1 142:-0.98542 143:-0.892554 145:-0.644852 146:-0.656237 147:-0.204584 148:-0.345311 149:-0.661017 150:-0.434343 151:-0.588535 152:-0.767082 153:-0.98736 154:-0.904059 155:-0.832104 156:-0.588925 157:-0.503857 158:-0.499079 159:-0.705268 160:-0.825695 161:-0.812201 162:-0.675285 163:-0.522795 164:-0.489885 165:-0.712722 166:0.235885 167:0.405313 168:0.209877 
1.1435791560896096 1:-0.300966 2:-0.279171 3:0.20855 4:0.0602072 5:-0.247071 6:-0.315844 7:-0.432804 8:-0.541585 9:-0.625442 10:-0.666774 11:-0.726826 12:-0.694592 13:-0.651572 14:-0.683189 15:-0.782881 16:-0.844923 17:-0.805506 18:-0.7096 19:-0.583408 20:-0.569101 21:-0.600458 22:0.371898 23:0.62405 24:0.235225 25:-0.912717 26:-0.906959 27:-0.638808 28:-0.654412 29:-0.6948 30:-0.635715 31:-0.821978 32:-0.891862 33:-0.948934 34:-0.920832 35:-0.891029 36:-0.894606 37:-0.872509 38:-0.899944 39:-0.949518 40:-0.975563 41:-0.958921 42:-0.920905 43:-0.812441 44:-0.744879 45:-0.768491 46:0.768474 47:0.83964 48:0.120706 49:-0.406727 50:-0.473831 51:-0.52939 52:-0.636721 53:-0.305325 54:-0.762359 55:-0.923497 56:-0.709947 57:-0.379592 58:-0.771536 59:-0.823139 60:-0.601239 61:-0.633784 62:-0.510256 63:-0.393979 64:-0.576712 65:-0.839763 66:-0.851187 67:-0.46976 68:-0.245429 69:-0.0243674 70:-0.531008 71:-0.875417 72:-0.674466 73:-0.760307 74:-0.694216 75:-0.763188 76:-0.884154 77:-0.708105 78:-0.913913 79:-0.97675 80:-0.90808 81:-0.778112 82:-0.989592 83:-0.979063 84:-0.818371 85:-0.856168 86:-0.77374 87:-0.746972 88:-0.86045 89:-0.939866 90:-0.955516 91:-0.732315 92:-0.60241 93:-0.345517 94:-0.720277 95:-0.957689 96:-0.829229 97:-0.34058 98:-0.386784 99:-0.137236 100:-0.0820771 101:-0.309314 102:-0.285311 103:-0.306336 104:-0.363965 105:-0.47089 106:-0.601278 107:-0.737931 108:-0.757344 109:-0.766031 110:-0.781653 111:-0.835325 112:-0.869763 113:-0.821839 114:-0.726303 115:-0.657096 116:-0.667423 117:-0.764205 118:-0.0721899 119:-0.0548589 120:-0.523772 121:-0.407634 122:-0.272651 123:-0.516461 124:-0.398374 125:-0.521038 126:-0.443038 127:-0.343522 128:-0.496423 129:-0.59968 130:-0.842105 131:-0.942708 132:-0.839618 133:-0.84336 134:-0.803128 135:-0.898411 136:-0.936994 137:-0.813514 138:-0.784623 139:-0.849576 140:-0.960283 141:-1 142:-0.979922 143:-0.879388 145:-0.824607 146:-0.870672 147:-0.25382 148:-0.197929 149:-0.595244 150:-0.537374 151:-0.635171 152:-0.731674 153:-0.977528 154:-0.760148 155:-0.677657 156:-0.648053 157:-0.564126 158:-0.576187 159:-0.730713 160:-0.764265 161:-0.630861 162:-0.460351 163:-0.336174 164:-0.288442 165:-0.586719 166:0.43584 167:0.664096 168:0.399177 
1.9603948912474005 1:-0.895923 2:-0.820065 3:-0.69771 4:-0.702604 5:-0.684157 6:-0.744856 7:-0.821708 8:-0.859856 9:-0.893051 10:-0.950562 11:-0.981584 12:-0.942736 13:-0.876871 14:-0.87654 15:-0.931419 16:-0.953359 17:-0.95662 18:-0.943932 19:-0.939054 20:-0.963741 21:-0.97872 22:-0.904367 23:-0.840359 24:-0.85461 25:-0.91185 26:-0.988894 27:-0.920311 28:-0.941483 29:-0.826087 30:-0.894452 31:-0.942789 32:-0.94595 33:-0.945186 34:-0.959401 35:-0.978438 36:-0.960879 37:-0.940849 38:-0.937102 39:-0.974491 40:-0.989904 41:-0.991843 42:-0.989632 43:-0.98727 44:-0.999198 45:-0.996691 46:-0.889857 47:-0.865315 48:-0.912372 49:-0.704921 50:-0.813825 51:-0.867744 52:-0.347079 53:-0.985344 54:-0.944493 55:-0.81733 56:-0.820805 57:-0.857726 58:-0.831461 59:-0.85409 60:-0.6988 61:-0.813514 62:-0.642949 63:-0.711545 64:-0.674658 65:-0.582344 66:-0.763951 67:-0.826015 68:-0.773407 69:-0.999063 70:-0.918605 71:-0.960512 72:-0.856562 73:-0.961284 74:-0.970784 75:-0.953173 76:-0.818321 77:-0.864247 78:-0.935604 79:-0.952978 80:-0.933778 81:-0.938755 82:-0.933438 83:-0.932717 84:-0.827099 85:-0.939057 86:-0.855171 87:-0.908177 88:-0.901699 89:-0.86971 90:-0.907212 91:-0.9583 92:-0.924223 93:-0.976692 94:-0.906164 95:-0.979279 96:-0.905785 97:-0.852174 98:-0.813216 99:-0.791747 100:-0.663875 101:-0.588605 102:-0.560734 103:-0.708433 104:-0.810305 105:-0.900685 106:-0.954751 107:-0.973475 108:-0.968497 109:-0.942412 110:-0.935473 111:-0.955937 112:-0.968457 113:-0.969981 114:-0.944416 115:-0.924323 116:-0.931217 117:-0.943182 118:-0.97093 119:-0.922022 120:-0.986529 121:-0.696183 122:-0.756711 123:-0.998628 124:-0.828529 125:-0.775291 126:-0.6929 127:-0.671761 128:-0.519313 129:-0.417134 130:-0.398367 131:-0.436458 132:-0.573022 133:-0.494892 134:-0.701012 135:-0.901866 136:-0.952601 137:-0.944144 138:-0.948635 139:-0.963598 140:-0.985006 141:-0.999967 142:-0.994326 143:-0.990232 145:-0.907504 146:-0.979141 147:-0.921902 148:-0.912302 149:-0.632178 150:-0.719192 151:-0.89847 152:-0.916459 153:-0.889747 154:-0.869004 155:-0.97397 156:-0.978414 157:-0.793722 158:-0.884054 159:-0.931822 160:-0.958987 161:-0.973923 162:-0.977905 163:-0.974862 164:-0.976517 165:-0.969107 166:-0.826378 167:-0.799486 168:-0.762689 
6.104280391339759 1:-0.883047 2:-0.866957 3:-0.81374 4:-0.908709 5:-0.986755 6:-0.995885 7:-0.95637 8:-0.910936 9:-0.926031 10:-0.98138 11:-0.966851 12:-0.938494 13:-0.930763 14:-0.943091 15:-0.950358 16:-0.96729 17:-0.966631 18:-0.935999 19:-0.917124 20:-0.927483 21:-0.896465 22:-0.910592 23:-0.948169 24:-0.886525 25:-0.910694 26:-0.997637 27:-0.933431 28:-0.948519 29:-0.978261 30:-0.972614 31:-0.994809 32:-0.94155 33:-0.934099 34:-0.974626 35:-0.946072 36:-0.946641 37:-0.977889 38:-0.979696 39:-0.981476 40:-0.994178 41:-0.993394 42:-0.985988 43:-0.977362 44:-0.975301 45:-0.941265 46:-0.848272 47:-0.90518 48:-0.899721 49:-0.63843 50:-0.834283 51:-0.970242 52:-0.954836 53:-0.545677 54:-0.86817 55:-0.861046 56:-0.691724 57:-0.70379 58:-0.7397 59:-0.733235 60:-0.872242 61:-0.82027 62:-0.815385 63:-0.978167 64:-0.89589 65:-0.897626 66:-0.98653 67:-0.917702 68:-0.919114 69:-0.978444 70:-0.97093 71:-0.993604 72:-0.931333 73:-0.960756 74:-0.987737 75:-0.967699 76:-0.970401 77:-0.705619 78:-0.91798 79:-0.922675 80:-0.832963 81:-0.832329 82:-0.830812 83:-0.807907 84:-0.92685 85:-0.939353 86:-0.92458 87:-0.991926 88:-0.991308 89:-0.98905 90:-0.962705 91:-0.995981 92:-0.974635 93:-0.996292 94:-0.982006 95:-0.996861 96:-0.959514 97:-0.819324 98:-0.855507 99:-0.883877 100:-0.954216 101:-0.975143 102:-0.896893 103:-0.887566 104:-0.89301 105:-0.964041 106:-0.971786 107:-0.998939 108:-0.989783 109:-0.948532 110:-0.963376 111:-0.963779 112:-0.975604 113:-0.974634 114:-0.935706 115:-0.914479 116:-0.93065 117:-0.940057 118:-0.979167 119:-0.977665 120:-0.991729 121:-0.790076 122:-0.919463 123:-0.831276 124:-0.837398 125:-0.733214 126:-0.607045 127:-0.872425 128:-0.622318 129:-0.610889 130:-0.557169 131:-0.588542 132:-0.752523 133:-0.758229 134:-0.794848 135:-0.978576 136:-0.971676 137:-0.945946 138:-0.979194 139:-0.98777 140:-0.990302 141:-1 142:-0.97792 143:-0.96829 145:-0.876091 146:-0.98665 147:-0.842105 148:-0.961023 149:-0.830508 150:-0.875758 151:-0.927617 152:-0.825726 153:-0.79073 154:-0.845018 155:-0.81692 156:-0.897701 157:-0.92 158:-0.946988 159:-0.905073 160:-0.954173 161:-0.924641 162:-0.89716 163:-0.889859 164:-0.900976 165:-0.865969 166:-0.89422 167:-0.929734 168:-0.912209 
26.856850153588727 1:-0.987124 2:-0.956379 3:-0.88458 4:-0.794455 5:-0.698421 6:-0.739712 7:-0.865877 8:-0.950229 9:-0.968433 10:-0.969823 11:-0.986495 12:-0.996819 13:-0.946108 14:-0.934016 15:-0.981168 16:-0.986116 17:-0.990228 18:-0.992115 19:-0.978665 20:-0.963741 21:-0.91784 22:-0.81444 23:-0.788528 24:-0.741135 25:-0.998844 26:-0.986531 27:-0.987528 28:-0.993081 29:-0.847826 30:-0.866781 31:-0.948493 32:-0.995866 33:-0.989068 34:-0.984945 35:-0.967779 36:-0.985794 37:-0.963024 38:-0.957589 39:-0.993026 40:-0.995739 41:-0.998462 42:-0.996413 43:-0.990118 44:-0.974489 45:-0.937833 46:-0.737567 47:-0.770495 48:-0.812094 49:-0.933977 50:-0.98071 51:-0.837987 52:-0.392243 53:-0.561309 54:-0.807459 55:-0.678376 56:-0.512528 57:-0.561516 58:-0.571161 59:-0.585851 60:-0.570267 61:-0.993243 62:-0.827564 63:-0.734039 64:-0.780137 65:-0.684718 66:-0.778704 67:-0.911074 68:-0.85651 69:-0.981256 70:-0.947674 71:-0.966908 72:-0.787894 73:-0.999471 74:-0.983103 75:-0.920872 76:-0.848431 77:-0.841372 78:-0.983393 79:-0.875653 80:-0.766247 81:-0.771084 82:-0.764008 83:-0.740421 84:-0.753948 85:-0.999703 86:-0.930865 87:-0.899966 88:-0.910549 89:-0.85876 90:-0.869468 91:-0.954281 92:-0.949588 93:-0.981724 94:-0.887129 95:-0.97614 96:-0.865242 97:-0.96715 98:-0.957709 99:-0.907869 100:-0.709659 101:-0.6143 102:-0.663842 103:-0.82182 104:-0.917952 105:-0.936644 106:-0.984562 107:-0.974536 108:-0.979566 109:-0.994714 110:-0.972794 111:-0.992158 112:-0.992854 113:-0.995797 114:-0.991382 115:-0.990156 116:-0.999433 117:-0.996875 118:-0.950097 119:-0.944357 120:-0.978259 121:-0.906107 122:-0.837248 123:-0.832647 124:-0.991131 125:-0.957923 126:-0.914144 127:-0.799336 128:-0.896996 129:-0.806245 130:-0.841198 131:-0.847917 132:-0.820499 133:-0.736663 134:-0.906164 135:-0.92329 136:-0.980925 137:-0.998198 138:-0.969441 139:-0.975828 140:-0.994704 141:-0.999967 142:-0.983594 143:-0.958522 145:-0.968586 146:-0.963287 147:-0.920204 148:-0.951279 149:-0.802176 150:-0.844444 151:-0.97231 152:-0.912033 153:-0.900983 154:-0.976015 155:-0.843818 156:-0.920225 157:-0.874081 158:-0.937349 159:-0.973577 160:-0.995185 161:-0.950718 162:-0.920065 163:-0.91585 164:-0.876645 165:-0.83459 166:-0.719259 167:-0.72922 168:-0.674897 
1.795649155322284 1:-0.919528 2:-0.977099 3:-0.92 4:-0.816858 5:-0.872644 6:-0.959877 7:-0.942365 8:-0.909627 9:-0.909069 10:-0.940289 11:-0.996317 12:-0.979852 13:-0.931886 14:-0.91637 15:-0.92718 16:-0.948276 17:-0.942558 18:-0.93 19:-0.929874 20:-0.920389 21:-0.901999 22:-0.755988 23:-0.737388 24:-0.783245 25:-0.952023 26:-0.99492 27:-0.950113 28:-0.822809 29:-0.894928 30:-0.924975 31:-0.936172 32:-0.909689 33:-0.893027 34:-0.944684 35:-0.995106 36:-0.950709 37:-0.916957 38:-0.956387 39:-0.97586 40:-0.988928 41:-0.982845 42:-0.969742 43:-0.960643 44:-0.961023 45:-0.947515 46:-0.757235 47:-0.78795 48:-0.886084 49:-0.963563 50:-0.73622 51:-0.709037 52:-0.763378 53:-0.717636 54:-0.665221 55:-0.992194 56:-0.97874 57:-0.910204 58:-0.784644 59:-0.795136 60:-0.866047 61:-0.841892 62:-0.926923 63:-0.993384 64:-0.865753 65:-0.922849 66:-0.926235 67:-0.961889 68:-0.976731 69:-0.861293 70:-0.876938 71:-0.977197 72:-0.890895 73:-0.946353 74:-0.881269 75:-0.863723 76:-0.859658 77:-0.94182 78:-0.836977 79:-0.964472 80:-0.983692 81:-0.946118 82:-0.888176 83:-0.892469 84:-0.917082 85:-0.951957 86:-0.964476 87:-0.988505 88:-0.957329 89:-0.99239 90:-0.943608 91:-0.976085 92:-0.992074 93:-0.928751 94:-0.918358 95:-0.989036 96:-0.94842 97:-0.938164 98:-0.957709 99:-0.924184 100:-0.843663 101:-0.93716 102:-0.930791 103:-0.926632 104:-0.973088 105:-1 106:-0.937716 107:-0.93634 108:-0.960834 109:-0.956879 110:-0.954308 111:-0.966206 112:-0.977945 113:-0.955422 114:-0.937001 115:-0.934578 116:-0.907785 117:-0.924858 118:-0.838178 119:-0.848746 120:-0.95622 121:-0.641985 122:-0.911074 123:-0.924554 124:-0.769401 125:-0.77171 126:-0.528894 127:-0.622591 128:-0.590844 129:-0.714972 130:-0.589837 131:-0.765625 132:-0.685608 133:-0.84336 134:-0.931923 135:-0.921907 136:-0.879769 137:-0.876877 138:-0.946359 139:-0.958109 140:-0.989347 141:-0.999541 142:-0.99415 143:-0.972961 145:-0.948517 146:-0.825615 147:-0.837012 148:-0.945189 149:-0.899317 150:-0.724242 151:-0.885839 152:-0.805809 153:-0.772472 154:-1 155:-0.881128 156:-0.75129 157:-0.723408 158:-0.801843 159:-0.880444 160:-0.940264 161:-0.910526 162:-0.877957 163:-0.883681 164:-0.907766 165:-0.834833 166:-0.677304 167:-0.699229 168:-0.728395 
11.926942147080926 1:-0.7897 2:-0.928026 3:-0.917557 4:-0.821339 5:-0.916454 6:-0.978395 7:-0.91651 8:-0.895219 9:-0.895878 10:-0.994222 11:-0.966851 12:-0.930011 13:-0.814371 14:-0.808476 15:-0.867821 16:-0.897823 17:-0.886545 18:-0.87311 19:-0.862213 20:-0.82186 21:-0.77852 22:-0.378297 23:-0.292329 24:-0.394208 25:-0.936127 26:-0.998228 27:-0.983479 28:-0.858927 29:-0.935422 30:-0.958066 31:-0.931837 32:-0.92122 33:-0.906457 34:-0.987651 35:-0.974562 36:-0.859521 37:-0.798331 38:-0.889596 39:-0.949746 40:-0.971372 41:-0.954405 42:-0.933 43:-0.921921 44:-0.894675 45:-0.872051 46:-0.366676 47:-0.377928 48:-0.617456 49:-0.86484 50:-0.672624 51:-0.695996 52:-0.588611 53:-0.547142 54:-0.944493 55:-0.711163 56:-0.791951 57:-0.988338 58:-0.764981 59:-0.979366 60:-0.923345 61:-0.960811 62:-0.934615 63:-0.917301 64:-0.911644 65:-0.972552 66:-0.983964 67:-0.884286 68:-0.982825 69:-0.941893 70:-0.991279 71:-0.989711 72:-0.817141 73:-0.936179 74:-0.89551 75:-0.882454 76:-0.822914 77:-0.866236 78:-0.95594 79:-0.879049 80:-0.914999 81:-0.992637 82:-0.889628 83:-0.991259 84:-0.948254 85:-0.992883 86:-0.977593 87:-0.967841 88:-0.966021 89:-0.991834 90:-0.996181 91:-0.956592 92:-0.983196 93:-0.97987 94:-0.971894 95:-0.991209 96:-0.904624 97:-0.814493 98:-0.907489 99:-0.904031 100:-0.84813 101:-0.905879 102:-0.878531 103:-0.859933 104:-0.941582 105:-0.976027 106:-0.978174 107:-0.98939 108:-1 109:-0.942968 110:-0.899198 111:-0.935586 112:-0.944184 113:-0.928405 114:-0.895567 115:-0.879614 116:-0.827286 117:-0.840483 118:-0.542636 119:-0.571317 120:-0.802496 121:-0.827481 122:-0.879195 123:-0.798354 124:-0.719143 125:-0.715309 126:-0.616951 127:-0.570764 128:-0.563662 129:-0.646117 130:-0.548094 131:-0.639583 132:-0.640998 133:-0.706016 134:-0.839006 135:-0.962681 136:-0.983815 137:-0.974174 138:-0.96619 139:-0.971495 140:-0.985468 141:-0.999276 142:-0.995734 143:-0.975934 145:-0.978185 146:-0.847309 147:-0.889643 148:-0.948843 149:-0.955983 150:-0.712121 151:-0.945106 152:-0.919779 153:-0.831461 154:-0.917897 155:-0.934056 156:-0.741905 157:-0.643767 158:-0.62438 159:-0.80672 160:-0.859308 161:-0.846651 162:-0.855746 163:-0.919046 164:-0.75046 165:-0.713208 166:-0.195269 167:-0.179092 168:-0.303155 
17.432255141120859 1:-0.876609 2:-0.862595 3:-0.75145 4:-0.723887 5:-0.803362 6:-0.80144 7:-0.92836 8:-0.996071 9:-0.997644 10:-0.906902 11:-0.851443 12:-0.878049 13:-0.986527 14:-0.94057 15:-0.991909 16:-0.987434 17:-0.990704 18:-0.986503 19:-0.985975 20:-0.998424 21:-0.993797 22:-0.911284 23:-0.901866 24:-0.995863 25:-0.987139 26:-0.982042 27:-0.992549 28:-0.96095 29:-0.957374 30:-0.858508 31:-0.965833 32:-0.950502 33:-0.942688 34:-0.96566 35:-0.8982 36:-0.936641 37:-0.92255 38:-0.919072 39:-0.979558 40:-0.998492 41:-0.993842 42:-0.988923 43:-0.989128 44:-0.982569 45:-0.983639 46:-0.960242 47:-0.955405 48:-0.989438 49:-0.970414 50:-0.99943 51:-0.953343 52:-0.839961 53:-0.872008 54:-0.801388 55:-0.87822 56:-0.790433 57:-0.850729 58:-0.928839 59:-0.967576 60:-0.869144 61:-0.9 62:-0.966667 63:-0.975521 64:-0.923973 65:-0.926558 66:-0.892239 67:-0.956918 68:-0.896953 69:-0.809747 70:-0.985465 71:-0.991379 72:-0.994405 73:-0.976612 74:-0.998135 75:-0.962729 76:-0.967849 77:-0.97265 78:-0.947128 79:-0.957419 80:-0.942674 81:-0.967202 82:-0.970471 83:-0.998171 84:-0.949293 85:-0.983986 86:-0.999317 87:-0.984536 88:-0.991466 89:-0.992576 90:-0.971467 91:-0.984325 92:-0.962746 93:-0.916302 94:-0.998067 95:-0.994301 96:-0.985827 97:-0.886957 98:-0.886344 99:-0.784069 100:-0.724176 101:-0.766234 102:-0.737288 103:-0.854216 104:-0.900886 105:-0.886986 106:-0.85893 107:-0.887533 108:-0.882503 109:-0.936292 110:-0.960586 111:-0.977595 112:-0.975357 113:-0.968931 114:-0.966428 115:-0.970057 116:-0.960506 117:-0.970028 118:-0.932171 119:-0.93221 120:-0.988684 121:-0.646565 122:-0.538591 123:-0.702332 124:-0.698448 125:-0.692927 126:-0.698404 127:-0.735548 128:-0.959943 129:-0.932746 130:-0.907441 131:-0.908333 132:-0.727031 133:-0.733258 134:-0.608096 135:-0.774706 136:-0.828902 137:-0.857658 138:-0.853056 139:-0.933552 140:-0.981712 141:-0.995767 142:-0.995998 143:-0.991506 145:-0.908377 146:-0.985816 147:-0.874363 148:-0.952497 149:-0.92765 150:-0.821212 151:-0.869322 152:-0.841217 153:-0.869382 154:-0.965867 155:-0.83167 156:-0.923979 157:-0.820987 158:-0.842098 159:-0.938999 160:-0.997147 161:-0.986364 162:-0.973509 163:-0.985087 164:-0.967181 165:-0.94089 166:-0.828163 167:-0.800343 168:-0.897805 
3.9157232983828401 1:-0.987124 2:-0.97819 3:-0.971298 4:-0.928871 5:-0.966378 6:-0.951646 7:-0.982225 8:-0.922724 9:-0.926031 10:-0.990369 11:-0.884592 12:-0.95228 13:-0.819611 14:-0.736379 15:-0.832206 16:-0.914013 17:-0.928018 18:-0.940062 19:-0.907433 20:-0.868366 21:-0.874135 22:-0.914051 23:-0.896337 24:-0.846631 25:-0.981358 26:-0.991375 27:-0.995789 28:-0.987452 29:-0.968031 30:-0.956354 31:-0.992756 32:-0.937454 33:-0.878972 34:-0.9051 35:-0.978438 36:-0.988845 37:-0.828552 38:-0.79406 39:-0.868071 40:-0.942731 41:-0.940305 42:-0.946968 43:-0.940993 44:-0.93922 45:-0.963478 46:-0.989042 47:-0.991441 48:-0.959494 49:-0.985285 50:-0.997422 51:-0.963997 52:-0.607266 53:-0.885686 54:-0.850824 55:-0.934426 56:-0.776765 57:-0.695627 58:-0.719101 59:-0.790715 60:-0.914053 61:-0.816216 62:-0.923077 63:-0.955673 64:-0.845205 65:-0.837537 66:-0.833868 67:-0.916598 68:-0.899169 69:-0.673852 70:-0.680233 71:-0.906285 72:-0.870549 73:-0.997357 74:-0.961177 75:-0.981843 76:-0.866292 77:-0.995525 78:-0.916624 79:-0.975444 80:-0.931307 81:-0.899933 82:-0.884788 83:-0.915235 84:-0.962594 85:-0.93194 86:-0.983741 87:-0.960725 88:-0.972975 89:-0.979027 90:-0.95911 91:-0.973473 92:-0.967977 93:-0.86611 94:-0.820805 95:-0.969136 96:-0.928322 97:-0.974879 98:-0.98326 99:-0.982726 100:-0.905081 101:-0.908113 102:-0.960452 103:-0.947594 104:-0.887758 105:-0.960616 106:-0.935587 107:-0.906631 108:-0.938697 109:-0.920156 110:-0.856993 111:-0.906647 112:-0.96969 113:-0.990844 114:-0.983142 115:-0.918786 116:-0.879441 117:-0.90554 118:-0.940407 119:-0.931818 120:-0.884013 121:-0.849618 122:-0.974832 123:-0.79561 124:-0.832964 125:-0.89436 126:-0.807375 127:-0.687708 128:-0.862661 129:-0.963171 130:-0.852087 131:-0.867708 132:-0.946893 133:-0.784336 134:-0.979761 135:-0.960608 136:-0.997688 137:-0.985586 138:-0.972042 139:-0.963405 140:-0.998461 141:-0.996903 142:-0.997097 143:-0.989241 145:-0.940663 146:-0.970797 147:-0.911715 148:-0.857491 149:-0.940804 150:-0.972727 151:-0.915958 152:-0.78036 153:-0.700843 154:-0.770295 155:-0.959219 156:-0.954951 157:-0.785112 158:-0.413466 159:-0.663676 160:-0.813302 161:-0.833732 162:-0.840245 163:-0.870899 164:-0.90041 165:-0.994162 166:-0.841553 167:-0.821765 168:-0.88546 
2.3452163381090729 1:-0.937232 2:-0.953653 3:-0.942595 4:-0.945673 5:-0.930209 6:-0.930556 7:-0.94021 8:-0.944335 9:-0.938751 10:-0.939647 11:-0.953346 12:-0.955992 13:-0.968937 14:-0.97851 15:-0.991202 16:-0.996658 17:-1 18:-0.989938 19:-0.98589 20:-0.991034 21:-0.985495 22:-0.833117 23:-0.787837 24:-0.908171 25:-0.989234 26:-0.997962 27:-0.99834 28:-0.997537 29:-0.985401 30:-0.981101 31:-0.992071 32:-0.992471 33:-0.989752 34:-0.990548 35:-0.996245 36:-0.99929 37:-0.998458 38:-0.999301 39:-0.998767 40:-0.999449 41:-0.999423 42:-0.998146 43:-0.995877 44:-0.99704 45:-0.996109 46:-0.88803 47:-0.872523 48:-0.953401 49:-0.915914 50:-0.805598 51:-0.676708 52:0.0171821 53:-0.238886 54:-0.53686 55:-0.973458 56:-0.854214 57:-0.972012 58:-0.868914 59:-0.578482 60:-0.560976 61:-0.905405 62:-0.787179 63:-0.812769 64:-0.830137 65:-0.844214 66:-0.926876 67:-0.806131 68:-0.93795 69:-0.382381 70:-0.704457 71:-0.927976 72:-0.769583 73:-0.998414 74:-0.781696 75:-0.65367 76:-0.0267925 77:-0.487817 78:-0.830876 79:-0.92581 80:-0.903632 81:-0.953815 82:-0.992497 83:-0.791239 84:-0.607648 85:-0.948695 86:-0.91283 87:-0.929524 88:-0.949901 89:-0.943207 90:-0.950573 91:-0.838424 92:-0.937857 93:-0.277182 94:-0.796119 95:-0.971262 96:-0.807853 97:-0.954348 98:-0.96696 99:-0.955374 100:-0.950865 101:-0.94498 102:-0.963277 103:-0.959981 104:-0.953397 105:-0.957192 106:-0.948363 107:-0.924668 108:-0.917837 109:-0.93657 110:-0.953959 111:-0.976475 112:-0.989465 113:-0.994972 114:-0.998621 115:-0.994565 116:-0.996915 117:-1 118:-0.941194 119:-0.918887 120:-1 121:-0.985687 122:-0.959732 123:-0.960219 124:-0.930525 125:-0.948523 126:-0.944964 127:-0.966777 128:-0.994993 129:-0.939151 130:-0.92196 131:-0.888542 132:-0.806691 133:-0.939841 134:-0.902024 135:-0.927782 136:-0.950578 137:-0.996396 138:-0.969766 139:-0.986048 140:-1 141:-1 142:-1 143:-0.995249 145:-0.886126 146:-0.929912 147:-0.9618 148:-0.943362 149:-0.917531 150:-0.994949 151:-0.896527 152:-0.916736 153:-0.941713 154:-0.931734 155:-0.926247 156:-0.921633 157:-0.988161 158:-0.98781 159:-0.991682 160:-0.992689 161:-0.991746 162:-0.968882 163:-0.916276 164:-0.971 165:-0.987229 166:-0.846017 167:-0.812339 168:-0.815501 
8.3837112426766982 1:-0.695279 2:-0.738277 3:-0.570687 4:-0.615234 5:-0.697402 6:-0.62963 7:-0.576084 8:-0.508186 9:-0.434158 10:-0.38748 11:-0.472683 12:-0.576352 13:-0.73896 14:-0.843012 15:-0.898984 16:-0.925968 17:-0.910916 18:-0.870788 19:-0.856432 20:-0.868891 21:-0.874135 22:-0.762559 23:-0.765031 24:-0.881797 25:-0.899277 26:-0.968218 27:-0.956592 28:-0.939842 29:-0.981245 30:-0.907859 31:-0.9048 32:-0.875856 33:-0.848052 34:-0.829992 35:-0.862829 36:-0.89181 37:-0.943155 38:-0.972928 39:-0.983519 40:-0.992149 41:-0.990964 42:-0.980471 43:-0.969436 44:-0.969616 45:-0.950303 46:-0.887609 47:-0.952252 48:-0.972377 49:-0.768919 50:-0.951358 51:-0.722447 52:-0.39568 53:-0.199805 54:-0.607112 55:-0.649493 56:-0.801063 57:-0.809913 58:-0.722846 59:-0.759764 60:-0.728223 61:-0.646622 62:-0.762821 63:-0.700298 64:-0.721233 65:-0.385015 66:-0.243105 67:0.00690417 68:0.125208 69:-0.527648 70:-0.849806 71:-0.965239 72:-0.931333 73:-0.90222 74:-0.989319 75:-0.978976 76:-0.95458 77:-0.815017 78:-0.928487 79:-0.943312 80:-0.967136 81:-0.942436 82:-0.905119 83:-0.923976 84:-0.925187 85:-0.8836 86:-0.93715 87:-0.902976 88:-0.922086 89:-0.818857 90:-0.665693 91:-0.418006 92:-0.388079 93:-0.703615 94:-0.902892 95:-0.987442 96:-0.952718 97:-0.729227 98:-0.775771 99:-0.544626 100:-0.446678 101:-0.398129 102:-0.278955 103:-0.138637 104:-0.147358 105:-0.188356 106:-0.220122 107:-0.292838 108:-0.477224 109:-0.712895 110:-0.84339 111:-0.897311 112:-0.917817 113:-0.897486 114:-0.852722 115:-0.868437 116:-0.912226 117:-0.926207 118:-0.413275 119:-0.420455 120:-0.8437 121:-0.953531 122:-0.805264 123:-0.820645 124:-0.837583 125:-0.811101 126:-0.818795 127:-0.768605 128:-0.774678 129:-0.788231 130:-0.831443 131:-0.828906 132:-0.889604 133:-0.895715 134:-0.919043 135:-0.949378 136:-0.964686 137:-0.985116 138:-0.985899 139:-0.999209 140:-1 141:-1 142:-1 143:-1 145:-0.780105 146:-0.816437 147:-0.882852 148:-0.818514 149:-0.990387 150:-0.738384 151:-0.70804 152:-0.665837 153:-0.702247 154:-0.77583 155:-0.732755 156:-0.599718 157:-0.802332 158:-0.874132 159:-0.895123 160:-0.923859 161:-0.948206 162:-0.929551 163:-0.907755 164:-0.866884 165:-0.881172 166:-0.987949 167:-0.9503 168:-0.858711 
57.316535350657176 1:-0.756438 2:-0.888768 3:-0.91145 4:-0.903108 5:-0.977585 6:-0.944444 7:-0.842176 8:-0.749836 9:-0.691402 10:-0.660995 11:-0.71946 12:-0.793743 13:-0.875561 14:-0.89948 15:-0.907888 16:-0.923991 17:-0.900191 18:-0.864209 19:-0.865953 20:-0.91185 21:-0.93597 22:-0.755642 23:-0.70698 24:-0.808511 25:-0.997254 26:-0.950378 27:-0.898769 28:-0.953914 29:-0.869139 30:-0.943517 31:-0.994125 32:-0.972046 33:-0.94503 34:-0.916434 35:-0.936962 36:-0.961641 37:-0.981986 38:-0.986804 39:-0.986897 40:-0.993104 41:-0.989705 42:-0.979206 43:-0.970922 44:-0.983979 45:-0.98252 46:-0.797977 47:-0.795045 48:-0.894383 49:-0.425101 50:-0.812158 51:-0.852039 52:-0.712322 53:-0.451881 54:-0.910668 55:-0.790788 56:-0.840547 57:-0.895044 58:-0.951311 59:-0.952837 60:-0.96206 61:-0.977027 62:-0.85 63:-0.593781 64:-0.579452 65:-0.470326 66:-0.412444 67:-0.225628 68:-0.124654 69:-0.66448 70:-0.880814 71:-0.959121 72:-0.961597 73:-0.816464 74:-0.973609 75:-0.993597 76:-0.942332 77:-0.847837 78:-0.994916 79:-0.958464 80:-0.96343 81:-0.954485 82:-0.984993 83:-0.972761 84:-0.970075 85:-0.987248 86:-0.945894 87:-0.854944 88:-0.864559 89:-0.837231 90:-0.734442 91:-0.516881 92:-0.493976 93:-0.748113 94:-0.97695 95:-0.994156 96:-0.968634 97:-0.724396 98:-0.884581 99:-0.827735 100:-0.757119 101:-0.745566 102:-0.649011 103:-0.558838 104:-0.480801 105:-0.541096 106:-0.562949 107:-0.576127 108:-0.697957 109:-0.844485 110:-0.889606 111:-0.907674 112:-0.916092 113:-0.886379 114:-0.84613 115:-0.874487 116:-0.936508 117:-0.963317 118:-0.669574 119:-0.652821 120:-0.912886 121:-0.893989 122:-0.755034 123:-0.722222 124:-0.730414 125:-0.710385 126:-0.748074 127:-0.728073 128:-0.684907 129:-0.738991 130:-0.805581 131:-0.873307 132:-0.905271 133:-0.890607 134:-0.909211 135:-0.917243 136:-0.931575 137:-0.9497 138:-0.977324 139:-0.996918 140:-1 141:-1 142:-1 143:-1 145:-0.935428 146:-0.845223 147:-0.913413 148:-0.969549 149:-0.830508 150:-0.973737 151:-0.914015 152:-0.900968 153:-0.877809 154:-0.805351 155:-0.821692 156:-0.817926 157:-0.93148 158:-0.909001 159:-0.939488 160:-0.953014 161:-0.94366 162:-0.904101 163:-0.880699 164:-0.902249 165:-0.94612 166:-0.702299 167:-0.67952 168:-0.753772 
107.78630041466289 1:-0.938841 2:-0.852781 3:-0.659847 4:-0.712686 5:-0.720835 6:-0.686214 7:-0.734447 8:-0.759659 9:-0.74417 10:-0.727127 11:-0.754451 12:-0.783669 13:-0.863398 14:-0.9441 15:-0.991202 16:-0.99807 17:-0.989513 18:-0.993469 19:-0.991075 20:-0.956976 21:-0.93826 22:-0.993601 23:-0.941949 24:-0.926714 25:-0.902023 26:-0.918596 27:-0.854713 28:-0.893638 29:-0.850384 30:-0.851091 31:-0.898411 32:-0.904076 33:-0.903178 34:-0.913727 35:-0.926012 36:-0.9302 37:-0.961258 38:-0.986307 39:-0.996633 40:-0.999057 41:-0.998755 42:-0.998792 43:-0.99854 44:-0.985647 45:-0.967921 46:-0.91093 47:-0.842793 48:-0.86676 49:-0.656805 50:-0.862079 51:-0.870408 52:-0.683358 53:-0.748901 54:-0.701648 55:-0.858704 56:-0.960516 57:-0.914869 58:-0.674157 59:-0.711127 60:-0.689508 61:-0.669595 62:-0.912821 63:-0.894145 64:-0.859589 65:-0.914688 66:-0.831944 67:-0.770229 68:-0.752355 69:-0.865042 70:-0.73062 71:-0.92436 72:-0.969736 73:-0.914244 74:-0.962872 75:-0.985378 76:-0.988262 77:-0.967181 78:-0.922386 79:-0.984848 80:-0.996788 81:-0.987952 82:-0.889871 83:-0.896534 84:-0.895262 85:-0.896352 86:-0.991529 87:-0.952104 88:-0.942631 89:-0.981626 90:-0.931701 91:-0.901326 92:-0.894103 93:-0.956827 94:-0.878801 95:-0.981598 96:-0.984085 97:-0.995169 98:-0.891189 99:-0.716891 100:-0.689559 101:-0.6534 102:-0.629944 103:-0.580753 104:-0.667214 105:-0.64726 106:-0.65877 107:-0.716711 108:-0.780332 109:-0.869245 110:-0.954482 111:-0.989638 112:-0.998275 113:-0.989418 114:-0.9935 115:-0.99395 116:-0.975671 117:-0.962926 118:-0.743702 119:-0.767633 120:-0.930864 121:-0.940458 122:-0.949664 123:-0.901578 124:-0.892831 125:-0.899284 126:-0.929279 127:-0.959468 128:-0.91005 129:-0.950761 130:-0.974138 131:-0.955599 132:-0.984334 133:-0.994892 134:-0.990168 135:-0.967865 136:-0.966908 137:-0.964602 138:-0.991426 139:-0.99771 140:-1 141:-1 142:-1 143:-1 145:-0.715532 146:-0.659157 147:-0.796265 148:-0.788063 149:-0.82039 150:-0.711111 151:-0.795482 152:-0.767635 153:-0.824438 154:-0.97048 155:-0.911931 156:-0.782731 157:-0.871211 158:-0.965415 159:-0.955962 160:-0.970845 161:-0.995455 162:-0.97536 163:-0.973796 164:-0.965483 165:-0.935539 166:-0.715688 167:-0.62982 168:-0.612483 
11.751266390707746 1:-0.969421 2:-0.959651 3:-0.818626 4:-0.809017 5:-0.970453 6:-0.980453 7:-0.990843 8:-0.949574 9:-0.930742 10:-0.951204 11:-0.945365 12:-0.956257 13:-0.974925 14:-0.9441 15:-0.95276 16:-0.958442 17:-0.947503 18:-0.944223 19:-0.957584 20:-0.9732 21:-0.994752 22:-0.944488 23:-0.966137 24:-0.957742 25:-0.891329 26:-0.887819 27:-0.789764 28:-0.767693 29:-0.99659 30:-0.972614 31:-0.968343 32:-0.978494 33:-0.98696 34:-0.983676 35:-0.997723 36:-0.995752 37:-0.997562 38:-0.982884 39:-0.993586 40:-0.998318 41:-0.997725 42:-0.996894 43:-0.997332 44:-0.99533 45:-0.997242 46:-0.952515 47:-0.94009 48:-0.92572 49:-0.701028 50:-0.811491 51:-0.860397 52:-0.104566 53:-0.775281 54:-0.985256 55:-0.928181 56:-0.786636 57:-0.888047 58:-0.831461 59:-0.763449 60:-0.890825 61:-0.924324 62:-0.858974 63:-0.86305 64:-0.844521 65:-0.761128 66:-0.713278 67:-0.729357 68:-0.874792 69:-0.839738 70:-0.981589 71:-0.979143 72:-0.956256 73:-0.858615 74:-0.830748 75:-0.962347 76:-0.628477 77:-0.869717 78:-0.991527 79:-0.972048 80:-0.939956 81:-0.954819 82:-0.928597 83:-0.908731 84:-0.966334 85:-0.957888 86:-0.985927 87:-0.985768 88:-0.959305 89:-0.951559 90:-0.924848 91:-0.899317 92:-0.920419 93:-0.96954 94:-0.922225 95:-0.978941 96:-0.97026 97:-0.938647 98:-0.97533 99:-0.863724 100:-0.887214 101:-0.915934 102:-0.954802 103:-0.906622 104:-0.818182 105:-0.90839 106:-0.941975 107:-0.937931 108:-0.956152 109:-0.968563 110:-0.967388 111:-0.961819 112:-0.95552 113:-0.936285 114:-0.93188 115:-0.946473 116:-0.972718 117:-0.980913 118:-0.922481 119:-0.937696 120:-0.94899 121:-0.857061 122:-0.658138 123:-0.743484 124:-0.745011 125:-0.755595 126:-0.729774 127:-0.729568 128:-0.735336 129:-0.713571 130:-0.804446 131:-0.873568 132:-0.814392 133:-0.820091 134:-0.839351 135:-0.853749 136:-0.843064 137:-0.897898 138:-0.961679 139:-0.995224 140:-1 141:-1 142:-1 143:-1 145:-0.669284 146:-0.528995 147:-0.680815 148:-0.458587 149:-0.866937 150:-0.926263 151:-0.896041 152:-0.910373 153:-0.919944 154:-0.855627 155:-0.88243 156:-0.954951 157:-0.942601 158:-0.88859 159:-0.927907 160:-0.994294 161:-0.977751 162:-0.970617 163:-0.975501 164:-0.916396 165:-0.990027 166:-0.887971 167:-0.834619 168:-0.92524 
18.537793520401859 1:-0.917918 2:-0.994002 3:-0.943817 4:-0.929992 5:-0.923077 6:-0.955247 7:-0.967142 8:-0.954158 9:-0.925088 10:-0.888925 11:-0.881522 12:-0.910657 13:-0.950786 14:-0.986324 15:-0.99417 16:-0.987293 17:-0.982541 18:-0.978618 19:-0.988652 20:-0.996551 21:-0.995754 22:-0.87393 23:-0.800968 24:-0.786495 25:-0.956792 26:-0.910326 27:-0.854146 28:-0.888889 29:-0.900682 30:-0.94095 31:-0.971081 32:-0.979252 33:-0.974779 34:-0.963969 35:-0.955084 36:-0.953675 37:-0.960768 38:-0.976247 39:-0.991086 40:-0.997252 41:-0.996807 42:-0.995831 43:-0.992265 44:-0.99122 45:-0.997625 46:-0.91655 47:-0.873198 48:-0.832521 49:-0.990657 50:-0.876088 51:-0.693975 52:-0.4865 53:-0.408891 54:-0.283608 55:-0.662763 56:-0.905847 57:-0.934694 58:-0.694757 59:-0.579219 60:-0.655439 61:-0.692568 62:-0.730128 63:-0.988091 64:-0.870548 65:-0.601632 66:-0.383579 67:-0.595139 68:-0.935734 69:-0.926898 70:-0.612403 71:-0.881535 72:-0.832146 73:-0.97833 74:-0.859682 75:-0.921063 76:-0.865272 77:-0.602188 78:-0.70344 79:-0.900731 80:-0.964912 81:-0.991633 82:-0.907298 83:-0.836365 84:-0.858063 85:-0.883749 86:-0.899167 87:-0.985905 88:-0.963967 89:-0.858946 90:-0.635138 91:-0.721061 92:-0.952441 93:-0.953119 94:-0.698268 95:-0.947884 96:-0.878717 97:-0.906522 98:-0.96652 99:-0.941459 100:-0.963149 101:-0.98017 102:-0.988701 103:-0.972844 104:-0.997374 105:-0.932363 106:-0.861059 107:-0.836605 108:-0.928054 109:-0.984421 110:-0.978375 111:-0.977782 112:-0.978931 113:-0.97137 114:-0.972431 115:-0.981363 116:-0.995677 117:-0.994749 118:-0.818314 119:-0.780564 120:-0.999554 121:-0.939313 122:-0.818792 123:-0.863512 124:-0.893755 125:-0.96419 126:-0.987067 127:-0.953488 128:-0.977825 129:-0.957366 130:-0.935345 131:-0.932161 132:-0.95871 133:-0.960911 134:-0.976196 135:-0.953309 136:-0.949205 137:-0.970195 138:-0.989343 139:-1 140:-1 141:-1 142:-1 143:-1 145:-0.972949 146:-0.922403 147:-0.702037 148:-0.841048 149:-0.734885 150:-0.739394 151:-0.836289 152:-0.896542 153:-0.897472 154:-0.930812 155:-0.959219 156:-0.939465 157:-0.957668 158:-0.986676 159:-0.988746 160:-0.995899 161:-0.992584 162:-0.988201 163:-0.995739 164:-0.982317 165:-0.964972 166:-0.893327 167:-0.876607 168:-0.966392 
45.848123972089361 1:-0.94206 2:-0.908942 3:-0.805191 4:-0.83702 5:-0.902191 6:-0.918724 7:-0.929976 8:-0.933202 9:-0.92179 10:-0.92809 11:-0.929098 12:-0.941145 13:-0.96744 14:-0.988845 15:-0.998269 16:-0.997882 17:-0.995531 18:-0.989019 19:-0.984827 20:-0.995468 21:-0.981297 22:-0.925119 23:-0.944022 24:-0.987589 25:-0.930925 26:-0.936909 27:-0.881033 28:-0.921372 29:-0.93393 30:-0.941235 31:-0.96492 32:-0.981983 33:-0.980948 34:-0.995348 35:-0.995591 36:-0.999142 37:-0.995919 38:-0.997635 39:-0.998208 40:-0.999024 41:-0.999082 42:-0.997874 43:-0.992626 44:-0.996804 45:-0.98491 46:-0.785052 47:-0.800901 48:-0.983519 49:-0.852382 50:-0.910554 51:-0.972079 52:-0.816397 53:-0.913043 54:-0.666956 55:-0.762685 56:-0.984814 57:-0.851895 58:-0.827715 59:-0.899779 60:-0.893922 61:-0.940541 62:-0.936538 63:-0.840556 64:-0.776712 65:-0.752967 66:-0.957024 67:-0.746479 68:-0.440443 69:-0.850047 70:-0.812016 71:-0.947442 72:-0.994405 73:-0.745772 74:-0.990337 75:-0.983754 76:-0.849451 77:-0.940328 78:-0.846467 79:-0.889237 80:-0.94465 81:-0.883199 82:-0.835411 83:-0.975811 84:-0.988778 85:-0.935943 86:-0.960924 87:-0.973315 88:-0.960648 89:-0.945249 90:-0.997529 91:-0.786576 92:-0.527584 93:-0.869421 94:-0.908841 95:-0.985703 96:-0.981645 97:-0.935749 98:-0.923348 99:-0.93858 100:-0.967058 101:-0.985198 102:-0.992938 103:-0.959028 104:-0.837873 105:-0.805651 106:-0.775353 107:-0.749602 108:-0.83312 109:-0.934901 110:-0.991629 111:-0.992438 112:-0.988911 113:-0.985891 114:-0.983878 115:-0.990758 116:-0.998273 117:-0.998269 118:-0.937742 119:-0.908895 120:-0.999554 121:-0.93855 122:-0.819211 123:-0.920096 124:-0.919069 125:-0.946732 126:-0.950743 127:-0.93887 128:-0.941702 129:-0.959768 130:-0.965744 131:-0.963542 132:-0.952735 133:-0.969495 134:-0.958889 135:-0.952315 136:-0.928396 137:-0.955931 138:-0.988886 139:-1 140:-1 141:-1 142:-1 143:-1 145:-0.665794 146:-0.784731 147:-0.720713 148:-0.857491 149:-0.831014 150:-0.729293 151:-0.840661 152:-0.893223 153:-0.86236 154:-0.866697 155:-0.996095 156:-0.989676 157:-0.942242 158:-0.953508 159:-0.982548 160:-0.986359 161:-0.986842 162:-0.975013 163:-0.92075 164:-0.942425 165:-0.92143 166:-0.551439 167:-0.534704 168:-0.858711 
17.609684655537048 1:-0.789968 2:-0.921483 3:-0.969466 4:-0.963596 5:-0.917473 6:-0.809671 7:-0.755992 8:-0.707924 9:-0.67821 10:-0.71557 11:-0.818293 12:-0.879109 13:-0.895397 14:-0.881078 15:-0.907393 16:-0.946253 17:-0.949053 18:-0.929178 19:-0.933274 20:-0.943149 21:-0.889689 22:-0.394553 23:-0.275743 24:-0.648345 25:-0.868931 26:-0.961661 27:-0.997489 28:-0.982996 29:-0.965473 30:-0.982741 31:-0.971537 32:-0.962032 33:-0.958773 34:-0.971919 35:-0.996463 36:-0.98571 37:-0.9969 38:-0.994081 39:-0.995184 40:-0.998281 41:-0.998332 42:-0.99609 43:-0.995217 44:-0.989911 45:-0.938446 46:-0.234055 47:-0.18964 48:-0.696147 49:-0.813142 50:-0.684854 51:-0.871602 52:-0.765341 53:-0.576942 54:-0.745013 55:-0.698673 56:-0.490509 57:-0.433236 58:-0.530899 59:-0.57406 60:-0.564073 61:-0.563514 62:-0.479487 63:-0.368177 64:-0.358219 65:-0.465134 66:-0.629891 67:-0.768572 68:-0.618837 69:-0.396439 70:-0.464147 71:-0.848999 72:-0.360122 73:-0.960624 74:-0.913142 75:-0.995986 76:-0.978566 77:-0.921432 78:-0.996272 79:-0.960554 80:-0.854213 81:-0.828983 82:-0.872928 83:-0.890639 84:-0.900665 85:-0.878707 86:-0.844241 87:-0.858912 88:-0.864006 89:-0.880475 90:-0.937542 91:-0.991961 92:-0.715916 93:-0.571183 94:-0.566808 95:-0.930352 96:-0.28671 97:-0.848792 98:-0.968722 99:-0.956334 100:-0.93914 101:-0.788577 102:-0.507062 103:-0.37494 104:-0.325894 105:-0.409247 106:-0.513974 107:-0.611141 108:-0.676884 109:-0.792183 110:-0.822288 111:-0.87304 112:-0.922129 113:-0.922852 114:-0.885209 115:-0.895252 116:-0.941043 117:-0.988068 118:-0.773983 119:-0.746473 120:-1 121:-0.944704 122:-0.74224 123:-0.766118 124:-0.855876 125:-0.836392 126:-0.85388 127:-0.902326 128:-0.917382 129:-0.956165 130:-0.983893 131:-0.936198 132:-0.966277 133:-0.992693 134:-0.938075 135:-0.936334 136:-0.979624 137:-0.993544 138:-0.997348 139:-1 140:-1 141:-1 142:-1 143:-1 145:-0.696771 146:-0.773467 147:-0.991511 148:-0.967113 149:-1 150:-0.875758 151:-0.895555 152:-0.946888 153:-0.976826 154:-0.994465 155:-0.989588 156:-0.989207 157:-0.961614 158:-0.985826 159:-0.970641 160:-0.97722 161:-0.969318 162:-0.937533 163:-0.932041 164:-0.904088 165:-0.794211 166:-0.080116 167:0.0685518 168:-0.3738 
2.7719040553273571 1:-0.889485 2:-0.983097 3:-0.968855 4:-0.969756 5:-0.996943 6:-0.950617 7:-0.955292 8:-0.909627 9:-0.861013 10:-0.846549 11:-0.852056 12:-0.870361 13:-0.878368 14:-0.89469 15:-0.93679 16:-0.96169 17:-0.961506 18:-0.946642 19:-0.955289 20:-0.962428 21:-0.933298 22:-0.606917 23:-0.518659 24:-0.748522 25:-0.955961 26:-0.993207 27:-0.999676 28:-0.993668 29:-0.97613 30:-0.970903 31:-0.994923 32:-0.995562 33:-0.984071 34:-0.965491 35:-0.972236 36:-0.986726 37:-0.988584 38:-0.993062 39:-0.997209 40:-0.998906 41:-0.998154 42:-0.99418 43:-0.992141 44:-0.986812 45:-0.954532 46:-0.410509 47:-0.359459 48:-0.769615 49:-0.955466 50:-0.972844 51:-0.892634 52:-0.657339 53:-0.850513 54:-0.752819 55:-0.900078 56:-0.68489 57:-0.802915 58:-0.939139 59:-0.985262 60:-0.838947 61:-0.67027 62:-0.641026 63:-0.80483 64:-0.849315 65:-0.820475 66:-0.855677 67:-0.949738 68:-0.842659 69:-0.433927 70:-0.93314 71:-0.984705 72:-0.624619 73:-0.985729 74:-0.981747 75:-0.98146 76:-0.959173 77:-0.938339 78:-0.951534 79:-0.971787 80:-0.895231 81:-0.930054 82:-0.970955 83:-0.99939 84:-0.974855 85:-0.925563 86:-0.912283 87:-0.975641 88:-0.997945 89:-0.839736 90:-0.811054 91:-0.908762 92:-0.812302 93:-0.544696 94:-0.936798 95:-0.991499 96:-0.575279 97:-0.901932 98:-0.970925 99:-0.954894 100:-0.907314 101:-0.981846 102:-0.887006 103:-0.995236 104:-0.826058 105:-0.797089 106:-0.844024 107:-0.75809 108:-0.740741 109:-0.813604 110:-0.842606 111:-0.90758 112:-0.938393 113:-0.940338 114:-0.918756 115:-0.930219 116:-0.963577 117:-0.996964 118:-0.846172 119:-0.826803 120:-1 121:-0.99672 122:-0.927433 123:-0.958505 124:-0.975979 125:-0.967995 126:-0.908916 127:-0.874419 128:-0.877504 129:-0.924139 130:-0.894737 131:-0.948047 132:-0.950478 133:-0.954455 134:-0.908119 135:-0.914521 136:-0.95914 137:-0.983446 138:-0.99938 139:-1 140:-1 141:-1 142:-1 143:-1 145:-0.921902 146:-0.959116 147:-0.905772 148:-0.964677 149:-0.944346 150:-0.90404 151:-0.976196 152:-0.99668 153:-0.99368 154:-0.972786 155:-0.885033 156:-0.923041 157:-0.926816 158:-0.962863 159:-0.966074 160:-0.971558 161:-0.941328 162:-0.892996 163:-0.893694 164:-0.875937 165:-0.838969 166:-0.2158 167:-0.105398 168:-0.517147 
41.462970795509086 1:-0.882511 2:-0.87241 3:-0.680611 4:-0.653318 5:-0.651554 6:-0.488683 7:-0.561541 8:-0.559267 9:-0.588693 10:-0.660353 11:-0.809699 12:-0.88176 13:-0.904379 14:-0.953805 15:-0.980532 16:-0.987104 17:-0.977297 18:-0.964444 19:-0.941859 20:-0.908631 21:-0.893602 22:-0.727626 23:-0.675017 24:-0.810875 25:-0.939451 26:-0.984877 27:-0.92849 28:-0.900205 29:-0.859548 30:-0.714021 31:-0.86259 32:-0.869484 33:-0.881003 34:-0.91728 35:-0.978245 36:-0.988464 37:-0.978257 38:-0.994238 39:-0.998899 40:-0.999409 41:-0.998979 42:-0.999867 43:-0.999964 44:-0.980175 45:-0.959464 46:-0.808373 47:-0.826802 48:-0.900476 49:-0.768919 50:-0.90544 51:-0.814291 52:-0.459008 53:-0.21446 54:-0.398092 55:-0.389539 56:-0.278664 57:-0.458892 58:-0.521536 59:-0.609433 60:-1 61:-0.493919 62:-0.673718 63:-0.849156 64:-0.982877 65:-0.797478 66:-0.525337 67:-0.122894 68:-0.14349 69:-0.290534 70:-0.297481 71:-0.838154 72:-0.816887 73:-0.946617 74:-0.967393 75:-0.94763 76:-0.818321 77:-0.688712 78:-0.716997 79:-0.814263 80:-0.781319 81:-0.821118 82:-0.847392 83:-0.858522 84:-0.917498 85:-0.784846 86:-0.87184 87:-0.944714 88:-0.972975 89:-0.947847 90:-0.798697 91:-0.462219 92:-0.472099 93:-0.446166 94:-0.26344 95:-0.910307 96:-0.857226 97:-0.867633 98:-0.89163 99:-0.738484 100:-0.580123 101:-0.590839 102:-0.569915 103:-0.392091 104:-0.337709 105:-0.446918 106:-0.523556 107:-0.680106 108:-0.824181 109:-0.886771 110:-0.947506 111:-0.977035 112:-0.985646 113:-0.973096 114:-0.950478 115:-0.925708 116:-0.923469 117:-0.970188 118:-0.82546 119:-0.761951 120:-0.980784 121:-0.867462 122:-0.790478 123:-0.876543 124:-0.856615 125:-0.81513 126:-0.732801 127:-0.75515 128:-0.861946 129:-0.895917 130:-0.882713 131:-0.863021 132:-0.937334 133:-0.888337 134:-0.922953 135:-0.949551 136:-0.974783 137:-0.992455 138:-0.995418 139:-1 140:-1 141:-1 142:-1 143:-1 145:-0.924084 146:-0.991656 147:-0.833616 148:-0.772838 149:-0.83152 150:-0.60202 151:-0.679864 152:-0.743292 153:-0.891854 154:-0.994465 155:-0.985249 156:-0.818864 157:-0.693274 158:-0.847768 159:-0.950905 160:-0.97031 161:-0.979545 162:-0.992018 163:-0.908394 164:-0.992927 165:-0.896011 166:-0.688462 167:-0.67138 168:-0.743827 
1.1552271992331666 1:-0.842275 2:-0.824427 3:-0.855878 4:-0.973677 5:-0.871625 6:-0.723251 7:-0.768381 8:-0.776686 9:-0.846879 10:-0.962761 11:-1 12:-0.981972 13:-0.968376 14:-0.987333 15:-0.996997 16:-0.993034 17:-0.979859 18:-0.961445 19:-0.963364 20:-0.997602 21:-0.957775 22:-0.905404 23:-0.901002 24:-0.954122 25:-0.686705 26:-0.720227 27:-0.890752 28:-0.942656 29:-0.965473 30:-0.913707 31:-0.955223 32:-0.935633 33:-0.955493 34:-0.986805 35:-0.989098 36:-0.996303 37:-0.993172 38:-0.998105 39:-0.997597 40:-0.998605 41:-0.996068 42:-0.990852 43:-0.984772 44:-0.995137 45:-0.988664 46:-0.949705 47:-0.960586 48:-0.998549 49:0.591405 50:0.65578 51:0.745775 52:-0.274423 53:-0.516365 54:-0.235906 55:-0.516003 56:-0.694761 57:-0.805248 58:-0.83427 59:-0.939573 60:-0.639179 61:-0.629054 62:-0.995513 63:-0.913993 64:-0.85411 65:-0.885757 66:-0.866581 67:-0.82712 68:-0.822715 69:-0.610122 70:-0.475775 71:-0.884038 72:-0.951679 73:0.70296 74:0.920432 75:0.946483 76:-0.216127 77:-0.786176 78:-0.692594 79:-0.847962 80:-0.90808 81:-0.912985 82:-0.929808 83:-0.982315 84:-0.845594 85:-0.905842 86:-0.970351 87:-0.97441 88:-0.957487 89:-0.967706 90:-0.913278 91:-0.921222 92:-0.715916 93:-0.709442 94:-0.453788 95:-0.940205 96:-0.970028 97:-0.892754 98:-0.920705 99:-0.903551 100:-0.902848 101:-0.838849 102:-0.641243 103:-0.605526 104:-0.656712 105:-0.850171 106:-0.995209 107:-0.999469 108:-0.983397 109:-0.966337 110:-0.979072 111:-0.989731 112:-0.997474 113:-0.994522 114:-0.986526 115:-0.995501 116:-0.99961 117:-1 118:-0.989583 119:-0.983371 120:-1 121:-0.978411 122:-0.869757 123:-0.977023 124:-0.946785 125:-0.96419 126:-0.990919 127:-0.927907 128:-0.91166 129:-0.896717 130:-0.865018 131:-0.888281 132:-0.879979 133:-0.865068 134:-0.920653 135:-0.952661 136:-0.981936 137:-0.993544 138:-0.999909 139:-1 140:-1 141:-1 142:-1 143:-1 145:0.635253 146:0.801418 147:0.390492 148:-0.817296 149:-0.94131 150:-0.845455 151:-0.914987 152:-0.853942 153:-0.985253 154:-0.95203 155:-0.997831 156:-0.978414 157:-0.957668 158:-0.936782 159:-0.962486 160:-0.98043 161:-0.958553 162:-0.922841 163:-0.844269 164:-0.959542 165:-0.971175 166:-0.917875 167:-0.955013 168:-0.973937 
0.93535925493355931 1:-0.959764 2:-0.955289 3:-0.825344 4:-0.626435 5:-0.780948 6:-0.766461 7:-0.793698 8:-0.78389 9:-0.743227 10:-0.698234 11:-0.810927 12:-0.900848 13:-0.936003 14:-0.96704 15:-0.977422 16:-0.980092 17:-0.956918 18:-0.92584 19:-0.904628 20:-0.911061 21:-0.935875 22:-0.822741 23:-0.774015 24:-0.856678 25:-0.626301 26:-0.705104 27:-0.962909 28:-0.842744 29:-0.894075 30:-0.800599 31:-0.90788 32:-0.934116 33:-0.925666 34:-0.903916 35:-0.967197 36:-0.992193 37:-0.98515 38:-0.992161 39:-0.996485 40:-0.998002 41:-0.995032 42:-0.991042 43:-0.984711 44:-0.975301 45:-0.970923 46:-0.85923 47:-0.866216 48:-0.901927 49:0.823108 50:0.750952 51:0.930933 52:0.266568 53:-0.699072 54:-0.843018 55:-0.873536 56:-0.583903 57:-0.653644 58:-0.687266 59:-0.547531 60:-0.638405 61:-0.864865 62:-0.678205 63:-0.762488 64:-0.835616 65:-0.911721 66:-0.390635 67:0.0527479 68:0.0360111 69:-0.682287 70:-0.821705 71:-0.954116 72:-0.865209 73:0.756871 74:0.952982 75:1 76:-0.0339372 77:-0.902536 78:-0.976614 79:-0.966301 80:-0.873734 81:-0.908133 82:-0.917826 83:-0.840634 84:-0.928096 85:-0.879004 86:-0.841918 87:-0.918987 88:-0.930304 89:-0.980141 90:-0.711525 91:-0.383441 92:-0.188332 93:-0.738048 94:-0.810395 95:-0.970102 96:-0.887198 97:-0.974879 98:-0.970925 99:-0.834933 100:-0.677275 101:-0.752828 102:-0.928672 103:-0.787518 104:-0.681654 105:-0.596747 106:-0.517168 107:-0.680637 108:-0.841635 109:-0.921269 110:-0.969131 111:-0.987304 112:-0.988172 113:-0.967167 114:-0.936883 115:-0.921247 116:-0.923847 117:-0.970188 118:-0.835877 119:-0.778605 120:-0.980784 121:-0.889122 122:-0.920721 123:-0.89952 124:-0.90983 125:-0.85094 126:-0.741882 127:-0.827243 128:-0.950286 129:-0.999199 130:-0.982305 131:-0.97474 132:-0.942645 133:-0.976731 134:-0.9977 135:-0.99689 136:-0.992847 137:-0.985998 138:-0.995327 139:-1 140:-1 141:-1 142:-1 143:-1 145:0.711169 146:0.789737 147:0.224109 148:-0.955542 149:-0.890716 150:-0.757576 151:-0.766335 152:-0.892116 153:-0.906601 154:-0.946494 155:-0.982213 156:-0.841389 157:-0.735964 158:-0.784266 159:-0.913065 160:-0.95074 161:-0.938098 162:-0.931633 163:-0.936728 164:-0.95162 165:-0.925322 166:-0.771926 167:-0.716367 168:-0.717764 
45.158890387149334 1:-0.628219 2:-0.691385 3:-0.556641 4:-0.639877 5:-0.756495 6:-0.737654 7:-0.785079 8:-0.848068 9:-0.923204 10:-0.900482 11:-0.842234 12:-0.873277 13:-0.926272 14:-0.968552 15:-0.99092 16:-0.994399 17:-0.988798 18:-0.944997 19:-0.923754 20:-0.936679 21:-0.940312 22:-0.813403 23:-0.74499 24:-0.765071 25:-0.973699 26:-0.974953 27:-0.982507 28:-0.955556 29:-0.883632 30:-0.972044 31:-0.970168 32:-0.951108 33:-0.914578 34:-0.754885 35:-0.776486 36:-0.836894 37:-0.915682 38:-0.973346 39:-0.99241 40:-0.997681 41:-0.999423 42:-0.994933 43:-0.989045 44:-0.989398 45:-0.975075 46:-0.775358 47:-0.722748 48:-0.712628 49:-0.433821 50:-0.904772 51:-0.73806 52:-0.129111 53:0.159746 54:-0.562879 55:-0.352069 56:-0.444191 57:-0.651312 58:-0.639513 59:-0.807664 60:-0.507549 61:-0.548649 62:-0.815385 63:-0.89216 64:-0.99589 65:-0.863501 66:-0.771328 67:-0.64982 68:-0.455956 69:-0.655108 70:-0.820736 71:-0.944939 72:-0.948627 73:-0.651427 74:-0.990789 75:-0.999235 76:-0.696861 77:-0.556937 78:-0.83291 79:-0.784744 80:-0.854213 81:-0.915663 82:-0.872928 83:-0.924586 84:-0.729219 85:-0.820878 86:-0.938243 87:-0.957304 88:-0.98388 89:-0.979955 90:-0.946866 91:-0.859526 92:-0.696576 93:-0.706794 94:-0.908246 95:-0.985462 96:-0.959921 97:-0.619324 98:-0.736123 99:-0.541267 100:-0.474037 101:-0.493646 102:-0.584746 103:-0.574083 104:-0.650148 105:-0.825342 106:-0.97498 107:-0.901326 108:-0.944657 109:-0.980248 110:-0.989362 111:-0.995146 112:-0.997413 113:-0.97546 114:-0.92058 115:-0.908532 116:-0.942838 117:-0.984047 118:-0.835635 119:-0.794279 120:-0.99948 121:-0.891603 122:-0.682886 123:-0.596022 124:-0.615669 125:-0.663832 126:-0.516786 127:-0.580731 128:-0.674535 129:-0.682946 130:-0.702813 131:-0.723177 132:-0.760356 133:-0.786464 134:-0.833372 135:-0.866621 136:-0.884971 137:-0.926914 138:-0.961984 139:-0.996124 140:-1 141:-1 142:-1 143:-1 145:-0.881326 146:-0.717146 147:-0.727504 148:-0.811206 149:-0.673666 150:-0.935354 151:-0.969395 152:-0.9574 153:-0.891152 154:-0.54428 155:-0.607375 156:-0.425153 157:-0.607175 158:-0.819986 159:-0.972598 160:-0.990817 161:-0.99701 162:-0.97108 163:-0.956114 164:-0.968595 165:-0.927998 166:-0.671948 167:-0.617823 168:-0.517833 
106.66405432515866 1:-0.911749 2:-0.931298 3:-0.954198 4:-0.849342 5:-0.881814 6:-0.930041 7:-0.864799 8:-0.786509 9:-0.674441 10:-0.485714 11:-0.543892 12:-0.707317 13:-0.854416 14:-0.899984 15:-0.933398 16:-0.955618 17:-0.973066 18:-0.998404 19:-0.97926 20:-0.9866 21:-0.990314 22:-0.981496 23:-0.956807 24:-0.886229 25:-0.916474 26:-0.965176 27:-0.97862 28:-0.867839 29:-0.806905 30:-0.964056 31:-0.889399 32:-0.865539 33:-0.839307 34:-0.690941 35:-0.763888 36:-0.875284 37:-0.945657 38:-0.973033 39:-0.986566 40:-0.995958 41:-0.999142 42:-0.996755 43:-0.994845 44:-1 45:-0.996967 46:-0.891402 47:-0.857883 48:-0.859564 49:-0.45313 50:-0.627262 51:-0.806392 52:-0.699558 53:0.0747435 54:-0.512576 55:-0.483216 56:-0.459377 57:-0.695627 58:-0.761236 59:-0.89462 60:-0.708091 61:-0.664865 62:-0.660897 63:-0.58518 64:-0.736301 65:-0.872404 66:-0.953175 67:-0.912179 68:-0.672022 69:-0.741331 70:-0.698643 71:-0.922136 72:-0.890641 73:-0.572674 74:-0.728801 75:-0.912653 76:-0.803521 77:-0.431626 78:-0.773259 79:-0.806688 80:-0.838152 81:-0.935743 82:-0.929566 83:-0.961988 84:-0.802993 85:-0.836299 86:-0.855855 87:-0.890797 88:-0.932991 89:-0.952673 90:-0.988093 91:-0.962822 92:-0.789474 93:-0.728513 94:-0.85471 95:-0.98266 96:-0.909038 97:-0.947585 98:-0.963877 99:-0.9381 100:-0.929648 101:-0.991342 102:-0.954802 103:-0.997141 104:-0.899573 105:-0.608733 106:-0.385148 107:-0.383024 108:-0.597701 109:-0.789679 110:-0.871817 111:-0.936426 112:-0.958662 113:-0.971182 114:-0.999445 115:-0.982875 116:-0.992595 117:-0.998198 118:-0.983043 119:-0.992653 120:-1 121:-0.959876 122:-0.891779 123:-0.885117 124:-0.95122 125:-0.926589 126:-0.858283 127:-0.698671 128:-0.684907 129:-0.708967 130:-0.757713 131:-0.84388 132:-0.89923 133:-0.877412 134:-0.917261 135:-0.930848 136:-0.926301 137:-0.955781 138:-0.993376 139:-1 140:-1 141:-1 142:-1 143:-1 145:-0.622164 146:-0.725907 147:-0.769949 148:-0.588307 149:-0.470276 150:-0.778788 151:-0.70804 152:-0.637621 153:-0.669944 154:-0.506458 155:-0.598265 156:-0.520882 157:-0.675695 158:-0.770376 159:-0.879954 160:-0.95551 161:-0.975359 162:-0.987159 163:-0.975288 164:-0.993634 165:-0.987108 166:-0.684445 167:-0.65467 168:-0.79904 
49.419788415802905 1:-0.539968 2:-0.619411 3:-0.510229 4:-0.488659 5:-0.63729 6:-0.666667 7:-0.64934 8:-0.633268 9:-0.596231 10:-0.585875 11:-0.702885 12:-0.835101 13:-0.928144 14:-0.931999 15:-0.942585 16:-0.961266 17:-0.961626 18:-0.946642 19:-0.945089 20:-0.950079 21:-0.950093 22:-0.832425 23:-0.788182 24:-0.878842 25:-0.890173 26:-0.940129 27:-0.960479 28:-0.912401 29:-0.923274 30:-0.935815 31:-0.919744 32:-0.914696 33:-0.924885 34:-0.936226 35:-0.987548 36:-0.961641 37:-0.970089 38:-0.999869 39:-0.994173 40:-0.99829 41:-0.999733 42:-0.998235 43:-0.994226 44:-0.989387 45:-0.978231 46:-0.884518 47:-0.864865 48:-0.853064 49:-0.981314 50:-0.723768 51:-0.931668 52:-0.429553 53:-0.915975 54:-0.9549 55:-0.868852 56:-0.984814 57:-0.955685 58:-0.878277 59:-0.914517 60:-0.800232 61:-0.883784 62:-0.845513 63:-0.476679 64:-0.730822 65:-0.991098 66:-0.819436 67:-0.740403 68:-0.78615 69:-0.915651 70:-0.877907 71:-0.977197 72:-0.942014 73:-0.921247 74:-0.738295 75:-0.913417 76:-0.89385 77:-0.874689 78:-0.941366 79:-0.978056 80:-0.984433 81:-0.97992 82:-0.943604 83:-0.962801 84:-0.926226 85:-0.984579 86:-0.917885 87:-0.847964 88:-0.916713 89:-0.972717 90:-0.959223 91:-0.896704 92:-0.907102 93:-0.979605 94:-0.947505 95:-0.997199 96:-0.949117 97:-0.566908 98:-0.7 99:-0.479367 100:-0.403685 101:-0.503142 102:-0.539548 103:-0.570272 104:-0.549065 105:-0.434075 106:-0.411765 107:-0.481698 108:-0.653895 109:-0.810266 110:-0.883153 111:-0.931572 112:-0.956074 113:-0.946191 114:-0.919933 115:-0.925656 116:-0.950255 117:-0.985849 118:-0.818677 119:-0.786834 120:-0.99948 121:-0.851527 122:-0.574664 123:-0.481139 124:-0.566888 125:-0.590421 126:-0.374794 127:-0.279734 128:-0.359442 129:-0.391914 130:-0.460526 131:-0.567187 132:-0.659586 133:-0.664018 134:-0.75069 135:-0.797512 136:-0.811272 137:-0.882658 138:-0.95538 139:-0.996124 140:-1 141:-1 142:-1 143:-1 145:-0.50349 146:-0.440551 147:-0.497453 148:-0.777101 149:-0.797116 150:-0.713131 151:-0.740102 152:-0.682988 153:-0.778792 154:-0.962177 155:-0.991757 156:-0.905209 157:-0.931839 158:-0.950673 159:-0.907682 160:-0.964693 161:-0.978349 162:-0.98473 163:-0.981679 164:-0.961381 165:-0.941377 166:-0.988842 167:-0.963153 168:-0.718793 
3.3183508610243582 1:-0.95118 2:-0.962923 3:-0.924885 4:-0.935592 5:-0.826796 6:-0.762346 7:-0.731215 8:-0.689587 9:-0.724382 10:-0.773355 11:-0.882136 12:-0.942206 13:-0.953967 14:-0.932251 15:-0.958272 16:-0.968232 17:-0.941127 18:-0.935031 19:-0.967274 20:-0.973857 21:-0.993607 22:-0.884306 23:-0.795439 24:-0.786643 25:-0.947905 26:-0.969282 27:-0.988338 28:-0.970918 29:-0.98977 30:-0.979746 31:-0.97861 32:-0.923951 33:-0.938003 34:-0.976148 35:-0.970492 36:-0.961387 37:-0.982305 38:-0.96569 39:-0.979216 40:-0.994876 41:-0.991136 42:-0.99239 43:-0.98339 44:-0.988083 45:-0.986672 46:-0.865693 47:-0.776577 48:-0.759517 49:-0.481781 50:-0.429358 51:-0.217487 52:0.507118 53:-0.273083 54:-0.0494363 55:-0.581577 56:-0.855733 57:-0.983673 58:-1 59:-0.879145 60:-0.861401 61:-0.894595 62:-0.792308 63:-0.722792 64:-0.932877 65:-0.697329 66:-0.717126 67:-0.649268 68:-0.595568 69:-0.791003 70:-0.949612 71:-0.988042 72:-0.971516 73:-0.534355 74:-0.260886 75:-0.334098 76:-0.198775 77:-0.788165 78:-0.673954 79:-0.937304 80:-0.981715 81:-0.955154 82:-0.957643 83:-0.979063 84:-0.977556 85:-0.941578 86:-0.927586 87:-0.906534 88:-0.968708 89:-0.884001 90:-0.876657 91:-0.859425 92:-0.861763 93:-0.9118 94:-0.91003 95:-0.986379 96:-0.973745 97:-0.954589 98:-0.95859 99:-0.909789 100:-0.839196 101:-0.682447 102:-0.467514 103:-0.291091 104:-0.223499 105:-0.362158 106:-0.506521 107:-0.714589 108:-0.816092 109:-0.873418 110:-0.939309 111:-0.974048 112:-0.973016 113:-0.940413 114:-0.919815 115:-0.93386 116:-0.959467 117:-0.981463 118:-0.901042 119:-0.867555 120:-0.941264 121:-0.869656 122:-0.74245 123:-0.796982 124:-0.723577 125:-0.834378 126:-0.852504 127:-0.872425 128:-0.826896 129:-0.843875 130:-0.747278 131:-0.845313 132:-0.965481 133:-0.947219 134:-0.939742 135:-0.995508 136:-0.97052 137:-0.992192 138:-0.984639 139:-0.989732 140:-1 141:-1 142:-1 143:-0.999204 145:-0.804538 146:-0.674593 147:-0.543294 148:-0.791717 149:-0.958007 150:-0.857576 151:-0.975225 152:-0.836791 153:-0.824438 154:-0.863469 155:-0.999132 156:-0.985922 157:-0.884843 158:-0.830191 159:-0.858098 160:-0.966298 161:-0.986364 162:-0.999422 163:-0.90115 164:-0.912576 165:-0.933593 166:-0.779067 167:-0.685518 168:-0.780521 
0.92806162254555202 1:-0.409335 2:-0.396947 3:-0.167634 4:-0.371045 5:-0.527254 6:-0.600823 7:-0.620253 8:-0.614931 9:-0.671614 10:-0.686035 11:-0.699202 12:-0.727466 13:-0.75 14:-0.779234 15:-0.866408 16:-0.916273 17:-0.893219 18:-0.85763 19:-0.867313 20:-0.856805 21:-0.842263 22:-0.256204 23:0.00621977 24:-0.121158 25:-0.931142 26:-0.929702 27:-0.910269 28:-0.976664 29:-0.962916 30:-0.992868 31:-0.988649 32:-0.957936 33:-0.993597 34:-0.940963 35:-0.932311 36:-0.952573 37:-0.987996 38:-0.953147 39:-0.978257 40:-0.993972 41:-0.987896 42:-0.977713 43:-0.992761 44:-0.987271 45:-0.969606 46:-0.0727733 47:0.0882883 48:-0.183844 49:-0.448147 50:-0.379993 51:-0.0712711 52:0.800687 53:-0.642404 54:-0.51778 55:-0.601874 56:-0.887623 57:-0.876385 58:-0.765918 59:-0.918939 60:-0.949671 61:-0.927027 62:-0.852564 63:-0.832617 64:-0.682192 65:-0.710682 66:-0.882617 67:-0.800608 68:-0.640997 69:-0.548266 70:-0.69186 71:-0.916852 72:-0.845371 73:-0.561047 74:-0.264954 75:-0.309633 76:-0.142128 77:-0.942317 78:-0.830876 79:-0.901254 80:-0.964418 81:-0.933735 82:-0.883093 83:-0.939221 84:-0.931837 85:-0.970047 86:-0.931958 87:-0.940472 88:-0.881154 89:-0.872123 90:-0.923613 91:-0.910169 92:-0.884908 93:-0.803999 94:-0.819317 95:-0.973387 96:-0.937442 97:-0.468116 98:-0.490749 99:-0.276392 100:-0.246231 101:-0.369641 102:-0.314972 103:-0.302525 104:-0.256318 105:-0.28339 106:-0.320202 107:-0.289125 108:-0.423585 109:-0.619697 110:-0.771538 111:-0.876214 112:-0.922622 113:-0.899287 114:-0.849426 115:-0.81614 116:-0.767952 117:-0.816761 118:-0.410368 119:-0.264498 120:-0.454041 121:-0.509924 122:-0.362416 123:-0.286694 124:-0.519586 125:-0.529991 126:-0.372592 127:-0.383389 128:-0.334049 129:-0.329063 130:-0.431942 131:-0.19375 132:-0.205523 133:-0.068672 134:-0.374885 135:-0.491361 136:-0.580636 137:-0.533934 138:-0.643043 139:-0.814137 140:-0.931835 141:-0.99875 142:-0.949727 143:-0.755663 145:-0.897906 146:-0.951606 147:-0.955008 148:-0.976248 149:-0.805211 150:-0.90202 151:-0.924702 152:-0.819087 153:-0.830056 154:-0.860701 155:-0.999132 156:-0.989676 157:-0.980269 158:-0.82112 159:-0.900179 160:-0.971826 161:-0.955981 162:-0.906877 163:-0.974009 164:-0.961805 165:-0.991243 166:-0.388083 167:-0.238218 168:-0.414266 
3.9939882384633352 1:-0.458155 2:-0.437296 3:-0.243359 4:-0.436012 5:-0.701477 6:-0.839506 7:-0.889577 8:-0.926654 9:-0.948645 10:-0.913323 11:-0.818293 12:-0.78632 13:-0.796033 14:-0.84755 15:-0.908241 16:-0.948088 17:-0.95233 18:-0.922647 19:-0.900633 20:-0.882948 21:-0.848752 22:-0.372417 23:-0.198341 24:-0.334515 25:-0.983237 26:-0.960421 27:-0.922579 28:-0.947464 29:-0.952685 30:-0.987163 31:-0.990474 32:-0.96628 33:-0.931444 34:-0.916942 35:-0.961964 36:-0.991218 37:-0.970236 38:-0.98764 39:-0.999053 40:-0.999109 41:-0.996772 42:-0.98538 43:-0.976124 44:-0.975344 45:-0.956155 46:-0.207643 47:-0.135135 48:-0.424327 49:-0.967066 50:-0.951914 51:-0.853784 52:-0.70594 53:-0.631656 54:-0.53686 55:-0.979703 56:-0.968109 57:-0.860058 58:-0.765918 59:-0.79661 60:-0.810298 61:-0.967568 62:-0.644872 63:-0.554747 64:-0.750685 65:-0.986647 66:-0.835792 67:-0.851422 68:-0.956787 69:-0.759138 70:-0.641473 71:-0.904894 72:-0.816887 73:-0.973309 74:-0.996214 75:-0.975535 76:-0.943863 77:-0.845848 78:-0.844094 79:-0.96395 80:-0.945639 81:-0.978581 82:-0.925693 83:-0.918081 84:-0.909393 85:-0.97153 86:-0.85927 87:-0.84687 88:-0.912604 89:-0.988122 90:-0.953494 91:-0.949256 92:-0.976855 93:-0.893524 94:-0.728307 95:-0.959766 96:-0.911187 97:-0.513527 98:-0.532159 99:-0.366603 100:-0.407035 101:-0.688032 102:-0.847458 103:-0.989519 104:-0.967837 105:-0.921233 106:-0.815278 107:-0.574536 108:-0.608344 109:-0.747114 110:-0.832926 111:-0.902166 112:-0.949606 113:-0.959325 114:-0.929703 115:-0.882281 116:-0.80839 117:-0.835227 118:-0.509448 119:-0.396944 120:-0.512678 121:-0.379389 122:-0.104866 123:-0.0836763 124:-0.243163 125:-0.364369 126:-0.225096 127:-0.255814 128:-0.160944 129:-0.172938 130:-0.17922 131:-0.0390625 132:-0.171004 133:-0.015891 134:-0.314627 135:-0.486869 136:-0.551156 137:-0.526126 138:-0.658648 139:-0.824441 140:-0.931835 141:-0.99875 142:-0.949727 143:-0.754813 145:-0.702443 146:-0.72549 147:-0.588285 148:-0.767966 149:-0.762712 150:-0.758586 151:-0.950935 152:-0.985062 153:-0.994382 154:-0.997232 155:-0.997397 156:-0.97466 157:-0.864753 158:-0.991212 159:-0.958245 160:-0.994472 161:-0.969617 162:-0.908265 163:-0.874308 164:-0.873532 165:-0.924349 166:-0.610355 167:-0.552699 168:-0.633745 
14.567523813827737 1:-0.972103 2:-0.988004 3:-0.977405 4:-0.974797 5:-0.995925 6:-0.992798 7:-0.949906 8:-0.935822 9:-0.944876 10:-0.97496 11:-1 12:-0.995758 13:-0.990269 14:-0.993509 15:-0.991061 16:-0.997976 17:-0.995471 18:-0.991534 19:-0.991755 20:-0.988702 21:-0.985973 22:-0.940337 23:-0.939876 24:-0.969858 25:-0.973266 26:-0.940217 27:-0.975057 28:-0.987804 29:-0.977195 30:-0.970047 31:-0.957391 32:-0.954143 33:-0.934879 34:-0.928783 35:-0.965647 36:-0.968082 37:-0.975338 38:-0.984739 39:-0.992256 40:-0.996648 41:-0.997962 42:-0.999601 43:-0.990738 44:-0.988276 45:-0.998989 46:-0.95111 47:-0.929279 48:-0.896704 49:-0.845687 50:-0.92523 51:-0.796289 52:-0.536573 53:-0.685393 54:-0.772767 55:-0.85324 56:-0.911921 57:-0.862391 58:-0.91573 59:-0.840825 60:-0.842818 61:-0.847297 62:-0.767949 63:-0.95435 64:-0.939041 65:-0.839763 66:-0.942912 67:-0.866335 68:-0.863158 69:-0.990628 70:-0.752907 71:-0.919911 72:-0.942777 73:-0.957849 74:-0.99384 75:-0.985283 76:-0.928553 77:-0.884137 78:-0.906118 79:-0.941745 80:-0.94638 81:-0.939424 82:-0.960547 83:-0.919301 84:-0.918953 85:-0.89739 86:-0.837683 87:-0.971673 88:-0.961754 89:-0.905345 90:-0.916873 91:-0.972669 92:-0.980025 93:-0.972189 94:-0.763997 95:-0.958027 96:-0.953764 97:-0.988406 98:-0.965639 99:-0.964491 100:-0.966499 101:-0.988549 102:-1 103:-0.947594 104:-0.948146 105:-0.996575 106:-0.935587 107:-0.960743 108:-0.966794 109:-0.994714 110:-0.988141 111:-0.993092 112:-0.992854 113:-0.997899 114:-0.993029 115:-0.978876 116:-0.970522 117:-0.995313 118:-0.801357 119:-0.8221 120:-0.960133 121:-0.980916 122:-0.610738 123:-0.672154 124:-0.691057 125:-0.516562 126:-0.613649 127:-0.433887 128:-0.503577 129:-0.591673 130:-0.34392 131:-0.216667 132:-0.244822 133:-0.0885358 134:-0.413063 135:-0.736006 136:-0.693642 137:-0.695495 138:-0.811443 139:-0.934226 140:-0.977525 141:-1 142:-0.98465 143:-0.982729 145:-0.843805 146:-0.911556 147:-0.988964 148:-0.922655 149:-0.905388 150:-0.906061 151:-0.954821 152:-0.955187 153:-0.877107 154:-0.821033 155:-0.956616 156:-0.947443 157:-0.92 158:-0.951524 159:-0.958408 160:-0.969686 161:-0.971053 162:-0.981838 163:-0.933532 164:-0.915971 165:-0.993189 166:-0.883508 167:-0.838046 168:-0.960219 
14.933033770329535 1:-0.914163 2:-0.931298 3:-0.989618 4:-0.961355 5:-0.983698 6:-0.950617 7:-0.903582 8:-0.861166 9:-0.861955 10:-0.912039 11:-0.979128 12:-0.990456 13:-0.949102 14:-0.959225 15:-0.960534 16:-0.976138 17:-0.980694 18:-0.977796 19:-0.973395 20:-0.966894 21:-0.931581 22:-0.776394 23:-0.692467 24:-0.526596 25:-0.891618 26:-0.924031 27:-0.969388 28:-0.900088 29:-0.953964 30:-0.986878 31:-0.939823 32:-0.924406 33:-0.902085 34:-0.91728 35:-0.959445 36:-0.94537 37:-0.935992 38:-0.972275 39:-0.989072 40:-0.993613 41:-0.994273 42:-0.992491 43:-0.996847 44:-0.999369 45:-0.967002 46:-0.662827 47:-0.603604 48:-0.536908 49:-0.899408 50:-0.840954 51:-0.709772 52:-0.858616 53:-0.799707 54:-0.814397 55:-0.867291 56:-0.88003 57:-0.748105 58:-0.560861 59:-0.547531 60:-0.84127 61:-0.827027 62:-0.520513 63:-0.42309 64:-0.991781 65:-0.997774 66:-0.899294 67:-0.9409 68:-0.791136 69:-0.844424 70:-0.731589 71:-0.910456 72:-0.845371 73:-0.96472 74:-0.973722 75:-0.96789 76:-0.902526 77:-0.882148 78:-0.948822 79:-0.948537 80:-0.952805 81:-0.910643 82:-0.835411 83:-0.797744 84:-0.939318 85:-0.890273 86:-0.757617 87:-0.82429 88:-0.982458 89:-0.98608 90:-0.900921 91:-0.998593 92:-0.941503 93:-0.887167 94:-0.724738 95:-0.951169 96:-0.91142 97:-0.920773 98:-0.919824 99:-0.961612 100:-0.9933 101:-0.938277 102:-0.957627 103:-0.941877 104:-0.923203 105:-0.892123 106:-0.984562 107:-0.994695 108:-0.992337 109:-0.988037 110:-0.999302 111:-0.98413 112:-0.99002 113:-0.983039 114:-0.966898 115:-0.941961 116:-0.923091 117:-0.953764 118:-0.925872 119:-0.863636 120:-0.743859 121:-0.958015 122:-0.614094 123:-0.491084 124:-0.456024 125:-0.392122 126:-0.413319 127:-0.487043 128:-0.479256 129:-0.481185 130:-0.272232 131:0.03125 132:-0.109931 133:-0.188422 134:-0.446182 135:-0.689012 136:-0.650289 137:-0.707508 138:-0.832575 139:-0.924884 140:-0.98282 141:-0.999915 142:-0.989664 143:-0.994621 145:-0.925829 146:-0.935753 147:-0.927844 148:-0.77162 149:-0.898305 150:-0.852525 151:-0.897498 152:-0.915353 153:-0.801264 154:-0.95941 155:-0.952278 156:-0.824496 157:-0.815247 158:-0.918639 159:-0.974229 160:-0.947753 161:-0.965789 162:-0.943201 163:-0.996165 164:-0.969727 165:-0.94235 166:-0.881723 167:-0.861183 168:-0.695473 
10.943550986082485 1:-0.55794 2:-0.562704 3:-0.416794 4:-0.568188 5:-0.630158 6:-0.536008 7:-0.678427 8:-0.643746 9:-0.657479 10:-0.724559 11:-0.796194 12:-0.888123 13:-0.943114 14:-0.815283 15:-0.810723 16:-0.881539 17:-0.903706 18:-0.885108 19:-0.845552 20:-0.837625 21:-0.856005 22:-0.655339 23:-0.658604 24:-0.975473 25:-0.981936 26:-0.973181 27:-0.966472 28:-0.99226 29:-0.940963 30:-0.828555 31:-0.953626 32:-0.921827 33:-0.93363 34:-0.988328 35:-0.940063 36:-0.936514 37:-0.918822 38:-0.996316 39:-0.971934 40:-0.987603 41:-0.991265 42:-0.987797 43:-0.976083 44:-0.978208 45:-0.97457 46:-0.875948 47:-0.943694 48:-0.909239 49:-0.787605 50:-0.901381 51:-0.83964 52:-0.266568 53:-0.933561 54:-0.810061 55:-0.882904 56:-0.834472 57:-0.83207 58:-0.917603 59:-0.732498 60:-0.988386 61:-0.747973 62:-0.537179 63:-0.403903 64:-0.786986 65:-0.801187 66:-0.793457 67:-0.732671 68:-0.302493 69:-0.522024 70:-0.575581 71:-0.869021 72:-0.862157 73:-0.982294 74:-0.989771 75:-0.984136 76:-0.883133 77:-0.986574 78:-0.896628 79:-0.968391 80:-0.964418 81:-0.968206 82:-0.958369 83:-0.906088 84:-0.975894 85:-0.942023 86:-0.862003 87:-0.800479 88:-0.927143 89:-0.941908 90:-0.935745 91:-0.946543 92:-0.706246 93:-0.761356 94:-0.716708 95:-0.950927 96:-0.923327 97:-0.591304 98:-0.630837 99:-0.511516 100:-0.534338 101:-0.604245 102:-0.548023 103:-0.551215 104:-0.563505 105:-0.511986 106:-0.511845 107:-0.491777 108:-0.651767 109:-0.770483 110:-0.755494 111:-0.830844 112:-0.893297 113:-0.90334 114:-0.865081 115:-0.789582 116:-0.767763 117:-0.82571 118:-0.636628 119:-0.681818 120:-1 121:-0.374046 122:-0.312081 123:-0.441701 124:-0.484848 125:-0.467323 126:-0.357182 127:-0.227243 128:-0.250358 129:-0.188951 130:-0.408348 131:-0.38125 132:-0.502921 133:-0.443246 134:-0.469181 135:-0.50933 136:-0.493642 137:-0.60991 138:-0.737971 139:-0.877889 140:-0.93319 141:-0.997841 142:-0.90658 143:-0.683465 145:-0.954625 146:-0.775553 147:-0.675722 148:-0.91961 149:-0.858335 150:-0.812121 151:-0.859607 152:-0.80249 153:-0.84059 154:-0.961255 155:-0.829501 156:-0.823557 157:-0.768969 158:-0.95776 159:-0.879302 160:-0.913249 161:-0.956818 162:-0.946903 163:-0.844908 164:-0.915971 165:-0.940647 166:-0.906271 167:-0.98629 168:-0.676269 
72.878411656888034 1:-0.994635 2:-0.997819 3:-0.965191 4:-0.823579 5:-0.950076 6:-0.987654 7:-0.917587 8:-0.979044 9:-0.903416 10:-0.774639 11:-0.740945 12:-0.707317 13:-0.764222 14:-0.976367 15:-0.948662 16:-0.985739 17:-0.899416 18:-0.80403 19:-0.759871 20:-0.798476 21:-0.828332 22:-0.713446 23:-0.619212 24:-0.529846 25:-0.97341 26:-0.977316 27:-0.980078 28:-0.961771 29:-0.997442 30:-0.998574 31:-0.951002 32:-0.971439 33:-0.996252 34:-0.920832 35:-0.889188 36:-0.900369 37:-0.906459 38:-0.988372 39:-0.985197 40:-0.997486 41:-0.98107 42:-0.954762 43:-0.935585 44:-0.938152 45:-0.922177 46:-0.523462 47:-0.501802 48:-0.492572 49:-0.970258 50:-0.915724 51:-0.861774 52:-0.776141 53:-0.836346 54:-0.634866 55:-0.739266 56:-0.442673 57:-0.785423 58:-0.969101 59:-0.938836 60:-0.670151 61:-0.984459 62:-0.817949 63:-0.863712 64:-0.835616 65:-0.923591 66:-0.932008 67:-0.982878 68:-0.963435 69:-0.776945 70:-0.674419 71:-0.92881 72:-0.960834 73:-0.996564 74:-0.992258 75:-0.978211 76:-0.87854 77:-0.965191 78:-0.836977 79:-0.910136 80:-0.845812 81:-0.992637 82:-0.928113 83:-0.986381 84:-0.830216 85:-0.993624 86:-0.939063 87:-0.959083 88:-0.954168 89:-0.972532 90:-0.966075 91:-0.986334 92:-0.989062 93:-0.818302 94:-0.745855 95:-0.968315 96:-0.96178 97:-0.992271 98:-0.985903 99:-1 100:-0.85483 101:-0.922637 102:-0.738701 103:-0.652215 104:-0.668526 105:-0.782534 106:-0.756721 107:-0.809019 108:-0.749681 109:-0.81277 110:-0.993373 111:-0.971994 112:-0.988418 113:-0.918649 114:-0.819293 115:-0.772354 116:-0.776833 117:-0.841477 118:-0.855136 119:-0.78605 120:-0.850634 121:-0.812214 122:-0.598993 123:-0.548697 124:-0.51663 125:-0.558639 126:-0.838195 127:-0.966777 128:-0.997139 129:-0.964772 130:-0.686933 131:-0.513542 132:-0.188529 133:-0.253121 134:-0.517019 135:-0.792674 136:-0.794798 137:-0.625225 138:-0.444733 139:-0.572034 140:-0.70197 141:-0.897348 142:-0.954873 143:-0.829558 145:-0.985166 146:-0.961619 147:-0.941426 148:-0.936663 149:-0.976221 150:-0.926263 151:-0.866408 152:-0.822407 153:-0.922753 154:-0.624539 155:-0.671584 156:-0.779446 157:-0.657758 158:-0.937916 159:-0.96901 160:-0.938837 161:-0.854545 162:-0.777546 163:-0.762676 164:-0.798557 165:-0.778399 166:-0.31667 167:-0.200514 168:-0.183128 
49.856962888976504 1:-0.770386 2:-0.692475 3:-0.651298 4:-0.66564 5:-0.721854 6:-0.768004 7:-0.80878 8:-0.752456 9:-0.651826 10:-0.552488 11:-0.639042 12:-0.758218 13:-0.865269 14:-0.883094 15:-0.876866 16:-0.89387 17:-0.89012 18:-0.865757 19:-0.859493 20:-0.957961 21:-0.941314 22:-0.88984 23:-0.982982 24:-0.997091 25:-0.801445 26:-0.757561 27:-0.827988 28:-0.821167 29:-0.844416 30:-0.910284 31:-0.955223 32:-0.931688 33:-0.869134 34:-0.768756 35:-0.811372 36:-0.891216 37:-0.96219 38:-0.965167 39:-0.961708 40:-0.972543 41:-0.971883 42:-0.952459 43:-0.927865 44:-0.98445 45:-0.927079 46:-0.918095 47:-0.993651 48:-0.999501 49:-0.87901 50:-0.964033 51:-0.99814 52:-0.696613 53:-0.829995 54:-0.969644 55:-0.753318 56:-0.790433 57:-0.904373 58:-0.777154 59:-0.878408 60:-0.898568 61:-0.843919 62:-0.796154 63:-0.971551 64:-0.59726 65:-0.513353 66:-0.737011 67:-0.832919 68:-0.756787 69:-0.736645 70:-0.790698 71:-0.982481 72:-0.933876 73:-0.926136 74:-0.980277 75:-0.992546 76:-0.856086 77:-0.91099 78:-0.966446 79:-0.932863 80:-0.93279 81:-0.968541 82:-0.908266 83:-0.969306 84:-0.99335 85:-0.96634 86:-0.947261 87:-0.983579 88:-0.88874 89:-0.857275 90:-0.913053 91:-0.91871 92:-0.914077 93:-0.911932 94:-0.927578 95:-0.987925 96:-0.910781 97:-0.742995 98:-0.750661 99:-0.646833 100:-0.661642 101:-0.717637 102:-0.738701 103:-0.78323 104:-0.684936 105:-0.585616 106:-0.562949 107:-0.580902 108:-0.696041 109:-0.848936 110:-0.885943 111:-0.885736 112:-0.910424 113:-0.905891 114:-0.884974 115:-0.873872 116:-0.936886 117:-0.953409 118:-0.907461 119:-0.997159 120:-1 121:-1 122:-0.933568 123:-0.948388 124:-0.960042 125:-0.979017 126:-0.988391 127:-0.98641 128:-0.981916 129:-0.983662 130:-0.973897 131:-0.949056 132:-0.927642 133:-0.936152 134:-0.944572 135:-0.946441 136:-0.938584 137:-0.948536 138:-0.967612 139:-0.986975 140:-0.998799 141:-1 142:-1 143:-1 145:-0.296684 146:-0.607843 147:-0.699491 148:-0.556638 149:-0.64938 150:-0.663131 151:-0.823172 152:-0.812448 153:-0.764045 154:-0.756458 155:-0.817787 156:-0.712811 157:-0.972377 158:-0.970234 159:-0.78992 160:-0.801355 161:-0.766029 162:-0.746544 163:-0.695782 164:-0.974254 165:-0.909268 166:-0.876813 167:-0.987147 168:-0.967936 
9.534555253562683 1:-0.674893 2:-0.665213 3:-0.612214 4:-0.735088 5:-0.816607 6:-0.875 7:-0.875034 8:-0.823838 9:-0.748881 10:-0.594864 11:-0.718846 12:-0.913043 13:-0.913174 14:-0.931999 15:-0.983429 16:-0.963902 17:-0.954952 18:-0.935225 19:-0.948914 20:-0.958749 21:-0.889785 22:-0.769131 23:-0.889426 24:-0.99276 25:-0.684104 26:-0.728261 27:-0.780693 28:-0.877221 29:-0.891517 30:-0.947796 31:-0.963095 32:-0.941702 33:-0.911299 34:-0.803941 35:-0.841607 36:-0.923759 37:-0.970825 38:-0.977083 39:-0.986407 40:-0.984706 41:-0.983293 42:-0.965845 43:-0.955359 44:-0.925797 45:-0.892763 46:-0.866395 47:-0.971199 48:-0.999215 49:-0.792899 50:-0.995608 51:-0.983307 52:-0.970054 53:-0.829018 54:-0.994796 55:-0.836066 56:-0.843584 57:-0.618659 58:-0.599251 59:-0.909359 60:-0.948897 61:-0.928378 62:-0.912821 63:-0.740986 64:-0.59863 65:-0.640208 66:-0.74567 67:-0.927644 68:-0.485319 69:-0.606373 70:-0.784884 71:-0.895717 72:-0.809766 73:-0.859408 74:-0.981408 75:-0.974197 76:-0.997448 77:-0.931377 78:-0.991188 79:-0.951149 80:-0.930813 81:-0.842704 82:-0.858889 83:-0.985364 84:-0.979634 85:-0.987841 86:-0.976363 87:-0.934656 88:-0.89032 89:-0.910542 90:-0.946754 91:-0.999799 92:-0.751585 93:-0.845451 94:-0.912112 95:-0.957255 96:-0.832481 97:-0.629952 98:-0.628194 99:-0.565259 100:-0.654941 101:-0.78355 102:-0.850989 103:-0.868509 104:-0.824746 105:-0.722603 106:-0.605536 107:-0.650928 108:-0.919966 109:-0.848936 110:-0.890827 111:-0.992532 112:-0.98275 113:-0.978837 114:-0.971371 115:-0.993847 116:-0.958428 117:-0.885227 118:-0.743459 119:-0.930692 120:-1 121:-1 122:-0.957556 123:-0.968514 124:-0.962167 125:-0.986193 126:-0.993293 127:-0.996408 128:-0.992534 129:-0.991956 130:-0.987267 131:-0.956836 132:-0.943508 133:-0.937784 134:-0.941295 135:-0.954864 136:-0.973338 137:-0.968468 138:-0.993498 139:-0.996545 140:-0.999165 141:-1 142:-1 143:-1 145:0.272251 146:-0.259074 147:-0.281834 148:-0.791717 149:-0.804199 150:-0.808081 151:-0.864464 152:-0.866667 153:-0.994382 154:-0.847786 155:-0.799566 156:-0.778508 157:-0.953722 158:-0.963997 159:-0.84505 160:-0.850036 161:-0.863397 162:-0.829603 163:-0.959523 164:-0.485359 165:-0.693748 166:-0.606338 167:-0.858398 168:-0.959191 
8.6312165943768449 1:-0.904506 2:-0.976009 3:-0.961527 4:-0.931112 5:-0.906266 6:-0.894033 7:-0.934285 8:-0.929928 9:-0.904358 10:-0.958266 11:-0.921424 12:-0.846235 13:-0.778443 14:-0.814527 15:-0.893543 16:-0.930015 17:-0.935407 18:-0.930581 19:-0.911173 20:-0.91671 21:-0.948566 22:-0.87981 23:-0.906444 24:-0.989851 25:-0.882659 26:-0.970699 27:-0.953353 28:-0.944063 29:-0.952899 30:-0.962773 31:-0.992642 32:-0.990252 33:-0.957992 34:-0.964984 35:-0.969911 36:-0.967489 37:-0.932951 38:-0.942067 39:-0.975313 40:-0.98785 41:-0.988611 42:-0.986671 43:-0.972532 44:-0.941358 45:-0.965807 46:-0.948862 47:-0.977548 48:-0.998716 49:-0.914513 50:-0.958362 51:-0.981447 52:-0.666667 53:-1 54:-0.959237 55:-0.917252 56:-0.946849 57:-0.714286 58:-0.822097 59:-0.970523 60:-0.84669 61:-0.772297 62:-0.708974 63:-0.770096 64:-1 65:-0.873145 66:-0.992623 67:-0.908036 68:-0.730748 69:-0.871603 70:-0.994186 71:-0.913237 72:-0.743642 73:-0.933206 74:-0.961629 75:-0.981651 76:-0.853024 77:-0.979612 78:-0.976275 79:-0.981714 80:-0.998517 81:-0.874163 82:-0.950865 83:-0.984145 84:-0.972984 85:-0.954181 86:-0.92335 87:-0.951215 88:-0.998578 89:-0.946733 90:-0.966749 91:-0.918509 92:-0.837508 93:-0.934843 94:-0.985575 95:-0.96933 96:-0.743262 97:-0.886957 98:-0.877533 99:-0.918426 100:-0.9933 101:-0.934925 102:-0.887712 103:-0.915674 104:-0.860847 105:-0.863014 106:-0.95901 107:-0.929973 108:-0.776926 109:-0.697037 110:-0.776073 111:-0.878267 112:-0.927674 113:-0.927505 114:-0.913694 115:-0.880025 116:-0.895314 117:-0.931818 118:-0.835998 119:-0.927851 120:-1 121:-1 122:-0.976012 123:-0.979885 124:-0.997875 125:-0.992817 126:-0.995098 127:-0.982818 128:-0.989377 129:-0.991706 130:-0.986629 131:-0.99222 132:-0.984134 133:-0.998368 134:-0.996723 135:-0.991577 136:-0.965246 137:-0.980068 138:-0.974114 139:-0.99043 140:-0.999634 141:-1 142:-1 143:-1 145:-0.431065 146:-0.653734 147:-0.582343 148:-0.764921 149:-0.845687 150:-0.856061 151:-0.960165 152:-0.948548 153:-0.769663 154:-0.908672 155:-0.982646 156:-0.935242 157:-0.92574 158:-0.933948 159:-0.945197 160:-0.95132 161:-0.902632 162:-0.917751 163:-0.737111 164:-0.511954 165:-0.784967 166:-0.730864 167:-0.845544 168:-0.927126 
24.779970349165627 1:-0.943133 2:-0.954198 3:-0.934656 4:-0.973677 5:-0.998981 6:-0.951646 7:-0.903043 8:-0.815324 9:-0.780919 10:-0.894061 11:-0.984039 12:-0.97667 13:-0.946108 14:-0.943595 15:-0.973536 16:-0.996941 17:-0.979263 18:-0.997339 19:-0.869183 20:-0.733841 21:-0.772795 22:-0.93757 23:-0.963718 24:-0.986 25:-0.944942 26:-0.932656 27:-0.91286 28:-0.964468 29:-0.936701 30:-0.937669 31:-0.942218 32:-0.92213 33:-0.90349 34:-0.953481 35:-0.976888 36:-0.971048 37:-0.961602 38:-0.999713 39:-0.995948 40:-0.999802 41:-0.994165 42:-0.999424 43:-0.894014 44:-0.738039 45:-0.811998 46:-0.952515 47:-0.967849 48:-0.987088 49:-0.974618 50:-0.960141 51:-0.920279 52:-0.77025 53:-0.398144 54:-0.710321 55:-0.709602 56:-0.807137 57:-0.729446 58:-0.810861 59:-0.859985 60:-0.580333 61:-0.175 62:-0.194231 63:-0.69302 64:-0.908904 65:-0.623145 66:-0.955099 67:-0.932063 68:-0.854848 69:-0.803187 70:-0.599806 71:-0.801724 72:-0.714649 73:-0.996498 74:-0.993049 75:-0.997324 76:-0.933657 77:-0.710094 78:-0.898322 79:-0.891327 80:-0.917964 81:-0.925033 82:-0.963936 83:-0.911576 84:-0.831255 85:-0.69573 86:-0.71007 87:-0.901471 88:-0.985934 89:-0.876392 90:-0.911481 91:-0.933682 92:-0.919784 93:-0.869951 94:-0.676853 95:-0.902676 96:-0.74698 97:-0.961353 98:-0.960352 99:-0.977447 100:-0.917365 101:-0.960061 102:-0.986582 103:-0.992854 104:-0.889728 105:-0.839041 106:-0.881821 107:-0.98939 108:-0.938272 109:-0.895952 110:-0.941053 111:-0.975728 112:-0.994209 113:-0.992495 114:-0.990793 115:-0.917966 116:-0.828893 117:-0.852983 118:-0.977229 119:-0.98255 120:-1 121:-1 122:-0.998637 123:-0.980431 124:-0.997367 125:-0.999664 126:-0.995322 127:-0.985797 128:-0.982743 129:-0.972878 130:-0.977881 131:-0.88125 132:-0.826208 133:-0.868473 134:-0.887534 135:-0.931755 136:-0.953324 137:-0.956006 138:-0.993986 139:-0.994896 140:-0.99298 141:-0.99911 142:-1 143:-1 145:-0.942408 146:-0.922403 147:-0.929542 148:-0.904994 149:-0.80167 150:-0.857576 151:-0.779451 152:-0.663071 153:-0.792135 154:-0.976937 155:-0.888937 156:-0.896762 157:-0.72843 158:-0.814883 159:-1 160:-0.983773 161:-0.907536 162:-0.991324 163:-0.683852 164:-0.375584 165:-0.719776 166:-0.869226 167:-0.592973 168:-0.683299 
3.3791618926262763 1:-0.969689 2:-0.906761 3:-0.860763 4:-0.840381 5:-0.871625 6:-0.869856 7:-0.902505 8:-0.95907 9:-0.975501 10:-0.880578 11:-0.815224 12:-0.842524 13:-0.877994 14:-0.923428 15:-0.973395 16:-0.985739 17:-0.987963 18:-0.977505 19:-0.932934 20:-0.887283 21:-0.863829 22:-0.794725 23:-0.917243 24:-0.990285 25:-0.998699 26:-0.98086 27:-0.991092 28:-0.986749 29:-0.989344 30:-0.995578 31:-0.996977 32:-0.99268 33:-0.987038 34:-0.9616 35:-0.931536 36:-0.99376 37:-0.969844 38:-0.9948 39:-0.999372 40:-0.999407 41:-0.999593 42:-0.996274 43:-0.953295 44:-0.915195 45:-0.90894 46:-0.846024 47:-0.965541 48:-0.999742 49:0.289941 50:-0.5819 51:-0.413666 52:0.291114 53:0.498779 54:0.552472 55:0.706479 56:0.661352 57:0.379592 58:0.47191 59:0.470892 60:0.656214 61:1 62:1 63:0.796229 64:0.380137 65:0.278932 66:-0.055805 67:-0.121237 68:-0.3241 69:-0.469541 70:-0.371124 71:-0.604839 72:-0.0961343 73:0.995772 74:-0.575768 75:-0.336009 76:0.924471 77:0.949279 78:0.867141 79:0.891327 80:0.878428 81:0.804552 82:0.877042 83:0.85527 84:0.901912 85:1 86:1 87:0.941977 88:0.780008 89:0.740163 90:0.638733 91:0.385048 92:-0.335447 93:-0.503377 94:-0.396089 95:-0.710394 96:0.407993 97:-0.974396 98:-0.99163 99:-0.924184 100:-0.878839 101:-0.8975 102:-0.890537 103:-0.873273 104:-0.90023 105:-0.929366 106:-0.905244 107:-0.817507 108:-0.778203 109:-0.814439 110:-0.912278 111:-0.969473 112:-0.986447 113:-0.987992 114:-0.982789 115:-0.956214 116:-0.915722 117:-0.904403 118:-0.892139 119:-0.992255 120:-1 121:-1 122:-0.998283 123:-0.996335 124:-0.987712 125:-0.986795 126:-0.999794 127:-0.987542 128:-0.995172 129:-0.988491 130:-0.975726 131:-0.992969 132:-0.969995 133:-0.992196 134:-0.99448 135:-0.977021 136:-0.967486 137:-0.998498 138:-0.998049 139:-0.993837 140:-0.99064 141:-0.99678 142:-1 143:-1 145:-0.928447 146:-0.890697 147:-0.847199 148:-0.792326 149:-0.94131 150:-0.925758 151:-0.975225 152:-0.973997 153:-0.995787 154:-0.849631 155:-0.968764 156:-0.975598 157:-0.912825 158:-0.890858 159:-0.970478 160:-0.989658 161:-0.990789 162:-0.960553 163:-0.886238 164:-0.794313 165:-0.831671 166:-0.667931 167:-0.893745 168:-0.967936 
52.669636306856454 1:-0.919528 2:-0.970556 3:-0.943206 4:-0.990479 5:-0.91136 6:-0.943416 7:-0.905737 8:-0.851997 9:-0.880801 10:-0.960835 11:-0.963168 12:-0.819194 13:-0.656437 14:-0.747471 15:-0.863016 16:-0.928133 17:-0.925873 18:-0.92613 19:-0.930554 20:-0.957698 21:-0.926428 22:-0.913359 23:-0.899447 24:-0.924867 25:-0.881214 26:-0.927694 27:-0.936832 28:-0.992612 29:-0.966539 30:-0.997005 31:-0.920201 32:-0.857649 33:-0.800578 34:-0.80225 35:-0.923977 36:-0.947489 37:-0.756336 38:-0.849772 39:-0.943309 40:-0.986042 41:-0.987939 42:-0.988885 43:-0.989437 44:-0.999711 45:-0.985692 46:-0.970497 47:-0.960473 48:-0.97023 49:-0.944838 50:-0.978764 51:-0.989093 52:-0.641139 53:-0.817294 54:-0.743278 55:-0.484778 56:-0.296887 57:-0.509038 58:-0.718165 59:-0.955785 60:-0.922571 61:-0.95473 62:-0.915385 63:-0.978829 64:-0.967123 65:-0.971068 66:-0.955099 67:-0.674676 68:-0.758449 69:-0.949391 70:-0.939438 71:-0.964127 72:-0.828077 73:-0.982096 74:-0.995931 75:-0.989583 76:-0.892319 77:-0.953754 78:-0.934926 79:-0.827847 80:-0.738572 81:-0.83166 82:-0.898584 83:-0.964631 84:-0.955736 85:-0.956999 86:-0.954092 87:-0.980021 88:-0.996681 89:-0.999443 90:-0.99663 91:-0.851487 92:-0.87825 93:-0.987154 94:-0.968176 95:-0.985172 96:-0.868494 97:-0.921739 98:-0.967401 99:-0.974088 100:-0.997767 101:-0.912023 102:-0.898305 103:-0.959981 104:-0.991467 105:-0.866438 106:-0.820602 107:-0.799469 108:-0.776926 109:-0.738768 110:-0.837461 111:-0.902166 112:-0.943691 113:-0.933358 114:-0.906161 115:-0.914684 116:-0.941799 117:-0.905114 118:-0.925388 119:-0.919279 120:-1 121:-0.935687 122:-0.988255 123:-0.959534 124:-0.830377 125:-0.885407 126:-0.933957 127:-0.984718 128:-0.95422 129:-0.907126 130:-0.732305 131:-0.536458 132:-0.561869 133:-0.609535 134:-0.770009 135:-0.901866 136:-0.872254 137:-0.867868 138:-0.96749 139:-0.996533 140:-0.991133 141:-0.995758 142:-0.985925 143:-0.98188 145:-0.992147 146:-0.929912 147:-0.95416 148:-0.909257 149:-0.900329 150:-0.983838 151:-0.771193 152:-0.55574 153:-0.582865 154:-0.658672 155:-0.944469 156:-0.969967 157:-0.467982 158:-0.61871 159:-0.792856 160:-0.90888 161:-0.89988 162:-0.899936 163:-1 164:-0.977649 165:-0.972513 166:-0.948672 167:-0.974722 168:-0.914952 
1.442796861249513 1:-0.837446 2:-0.89422 3:-0.931603 4:-0.980958 5:-0.933265 6:-0.924383 7:-0.881497 8:-0.80812 9:-0.683863 10:-0.654575 11:-0.816452 12:-0.944327 13:-0.917665 14:-0.8536 15:-0.884498 16:-0.91872 17:-0.881063 18:-0.867692 19:-0.880913 20:-0.912769 21:-0.944368 22:-0.963165 23:-0.988597 24:-0.999843 25:-0.657803 26:-0.907845 27:-0.910593 28:-0.774729 29:-0.726343 30:-0.835544 31:-0.895103 32:-0.880938 33:-0.757008 34:-0.636471 35:-0.691208 36:-0.75596 37:-0.75771 38:-0.818833 39:-0.886516 40:-0.94684 41:-0.917277 42:-0.877685 43:-0.848769 44:-0.852951 45:-0.924383 46:-0.952655 47:-0.993813 48:-0.999999 49:-0.170975 50:-0.263919 51:-0.0874357 52:-0.831124 53:-0.684416 54:-0.982654 55:-0.954723 56:-0.796507 57:-0.968513 58:-0.990637 59:-0.740604 60:-0.539295 61:-0.466892 62:-0.822436 63:-0.933179 64:-0.677397 65:-0.864985 66:-1 67:-0.674676 68:-0.772853 69:-0.950328 70:-0.840116 71:-0.807564 72:-0.568159 73:-0.614958 74:-0.58481 75:-0.367737 76:-0.789742 77:-0.965191 78:-0.976275 79:-0.989551 80:-0.893748 81:-0.985274 82:-0.988866 83:-0.889826 84:-0.835619 85:-0.826512 86:-0.952589 87:-0.996442 88:-0.88953 89:-0.965293 90:-0.978656 91:-0.756632 92:-0.903614 93:-0.989935 94:-0.821102 95:-0.835008 96:-0.842007 97:-0.926329 98:-0.944934 99:-0.825816 100:-0.696259 101:-0.714844 102:-0.798729 103:-0.899952 104:-0.994749 105:-0.974743 106:-0.922811 107:-0.992042 108:-0.90464 109:-0.950758 110:-0.971747 111:-0.962659 112:-0.96932 113:-0.949719 114:-0.931586 115:-0.913249 116:-0.913454 117:-0.940341 118:-0.995163 119:-1 120:-1 121:-1 122:-1 123:-1 124:-0.999555 125:-0.996905 126:-0.998192 127:-0.990864 128:-0.990623 129:-0.981135 130:-0.985112 131:-0.995101 132:-0.979471 133:-0.988649 134:-0.972027 135:-0.95793 136:-0.934249 137:-0.953378 138:-0.989069 139:-0.994282 140:-0.993003 141:-1 142:-1 143:-1 145:0.177138 146:0.0104297 147:-0.301358 148:-0.936054 149:-0.743486 150:-0.752525 151:-0.790138 152:-0.752144 153:-0.523876 154:-0.543358 155:-0.540998 156:-0.538245 157:-0.398386 158:-0.620411 159:-0.73479 160:-0.764622 161:-0.737321 162:-0.712534 163:-0.924159 164:-0.955581 165:-0.96254 166:-0.933051 167:-0.973865 168:-0.995301 
24.535786534690743 1:-0.907189 2:-0.863141 3:-0.774656 4:-0.806777 5:-0.815588 6:-0.723251 7:-0.752761 8:-0.795023 9:-0.782803 10:-0.718138 11:-0.49294 12:-0.372216 13:-0.432635 14:-0.626469 15:-0.82203 16:-0.92738 17:-0.923966 18:-0.885882 19:-0.865613 20:-0.903836 21:-0.93368 22:-0.947601 23:-0.981643 24:-0.999917 25:-0.868497 26:-0.8112 27:-0.729835 28:-0.754793 29:-0.707161 30:-0.69391 31:-0.827339 32:-0.887083 33:-0.903022 34:-0.820181 35:-0.36289 36:-0.271885 37:-0.375241 38:-0.751414 39:-0.98175 40:-0.981357 41:-0.981535 42:-0.988923 43:-0.858016 44:-0.842007 45:-0.921686 46:-0.951883 47:-0.994461 48:-0.999995 49:-0.962161 50:-0.939573 51:-0.916881 52:-0.723613 53:-0.652174 54:-0.878578 55:-0.628415 56:-0.596052 57:-0.5207 58:-0.698502 59:-0.921887 60:-0.739837 61:-0.759459 62:-0.709615 63:-0.410519 64:-0.537671 65:-0.998516 66:-0.997434 67:-0.753107 68:-0.698615 69:-0.794752 70:-0.846899 71:-0.972747 72:-0.226857 73:-0.977867 74:-0.994801 75:-0.988819 76:-0.925236 77:-0.886126 78:-0.937299 79:-0.8686 80:-0.86805 81:-0.842369 82:-0.909718 83:-0.96768 84:-0.91916 85:-0.945285 86:-0.92499 87:-0.829217 88:-0.872936 89:-0.874165 90:-0.910582 91:-0.823553 92:-0.777743 93:-0.841346 94:-0.868392 95:-0.996522 96:0.00371747 97:-0.997585 98:-0.931718 99:-0.880038 100:-0.880514 101:-0.932691 102:-0.929379 103:-0.908528 104:-0.837873 105:-0.845034 106:-0.667288 107:-0.465252 108:-0.600681 109:-0.527333 110:-0.592606 111:-0.737864 112:-0.848201 113:-0.846754 114:-0.807993 115:-0.803733 116:-0.88133 117:-0.960866 118:-0.99243 119:-1 120:-1 121:-1 122:-0.999882 123:-0.990141 124:-0.980449 125:-0.981843 126:-0.997962 127:-0.985912 128:-0.994099 129:-0.992832 130:-0.961944 131:-0.978516 132:-0.988184 133:-0.936578 134:-0.928243 135:-0.89962 136:-0.976012 137:-0.958859 138:-0.908079 139:-0.990803 140:-0.999784 141:-1 142:-1 143:-1 145:-0.940663 146:-0.803087 147:-0.612054 148:-0.639464 149:-0.680749 150:-0.753535 151:-0.913043 152:-0.872199 153:-0.948034 154:-0.916974 155:-0.704989 156:-0.87893 157:-0.724843 158:-0.7236 159:-0.746534 160:-0.997147 161:-0.9 162:-0.959165 163:-0.927567 164:-0.848069 165:-0.978108 166:-0.96965 167:-0.981148 168:-0.997782 
5.0971493476921426 1:-0.928112 2:-0.946565 3:-0.984733 4:-0.951274 5:-0.960265 6:-0.983539 7:-0.986534 8:-0.973805 9:-0.959953 10:-0.955698 11:-0.955801 12:-0.92895 13:-0.803892 14:-0.862423 15:-0.916438 16:-0.903659 17:-0.933023 18:-0.919164 19:-0.827192 20:-0.787704 21:-0.816499 22:-0.834674 23:-0.946484 24:-0.999538 25:-0.954624 26:-0.973299 27:-0.974733 28:-0.869716 29:-0.962489 30:-0.947796 31:-0.981348 32:-0.979025 33:-0.977668 34:-0.855367 35:-0.907115 36:-0.785791 37:-0.98986 38:-0.887296 39:-0.869989 40:-0.887504 41:-0.890112 42:-0.847826 43:-0.473599 44:-0.391936 45:-0.709664 46:-0.837173 47:-0.982573 48:-0.999995 49:-0.911554 50:-0.99105 51:-0.980713 52:-0.935199 53:-0.678554 54:-0.896791 55:-0.893833 56:-0.618831 57:-0.516035 58:-0.455993 59:-0.876197 60:-0.879985 61:-0.812162 62:-0.962821 63:-0.687727 64:-0.64863 65:-0.617211 66:-0.894804 67:-0.993924 68:-0.94349 69:-0.853796 70:-0.722868 71:-0.804505 72:-0.81587 73:-0.982228 74:-0.990676 75:-0.989966 76:-0.981628 77:-0.84734 78:-0.963057 79:-0.975705 80:-0.863603 81:-0.850067 82:-0.822341 83:-0.955077 84:-0.971737 85:-0.951512 86:-0.981691 87:-0.910092 88:-0.914026 89:-0.886043 90:-0.945181 91:-0.969051 92:-0.940076 93:-0.887697 94:-0.785412 95:-0.893644 96:-0.79461 97:-0.888889 98:-0.973568 99:-0.962572 100:-0.911781 101:-0.955034 102:-0.893362 103:-0.839924 104:-0.902199 105:-0.88613 106:-0.870641 107:-0.855703 108:-0.530864 109:-0.567951 110:-0.754447 111:-0.918223 112:-0.966486 113:-0.994747 114:-0.991617 115:-0.960623 116:-0.931973 117:-0.938352 118:-0.978697 119:-1 120:-1 121:-1 122:-1 123:-0.999523 124:-0.996651 125:-0.999245 126:-0.996913 127:-0.99267 128:-0.988041 129:-0.985538 130:-0.896325 131:-0.809635 132:-0.897902 133:-0.75681 134:-0.697562 135:-0.708189 136:-0.818208 137:-0.830931 138:-0.846879 139:-0.955701 140:-0.999107 141:-1 142:-1 143:-1 145:-0.99651 146:-0.954944 147:-0.991511 148:-0.922046 149:-0.867948 150:-0.985859 151:-0.931504 152:-0.902075 153:-0.848315 154:-0.389299 155:-0.712798 156:-0.929611 157:-0.799462 158:-0.880085 159:-0.498614 160:-0.772468 161:-0.745933 162:-0.51125 163:-0.482744 164:-0.363701 165:-0.701289 166:-0.772819 167:-0.920951 168:-0.991571 
