svm_type c_svc
kernel_type rbf
gamma 0.0078125
nr_class 80
total_sv 238
rho -0.72225957459696766 -1.1305023465671487 1.2532512516220391 0.014958360760264735 0 0.025416463285014967 0 0.012382019476383122 0.032506693074562165 -0.63638123753605402 -2.090336854460217 -1.7763568394002505e-15 0.39979486409123316 -0.43468145052899249 0.1036527000078713 -0.036360926338137763 -1.8904951136565191 0.032603680864418422 -1.9377422031433478 -0.88501604603313744 0.043286507924106904 -1.0347506447613817 -0.25635845868279866 0.088806968052240046 -0.0082774919824840868 8.8817841970012523e-16 -1.7486012637846216e-15 -0.39915165390922508 0 -0.77238397728341734 -0.63351449059574372 0.019337918325907338 0.12501362514748696 0.84275680240821838 0.59520780412292928 -0.029284616794379947 1.7763568394002505e-15 0.29031346015926235 -0.95274438206878587 5.5569699498269308e-06 -0.013806377891893876 -3.0745770774895376 -0.57895794581953297 0.21976458498515572 -1.5137318058484694 -0.013806377891893876 -2.3658425823424936 5.5569699498269308e-06 -3.0745770774895376 0.013415563447232751 0.032560521611383716 0.013686731424052941 0.1518363439823526 0.034458625561052232 -1.0696518953815344 0.013415563447232751 0.032560521611383716 0.013686731424052941 0.034458625561052232 -1.5457216807778309 0 0.045653695601518163 0.027137881217984921 -1.3162013846099061 0.10960946840403052 -0.87295955604853148 -8.8817841970012523e-16 0.045653695601518163 0.10960946840403052 -3.0098755398276174 -1.7763568394002505e-15 -3.5527136788005009e-15 0.012033979391452787 5.3290705182007514e-15 -4.4408920985006262e-16 0.028854565259952631 -8.8817841970012523e-16 0.068534344146511314 0 1.6286398071547468 1.9869828262088467 -4.0598592947734158 -1.5830363173458606 -0.92468525675191804 -3.0599901692100855 0 -0.90996205135355157 0 0 0 0 0 -8.8817841970012523e-16 -0.74704703410920847 1.4686550715695403 -1.3298797752664462 1.2873994887978688 0.13638132309081283 0 0.066543992973453758 0 -0.057952012180340691 -0.10997875230379417 0 0 -8.8817841970012523e-16 0 -3.3306690738754696e-16 0 0 0 1.7763568394002505e-15 1.3877787807814457e-16 0.012794219413258383 0 0 0 0.016967716756714418 -2.3314683517128287e-15 7.7715611723760958e-16 0.02930865246179962 1.1102230246251565e-15 0 -2.3314683517128287e-15 0.0092209143620256926 0.016967716756714418 7.7715611723760958e-16 0 0 0 0 0.0022592495466384776 0 0 0 0 0.0022592495466384776 0.027141453263312007 0 0 0.0022873964585582705 0 0 1.8318679906315083e-15 0 0 0 -2.2204460492503131e-16 0 0 0 0 0 0 0 0 0 0.61148725267576232 -0.96783952435853671 -0.49362606839260692 0 -1.0288502366518235 0 -0.017719951880786351 0 -8.8817841970012523e-16 0 0.032272207562603461 3.5527136788005009e-15 3.9968028886505635e-15 -0.19247995443820354 -0.61812596050367219 -1.6603898759510005 -0.0028161677824845087 0 0 -0.13508578557607276 0.015576314035122663 0.038031389094261556 -0.083491400506899016 0 0 -0.065659693604695257 0.0037657538760389585 -0.044003500079883413 0 0.013580144067755595 0.15773017754392929 0.14995563238028789 0.39207317734895186 0.027570994479060751 0 0 0 -0.041111553084998767 0.13084196983911517 0.036906175521148554 0.0054222651186470669 0.31931276301175937 0 0.13084196983911517 0 -0.041111553084998767 0.036906175521148554 0.016155745956090779 0 0 0 0 0.15063672951023971 0.016155745956090779 0 0 0 0.042864139384275267 0 0.14105957262061702 0.0062246769818898274 0.14282887352870335 0 0.36572553973082828 0 0.14105957262061702 0 0.17680893711332082 0 0 0 0 0 0 0 0 0 -1.5146459020709377 0.14774980561498816 -0.026962927793002023 -0.65622555577876263 0.003292474446429433 -0.1517140397149509 0 0 -8.8817841970012523e-16 0.023382095938299957 0 1.7763568394002505e-15 -0.73906565644352207 -1.665366240101869 -4.5517528269599463 -2.3488921905396927 -8.3266726846886741e-16 0 -0.34560892523724562 0.022410926861806808 -0.10898195070029973 -0.15161466755313327 0 0 -0.19099143085272827 0.0060591764837064051 -0.20719330476302467 -8.8817841970012523e-16 0.0043225272697464774 0.031915871342226537 3.5527136788005009e-15 0.13183938782847693 8.8817841970012523e-16 1.9984014443252818e-15 -8.8817841970012523e-16 -8.8817841970012523e-16 -0.28753588988293999 0.011310090900648903 0.05087395902607348 -0.3126085852885801 0.19304100257823745 0.00786703504421544 0.011310090900648903 -2.2204460492503131e-16 -0.28753588988293999 0.05087395902607348 0.015075696311758693 0 0 -1.1102230246251565e-16 -5.5511151231257827e-17 0.080370441730195946 0.015075696311758693 0 0 -5.5511151231257827e-17 -0.09345220295988256 6.106226635438361e-16 0.061489033399441305 0.0050387220887643828 0.079303993277308221 5.5511151231257827e-17 0.10670310432303781 0 0.061489033399441305 5.5511151231257827e-17 0.039223971831499498 0 7.7715611723760958e-16 0 0 0 -8.8817841970012523e-16 0 0 0 0.13435210471136105 0.10104705861409891 0.69941201671155206 0.00090759533348297363 1.0360390045421497 0 -0.0059658084311269358 -0.0047770229426245077 -0.0017971611682016627 -0.0067803221098143296 0 0.19240650949894653 -0.17065298656681124 0.13859737059232907 1.3755691443225195 0.047981669782435434 0 0 0 0 0.083703048336016717 -0.0027122174196025479 -0.00027853408326555112 0.0035185365417980835 0 0 0 0 0 0 0 0.0070474151584918295 0 0 0 0.058152315556018359 0 -0.0080077367605161653 0 0 0 0 0 0.058152315556018359 -0.0080077367605161653 0 0 0 0 -0.0034110624871058048 0 0 0 0 -0.0034110624871058048 0 -0.0016738384294037491 -0.0004417095557647556 -0.002008389824821813 0 -0.0049462862031849535 -0.010385504242826952 -0.0027572845286551596 -0.0004417095557647556 -0.0049462862031849535 0 0 0 -0.0022295819259808987 -0.0025081628342219658 -0.0034150574740377665 -0.0025609005244595184 -0.003781995879417873 0 -0.0037961757327413435 0.10317542331684491 0.081104857269575045 0 -0.12450970507524117 0 0 0 0.0066288965218704648 0 0 0.094901158076762041 -0.059447350486383943 0.083022292742963757 0.57538442580852156 0.034702768778901799 0 -0.017428072717506904 0 0 0.064245208379981322 0 0 -0.0010820379524623749 0.0074681043778816363 -0.0065662588702644813 0 0 0 0 0 0 0 0 0 0.0004215396171839518 0 0 0 0 0.012708222623715399 0 0.0077500456043190849 0.0004215396171839518 0 0 0 0 0 0.00082614793460544789 0 0 0 0 0.00082614793460544789 0.0019216189286212163 0 0 0 0 0 0 0 0 0 0 0 0 0 0 0 0 0 0 0 -0.16549213544158814 -0.0050789883837479384 0.15119438051815121 0 -0.0076527435909752558 -0.0047560593289998525 -0.0029639668024463196 -0.0056005747166831031 0 0.0098601257143032129 -0.084326051982401062 -0.081336423840023264 -0.053583053645210522 -0.0083603355791818153 0 0 0 -0.0094351108354652612 0.14058505632247983 -0.0026935625710088154 -0.00080790545279565973 0.0083149437705467861 0.0089595249291873208 0 0 -0.00022184079331870275 0 0 0 -0.0045070401398517174 0 0 0 0.046900835253755324 0 -0.0083740026083070247 0 0 0.004110766922591793 0 0 0.046900835253755324 -0.0083740026083070247 0 0 0 0 -0.004629206969531785 0 0 0 0 -0.004629206969531785 0.0022390456971141206 0 0 -0.0040206683497035706 0 -0.0038850605486663204 -0.00035322454197709202 -0.0015744074329067936 0 -0.0038850605486663204 -0.0034754809161198531 0 0 0 -0.0037470963038270708 -0.002149417341103685 -0.001271035992346803 -0.003378396509299502 0 -0.0032048662261283966 0 -0.081803361394848978 0 0 0 0 0 0 0.067621436526304229 0.19156834615137006 0.14170667823243668 1.6179077571616514 0.066042164121911731 0 -0.0055524532967467692 0 -0.020145362167031267 0.12901776610063057 0 0 0.0014993612449102332 0 0 0 0 0 0 0 0.0066851022734624064 0 0 0 0.030534978308982018 0 0 0 0 0 0 0 0.030534978308982018 0 0 0 0 0 0.0012222697199221939 0 0 0 0 0.0012222697199221939 0.010547385870372258 0 0 0.0018436913183870506 0 0 0 0 0 0 0 0 0 0 0 0 0 0 0 0 0 0.043536658464745137 -0.0070383815066843158 0.033739535626447742 -0.02620881858670961 -0.013233409836847362 0.10436460337147924 0 0 0.0023483150398599744 -0.0031464701748154648 0 0 0 0 0 0.0081043793627945671 0.22153991196336253 0 0 2.7755575615628914e-17 0 0 0.0063469423052643732 0 0.1842184657575805 0 -0.0098674335992464477 0.064162563279292845 0.17980427254080858 0 0 0 -0.0039169291047175632 0 0 -0.0055760108647943561 0 0 0 -0.0039169291047175632 0.056336978266745656 0.017247980834450546 0.0066986794529354061 0 0.0014762795045583459 0 0.056336978266745656 0.017247980834450546 0.0066986794529354061 0.0014762795045583459 0 0.16285173379655635 0 0.025536866415892593 0 -0.011996270750716779 0 0 0 -0.011996270750716779 0 0.040736149574521152 0.016895988147927886 0.034581664833335711 0.01440968509870443 0.0025731583317107898 -0.013324527435625819 -0.0028820151777999986 -0.016141402802319498 -0.012420265940290109 0 0 0 0 0 0 -1.5886180630851159 1.164215401648498 -0.2748883412979129 0.48854439922413306 0.22111393685427239 0 0.13340551221594638 0 -0.11023969503032643 -0.043489098538856671 0 0 -3.1086244689504383e-15 0 0 0 0 -7.4384942649885488e-15 -6.654399253847032e-15 -1.7763568394002505e-15 0.0093233140653868531 0 0 0 -0.043791895432852626 7.1054273576010019e-15 0 0.052361140449514086 -1.1102230246251565e-16 0 7.1054273576010019e-15 0 -0.043791895432852626 0 0 0 0 0 0.0029365007315297191 -2.6645352591003757e-15 0 0 0 0.0029365007315297191 0.038921762607863099 0 0 0.0028052153692497508 -5.8286708792820718e-16 0 2.2204460492503131e-16 0 0 0 0 0 0 0 0 0 0 0 0 0 -1.1112057174341861 8.8817841970012523e-15 -0.92761794116535867 -0.74807762945493717 -0.068815966755895103 0.0014776018755836746 0 0.0067976762881144983 0 0 0.12002906484047249 0 -0.074067832410406584 0.016122714310646925 0.039686796816427929 0.034804302405288125 0 0 0 0 -0.066570378629964871 -1.8261413534329669 0.27569884621114016 0.91712181433064033 3.2473977415905719 -0.10911492910440788 -0.013020486303058691 1.4627114931277241 0.33585375915656079 0 -0.46776859188804565 0.0086825664037188579 0 1.4386324625394162 0.2287786141535115 -0.46776859188804565 0.24342512891878509 0 0.0086825664037188579 -1.1180856028228565 0.51302640724434989 -0.61598212571708688 -0.74691271441376406 -0.3317448282494424 0.086474146580460098 -1.1180856028228565 0.51302640724434989 -0.61598212571708688 -0.3317448282494424 0 0.39326665546823358 0.0067921100705916962 0 -0.066900012322718472 -0.19421335791461855 -0.20655425885283507 1.7763568394002505e-15 0.0067921100705916962 -0.19421335791461855 -0.39653616938774849 0.18125127753688292 -1.1114424832820216 0.093321597363777223 0.21307784054454726 0 -0.16521832594310343 0.049762114904005283 -0.15486939486606527 0 0 0.20433908020521663 0.47599564553038543 1.0941830573676332 0.0077772725970939108 0 0 0 -0.014217711721694873 0.067477672037433198 -0.006963113459135706 0 0 0 0 0 -0.0068879720578713666 0 -0.022371236352738664 0 0 0.17803831252993224 0.74434082833700721 1.2491195941169473 -0.0075103778564100249 -0.064190629457022336 0.4201732164628898 0.1494163701355172 0 0.49969868050314492 -0.021143502845040088 -0.0033835856063709016 0.06709447389374501 0.052230156428069344 0.49969868050314492 -0.03107949533843431 0 -0.021143502845040088 0.13543881063592339 0.17084006403957191 0.015500213004358243 0.25735207976089119 0.084158949636552335 -0.053823792323947788 0.13543881063592339 0.17084006403957191 0.015500213004358243 0.084158949636552335 -0.029226665053901243 0 0 0.012203894009658748 -0.048279943928304904 0.13196909224488906 0.24006158030622185 0 0 0.13196909224488906 0 0 0 0.027926098049660803 0 0 0.15362482326475138 0 0.01768589755884116 0 0.10228739772838527 0.39737871471554487 -0.052817294999352588 0.0030663123583321759 0 0.0024007081038921988 0 0 0 0 0 0 0.0083614498922484123 0.1949969609106513 0 0 0 0 0 -0.011364894284029845 0 0.40809028891420579 -0.052007110337057925 0.021160625645221493 0.0064021628074342569 0.34544694671593207 -0.012256763406729 0 0 0 0 0.018717564129013303 0 0 0 0 0 0.10305143424720987 0.071190143421323404 0 -0.039978040150473439 0.008066169888633519 0 0.10305143424720987 0.071190143421323404 0 0.008066169888633519 0 0.53749129460682421 0 0.024161336489533076 0 0 0 0 0 0 0 0.34463662192524769 -0.06374432677018349 0.14465242452080099 0.20153925594789771 0 -0.03031903465209642 0.058041995059731337 0 0.018610415993904006 0.13180911890613772 0.8939902314907423 0.0055252724949301649 0 -0.0075435862545489112 -0.01852353910602153 0 0.095291014341391714 0 0 0 0.015856746250411054 0.0066802799002961821 0 0 0 0 0.022000863719370434 0.092774016752915703 -0.049411944435197551 0.64186570898505302 1.735004799635302 -0.092028144448370097 0.14260066319441089 0.8435423312337299 0.10642822351797125 0 -0.025457734136165994 -0.12085387499078355 0 0.058303726953578848 -0.13606962183127794 -0.025457734136165994 -0.029892517271962637 0 -0.12085387499078355 0.040192222407348863 0.16517980993180831 0.14346144860566137 0.15282351043876649 -0.040780058352157575 -0.034985978624628301 0.040192222407348863 0.16517980993180831 0.14346144860566137 -0.040780058352157575 0 0.12517681627467692 0 0.071714925872636462 0 -0.25398368625772916 0 0 0 -0.25398368625772916 0 -0.0079985952319010199 -0.10858237437258725 0.076157718828959942 -0.14730811383923684 0 -0.11433220245458338 0.020984644550647562 -0.031046095581943395 0.050946378815148852 1.1145578170873811 0.0090660890594851367 0 0 0 0 0.082400476081962562 0 -0.045298527574991719 0 0.0085216087094735684 0 0 0 0 0 -0.062933599209541793 0.021388182773705737 0.10027595556574315 1.101864176308277 0.87637931646085176 -0.008319749860672682 0.11749932149776984 0.58099051156193326 0.073763586522545693 0 0.22359323681595539 0.11154318180126101 0 -0.12880187540718502 0.35485572023096729 0.22359323681595539 0 0 0.11154318180126101 0.12793242429804932 0.21671302239433701 0.11080461869744888 0.056221306864149695 -0.21925346830785408 0 0.12793242429804932 0.21671302239433701 0.11080461869744888 -0.21925346830785408 0 0.33407178859782799 -0.26595165389424585 0.039758110896579955 0 -0.30748489739115686 -0.27235105378862923 0 -0.26595165389424585 -0.30748489739115686 -0.30175857041179027 -0.12195569103893193 0.13170103394314614 0.07724815640814793 0.013289389731968342 0 -0.08754299936418003 0 0.08208183247210428 0.020551188655238178 0.015870962605951704 3.5527136788005009e-15 0.0088753437011515786 0 -0.11037779144159739 0.22462916885131567 0 0.040191700698076538 0.049347441671925431 0.046983146291342572 0.059020459961820142 0 0.008723549224187126 0 -1.7763568394002505e-14 -0.94752761784303507 -0.004753140470651139 -0.43377203528165781 0.19819962217430631 0.54866596356431308 -0.81327152038612016 0.13015752521946783 1.0652045425389283 0.24222581875520252 0 -0.54761916198627392 -0.3249678182559535 -0.070922299589656082 -0.022117379796134113 -0.40932948061909324 -0.54761916198627392 -0.25057318804373652 0 -0.3249678182559535 -2.0797945867784033 0.43199850377310234 -0.0082539534922910426 -0.27651322759796859 -0.63979917354222715 -0.14189888367929762 -2.0797945867784033 0.43199850377310234 -0.0082539534922910426 -0.63979917354222715 -0.26922391392587619 0.42961498391507891 -0.78639015602051598 0 -1.0095285222989474 -0.28141534975580246 -1.4114334789194523 0 -0.78639015602051598 -0.28141534975580246 -1.2849558467892894 0 -0.17244536698609444 0 0.12121519816566584 0 0.063930804468910141 0 0.1411360060516251 0 0.69878866447280863 -0.087578221619076149 0.51131322858004002 0.24373640402883903 0 0.19646725781119509 0 -0.076373520727084587 0.12237895858565563 -0.0012124273472561332 -0.0016618328779503064 0.034410690933148101 0 -0.0081881659728164635 -0.011028932061099976 0 -0.0010923669279195487 -0.01523424768154886 0 0.00558369158677948 0 0 0 0.14214056746138592 -0.016929563843282463 -0.016742922760636703 0.0077439620133591775 0 -0.0020307895252535549 -0.016929563843282463 0 0.14214056746138592 -0.016742922760636703 -0.0071003891041093795 0 0 0 -6.1002954623162742e-05 0 -0.0071003891041093795 0 0 -6.1002954623162742e-05 0.0057289583563358004 -0.0066629430577490227 0 -0.00082034937454757671 -0.026836753182931106 -0.0058596338123991197 -0.013506674309774577 -0.0029995678805405149 0 -0.0058596338123991197 -0.010051064327412465 -0.0052916401216019579 -0.0034983127225761668 -0.0042669900107089381 -0.003872784384470663 -0.0038844091039574769 0 -0.0023316940026194589 -0.00060276026089737622 -0.0025000147874591795 0.024819643745307502 0.60978557492636953 0.11873349550366596 0 -0.074645207266269525 0.037878057137055617 -0.02846499044582803 -0.045431280419097476 0 0 0.0094185516597826893 0 0.029176584108979886 1.7763568394002505e-15 0 -1.3322676295501878e-15 3.5527136788005009e-15 5.3290705182007514e-15 0.02565025758828492 0 0 1.7763568394002505e-15 -0.11884790233813673 0.02326091606678855 0.067578114932545882 0.12912154772912426 0.17856066768348314 0 0.02326091606678855 0.034906785746830406 -0.11884790233813673 0.067578114932545882 0 0 0 0 0.0021996362172552373 0.030619557229662531 0 0 0 0.0021996362172552373 0.047676550534420083 0 0 0 0.028717843400724214 0 0.045543382087269664 0 0 0 0.0096044257485499666 0 0 0 0 0 0 0 0 0 3.5585419144892092 0.079139543626041656 -0.0040607571948081365 0.03077705597310566 -0.0059017244286854653 0 0.0076477881556015759 -0.00022364444466075237 -0.0014726880645477604 0 0.0012527077496437462 -0.011689005126210647 -0.0026494451940205551 -0.0035961367616156592 0 -0.0091876397765492633 -0.0080920889539879848 -0.0044044339791174452 -0.0045979736265202367 -0.0054595080416005148 -0.0072431430834392517 0.03411240468508784 -0.0065720122952941541 0 0 -0.0058981103680190369 0.013041937797344088 -0.0065720122952941541 0.0043677413123816827 0.03411240468508784 0 -0.0027688529107012679 -0.0044503876479850199 -0.0039173878139532013 -0.0059258435572338642 0.0010783763808051286 -0.0040872999759035871 -0.0027688529107012679 -0.0044503876479850199 -0.0039173878139532013 0.0010783763808051286 0.010354110471156084 -0.0010509125843405753 -0.0054492474473462242 0.0017656439337699747 -0.0077233713650378772 0 0 -0.001153293268227049 -0.0054492474473462242 0 -0.0065433904435574508 -0.0022078392695843671 -0.0013151080788261686 -0.0018463861495985844 -0.0011784099632117029 -0.00093389031941889589 0 0 0 0 0.084435812829793455 0 1.5543122344752192e-15 0.029336214839197489 -0.015702703730749775 -0.168072011154632 0 0 0.001016764650181005 -0.0035194281412321607 -7.3274719625260332e-15 0 0 0.00052674612768737839 0 2.2204460492503131e-16 0 0 0 0 -0.075358307185399973 -1.6653345369377348e-15 0.0030350146204368759 0.073417641432845321 0.12468019943256918 0.015725043631913866 -1.6653345369377348e-15 0.011027530587648193 -0.075358307185399973 0.0030350146204368759 0 0 0 0 0.0025285827825518525 0.034888055880619689 0 0 0 0.0025285827825518525 2.2204460492503131e-16 0 0 0.0037182700027826305 -2.2204460492503131e-15 0 0 0 0 0 -6.5503158452884236e-15 0 0 0 0 0 0 0 0 0 0 -0.7205002371239283 -0.4216605984522947 -0.021271642188922874 0.072624254132052216 -8.8817841970012523e-16 0 -0.94486707720780383 0 -0.30776300302376391 0.014100377127065411 0 0.18924372287362101 0.087235690239486685 0.42475468289250479 0 0 0 -0.18719148869704103 -0.28532962301411358 0.17635499710414471 0 -0.28927212352644621 -0.59595944852657623 0.03793585582055909 0.17635499710414471 -0.06228847035537529 -0.28532962301411358 0 0.019146729880968213 0 0 0 0 -0.098494569235286294 0.019146729880968213 0 0 0 0.0066262344718186249 0 0.046863785264014246 0.0041969078745956777 0.067273021610863959 0.014120402742073268 0.1225715784048446 0 0.046863785264014246 0.014120402742073268 0 0 0 0.0057602425693354872 0 0 0 0 0 0 0 -0.016621400031810084 0 0.030149427117004898 0.039755383708899195 0.0050770674346184248 0 0 0.0044412563459548596 -0.050985988240050815 -0.28175008942381596 -0.012296331395719846 0.018962033861083437 -0.10288902318238732 0 -0.096590130491246248 1.4582965467774425 -0.20910793088877586 0 -0.032494450239965299 0 0 0.024893740369311836 0 -0.032494450239965299 0.056718063249233314 0 0 -0.12162465458263082 2.3168409092066402 -0.28489932674258223 -0.2159818174152015 -0.031353967547735562 0 -0.12162465458263082 2.3168409092066402 -0.28489932674258223 -0.031353967547735562 0 0.042664215557960468 0.047937804187320264 0 0 -0.066077659278308373 -0.048016484572449114 0.048495222438964834 0.047937804187320264 -0.066077659278308373 -0.032373574124840383 0.055589930209095521 -0.10060953644560691 0.033425136620398879 0.05351414504225941 0 -0.057266371667601457 0.061178903833412922 -0.037208310859929011 0 -0.029259389105523392 0.047941439233866692 0.1898823534069711 0 0 0.011884947772600775 0 -0.021742878117233272 -0.0097573550051033905 0 0 0 0 0 0 0 -0.023172842294457336 0 0 0.049761864090987075 0.78613233063849708 -0.027384934090690764 0 0 0 0 0.049761864090987075 0 -0.0030508033034734039 0 0 0 0 0 -0.0030508033034734039 0 0 0.062193621561493689 0 0 0.0033697291077724977 0 0 0 0 0 0 0 0 0 0 0 0 0 0 0 0 0.083961500170450828 0.052026452312437965 0.015475406731995231 -0.0011850378685457352 0 0 -0.10671516401990283 -0.058796952312094579 -0.013911592425462397 0.27568514916011533 0.26619599161452756 0.61183425039988926 0 0.034099342464283817 0.08687540125298665 0.35906059408060742 0 0.12700554607991418 0.00099538200735393295 -0.11027838815363067 0.36315246956164154 0.051025837561476169 0.12700554607991418 -0.1895805334637197 0 0.00099538200735393295 -0.024548283461422488 -0.06024532382298322 -0.045704012992364651 0.042066038319915788 0 0.077809714797873811 -0.024548283461422488 -0.06024532382298322 -0.045704012992364651 0 -0.20041565278737972 0 0 0.0058906207178571132 0 0.011465487623363172 0 -0.0025723286405774817 0 0.011465487623363172 0.080844489152601132 -0.017368780869582053 0 -0.0095810864319355923 0.0206260495210694 0 0 0 -0.0092039691785406798 0 -0.23296774175108292 0.0030295298410594937 0 -0.51256200172157917 0 -0.081285461806130069 -0.026064828530927019 0 -0.057250858436080264 -0.047734933242593196 -0.070976842249213259 -0.0022970351237327166 0 0 -0.036837405958538925 0.013656168942968769 -0.051681136144851446 -0.0035832300786385347 -0.1874817260164697 -0.10897264476855338 -0.019019396022399656 -0.051681136144851446 -0.028202018258712568 0.013656168942968769 -0.0035832300786385347 0 0 0 -0.0050538973267844909 0 0 0 0 0 0 -0.091876361123111913 0 -0.0067808147327460535 0 -0.065045406501884451 0 -0.043130918170147935 0 -0.0067808147327460535 0 -0.048643033172995676 0 0 0 0 0 0 0 0 0 -0.00739522325134354 -0.013384960812695822 -0.090382246341889516 0.014070721144548886 -0.060660994271348613 -0.043624177169539195 -0.032697567305061015 -0.056941541278546198 -0.048174955613948085 -0.068095144947696265 -0.0055951895081836258 -0.016424644761197458 -0.040786317429254149 -0.053667295454363169 -0.028271948645567101 -0.046840068993823904 0 -0.17844507111183941 -0.070670844043649997 -1.4432899320127035e-15 -0.046840068993823904 -0.058509405616343928 -0.028271948645567101 0 -0.024397412072894319 -0.033279332494708221 -0.033879334002941131 -0.03732984646408654 -0.0010253817208886577 -0.0027737576565768731 -0.024397412072894319 -0.033279332494708221 -0.033879334002941131 -0.0010253817208886577 -0.075670996321314743 -0.019373727284951833 -0.032261018337855017 0 -0.067097474586907166 0 -0.02035671208483222 -0.012629960877759805 -0.032261018337855017 0 -0.023065656057200078 -0.017647846020207244 -0.021721657588718194 -0.014036168497050314 -0.012239708303715782 -0.0074881143934545534 -0.013180447457472063 -0.00072662855315378026 -0.022109749922602506 -0.0013665190293546726 -0.066332648832206423 0 0 -0.0020439369739753371 -0.0073015744626029767 -0.014646932006349514 -0.024107984220850004 -0.048414691046455731 -0.041418468980558142 0.0044272797368112666 -0.075431311530818682 0.39193060151149139 -0.019029620739093884 -0.00068279947542813912 0 0 0 0.010820591882083758 0 0 0 -0.00068279947542813912 0 0.038555951554529268 -0.014759245430326407 -0.044111118075868892 0 0.0060002117543932103 0 0.038555951554529268 -0.014759245430326407 -0.044111118075868892 0.0060002117543932103 0 -0.34349725435155354 -0.00022128812206915574 -0.86613766216971988 0 0 0 -1.0303041223252967 -0.00022128812206915574 0 0 -1.2274402042790207 0 -1.7747741134151764 0.053414762178919682 -1.8778882384911038 0.068256086642912647 -1.7934426658312503 -0.084701610750711906 -0.34232531736656274 0 0 0 0 0 0 0 0 0.0089847261120696992 0 -0.008602239853829019 -0.0020654103788617143 0 0 0 0 0 0 0 0.00061377973454036837 0 0 0 -0.0091357712379750797 0 0 0 0 0 -0.0091357712379750797 0 0 0 0.0039561753386081521 0 0 0 0 0 0 0 0 0 0 0 0 0.0090280940767090354 0.011575885619277063 0.0016642767537830376 0 0 0 0 -0.026275226372254823 0.0084850844665739326 0 -0.025630711509120274 -0.021060560563547548 -0.039316963276508819 0 0 0 -0.0092860548249866972 0.0061865682235495286 -0.026333517944580508 0 0.19891274974042475 -0.080191462174618949 -0.0069755506552838286 -0.026333517944580508 0.024503260815207789 0.0061865682235495286 0 0 0 0 0 0 -0.01874892256909565 0 0 0 0 -0.068064002153479658 0 -0.022291531308756746 0 -0.025561248798434522 0.0076334370787899024 -0.019866733738511333 0 -0.022291531308756746 0.0076334370787899024 -0.01220817317403289 0 0 0 0 0 0 0 0 0 0 0.0013498447656713393 -2.7755575615628914e-17 0 0 0 0 2.7755575615628914e-17 0 0 -0.00021867963909920948 0 0 0 0 0 0 0 -0.00021867963909920948 0 2.7755575615628914e-17 0 0 0 -2.7755575615628914e-17 0 2.7755575615628914e-17 0 0 -2.7755575615628914e-17 0 -2.7755575615628914e-17 0 -2.7755575615628914e-17 0 -2.7755575615628914e-17 0 2.7755575615628914e-17 0 -2.7755575615628914e-17 0 -2.7755575615628914e-17 0 5.5511151231257827e-17 0 -2.7755575615628914e-17 2.7755575615628914e-17 0 2.7755575615628914e-17 0 0.075416916011427249 0 -0.030710937534008016 0 0.070034870010924732 0 0 0 -0.031634740637568694 0 0.016476363668014266 0 0.13543349580677566 0.050059780203041866 0 0.016476363668014266 0.013935680919625604 0 0 0 -0.011372922977198996 -0.0034823427910699381 -0.00033860258792358749 0.0028595190728605696 -0.015831878165680796 0 -0.011372922977198996 -0.0034823427910699381 0.0028595190728605696 0.063582312488416712 0 0.068596202931796399 0 0.15120488687231046 0 0.16042196112975976 0 0.068596202931796399 0 0.031787742895023764 0 0 0 0.00670296347924267 0 0 0 0 0 -0.06028960390629582 0.54730630430900673 0.89130334266855815 1.3471679162973855 -0.01584435894359823 0.0014851210352643182 0.020376034119325283 0.37782654527505499 0 0.33062876822421017 0 -0.024950957841743893 0.6745605413848984 0 0.33062876822421017 -0.05228106510539722 0 0 -0.036949242624024874 0 0 -0.029552685458660254 -0.019082097478903406 0.12688709984418556 -0.036949242624024874 0 0 -0.019082097478903406 -0.041914508304882213 -0.030198922725360861 0.018392616528258271 -0.012071812038655363 -0.03746115366587064 -0.017479013658566678 0.029105599520352566 -0.0034411712563167753 0.018392616528258271 -0.017479013658566678 0.12783625814109295 -0.014685049058959712 -0.032379172503184818 -0.0050244823225996937 0.0036272972270705904 -0.0087048976982561834 -0.021835703262074135 -0.012182382260884819 -0.018526380441153494 -0.012722017527098903 -0.10617261766663882 0.68665195857717976 0.11739209743266908 0.0018033237601187829 0.14645355438882229 1.4357346698391633 0.16872036463555265 0 -0.23716487959921129 -0.027595681488836135 0 -0.028614991334781747 0.050242645722217046 -0.23716487959921129 0.11701946326709078 0 -0.027595681488836135 0.23342698393720865 0.41099042178891682 -0.048464160730603709 -0.27464729810064936 -0.018055444524069819 -0.034544759229651667 0.23342698393720865 0.41099042178891682 -0.048464160730603709 -0.018055444524069819 0 0.45433740833307029 -0.047448336359954324 0 -0.034488161552288808 -0.004219864801076556 0.02083830411295472 0.011183098667067829 -0.047448336359954324 -0.004219864801076556 -0.057431376637108379 -1.4210854715202004e-14 0.11571563338427655 0.060456121993479293 0.24348394493994199 0 0.099723095719520927 0 0.217201910343372 0 -0.89145831825100563 0.76829830008801769 -1.2656365866184307 0.1710908903998786 0.29079134796157974 -0.42868080741649911 0 1.5543122344752192e-15 -0.25039525506419213 0.13629615629732009 0.13906168133270755 -0.13110694416460267 1.5543122344752192e-15 -0.29380668095182855 0 -0.25039525506419213 0.036854143010556319 4.2188474935755949e-15 0.065878816591698489 0.08360307167387114 -0.15524289956088283 -0.15477311940734267 0.036854143010556319 4.2188474935755949e-15 0.065878816591698489 -0.15524289956088283 -0.054329376165199915 -2.6645352591003757e-15 -0.081936689576417865 0.0081367856103076366 -0.39017887467030093 2.9976021664879227e-15 -0.11164471775374181 1.7763568394002505e-15 -0.081936689576417865 2.9976021664879227e-15 -0.072737163034874056 -1.7763568394002505e-15 0.026792902081732062 0.020498010986885251 0 -5.2180482157382357e-15 0.061463333228628902 -4.3021142204224816e-16 0.05265823885444517 -3.1086244689504383e-15 0.5387545037251158 -0.6949234975522548 -0.09136875991559365 -0.13918284317650587 -0.12380299417334066 0 -0.36370252551647536 -0.45541833665823545 0.031038780331997026 -0.17841637027902538 -0.35506387088366037 -0.36370252551647536 -0.11375632391320981 0 -0.45541833665823545 -0.91605519193104712 0.081508108848364444 -0.54489090684825947 -0.43203689804867906 -0.56680407672464472 -0.36071895874759197 -0.91605519193104712 0.081508108848364444 -0.54489090684825947 -0.56680407672464472 -0.085471574312365989 -0.56522023093621099 -0.71081205308665518 0 -0.58180034709994377 -0.32378908868626866 -0.63364332960465541 0 -0.71081205308665518 -0.32378908868626866 -0.48437432362723043 0.064859025284792038 -0.22551165880218274 0.011728541538616641 0.043181916541801819 -1.7763568394002505e-15 -0.069079264997733203 0.013996374442961626 0.055092289091587303 0.019873088228271902 -1.6960895235944959 0.26638725810069319 2.0507450062725878 -1.2161158360368529 0 -1.0952295327691999 -0.99049251279285466 0.23263128924779977 -0.053004365545451744 -1.0050561054697906 -1.0952295327691999 -1.0427955951088608 0 -0.99049251279285466 -2.3858758009879883 0.25991503963908658 0.2855659007400092 -0.55728368974314257 -0.85729802476041994 -0.1612747309264875 -2.3858758009879883 0.25991503963908658 0.2855659007400092 -0.85729802476041994 -0.91416368875053167 0.28264832990454364 -0.93220292960044204 5.3290705182007514e-15 -1.5370411988025314 -0.29881996657050786 -1.2689267154170254 5.3290705182007514e-15 -0.93220292960044204 -0.29881996657050786 -1.1465443188548885 0.0045866418502905999 -0.56559662620580975 0.05180981125856704 0.14761387175136062 1.7763568394002505e-15 0.10294520381863403 -5.3290705182007514e-15 0.18686649053938775 -7.1054273576010019e-15 -0.42175488549654966 0.22146415905929651 0.24847914503087201 -0.0085381203281339382 0.20394783449064263 -0.030867195324504548 0 0.51303209598656119 0.078250415893767133 0.20394783449064263 -0.068701661219209009 -0.0085381203281339382 -0.030867195324504548 -0.11089539868398961 0.057532278355363432 0 0.12915176802268566 -0.056293005740258993 -0.01459638373131264 -0.11089539868398961 0.057532278355363432 0 -0.056293005740258993 0 -0.090759678865956858 0.067133878016871706 0.015001161321276288 -0.0094848798864251398 -0.068803133606537573 0.052952263662379817 -0.028864465780544319 0.067133878016871706 -0.068803133606537573 0.19001854644807045 -0.063029571378261734 -0.07667163301616288 0.0072983132101405376 -0.074181191845059627 0 -0.091926214840991102 0 -0.061737170427342399 0.0020574589835918636 0.56794574429611111 -0.069763317489975663 0 -0.14368126432206629 0 0 -0.056007881515580435 0 -0.14368126432206629 0.031362149490525591 0 0 -0.20748209380143043 0.18403295458930669 -0.034209923823318444 -0.14867185747852754 -0.025083608610351426 0 -0.20748209380143043 0.18403295458930669 -0.034209923823318444 -0.025083608610351426 0 0.1382037332056569 -0.080060589764379853 0 0 -0.17895035263817174 -0.049398513981111031 0.016396396670857571 -0.080060589764379853 -0.17895035263817174 -0.03797342430489644 0.074123421451512864 -0.23045575276722632 0.033385438859217326 0.067374451556742737 0 -0.13827334934482866 0.0063020447927869582 0.0092143254979056288 0.012173868419275563 -0.28149573791583593 0 -0.82626337466660038 0.051528236768537433 0 1.0631801595978509 0.1115029605506434 -0.82626337466660038 0.14282183290635739 0 0.051528236768537433 -0.80477479416919728 0.5763506849804263 -2.1952817640253941 -1.0528532884687534 -0.34779239170158432 0.078534221396811335 -0.80477479416919728 0.5763506849804263 -2.1952817640253941 -0.34779239170158432 0 0.0013368799566854288 -0.23382477402066604 -0.19717442389298823 0 -0.45055499178246439 -0.2956209813461953 6.2172489379008766e-15 -0.23382477402066604 -0.45055499178246439 -0.35039298298844312 -0.15850889864189516 -1.131154940315821 0.040138724252369924 -0.62577490862528129 0 -0.75044720177322055 0.0048082529149207076 -0.68674104841431283 -0.30683895972142455 0 0.20418054479931011 0 0 1.8544436762865848 0 0.20418054479931011 0 0 0 -0.14207271212273057 0.30652501098863066 0.28644122236230324 -0.44128063931568012 -0.14211845544774565 0.15472820592214581 -0.14207271212273057 0.30652501098863066 0.28644122236230324 -0.14211845544774565 0 -0.016499030788099816 -0.24984086141543685 0 -0.095252053899428521 -0.083247923120115891 -0.15741618002042437 0 -0.24984086141543685 -0.083247923120115891 0.098503800244599676 0 -0.076145174962919962 0 0.014245172612994387 0 -0.12121529158728851 0 0 0 0 0.032760932633520666 -0.075259935107191797 0 0.028442123600195227 0 0.0066357103468271611 0 0.032760932633520666 0.0074302163365119371 0 0 0 0 0 0.0074302163365119371 0 0 0 0.010750842277334055 0 0 0 0 0 0 0 0 0 0 0 0 0 0 0 0 0 0 0 -0.93432958916493558 -0.10335705354705237 -0.48865850350281481 -0.91569845544341888 0 -0.95539651231262357 0 -0.93432958916493558 0.053490625411215749 0.34371464643967098 0.080616750145578064 0.31263030062280112 -0.47005142814294681 -0.13751015258639693 0.053490625411215749 0.34371464643967098 0.080616750145578064 -0.47005142814294681 0.10345876465422429 0.025520545800383078 -0.82102455549782771 0.0059081729656664432 -2.031839432999536 0.08786180122458713 -0.18622646190416758 -3.5527136788005009e-15 -0.82102455549782771 0.08786180122458713 -1.7036829317194813 -3.5527136788005009e-15 0 0 0.02605319454063082 0 0.019292377755543672 -1.8540724511240114e-14 0.062238650674015551 3.3306690738754696e-16 0 0.90403369417697133 0.19429892194356302 0.93436165984980069 0 -0.033006468296183179 0 0 -0.024260019051966578 -0.036072771123612846 -0.038111279866105678 -0.038245765127179476 -0.48000526826439921 0 -0.024260019051966578 -0.036072771123612846 -0.038245765127179476 0.088201981922521225 0 0.3045791274307752 0 0.12892743267139126 0 0.78075544266986519 0 0.3045791274307752 0 0.65205219333487119 0 0 0.0085619194892171124 0 0 0 0 0.021892194595071052 0 0.42090172167020112 0 0.10073230553872287 0.075806099017588516 0.075171906202463223 0 0.016863834953439998 0 0 0 0.0018497816615184644 -0.17146762240612756 0.016863834953439998 0 0 0.0018497816615184644 0.0060305650844837107 0 0.05477837359146126 0.0054663790975773155 -0.051416631944264199 0.0094788201391172045 0.10391106913566087 0.0012730997087602169 0.05477837359146126 0.0094788201391172045 0.054445962247185287 0 0 0 0 0 0 0 0 0 -0.52460444108624471 0.48825897822136616 -4.2956869667393764 0 -0.90472637023747726 0.047017774696236192 -0.53596155996168027 -0.62562519542558193 -0.057615951442734237 -0.002388527136878673 -0.23997987811393914 0.047017774696236192 -0.53596155996168027 -0.62562519542558193 -0.002388527136878673 -3.2871719013978891 -0.079747475482066135 0.046242429607592964 -0.016510804165090008 -1.8001406110004381 0.029166600570077382 -0.09073048589778307 0.0026810712205854719 0.046242429607592964 0.029166600570077382 -1.2766206749257405 -0.030792862433518881 -0.13388359199969252 0.020331662602164031 -3.5527136788005009e-15 -0.017007749867066841 -0.094753582770496281 -0.033987472937448228 -0.031819757825326346 -0.043979911569490625 0.91539359077174287 -0.28624746370940168 -0.028503555595406498 -0.19913125434025478 -0.030367734335202096 0.049108141492664278 -0.10046393936021042 -0.29336595409649913 -0.23187266882220378 -0.2058051085550775 -0.030367734335202096 0.049108141492664278 -0.10046393936021042 -0.23187266882220378 0.026678353768187141 -0.13217424784492549 0.18581901413718077 0.020963363794067907 0.73263685682921498 0.091596474365752842 1.0308537841562222 0 0.18581901413718077 0.091596474365752842 0.5159800908518356 0 0 0.0097554825309826374 0 0 3.5527136788005009e-15 0 0 0 -0.95539651231262357 0 -0.93432958916493558 0.053490625411215749 0.34371464643967098 0.080616750145578064 0.31263030062280112 -0.47005142814294681 -0.13751015258639693 0.053490625411215749 0.34371464643967098 0.080616750145578064 -0.47005142814294681 0.10345876465422429 0.025520545800383078 -0.82102455549782771 0.0059081729656664432 -2.031839432999536 0.08786180122458713 -0.18622646190416758 -3.5527136788005009e-15 -0.82102455549782771 0.08786180122458713 -1.7036829317194813 -3.5527136788005009e-15 0 0 0.02605319454063082 0 0.019292377755543672 -1.8540724511240114e-14 0.062238650674015551 3.3306690738754696e-16 -0.0067956616467689706 0 0.030925823807189792 0 -0.095820304925303454 -0.19924244145998352 8.4238171993433753e-15 0.3089666882972964 0.030925823807189792 0 -0.095820304925303454 8.4238171993433753e-15 -0.10898338927471643 0 0.099434618019720838 0.0083573957144743773 -0.17136547222487788 0 0.76432697134077865 0 0.099434618019720838 0 0.42983957045428739 -0.017816957668140638 -0.037435694514484905 0.0039697555504302554 0 0 0 0 -0.043213865162093079 0 0.032760932633520666 0.0074302163365119371 0 0 0 0 0 0.0074302163365119371 0 0 0 0.010750842277334055 0 0 0 0 0 0 0 0 0 0 0 0 0 0 0 0 0 0 0 0 -0.024260019051966578 -0.036072771123612846 -0.038111279866105678 -0.038245765127179476 -0.48000526826439921 0 -0.024260019051966578 -0.036072771123612846 -0.038245765127179476 0.088201981922521225 0 0.3045791274307752 0 0.12892743267139126 0 0.78075544266986519 0 0.3045791274307752 0 0.65205219333487119 0 0 0.0085619194892171124 0 0 0 0 0.021892194595071052 0 0.17746592736441419 0.080709638597626643 0.059360924283096361 -0.072627946635850288 0 0 0.17746592736441419 0.080709638597626643 -0.072627946635850288 -0.014845704839009752 0.15401568563898727 -0.015667869710614624 -0.010078513348130078 -0.025845021866474222 -0.023061838870792162 -0.067253923383668604 0 -0.015667869710614624 -0.023061838870792162 -0.10512095568900937 -0.0091363829270543206 0.039109373333492278 0.04111484741601653 -0.08630189344436201 0 0.16964862793748114 -0.024230976729289238 0.17756196002131927 -0.027392931185146591 -2.8918369507764732 -0.34493292293630112 -0.20248467179263097 -0.022128516448629652 -0.17889800372600737 0 -2.8918369507764732 -0.20248467179263097 0 0.0110223613831509 -0.13394957510791455 0 0 -0.17811855894597572 -0.18110640974189762 0 -0.13394957510791455 -0.17811855894597572 -0.18927842175588416 0.12190833721109123 -0.30075400737375996 0.05341084004654495 -0.25444855363723912 0 -0.19229100326208476 0 -0.25473628539146992 -0.03838661475468428 0.24917978222768156 -0.024124453449933986 0 -0.08064707696574322 2.890077662795953 0 -0.024124453449933986 0 0.16483952678990879 0.065407701599890608 0 0 -0.05100692103951799 0.0073257514387170307 0.015495209710231828 0.065407701599890608 -0.05100692103951799 0 -0.067220853794725907 -0.15136787992813319 0.044085784932170358 0.065600619412579317 0 -0.010871365763502266 0.025636351025935256 -0.14621537208672367 0 -0.27442454711600306 -0.06783710277308487 -0.059281357411493915 0.34469416862430036 -0.25203880168755965 -0.27442454711600306 0 0.33579815216882647 -0.1327885070179754 0.011800937017148835 0 0.073381525124291178 -0.16012544239333026 0.015352927832684049 -0.1327885070179754 0.073381525124291178 -0.27563379654293013 -2.6645352591003757e-15 0.29553197878404042 0.047761407121578232 0.090169647203623679 0 0.24831312420196908 0 0.074370738555116528 0 0 0.072637712228935308 0.20243143334317676 0.024062529140084221 0 -0.020279698351243231 0 -0.020692905227067588 0.00077806922967810568 -0.027866270956709089 0.069403182642927219 0.17125121754779574 0 -0.020692905227067588 0.069403182642927219 -0.0045932990270527441 0 -0.0065025772024034367 0.020072963263499888 0 0 -0.011340619899548852 -0.017918954456506892 0 -0.026688509903301794 0 0.020468730970804042 0 4.2632564145606011e-14 -0.13199677084902706 0 -0.13759083641880418 0 -0.11611937590996668 0 -0.1695574477423975 0 -0.13759083641880418 0 -0.28448695999211937 0 0 0.0028983113232379253 0 0 0 0 0 0 0.17746592736441419 0.080709638597626643 -0.072627946635850288 -0.014845704839009752 0.15401568563898727 -0.015667869710614624 -0.010078513348130078 -0.025845021866474222 -0.023061838870792162 -0.067253923383668604 0 -0.015667869710614624 -0.023061838870792162 -0.10512095568900937 -0.0091363829270543206 0.039109373333492278 0.04111484741601653 -0.08630189344436201 0 0.16964862793748114 -0.024230976729289238 0.17756196002131927 -0.027392931185146591 -2.8918369507764732 -0.20248467179263097 0 0.0110223613831509 -0.13394957510791455 0 0 -0.17811855894597572 -0.18110640974189762 0 -0.13394957510791455 -0.17811855894597572 -0.18927842175588416 0.12190833721109123 -0.30075400737375996 0.05341084004654495 -0.25444855363723912 0 -0.19229100326208476 0 -0.25473628539146992 -0.03838661475468428 -0.024124453449933986 0 0.16483952678990879 0.065407701599890608 0 0 -0.05100692103951799 0.0073257514387170307 0.015495209710231828 0.065407701599890608 -0.05100692103951799 0 -0.067220853794725907 -0.15136787992813319 0.044085784932170358 0.065600619412579317 0 -0.010871365763502266 0.025636351025935256 -0.14621537208672367 0 -0.020279698351243231 0 -0.020692905227067588 0.00077806922967810568 -0.027866270956709089 0.069403182642927219 0.17125121754779574 0 -0.020692905227067588 0.069403182642927219 -0.0045932990270527441 0 -0.0065025772024034367 0.020072963263499888 0 0 -0.011340619899548852 -0.017918954456506892 0 -0.026688509903301794 0 -0.077270421335129069 0.0022300243901367534 0.40873351602735397 0.01638303033877132 0.21243672562304294 0 -0.077270421335129069 0.01638303033877132 -0.081922398989204309 0 0 0 0 0 0 0 0 0 -4.2632564145606011e-14 -0.32765292208211222 0 -0.19596936428349296 0 -0.0056968718068023281 -4.2632564145606011e-14 -0.19596936428349296 7.1054273576010019e-15 -0.56388343192953616 -0.63104648900292493 -0.026432146087271902 -0.82974634009895309 -0.025476026360410353 -0.57282934339375691 0.094596232462793944 -0.55180265478669921 -0.29568973868124754 0.0085196393650186289 -0.65043753098992518 0.11270778059142934 0.060524278513078587 0 0 0.11270778059142934 -0.35330515390019512 0 0.063428085365911754 0 0 0 0.056652032133864438 0 0.061731157305474564 0 0 -0.082251772910455753 0 -0.10858544936795611 -0.0085196393650146026 -0.082251772910455753 0 -0.03049601558471482 -0.038528482884401839 -0.11227014734579276 -0.065644979416124405 -0.14250367796009261 -0.054675440194905917 -0.41526531998628863 -0.056206003140040352 -0.078059852996737095 0.046015163524230351 1.4609300439631248 0 0.6503554732230421 0.046015163524230351 1.0303378128484126 0 0 0 0 0 0 0 0 0 -0.066193632732021668 0 -0.11283583862285489 0 -0.069211936505623253 -0.0085216607974157518 0.1052412681591641 0.030788146921910491 0.035807358677409105 0 0.32226974225409954 0 0.14929659006498391 -0.023066937033991344 0 -0.060565844972840822 0.065957968485374177 -0.65158989500388353 0 0 0 0.013716876281202375 0 0.072248148311608432 0 0.043295645596732567 0 0 0 0 0.14076969799605182 0 -0.097170523699638744 0.14041410647186583 0.096037090190010888 0.037272476529708977 0.004654679369719722 -0.017405577093025631 0.042158567692774561 0.11270778059142934 -0.35330515390019512 0 0.063428085365911754 0 0 0 0.056652032133864438 0 0.061731157305474564 0 -0.069211936505623253 -0.0085216607974157518 0.1052412681591641 0.030788146921910491 0.035807358677409105 0 0.32226974225409954 0 0.14929659006498391 -0.023066937033991344 0 7.1054273576010019e-15 0 0 0 0 0 0.021085326067692495 0 -0.2594400689020997 0.45387467569630929 -0.22933595113463257 0.075951594333253936 -0.07089329287865484 0.2905332738567985 0.22965508991683209 -0.012177417247478603 0.11841524572958977 0.14719747941321717 0 0.21261679369318368 0 0.87645648615315963 0.0010839160525564218 0.040972979185346051 -0.030039451524997242 -0.061054805998036948 0.16517055304201755 -0.16171822267098765 -0.063876222258990478 -0.051069457140183384 -0.038053458333207175 0.065477031381562134 -0.13873644392049034 0.017929050865256816 0.0084824568865152165 -0.47990870667822555 0 0.023642241607539288 -0.073986315943097819 1.0018413387895033 0 -0.027453014637366824 0.32476439006049229 0.11800950303439391
label 1 2 3 4 5 6 7 8 9 10 11 12 13 14 15 16 17 18 19 20 21 22 23 24 25 26 27 28 29 30 31 32 33 34 35 36 37 38 39 40 41 42 43 44 45 46 47 48 49 50 51 52 53 54 55 56 57 58 59 60 61 62 63 64 65 66 67 68 69 70 71 72 73 74 75 76 77 78 79 80
nr_sv 3 3 3 3 3 3 3 3 3 3 3 3 3 3 3 3 3 3 3 3 3 3 3 3 3 3 3 2 3 2 3 3 3 3 3 3 3 3 3 3 3 3 3 3 3 3 3 3 3 3 3 3 3 3 3 3 3 3 3 3 3 3 3 3 3 3 3 3 3 3 3 3 3 3 3 3 3 3 3 3
SV
10.113782956676511 50.24231936622143 8.2432232658594664 0 0 0 0 59.781526861407684 2.9637707033707703 144.78121072099424 521.43672914521437 149.91838011241325 355.23833262657638 450.15058357008155 119.21149394052411 0 38.679150423449862 0 37.193153967946479 28.610381478787623 47.768216866562035 18.508875895882543 36.518215400885708 0 0 66.620138662769889 14.21970289619844 7.5844064613198796 0 19.698163813931814 53.509956119245281 150.4632064921002 114.06846849216643 131.76626576553272 149.45145338679643 168.14045987355698 88.942930302339434 75.520456840795987 39.749942721581512 2.4413770418860166 136.05985702632449 273.00492839648325 9.6131448722101602 224.7804723475947 176.66230011335881 136.05985702632449 125.25400313764101 2.4413770418860166 273.00492839648325 279.6342483790819 47.918631675573693 73.010180434787912 113.47691626979291 177.77196656945955 110.49981052148033 279.6342483790819 47.918631675573693 73.010180434787912 177.77196656945955 50.607804419390639 126.22040325007467 128.85976666761152 74.124830052803475 91.94471114905275 179.09210913660888 122.23762759814244 46.396911521507072 128.85976666761152 179.09210913660888 161.23208400024137 78.011792058030551 159.72064241581916 49.284262737906161 108.77273876595709 40.381390669339865 162.00048454249651 69.266658959919198 94.790299765961365 75.013820393016005 1:-0.67587 2:-0.438682 3:-0.651126 4:-0.586006 5:-0.43376 6:-0.445198 7:-0.670602 8:-0.730754 9:-0.590367 10:-0.658562 11:-0.675425 12:-0.575321 13:-0.522984 14:-0.622323 15:-0.683693 16:-0.593573 17:-0.592085 18:-0.657961 19:-0.794367 20:-0.5559 21:-0.178982 22:-0.633747 23:-0.769133 24:-0.531021 25:-0.193482 26:-0.241656 27:-0.816319 28:-0.708206 29:-0.12202 30:-0.388454 31:-0.762589 32:-0.710393 33:0.0659952 34:-0.274706 35:-0.617627 36:-0.859475 37:-0.435965 38:-0.307195 39:-0.609927 40:-0.850674 41:-0.577143 42:-0.67423 43:-0.646003 44:-0.788678 45:-0.724012 46:-0.563078 47:-0.603683 48:-0.750968 49:-0.752334 50:-0.771654 51:-0.818792 52:-0.765181 53:-0.715099 54:-0.717042 55:-0.803245 56:-0.737153 57:-0.72394 58:0.725589 59:-0.741313 
52.523510976305403 54.352378902436818 94.98879523436247 53.793845890194 51.045467822023141 30.258227505784514 47.083630812060932 0 46.827610320354914 0 34.107805887291981 0 0 12.777419864596563 0 17.48973218804278 30.79792579438389 61.540391096141178 75.13091886145331 0 0 0 0 0 4.6928751294811359 0 0 0 0 0 0 0 0 0 0 0 0 0 0 0 0 0 0 0 0 0 0 0 0 0 0 0 0 0 15.681938936976145 0 0 0 0 0 0 0 0 0 0 6.971792353682174 0 0 0 0 0 0 0 0 0 0 0 0 0 1:-0.0314743 2:0.175895 3:0.0631274 4:-0.267439 5:0.200602 6:0.22085 7:-0.186596 8:-0.488617 9:-0.000701426 10:-0.254786 11:-0.196482 12:-0.259615 13:-0.118905 14:-0.262816 15:-0.299492 16:-0.230087 17:-0.24947 18:-0.460477 19:-0.597269 20:-0.230433 21:0.199919 22:-0.35841 23:-0.645155 24:-0.224149 25:0.385653 26:0.394099 27:-0.667726 28:-0.592777 29:0.502768 30:0.255382 31:-0.674646 32:-0.543463 33:0.855818 34:0.378127 35:-0.328637 36:-0.753601 37:0.0207131 38:0.380994 39:-0.193788 40:-0.767466 41:-0.139171 42:-0.316261 43:-0.418178 44:-0.463187 45:-0.344897 46:-0.182342 47:-0.204473 48:-0.445616 49:-0.485004 50:-0.460859 51:-0.667142 52:-0.401791 53:-0.323255 54:-0.382579 55:-0.585371 56:-0.378271 57:-0.373261 58:0.372054 59:-0.368245 
8.6341126816948996 0 0 0 0 0 0 0 59.994409989344803 11.956921461719963 0 0 0 0 10.153243664876923 149.33004648223294 40.28349030842184 0 0 21.389200798860262 0 63.009266497154506 3.9303700974712519 20.985319327259361 25.823183061174763 0 0 27.753293634175233 2.3376008362141358 25.026583916619483 10.475401979123387 0 2.6047702016094982 1.5329459185507215 13.731015557949563 1.4924159021420591 0 0 19.704142524440698 65.248516904741635 9.5018983652147302 55.759261889410809 71.590065209978192 0 32.487779477166349 9.5018983652147302 44.277076929298794 65.248516904741635 55.759261889410809 -0 0 0 0 0 0 -0 0 0 0 40.974552497303108 0 0 0 22.691370037928998 0 18.412264770525184 0 0 0 69.856037126762814 0 0 0 0 0 0 0 0 0 1:-0.110988 2:-0.153365 3:0.027437 4:0.0863969 5:0.103471 6:-0.0858979 7:-0.199543 8:-0.3586 9:-0.0811316 10:-0.359844 11:-0.277763 12:-0.0811966 13:0.0957105 14:-0.282284 15:-0.404822 16:-0.0272891 17:-0.0742049 18:-0.320954 19:-0.520341 20:-0.252301 21:-0.117187 22:-0.287748 23:-0.538993 24:-0.200133 25:0.32272 26:0.438325 27:-0.503827 28:-0.48269 29:0.248837 30:-0.0156556 31:-0.49013 32:-0.463061 33:0.67665 34:0.330566 35:-0.317845 36:-0.714173 37:-0.0742267 38:0.171885 39:-0.0951378 40:-0.717585 41:-0.209954 42:-0.314355 43:-0.366614 44:-0.490565 45:-0.460871 46:-0.185831 47:-0.109314 48:-0.470172 49:-0.51709 50:-0.375516 51:-0.617815 52:-0.438712 53:-0.373239 54:-0.33429 55:-0.505249 56:-0.336168 57:-0.353499 58:0.3367 59:-0.386751 
-71.271406614676806 170.39493273136517 127.62540602882197 169.47822511101145 49.839841004096805 26.811456347556938 99.124082668587675 10.220773666723119 209.11185473302521 16.536054185754953 16.130325428995555 10.712831862362602 11.559277308156844 17.401314131319779 31.854908900348569 80.709482208710796 204.86935227495724 74.72228603652168 179.96733014878154 15.615632094163104 8.2869355872796664 31.034800884758784 13.400375081070546 1.8758496557133117 8.2671147174080932 7.4939134233437059 4.3510088468769075 16.797305577470667 0 33.781443298969023 18.943072154821525 12.56118115659908 26.776625457656237 31.427894918251479 31.430014462453759 13.585578318801407 10.304699980898134 11.89633017439737 16.636289987515759 20.092779589482323 27.506112846240224 24.506990325582201 29.466913917496065 21.705266535223213 21.396671870058061 27.506112846240224 19.786293196802365 20.092779589482323 24.506990325582201 12.725948479421582 9.642155741482977 10.772151102241979 13.452476732895164 12.63617355409799 21.997540272143475 12.725948479421582 9.642155741482977 10.772151102241979 12.63617355409799 27.177261988744803 11.502265527035837 18.822063837353966 7.692555737318461 34.904975304480985 11.501973759082098 29.397300886971564 6.9354106088878922 18.822063837353966 11.501973759082098 25.078013336302945 8.8638335731931797 10.66881010945294 7.1250876981383353 8.876970069911124 6.5731654377482966 10.44572024857219 7.6043418116022163 9.7135902824819524 8.0894870809512085 1:0.0392049 2:0.355491 3:-0.151907 4:-0.225912 5:0.138713 6:0.339664 7:-0.166032 8:-0.414923 9:0.0236147 10:-0.333263 11:-0.28825 12:-0.469017 13:-0.420707 14:-0.314082 15:-0.302665 16:-0.43621 17:-0.430954 18:-0.593753 19:-0.604097 20:-0.385695 21:-0.0366907 22:-0.539938 23:-0.523359 24:-0.376251 25:0.116689 26:0.176284 27:-0.712705 28:-0.373068 29:0.0799439 30:-0.129159 31:-0.650386 32:-0.406397 33:0.323615 34:0.258777 35:-0.382198 36:-0.751898 37:-0.120818 38:0.0709711 39:-0.417935 40:-0.680726 41:-0.232074 42:-0.361364 43:-0.397957 44:-0.385997 45:-0.252918 46:-0.270982 47:-0.319836 48:-0.406646 49:-0.344738 50:-0.179606 51:-0.592484 52:-0.150167 53:0.0110178 54:-0.0861143 55:-0.577819 56:-0.154622 57:-0.0924938 58:0.33165 59:-0.23713 
-0 0 0 10.916729578642226 0 0 0 0 0 0 0 0 0 0 0 0 0 0 0 0 0 7.5869561897138569 0 8.9178199723767548 0 0 0 0 0 0 0 0 0 0 0 0 0 0 0 0 0 0 0 0 0 0 0 0 0 0 0 0 0 0 0 0 0 0 0 0 0 0 0 0 0 0 0 0 0 0 0 0 0 0 0 0 0 0 0 1:0.104362 2:0.51216 3:-0.0724961 4:-0.158785 5:0.273665 6:0.477901 7:-0.111957 8:-0.329122 9:0.115268 10:-0.275038 11:-0.148413 12:-0.422543 13:-0.330725 14:-0.21804 15:-0.243655 16:-0.409059 17:-0.355194 18:-0.543774 19:-0.533542 20:-0.365285 21:-0.0643358 22:-0.451001 23:-0.425195 24:-0.36958 25:0.116689 26:0.142008 27:-0.636406 28:-0.254155 29:-0.00155016 30:-0.0919765 31:-0.536784 32:-0.354838 33:0.281209 34:0.299159 35:-0.29666 36:-0.702247 37:-0.0671941 38:0.0605676 39:-0.307422 40:-0.595089 41:-0.258618 42:-0.285768 43:-0.269215 44:-0.248729 45:-0.132545 46:-0.20677 47:-0.243579 48:-0.291339 49:-0.316344 50:-0.104973 51:-0.53949 52:-0.0707066 53:0.137765 54:-0.0813646 55:-0.527578 56:-0.060312 57:0.0342803 58:0.249158 59:-0.157594 
-0 0 0 192.87374155966367 105.30233597684663 149.71114275673847 304.1980615677025 0 67.454614240020817 0 0 0 0 0 0 19.903556720758356 0 51.881685256713361 0 0 0 0 0 1.8676463873397402 8.2448669419856095 0 0 0 3.5405749049763462 0 0 0 0 0 0 0 0 0 0 0 0 0 0 0 0 0 0 0 0 0 0 0 0 0 0 0 0 0 0 0 0 0 0 0 0 0 0 0 0 0 0 0 0 0 0 0 0 0 0 1:0.507454 2:0.769454 3:0.275485 4:0.246818 5:0.524659 6:0.745234 7:0.137091 8:-0.034873 9:0.36404 10:-0.142556 11:0.160103 12:-0.186966 13:-0.0563085 14:-0.0687865 15:-0.0583756 16:-0.121485 17:-0.106996 18:-0.38898 19:-0.261337 20:-0.197631 21:0.146255 22:-0.290794 23:-0.249227 24:-0.18012 25:0.610414 26:0.567687 27:-0.480749 28:-0.100405 29:0.345685 30:0.217221 31:-0.397755 32:-0.129712 33:0.746621 34:0.749635 35:-0.0592321 36:-0.532606 37:0.170155 38:0.39972 39:-0.107001 40:-0.488926 41:-0.0241475 42:-0.0488158 43:-0.13306 44:-0.104235 45:0.026619 46:0.0668295 47:-0.0402265 48:-0.111971 49:-0.135759 50:0.122379 51:-0.387508 52:0.197371 53:0.362696 54:0.237662 55:-0.328586 56:0.208471 57:0.268439 58:-0.013468 59:0.113299 
-81.852879142443641 -37.302548909799306 276.25499974149801 2.4795727129224208 0 0 0 33.713356763784503 3.9169886739331479 43.337085704396145 61.148143018551714 35.015342103230978 36.488781758929264 73.542026291911441 97.085313843607636 0 58.021692868331591 0 79.587589988456898 20.980567869893903 17.164024455120607 11.885403199797945 22.055749965269541 0.34977821059646441 0 17.6817246230944 7.7916434457596777 6.4147457797819909 0 32.62773134294369 53.411062827308562 32.463182005667008 47.470826058447152 98.183218056373391 55.723175738443388 37.754141465680448 25.66571513365826 26.44855233993448 30.252111507807662 2.6667815259261842 62.399514571667673 52.488939264090732 24.406994915506232 38.173781420481376 55.251094996278624 62.399514571667673 48.601296056500487 2.6667815259261842 52.488939264090732 39.975849049615192 18.510073556101553 24.565768261559047 32.124690523558485 35.065106937062538 37.548040012736706 39.975849049615192 18.510073556101553 24.565768261559047 35.065106937062538 38.697090351272408 35.020750837568983 44.48031847817613 18.771010447120283 58.34179417962325 32.758466774317654 86.140740693032612 15.81750471869773 44.48031847817613 32.758466774317654 57.452455444427486 22.521838935418174 29.417197362883975 16.754865010076553 22.735573118244616 15.194551514273289 27.985207747083827 18.232021960300187 24.277474781531609 19.663941621923179 1:-0.311982 2:0.206464 3:-0.274147 4:-0.630662 5:-0.250672 6:0.0906105 7:-0.295506 8:-0.642848 9:-0.171849 10:-0.404989 11:-0.389632 12:-0.686432 13:-0.609613 14:-0.496431 15:-0.505076 16:-0.57972 17:-0.622615 18:-0.627072 19:-0.762276 20:-0.515444 21:-0.121252 22:-0.573136 23:-0.745501 24:-0.611074 25:-0.178498 26:0.0469214 27:-0.825739 28:-0.706348 29:-0.123201 30:-0.136008 31:-0.765389 32:-0.728771 33:-0.0527432 34:-0.0992709 35:-0.5173 36:-0.809215 37:-0.382342 38:-0.161026 39:-0.594943 40:-0.810836 41:-0.489032 42:-0.578306 43:-0.554671 44:-0.501592 45:-0.504461 46:-0.549119 47:-0.555777 48:-0.586281 49:-0.58126 50:-0.483318 51:-0.743967 52:-0.476435 53:-0.320131 54:-0.501324 55:-0.755795 56:-0.511989 57:-0.376617 58:0.56734 59:-0.491092 
-11.910335632108845 -41.46609185302939 368.62116827250964 171.02929363432207 296.7408544945925 99.432323830973274 125.55976688488801 0 0 0 0 0 0 0 0 9.010379792953664 0 241.56950010675422 158.09130205863096 0 0 0 0 0 6.1901134553900974 0 0 0 2.5227060522337217 0 0 0 0 0 0 0 0 0 0 0 0 0 0 0 0 0 0 0 0 0 0 0 0 0 0 0 0 0 0 0 0 0 0 0 0 0 0 0 0 0 0 0 0 0 0 0 0 0 0 1:0.302043 2:0.870079 3:0.321883 4:-0.351632 5:0.372515 6:0.618422 7:0.0700685 8:-0.449664 9:0.312602 10:-0.0725173 11:-0.0330475 12:-0.413462 13:-0.294956 14:-0.240753 15:-0.246827 16:-0.292146 17:-0.327491 18:-0.488937 19:-0.631636 20:-0.33467 21:0.534912 22:-0.420544 23:-0.676786 24:-0.367578 25:0.799213 26:0.697049 27:-0.782645 28:-0.576752 29:0.466155 30:0.21135 31:-0.7248 32:-0.617739 33:0.7392 34:0.692204 35:-0.245497 36:-0.76139 37:0.0338992 38:0.605709 39:-0.384219 40:-0.764817 41:-0.207005 42:-0.288309 43:-0.208552 44:-0.197776 45:-0.106151 46:-0.0888152 47:-0.167322 48:-0.414654 49:-0.296469 50:-0.0807869 51:-0.560488 52:0.0697534 53:0.188642 54:0.0357965 55:-0.551877 56:-0.069743 57:0.0879728 58:0.250842 59:-0.147357 
-10.831483494105759 -91.62629196853652 134.40943752411235 38.651426989761532 26.682671914811415 -0 58.333833025868771 0 106.25009234193389 0 0 0 0 0 0 43.116012927489763 147.76135236994708 100.77231509306044 226.93311968127836 0 0 22.781995085258799 0 10.285640192109353 8.1106463249165408 0 0 9.299006571001712 0 2.7597110897164137 0 0 0 0 0 0 0 0 0 21.386148597435152 0 0 4.1268305819415172 0 0 0 0 21.386148597435152 0 0 0 0 0 0 0 0 0 0 0 0 0 0 0 0 0 0 0 0 0 0 0 0 0 0 0 0 0 0 0 1:-0.0491441 2:0.374597 3:0.0158376 4:-0.454597 5:0.00376061 6:0.265405 7:-0.166032 8:-0.424924 9:0.0759878 10:-0.210063 11:-0.216584 12:-0.513355 13:-0.421825 14:-0.347177 15:-0.377538 16:-0.373597 17:-0.430954 18:-0.556269 19:-0.620028 20:-0.442551 21:0.238947 22:-0.451001 23:-0.665879 24:-0.518012 25:0.279266 26:0.284638 27:-0.744966 28:-0.628544 29:0.0391969 30:0.0176125 31:-0.705905 32:-0.677722 33:0.15929 34:0.396971 35:-0.340228 36:-0.752141 37:-0.283006 38:0.236386 39:-0.459767 40:-0.76879 41:-0.424147 42:-0.395033 43:-0.405708 44:-0.363563 45:-0.330901 46:-0.367999 47:-0.418254 48:-0.500067 49:-0.462857 50:-0.302611 51:-0.650811 52:-0.230831 53:-0.0782405 54:-0.263043 55:-0.679613 56:-0.320338 57:-0.240148 58:0.405724 59:-0.342652 
-52.073513347711582 -68.303067934650599 -420.86942985431114 25.854794135725488 0.83599271491923388 0 13.979001020916147 24.827506861685691 1.3485427825655947 25.508453548057521 38.343803065727784 22.825585223763227 23.965372175995185 40.309110217340184 45.74390070999344 17.982142913797134 57.72093880663401 87.017891101131951 232.22638417085849 15.625652302278944 11.864110061770077 16.496486806298428 14.651416337266836 3.5665892258483023 2.5056927233167094 13.003607976146281 6.4108606843181839 8.1167300594415828 0 20.592396322820278 29.902499536594775 20.508796518986028 35.738275894708138 55.219634857994926 33.38826626387052 26.810000926840345 18.641413249155253 17.160513223356912 19.460328212646925 9.4772337450068793 34.846219212870359 34.96135842416399 12.040461358865072 22.552338863138491 32.317161894299652 34.846219212870359 28.841053921779285 9.4772337450068793 34.96135842416399 23.509614763761149 12.658868374966897 15.828951030609291 19.956768227549681 23.515945279210566 29.461404588368556 23.509614763761149 12.658868374966897 15.828951030609291 23.515945279210566 23.383576929944812 21.804506665904199 27.908232082653175 13.927308256666437 33.146945350905334 21.851592904217348 45.702992373020948 11.654696969275957 27.908232082653175 21.851592904217348 32.838066702096235 15.477450649367427 18.764298967792296 12.410725593121036 15.412826371146959 11.59531576561135 18.452946527069738 13.593067195571718 16.391555482605263 14.476820300594868 1:-0.188294 2:0.407714 3:-0.131385 4:-0.653417 5:-0.0374987 6:0.340807 7:-0.241432 8:-0.729701 9:-0.197101 10:-0.445071 11:-0.411482 12:-0.64797 13:-0.582786 14:-0.410772 15:-0.477792 16:-0.643441 17:-0.663322 18:-0.675662 19:-0.818947 20:-0.664146 21:0.162517 22:-0.62065 23:-0.802945 24:-0.637425 25:0.0185428 26:0.0469214 27:-0.810903 28:-0.79948 29:0.0575035 30:-0.0753425 31:-0.808544 32:-0.812363 33:0.0670554 34:0.0496915 35:-0.522896 36:-0.887342 37:-0.404318 38:0.113625 39:-0.566534 40:-0.854095 41:-0.554654 42:-0.568459 43:-0.566804 44:-0.510338 45:-0.434077 46:-0.501658 47:-0.48669 48:-0.597491 49:-0.555138 50:-0.478826 51:-0.735135 52:-0.494093 53:-0.29246 54:-0.400787 55:-0.735108 56:-0.454056 57:-0.360584 58:0.547138 59:-0.437149 
-51.158505152510365 -9.2643730910794186 -236.67660126058226 61.610337286903111 250.17294671541453 175.02394439828069 59.444639023723433 0 24.46384571678264 0 0 0 0 0 0 8.0128842731847953 0 144.1136515996761 206.09045702512122 0 0 0 0 0 8.281089776901851 0 0 0 2.4488409081594127 0 0 0 0 0 0 0 0 0 0 5.4552281893937318 0 0 0 0 0 0 0 5.4552281893937318 0 0 0 0 0 0 0 0 0 0 0 0 0 0 0 0 0 0 0 0 0 0 0 0 0 0 0 0 0 0 0 1:0.233573 2:0.695578 3:0.325452 4:-0.0762995 5:0.3622 6:0.50532 7:-0.0152323 8:-0.365969 9:0.213467 10:-0.16112 11:0.0491069 12:-0.188034 13:-0.1312 14:-0.242051 15:-0.34264 16:-0.192409 17:-0.206502 18:-0.475748 19:-0.545832 20:-0.311344 21:0.547922 22:-0.436991 23:-0.582621 24:-0.266177 25:0.911594 26:0.634027 27:-0.640881 28:-0.525889 29:0.605522 30:0.208415 31:-0.592302 32:-0.537337 33:0.771005 34:0.714638 35:-0.202328 36:-0.759929 37:0.163123 38:0.776326 39:-0.261843 40:-0.739435 41:-0.176037 42:-0.19302 43:-0.197767 44:-0.231237 45:-0.0877553 46:0.0437969 47:-0.0519584 48:-0.313226 49:-0.361775 50:-0.115339 51:-0.512827 52:-0.0642855 53:0.169898 54:0.140291 55:-0.48489 56:-0.0333663 57:0.0342803 58:0.207071 59:-0.133182 
-0 -50.057965003091986 -121.73957442322643 144.89019224814373 240.49854532079732 31.174872258858173 160.93057632659895 0 104.46361839927425 0 0 0 0 0 0 23.706825804254979 154.83397199774618 306.8124520014108 225.01208200054083 -0 0 10.073042606697621 0 6.3164593282182091 5.299472975905565 0 0 5.1661524246530286 0.2262766440938333 4.2343197936384458 0 0 0 0 0 0 0 0 0 5.6446806230196138 0 0 9.7615065195432056 0 0 0 -0 5.6446806230196138 0 0 0 0 0 -0 0 0 0 0 -0 1.659927021281814 0 0 0 0 0 0 0 0 0 0 0 0 0 0 0 0 0 0 0 1:0.266703 2:0.719779 3:0.36025 4:-0.0677665 5:0.247018 6:0.577294 7:0.0693069 8:-0.268062 9:0.140519 10:-0.193186 11:-0.123942 12:-0.188034 13:-0.196032 14:-0.21804 15:-0.358503 16:-0.137 17:-0.205371 18:-0.440347 19:-0.544467 20:-0.432346 21:0.554426 22:-0.313333 23:-0.576804 24:-0.410941 25:0.613411 26:0.48034 27:-0.541505 28:-0.600441 29:0.440171 30:0.335616 31:-0.502726 32:-0.58175 33:0.669229 34:0.670667 35:-0.179945 36:-0.741675 37:0.0330202 38:0.602588 39:-0.249356 40:-0.734138 41:-0.218802 42:-0.346753 43:-0.242254 44:-0.2358 45:-0.15734 46:-0.0483336 47:-0.123653 48:-0.385827 49:-0.398119 50:-0.101518 51:-0.533491 52:-0.00408839 53:0.22613 54:0.102293 55:-0.528563 56:0.0434288 57:0.0186199 58:0.200337 59:-0.119795 
-48.602352047344425 -0 -212.16029333700601 -179.71765943909759 125.2410680492106 0 0 5.9501130380267568 0 0 5.6614148168397955 3.6778178891839746 0.61692699622143465 3.6986368688486095 0 0 73.735092803766818 252.72194698918557 163.73052055159576 0 0 0 0 0 0 1.118794720102493 0.08829163740240234 0 0 0 0 0 0 0 0 0 0 0 0 0 0 9.1600863943383626 0 0 0 0 0 0 9.1600863943383626 0 0 0 0 1.882365959475605 0 0 0 0 1.882365959475605 0 0.57091216968894054 0.14141720339103286 2.8051296360633211 0 4.2793243478188954 5.5191392225172349 1.1900242100786371 0.14141720339103286 4.2793243478188954 0 0 0 0.81126054659542779 0.90861706247105689 1.9437605087649665 0.95886222154510525 2.693867636988454 0 3.1264364525442541 1:0.219216 2:0.680293 3:0.181798 4:-0.217948 5:0.354464 6:0.675544 7:0.0167555 8:-0.442821 9:0.201309 10:-0.178841 11:0.0132736 12:-0.316239 13:-0.20218 14:-0.0902012 15:-0.243655 16:-0.260008 17:-0.302049 18:-0.453536 19:-0.543556 20:-0.285103 21:0.0901514 22:-0.364502 23:-0.563352 24:-0.313542 25:0.451583 26:0.54668 27:-0.687507 28:-0.539824 29:0.310253 30:0.222114 31:-0.613063 32:-0.578177 33:0.688312 34:0.501066 35:-0.238302 36:-0.724395 37:0.111258 38:0.349784 39:-0.286194 40:-0.707873 41:-0.186359 42:-0.276875 43:-0.247646 44:-0.198536 45:-0.127746 46:-0.0273949 47:-0.184268 48:-0.313226 49:-0.318616 50:-0.031032 51:-0.515493 52:0.00634578 53:0.201138 54:0.0825025 55:-0.491129 56:0.00031577 57:0.0417375 58:0.234007 59:-0.137907 
-5.1914938428495647 -209.32600236651746 -0 -0 0 15.542633748732827 186.78795761453409 0.029048435204981238 308.23724150060457 8.7264026847243379 2.8347443059386039 2.4612986703507427 5.9228316061747304 4.925508117850657 12.595469683274224 73.395472428845281 83.179530387231466 0 4.6107389938168897 12.271268054048113 5.2927559549441687 26.505379367872941 8.664655251662726 11.898709435369994 17.477856141005109 3.6512756569941192 3.0328685176139838 13.237258986560731 2.818588365228035 17.191373376001231 9.4247351030207955 7.1589569230664214 13.760715741573865 13.527950981664887 14.749525044506461 7.5386067355003181 6.2222413428623335 7.1110689142164452 9.5818830096674255 18.824325308705998 12.843241290140822 3.4963129821801471 21.084745081085408 12.450808917386533 10.491569706725093 12.843241290140822 10.521295676146186 18.824325308705998 3.4963129821801471 6.9625838045338995 6.0202180843200068 6.3563519699815245 7.5740458752747619 5.2076036524636384 12.78907183802904 6.9625838045338995 6.0202180843200068 6.3563519699815245 5.2076036524636384 14.384066873861324 5.8905046171980793 9.9305455327674554 2.0582264480171779 16.019142136666535 2.3637279219473148 7.8380503368562291 3.2639765563211776 9.9305455327674554 2.3637279219473148 12.09176564028164 5.3763064862218108 6.2151901782218131 3.7445961537501669 4.4269591294678232 2.3536426694971433 5.2083287710489179 2.1117291537037497 5.7779965071415562 1.9291752510307709 1:0.262286 2:0.510886 3:0.229088 4:-0.0950722 5:0.449876 6:0.535023 7:0.0175171 8:-0.309646 9:0.181669 10:-0.177153 11:-0.0216857 12:-0.229701 13:-0.113316 14:-0.046074 15:-0.193528 16:-0.187422 17:-0.199717 18:-0.346638 19:-0.498037 20:-0.260319 21:0.00315073 22:-0.332826 23:-0.472096 24:-0.316211 25:0.415621 26:0.381936 27:-0.590957 28:-0.472007 29:0.226397 30:-0.00684932 31:-0.520455 32:-0.518705 33:0.456136 34:0.426584 35:-0.171151 36:-0.696405 37:0.043569 38:0.344582 39:-0.168813 40:-0.658434 41:-0.19447 42:-0.247017 43:-0.133734 44:-0.232758 45:-0.0565623 46:-0.0406561 47:-0.147769 48:-0.293474 49:-0.241384 50:-0.0172112 51:-0.485163 52:0.0207931 53:0.11902 54:0.0801277 55:-0.455337 56:0.0339979 57:0.0365174 58:0.180135 59:-0.0906585 
-0 -163.94269388279992 -0 -52.637664231674798 151.77854730172768 105.68364289939781 458.09266215107249 0 7.1601154155743165 0 0 0 0 0 0 0 39.245257690525349 42.69835782410334 89.429082051809189 0 0 0 0 0 0 0 0 0 0 0 0 0 0 0 0 0 0 0 0 0 0 0 0 0 0 0 0 0 0 0 0 0 0 0 0 0 0 0 0 0 0 0 0 0 0 0 0 0 0 0 0 0 0 0 0 0 0 0 0 1:0.303147 2:0.684114 3:0.131831 4:-0.169594 5:0.308907 6:0.578436 7:0.0677837 8:-0.328069 9:0.314473 10:-0.130742 11:-0.0391653 12:-0.226496 13:-0.184854 14:-0.0791694 15:-0.15165 16:-0.16415 17:-0.22742 18:-0.475748 19:-0.504865 20:-0.326651 21:0.183657 22:-0.338917 23:-0.522632 24:-0.338225 25:0.358681 26:0.506876 27:-0.614977 28:-0.49709 29:0.235846 30:0.143836 31:-0.55078 32:-0.500838 33:0.54837 34:0.597084 35:-0.254291 36:-0.707845 37:-0.0109335 38:0.364349 39:-0.173183 40:-0.687126 41:-0.184885 42:-0.183491 43:-0.266519 44:-0.225153 45:-0.176535 46:-0.0971907 47:-0.0754221 48:-0.260376 49:-0.237977 50:0.0408362 51:-0.498828 52:0.0095563 53:0.218097 54:0.112584 55:-0.466829 56:0.102709 57:0.0879728 58:0.185185 59:-0.0890836 
-51.045467822023141 -0 -283.772104448032 -282.90438773970499 -131.49786379475555 0 0 5.6015695010370301 8.9683815653528516 7.4617138994147032 7.9924007191495949 5.7157785071506781 6.0854756534578058 7.929231913695979 10.451667965554851 13.426558737377185 126.94680292759317 300.09441756064632 135.96361520338624 4.8228428205973959 4.739734920664068 7.3461442936545875 6.8734348869546125 0 0 4.4896788490599411 2.9614542835683499 9.6376735224120953 0 9.6815890597201566 7.7195258191509142 6.2473109390767476 11.627976091464566 11.162671368452573 11.626058333968551 7.0412033306473258 5.788406568137022 6.1744887996134246 7.7947204538971242 14.142363846200114 11.040692823016888 12.213861028624335 16.000930840283647 9.7601933281091959 9.2647763547706852 11.040692823016888 9.0463589147509165 14.142363846200114 12.213861028624335 6.173675392569975 5.1860089295760359 5.5384954646456288 6.565001561305297 6.6237715590487962 11.906655633322032 6.173675392569975 5.1860089295760359 5.5384954646456288 6.6237715590487962 11.147287619916268 5.9439040428088799 9.410556829451064 4.7228898297450685 12.663110645495596 6.3882394243385834 12.476902002138818 4.2134139389199721 9.410556829451064 6.3882394243385834 10.778365682361919 4.9314004209140183 5.6722440592148029 4.2665820329288309 4.9892617908712289 4.102008801955991 5.7974134684030005 4.6143633377229323 5.2893469126274315 4.8404970440082273 1:0.158476 2:0.621701 3:0.105064 4:-0.311242 5:0.228967 6:0.506462 7:0.00456969 8:-0.33386 9:0.207856 10:-0.118928 11:-0.0854864 12:-0.303419 13:-0.232919 14:-0.214796 15:-0.253173 16:-0.225655 17:-0.240424 18:-0.447983 19:-0.562219 20:-0.358724 21:0.528407 22:-0.276784 23:-0.602254 24:-0.335557 25:0.716801 26:0.704789 27:-0.69834 28:-0.554688 29:0.39529 30:0.3591 31:-0.61073 32:-0.61289 33:0.768884 34:0.740662 35:-0.203927 36:-0.730723 37:-0.066315 38:0.532885 39:-0.194412 40:-0.745394 41:-0.145806 42:-0.201914 43:-0.141822 44:-0.253672 45:-0.174136 46:-0.04275 47:-0.116484 48:-0.344188 49:-0.341899 50:-0.0849332 51:-0.464499 52:0.029622 53:0.149368 54:0.102293 55:-0.463874 56:-0.0165253 57:0.0946843 58:0.239057 59:-0.13397 
-0 -155.14217698094345 -39.651421961371831 -146.49517341730322 -145.52175155618272 140.69349141671853 368.13999860226596 0 107.30671151433238 0 0 0 0 0 0 25.448948867931019 0 0 80.672020414591572 4.5071957301132004 0 10.602536828199158 0 9.1741390708740536 5.8948884679878546 0 0 0.28691245866558102 0 1.9802567120220893 0 0 0 0 0 0 0 0 0 0 0 0 0 0 0 0 0 0 0 0 0 0 0 0 0 0 0 0 0 0 0 0 0 0 0 0 0 0 0 0 0 0 0 0 0 0 0 0 0 1:0.318609 2:0.74398 3:0.248717 4:-0.0603712 5:0.332116 6:0.620707 7:0.00456969 8:-0.235952 9:0.359364 10:-0.154369 11:-0.0269296 12:-0.145299 13:-0.155792 14:-0.205711 15:-0.204949 16:-0.10597 17:-0.17371 18:-0.518091 19:-0.50441 20:-0.249385 21:0.453603 22:-0.351709 23:-0.487002 24:-0.288859 25:0.703315 26:0.668302 27:-0.675026 28:-0.388861 29:0.304348 30:0.195695 31:-0.583438 32:-0.432942 33:0.811291 34:0.829501 35:-0.302656 36:-0.711982 37:0.0945552 38:0.463182 39:-0.303676 40:-0.704783 41:-0.0728111 42:-0.136482 43:-0.225403 44:-0.248729 45:-0.142943 46:-0.0392602 47:-0.136037 48:-0.33885 49:-0.302715 50:-0.0559095 51:-0.441501 52:0.0480825 53:0.228808 54:0.266952 55:-0.452381 56:-0.015178 57:0.0834984 58:0.154882 59:-0.0749089 
-0 -0 -0 -62.107923594122894 -0 309.60583875000606 82.794180690530595 0 35.444432572635826 0 0 0 0 0 0 0 10.011210709006708 0 52.59595495826818 0 0 0 0 0 9.3513283678062127 0 0 0 2.9085863647877623 0 0 0 0 0 0 0 0 0 0 4.0063745290366182 0 0 0 0 0 0 0 4.0063745290366182 0 0 0 0 0 0 0 0 0 0 0 0 0 0 0 0 0 0 0 0 0 0 0 0 0 0 0 0 0 0 0 1:0.331861 2:0.741432 3:0.2853 4:-0.00689753 5:0.366498 6:0.577294 7:0.0380807 8:-0.146467 9:0.263035 10:-0.0640789 11:-0.0374174 12:-0.13141 13:0.00964091 14:-0.193381 15:-0.214467 16:-0.02064 17:-0.0244523 18:-0.320954 19:-0.455704 20:-0.250114 21:0.344649 22:-0.242671 23:-0.489184 24:-0.27952 25:1 26:0.83194 27:-0.599906 28:-0.460858 29:0.434266 30:0.308219 31:-0.514856 32:-0.521768 33:0.80493 34:1 35:-0.188738 36:-0.692025 37:0.0655458 38:0.552651 39:-0.169437 40:-0.671676 41:-0.166452 42:-0.0723205 43:-0.189679 44:-0.239603 45:-0.0413657 46:-0.0378642 47:-0.0799845 48:-0.361804 49:-0.312937 50:-0.0165202 51:-0.415504 52:0.0753718 53:0.228808 54:0.182248 55:-0.406409 56:0.0191777 57:0.111836 58:0.124579 59:-0.0528595 
-6.2336622036442781 -142.9473329277524 -0 -13.565227701193152 -82.792079379305648 -112.86668600791374 205.17330124330442 2.7103413330847115 162.15605303045507 6.1861636286874706 3.5826735927353646 3.2774806042908469 3.9839302172965527 4.7463605536672375 8.2362659076393498 37.394256804903193 46.776716151506406 30.508375562662632 36.125171635647156 7.7994043463268286 4.1372360009124147 17.968452528852815 6.3715406913926991 7.7219690552424805 0 3.1710337485078095 2.4058847553448759 10.054470653669132 0 10.685546323925131 6.4922784016593296 5.2137318962548775 9.7287309611702391 8.7231222937195536 9.6701939720140366 4.5198291979280052 4.8019540727642527 5.2986767217161468 6.8520635771174971 17.373552865515133 8.5752219807449741 2.1440785327410334 14.979536771579504 8.6274902641797393 7.0048570142459354 8.5752219807449741 7.4245817448007143 17.373552865515133 2.1440785327410334 5.0493616373240444 4.58291077329375 4.749114559272444 5.5226123987092457 4.185680133265083 9.5675556997706934 5.0493616373240444 4.58291077329375 4.749114559272444 4.185680133265083 9.468077745930108 4.8017987695280748 7.4056553635906139 2.4435022014667402 10.152700655012325 4.096885394068928 9.02476537911493 3.1842599333889563 7.4056553635906139 4.096885394068928 7.4903737040079772 4.1115991824451168 4.6810004941255983 3.592400063637573 3.1592854791257445 2.9404780267836839 4.4623790668950152 2.9609143155724449 4.409379186221531 3.1978542443956148 1:0.380453 2:0.701946 3:0.255855 4:0.131906 5:0.434404 6:0.683542 7:0.251333 8:-0.134886 9:0.253682 10:-0.1434 11:-0.0863604 12:-0.188034 13:0.0129943 14:-0.00713822 15:-0.178934 16:-0.000692617 17:-0.128481 18:-0.291106 19:-0.366486 20:-0.324465 21:0.422706 22:-0.197594 23:-0.327759 24:-0.246831 25:0.820191 26:0.71474 27:-0.405864 28:-0.372139 29:0.318521 30:0.261252 31:-0.324041 32:-0.423243 33:0.709515 34:0.682333 35:-0.0592321 36:-0.636532 37:0.0338992 38:0.527683 39:-0.0158433 40:-0.579639 41:-0.0882949 42:-0.187938 43:-0.0986835 44:-0.25025 45:-0.107751 46:-0.00436224 47:-0.0649938 48:-0.068197 49:-0.203336 50:0.0194139 51:-0.425837 52:0.0095563 53:0.224345 54:0.0326299 55:-0.434978 56:0.0339979 57:0.149868 58:0.0740741 59:-0.0142731 
-24.024565302140232 -33.575266176542996 -99.432323830973274 -192.6335889559457 -38.434197268824974 -337.43264415881083 153.236621341746 1.7345984342139167 14.762529156991372 0 2.5385747038231932 1.2948214232475612 0.90464465711466147 1.40116655094443 0 0 25.316731961677718 51.859249376938678 112.63585191596277 0 0 0 0 0 0 0.58251888386779083 0.19002891441458208 0 0 0 0 0.043498555097458036 0 0 0 1.0926574113658227 0 0 0 0 0 6.8121738393771993 0 0 0.2254992712978946 0 0 0 6.8121738393771993 0 0 0 0 1.1606432320059299 0 0 0 0 1.1606432320059299 0 0 0 1.403829046526095 0 0.93050911329509978 0.092616517362337322 0.34380285296442809 0 0.93050911329509978 0.74962588445823541 0 0 0 0.95508486445630236 0.48781491606148025 0.26402670110825394 0.83996933402201801 0 0.76944030199794966 1:0.3418 2:0.868805 3:0.262994 4:0.038612 5:0.374234 6:0.674402 7:-0.0380807 8:-0.230688 9:0.277063 10:-0.161964 11:-0.0181898 12:-0.117521 13:0.00405198 14:-0.0635951 15:-0.180838 16:-0.112619 17:-0.131873 18:-0.373015 19:-0.476188 20:-0.134943 21:0.505641 22:-0.264601 23:-0.448827 24:-0.15477 25:0.986514 26:0.749015 27:-0.548098 28:-0.411157 29:0.512217 30:0.327789 31:-0.532585 32:-0.403845 33:0.856878 34:0.845653 35:-0.125584 36:-0.672067 37:0.216746 38:0.522481 39:-0.208148 40:-0.652916 41:0.00387097 42:-0.252099 43:-0.227425 44:-0.154427 45:-0.0653603 46:0.0458908 47:0.00148685 48:-0.268384 49:-0.332813 50:-0.107046 51:-0.487496 52:-0.000877875 53:0.237734 54:0.0848774 55:-0.429395 56:0.136391 57:0.117056 58:0.116162 59:-0.0607343 
-0 -0 -0 -0 -0 -0 0 0 6.6674031361501367 0 0 0 0 0 0 11.281007336229795 0 0 0 2.2046858108591092 0 0 0 2.5899380626027919 19.020331419331931 0 0 0 3.46382947367989 0 0 0 0 0 0 0 0 0 0 0 0 0 0 0 0 0 0 0 0 0 0 0 0 0 0 0 0 0 0 0 0 0 0 0 0 0 0 0 0 0 0 0 0 0 0 0 0 0 0 1:0.446715 2:0.754169 3:0.461967 4:0.250231 5:0.445579 6:0.760086 7:0.204874 8:-0.0654033 9:0.206921 10:-0.103739 11:0.0980499 12:0.143162 13:0.152718 14:0.149903 15:-0.205584 16:0.130073 17:0.0897527 18:-0.210586 19:-0.375135 20:-0.164829 21:0.396687 22:-0.0300769 23:-0.327759 24:-0.186124 25:0.844166 26:0.632921 27:-0.248558 28:-0.452962 29:0.470879 30:0.355186 31:-0.265724 32:-0.416096 33:0.640604 34:0.743354 35:-0.132779 36:-0.625337 37:0.0690621 38:0.497513 39:0.127137 40:-0.548077 41:-0.0573272 42:-0.190479 43:-0.157325 44:-0.118684 45:-0.0437652 46:-0.000872448 47:0.101208 48:-0.148806 49:-0.248199 50:-0.0179023 51:-0.393507 52:0.0593193 53:0.241304 54:0.213121 55:-0.377513 56:0.100015 57:0.205052 58:0.0151515 59:0.0125012 
-47.083630812060932 -63.470804977283805 -183.89359991075679 -147.10545699688731 -474.3790806438908 -59.496578175878852 -0 6.2298844940739428 85.588783267025221 8.7432335529058651 8.6967152270644412 6.318071666654741 6.7799359799946588 8.9230353566136582 13.019046813490224 41.480451734753814 158.14034446749812 249.54811526895921 214.71372834909559 11.36048328092417 5.3249068621445463 24.23007080207848 8.3952864503712696 3.6619095666496748 0 4.8725070362486971 3.1963225902815671 12.160684217718339 0 16.727685323756372 9.6786177240397819 7.2583488107181786 14.333877564271788 14.031362539244999 14.775257288898043 7.8219838926838703 6.4403034892045596 7.143265397185476 9.4063728378712508 13.32875041623352 12.810311033737634 12.578528382858572 19.089205072335975 12.012065609076261 10.444855335293157 12.810311033737634 10.41909084247173 13.32875041623352 12.578528382858572 7.1749384597751868 6.0080588672607451 6.4168214404827095 7.5671452018909271 7.2377463424699577 12.68437431010654 7.1749384597751868 6.0080588672607451 6.4168214404827095 7.2377463424699577 13.54735297097443 6.6452288805684336 10.328120604202972 5.0206265354294706 15.346830051847608 6.7809498866083953 13.605369092684324 4.5735096961955053 10.328120604202972 6.7809498866083953 12.159746733790712 5.464515631010376 6.3093967697146844 4.6604983060527641 5.5003171895075349 4.4238299954857849 6.3133237752264435 4.9340733122625009 5.874665380888902 5.1641699804818613 1:0.287686 2:0.719779 3:0.152353 4:-0.205433 5:0.218653 6:0.5613 7:0.0373191 8:-0.30175 9:0.213467 10:-0.149306 11:-0.0706287 12:-0.25641 13:-0.194914 14:-0.240104 15:-0.256345 16:-0.187976 17:-0.236466 18:-0.453536 19:-0.513969 20:-0.263964 21:0.331639 22:-0.398005 23:-0.521178 24:-0.32555 25:0.417119 26:0.378619 27:-0.675262 28:-0.476652 29:0.150808 30:0.0410959 31:-0.576906 32:-0.488586 33:0.319375 34:0.60157 35:-0.223113 36:-0.718554 37:0.0567551 38:0.347703 39:-0.297432 40:-0.701693 41:-0.209217 42:-0.224148 43:-0.253038 44:-0.288654 45:-0.11095 46:-0.0308847 47:-0.182313 48:-0.373549 49:-0.286815 50:-0.0807869 51:-0.461166 52:-0.0193383 53:0.199353 54:0.0350048 55:-0.467158 56:-0.0239353 57:0.114073 58:0.212121 59:-0.123733 
-0 -0 -0 -87.248759374351209 -0 -388.01284378017527 -214.17358782345752 0 0 0 0 0 0 0 0 0 0 0 22.643832291965936 0 0 0 0 0 0 0 0 0 0 0 0 0 0 0 0 0 0 0 0 4.1311997977405444 0 0 0 0 0 0 0 4.1311997977405444 0 0 0 0 0 0 0 0 0 0 0 0 0 0 0 0 0 0 0 0 0 0 0 0 0 0 0 0 0 0 0 1:0.421314 2:0.79875 3:0.222842 4:-0.0467183 5:0.398302 6:0.699536 7:0.154608 8:-0.161205 9:0.280804 10:-0.100364 11:0.0211395 12:-0.201923 13:-0.0428951 14:-0.154445 15:-0.226523 16:-0.0815902 17:-0.15788 18:-0.348026 19:-0.432945 20:-0.165558 21:0.460108 22:-0.341354 23:-0.461189 24:-0.248165 25:0.800712 26:0.637344 27:-0.612622 28:-0.30107 29:0.353953 30:0.0772994 31:-0.560111 32:-0.329313 33:0.553671 34:0.740662 35:-0.260686 36:-0.695432 37:0.127081 38:0.409084 39:-0.279326 40:-0.633935 41:-0.181935 42:-0.159351 43:-0.145866 44:-0.194734 45:-0.10935 46:-0.0441459 47:-0.110618 48:-0.320699 49:-0.356096 50:-0.0248127 51:-0.417838 52:0.051293 53:0.245767 54:0.0983351 55:-0.417246 56:-0.0104625 57:0.0462119 58:0.112795 59:-0.03396 
-0 -339.85133925900629 -0 -0 -170.50153912171575 -3.4247573367425317 -144.23633476159293 0 249.74164052020095 0 0 0 0 0 0 12.924673258741519 0 0 0 0 0 0.70082379051852928 0 7.3427521250738801 17.409364325842461 0 0 0 3.2148858200392287 0 0 0 0 0 0 0 0 0 0 0.44227907743963768 0 0 0 0 0 0 0 0.44227907743963768 0 0 0 0 0 0 0 0 0 0 0 0 0 0 0 0 0 0 0 0 0 0 0 0 0 0 0 0 0 0 0 1:0.433462 2:0.807666 3:0.291546 4:0.0716063 5:0.460191 6:0.749804 7:0.138614 8:-0.0538229 9:0.308861 10:-0.0396076 11:0.0727044 12:-0.123932 13:-0.0283638 14:-0.082414 15:-0.141497 16:-0.038371 17:-0.0459364 18:-0.380651 19:-0.358748 20:-0.216583 21:0.324322 22:-0.312115 23:-0.368115 24:-0.218813 25:0.522008 26:0.510193 27:-0.488284 28:-0.294102 29:0.270097 30:0.0645793 31:-0.425281 32:-0.33646 33:0.628942 34:0.62221 35:-0.0880112 36:-0.623389 37:0.126202 38:0.363308 39:-0.20128 40:-0.587585 41:0.0127189 42:-0.0691442 43:-0.132385 44:-0.153667 45:-0.0453648 46:-0.00366428 47:-0.115832 48:-0.232083 49:-0.188004 50:-0.0275768 51:-0.433169 52:-0.0105094 53:0.266297 54:0.107835 55:-0.428739 56:0.020525 57:0.148377 58:0.0690236 59:-0.00639827 
-32.917591686164606 -10.220773666723119 -33.713356763784503 -4.8827217219227519 -4.4580978478615947 -0 -3.9093257028334474 -6.2298844940739428 10.325476340088267 64.857566602248724 56.444600895936006 190.83986752661551 72.395821102478891 172.77004662198885 71.457553798074471 7.5547964482061589 16.686541334388941 1.8330774475745499 8.641273954836608 12.803174615287762 33.138674193567454 9.8751370711651703 20.393417594733279 5.536282195292257 4.7209818881111394 0 0 7.8644281358868717 1.5059990764126481 15.006132247608289 34.055455866711114 62.770188566297449 43.713889670554273 79.995306247974426 62.396899720692289 22.969108330972954 44.526316434817446 38.662073883626149 23.648300718728819 8.0298042278813497 44.85263011559897 5.4977462825354717 13.37387293668996 38.102325581395249 8.9348622322898859 44.85263011559897 23.71153620566599 8.0298042278813497 5.4977462825354717 84.40609314549036 29.653222282115468 38.855553817220233 42.435289356535677 45.469174481001687 0 84.40609314549036 29.653222282115468 38.855553817220233 45.469174481001687 17.856935611765394 76.538151135385064 46.55539985181953 0 29.140922694263072 30.526458055693013 60.453207650509668 0 46.55539985181953 30.526458055693013 43.547436426544863 12.047680879849029 59.949726925245429 0 53.597628749882276 0 48.604213938863751 0 26.029032863730148 0 1:-0.567642 2:-0.00370179 3:-0.507027 4:-0.886084 5:-0.477168 6:-0.142449 7:-0.629094 8:-0.909462 9:-0.545008 10:-0.68894 11:-0.622112 12:-0.954594 13:-0.910298 14:-0.693381 15:-0.780457 16:-0.877268 17:-0.914064 18:-0.882169 19:-0.932745 20:-0.831071 21:-0.327777 22:-0.812533 23:-0.913198 24:-0.847565 25:-0.320847 26:-0.407505 27:-0.924408 28:-0.900161 29:-0.429099 30:-0.51272 31:-0.911299 32:-0.877961 33:-0.441823 34:-0.39226 35:-0.788703 36:-0.919469 37:-0.729795 38:-0.392503 39:-0.845626 40:-0.887533 41:-0.792811 42:-0.813511 43:-0.819063 44:-0.771947 45:-0.741608 46:-0.764265 47:-0.805243 48:-0.828106 49:-0.795209 50:-0.767335 51:-0.871952 52:-0.750934 53:-0.612005 54:-0.716053 55:-0.880001 56:-0.771846 57:-0.654028 58:0.787879 59:-0.700955 
-26.863935175243071 -0 -0 -19.944785139762939 -1.5210636253701431 -5.6015695010370301 -0.53561406446518078 -0 0 0 9.8719811029002251 0 54.382429437255205 17.430677163016778 0 0 0 4.6936655481495988 6.6215926961024483 0 0 0 0 0 0 0 0 0 0 0 0 0 0 0 0 23.987693869298674 0 0 0 0 0 30.343868635185558 0 0 25.975396660521284 0 0 0 30.343868635185558 0 0 0 0 0 27.531525381452017 0 0 0 0 0 0 0 10.611166915647809 0 26.750302979406015 0 0 0 26.750302979406015 0 0 0 0 0 0 11.867083427308426 9.5140448544273006 0 17.39694188411719 1:-0.588625 2:0.000756279 3:-0.55387 4:-0.919647 5:-0.464274 6:-0.127026 7:-0.686596 8:-0.937887 9:-0.543138 10:-0.734508 11:-0.665374 12:-0.930556 13:-0.875646 14:-0.726476 15:-0.793464 16:-0.886411 17:-0.926502 18:-0.87731 19:-0.976046 20:-0.871891 21:-0.33916 22:-0.849844 23:-0.980458 24:-0.878753 25:-0.296872 26:-0.297492 27:-0.972978 28:-0.93645 29:-0.341109 30:-0.410959 31:-0.967809 32:-0.936859 33:-0.35648 34:-0.340213 35:-0.794699 36:-0.981503 37:-0.729795 38:-0.307195 39:-0.804417 40:-0.970383 41:-0.82212 42:-0.810811 43:-0.833892 44:-0.779172 45:-0.737409 46:-0.759204 47:-0.762878 48:-0.829307 49:-0.8148 50:-0.779774 51:-0.885701 52:-0.784444 53:-0.595716 54:-0.764342 55:-0.896666 56:-0.773193 57:-0.697467 58:0.811448 59:-0.719461 
-0 -0 -0 -0 -0 -0 -0 -0 0 0 0 15.370217976577187 0 0 0 0 0 0 0 0 0 0 0 0 0 68.328363309507466 24.624973396799398 0 0 0 0 0 0 0 0 0 0 0 0 0 0 0 0 0 0 0 0 0 0 0 6.5854923088265318 0 0 0 0 0 6.5854923088265318 0 0 0 0 0 52.414597429177086 0 0 0 60.997633131792021 0 0 0 63.719182007120708 1.5588521385496459 76.416292668576361 16.474848738222445 74.83914942210842 6.6883896533920888 57.109217870823286 38.383887289472618 51.025717260290186 1:-0.601325 2:-0.0342714 3:-0.550301 4:-0.93074 5:-0.518857 6:-0.122456 7:-0.693069 8:-0.963153 9:-0.601122 10:-0.737672 11:-0.718687 12:-0.965812 13:-0.905826 14:-0.757949 15:-0.841688 16:-0.921319 17:-0.938092 18:-0.938568 19:-0.977809 20:-0.876082 21:-0.344039 22:-0.875124 23:-0.98773 24:-0.876584 25:-0.333583 26:-0.431829 27:-0.991228 28:-0.952127 29:-0.512364 30:-0.476517 31:-0.989969 32:-0.94809 33:-0.390936 34:-0.427706 35:-0.797897 36:-0.986735 37:-0.712433 38:-0.409669 39:-0.894638 40:-0.980094 41:-0.800553 42:-0.850833 43:-0.834566 44:-0.826132 45:-0.774401 46:-0.777526 47:-0.802473 48:-0.857867 49:-0.853558 50:-0.821755 51:-0.906698 52:-0.772806 53:-0.619592 54:-0.79007 55:-0.909965 56:-0.815633 57:-0.665028 58:0.833333 59:-0.741904 
-80.946835966592602 -156.02000975402069 -107.94235664726267 -0 -50.991005313576615 -0 -0 -0 -10.325476340088267 20.180762064456847 17.716453798106627 11.311110526809014 13.0755734567016 19.288945301362183 36.696536217048561 183.92757890687949 167.82207549204929 17.959400753858692 82.713503848192886 24.430208527691033 9.6304496696804556 73.509521831279415 18.912535861435352 11.867902862066414 7.8038841601642952 8.1428644924814026 4.5523435435265949 26.16493192557823 0 54.814605713688309 23.041037156060945 15.253151598573712 38.170636040151741 38.731340423714549 49.10931709744456 15.825923109962641 11.788044180883052 14.862034753522124 22.966977096289767 29.350447185116661 34.164751113898681 28.640422815079852 51.561352041689119 33.46301105380104 25.766980539476247 34.164751113898681 26.472047474560981 29.350447185116661 28.640422815079852 14.310988961308713 11.623722425451721 12.722773448519574 16.166198366538321 14.297643019709804 29.860242267619228 14.310988961308713 11.623722425451721 12.722773448519574 14.297643019709804 40.22653946763063 12.566628790744389 23.08186617175042 8.2540058513034253 46.169893775111483 12.558792838353936 33.450601333460916 7.3710655681165633 23.08186617175042 12.558792838353936 33.006848385288109 9.6425769148978979 12.054113124854059 7.5846639590016611 9.7700830944273918 6.9481777885639193 11.775931000404293 8.0830368740147449 10.741405449702935 8.5997622627176398 1:-0.0149089 2:0.220475 3:-0.192951 4:-0.170732 5:0.0922961 6:0.210568 7:-0.123382 8:-0.289643 9:0.0339023 10:-0.289383 11:-0.32758 12:-0.254274 13:-0.225653 14:-0.280337 15:-0.32868 16:-0.181327 17:-0.205371 18:-0.492408 19:-0.526714 20:-0.267608 21:-0.0675882 22:-0.418107 23:-0.491002 24:-0.287525 25:0.148904 26:0.121001 27:-0.651007 28:-0.43624 29:0.0445117 30:-0.237769 31:-0.582038 32:-0.467145 33:0.208057 34:0.0945597 35:-0.366209 36:-0.739485 37:-0.108511 38:-0.0533502 39:-0.397955 40:-0.695955 41:-0.208479 42:-0.342942 43:-0.368973 44:-0.430486 45:-0.255318 46:-0.328215 47:-0.327657 48:-0.444548 49:-0.379379 50:-0.257002 51:-0.570153 52:-0.248489 53:-0.142506 54:-0.264627 55:-0.550564 56:-0.304844 57:-0.243877 58:0.328283 59:-0.293828 
-28.838955046477913 -120.54645921902532 -2.2247243686043738 -130.27600689862251 -244.77395280682191 -151.71952565232104 -107.12374749475947 -210.80616610785304 -0 0 0 0 0 0 0 33.412470744623278 7.8042465437288415 95.618451017285423 46.774959209577048 0 0 0 0 0 0 0 0 0 0 0 0 0 0 0 0 0 0 0 0 0 0 0 0 0 0 0 0 0 0 0 0 0 0 0 0 0 0 0 0 0 0 0 0 0 0 0 0 0 0 0 0 0 0 0 0 0 0 0 0 1:0.318609 2:0.513434 3:0.184475 4:0.101188 5:0.380251 6:0.468761 7:-0.00609292 8:-0.15331 9:0.166706 10:-0.15015 11:-0.057519 12:-0.122863 13:0.0789437 14:-0.0992862 15:-0.249365 16:-0.0760493 17:-0.0210601 18:-0.336226 19:-0.395619 20:-0.21221 21:0.211302 22:-0.321252 23:-0.339756 24:-0.298199 25:0.617906 26:0.391887 27:-0.495349 28:-0.358204 29:0.244113 30:0.0518591 31:-0.45094 32:-0.424264 33:0.626822 34:0.582726 35:-0.128782 36:-0.661601 37:0.079611 38:0.349784 39:-0.190666 40:-0.593103 41:-0.129585 42:-0.256546 43:-0.193723 44:-0.294358 45:-0.174136 46:-0.129297 47:-0.128867 48:-0.364474 49:-0.307258 50:-0.0897704 51:-0.519493 52:0.036043 53:0.0538618 54:-0.0307003 55:-0.450411 56:-0.032019 57:-0.0402927 58:0.136364 59:-0.108771 
-0 -0 -0 -0 -19.632398795780336 -0 -76.462237828837132 -124.52425767937309 -0 0 0 0 0 0 0 43.664745566877428 0 0 0 0 0 0 0 5.8011068078378445 18.820646795527622 0 0 0 3.2719074758525144 0 0 0 0 0 0 0 0 0 0 2.3725895190551296 0 0 0 0 0 0 0 2.3725895190551296 0 0 0 0 0 0 0 0 0 0 0 0 0 0 0 0 0 0 0 0 0 0 0 0 0 0 0 0 0 0 0 1:0.468802 2:0.653545 3:0.313852 4:0.145559 5:0.549586 6:0.577294 7:0.247525 8:0.00197394 9:0.428571 10:-0.0497337 11:-0.0251816 12:0.0801282 13:0.146011 14:0.00129786 15:-0.148477 16:0.121208 17:0.0309541 18:-0.191844 19:-0.276814 20:-0.132027 21:0.304807 22:-0.209777 23:-0.31976 24:-0.18479 25:0.533995 26:0.42174 27:-0.425174 28:-0.404654 29:0.065771 30:0.133072 31:-0.342236 32:-0.373215 33:0.48582 34:0.411329 35:-0.0136651 36:-0.586638 37:0.101588 38:0.222862 39:-0.157574 40:-0.578756 41:0.0112442 42:-0.186667 43:-0.116209 44:-0.162032 45:-0.0733585 46:-0.0608969 47:-0.135385 48:-0.247031 49:-0.220373 50:-0.0794048 51:-0.449167 52:-0.0586671 53:0.0833171 54:-0.0892809 55:-0.449426 56:-0.0374082 57:0.00743399 58:0.0555556 59:-0.0394724 
-0.59051514521767345 -0 -0 -0 -0 -0 -0 -0 -57.916547283243865 -0 123.53761237478707 238.79778527406793 150.30481434929149 157.96631047882786 333.22148445186912 0 0 0 0 0 260.77264668320953 0 0 0 0 279.27991241253142 33.289844317365564 0 0 0 0 705.95892974726951 0 0 114.39060382649278 0 120.03121271538981 282.61666571140637 0 0 69.117523184471054 0 0 0 0 69.117523184471054 0 0 0 232.34396831811091 286.7723869795484 192.69975402298559 164.08471104792858 35.22234156122402 0 232.34396831811091 286.7723869795484 192.69975402298559 35.22234156122402 0 220.36676026549429 10.902567973790541 109.23733437510205 0 67.789842848337727 15.35506169705754 185.0298986467854 10.902567973790541 67.789842848337727 28.967948278807228 434.61182153262718 327.80214853314703 238.68520357045847 454.16466951266551 112.62673281284602 269.89347203705836 142.74011273806548 314.06859878714386 127.94631159105279 1:-0.741579 2:-0.657445 3:-0.65068 4:-0.48816 5:-0.539916 6:-0.603142 7:-0.717822 8:-0.760495 9:-0.717559 10:-0.789779 11:-0.780521 12:-0.682692 13:-0.630851 14:-0.698572 15:-0.74302 16:-0.718798 17:-0.752085 18:-0.740911 19:-0.815989 20:-0.732665 21:-0.677 22:-0.72847 23:-0.78204 24:-0.661441 25:-0.552351 26:-0.489876 27:-0.77299 28:-0.668723 29:-0.714033 30:-0.568004 31:-0.7234 32:-0.686145 33:-0.388815 34:-0.651823 35:-0.73854 36:-0.861178 37:-0.652656 38:-0.629182 39:-0.632717 40:-0.851557 41:-0.660461 42:-0.78953 43:-0.774576 44:-0.828604 45:-0.798795 46:-0.747514 47:-0.712202 48:-0.81476 49:-0.814232 50:-0.841277 51:-0.868786 52:-0.841732 53:-0.821204 54:-0.846474 55:-0.836082 56:-0.811422 57:-0.80653 58:0.779461 59:-0.788956 
-82.520425988866847 -16.536054185754953 -43.337085704396145 -25.508453548057521 -8.7264026847243379 -7.4617138994147032 -6.1861636286874706 -8.7432335529058651 -0 -20.180762064456847 155.08011253236393 0 51.701464322489791 33.728431621760997 0 15.690022931060934 36.680810872264914 8.7473691369610016 23.993329948730455 50.035239242726156 0 26.975574853563245 29.233538018091409 11.456468703615162 8.0442252770272731 0 0 23.673494268314048 1.7319379250139477 52.11934141037591 71.43967669324185 54.784720603838274 6.5256374564749686 13.010835226835917 180.16729302799857 35.893300520577327 0 0 98.109098905357783 17.577502092782289 25.6654440376427 111.50778394643046 56.924018593288849 148.52537314597029 139.70644038107235 25.6654440376427 135.59718255746822 17.577502092782289 111.50778394643046 87.288409713374165 0 59.094006005343751 129.27778044934482 33.059596027009299 48.584341983264054 87.288409713374165 0 59.094006005343751 33.059596027009299 116.60561579093712 0 1.2783276660729739 0 165.14602714382005 0 32.855620453078934 0 1.2783276660729739 0 65.968721414268117 0 60.285536031487261 0 0 0 0 0 0 0 1:-0.513528 2:-0.525296 3:-0.389248 4:-0.210553 5:-0.263565 6:-0.493181 7:-0.549886 8:-0.571786 9:-0.542202 10:-0.645483 11:-0.532529 12:-0.527778 13:-0.349169 14:-0.537313 15:-0.603744 16:-0.495498 17:-0.601131 18:-0.513926 19:-0.689218 20:-0.540957 21:-0.558288 22:-0.54207 23:-0.610616 24:-0.47565 25:-0.189736 26:-0.313524 27:-0.56835 28:-0.53843 29:-0.445043 30:-0.46771 31:-0.558711 32:-0.520747 33:-0.153989 34:-0.315087 35:-0.592445 36:-0.802522 37:-0.411791 38:-0.446081 39:-0.490986 40:-0.766583 41:-0.472811 42:-0.603716 43:-0.626119 44:-0.763202 45:-0.670424 46:-0.444425 47:-0.459967 48:-0.670893 49:-0.678367 50:-0.697886 51:-0.797794 52:-0.726454 53:-0.684974 54:-0.723573 55:-0.725914 56:-0.655138 57:-0.661485 58:0.59596 59:-0.630475 
-73.627191048629669 -0 -0 -0 -0 -0 -0 -0 -6.9410193190048757 -0 0 0 184.83198399667495 115.64679271001592 320.15181176169773 0 0 0 0 0 0 0 50.251719530178022 0 0 0 0 0 0 0 59.206030219729861 311.72095474830013 103.52509583118314 118.09563470408604 389.22102429301299 112.84448769762452 6.5666898928153223 52.350388046091645 64.191087904850363 0 130.5480012574601 0 0 80.615303598248971 4.3003513229416814 130.5480012574601 0 0 0 189.56475750215645 0 115.17422439551319 102.7349798413038 79.96781748953029 8.9038281270962738 189.56475750215645 0 115.17422439551319 79.96781748953029 0 0 151.09633854849463 0 18.571664417722975 71.98977595806933 105.67702480059043 0 151.09633854849463 71.98977595806933 95.373412810747396 0 162.50214964386447 0 0 0 36.098179868871682 0 82.544517719155138 0 1:-0.562673 2:-0.499184 3:-0.514611 4:-0.303847 5:-0.488772 6:-0.513745 7:-0.615385 8:-0.580208 9:-0.610942 10:-0.675017 11:-0.675425 12:-0.549145 13:-0.440268 14:-0.586957 15:-0.661485 16:-0.508242 17:-0.588693 18:-0.663514 19:-0.717667 20:-0.637175 21:-0.482264 22:-0.567959 23:-0.658244 24:-0.582722 25:-0.428732 26:-0.414691 27:-0.554692 28:-0.640621 29:-0.435004 30:-0.465264 31:-0.545182 32:-0.64454 33:-0.235091 34:-0.499495 35:-0.566464 36:-0.8383 37:-0.588924 38:-0.549595 39:-0.503473 40:-0.808187 41:-0.523687 42:-0.701546 43:-0.72217 44:-0.775179 45:-0.719813 46:-0.697086 47:-0.654847 48:-0.715201 49:-0.741544 50:-0.704278 51:-0.82979 52:-0.770197 53:-0.72157 54:-0.738614 55:-0.786662 56:-0.747763 57:-0.72711 58:0.648148 59:-0.667487 
-81.119532560854566 -0 -0 -0 -0 -0 -0 -0 -66.316581998836227 -0 -278.61772490715106 241.96279096599119 295.21188711305115 633.15081109487824 193.69202056463851 0 0 0 0 0 60.735639558234077 0 38.212801818484138 0 0 83.085139257557074 15.835046564461116 0 0 14.109450097066338 58.663235335253994 201.58381294531819 27.843543950506032 56.712515075288316 174.83059162008348 13.887886801593378 36.854467045511882 88.35412213137711 52.046467874871375 0 171.42614097744524 0 0 190.83425087130121 132.68089439044257 171.42614097744524 0 0 0 309.08636559235799 58.638489804007691 91.476089733964102 182.065586575938 208.94560175861986 0 309.08636559235799 58.638489804007691 91.476089733964102 208.94560175861986 18.5918292962895 167.36713154166858 162.34182592287991 73.180275582549925 92.57062911205368 184.00504380453705 164.19748545173525 59.087811732884575 162.34182592287991 184.00504380453705 206.15389152392436 125.66449950564783 270.31686135502986 62.983712547553417 125.68991841535525 45.938796521434398 226.76745800959077 82.859860626145434 170.06462190869794 103.65007660752207 1:-0.657648 2:-0.493452 3:-0.538256 4:-0.537652 5:-0.410121 6:-0.458908 7:-0.619954 8:-0.776813 9:-0.565583 10:-0.729234 11:-0.710821 12:-0.668803 13:-0.615761 14:-0.602531 15:-0.609772 16:-0.686106 17:-0.738516 18:-0.689544 19:-0.826913 20:-0.686743 21:-0.479825 22:-0.641361 23:-0.787857 24:-0.548699 25:-0.274396 26:-0.214014 27:-0.798422 28:-0.655253 29:-0.46394 30:-0.372309 31:-0.748593 32:-0.670065 33:0.0681156 34:-0.334829 35:-0.633616 36:-0.898051 37:-0.456184 38:-0.399785 39:-0.502224 40:-0.865241 41:-0.48977 42:-0.664384 43:-0.722844 44:-0.765483 45:-0.756805 46:-0.61717 47:-0.53655 48:-0.730148 49:-0.753469 50:-0.709461 51:-0.844455 52:-0.739096 53:-0.701487 54:-0.736041 55:-0.824589 56:-0.692019 57:-0.703619 58:0.728956 59:-0.727926 
-268.59215159324555 -0 -0 -0 -0 -0 -0 -0 -0 -0 -0 0 0 0 0 0.676090418972356 0 0 0 15.072256075213598 0 4.7537049097399908 0 0 0 0 0 8.853856752118519 0 0 0 0 0 0 0 0 0 0 0 0 0 74.204910649920748 30.494013515130039 0.24787572550665385 51.530157751581541 0 19.147652013635231 0 74.204910649920748 0 0 0 0 0 44.02240255876309 0 0 0 0 29.995411952904586 0 0 0 0 0 0 0 0 0 0 0 0 0 0 0 0 0 0 0 1:-0.594699 2:-0.408749 3:-0.496766 4:-0.533101 5:-0.326314 6:-0.430918 7:-0.585301 8:-0.76918 9:-0.445406 10:-0.675439 11:-0.661004 12:-0.65812 13:-0.569373 14:-0.638546 15:-0.630711 16:-0.691647 17:-0.710247 18:-0.710716 19:-0.844666 20:-0.61385 21:-0.28387 22:-0.64258 23:-0.819669 24:-0.476318 25:-0.165012 26:-0.200193 27:-0.789474 28:-0.616699 29:-0.201152 30:-0.231409 31:-0.783584 32:-0.610082 33:0.308773 34:-0.243298 35:-0.605236 36:-0.922694 37:-0.331795 38:-0.309275 39:-0.564661 40:-0.897355 41:-0.40682 42:-0.666925 43:-0.706667 44:-0.75997 45:-0.760204 46:-0.522247 47:-0.524492 48:-0.787268 49:-0.726069 50:-0.731229 51:-0.86337 52:-0.755148 53:-0.741207 54:-0.766717 55:-0.830828 56:-0.718797 57:-0.716483 58:0.710438 59:-0.725367 
-205.83285087840628 -16.130325428995555 -61.148143018551714 -38.343803065727784 -8.4961591227783977 -7.9924007191495949 -6.1212482965585577 -8.6967152270644412 -0 -17.716453798106627 -0 0 60.138965623893505 236.90449187928633 0 12.50144237659388 32.845752053689594 9.4259529770278707 27.794610462977996 13.968228968882533 0 14.221398297635966 0 8.8491206639102202 7.3777623377051702 0 0 5.8509474979689573 1.6447038414422779 10.943774104671176 0 0 57.290745678349026 58.500432944887571 0 119.30802043988851 33.917175379008512 0 0 15.980888334301744 9.4006889667631306 153.50745036388903 1.8635941824373445 0 50.944682130641546 9.4006889667631306 92.428675626775004 15.980888334301744 153.50745036388903 0 0 0 0 0 73.722280540153349 0 0 0 0 0 0 0 0 15.546762197536971 0 0 0 0 0 0 0 0 0 0 0 0 0 0 0 1:-0.606847 2:-0.387732 3:-0.407986 4:-0.514328 5:-0.310841 6:-0.382935 7:-0.607388 8:-0.798658 9:-0.468319 10:-0.689784 11:-0.66013 12:-0.603098 13:-0.503982 14:-0.642116 15:-0.663706 16:-0.64732 17:-0.678587 18:-0.607636 19:-0.856273 20:-0.679453 21:-0.252973 22:-0.631615 23:-0.824759 24:-0.538692 25:-0.0818505 26:0.0148573 27:-0.777228 28:-0.738863 29:-0.233631 30:-0.112524 31:-0.762589 32:-0.70197 33:0.134906 34:-0.237914 35:-0.557271 36:-0.930178 37:-0.469809 38:-0.158945 39:-0.506595 40:-0.894486 41:-0.539171 42:-0.696147 43:-0.678357 44:-0.72974 45:-0.740008 46:-0.558541 47:-0.497118 48:-0.744295 49:-0.775475 50:-0.777528 51:-0.86087 52:-0.718829 53:-0.707958 54:-0.720209 55:-0.815394 56:-0.68141 57:-0.713873 58:0.713805 59:-0.728517 
