svm_type c_svc
kernel_type rbf
gamma 0.0078125
nr_class 80
total_sv 240
rho 0.043979552995979748 -0.21740094334289828 0.63624344489620166 -0.057940541152887687 0.034840584253599226 -0.046665569832265365 0 -0.0343210609018645 0.2443202540431399 -0.27267428358643681 -1.1568692615401917 0.1293126820406662 0.28365919530856482 -0.71938720143004664 -0.96438815239752207 0.19214919596553803 -0.035775806382107568 0.064004478043371768 -0.031265960136194107 -0.24008411606606841 0.036637475912309744 -0.21181213653169881 0.10045326310273701 -0.17564555509552085 -0.14027221770231088 0.003895694644817569 0.014313032781479404 -0.14418927783736035 0.0095200322945871475 -0.41102695502207576 -0.90625672470149332 -0.7044773935419828 -0.73342754574587765 -0.47887886146889791 -0.16848733578662894 -0.62844522151302695 0.13849304921384753 0.66301933256045886 -0.36235546671123381 -0.43143430399466515 0.23225832670400959 0.077207914712124251 -0.21058898071252663 0.27015556513213457 0.065947110852861451 0.23225832670400959 -0.26627366312859357 -0.43143430399466515 0.077207914712124251 0.019516548871971417 0.44065252631077589 -0.1744725162408001 0.14625073493715857 0.30704486877033255 -0.062424165439827407 0.019516548871971417 0.44065252631077589 -0.1744725162408001 0.30704486877033255 -0.39548303241530935 0.14522075058987124 -0.11271461656885209 0.0015425159561828956 -0.2428551678398442 0.034596639295207766 0.0010133106536587434 0.013374037114013018 -0.11271461656885209 0.034596639295207766 -0.2435544466564159 0.046978671468955735 0.26443995869221459 0.015334238897623337 8.8817841970012523e-16 0 0.16856996914968081 0.042556445592963094 0.099941305873318995 0.068515172354804255 0.75589980880436369 0.039343547526853269 -1.0319726205720829 -1.6305738175895748 -1.1367224204578474 -1.6453378576305628 0.040369118828320429 -0.76449378128952428 0.027950336458824828 0.0053102049292854045 0.014996999187012106 0.078224366369012158 0.14879858743945315 -0.055045969267808414 -0.80885103716497075 0.28790390450485431 -1.556115652414398 0.16561624502403496 0.032244487247462678 0.1109588909473444 0.048788827823878923 0.048578651638303348 0 0 0 0.0080374991858705152 -0.0065963314251792152 -0.058951097752439494 0.021018604604630065 0.0095722357833540432 0.025352137624199175 -0.027792371492949747 0.1733658896271372 0.20683066898972527 -8.3266726846886741e-16 0.029456869258359279 0.17325123832010136 0.019684219026054439 0.0063148596681023616 -0.0024535782420558915 -9.7144514654701197e-16 0.11634832310227168 0.11136101536777442 0.00039848039982278333 -0.0024535782420558915 4.3758399681514959e-16 0.0063148596681023616 -9.7144514654701197e-16 0.032227001488978821 0.023448459830066923 0.0086927282653348637 0.0011432833010749238 0.011356390317275422 0.027044325144373261 0.032227001488978821 0.023448459830066923 0.0086927282653348637 0.011356390317275422 0.0094137295492979032 0.013854842961339849 0.019543610388441691 0.012698485342197039 0.012855593088355127 0 -5.5511151231257827e-17 0.010879667140911903 0.019543610388441691 0 0.10476847077778051 0 0.032099102732767421 0 5.5511151231257827e-17 0 0.017341401860122684 0.0044394527201674474 0.048087218610690909 0.012553597779507668 0.42993567261350246 -1.0619264638472699 0.12100540182007925 -0.23156469522370404 -0.13522222068777895 0.09426374114314634 -0.4374578930910773 0.03611209853180402 0.032287218163078536 0.059575581528291593 0.09276381804586914 0.3531013280266096 0.19962579520912119 -0.32444483284669401 0.0018140469913966184 -0.3650550059212192 -0.082183344385926851 0.026025315825837936 0.27464238565308874 -0.21044977758708899 0.086219161861768284 -0.0047656350684471653 -0.01117927527550266 0.00084883705538057097 0.013064466650678789 -0.029035723956254322 -0.025006522749667821 -0.27760620651116957 -0.12167206145463327 0.0027808656779353957 0.20111117303569651 0.25008423196020041 0.34189856325986745 -0.089104411069095835 0.03150517578678904 0.11841629144498668 -0.016229226028797235 -0.065680242970040215 0.23333266937817462 0.0088109729291405564 0.034601895078716291 0.16417055589900303 -0.017908240110111287 0.23333266937817462 -0.049125036453494302 -0.065680242970040215 0.0088109729291405564 0.053724477408596372 0.10018806505047273 0.0213913673594614 0.028876216678865259 0.0077992336713352357 0.063499122732715921 0.053724477408596372 0.10018806505047273 0.0213913673594614 0.0077992336713352357 -0.036861905231300798 0.037242069518417631 0.034169420362213779 0.030246565470134757 -0.0063313667489129531 0 -0.087627323036719412 0.017819543391399174 0.034169420362213779 0 0.068452379986706391 -0.0066204488785759257 0.022856805343477074 0 0 0 0.037524467715765335 0.0059725891878009904 0.089823546156731382 0.019386658453061263 -1.649544261081576 -0.020730765235109319 -0.75657951977888993 -0.29742512259400711 0.16868087788095665 -0.11190796501041933 -0.25393489904888161 -0.29140860988032979 -0.084233956686513622 -0.093670186270947434 0.018812387245968693 -0.48515040480597788 0.022969882266714994 -0.261032925611141 -1.6826578169919857 -0.094433100355609076 -0.14578277026817185 0.22807886100143263 -0.4091821780875588 -0.015156927064335487 -0.14326806397773831 -0.1376394930732189 -0.047465868143902322 -0.00013565117749419521 -0.12794383940601142 -0.03246084932853506 -0.47071030303644423 -0.50092983814491143 -0.25000133327856361 -0.36822915939559264 -0.25617157168530641 -0.2702181620111811 -0.27242543902909566 -0.14939515223513958 0.017703237652783442 -0.19258033338256106 -0.23534582583065891 -0.19615295515311471 -0.28093429417790872 -0.092313850542426051 -0.041830798267506471 -0.11789379869901109 -0.19615295515311471 -0.14870487983306804 -0.23534582583065891 -0.28093429417790872 -0.042401462475946256 -0.13580871514069978 -0.18442785849530352 -0.10340440385835215 -0.087062597597282992 -0.19412973407829121 -0.042401462475946256 -0.13580871514069978 -0.18442785849530352 -0.087062597597282992 -0.18889510637828866 -0.031435694282257856 -0.16091031553999291 0.022199613020740444 -0.17158406224064773 -0.064544909972325926 -0.2503322869828209 -0.0035715110271446896 -0.16091031553999291 -0.064544909972325926 -0.067631316266437577 -0.088731609539421719 -0.0064174801067561132 -0.05052092125422819 -0.037874906820014716 0.067147410802759572 -0.072530182949398891 0.0062652709322497278 -0.011560778301245685 -0.024605253706239526 -0.066718426713723494 0.072884239506693177 0.00042772238002083962 0.00080835366538526158 0.045067105575126672 0.01399524818519759 0.027891352341618474 -0.017728195602133272 0.06792489029465161 0.070328353971375088 0 0 0.65847669864245228 0.10061362552213088 0.48479480942706699 0.030713043827698138 0.13619304852277531 0.036285541421900831 0.041481352813938992 0 0.0046417689833517604 0.00079153792087831765 0.0017923079834026058 0.0063249108263339036 0.0026795333602085388 0 -0.014854091391949417 0.024166685800613041 0.058953968436283075 0.098596796279380741 0.095991095556269376 0 0.005550804747016848 0.14987638158130978 0 0.010831322568880128 0.025717480344016958 0 0.12764851560900603 0.075625145584538409 0.0071218902319616778 0.025717480344016958 0.0026657894101916788 0.010831322568880128 0 0.011669720100600148 0 0 0.012388442043708391 0.01490214198538326 0.016297419671689326 0.011669720100600148 0 0 0.01490214198538326 0 0 0.038454436174321739 0.0047476064148975613 0.028081340028420401 0 0 0.0093846056705215591 0.038454436174321739 0 0.11071745150477581 -0.012093077461982037 0.026582870201016198 0 0 0 0.010094422072562954 0.0025064291526793042 0.02798457028648127 0.0065020382226001787 -0.44825800825465079 0.11255147625319081 0.0041721767001955644 0.46719534920280792 -0.012521773427563032 -0.0052680970486984578 -0.0077695300251217321 0.032440481454196216 0.042531531631799672 -0.011646136472752672 0.25978961298680642 0.31156226394850761 0.0713264970844084 0.090952954766069141 0.015526175958012551 0.1264960923359891 -0.019117810320998439 0.033687570592977008 0.01020349749890483 -0.0027410629848950655 -0.00092297449565479598 0.0020379918585695807 0.0072950672449171401 0.0048228078280857555 0.019870576278057921 -0.0041583310150290816 0.0057594068516578145 0 0 0 -0.0065150391810114396 -0.010284388852325068 0.064104754600893141 0.004204073920443703 0.029792181351179184 0.01748490446004184 0 0.085072895391093792 0.018328084354036687 0.0018533290803479253 0.01748490446004184 0.024590423671467222 0.029792181351179184 0 0.0065273500131171596 -0.0092320944377105463 -0.0055288148541423575 0.010126163394661087 0.012095228809180491 -0.012115636797616694 0.0065273500131171596 -0.0092320944377105463 -0.0055288148541423575 0.012095228809180491 -0.0097336689134950027 -0.00014629775153906618 -0.0046234511221355835 -0.00015679722381184901 0.015593566734209779 5.5511151231257827e-17 -0.00087375267249465447 0.0070055231342637915 -0.0046234511221355835 5.5511151231257827e-17 0.11248219652378516 -0.008950190012512101 0.02078007246464688 -0.00072909612720861922 1.6653345369377348e-16 -0.00089218045625936689 0.0099111533699469002 0.0021985564380855574 0.010060022887799674 0.0044236609559145179 0.16232332330109372 0.0080013055334627013 0.26712458568249681 0 0.017572082682332447 0 0.061269864948125662 0.022609616414293224 0 -0.013534507289653653 0.61385820817057979 0.0055884739231324794 0.34216162747955392 0.027042992596253382 0.12433581935811781 0.012514708359489687 0.035605194416240556 0.0010422594707106807 0.0061677180894083106 0 0.0067216294646504533 0.013750382615231038 0.0063298879567201469 0.022888084153174768 0 0.025249076834807965 0.060724877653275083 0.059769769863200851 0.043197484412697718 0 0 0.12345191427424512 0 0.038047530417028498 0.015151324095088452 0 0.098786882930240572 0.056093850578783154 0.0079350144739762495 0.015151324095088452 0.013675014143219762 0.038047530417028498 0 0.0077885214129662624 0 0 0.0067592395047221853 0.014262096674070026 0.0059314413855687106 0.0077885214129662624 0 0 0.014262096674070026 0 0 0.013821855896718921 0 0.031748881321121948 0 0 0.0072846247604119478 0.013821855896718921 0 0.11880527469522463 0 0.024556697847538948 0 0 0 0.009474845288409214 0.0048156944187278212 0.017983781131391513 0.0073869448591773069 0.017665541667486191 0.88818235000446766 0 0 -0.021752918402372336 0.024918865615976695 0.019405577613957153 0 0.1907709740566213 0.24188471970950762 0.20182484474840603 0.18570776690730989 0.020917179436499848 0.092379949061926328 -0.030106861021017783 0.021917210715413291 0.01807071177778596 0.0028821962852324089 -0.006408708831249171 -0.010275353628594192 0.014190558137755716 0.00073900800266152008 0.021254439405852782 0.0039488556135251467 0.0097276404090562655 -0.029723906816989415 0 0 0 0 0.077346997742351931 0.0060563888094987131 0.043074309874861633 0.018179183253835475 0 0.12454820672914686 0.021247284151241788 0.0066612140348748213 0.018179183253835475 0.027457030635588353 0.043074309874861633 0 0.0022765952159339979 0 0 0.0061949292798526567 0.011158719065412831 0 0.0022765952159339979 0 0 0.011158719065412831 0.010969221504697016 -0.0082169167151892233 0.0034835780061633439 -0.01089772504388356 0.023253707009941876 -0.0033412066289326228 0 -0.0084498166884799039 0.0034835780061633439 -0.0033412066289326228 0.12162688773093704 -0.012325349861037638 0.006068541436766238 -0.0095379129769223546 -0.013490596157926008 -0.013943835165092684 0.0092024559446129001 -0.011329406771262238 0.011773199344965849 -0.0092797270503998681 -0.02002807272754838 -0.088143165045342114 -0.019205521040523883 -0.047450752443726131 -0.1088429217102638 0.074912795414544112 0.0010719960651183115 -0.022758801497868224 -0.065406570346464479 -0.019736824575075074 -0.034118892769245582 -0.038121754759335442 0.48375553337576233 -0.032267052819209434 -0.010897850673844052 -0.067848395943163053 -0.029741681380218647 -0.073849620881160205 -0.041160529200958813 -0.030194056929804966 -0.005079555234240289 -0.028547080073926662 -0.043296005297291718 -0.055391242965732529 -0.068548340272601899 -0.098200479783143002 -0.11323049910036094 -0.020721737877797422 -0.020307342840791155 -0.14404126079979623 0.011392668834168887 -0.049795090995957511 -0.097504780020301593 -0.11856706870841122 -0.028703175180062473 -0.083042720421565755 -0.10532432067404493 -0.097504780020301593 -0.028242420256009343 -0.049795090995957511 -0.11856706870841122 -0.10931325102990218 -0.046769422756449533 -0.045778304847183642 -0.088120549476945531 -0.066221793181291136 -0.06634477191510102 -0.10931325102990218 -0.046769422756449533 -0.045778304847183642 -0.066221793181291136 -0.034223886434731218 -0.12625911819389679 -0.069135670363855151 -0.098796423686390633 -0.0408106221980006 -0.11350584930541814 -0.10578192615061568 -0.12599205097354618 -0.069135670363855151 -0.11350584930541814 -0.010019840982302386 -0.10602010872982856 -0.0837581797282477 -0.10600619990815789 -0.13765527296422236 0.029301228791241189 -0.047743356369959147 -0.091542414981961362 -0.10823215757628102 -0.10530344821515578 -0.010034310903099915 -0.0033157248345113089 0 0.069898180204838053 0.11910119186423336 0 0.0058766557855377058 0.25992225366532329 -0.27736768470817857 0.25676437967930377 -0.007344273884919995 0.14483093342023531 -0.039385153194466005 0.039582778763924735 0 -0.021012993131515268 0.0010060696015735436 0.0041842904962575977 -0.049137892373423191 0.006364734105173366 -0.12252773542300148 0.026509798507977304 0.031078271351837727 -0.20909975210893544 -0.11928734654890973 -0.19107093602598882 -0.066971258450756493 0.0067895569183351705 0.076821527544817206 -0.070548859340004474 -0.016189993658191806 -0.031255829288025908 -0.018344703840750813 0.061568537461297965 -0.011154986214886125 0 -0.031255829288025908 -0.031836713904929689 -0.016189993658191806 -0.018344703840750813 0.030995783760653515 -0.025932463502412479 -0.051061829640355459 0.014022578642352054 0.01584168737895859 -0.037208434168854936 0.030995783760653515 -0.025932463502412479 -0.051061829640355459 0.01584168737895859 -0.050070608957328566 0.0055827431445919689 -0.04672808567279331 0.021090767941518596 -0.0059553698754470736 0 0 0.0098101896191558971 -0.04672808567279331 0 0.087999325308641602 0 0.027570537787470817 0 0 0 0.0086220272458278225 0.0059443429931154701 0.039628129440674072 0.0033564303543487939 -0.19595343484187122 -0.035576802605821828 0.31282372856810758 -0.36514096754522551 0.046545538306030483 0 0.0028267770696941918 -0.0029164125449796597 -0.066366526012374402 -0.057554911738638824 -0.0029212625393722816 0.0057895272699372124 0.02419659294234134 -0.073640597381664952 -0.11213552095703312 -0.045607663506104609 -0.0088720482028429304 0 0.016163992028219033 0.065232427835301462 -0.082595056801094996 0.08254617320563773 -0.26858338346952343 -0.35418806723973539 -0.15533156106819027 -0.12503560627967394 -0.31613892767822355 0.65456246475707303 0.082344642949356492 -0.071800811503118858 -0.07453930469004498 -0.080113914522963597 0.030591078851026642 0.14316985467850724 -0.026369101266596261 -0.07453930469004498 -0.099193528440764692 -0.071800811503118858 -0.080113914522963597 -0.007910055273254819 -0.1959848232953226 -0.22314838809091242 -0.22055209862168096 -0.14366864426095086 -0.26603955024686693 -0.007910055273254819 -0.1959848232953226 -0.22314838809091242 -0.14366864426095086 -0.12344266324691648 0.16122681414840123 -0.19890754576158054 0.0051667209965446841 -0.14749131492403009 -0.044204014182630362 -0.073453126925102405 0 -0.19890754576158054 -0.044204014182630362 -0.11184002148975802 0.13069744250967943 0.22214934212265736 0.0036442750848873682 0.029902967284471477 0 0.12691118454725361 0.060986273363130367 0.070754637603437615 0.049056553846869501 0.015111430537277339 0.23062026695957649 0.30128425190154917 0.23854869658317596 0.017939243094386759 0.054450185235966994 0.0042490914919177019 -0.064086877398996711 -0.010804057997175293 0.068793605191346002 0.006910740738883904 0.067404473482369096 -0.018858009574765796 -0.036316377800909815 -0.039626268659850736 -0.020335762885269833 -0.030690465742485979 0.01005157217021461 -0.04379152879552177 -0.019101263420983873 0.1008817713291618 -0.15640426499468674 0.7446513249240454 0.83106433467173801 -0.1277430434413272 0.12442690588307004 1.0762629514079871 0.076073686326247017 -0.039805846318519446 0.38150158989405086 0.16526843436376004 0.23879200663613356 0.44351479283437395 0.028113786721429269 0.38150158989405086 0 -0.039805846318519446 0.16526843436376004 -0.072439243041621207 0.36877620521942905 0.15970111036699736 -0.010892989132590384 0.038865063477020199 0.21671600336974114 -0.072439243041621207 0.36877620521942905 0.15970111036699736 0.038865063477020199 0 0.11031562560609705 0.11762984317261861 -0.017431299648669726 0.031721509216754054 0 0.12208067376179806 0 0.11762984317261861 0 0 0.016943618823335133 0.095914901200846781 -0.060144733349118497 -0.010024652875691889 0 0.11194951566364073 0.029787462572312403 0 0.040290058513169989 0.22614806582406505 0.22566279268425843 -0.010647352585539102 0.029015541030852188 0.082449795109914861 0.014650584520938077 -0.022928580674905882 -0.0058120361634826836 0.21373193753916786 -0.01658272128751238 0.036983044740307787 -0.026711558562114397 -0.013863371716539688 0.0063779483769238554 0.043783724591684281 -0.010461508517030529 0.015808006945808313 0.06618865485166335 0.053602857749002614 -0.037192451443006952 -0.055288986855849126 0.087445593561700272 -0.28830353047534146 -0.0085875429112030194 0.037484779932411567 0.1811746809548381 0.047733901893640386 -0.026507675462437891 -0.094094732368775219 -0.13844501607932588 0 0.05519444253227309 -0.02781483469992747 -0.094094732368775219 0 -0.026507675462437891 -0.13844501607932588 0.046046658311584963 -0.073484250436520557 0 -0.03866511100119692 0.021641023655558485 -0.085279746512252425 0.046046658311584963 -0.073484250436520557 0 0.021641023655558485 -0.0049944109197104375 0.067154906020288674 -0.07413227344728586 0.0077352214767267549 -0.039008447844173719 -0.073475350022399605 0.087967899560525808 -0.079847590098977322 -0.07413227344728586 -0.073475350022399605 0 -0.013172747961202784 -0.12563353015987988 -0.077971694313803103 -0.12759138714530716 -0.088087422373114066 0.066249396430101665 -0.014570770072277186 -0.10361712280967761 -0.067911689534909239 0.003897813658873075 -0.47214779293577774 0 -0.049429873935326663 -0.045921036112487643 -0.22833437968404691 -0.077701965158468167 -0.026155690155552341 -0.1069433520532849 0.1243786816901588 -0.067533249288275907 -0.062233904747718484 -0.10909155116741916 -0.066364109378359723 -0.031321574258616217 0.0040365655015344257 -0.085586698901908537 -0.31933194902986822 -0.19904123107402699 -0.44860423680824901 -0.4547354836863895 -0.38707327144244652 -0.23830562827145149 -0.31161774701495099 0.30269515831363536 0 -0.12407488501399648 -0.015216189325054523 -0.064141994371247832 -0.1374837833474766 -0.072147705119132544 -0.010994353308044807 -0.015216189325054523 -0.095783682479216203 -0.12407488501399648 -0.064141994371247832 0.18826607395889269 -0.28687078246138598 -0.18805382275821647 -0.19860883159831516 -0.15275178245533699 -0.53683732742354562 0.18826607395889269 -0.28687078246138598 -0.18805382275821647 -0.15275178245533699 -0.12067600314974072 0.15152641926570246 -0.16798951150161431 0.13364813114216789 -0.1189769252384491 -0.075777358323622937 0.20591683525095278 0.039575429022739889 -0.16798951150161431 -0.075777358323622937 -0.12633372443710331 -0.25721412975614061 0.035172070916536971 -0.14008572413522352 -0.024794172700938037 -0.089853194163455413 -0.042005156134078458 0.054738013517658113 -0.10358512178996933 0.050937051705178704 -0.019913604479033838 -0.076168904589609981 -0.046786162774995192 -0.038336206088644326 -0.011019672316349991 -0.086116187352974244 -0.090654377443613543 -0.066284943166890917 -0.29444466099968652 -0.07667718321478402 -0.11889228358104476 -0.08749862324173481 -0.017775581917809494 -0.048000597245645697 -0.036611251049117777 -0.11566375755080871 -0.27477084751792336 -0.65693266066286293 -0.3690323736113405 -0.42415107932029167 -0.71516173260100768 -0.086672379022445914 -0.18973388706220295 0.085288597752525938 0.052910790809560869 -0.13741180281791021 -0.28202814903757523 -0.24127168587207176 -0.12295947828813318 -0.22568950011809316 -0.21609045430421953 -0.28202814903757523 -0.16627583427942896 -0.13741180281791021 -0.24127168587207176 -0.368670084838782 -0.25564706904092704 -0.28666391039292705 -0.30317421299053832 -0.30625434478293334 -0.45780935168419357 -0.368670084838782 -0.25564706904092704 -0.28666391039292705 -0.30625434478293334 -0.2489605991331281 0.086971774587510001 -0.40406671910458303 0.14821366209024608 -0.30224088013664951 -0.22526624308521215 -0.018064476769109106 0.047878857127072814 -0.40406671910458303 -0.22526624308521215 -0.26248830767589071 0.029134376869896162 -0.22385717185591028 -0.11910237477273843 -1.5265566588595902e-15 0 -0.1779280636789807 -0.046769495961787456 -0.083959409736029528 -0.02586880928894629 0.073591815859220894 0.38732437199910807 0.035898102171296305 -0.016813273709268519 -0.026547980708139421 -0.10397216737996726 -0.058967381079096638 0.023599860155750309 -0.056222576736066385 -0.031055374914776182 0.0095691586516430116 0.028076719448121189 -0.051616152190399292 0.0042792790711892971 0.052763301204277892 -0.20145471121248071 -0.12878316990498465 -0.30237324272771365 -0.066949306253760305 0.076968561047008666 -0.13481640911987389 0.10928475967091013 0.35043276222120956 -0.045002702784743297 -0.082317812260372034 0.069149374061196534 -0.010677493459788643 -0.13568804175988322 0.17124052438356627 -0.0083006725049591407 0.069149374061196534 -0.070720336247594259 -0.082317812260372034 -0.010677493459788643 -0.031052668136548455 0.095030546105801347 0.028167266863771939 0.042109019723959328 0.10574783052671184 0.097213648717393589 -0.031052668136548455 0.095030546105801347 0.028167266863771939 0.10574783052671184 -0.11625237736301404 0.075064275912251455 -0.045159021899141047 0 -0.12653741838442875 0 -0.012808454521150323 0 -0.045159021899141047 0 -0.087451232401797252 0.044340886909129566 0.044056458957894472 0 0 0 0.052800551304208798 0.0095071816309926869 0.10605942990225628 0.037951776010641834 0.3185383532202456 -0.33926945883335291 0.35625645157230029 -0.014665463439101575 0.081852163489584726 -0.026782441022306459 0.017869261236869834 -0.0037082571898401882 -0.019237589678565103 -0.017120175765438134 -0.010568031165233183 0.029017161205085924 -0.017993648727512468 -0.057077596973639219 -0.070594473941476207 0 -0.23682222878182246 -0.10636677416322754 -0.17696376579869821 -0.009479797320689284 0 0 0.017080625355617374 0.019382766065461809 -0.050202987190346639 -0.043262557009063944 0.15137198181779651 -0.024223840844826958 -0.016317783649599578 -0.050202987190346639 0.01326407189239647 0.019382766065461809 -0.043262557009063944 -0.013718908983452729 -0.029559630940571485 0 0.00068367469416056627 -0.02169037733930165 0 -0.013718908983452729 -0.029559630940571485 0 -0.02169037733930165 -0.017847833043740755 -0.025438455856367514 -0.020467506668857337 -0.020058335723672969 -0.016376071852650085 -0.025084573395058391 -0.03617856646159049 -0.014900133859164893 -0.020467506668857337 -0.025084573395058391 0.16626099270975955 -0.019085795007362197 -0.0079718391691365464 -0.020679653620446371 -0.022917984164801359 -0.01981118165567744 -0.019374497067090449 -0.016525377226016373 -0.022818374934640253 -0.014704854467964081 -1.8694828136543555 0.25614540559191046 -0.010389628886175464 0.01579050497277068 -0.12668240976942002 0.026248631204126661 -0.051352286160865068 -0.027123704807067165 -0.058648516061993693 -0.03939154914148691 -0.028602974103502488 -0.026996322619006911 -0.37148344030747127 -0.32177950440701886 -0.083310537349616048 0.14788747338248601 0.17344961877064496 0.3033134400624875 -0.09763440718732351 -0.032486247799299643 0.14398490995896412 0.074867686781032089 -0.07559987371602353 0.036096897548753962 -0.11671061929720881 0.045803866299725757 0.0838857679051076 -0.068883135680999533 0.036096897548753962 -0.043993650913634184 -0.07559987371602353 -0.11671061929720881 -0.04982767948129211 -0.058571236017653641 -0.047249944830143734 -0.030799487353099658 -0.065392168233600723 -0.041093926013446816 -0.04982767948129211 -0.058571236017653641 -0.047249944830143734 -0.065392168233600723 -0.076581704469770154 -0.047074744078580796 -0.065516200062714622 -0.056703693333542027 -0.056248007930775348 -0.067404658239683626 -0.12314071061813152 -0.042587828726771276 -0.065516200062714622 -0.067404658239683626 0.054550297116354174 -0.085836994878878151 -0.0054220574363671534 -0.066979915261651021 -0.064718595146506741 -0.055101534479695201 -0.06109225983941443 -0.037295829932948832 -0.0054300374645780396 -0.03640664154584837 1.0631568402496694 0.01688963704181352 0.12068711821244379 0.0066080379898374115 0.040625869315666724 0 0.0048948052263799923 0 0.0080706601815456348 0.00021640044032978717 -0.0099704531669532019 0.089352172319619616 0.0066100112524897217 0.0061996614005320576 0.045693703302286504 0 0 -0.021243927048462629 -0.016069978917038794 0.11087468779520697 0.004747735038701636 0.0063607947539655752 0.014996644179423112 0 0.11845808697875013 0.048301531914265505 -0.0012986649044740058 0.014996644179423112 0.028830199102100537 0.0063607947539655752 0 0.01008658486788926 -0.0096923214823740021 -0.0068948635031178887 0.0089434968922140756 0.0092149116460357675 -0.017980381663757407 0.01008658486788926 -0.0096923214823740021 -0.0068948635031178887 0.0092149116460357675 -0.010177725530699233 -0.0025975900171489206 0.0048496269230285088 0.00084533927296793869 0.01996785313077374 -0.0061460170508929705 -0.0063337309308197434 0.0065106345191466323 0.0048496269230285088 -0.0061460170508929705 0.14083579551118067 -0.01426845830993515 0.027498111805644092 0 0 -0.003417725084941333 0.0085101102295805867 0.0068175960925349654 0.020747240807209764 0.0063086335048246692 0.048152875012071487 0.051566357895862523 -0.27941840608275648 0.074741527199839938 0 0.018856543426905379 0.0040424358339491498 0.015132591247939416 -0.048122703307781504 -0.016888192378959561 -0.39349999348044917 -8.8817841970012523e-16 0.053288474392787638 0.24269097438693776 0.43821976828588793 0.43593605525560936 0.038187740889380116 0.064261671789953137 0.28731972622032914 0.084530083599472963 -0.0029701218727222569 0.14566063166345619 0.022252898685205941 0.089275974935214164 0.19293055579705232 0.016073339167564454 0.14566063166345619 0 -0.0029701218727222569 0.022252898685205941 0.022348939705892992 0.07334904770520434 0.049818184543893779 0.03703939511229272 0.037101295032185393 0.085566795982317964 0.022348939705892992 0.07334904770520434 0.049818184543893779 0.037101295032185393 2.2204460492503131e-16 0.010470807033782883 0.036978634276694032 0 0.014143748686359594 0.007283900836425476 0 0.0065223979631776341 0.036978634276694032 0.007283900836425476 0.04610245485468361 0.016153296255069279 0.057496027157452487 0 0 0 0.051649091205530857 0.017141907307329153 0.03352890546765696 0.020262530411898922 -0.02994929082112173 -0.074921822382964159 0.13642204253530127 -0.062236727071404402 0.16070877677395068 -0.025207868079011042 -0.0024266581152965912 -0.035325481949772607 0.0070582166678903628 -0.061077285131157864 -0.022119114334474325 0.023734436383791208 -0.029471644515750215 -0.015303282592381468 0.11959040844741764 -0.039411758012773329 0.039106618245224906 0.14911889713091445 0.041090305395319396 -0.18473680629668263 0.22402134436693102 0.020075778916317195 0.14047345468353989 0.35149302181784747 0.012874595633235777 0.22402134436693102 -0.049327220233699558 -0.18473680629668263 0.020075778916317195 0.030474068315763492 0.07629925330315232 -0.025558031258191595 0.058519261165017059 0.018740203903696614 0.01532116563000852 0.030474068315763492 0.07629925330315232 -0.025558031258191595 0.018740203903696614 -0.054971006059620957 0.050632218062457074 0.019477728860844062 0 0.040924250117459385 0 0.028001064998193152 0.013720924902380381 0.019477728860844062 0 -0.0071446749457103453 0.0010805001963429491 0.051230214383290479 -0.0043122779879218405 -0.011321421398483572 0 0.053442241860630499 0 -0.0028289735829561333 0.024694716836646202 -0.061918529466820346 -0.4292462643769217 -0.20181914465259226 0.040166193044220297 0 -0.20437827042790552 -0.11982385075756385 -0.12792231037988339 -0.042981945949018684 0.019762203986593212 -0.10714781926921083 -0.068606907181679111 -0.008759587015677868 -0.12481714425941511 -0.052749302965707491 -0.040088337163288551 0.12957778256059815 0.015888805349234272 -0.023963202615972987 -0.17162601246265619 -0.051245492728130962 -0.093452219010282819 0.15583261298503248 -0.15181384718628155 -0.17162601246265619 -0.041166654029596697 -0.023963202615972987 -0.051245492728130962 -0.14964151387915897 -0.034457618123814079 -0.042701500511631428 -0.0057765206286888773 -0.031882498591200348 -0.10031390043560895 -0.14964151387915897 -0.034457618123814079 -0.042701500511631428 -0.031882498591200348 -0.050873827555964611 0.0058741149629457879 -0.036163093568857448 -0.1373156307872373 -0.071730092553910954 -0.088130739038538644 -0.22319391295020413 -0.27468795451622308 -0.036163093568857448 -0.088130739038538644 -0.040573304532124252 -0.11687228996586636 -0.046854435460114023 -0.10177880517008349 -0.11707275070380581 -0.1608811642389569 -0.050909119421451307 -0.23898580755361515 -0.10960085009257116 -0.17521634133412731 0.085813658310910756 -0.0015134216518250209 0.0096308893480833904 0 0.014085698973166439 0.0027751191199718445 0.0064977905627015553 -0.046164182235797706 -0.05284060843725287 0.033896568918031562 0.10539042795548256 0.1689281711376712 0.2445574751595615 0.017367317311404715 0.038737384305522239 0.12419790560805737 0.02984328327512506 -0.017675904738724851 0.084702118752295608 -0.016917509417395782 0.11858391868534683 0.18614590932946598 0.0054585660878344417 0.084702118752295608 0 -0.017675904738724851 -0.016917509417395782 0.029161149465249975 0.060901464932159532 0.02049887386372631 0.0182216950241013 0.026400388090113278 0.041554282980910712 0.029161149465249975 0.060901464932159532 0.02049887386372631 0.026400388090113278 -0.0088947985190613536 0.031925196564065478 0.025594504578134163 -0.0048021501225723687 0.039808875272969314 0 0.041042689085980237 0.013784634246586333 0.025594504578134163 0 0.098964189322704871 0 0.031765769266713408 0 0 0 0.018818963791753421 0.0031041923186416638 0.011413516981926256 0.012714109988770407 0 -0.17392125685993076 -0.11265238831413082 -0.08482913730552942 0 0.0062058129930459881 -0.064848198710925509 -0.093420672464713264 -0.11182372358030772 -0.096144781566915194 -0.056184899273083878 -0.11165698624318166 -0.086450147013053424 -0.079144000819298246 -0.012034753886425352 -0.030789621659860017 -0.083152232953169175 -0.087807498754003024 -0.067230237904827475 -0.1125414563326791 0.10209664478952943 -0.042871062142561353 -0.087807498754003024 -0.045349319090773367 -0.083152232953169175 -0.067230237904827475 -0.10509173645734747 -0.062320388477759732 -0.07373815094493115 -0.10300162290101224 -0.052393757823743045 -0.12144803394477022 -0.10509173645734747 -0.062320388477759732 -0.07373815094493115 -0.052393757823743045 -0.0639242766779725 -0.033216042656056932 -0.052095591173336911 -0.029492498835140213 -0.085488174669179851 -0.07576086099761499 -0.040480345509353782 -0.043103219270933343 -0.052095591173336911 -0.07576086099761499 -0.040291205522126415 -0.026347977204450271 -0.060623464009880147 -0.092830425224859014 -0.10249125203732 -0.083804121283104757 -0.034811245027678205 -0.092358139434340014 -0.020659514785393667 -0.053174602916949275 0 0 0.0074957015084700027 -0.094553279597079917 0.012781280148539175 0 0.0052331288675436143 0.008550620672011091 0.035794740752725387 0.03070075067960612 0.061634436278286311 0 0.021255622683186353 0.10302729977398475 0.054996925692831079 0.083382167447262859 0.060866996700452529 0.059331216474510791 0 0.15071475853371227 0.0045135112943360074 0.060866996700452529 0 0.083382167447262859 0.059331216474510791 0.035258935009663483 0 0.036361898348625937 0.030777126989341836 0.031768105396742755 0.026299218340554213 0.035258935009663483 0 0.036361898348625937 0.031768105396742755 0 0.0030646370356499039 0 0.033433149675798919 0 0.0068869580914277364 0.048890938828376716 0.013952938025791367 0 0.0068869580914277364 0.039803565063174326 0.040232717545320207 0.03656154039426926 0.0065253032003258276 0 0 0.031942554948344234 0 0.052102064354326592 0.0039719976481959003 0 0 -0.0015267314213803322 0.010481119571721733 -0.02378000957198757 -0.022246702532014304 0.0025524581751910163 -0.0041953851587663684 0.054002634871198274 0.079114994573842815 0 0.075926044974830353 0.2074889430578418 0.058927524173569348 -0.074055380537900686 0.14976791497061359 0.056016648288233675 0.22671033556238213 0.26835008716916398 -0.027519164760268753 0.14976791497061359 -0.028119603502404004 -0.074055380537900686 0.056016648288233675 0.013198963742784849 0.070658336801218941 0 0.0742930726485872 0.024932675787052876 0.030538365370035105 0.013198963742784849 0.070658336801218941 0 0.024932675787052876 -0.023774658763440999 0.031479238437568384 -0.014621391190945522 0 0.034752053726718968 0 0.0099668986902824233 0.014586620554597104 -0.014621391190945522 0 0.010940172930017766 0.018878705295095145 0.022373265263621395 0 0.022402819474809779 0 0.042506099866636685 0 0 0.02341887454220044 0.038076814627551157 0 0.0038213610644325961 -0.0012189176408799833 0.030042938445524667 -0.00037125782224235217 -0.007740489696137054 0.067984217379685311 0.027888927780577437 -0.0068810701061768099 0.019578831817243125 0.16809554884355138 0.0098143857536557438 0 0 -0.0022704165749186031 0 0 0.050754115303623761 0 -0.0037999898512693039 0 -0.0022704165749186031 0.016523966019358818 -0.015019843330456931 0.022968316760921779 0 0.054955445842313842 0 0.016523966019358818 -0.015019843330456931 0.022968316760921779 0.054955445842313842 -0.0040449918963795864 0.074584939096869668 0 0 -0.0069140157590905664 -0.003871209594966174 0.076072211376735172 0 0 -0.003871209594966174 -0.0035895023173574078 0.014612198022122685 0.032198415627045 0 0 -0.062802231085389695 -0.011419919628170898 -0.082191284564412645 0.034765028622336679 0.043441347216814613 -0.0070940571620066234 0.020353890881118716 -0.012555150004062383 0.0086460770509704295 -0.030594146018334399 -0.016942693366190774 0.014795397631063686 -0.015171463516524321 -0.012754243336685752 0.016413778216808818 0.11582319359416436 -0.0087650121479978058 -0.0093300237336201922 -0.011946641573632136 -0.0096138511792823299 -0.018489177427464427 -0.012738123521463912 0.032478688897333872 -0.011946641573632136 -0.0051918100836208375 -0.0093300237336201922 -0.0096138511792823299 -0.0090638394838311893 -0.022546792662589493 0.022499969760554676 0 -0.0063592217316251936 -0.0059816207361639744 -0.0090638394838311893 -0.022546792662589493 0.022499969760554676 -0.0063592217316251936 -0.0052881226602112773 0.049553121794590892 -0.0084328475397301931 -0.0095923090927642844 -0.012826421018732562 0.027733711172960807 0.03743336279727804 0 -0.0084328475397301931 0.027733711172960807 -0.013052670005023092 0.0090634152366573378 -0.0036787438684663483 -0.023468358134285685 0 -0.0092707523176922043 -0.0024758217636416638 -0.017318864548956172 -0.0065351136655743946 -0.027250700161251317 0.010267296482585706 0.0035162060479363303 0.0099087788723988754 0.030131327908137415 0.085072302705293826 0.013554710651083476 0.11210900500420205 0.012599581425937242 0.017852529392624241 0.075154828560158621 0.042518659855636055 -0.04014277470405269 0.053722690530575004 0.019846619903495049 0.04167620337857867 0.056876786542801615 0.0072065529203391892 0.053722690530575004 0.012713915643254031 -0.04014277470405269 0.019846619903495049 0.024081070022172604 0.0090000781338285003 0 0.0070503252503145873 0.0046406639944827025 0.0058065105880155182 0.024081070022172604 0.0090000781338285003 0 0.0046406639944827025 0.02082614964020529 0.014463327729176384 0.011289458593540457 0 0.035794053500410643 0 0.016840762192943549 0.0060121599530940364 0.011289458593540457 0 0.084762427885360203 0 0.0080921594837297887 0 0 0 0.016461350058290674 0 0.013092334948294941 0.0059350374561446609 -0.0056045735752868631 -0.012161987362223322 -0.013348634923966199 0.0032644056631127177 0.011040548192750677 0.0055914259097487855 -0.01564208682432899 -0.018208957114394197 0.024833682798023182 -0.0096345989447837108 -0.011595415026019453 -0.0072111019175624463 -0.012947198792005978 0.02335173962016197 5.1181836616364805e-05 -0.016779027598306972 -0.0072111019175624463 -0.0094006046638953639 -0.011595415026019453 -0.012947198792005978 -0.010187670229240903 -0.015884294773555796 -0.01835537885876793 -0.015510848034392366 -0.013701775096517731 -0.016392377968600408 -0.010187670229240903 -0.015884294773555796 -0.01835537885876793 -0.013701775096517731 -0.011613288802920282 -0.017441422558944052 -0.016099756631715232 -0.0102010557570611 -0.01225464523590347 -0.020909453214915788 -0.013256848424575987 -0.018323499331206118 -0.016099756631715232 -0.020909453214915788 0.02431577166110668 -0.015840204224165044 -0.013021551142853013 -0.020241620244812106 -0.017270444347436745 0.0014513741615187013 -0.014822820553391963 -0.020625850648705077 -0.0094915548801239695 -0.018920652127453062 0.054564412720397089 -0.052787474491799991 0.28234961917246337 0.084895515704495786 0.099754181643874132 -0.14129909814439459 -0.029554859120513147 0.021222349329085198 -0.067990498652429704 0.036082269759081569 0.049269834138910139 0 0.21552456159480218 0.10934176031198571 0.017874274579949761 0.049269834138910139 -0.029020602791889016 0.036082269759081569 0 0.011102474708040768 0 -0.13388562237542215 0.023577664349975158 0.028951355729160761 -0.099937496127453465 0.011102474708040768 0 -0.13388562237542215 0.028951355729160761 0.020761097082589313 0 -0.016026119195782385 0 0.080320068072633477 0 0 0.0045772901907944101 -0.016026119195782385 0 0.20845435432977749 -0.05633961061452477 0.044511403955095265 0 0 0 0.0046549646005956029 0.0064170275081832174 0 0.013522613136577594 0.31007212804583606 0.42405595608049157 0.32660856037376101 0.94204164646555266 -0.015353781860578317 0.018602522030125336 0.54938567278182926 0.19197563610873561 0 0.29143305189774499 0.11413195694203758 0.0087160953885803798 0.24934418844709652 -0.02215338562823637 0.29143305189774499 -0.01422665391674173 0 0.11413195694203758 0.036045843856263762 0.076164221106041624 0.14100300897194265 -0.013902849173056342 -0.011731979618560665 0.14032437312365656 0.036045843856263762 0.076164221106041624 0.14100300897194265 -0.011731979618560665 -0.046938327786787026 -0.020137683200837815 -0.0087295584869921308 -0.033903272973086145 -0.022278989026599992 -0.045111596431216289 0.055946945213064161 -0.029093937767556304 -0.0087295584869921308 -0.045111596431216289 -0.000599442176132022 0 0.030934754671706755 -0.041417704678425003 -0.04460877261128332 -0.021159488768517424 -0.0028637455817247586 -0.014056646743085715 0.012419996213884137 -0.0095399761698318902 -0.19752700127114564 0.16807733555008891 1.2520146256671625 -0.066932018729792847 -0.05863232838193181 0.49197403530525213 0.0049556871036946218 -8.6042284408449632e-16 0.21587805542595279 0.10529829883453024 -0.14948492885090583 0.39659483937188444 0.025184127078697237 0.21587805542595279 -0.048899695470760909 -8.6042284408449632e-16 0.10529829883453024 0.098342669665176213 0.16743456678665214 -0.0029740284593713674 -0.0017081767995091781 0.078290799415352288 0.067526667466714221 0.098342669665176213 0.16743456678665214 -0.0029740284593713674 0.078290799415352288 -0.014460651929834862 0.1096068322295317 0.063554363534134975 -0.019784454829195733 -0.011226658382006913 -0.0044570535247654792 0.13111118388856755 -0.0036332448466024829 0.063554363534134975 -0.0044570535247654792 -0.11546033931342004 -0.084608470152957679 0.081487110638767513 -0.024710695918707917 -0.0035435618843611943 -0.015438665943494448 0.092821005967451131 0.013679108325196497 0.25282047217597148 0.056567899656471445 0.89698139678000177 0.9162665724214939 -0.64699417349655741 0.13499783021821402 0.82297061187795606 -0.035742654112992295 -0.11342840469712329 0.19475364289900782 0.16377032444810563 -0.080045995159093095 0.35814295327075424 0.045102683794669245 0.19475364289900782 -0.11278782719317371 -0.11342840469712329 0.16377032444810563 0.10709506768708688 0.15286488400686246 0.14829805187791584 0.059333484008012673 0.049067427268777393 0.22683766509348272 0.10709506768708688 0.15286488400686246 0.14829805187791584 0.049067427268777393 -0.075474736602355361 0.079147640977868569 0.077772046910495732 0.014886782154618583 4.5796699765787707e-16 0.018857199437462318 0.17790218353810933 0.01454895840883908 0.077772046910495732 0.018857199437462318 -0.095875826358198912 0.042780772818353706 0.1292878844394163 0.0068768836504225399 -4.4408920985006262e-16 0 0.1152946514113567 0.039140069573051765 0.13193690002342895 0.043217018436750888 0.17167007304710311 -0.42635206589494179 0.2804355882063525 0.5165743160959686 0.052612690837982576 -0.10964903744028515 0.032126607566876103 0.0049105897274762085 0.096217615054889197 -0.022123210782030632 -0.0015057398086846321 0.032126607566876103 -0.081954990326247215 -0.10964903744028515 0.0049105897274762085 0.13920225113258827 -0.051198024495835361 -0.0032576752152110723 -0.058181701051982726 -0.0089930099997451718 0.067567619061296588 0.13920225113258827 -0.051198024495835361 -0.0032576752152110723 -0.0089930099997451718 -0.038810460579308446 0.062809776413232057 -0.12042949853610044 0.038572637812259489 -0.081870478315212311 -0.070110549125519825 0.10254971672363511 -7.8843181983145882e-16 -0.12042949853610044 -0.070110549125519825 -0.053995941485290522 -0.10779396914629866 0.14117722081532108 0.05299789178911652 0.083656898923743034 -8.8817841970012523e-16 0.049486106720904421 0.05139977341420246 -0.071405228097769224 0.04702000196289316 -0.64320031178049608 -0.038762670879705592 0.68151075371948855 -0.36420744049617509 -0.25575485587561714 0.098674788524492782 0.055655512036553591 -0.3092591941624504 0.22369624559299281 0.07245950490344602 0.098674788524492782 -0.22955040525431508 -0.25575485587561714 0.055655512036553591 0.15648894194047733 -0.013058962731747104 -0.15762208955542603 0.016645295071920953 0.13778993061189226 0.1047618998043663 0.15648894194047733 -0.013058962731747104 -0.15762208955542603 0.13778993061189226 -0.26567371809156298 0.11101449024576319 -0.14003205300585181 0.022809679170331564 -0.17811324918482077 0.018255810340213518 0.19335127965185045 -4.4408920985006262e-16 -0.14003205300585181 0.018255810340213518 -0.24480541308160614 0.059504238097328209 0.20881689339546172 0 -8.8817841970012523e-16 -4.4408920985006262e-16 0.11803458356631009 0.049114931676806292 0.043617274509243305 0.03868632541320946 0.26964971756167216 0.66882557280707366 0.18100138199569527 -0.0062778593143756707 0.24011232486852063 0.1134951888627352 0.25334149760355779 0.40543788036194101 0.0069008900902769454 0.24011232486852063 -0.04932890742263684 -0.0062778593143756707 0.1134951888627352 0 0.20264883464403929 0.067807502962669505 0.062034997661398444 0.060903352619526556 0.28721120452505217 0 0.20264883464403929 0.067807502962669505 0.060903352619526556 -0.029422502333973657 0.064081995970344321 0.098195625847587328 0 0.06701922154926615 0 0.058071991747530624 0 0.098195625847587328 0 0.28153374463082725 0.017109955905174015 0.058109083567047033 0 0.0012691948181317025 0 0.062981461030005043 0.031358550659323275 0 0.037563415214677563 0.55976211560928768 0.20399266100047403 -0.039651047499124251 0.091749479260376646 0.06830554831989985 0.10740227902602131 0.34062745064937161 -0.030072730616322096 0.091749479260376646 -0.04915594052860689 -0.039651047499124251 0.06830554831989985 0.0061669529444374387 0.014975962335313116 0.021617873216656393 -0.0025308742201037241 0.0095102544980797208 -0.06901622879124257 0.0061669529444374387 0.014975962335313116 0.021617873216656393 0.0095102544980797208 -0.067801055466916407 0.15408023337311885 -0.060048456155576899 -0.019632864104623036 -0.088807048301327768 -0.058246949215036994 -0.00021457068026666629 0 -0.060048456155576899 -0.058246949215036994 -0.057249344787416279 0.052080136076617399 0.075120873273747668 -0.12016487021959647 -0.033738228699159684 0 0.14771369779174087 0.054799799772597191 -0.16392387760609511 0.084663977974522409 -0.47702904886944852 -0.29486782746990919 -0.27046626139550106 -0.34644891049154353 -0.16316455577147343 -0.31034743877787746 -0.38010426940413727 -0.27046626139550106 -0.32142765355110575 -0.29486782746990919 -0.34644891049154353 -0.26209087044959517 -1.214570301393942 -1.2302150161758789 -0.52747561535608178 -0.54468566238423555 -1.1113245299598147 -0.26209087044959517 -1.214570301393942 -1.2302150161758789 -0.54468566238423555 -0.47686108183529408 -0.029211864772661543 -0.53199459183431053 0.2056215932319129 -0.48276872625150175 -0.35192501303909146 -0.047780675441380441 0.077043129869252214 -0.53199459183431053 -0.35192501303909146 -0.16618460480180258 -0.16807411804049668 -0.21756626252933925 -0.19526492719009714 -0.22466710929187256 -0.12404028800889218 -0.29012802942488825 0.075265526765216709 -0.27199914650720941 -0.035899780007058214 0.02930295330955663 0.15841823787206369 0.053406921247814362 0.56985567166545981 0.28559150804182742 -0.069432743292372215 0.15841823787206369 0.018243086102248156 0.02930295330955663 0.053406921247814362 -0.093856683019406931 -0.07533597179044621 -0.24325633644890571 -0.054894457572247438 -0.064752315603561608 -0.31720533526309691 -0.093856683019406931 -0.07533597179044621 -0.24325633644890571 -0.064752315603561608 0.024824879758290487 -0.068914838550656304 -0.0015012844048439746 -0.053739004575258008 0.15702884103543968 -0.1034180121771846 -0.0051257289396702023 -0.052480485483228347 -0.0015012844048439746 -0.1034180121771846 0.25284819919958151 -0.081923889934141306 -0.035375871284543475 -0.023856904774051866 -0.058652596055469852 -0.034208856410091838 -0.059756777614726045 -0.043183671695439185 -0.15716580014779757 -0.070151196135568306 0.17841874086889056 0.039373268832505144 0.31459093236545105 0.37533158147411733 0.029705737920238683 0.17841874086889056 -0.020069008688786579 0 0.039373268832505144 0.009315834423656558 0.085855768406691624 0.026071783747872685 0.028672986926223661 0.031643633094329868 0.052824628072034689 0.009315834423656558 0.085855768406691624 0.026071783747872685 0.031643633094329868 5.5511151231257827e-17 0 0.13599709501854343 0 0.14136425605561712 0 0.076867883822631683 0.011440481513497872 0.13599709501854343 0 0.10150382203511159 0.0065716115397855867 0.052568256053326066 0 0 0 0.010206917606870506 0 0 0.015403010309731851 -0.36330644261639816 0.17442559151941334 0.36031028494826556 -0.15090350000594085 0 -0.16400617825452704 -0.17852005027974904 -0.36330644261639816 0.21181669388470539 0.044425405068743089 -0.13413812415401274 2.0816681711721685e-16 0.10747495861088759 -0.23315828609068201 0.21181669388470539 0.044425405068743089 -0.13413812415401274 0.10747495861088759 -0.29521860983449227 0.23783594218181348 -0.51194522695849765 0.15536273412250021 -0.40419655575146535 0.052039035068783733 0.13523195757268267 0.057559908301419348 -0.51194522695849765 0.052039035068783733 -0.14007691037819031 0.067966570717681501 0.3122089000246005 0.026920544481293409 0 0 0.21433837530926733 0.010956403157547909 0.21070520629544082 0.086710561380760526 0.41735201122426469 0.77079354053420457 -0.23643430027634305 0.36311773268135733 -0.063935029162326906 -0.039400550989965082 0 0.18455661372231183 0.19582311667161037 -0.017205111495166799 0.019805489325015149 0.18798924888737975 -0.1292794137825069 0.18455661372231183 0.19582311667161037 -0.017205111495166799 0.18798924888737975 -0.098275209092680768 0.13920515582670526 -0.21069947500808298 0.1362735961469777 -0.043946634574543182 -0.10282072241051245 -0.038914265717646716 0.085604638192201418 -0.21069947500808298 -0.10282072241051245 0.11955813726476651 0.10269700453517014 0.35163017123288959 0 0 0 0.14413227226470468 0.01240450037110646 0.071550759141230436 0.11245191820123547 -1.0701136358686407 -0.4316297866853403 -0.17505271451328322 -0.40379881115250671 -0.31485128441010479 -0.41740014460503039 -0.037066867658840805 -0.36913836474774653 -0.29699119526791695 -0.050597565812359413 0.0030968665896245282 -0.11834819718482976 -0.037066867658840805 -0.36913836474774653 -0.29699119526791695 0.0030968665896245282 -0.76571543075427295 -0.070775132402523921 -0.82822157779972927 -0.041281503684418207 -0.63684777671700576 -0.21799898890765168 -0.22531345192270735 -0.016341090911747964 -0.82822157779972927 -0.21799898890765168 -0.13450132650160324 -0.013383589926053473 0.012643384703438527 0 0 0 -0.13498449735128537 -0.028384081954259954 -0.18956110340612597 -0.024522864457619364 -1.1308774781197284 -0.36015855071982 -0.42208828193764009 -0.37538394984887535 -0.77039574671066902 0.14013312479196491 -0.17272200384737882 -0.3610296300783804 0 0.09472288377075129 -0.33977332069313054 0.14013312479196491 -0.17272200384737882 -0.3610296300783804 0.09472288377075129 -0.82181014018895671 0.1812927011213267 -0.77559558658100836 0.1335826041059443 -1.2164992556807208 -0.19179211707106997 -0.40127664994901124 -0.090562861337381437 -0.77559558658100836 -0.19179211707106997 -0.059346327162783041 0.020180780576542191 0.23794176742300926 0.080846164387931213 0.12132941137671378 -0.021771527921359789 0.19309262512159112 -0.054862659876861675 -0.17201358913607709 -0.0050301438429303678 0.15034155930494775 0 -0.0299710405432408 0.2364052664471894 0.03499058192235785 0.22012937258693749 0.029514221852675833 -0.010518631841675993 -0.017897926863206123 0.00097463799395108418 0.03499058192235785 0.22012937258693749 0.029514221852675833 -0.017897926863206123 -0.032258270807553738 -0.10045854861710275 -0.03676224920905917 0.17793235330448912 -0.10153935307093542 -0.25974636347225133 0.13092504680572398 0.074430619240487009 -0.03676224920905917 -0.25974636347225133 -0.023687917289013465 0.11950325742782957 0.14410335133554614 0.028662680075989499 0.099717189688212179 0.080825568577032755 -0.051253912465519288 0.045057727306822185 0.11828031406546877 0.093191332049049336 -0.16400617825452704 -0.17852005027974904 -0.36330644261639816 0.21181669388470539 0.044425405068743089 -0.13413812415401274 2.0816681711721685e-16 0.10747495861088759 -0.23315828609068201 0.21181669388470539 0.044425405068743089 -0.13413812415401274 0.10747495861088759 -0.29521860983449227 0.23783594218181348 -0.51194522695849765 0.15536273412250021 -0.40419655575146535 0.052039035068783733 0.13523195757268267 0.057559908301419348 -0.51194522695849765 0.052039035068783733 -0.14007691037819031 0.067966570717681501 0.3122089000246005 0.026920544481293409 0 0 0.21433837530926733 0.010956403157547909 0.21070520629544082 0.086710561380760526 0.019797977419877624 0.063809046617350332 0.045909329144763145 0 0.039753939007431502 0.028303665333441971 0.020033513764325762 0.043927628222211933 0.045909329144763145 0 0.039753939007431502 0.020033513764325762 0.08347017633581727 0 -0.033739114572173448 0 0.16435931694836992 0 0.058497478101767621 0.017619348846485239 -0.033739114572173448 0 0.49936486099998839 0 0.054534593397340569 0.0038919560579918585 0.016143957763617243 0 0 0.0092992839300097465 0 0.005087550028195313 0.039373268832505144 0.009315834423656558 0.085855768406691624 0.026071783747872685 0.028672986926223661 0.031643633094329868 0.052824628072034689 0.009315834423656558 0.085855768406691624 0.026071783747872685 0.031643633094329868 5.5511151231257827e-17 0 0.13599709501854343 0 0.14136425605561712 0 0.076867883822631683 0.011440481513497872 0.13599709501854343 0 0.10150382203511159 0.0065716115397855867 0.052568256053326066 0 0 0 0.010206917606870506 0 0 0.015403010309731851 0.18455661372231183 0.19582311667161037 -0.017205111495166799 0.019805489325015149 0.18798924888737975 -0.1292794137825069 0.18455661372231183 0.19582311667161037 -0.017205111495166799 0.18798924888737975 -0.098275209092680768 0.13920515582670526 -0.21069947500808298 0.1362735961469777 -0.043946634574543182 -0.10282072241051245 -0.038914265717646716 0.085604638192201418 -0.21069947500808298 -0.10282072241051245 0.11955813726476651 0.10269700453517014 0.35163017123288959 0 0 0 0.14413227226470468 0.01240450037110646 0.071550759141230436 0.11245191820123547 0.11668853451237315 -0.057738705958863309 -0.026402180389748904 -0.13523921621120166 -0.1365196610790905 0 0.11668853451237315 -0.057738705958863309 -0.13523921621120166 -0.063342563205680019 -0.082129355419809758 -0.051207795842355096 0.061519624141313622 -0.088053824944196973 -0.20429080034936442 0.088819038736816652 -0.069164357543310559 -0.051207795842355096 -0.20429080034936442 -0.049823425628692158 -0.047014114472691798 -0.23841914179996543 0.036825159924145368 -0.086508381917196189 -0.15273438512609963 -0.049841979488908006 -0.065709082923081502 0.013785435067384565 -0.080938999490248117 -0.38376960088773993 -0.034729751174789804 -0.086817586522504833 -0.2876979143079878 -0.11798123971007421 0 -0.38376960088773993 -0.086817586522504833 4.163336342344337e-15 0.22934459553879161 -0.33840140541935321 0 0.10187001264875173 -0.22952816102164897 -0.22386395866389422 0 -0.33840140541935321 -0.22952816102164897 -0.18726189088159439 0.07334284295656579 0.23509892408583169 0 0 0 0 0.032706387968946198 -0.46546482158625169 0.061721856035019985 0.075196191550064448 0.014689548298223849 0.21686907739431591 0.056975983280840511 0.38333379672400048 0 0.014689548298223849 -0.02821388575270288 0.015664436897308804 -0.12188790446938391 -0.043386944820002528 0.077037440828919418 -0.076930787450745178 0.0033311534167096033 0 -0.12188790446938391 -0.076930787450745178 -0.15913145000412343 0.062761519994699366 0.059087090659988149 -0.070182354351681464 -0.042490294883630708 0 0.059324985889439186 0.038210900373623548 -0.12460460837508203 0.040765546087233921 0.09616624095870617 -0.17988618372260362 0.026199984380154528 0.034821363929193119 -0.075319909146659939 0.09616624095870617 -0.037601492142455402 0.090754837042453268 -0.089188318030534425 -0.053557558314274049 -0.027160530084109971 0.026181228441770069 0.10614749961587239 0 -0.089188318030534425 0.026181228441770069 -0.018124464223198685 0.02175386586669931 0 0.060708626491172597 0.14594830300572448 0 0.074096999298514196 0.048407531601649519 -0.083245377974139653 0.064958478464528943 -0.26858552917750783 0.13504500233543321 0.086582627927948616 -0.014690482859071451 0 -0.040557040370277533 0.028648372692406564 -0.12830661112715619 0.072699313420980821 -0.068247332789044504 -0.066075670727965774 0.13647034210985401 0.04864603688399461 -0.12830661112715619 -0.066075670727965774 -0.031916567950534595 -0.029650081570066284 -0.044557343361353231 -0.22656750206682674 -0.023205785344872616 -0.060235624645481788 0.03059954457287584 0.040895686372289061 0.0037725656272096391 -0.013944445044330908 0.13621454259395929 0.28594838470012429 -0.21684077348900166 0.26831280693517023 -0.034891343413127232 0.16279565981859975 0.051625623598883855 0 -0.025140874410330354 0.041065636343428899 0.10011781338981267 0.024779878430512079 0.051625623598883855 0.041065636343428899 -0.094205355895343332 0.03845440582612486 0.19388151806457685 0.048134675711201301 0.069090107500976536 0 0.21538583521932814 0.044158200032038381 0.027097757694229712 0.07369453197153393 0.11668853451237315 -0.057738705958863309 -0.13523921621120166 -0.063342563205680019 -0.082129355419809758 -0.051207795842355096 0.061519624141313622 -0.088053824944196973 -0.20429080034936442 0.088819038736816652 -0.069164357543310559 -0.051207795842355096 -0.20429080034936442 -0.049823425628692158 -0.047014114472691798 -0.23841914179996543 0.036825159924145368 -0.086508381917196189 -0.15273438512609963 -0.049841979488908006 -0.065709082923081502 0.013785435067384565 -0.080938999490248117 -0.38376960088773993 -0.086817586522504833 4.163336342344337e-15 0.22934459553879161 -0.33840140541935321 0 0.10187001264875173 -0.22952816102164897 -0.22386395866389422 0 -0.33840140541935321 -0.22952816102164897 -0.18726189088159439 0.07334284295656579 0.23509892408583169 0 0 0 0 0.032706387968946198 -0.46546482158625169 0.061721856035019985 0.014689548298223849 -0.02821388575270288 0.015664436897308804 -0.12188790446938391 -0.043386944820002528 0.077037440828919418 -0.076930787450745178 0.0033311534167096033 0 -0.12188790446938391 -0.076930787450745178 -0.15913145000412343 0.062761519994699366 0.059087090659988149 -0.070182354351681464 -0.042490294883630708 0 0.059324985889439186 0.038210900373623548 -0.12460460837508203 0.040765546087233921 -0.040557040370277533 0.028648372692406564 -0.12830661112715619 0.072699313420980821 -0.068247332789044504 -0.066075670727965774 0.13647034210985401 0.04864603688399461 -0.12830661112715619 -0.066075670727965774 -0.031916567950534595 -0.029650081570066284 -0.044557343361353231 -0.22656750206682674 -0.023205785344872616 -0.060235624645481788 0.03059954457287584 0.040895686372289061 0.0037725656272096391 -0.013944445044330908 0 0.43418587970163874 0 0.5462254486959075 0 0.095750841033144796 0.021421816591353102 0.43418587970163874 0 0.19854849826997559 0 0.067107129822615297 0 0 0 0 0 0 0.022739356552735557 -0.084239728522222293 0.11074802834703704 -0.065988377488550978 -0.16200911652914854 -0.084491942702578232 0.0081468067854003831 -0.084239728522222293 -0.16200911652914854 -0.030688727467822117 -0.06244183651475417 -0.1933762053360201 -0.25341803543412122 -0.50741213444427224 -0.31122249426907023 0.022381002904693383 -0.18307885987970379 -0.29984780226996255 -0.45151164744729683 0 -0.064629320470232496 0 -0.018813443629636821 0.036799581725811617 0 0 -0.15760576688364644 0.052096520853778173 0.22483209748860913 0.0045014847289794879 0 0 0.11960797215955915 0.0036379108004043572 0.012095020002721245 0.022629331751397072 0 -0.31838153326015167 -0.1506292764853403 -0.65092905967529779 0 -0.31838153326015167 0 -0.19896932716228266 -0.26621034102366525 -0.56840342363514096 -0.52683863109783236 0.3588820340924711 0.028492742997984193 -0.53539900284077413 -0.051686663144779092 -0.17030018933967062 0 0.13412286306787605 0.028662230937036081 0.065244299126027458 0 0.079148826743702536 0 0.086442482517411615 0 0 0 0.079085365085980283 0 0.082695877116087335 0.045391547733274862 0.21903112535584002 0.10484750766020888 0 0 0 0.058365714154181347 0.24477651306706685 0.047975485816692906 0.098191827893134132 -0.019042047267231892 0.38663646872913449 0.10055200736336295 0.16173852856188695 0.13510956521617368 0.02766802450012848 0.01879973379148174 -0.21953219425787776 -0.0074234207556497234 -0.0025420146250929999 0.049834106250383862 -0.076752258689188751 -0.15022796356962045 0.018256170542072365 -0.15730998191951012 0.032252040292452419 0.05468267784766763 -0.015481549783697826 -0.036758844046797717 -0.1048758333472633 -0.012668799011544371 0.075724909358155609 -0.0058228071232096605 0.16821037056399166 0.13439793022818719 0.82238858053699659 0.094457151633094566 -0.016668224641931035 0 0.0085129409290989385 0 -0.15760576688364644 0.052096520853778173 0.22483209748860913 0.0045014847289794879 0 0 0.11960797215955915 0.0036379108004043572 0.012095020002721245 0.022629331751397072 0 0.058365714154181347 0.24477651306706685 0.047975485816692906 0.098191827893134132 -0.019042047267231892 0.38663646872913449 0.10055200736336295 0.16173852856188695 0.13510956521617368 1.9984014443252818e-15 0.047767400256782222 0 0 0 0 0.013537600400493966 -1.1102230246251565e-16 0.031313643795418671 0.094386326312879854 -0.0045141502545824538 0.036969214479827393 0.12429190002801763 0.07205996079302121 0.10011989419065273 -0.37690019826841908 -0.20405955568631068 0.2340836395933974 0.13024410860569002 -0.13314680886992769 0.28000587269385996 0.03650552364137738 -0.2375957926887623 -0.22240820903899791 0.41006268109776334 -0.26172704941212332 -0.02754166220858164 0.084128504591462344 0.058599089154445901 -0.069608965967630138 -0.30229533394065289 -0.040035068290712593 0.080935619017619739 0 -0.058016162674810884 0.12843667242967688 -0.37162147906720022 0 0.060128658331675654 -0.018128774405150594 -0.060713502141493715 -0.24291478661765167 -0.025674950354961812 0.0059986912637379165 0.081223588902985491
label 1 2 3 4 5 6 7 8 9 10 11 12 13 14 15 16 17 18 19 20 21 22 23 24 25 26 27 28 29 30 31 32 33 34 35 36 37 38 39 40 41 42 43 44 45 46 47 48 49 50 51 52 53 54 55 56 57 58 59 60 61 62 63 64 65 66 67 68 69 70 71 72 73 74 75 76 77 78 79 80
nr_sv 3 3 3 3 3 3 3 3 3 3 3 3 3 3 3 3 3 3 3 3 3 3 3 3 3 3 3 3 3 3 3 3 3 3 3 3 3 3 3 3 3 3 3 3 3 3 3 3 3 3 3 3 3 3 3 3 3 3 3 3 3 3 3 3 3 3 3 3 3 3 3 3 3 3 3 3 3 3 3 3
SV
0 5.5253386730051117 0 0 0 0 0 5.205380151673336 0 42.000848969567116 39.303674869625851 21.785244522992286 42.877791506950871 43.789367586451945 30.356191945577244 0 4.9239692060966229 0 5.3162831320408825 9.519507683527161 19.549412720775088 2.457167012610745 8.8791623940983335 4.2833336266151374 8.1319508772130789 13.450273648431452 9.5500691476685216 1.7892238248725783 0.0058286695103355211 5.5413373931344116 16.846247931960814 29.136284550554127 23.19359364530774 35.358560783683075 31.804535530972991 16.399879817935375 45.838866820269786 35.14073188560311 9.5244485629265991 7.261595618367175 38.039774438690102 31.249833189039276 9.0501412274466464 24.421789220503822 16.900161385540237 38.039774438690102 5.5042645382848567 7.261595618367175 31.249833189039276 37.029389100811137 45.973962143667876 24.274895478184575 28.338175430658779 45.941653086358599 67.612549932714117 37.029389100811137 45.973962143667876 24.274895478184575 45.941653086358599 9.4799544044823687 28.184059907820437 25.616254755810306 17.318809820713334 13.317913210713202 24.227998348459273 21.103171186164733 14.292760815369371 25.616254755810306 24.227998348459273 7.753935245703901 24.449554755889615 35.065477258503975 28.611783771543784 30.698321558811287 17.888865905073054 28.011637348888755 14.30710123765952 32.56784648560042 19.425473905387971 1:-0.604724 2:-0.493154 3:-0.2563 4:-0.479298 5:-0.259853 6:-0.318225 7:-0.35772 8:-0.420642 9:-0.476418 10:-0.53436 11:-0.628036 12:-0.741368 13:-0.843214 14:-0.867331 15:-0.886103 16:-0.912102 17:-0.90368 18:-0.896792 19:-0.914225 20:-0.941688 21:-0.943044 22:-0.778291 23:-0.589454 24:-0.843635 25:-0.904862 26:-0.808337 27:-0.448748 28:-0.687521 29:-0.413044 30:-0.608314 31:-0.713728 32:-0.787281 33:-0.813761 34:-0.818406 35:-0.8659 36:-0.911268 37:-0.957915 38:-0.973754 39:-0.981946 40:-0.990627 41:-0.986804 42:-0.980032 43:-0.976385 44:-0.983095 45:-0.98122 46:-0.892182 47:-0.809084 48:-0.923662 49:-0.5086 50:-0.64886 51:-0.508251 52:-0.285139 53:-0.102394 54:-0.212656 55:-0.407481 56:-0.56095 57:-0.637939 58:-0.635674 59:-0.618585 60:-0.452347 61:-0.428243 62:-0.453416 63:-0.412705 64:-0.372053 65:-0.274754 66:-0.449289 67:-0.410484 68:-0.219609 69:-0.0167723 70:-0.487219 71:-0.818406 72:-0.254323 73:-0.928018 74:-0.954267 75:-0.943233 76:-0.894892 77:-0.755179 78:-0.75812 79:-0.860297 80:-0.898585 81:-0.922666 82:-0.890505 83:-0.887344 84:-0.809466 85:-0.853792 86:-0.837532 87:-0.863653 88:-0.875413 89:-0.852451 90:-0.790162 91:-0.745114 92:-0.597303 93:-0.446387 94:-0.669504 95:-0.940021 96:-0.682621 97:-0.652488 98:-0.660166 99:-0.603563 100:-0.677358 101:-0.550593 102:-0.465036 103:-0.386612 104:-0.413082 105:-0.423805 106:-0.474286 107:-0.602923 108:-0.732735 109:-0.836252 110:-0.881432 111:-0.914282 112:-0.938708 113:-0.94465 114:-0.960171 115:-0.986302 116:-0.99817 117:-1 118:-0.983946 119:-0.953159 120:-1 121:-0.975756 122:-0.790554 123:-0.741491 124:-0.705811 125:-0.67804 126:-0.622327 127:-0.6283 128:-0.704959 129:-0.794265 130:-0.847499 131:-0.890278 132:-0.914086 133:-0.946555 134:-0.962144 135:-0.965785 136:-0.967637 137:-0.98028 138:-0.991235 139:-0.99974 140:-1 141:-1 142:-1 143:-1 145:-0.60293 146:-0.480082 147:-0.249725 148:-0.429638 149:-0.14433 150:-0.12905 151:-0.316623 152:-0.430857 153:-0.52865 154:-0.543732 155:-0.608382 156:-0.668194 157:-0.756945 158:-0.80457 159:-0.842518 160:-0.889426 161:-0.860535 162:-0.820439 163:-0.780028 164:-0.774368 165:-0.85136 166:-0.577803 167:-0.341309 168:-0.403939 
8.2818494475903943 1.7961029039495005 8.7983181180881136 5.9533755012751781 0 3.9647432898412167 0 1.4054249662162985 0 0 0 0 3.5170331642381112 18.88891351732142 3.3565138889028026 0 0.087583133313519843 0 29.353487711648675 0 0 4.9566731853302572 0 0.60045768172225344 0 0 0 0 0 4.6559195188292408 4.098153173816085 0 0 0 0 0 0 0 0 0 0 0 0 0 0 0 0 0 0 0.65829297299953182 0 0 0 0 0 0.65829297299953182 0 0 0 0 0 0 0 0 0 0 0 0 0 0 0 0 0 0 0 0 0 0 0 1:-0.140975 2:-0.199073 3:0.0265402 4:-0.281333 5:-0.0209598 6:-0.0398979 7:-0.0473841 8:-0.070159 9:-0.0498056 10:-0.0318265 11:-0.145685 12:-0.330563 13:-0.528729 14:-0.622699 15:-0.711166 16:-0.795419 17:-0.788682 18:-0.760872 19:-0.769392 20:-0.813502 21:-0.82918 22:-0.549179 23:-0.209097 24:-0.62359 25:-0.828098 26:-0.842419 27:-0.467721 28:-0.679157 29:-0.334174 30:-0.523713 31:-0.634989 32:-0.732054 33:-0.763775 34:-0.776958 35:-0.815157 36:-0.85526 37:-0.915679 38:-0.944604 39:-0.957865 40:-0.982231 41:-0.980098 42:-0.971383 43:-0.956948 44:-0.940917 45:-0.931781 46:-0.758715 47:-0.609147 48:-0.780059 49:-0.491177 50:-0.752681 51:-0.613012 52:-0.45933 53:-0.37766 54:-0.425754 55:-0.545636 56:-0.741264 57:-0.810306 58:-0.711575 59:-0.726768 60:-0.573969 61:-0.555109 62:-0.564653 63:-0.37045 64:-0.362685 65:-0.227541 66:-0.645317 67:-0.783754 68:-0.492228 69:-0.264256 70:-0.655306 71:-0.876595 72:-0.403866 73:-0.859291 74:-0.950908 75:-0.966477 76:-0.969794 77:-0.92467 78:-0.869442 79:-0.907588 80:-0.928466 81:-0.937755 82:-0.866697 83:-0.871136 84:-0.786659 85:-0.859548 86:-0.882791 87:-0.838406 88:-0.843613 89:-0.756133 90:-0.801374 91:-0.916224 92:-0.795903 93:-0.624441 94:-0.789218 95:-0.963441 96:-0.797514 97:-0.188846 98:-0.350378 99:-0.307521 100:-0.483964 101:-0.38381 102:-0.209993 103:-0.0266881 104:0.186015 105:0.329036 106:0.401796 107:0.202114 108:-0.0685243 109:-0.359044 110:-0.545188 111:-0.701584 112:-0.79116 113:-0.789193 114:-0.756161 115:-0.801212 116:-0.864783 117:-0.926306 118:-0.631604 119:-0.498014 120:-0.966261 121:-0.539896 122:-0.224311 123:-0.282981 124:-0.295075 125:-0.258171 126:-0.0802579 127:-0.0233922 128:-0.112596 129:-0.0796807 130:-0.0107142 131:-0.0803434 132:-0.18784 133:-0.229389 134:-0.341124 135:-0.530868 136:-0.573794 137:-0.695603 138:-0.883236 139:-0.983925 140:-1 141:-1 142:-1 143:-1 145:-0.170696 146:-0.387399 147:-0.172473 148:-0.351692 149:-0.0706922 150:0.00912833 151:-0.182058 152:-0.277714 153:-0.376183 154:-0.302535 155:-0.356909 156:-0.446991 157:-0.545952 158:-0.66738 159:-0.655746 160:-0.802153 161:-0.76604 162:-0.723595 163:-0.692807 164:-0.638395 165:-0.708795 166:-0.356626 167:-0.101345 168:-0.146467 
8.2449932835316453 8.1052367447381517 9.0720675079330686 9.7972921022353869 11.667023814675105 11.984503463289659 14.679975920144479 0 14.159119928275569 9.3578701387612675 14.416299115904071 0 0 0 15.653625876090654 24.707358989746155 27.336409665697325 20.152191925902081 0 2.6874491545002388 0.78091428836627907 7.074700451282637 0.18164143836620655 1.4846186248264044 1.4229186966924765 0 0 2.8219000965887222 1.413766573854933 24.81958168809776 11.849097336521316 6.5556296866087793 8.9503708336696839 6.9556912100253081 8.4032336652546071 7.6212595187070162 0 0 7.222783833072322 5.9747515146908743 0 1.1339281082559149 6.054135590117431 0 0.12283090885078836 0 3.1948850117234815 5.9747515146908743 1.1339281082559149 0 0 2.5206373155005348 0 0 1.4898648945730071 0 0 2.5206373155005348 0 4.4002374995676279 0 1.4968313918631935 0 2.1421628359029841 0 2.0277215760582834 0 1.4968313918631935 0 2.4304798196912456 0 0 0 0 0 0 0 0 0 1:-0.0346903 2:-0.0819465 3:0.165277 4:-0.193561 5:0.0301853 6:0.0233004 7:0.0547001 8:0.00717181 9:-0.00110027 10:-0.0113631 11:-0.160228 12:-0.327733 13:-0.472902 14:-0.55138 15:-0.655206 16:-0.750422 17:-0.746669 18:-0.715651 19:-0.714251 20:-0.762993 21:-0.776381 22:-0.377393 23:0.141683 24:-0.292695 25:-0.806749 26:-0.840537 27:-0.499341 28:-0.693376 29:-0.379329 30:-0.502113 31:-0.53571 32:-0.620082 33:-0.657166 34:-0.668839 35:-0.742246 36:-0.777356 37:-0.830091 38:-0.880156 39:-0.928631 40:-0.968074 41:-0.967216 42:-0.956503 43:-0.935701 44:-0.933222 45:-0.918367 46:-0.624137 47:-0.323767 48:-0.50726 49:-0.496761 50:-0.838263 51:-0.681698 52:-0.459628 53:-0.295213 54:-0.355703 55:-0.419451 56:-0.458522 57:-0.588691 58:-0.693359 59:-0.635922 60:-0.394026 61:-0.415614 62:-0.529644 63:-0.541185 64:-0.448244 65:-0.351475 66:-0.730403 67:-0.883313 68:-0.704796 69:-0.572121 70:-0.803253 71:-0.928127 72:-0.581892 73:-0.85903 74:-0.948198 75:-0.959717 76:-0.896857 77:-0.819209 78:-0.786503 79:-0.833514 80:-0.83588 81:-0.903489 82:-0.906901 83:-0.882941 84:-0.774145 85:-0.857533 86:-0.887717 87:-0.914147 88:-0.882019 89:-0.825887 90:-0.871723 91:-0.957025 92:-0.903609 93:-0.821588 94:-0.912985 95:-0.986861 96:-0.899919 97:-0.0891197 98:-0.228702 99:-0.135515 100:-0.356949 101:-0.205862 102:-0.0368977 103:0.18565 104:0.193872 105:0.293946 106:0.309061 107:0.0646766 108:-0.182665 109:-0.401454 110:-0.545721 111:-0.672852 112:-0.756764 113:-0.753212 114:-0.712575 115:-0.74717 116:-0.81696 117:-0.874332 118:-0.403705 119:-0.201327 120:-0.936189 121:-0.498696 122:-0.133396 123:-0.170866 124:-0.225965 125:-0.262484 126:-0.165609 127:-0.155443 128:-0.206793 129:-0.18618 130:-0.264526 131:-0.285117 132:-0.238344 133:-0.186585 134:-0.324096 135:-0.44442 136:-0.549123 137:-0.625953 138:-0.827482 139:-0.964203 140:-0.998311 141:-1 142:-1 143:-0.999071 145:-0.0967033 146:-0.308261 147:-0.127491 148:-0.323687 149:-0.0493373 150:0.112941 151:-0.0864116 152:-0.185524 153:-0.286497 154:-0.283848 155:-0.340443 156:-0.37183 157:-0.401956 158:-0.498532 159:-0.613242 160:-0.751718 161:-0.728757 162:-0.706091 163:-0.651973 164:-0.623432 165:-0.713735 166:-0.281668 167:0.0320383 168:0.0960868 
-11.928559573225218 29.176804787372632 27.462494994196156 34.000270756459663 14.746043023499672 12.119598870396576 18.212598236029446 5.5488367716809082 22.34907194998636 6.292205186298534 5.6354199082195757 5.176445782486204 5.0582609526327014 4.69107132838288 9.1760757599771932 4.1777664431581467 29.59285184759452 30.75076203253494 12.486464930617386 4.1441415087033091 5.3123801706313412 9.7403191384248924 3.8650738033034751 3.850355585869834 3.7992400259061494 3.2874379437210095 3.0415650745003586 2.8531601192267466 0.0079364054183399188 13.541170581694582 12.036903746883802 6.458554325393238 11.365198917603736 7.5456152368075076 8.7770195003115266 6.1219387507494041 4.7064634195193964 4.841983873041686 5.1686076577911031 5.4242191545858898 5.5702310698164839 7.0261615087563083 5.20984882781456 4.9830315255032032 4.3143638961556636 5.5702310698164839 3.90805463053205 5.4242191545858898 7.0261615087563083 4.891224297222772 4.8746285016282798 4.9019860736606002 2.7835838159441959 4.6807231962588371 5.6496784989768614 4.891224297222772 4.8746285016282798 4.9019860736606002 4.6807231962588371 4.8562710961977951 4.0417788396015411 4.8501815002817397 3.2865762209961136 4.813421951862539 3.9929552391125123 6.8364835410222433 3.2127463347130627 4.8501815002817397 3.9929552391125123 4.2313618154307191 4.435133993409111 4.2813850104550832 3.640074453827713 3.8757950394528073 3.336280273365841 4.0848742421219608 3.2284761426396433 4.4623265063383082 3.6567823489915559 1:-0.0891955 2:-0.164525 3:0.0112101 4:-0.100024 5:-0.224245 6:-0.188637 7:-0.172607 8:-0.0593493 9:0.035282 10:0.0531753 11:-0.134374 12:-0.360272 13:-0.513076 14:-0.59816 15:-0.692675 16:-0.76257 17:-0.761966 18:-0.755734 19:-0.791275 20:-0.847925 21:-0.846258 22:-0.566279 23:-0.186027 24:-0.50888 25:-0.847931 26:-0.908999 27:-0.788538 28:-0.631649 29:-0.720849 30:-0.573439 31:-0.64969 32:-0.575624 33:-0.491676 34:-0.442571 35:-0.625519 36:-0.765439 37:-0.829833 38:-0.893036 39:-0.936382 40:-0.966522 41:-0.966463 42:-0.958448 43:-0.948632 44:-0.9482 45:-0.916179 46:-0.669843 47:-0.471281 48:-0.686933 49:-0.54847 50:-0.668093 51:-0.46225 52:0.500951 53:0.012633 54:0.440765 55:-0.0453865 56:-0.0786877 57:-0.186503 58:-0.331309 59:-0.357836 60:-0.189189 61:-0.172216 62:-0.263693 63:-0.154604 64:-0.221546 65:-0.351475 66:-0.653308 67:-0.729652 68:-0.513485 69:-0.273202 70:-0.593338 71:-0.87191 72:-0.534334 73:-0.895477 74:-0.913736 75:-0.850257 76:-0.365422 77:-0.699623 78:-0.421003 79:-0.678851 80:-0.68738 81:-0.755423 82:-0.803582 83:-0.7993 84:-0.709961 85:-0.758526 86:-0.771773 87:-0.749579 88:-0.807205 89:-0.858595 90:-0.872602 91:-0.917411 92:-0.815117 93:-0.636374 94:-0.778679 95:-0.965971 96:-0.864893 97:-0.147731 98:-0.320519 99:-0.197876 100:-0.323759 101:-0.405443 102:-0.406083 103:-0.240776 104:-0.0850521 105:0.0685186 106:0.114449 107:-0.0609453 108:-0.289303 109:-0.478563 110:-0.596641 111:-0.724889 112:-0.799509 113:-0.801232 114:-0.806421 115:-0.874317 116:-0.930987 117:-0.966151 118:-0.790684 119:-0.664764 120:-0.999628 121:-0.306304 122:0.179954 123:0.226827 124:0.289161 125:0.268823 126:0.330119 127:0.331979 128:0.308866 129:0.325506 130:0.321658 131:0.115377 132:0.0443807 133:-0.0581736 134:-0.156512 135:-0.251785 136:-0.312738 137:-0.469242 138:-0.703799 139:-0.904297 140:-0.978678 141:-1 142:-0.974934 143:-0.871816 145:-0.242491 146:-0.35389 147:-0.283951 148:0.00396733 149:-0.348306 150:0.0241632 151:-0.128628 152:0.0087619 153:-0.0124564 154:0.0068345 155:-0.0807372 156:-0.299725 157:-0.333958 158:-0.477425 159:-0.573735 160:-0.74018 161:-0.754255 162:-0.731776 163:-0.724494 164:-0.69478 165:-0.731321 166:-0.31334 167:-0.0103451 168:-0.0613798 
-4.3536495590713731 0 3.5353104591641697 0.19041230597992931 6.5500542807071387 8.9428117655848514 3.8067570360222618 0 0 0 1.128315781245973 0 0.31962458057466353 3.6225978443762914 4.7157124599397857 10.499772342620714 3.787054639738991 3.2619757155637616 6.310485713688383 0.3380737422633347 0 0.21805760285826742 0 0 0 0 0 0.3785256149481564 0.43601786015911209 0.24219556638765405 0 0 0 0.2575948350950894 0 0 0 0 0 0 1.8790082748445465 0 0 0 0 1.8790082748445465 0 0 0 0.082596017481906231 0.058754545534230873 0 1.1377319371514367 0.14330829044891796 0 0.082596017481906231 0.058754545534230873 0 0.14330829044891796 0 0 0 0 0 0 0 0 0 0 0 0 0 0 0 0 0 0 0 0 1:-0.127349 2:-0.170423 3:-0.0478107 4:-0.175623 5:-0.219066 6:-0.075008 7:-0.0113143 8:0.0961439 9:0.184332 10:0.164937 11:-0.0988234 12:-0.383262 13:-0.521424 14:-0.577454 15:-0.665668 16:-0.763596 17:-0.767568 18:-0.751109 19:-0.76752 20:-0.823514 21:-0.82871 22:-0.60087 23:-0.270617 24:-0.644547 25:-0.864613 26:-0.891462 27:-0.862714 28:-0.767481 29:-0.751705 30:-0.480963 31:-0.566319 32:-0.523987 33:-0.460328 34:-0.435196 35:-0.677128 36:-0.813403 37:-0.813334 38:-0.863666 39:-0.920209 40:-0.968585 41:-0.971698 42:-0.962859 43:-0.947677 44:-0.95034 45:-0.911113 46:-0.739671 47:-0.60979 48:-0.812613 49:-0.276748 50:-0.211621 51:-0.211138 52:0.560504 53:0.0132979 54:0.192347 55:-0.2798 56:-0.469192 57:-0.527588 58:-0.488425 59:-0.468793 60:-0.399716 61:-0.168772 62:-0.263693 63:-0.193433 64:-0.290242 65:-0.401967 66:-0.773181 67:-0.852261 68:-0.71569 69:-0.243384 70:-0.518978 71:-0.845528 72:-0.461343 73:-0.606248 74:-0.447413 75:-0.4402 76:-0.204322 77:-0.687382 78:-0.644276 79:-0.812281 80:-0.857159 81:-0.893115 82:-0.856589 83:-0.848324 84:-0.819154 85:-0.776659 86:-0.81437 87:-0.811176 88:-0.869422 89:-0.903592 90:-0.941852 91:-0.968955 92:-0.924855 93:-0.595322 94:-0.721929 95:-0.956743 96:-0.826092 97:-0.188846 98:-0.34366 99:-0.191708 100:-0.307165 101:-0.359386 102:-0.322045 103:-0.104273 104:0.0555883 105:0.216322 106:0.247673 107:0.0192786 108:-0.296269 109:-0.527142 110:-0.620634 111:-0.718824 112:-0.802626 113:-0.80299 114:-0.792657 115:-0.838377 116:-0.898698 117:-0.945707 118:-0.755064 119:-0.63925 120:-0.997127 121:-0.364891 122:0.229654 123:0.194038 124:0.305422 125:0.461503 126:0.440473 127:0.516462 128:0.46604 129:0.414867 130:0.400219 131:0.186078 132:0.0334877 133:-0.0646755 134:-0.179364 135:-0.195969 136:-0.248478 137:-0.47975 138:-0.738209 139:-0.919482 140:-0.987942 141:-1 142:-0.967917 143:-0.806495 145:-0.047619 146:0.0453614 147:-0.131402 148:-0.050175 149:-0.305596 150:0.112225 151:-0.00593668 152:0.0773333 153:0.0383657 154:0.0393633 155:-0.207222 156:-0.445768 157:-0.358458 158:-0.419284 159:-0.550576 160:-0.764903 161:-0.784254 162:-0.761838 163:-0.743931 164:-0.748562 165:-0.722232 166:-0.481203 167:-0.267762 168:-0.37797 
-0.24463359882544763 1.7950686778509366 11.472217493979988 8.4343665386854383 17.150258126608694 7.7351297277892384 19.105691793190736 0 9.1264010837743808 0 0 0 0 0 0 7.2048184896574483 6.6466708422999439 15.048269694940981 3.3119204292350726 0 0 0 0 0 0 0 0 0 1.1632708285357627 0 0 0 0.79478029573341202 0.10733694956321793 0.15094379782083955 0 0 0 0 0 0 0 0 0 0 0 0 0 0 0 0 0 0 0 0 0 0 0 0 0 0 0 0 0 0 0 0 0 0 0 0 0 0 0 0 0 0 0 0 1:0.360472 2:0.245839 3:0.437386 4:0.281172 5:0.122117 6:0.232684 7:0.232327 8:0.37969 9:0.450745 10:0.373506 11:0.0797354 12:-0.151598 13:-0.271506 14:-0.372699 15:-0.503627 16:-0.597297 17:-0.590466 18:-0.566628 19:-0.572728 20:-0.628451 21:-0.587117 22:0.041577 23:0.929016 24:0.53785 25:-0.856797 26:-0.911079 27:-0.801976 28:-0.608899 29:-0.668018 30:-0.372512 31:-0.513156 32:-0.379016 33:-0.278176 34:-0.296839 35:-0.603005 36:-0.729689 37:-0.701451 38:-0.797901 39:-0.884905 40:-0.922989 41:-0.922071 42:-0.915727 43:-0.897584 44:-0.887999 45:-0.788258 46:-0.112171 47:0.536874 48:0.116152 49:-0.532388 50:-0.729822 51:-0.614115 52:0.0578821 53:-0.436835 54:0.0239882 55:-0.445387 56:-0.262203 57:-0.175559 58:-0.118786 59:-0.145631 60:-0.214794 61:-0.205511 62:-0.445511 63:-0.730764 64:-0.657455 65:-0.619672 66:-0.831943 67:-0.961104 68:-0.783978 69:-0.512486 70:-0.752905 71:-0.918511 72:-0.661495 73:-0.855255 74:-0.871038 75:-0.885077 76:-0.607564 77:-0.896422 78:-0.677704 79:-0.858608 80:-0.752575 81:-0.753222 82:-0.715088 83:-0.703652 84:-0.71763 85:-0.772917 86:-0.86136 87:-0.962923 88:-0.95929 89:-0.954732 90:-0.954273 91:-0.983917 92:-0.932891 93:-0.756429 94:-0.845967 95:-0.976276 96:-0.914033 97:0.287917 98:0.0669031 99:0.210553 100:0.133238 101:0.0844382 102:0.235706 103:0.441155 104:0.635435 105:0.724596 106:0.589878 107:0.267413 108:-0.016545 109:-0.247236 110:-0.368168 111:-0.544515 112:-0.647008 113:-0.639992 114:-0.591202 115:-0.577875 116:-0.644535 117:-0.633959 118:0.131978 119:0.497017 120:0.537071 121:0.620507 122:1 123:1 124:1 125:1 126:1 127:1 128:1 129:1 130:1 131:0.851701 132:0.753421 133:0.846123 134:0.47305 135:0.281193 136:0.12618 137:-0.0603522 138:-0.429977 139:-0.787302 140:-0.940959 141:-0.998764 142:-0.919171 143:-0.629993 145:0.018315 146:-0.149987 147:-0.162694 148:0.183197 149:-0.262887 150:0.231072 151:0.00989446 152:0.240381 153:0.211759 154:0.186089 155:-0.0380765 156:-0.321112 157:-0.173463 158:-0.274329 159:-0.532321 160:-0.618213 161:-0.619906 162:-0.614574 163:-0.585986 164:-0.571385 165:-0.544002 166:0.102621 167:0.564947 168:0.532573 
-11.170156640085551 -14.915810724654953 17.483842523205038 7.9549171230372542 0.51619698114899137 2.3861112247351022 1.4091872663547949 12.364527273798705 3.5710492427488454 8.6427030294650198 10.296297110735349 11.465785980713841 8.6901301480175306 12.716786876361876 16.406059370562929 2.3589322256948377 12.821472377411604 5.3194473832434692 8.2262925851024349 5.8141047855309482 9.8408179444326915 7.2497612958378799 6.1498880299113718 4.280486999336464 4.4486747647011509 5.1853742001206626 5.1997966065451831 2.1912098912311873 0.1302705727934878 5.8946614038405061 16.383956805670664 11.795619288405049 6.4794190656181927 8.5075498047454996 12.821240740288815 4.363744277185658 8.1807224510590775 7.417405065640529 3.2934770446819464 4.7154677752565046 11.977792525359002 8.8320407210733904 4.4903751866902546 6.5669493938983541 6.1026911250642062 11.977792525359002 2.2131243824720541 4.7154677752565046 8.8320407210733904 8.4896100208019121 7.571718508901025 6.1645312936914465 5.7164641532598504 8.1772849499910851 8.3944205721130238 8.4896100208019121 7.571718508901025 6.1645312936914465 8.1772849499910851 4.7976436678086554 6.9536435231422704 7.6402211794790649 5.2916377928894835 6.3044371934852439 6.692554155656822 8.4664831362124104 5.248735354570865 7.6402211794790649 6.692554155656822 2.4209828796530228 7.6011979015876632 8.3103164185789566 6.3308600643983226 6.6894747292864984 5.4514773745643463 6.5827619105627964 5.1707012666113892 8.2562210152248241 6.1139505546326438 1:-0.503889 2:-0.375184 3:-0.193446 4:-0.450468 5:-0.457312 6:-0.462496 7:-0.429179 8:-0.440599 9:-0.448837 10:-0.439913 11:-0.452709 12:-0.543127 13:-0.644297 14:-0.711848 15:-0.794985 16:-0.856669 17:-0.831557 18:-0.758817 19:-0.743477 20:-0.810465 21:-0.870621 22:-0.621857 23:-0.284222 24:-0.721755 25:-0.887596 26:-0.82518 27:-0.64137 28:-0.830545 29:-0.800021 30:-0.804403 31:-0.827004 32:-0.863633 33:-0.869607 34:-0.846432 35:-0.841048 36:-0.839322 37:-0.871253 38:-0.926114 39:-0.964473 40:-0.985367 41:-0.981928 42:-0.956852 43:-0.922491 44:-0.931617 45:-0.952737 46:-0.840287 47:-0.722355 48:-0.891277 49:-0.288809 50:-0.422285 51:-0.292742 52:0.0471627 53:0.37633 54:0.806917 55:0.253865 56:0.00560149 57:-0.110807 58:-0.220493 59:-0.220527 60:-0.00711238 61:-0.15155 62:-0.450028 63:-0.232263 64:-0.199063 65:-0.32 66:-0.645317 67:-0.723249 68:-0.520925 69:-0.184495 70:-0.867545 71:-0.963632 72:-0.421668 73:-0.731728 74:-0.795286 75:-0.815808 76:-0.547642 77:-0.293785 78:0.0438348 79:-0.499336 80:-0.66927 81:-0.748192 82:-0.759335 83:-0.741271 84:-0.615905 85:-0.739243 86:-0.860694 87:-0.812762 88:-0.814118 89:-0.828417 90:-0.836549 91:-0.891309 92:-0.786666 93:-0.532311 94:-0.915957 95:-0.990421 96:-0.783806 97:-0.556698 98:-0.5523 99:-0.461024 100:-0.569491 101:-0.576064 102:-0.500157 103:-0.379612 104:-0.353762 105:-0.315877 106:-0.294367 107:-0.341418 108:-0.479536 109:-0.628347 110:-0.733404 111:-0.824654 112:-0.878208 113:-0.849658 114:-0.790676 115:-0.82045 116:-0.901708 117:-0.970765 118:-0.73051 119:-0.597517 120:-1 121:-0.756858 122:-0.306133 123:-0.235914 124:-0.12085 125:-0.131635 126:0.0188879 127:0.0484589 128:0.0321972 129:-0.0264311 130:-0.0771886 131:-0.14544 132:-0.129413 133:-0.168705 134:-0.3232 135:-0.44408 136:-0.529615 137:-0.648469 138:-0.825534 139:-0.964967 140:-1 141:-1 142:-1 143:-1 145:-0.391941 146:-0.185634 147:-0.126513 148:-0.414236 149:-0.389543 150:-0.189905 151:-0.316623 152:-0.435429 153:-0.536124 154:-0.494939 155:-0.494621 156:-0.484876 157:-0.476954 158:-0.648265 159:-0.744568 160:-0.859016 161:-0.827108 162:-0.702476 163:-0.623553 164:-0.642733 165:-0.77084 166:-0.498623 167:-0.259659 168:-0.37797 
-1.3393286745103761 -15.055951445157469 20.468216063174204 49.645348185796834 26.542593408952126 19.701565186429999 20.444309647032423 0 8.4168703301951098 0 0 0 0 0 0 6.8352453301487976 7.9585717627630315 26.497557481185087 10.494538281610541 0 0 1.754109817685692 0 0 0 0 0 0 1.0695979559181499 2.7223786999656214 0 0 0 0 0 0 0 0 0 0 0 0 0 0 0 0 0 0 0 0 0 0 0 0 0 0 0 0 0 0 0 0 0 0 0 0 0 0 0 0 0 0 0 0 0 0 0 0 0 1:0.116107 2:0.161576 3:0.389863 4:-0.0570994 5:-0.132961 6:-0.195021 7:-0.131093 8:-0.135017 9:-0.144869 10:-0.145949 11:-0.20305 12:-0.315708 13:-0.457771 14:-0.556748 15:-0.687322 16:-0.788404 17:-0.76843 18:-0.674028 19:-0.633772 20:-0.716196 21:-0.768704 22:-0.381668 23:0.122754 24:-0.445458 25:-0.851314 26:-0.79308 27:-0.52253 28:-0.793409 29:-0.747491 30:-0.789328 31:-0.751789 32:-0.80523 33:-0.859229 34:-0.889797 35:-0.887029 36:-0.826661 37:-0.861284 38:-0.921869 39:-0.953004 40:-0.98265 41:-0.98351 42:-0.963732 43:-0.924043 44:-0.926309 45:-0.918943 46:-0.7019 47:-0.539464 48:-0.763838 49:-0.573822 50:-0.650471 51:-0.472648 52:-0.236902 53:0.0691489 54:-0.114937 55:0.22394 56:0.0941584 57:-0.138167 58:-0.200759 59:0.0152566 60:0.105263 61:-0.0941447 62:-0.238848 63:-0.0541042 64:-0.0291959 65:-0.327869 66:-0.790105 67:-0.903802 68:-0.789292 69:-0.668282 70:-0.972502 71:-0.993343 72:-0.617243 73:-0.877123 74:-0.917204 75:-0.880261 76:-0.76277 77:-0.59322 78:-0.709555 79:-0.535529 80:-0.59502 81:-0.745049 82:-0.746982 83:-0.607604 84:-0.575134 85:-0.721687 86:-0.765916 87:-0.747992 88:-0.758353 89:-0.861306 90:-0.910635 91:-0.970603 92:-0.947948 93:-0.842115 94:-0.957303 95:-0.997471 96:-0.903927 97:0.0464735 98:-0.0510404 99:0.0878876 100:-0.145045 101:-0.243545 102:-0.181562 103:0.0771474 104:0.14123 105:0.224829 106:0.258122 107:0.13495 108:-0.0894233 109:-0.333213 110:-0.528659 111:-0.701584 112:-0.79795 113:-0.773637 114:-0.673995 115:-0.655702 116:-0.742947 117:-0.817206 118:-0.324511 119:-0.0883381 120:-0.648394 121:0.00742084 122:0.439969 123:0.490192 124:0.615543 125:0.509673 126:0.801708 127:0.876688 128:0.878352 129:0.889829 130:0.864029 131:0.575795 132:0.650432 133:0.708501 134:0.488285 135:0.274386 136:0.0613463 137:-0.0549484 138:-0.411473 139:-0.768774 140:-0.945022 141:-0.999886 142:-0.97929 143:-0.849665 145:-0.173626 146:-0.0458961 147:0.0944872 148:-0.28168 149:-0.309278 150:-0.213531 151:-0.135224 152:-0.223619 153:-0.433483 154:-0.484557 155:-0.450463 156:-0.351054 157:-0.393456 158:-0.481408 159:-0.611334 160:-0.791604 161:-0.803967 162:-0.713892 163:-0.6425 164:-0.664419 165:-0.736459 166:-0.386186 167:-0.148714 168:-0.26139 
-2.917193007096841 -1.0001112954111437 0 8.5538839776420197 0 0 0 0 4.4001609011013567 0.5596906135622447 0 0 0 0 0 1.7699077808428563 8.2185905586388586 0 0 0.1104042937998638 0 2.3043629890969144 0 0.12264970375204318 0.71214450239881666 0 0 1.0363578260840027 0.2127708493708067 5.9244330481632419 3.6008462749556589 0 5.978745052070626 2.2630710109446968 0.95218043072689984 4.2865151192172739 0 0 3.1288375692284136 2.4058847177119027 0 2.0665684637156887 2.0924394140993727 0.7494704292068497 0.46995233000169129 0 2.5807548617757536 2.4058847177119027 2.0665684637156887 0 0 0.69340278852335535 0 0 0 0 0 0.69340278852335535 0 1.0977314129726554 0 0 0 0.15733867434283325 0 3.4053792624292645 0 0 0 3.4850474864501395 0.16273071984068149 0 0 0 0 0 0 0 0 1:-0.123715 2:-0.0777333 3:0.088627 4:-0.287099 5:-0.378328 6:-0.448452 7:-0.398554 8:-0.376988 9:-0.374312 10:-0.381278 11:-0.400596 12:-0.456475 13:-0.54099 14:-0.593942 15:-0.679293 16:-0.768729 17:-0.75658 18:-0.700578 19:-0.672068 20:-0.71867 21:-0.734705 22:-0.366899 23:0.126303 24:-0.335712 25:-0.836031 26:-0.811508 27:-0.602372 28:-0.835564 29:-0.825307 30:-0.874829 31:-0.850565 32:-0.867568 33:-0.889446 34:-0.906539 35:-0.900884 36:-0.849749 37:-0.867214 38:-0.921576 39:-0.938891 40:-0.970628 41:-0.96867 42:-0.951369 43:-0.912544 44:-0.893678 45:-0.866438 46:-0.578432 47:-0.318621 48:-0.580309 49:-0.573263 50:-0.689844 51:-0.370564 52:-0.0796838 53:0.533245 54:0.186461 55:0.481297 56:0.434516 57:0.181031 58:0.086148 59:0.208044 60:0.472262 61:-0.0631458 62:-0.648221 63:-0.303069 64:-0.26089 65:-0.20918 66:-0.613351 67:-0.756863 68:-0.592135 69:-0.428997 70:-0.763749 71:-0.915305 72:-0.56765 73:-0.87465 74:-0.901165 75:-0.805621 76:-0.607073 77:-0.234463 78:-0.588143 79:-0.358427 80:-0.371817 81:-0.554857 82:-0.541243 83:-0.453527 84:-0.343425 85:-0.70672 86:-0.911544 87:-0.841843 88:-0.852984 89:-0.813779 90:-0.795658 91:-0.87839 92:-0.841535 93:-0.755236 94:-0.889204 95:-0.980819 96:-0.884933 97:-0.166102 98:-0.247364 99:-0.182114 100:-0.38248 101:-0.462666 102:-0.427825 103:-0.266443 104:-0.182479 105:-0.10321 106:-0.0742857 107:-0.142413 108:-0.304307 109:-0.462756 110:-0.556118 111:-0.701584 112:-0.790047 113:-0.776478 114:-0.711741 115:-0.708869 116:-0.781661 117:-0.868071 118:-0.480824 119:-0.309942 120:-0.893037 121:-0.549346 122:-0.190975 123:-0.043414 124:0.0138847 125:0.00209087 126:0.0542355 127:0.176626 128:0.0984039 129:0.00233588 130:0.0013721 131:-0.144147 132:-0.179422 133:-0.154618 134:-0.211178 135:-0.402898 136:-0.437815 137:-0.540393 138:-0.687892 139:-0.887106 140:-0.977832 141:-0.999749 142:-0.987297 143:-0.930485 145:-0.238828 146:-0.208448 147:-0.0502384 148:-0.391365 149:-0.333579 150:-0.454806 151:-0.331135 152:-0.359238 153:-0.481315 154:-0.530236 155:-0.47591 156:-0.324778 157:-0.409956 158:-0.606053 159:-0.605613 160:-0.74941 161:-0.712043 162:-0.611149 163:-0.507258 164:-0.504591 165:-0.619483 166:-0.230465 167:0.0731751 168:0.084484 
-5.6797530234987006 -12.288773781966595 -19.758693642995624 17.407643771440359 0.11410106552476124 5.6942577240983665 4.2046664457582956 17.807169689449605 3.8796974480727369 3.344185693037077 3.845168991882554 5.373677547546623 5.810394377364938 6.8016931222158172 5.6215473271999832 1.3913775540895026 10.292194860425498 16.676751638263749 10.045424876018117 2.600883951843644 6.0471938538440053 4.8374755668421363 3.6581429993070977 2.6060182892596573 2.5813520897551534 3.510005669022441 3.7316260478184464 1.1622994287682129 0.18738148322864684 4.7843417195256732 8.1120148743855562 4.5782333074405059 2.8644507791330067 2.8203060152295039 2.1854941725083417 2.7480352976945608 3.5310328786223382 3.5608599905215863 1.9879577348978374 2.8021387874219839 4.0287685219111999 3.975006791452862 2.1874602330400079 3.5113330236983455 3.6476980238445758 4.0287685219111999 1.496610993516343 2.8021387874219839 3.975006791452862 6.0220234484635506 3.1517518377964073 2.5228346156381285 3.3951285014504404 4.494690064558192 3.1638929518735126 6.0220234484635506 3.1517518377964073 2.5228346156381285 4.494690064558192 2.1479993357389251 4.190165350306386 3.0854160529213299 4.0557335550980458 3.0202712020088205 3.9393742979325204 4.5268947702172309 3.9875129709733899 3.0854160529213299 3.9393742979325204 1.675956068592819 4.0281891510062886 4.908143109124973 4.187259377722957 4.5140484527252909 4.138365930944409 4.0711914436666587 4.1315294853057019 4.8445821194324576 4.2576961931069173 1:-0.486629 2:-0.504108 3:-0.436428 4:-0.581805 5:-0.507809 6:-0.369933 7:-0.397873 8:-0.378651 9:-0.274554 10:-0.221506 11:-0.326264 12:-0.497502 13:-0.644297 14:-0.738689 15:-0.830751 16:-0.887294 17:-0.878526 18:-0.878892 19:-0.911346 20:-0.9445 21:-0.948958 22:-0.818128 23:-0.635002 24:-0.892373 25:-0.922945 26:-0.951948 27:-0.898024 28:-0.930412 29:-0.851648 30:-0.739265 31:-0.863856 32:-0.879441 33:-0.802747 34:-0.792299 35:-0.905387 36:-0.961839 37:-0.981224 38:-0.990134 39:-0.995932 40:-0.997496 41:-0.994095 42:-0.989185 43:-0.982283 44:-0.982148 45:-0.97837 46:-0.919637 47:-0.866224 48:-0.962398 49:-0.297074 50:-0.365893 51:-0.112835 52:0.372318 53:0.335106 54:0.213539 55:-0.22394 56:-0.0690851 57:0.325125 58:0.142315 59:0.00554785 60:0.0583215 61:-0.168772 62:-0.132693 63:0.0566738 64:0.188134 65:0.311475 66:-0.203432 67:-0.283713 68:-0.222798 69:0.157659 70:-0.374903 71:-0.795476 72:-0.333672 73:-0.663261 74:-0.642698 75:-0.663564 76:-0.384086 77:-0.516949 78:-0.642384 79:-0.811075 80:-0.695076 81:-0.51839 82:-0.603684 83:-0.624012 84:-0.534766 85:-0.718233 86:-0.684715 87:-0.653349 88:-0.649589 89:-0.577953 90:-0.593844 91:-0.649672 92:-0.639055 93:-0.287428 94:-0.668964 95:-0.945174 96:-0.759526 97:-0.529579 98:-0.625828 99:-0.591914 100:-0.665869 101:-0.665736 102:-0.556183 103:-0.338778 104:-0.228835 105:-0.0729049 106:0.0452245 107:-0.0261194 108:-0.229821 109:-0.459286 110:-0.640096 111:-0.786504 112:-0.865518 113:-0.877455 114:-0.900631 115:-0.954024 116:-0.987676 117:-0.998763 118:-0.920325 119:-0.84591 120:-1 121:-0.687876 122:-0.180066 123:-0.0910101 124:-0.0569669 125:-0.0381706 126:0.0861346 127:0.222261 128:0.35731 129:0.375695 130:0.463672 131:0.320582 132:0.427619 133:0.547039 134:0.282165 135:-0.0176288 136:-0.246757 137:-0.462337 138:-0.755739 139:-0.960884 140:-0.996961 141:-1 142:-0.979202 143:-0.907697 145:-0.389744 146:-0.427324 147:-0.497616 148:-0.621004 149:-0.527614 150:-0.257204 151:-0.494063 152:-0.439238 153:-0.316891 154:-0.319145 155:-0.538404 156:-0.702414 157:-0.756945 158:-0.828662 159:-0.876848 160:-0.924203 161:-0.865677 162:-0.835089 163:-0.795218 164:-0.812861 165:-0.870625 166:-0.657247 167:-0.469395 168:-0.635166 
-12.190632602522482 -25.17974140840262 -17.058009503147403 27.53288023049598 39.780574146905764 20.569580535466329 41.135025005383227 0 20.716246874627448 2.8039879476415845 3.2359128639409804 0.2404615040647238 0.68449207778698473 1.9654875371643141 5.0561250172849519 20.956088953493474 25.379614427390639 58.563978273983444 24.150162175376465 1.6164194365757647 0 4.6380510787252121 0.46594957667848247 1.1259056781484056 1.2317459249840357 0.3012500506735537 0 1.7760906727682142 0.80695464446659504 10.273241226953147 4.1581391274584565 1.9603811488772858 7.0937730469769074 6.592248338202336 8.0255125010231474 3.2755622790633412 1.2553831134676676 1.4754552192356105 2.9654147056702187 2.3925218000646096 2.476511192797278 2.5161929503437088 2.4383491111621547 1.2488550241716865 0.86601553951135146 2.476511192797278 2.3181202197085224 2.3925218000646096 2.5161929503437088 0.46356017742618727 1.6447650804131673 2.1889553087775306 0.86538815602578245 0.77089582237765641 2.1696207394541007 0.46356017742618727 1.6447650804131673 2.1889553087775306 0.77089582237765641 2.1970588399748991 0.39121898811211386 1.5333732083188478 0.10941772249080015 1.3686797921145484 0.48801858543853849 2.0206517173339176 0.097181396936420084 1.5333732083188478 0.48801858543853849 0.95262019353744176 0.31948274645637526 0.25111755740842018 0.2973643157296883 0.21711923365704999 0.034121801439207886 0.63419670350153445 0.022822014501892696 0.15179725837232097 0.23002366596981449 1:0.110657 2:0.0672003 3:0.343873 4:0.0505326 5:0.0114105 6:0.168848 7:0.0404083 8:-0.0319094 9:0.0147436 10:0.0311378 11:-0.103671 12:-0.252752 13:-0.392552 14:-0.520322 15:-0.67905 16:-0.777112 17:-0.738051 18:-0.658954 19:-0.609873 20:-0.6505 21:-0.686449 22:-0.187729 23:0.487731 24:-0.0213617 25:-0.825882 26:-0.859758 27:-0.589987 28:-0.699231 29:-0.658084 30:-0.377462 31:-0.681508 32:-0.776098 33:-0.754738 34:-0.733003 35:-0.808056 36:-0.825618 37:-0.839286 38:-0.892255 39:-0.954348 40:-0.981475 41:-0.973152 42:-0.938708 43:-0.849281 44:-0.823231 45:-0.832126 46:-0.307054 47:0.1861 48:-0.245917 49:-0.611235 50:-0.744021 51:-0.541334 52:-0.202957 53:-0.47141 54:-0.15379 55:-0.53616 56:-0.611096 57:-0.49658 58:-0.503605 59:-0.674757 60:-0.507112 61:-0.446613 62:-0.33258 63:-0.31449 64:-0.265262 65:-0.308852 66:-0.529674 67:-0.659544 68:-0.565033 69:-0.515468 70:-0.625871 71:-0.865253 72:-0.579349 73:-0.873609 74:-0.902357 75:-0.90545 76:-0.755894 77:-0.917137 78:-0.817092 79:-0.930752 80:-0.902207 81:-0.857592 82:-0.828514 83:-0.869935 84:-0.806035 85:-0.873219 86:-0.823156 87:-0.836555 88:-0.80659 89:-0.795889 90:-0.752569 91:-0.869954 92:-0.845045 93:-0.793424 94:-0.790299 95:-0.962177 96:-0.887837 97:0.0718425 98:-0.103294 99:0.0371766 100:-0.109303 101:-0.14515 102:-0.0335528 103:0.162316 104:0.239442 105:0.342859 106:0.353469 107:0.174751 108:-0.057807 109:-0.305454 110:-0.510264 111:-0.695199 112:-0.785372 113:-0.75727 114:-0.698603 115:-0.704147 116:-0.76084 117:-0.820858 118:-0.251196 119:0.0355852 120:-0.699918 121:-0.0288654 122:0.243594 123:0.30298 124:0.378596 125:0.492418 126:0.564621 127:0.694147 128:0.56831 129:0.542176 130:0.581513 131:0.390421 132:0.349387 133:0.373657 134:0.186275 135:-0.0482597 136:-0.212332 137:-0.291516 138:-0.598783 139:-0.848235 140:-0.963181 141:-1 142:-0.964617 143:-0.800267 145:-0.0915751 146:-0.13145 147:-0.0394817 148:-0.119253 149:-0.28056 150:0.144442 151:-0.21372 152:-0.276952 153:-0.307922 154:-0.247167 155:-0.392834 156:-0.434158 157:-0.410956 158:-0.476629 159:-0.630407 160:-0.76309 161:-0.697473 162:-0.567389 163:-0.428531 164:-0.421316 165:-0.636871 166:0.0741162 167:0.552481 168:0.339193 
-0 -5.0015077569710957 -1.1353554402362205 0 0 0 0 0 11.133342239803962 0 0 0.47375997844999562 0 0 0 0 20.492516472616082 2.9767328043702808 0 0 0.39601880455654193 0 0 0 0 0 0.013830835523803802 0 0.48991484315498163 0 0 0 1.8977562910495973 0 0.12659414676193223 0 0 0 0 0 0 0 0 0 0 0 0 0 0 0 0 0 0 0 0 0 0 0 0 0 0 0 0 0 0 0 0 0 0 1.7169030652590733 0.45893671627650456 0 0 0 0 0 0 0.10204380533271076 0 1:0.105206 2:0.0554034 3:0.322411 4:0.0249059 5:-0.0287287 6:0.0552186 7:-0.0392174 8:-0.0867893 9:-0.0404166 10:-0.0168724 11:-0.145685 12:-0.293072 13:-0.401422 14:-0.497316 15:-0.643771 16:-0.746316 17:-0.702501 18:-0.621784 19:-0.558044 20:-0.575579 21:-0.620959 22:-0.0470364 23:0.755105 24:0.259899 25:-0.852481 26:-0.873926 27:-0.603689 28:-0.683841 29:-0.636109 30:-0.451712 31:-0.706277 32:-0.780792 33:-0.756432 34:-0.72312 35:-0.807883 36:-0.869188 37:-0.869534 38:-0.896549 39:-0.946373 40:-0.973181 41:-0.953308 42:-0.911241 43:-0.801455 44:-0.736489 45:-0.760739 46:0.0795391 47:0.885076 48:0.132486 49:-0.723127 50:-0.843764 51:-0.516443 52:0.151975 53:-0.138298 54:0.0487123 55:-0.272818 56:-0.272873 57:-0.160055 58:-0.0428843 59:-0.162275 60:-0.308677 61:-0.479908 62:-0.564088 63:-0.466952 64:-0.199063 65:0.169836 66:-0.313433 67:-0.592637 68:-0.585758 69:-0.619829 70:-0.749806 71:-0.905936 72:-0.659207 73:-0.899382 74:-0.935952 75:-0.893041 76:-0.496071 77:-0.793315 78:-0.723431 79:-0.832549 80:-0.77974 81:-0.726815 82:-0.613566 83:-0.644822 84:-0.711172 85:-0.857821 86:-0.905421 87:-0.897888 88:-0.785391 89:-0.519404 90:-0.549876 91:-0.825264 92:-0.870725 93:-0.878394 94:-0.924064 95:-0.986206 96:-0.930355 97:0.0674686 98:-0.10628 99:0.0241562 100:-0.141216 101:-0.233775 102:-0.133062 103:0.086481 104:0.152229 105:0.255666 106:0.290776 107:0.127488 108:-0.0765624 109:-0.296586 110:-0.472674 111:-0.645716 112:-0.747859 113:-0.716554 114:-0.658145 115:-0.661648 116:-0.701305 117:-0.782252 118:-0.258113 119:0.0333984 120:-0.523545 121:-0.101438 122:0.345418 123:0.281827 124:0.415764 125:0.34647 126:0.522376 127:0.701915 128:0.73625 129:0.681727 130:0.59511 131:0.368003 132:0.278087 133:0.397497 134:0.090384 135:-0.11769 136:-0.184218 137:-0.275905 138:-0.540675 139:-0.811751 140:-0.957272 141:-1 142:-0.959118 143:-0.787104 145:-0.242491 146:-0.314678 147:-0.0678401 148:-0.00630105 149:-0.232695 150:0.0714158 151:-0.245383 152:-0.252571 153:-0.300947 154:-0.139199 155:-0.259613 156:-0.472655 157:-0.452955 158:-0.530788 159:-0.651659 160:-0.706227 161:-0.535054 162:-0.390444 163:-0.285776 164:-0.26691 165:-0.534517 166:0.192359 167:0.740713 168:0.491687 
