svm_type c_svc
kernel_type rbf
gamma 0.0078125
nr_class 85
total_sv 411
rho 0.39606951097583143 0.62645434043740988 0.31276443849854396 0.15872828323572857 0.33011726528670965 0.42514418729951736 -0.022911495686563945 0.53542316099391807 0.44308931307420985 0.038478907514803436 0.11546772693753088 0.44113879293090841 0.23747934597322889 0.18295975288955005 0.35014106515694943 0.25189825838908425 0.087525060960604237 0.31725665687632948 0.25901626037166359 0.10256763835586864 0.22132689882543502 0.16728516109949002 0.27287360600354077 0.33398944770125277 0.37927365742423463 0.085916589184126535 0.29402409107710892 0.13444299941778201 0.03642996958245541 0.25715396036885929 -0.016253825464313795 0.26760487895891466 0.098611231636752603 -0.042724550456138849 0.3083760002476541 0.2079188241242263 0.39858540778308815 0.16512186054592823 0.16259877689793412 0.1042826511899118 0.13506088769262503 0.1702194603550034 0.23898131644428239 0.070496280378055345 0.16035610070567893 0.19208441508321916 0.13173196383995683 0.093565120544902347 0.18344413726402634 0.064628310696234828 0.021246208235546665 0.020749691258940689 -0.029342341988608217 -0.02872759373091369 0.036593096231764224 0.18174428890307323 0.018232728622725645 -0.025239854503697035 0.17941544807133844 0.12019040042130635 0.20609490876968972 -0.019945538534941576 0.026221889042936059 -0.020864212925809745 0.17133759516223029 -0.013578947796221813 0.16372500720515515 0.1182255449449687 0.09139580654704324 -0.015315681600217663 0.15164616797690122 0.11282498557128129 0.041492972255079266 0.1252445045906615 0.14490016355703145 0.16433016029068825 0.078447086786002873 0.061965932190920357 -0.014104960243386339 0.07187725922090514 0.16686489251665504 0.12000141607532377 0.12990677064745332 0.049718839462495959 1.177611336137744 0.66500038024067376 0.28703078888685085 0.52975382720309094 0.63827289400983978 0.27218239867045502 1.8783842776435911 0.81907758319591173 1.1747304270223249 0.13552048750985399 0.32943088425220646 0.45118851645292946 0.92688258940159329 0.30218314167052751 0.42508557144247644 0.70624363205792229 0.89345668785187748 1.2042428518448005 0.19819021406558771 1.0045954417753273 0.072234720942884537 0.89307496622469107 1.0974549900430797 1.1545710427248319 0.04956840463871915 0.65341363163446531 0.019825035117261414 0.33625540541237714 0.4958509697389904 0.64794935266592246 0.17943155272857117 0.24056509583871608 -0.3178295490500091 0.37287947139964212 -0.0746513332792553 0.58487865845198839 0.73861172711470346 0.50321132585166495 0.18316862306555681 -0.034070160326968302 -0.35536952799867477 0.60160656097331144 -0.057197409628800454 0.34095964410054502 0.46251003511028121 0.27818483158830798 0.10999695639258016 0.26710402288309576 -0.1170421620866034 0.10431430491392883 0.27725076252122288 -0.072086791734709318 -0.2958391558927565 -0.23006035789338611 0.44921629831725518 -0.074446535198707475 -0.068747783398342033 0.32687490834002136 0.38882652958861957 0.48153204404554206 -0.19242411705871421 -0.12199619102912329 0.036708008470381595 0.36547060927182101 -0.1231390580241319 0.44598201458220699 0.1249404461215059 0.12477643659420819 -0.13020495480203392 0.24939876396340777 0.22490610948657896 0.17698566935961624 0.14578881087525455 0.14775392381552618 0.18324342822332285 0.1286875141131115 0.12942005294247588 -0.01430515579396369 0.002197538682560147 0.23376812016066301 0.34947782173176423 0.36811063227030594 0.030723823163785496 0.35426806969019442 -0.1897251823067819 0.83034216834903496 1.4629226558042352 0.34040078652913458 2.4658121451477513 2.1436974699196369 0.085177946096886323 -0.13340332291293686 0.89649772616600398 0.28311631985562258 0.73778310577877837 -0.77799352713850456 1.189843617873638 0.91404345212267701 1.0397773106923576 0.83167603404980017 -0.10776686524187364 0.96707035402881492 0.086527800865658269 0.90109529230216823 1.3810777845163722 2.0884161095235232 -0.29159326842373318 0.53567428415076035 -0.033659601542459713 -0.25600465868162842 0.48924708151200563 -0.18691219861000558 0.78370297038120851 -0.18950371173928668 -0.99835553703168978 0.71267601266325009 1.1250251960305919 2.2523399629256931 1.6991818011249933 0.64832818890949173 0.013962697108599431 0.045462234523304182 -0.32779423653118961 0.99184669488951338 0.086485208962121973 0.21852643655338091 0.26828368526747148 0.061165428657770797 -0.11227244323122344 0.097025077696281867 -0.4047768845933527 -0.46979547086894019 -0.03725332575306 -0.49018702309909851 -0.51989432119070256 -0.56243233763978795 0.33713695529129484 0.013692294460659985 -0.31720212321672048 0.19137547213935654 0.32449305592199823 0.23040219379866606 -0.40161028478996935 -0.21729495468540216 -0.098275635068427722 0.26484223827500847 -0.20539964723240955 0.55155499881109316 0.020829533286391241 -0.058632101949884011 -0.17831371563513981 0.049818729233615675 0.097274310454168636 0.012865465130041292 0.036747816310971758 0.16031504636814781 0.14284886281133233 0.00088021757722272467 0.041573062516574569 -0.11774745212999528 -0.06630386404853171 0.14050800038344052 0.2936353392729556 0.2354233269477059 0.022423952443043436 2.4808250927761701 2.0659552418046574 1.1279776410386944 2.425741310001277 2.9894092484688661 1.8109808392012443 1.2200366196130565 0.41955368105523766 0.14359403865785325 1.1586306585020973 0.096515792805280276 0.14390505262189004 0.49595336086156283 0.35196156756487701 2.1038592381557106 -0.16008874660893499 0.9844498765943136 1.5181648683715854 0.49078573925184416 1.9927115271901787 0.96949668135643874 2.5790175287329151 0.60700348734069243 0.86237192635931792 -0.39426091506525429 0.18320620173956484 0.58398619882129488 0.50216644978637426 0.90630541960736 -0.03269358314265209 -0.64519044476563014 1.1238427734625265 0.05780309848085563 1.3339247153849869 0.36720284061760011 0.50221383644026996 -0.23615108053168107 -0.13185758351310245 1.350400900810576 1.5363145122479072 0.2169914707610324 1.0716538362765684 0.52511034320715066 0.73954101916382275 0.15341350473307919 0.79301942504559852 -0.45120837984731199 0.54548131460355775 0.31386625142742308 -0.59223068423262382 0.27579400299809725 -0.58485933377501009 0.82990684333036657 0.57445886937950308 -0.30773787860814511 0.75870433083737432 0.39921910062778593 0.71018287040566386 -0.18870580696853484 -0.067722219505334705 0.23430385061611289 0.6232391843148134 0.11755710863870761 1.0217512783080835 0.22629827095098273 0.44152390552033177 0.11918493033527348 0.47252687513691266 0.49240138064811417 0.36286856022436764 0.29673946704122417 0.37140838240734764 0.60452428988710671 0.26107795859150962 0.41517290065845941 0.20961158787108833 0.2652511727674608 0.7190437437259517 0.67305114333211702 0.41268285004628547 0.017770235801868216 2.2003741974012634 -0.52191983816995458 -1.9342961152281026 -0.81404900488946397 1.7800762444635199 1.3132426304016707 1.194544593135406 0.59933254881814968 0.68384674356959052 1.2811228281795017 -2.1659075429255044 -2.0989888483224775 -1.011894048047268 -0.88465528892122591 2.4862767874914047 -0.035934779720487253 -1.0046567746795023 -0.60845579651582604 2.3251112520067205 0.74554851611258721 1.1145713143537284 -0.97209908558609182 -0.6279922056145425 -1.1959676806567534 -0.21720619491402615 -0.033949681634708309 0.88634396902624202 0.87884113339789816 -1.0358598126669907 -0.86271693208555711 0.61437076356914599 -0.6134436551393867 1.818828055681512 0.46024104769574059 -0.65737081329871194 -0.87801139600220734 -0.26388705336363238 0.81942076714564627 0.93234911479975024 0.2038704158452338 0.8762915726229642 0.60030034054759773 0.70469547466515281 0.41438310253210675 0.91184426356400083 -0.071041081961407418 0.16983638574519508 0.11754927392323269 0.40904113244082868 0.60544998419590224 -1.1272155811560129 1.2325169918153527 0.74046419873101843 0.41556398028518143 1.0260879978894899 0.53145975653076238 0.8032815449857249 -0.24820298765920379 -0.084851276387617594 0.5112383572168987 1.0123205443338361 -0.010245227296455989 0.73194657696731191 0.31878470295045414 0.66657181085566242 -0.062897046560888542 0.56870445388412849 0.35906853407092804 0.42418976148675253 0.34459149550747198 0.40952797686342712 0.75307353433990187 0.2674055131006659 0.42004421307716616 0.10854466254113851 0.24883855815235303 0.42917364217198439 0.6171462106798361 0.39377065664835592 0.027407452589683513 -2.053915653783263 -1.7471040066408496 -0.38665701112515333 1.1171308470340588 0.79992106662510709 -2.7418587942678228 -2.2447038604496985 -0.62862132432723339 1.5137341029661822 -1.2540553013849194 -0.71080522775387267 0.22926129002047815 -0.56921442918909948 -0.11697538717145683 -1.3015994997389775 -0.79609047196199256 -0.87398899041548883 -0.13397582464224328 -0.81667648658311409 -0.84233147544444875 -1.3816255865536538 -0.96969919425417539 -1.710469843820752 -1.0644372515013607 -0.83960493000917247 -1.0488459474135226 -1.2463751051825009 -0.31215634860663621 0.027996081106291988 -0.032887172091702721 -1.6992307017746164 -1.177775801987138 -0.53324451755517377 -0.37478407149797505 -1.2784915328095294 0.20399459667990438 -0.16002005195373289 0.8646225507042784 -1.0343891998839789 0.22439029049991019 0.10863951779148948 -0.30216243839056506 -0.11767847867213796 0.05605529972419937 -0.53471061647100326 -0.54769302067176651 -0.30623832124440514 -0.16368944626140469 -0.076528599955094853 -0.92688903045437643 0.36854250747610151 -0.019599219490229445 -0.3618288129304989 -0.050573185258331745 -0.40722622461612129 0.2103424507638057 -0.57815207937856639 -0.75008204215992103 -0.4305322975481885 -0.26445298087950775 -0.2900716948696177 0.47233317581559547 -0.36091053189042982 -0.3336687761195769 -0.28361860439500913 0.0081038100648433663 0.13667198267324868 0.2350957748561841 -0.13246051621869695 -0.41963587375158989 0.035844143253667658 -0.1339152399870954 0.2156921776898317 -0.28606953487207415 -0.17237117861841703 0.0184785670195961 -0.010579830697447454 -0.020721430436705612 -0.12719619833988821 2.0290606582292221 0.37833336273591794 0.68736427332761807 1.2737923409756808 0.027284716586705251 2.6406968275432399 1.3352721447243485 1.0269744472622946 -0.3205129232584974 -0.56021147321417353 0.028603975909971407 -0.63994768070691088 2.0576439972579217 0.070408086319059426 0.45726778862025663 0.1976200830865151 3.6238117321334853 1.1870016007069886 0.40780551100783469 2.133137235500802 0.19923667290151237 -0.50865395031893179 1.6309396316867357 0.7254593069276164 0.6723252910567713 1.7897735748408945 0.43489135716230304 -1.0575759171622487 0.44847630496320301 -0.70900132672073801 2.4305016798315595 0.53894963633997572 0.62711673928503253 0.31396902231157009 0.75501392071966367 0.56030700444419379 -0.020973362808407142 0.57027269188513219 0.74420197093931961 0.70794955723285014 0.42090115109197029 -0.37040503308420752 0.43682448956520153 0.41602064624425622 -0.068027656885075283 0.80954100167797283 0.55361504922637239 1.0812905545981244 -0.44478989823459703 0.72563860756424237 0.71062629813242673 0.62143501073578489 0.56642942279930675 0.67370109934958722 1.013493915219505 -0.094297613884310197 -0.18275248294219951 0.62548442822428552 1.2475338252459753 -0.12450804733133798 0.56986666032241817 0.23993902147720544 0.88766063549061591 -0.14904349371423045 0.55443070650141768 0.56386558715316426 0.63633041288086067 0.1241509605548522 0.23565127434341998 0.39577626633837754 0.1631063644818613 0.40312919331830849 0.12699028213417834 -0.051493537560774308 0.32144088606343713 0.54885319933828181 0.44193185365040027 -0.0075376956165296759 4.1044523958976225 2.4198874548128519 1.5748127478596068 -1.4781482973233404 0.58495733299120156 -0.077002377087761337 0.83317437102851788 -3.1401462667845998 -1.1011587921523964 -0.11578426568379419 0.71722576574249253 2.049163208715862 -0.83149410686476244 0.004507025328876051 -0.44432807711640127 1.2600816583573671 -0.68101219503502042 0.90045893126617627 -1.8943390300195486 -0.98842953655619603 -1.499517053710923 -0.72847415209955524 -0.97478575681025192 -0.22339910542592806 0.72450295096920592 -1.2784401182149332 -1.0684529206784008 2.0972112075243752 0.14436987306349225 0.34107691307286991 0.29387803566056758 -0.35554452825875266 -0.50523541439876729 -0.68867261272334801 0.20375538162651527 1.1714645484772772 -0.24750104813614404 0.53843308361781783 0.63231906787842695 0.86169833961695641 0.054878554524503062 0.9254900106930215 -0.26887772423083522 0.25461648820751853 0.018800146630143334 0.15634121737686354 0.073624197709990111 -1.0087250718900771 1.2566990698924194 0.44704373551264792 -0.054910539192016605 1.0300630605308634 0.45361939763504189 0.80973912593263708 -0.19611353029386414 -0.048047631353558572 0.47745986902101845 0.85469377386896128 0.2100511160638438 0.71573105937374715 0.31099015836436517 0.59465639273143001 0.049832584038726133 0.68253096669428082 0.59991310074351056 0.27212206038705472 0.4321797265231927 0.44769328065991371 0.8418896098422699 0.43370589109824992 0.52587111335741432 0.27015615240734508 0.31743938974651603 0.3843923512603773 0.54927632985617292 0.34844396829192392 0.03049586676612533 1.9510669356754629 0.3472207263808989 -1.6639883742657062 1.8201539951882755 -0.55345697272247785 -1.16334191632837 -3.9163364880537008 -1.9084591345805564 -1.029728651064914 -1.2473041220942966 0.50018569148010839 -2.0991701271129446 -1.5665572150162532 -1.0153632092190383 0.6465344214692883 -2.0410323167908899 -0.63757314533498233 -5.2648793586074625 -1.4102603514801697 -1.6683532425137917 -3.1435165063346115 -3.0914906883320556 -1.0488268147572866 0.22868831455666308 -1.1985205014844444 -2.6293067630202418 0.74172087125312347 -0.99232873231070606 0.56012059472977982 -0.45348729586743752 -1.6718929856906262 -2.2528216535018064 -2.7114561728162347 -1.5334928207973295 0.74786714353522266 -1.1997719952302521 -0.96990187591522459 0.051657199753583037 -0.20584858351617916 -0.56510442203630218 -0.065887913269324014 -1.94262693694197 -1.402248645026366 -1.3515171322622035 -1.2185394543349599 -1.0030221477683678 -2.0031973383839388 0.16967363704309432 -0.77960781845231386 -1.1770787720022406 -0.024365294571914723 -0.59557398233338132 0.098908985488644269 -1.0156457811089084 -0.62230838187675697 -0.39961832319057938 -0.25675178127134529 -0.26174424518415268 -0.052857154907000582 -0.1795291872154447 -0.54972896050140141 -0.46477150124688943 -0.32083487318115078 -0.055811906752213869 -0.43008270096815865 -0.089236047068521077 0.034847762173668216 -0.039572276697591079 -0.21586435308260951 -0.042531139776990128 -0.34806212691051458 -0.28220012823321211 0.049964615367816885 0.20070196698436513 0.30769075628130432 0.0055624683924040685 0.71857689772680222 -0.39677765725258612 -1.8257428022115931 -1.02910899081268 -1.7855510887930539 -3.4627755585148865 -2.1876629955122944 -1.2610179945765165 -2.2875091537498822 0.34681894197648644 0.12971771034042795 -1.5424840834591564 -0.7637668524596416 0.90741421745234752 -1.467174717064857 -2.2515030924736772 -2.3018825471215258 -1.3892417032435496 -1.9738882778619184 -1.0051804180329091 -1.317687270469694 -1.0351029230739899 -1.6059116981993342 -1.0106093996510432 -0.90743269026924178 -1.8344881603379659 -2.0569634231761258 -1.3048806737101057 -2.0840868392435183 -1.9613724149816996 -1.5350275176021133 -1.3118046404996162 0.70857083877989391 0.20446565216219351 -0.72449738873099412 -0.067260985564429568 0.45220906887880102 0.27822271278659499 -0.15661958219881053 0.46454139256254878 -0.85613103951705549 -0.38897642586059145 -1.1853470891867417 -0.77237013797702958 -0.41767571072115961 -1.462789539586675 1.2226819468465757 -0.15249463705084329 -0.62071036636337507 0.34176558480090424 -1.0537331632408657 0.32212630520060487 -0.55690228655340446 -0.37879948607171382 -0.11784618807515468 0.063366761055863557 0.12026449792943228 -0.034821906943703761 0.12038332334584788 -0.26251692404461885 0.17532258956087929 -0.10829470888499756 0.36580690540297828 -0.26621092049000372 0.2283452588690468 0.15288059859551098 0.3375857413667962 0.14887917518297389 0.36498134103077895 -0.017975880475371124 0.15272409666388936 0.46028004646427728 0.46716193740205397 0.39370661816701663 -0.014470081193905582 -0.92210930352536691 -0.99801056526740906 0.70339691134601678 -1.9297140204178429 -1.9630143222180128 -1.0164308211005846 0.93514926895672212 0.056668990781981531 -3.7937037035062025 -0.90057716050657854 1.7890015825851329 -0.89464766890489611 1.22962376509081 0.2528879270308767 0.052930607462994446 -2.3410087288080215 0.027992326375088208 -0.91893101754966722 -0.4320888671954452 -0.83169129780137796 0.99169194527684823 -0.73859598967830042 0.14136073108725927 -1.0754490760835118 -1.0274346971115857 -0.69674885523470009 -0.65291312573689197 1.2690411231659231 0.038815650713867264 -1.3816882524167575 -0.035472827436956018 -0.4199791329393851 0.44578581501778153 0.010474604402474734 -0.84639632626895744 -1.0938618463569632 -1.3636719754898179 -0.93370865202563147 -0.98491056684884226 -0.25765474515165632 -0.16301805039615908 0.05908295292329066 -0.98107596104178707 -0.65377711772661862 -0.97255296410462455 0.57427697798484001 0.043234618146283363 -0.51515543408953124 -0.47953617192370135 0.28131567224412207 -0.0063005080718967722 -0.68827149717839819 -0.67510706385930364 -0.66081226847471375 0.034789380653971483 -0.39445801154462118 0.79422382761580634 -0.8527905057632682 0.21162779622308314 -0.8296917883864714 -0.44778805446694586 -0.29837024947632679 -0.070013209268316154 -0.85531361386647742 0.061442381376972298 0.042623542232152034 -0.47148541704226543 -0.094929992731419541 -0.26347363544077423 -0.66379977128980328 -0.19289126889196259 0.015217146009861708 -0.039664227178819629 -0.036896733893184513 0.22357242226469828 1.4020857537246327 0.32457136293127514 -0.67713541221087925 0.56958531650677435 2.1491469028447239 0.087878600034201559 1.7365450791790957 0.13969098802537494 1.7945113294357424 0.38989456599314082 2.7408098863923258 1.6424262433898362 1.5421653993286928 1.443044697245099 0.87669214007480822 -0.34017890285355162 2.3085508610100418 0.32881831541297996 2.3143505534994118 1.7883387217159969 1.4960476839717864 -0.35758303673601405 1.4364478150525835 -0.15834482424901838 2.8171208615962153 1.1011134851366717 1.853057091046773 0.86038497238631217 2.4938612340025843 0.76060041018223601 1.4465817410820778 1.033922131255107 1.3602238046746538 -0.52214005677483311 -0.89427230756309006 0.12844626905895346 -0.044228706096206147 0.73276059398506299 -0.13664670020025957 1.0392781413388403 1.1079886901388603 1.480928526735765 -0.5942417178198186 0.57547638042269156 0.7598393170983736 0.86438197120494464 0.18874167925759708 0.56725562557713594 0.63709162501649863 -0.50352531396947364 -0.43741261676439425 0.073159787429863607 0.64895296644249323 -0.32500038130468684 1.8623191814194251 -0.63532315098437742 0.78293999647031753 -0.4786069693022767 0.34414324741602409 0.17459870158110719 0.70339714380453011 -0.37641796588832249 0.18361258463831168 0.21944437563153971 -0.12968598208610815 0.24485176086165716 -0.15193874724477477 -0.28360016557009615 -0.23294920355693519 0.011045776770140679 0.058468341586007729 -0.019394352561227048 0.44689705288294684 0.62781877245365436 -0.075266494650800583 -0.53233975131535038 -0.55545043157066776 -1.3587234920250593 -0.072292231537310514 -0.60802909121057058 -0.6477129178281017 -1.0478192388471013 1.3427352709764828 -0.38218683238845857 -0.18830232071147121 -0.72004471087649435 -1.6710357905641169 -0.96097093105944309 -0.15583210690898788 -0.44625318327806712 0.0093809759390494039 -1.451815773811437 -0.785730566269636 -0.44640895242370243 2.0004332214005909 -0.95635430088260065 1.3111526727176046 -1.2565774700212256 0.73482006401202049 -1.3374430589589388 -0.55617155705363897 -0.1550730538582473 0.0153223671936038 -0.27582356284511661 0.29723941296845163 0.14771009110829236 0.27303865815485023 0.4934172556626325 0.12054273317590188 -0.1309032030641282 -0.044426098673997702 0.33640677158424381 0.40049978823005705 0.78682466310913768 -0.46891205633438632 0.54832855204097664 0.24102786521483138 0.31592336259362858 0.39975490926866819 -0.17287153162507132 0.49593683845339454 -0.35390372643253337 -0.47922917764893963 0.24060066368333172 0.48045741986684026 -0.16066076760846662 0.34409951303339198 0.18101311343359891 0.29674988227497084 -0.0058657081588349052 0.44987545882137459 0.39005698292741392 0.4192716636037338 0.11862774534147036 0.015691465090632895 0.22732504723856098 0.19852514511874408 0.37571242587128628 0.11861040996215096 0.16085797574282407 0.26224880554599145 0.25296776325290371 0.16948579315787418 -0.012681824238207401 0.28765727055629903 -0.53922719103220873 -0.37711362678132854 1.6176124311199878 -0.17885053658288719 0.15350555891319742 0.72654267746147694 0.8776617955840772 -0.22269841844292931 1.505411026048791 1.9724937398023679 0.049622849303353943 -0.51036927934084841 -0.32176043494086809 -1.1943469978912142 0.82027048882546971 0.0674652039346849 2.1995363090528692 -0.41924780638742265 1.0455897947702553 0.65219710063326175 0.45620612525277848 -0.51581325645380727 0.3299755440229703 2.1318929300892075 0.49038490398101242 0.29323634690529859 0.64442207007984686 1.0784186220683789 1.4300020457677489 0.17258140498047822 0.80340850416974918 -0.6095800468906577 -0.8187275714619876 0.21591533876882615 -0.081896377544970339 0.39023537076406328 0.35851826225380384 0.56245352999148079 0.010904184173185913 0.45392755725085471 -1.0438491660876117 0.073402159732617642 0.48584180738156457 0.19313514489330502 -0.27467721189732414 0.44060988959863828 0.51003808485243163 -0.45389241158437238 -0.46749485172884714 -0.17726361309627681 0.38830168369313683 -0.3919763025399009 1.1134677871930048 -0.79737416354011525 0.58873241442786539 -0.56394125287613028 0.073034527306153577 -0.015462671798136951 0.20113118937351696 -0.62185114622050197 0.10614745619351711 0.033973950562199408 -0.26227417755094556 0.19732913276535435 -0.41283002844478406 -0.64256451566593031 -0.029640880453731304 0.00021769153655381762 0.078509509095606431 -0.022232357981847896 -1.087916021849237 -1.1769462402497866 0.52646931359871785 -0.42243753142947449 -0.47341101954915787 -0.4538235329367078 0.41322260952091983 -0.84074648585375156 2.2631767356816366 0.44345230248638434 0.16225881005526471 -1.7960551447470037 -0.48055463942145432 -1.9223778042934172 -0.58007799456319908 -0.74540610171068711 0.23599848722555244 -0.65517960826642008 0.045964451741564299 -0.49709577614290107 -0.5295000664817584 -0.99382427787585492 0.047054836925182954 0.17172796882818059 -0.18515561513771209 -0.83562126066840481 -0.58843551223954216 0.67172205458531842 1.7474830588434618 -0.60281215350008999 0.61198375489830947 0.20759922578280604 0.40297673758766694 -0.32516658356889494 0.89611747731372215 -0.9566018433952802 -0.038114205833836463 -0.25866707833167085 -1.3007892042959563 -1.0417895665174479 -1.6443337802819553 1.0355816476555371 0.27773420324683118 -1.0096401587199466 0.37712812356099601 -0.050773556129062355 0.44044294733130973 -0.90403814241013281 -0.40343105945850338 -0.10493250379331776 0.15908944483659493 -0.02388277720357462 0.72457814939433163 0.16545023956701663 0.058686587509153482 -0.065546032403270477 -0.022651195890566522 0.22646985203206402 -0.088629961799533724 0.21702269474042921 0.24401213216823478 0.44058269103154907 0.15366122330347001 0.46270806029529737 -0.025383113753282407 0.055644426342555967 0.58454805727291281 0.58695158470518438 0.44476838326186358 0.016753978311746996 3.7228283457196589 3.2712636497719556 1.6716341301425537 2.5077612790179158 0.80523627351223426 3.4666481954921875 1.0642764400494071 1.8751563748167657 3.7654085980129839 3.4305674941313806 0.64212629306230085 1.2412620681891093 -0.67441249096115441 1.4935943934077032 1.7574550127647193 2.534320719247642 1.9613364386454086 1.8520972381669651 -0.16226920262556449 3.742716255058983 0.9274727268710391 2.479876973856642 1.2026210666769108 1.9147104594679205 1.7770809213782732 0.19955701561621655 0.95894710746976131 3.3916413344968821 -0.35138100047715709 2.1258505614696435 0.88256784228864049 0.85731053586282968 0.38010314481154239 1.0510949929592706 -0.15945609731780072 0.16498428708612198 0.8785414328723069 0.73366662148411665 0.57904146085640507 -0.67733897814985655 0.91632914195383353 0.35993446253175287 0.48403508039541626 0.32754878667043791 0.70980936318898669 0.76933371384677329 -0.59321062779788258 -0.12406077544425359 0.14903578193022021 0.49262737388918593 -0.047755104966810263 1.0458166487607177 0.0098941774458262514 0.21206740963466006 -0.0091654665763689653 0.36119087091948004 0.39997856923623604 0.45720455478362526 0.12981131764265583 0.21076099549115962 0.33745064841601563 0.14805833216972197 0.33128619612497751 -0.038309862891768 -0.035648902305553322 0.422391554878359 0.45006567884253673 0.29245242537515931 0.010055970360359304 0.28815546238002326 -1.616939537353401 1.4949651978852827 -2.2431440898024904 -1.6211561317653747 -4.8407917599730865 0.45438754343813281 -0.0778397674865932 1.0025363172600243 -2.0849952905528135 -2.9103055184210183 -1.3073671367347717 -1.2196952081001902 -0.17523624014718395 0.13855314773035007 -0.18419026502508964 -1.8383507518281208 -1.4505682406364708 1.8538424199052292 -0.7003699956289734 1.3948370722244539 0.12706883562374333 0.18764095505480696 -1.7097962588467965 -2.590773283013307 -0.83314002191840564 0.2317695739657053 -1.0556932384353563 0.4278264465565278 0.53433372570337645 0.711115523146579 0.28635044037926077 0.40004232309546284 -0.098254932997718744 -0.76753000954897566 0.012277867407167041 0.49727253510185065 -0.030794256777623791 -0.72992686978657062 0.6178000878533435 0.26805862547611981 0.32280721274044849 0.5140888376693572 0.2909731860736729 0.90525012132910121 -0.94325896700457179 -0.40328483778348245 0.32805712141973004 0.81233156540770979 -0.2482657059682766 0.16966015877669768 0.24623916526484227 0.31699780065279642 -0.20058568781351122 0.50199699484107851 0.42203800205015596 0.26180304811995964 0.16483735782566816 0.016130986449181258 0.24821414749988657 0.33163193087787629 0.3604251023711571 0.08824664841708367 0.19972858870163773 0.19335484704087261 0.2956334088959251 0.31176993675828879 -0.013425123617336823 0.92151183293176131 -0.25107361321799654 -1.7718650880462248 -0.7180882558633781 -1.3984000009544897 0.077708183584238491 -0.074845078797193099 -0.68148779062828269 -2.6343409349193454 -1.415388947285684 -1.0646260270510539 -0.37301009110484279 -1.1424756259840365 -0.81159684865403614 1.2197709153277805 -2.6447161709188829 -1.2517666592821761 1.599060541228603 0.53460854803243207 0.24463428860544426 0.77040453813265886 -0.54124187714916849 -1.8298743148491483 -0.92177153586535321 -1.4320082069023721 0.39035403727752344 -0.69382362200123904 -0.63579355182295239 -1.0968190196862266 -1.1524412952475216 -0.72801055965700101 -0.93901918338388757 -0.55832197489712398 -1.2316532735372809 -1.0829398158233863 -0.424689212115063 -0.61752230663999363 -1.150816895982673 -0.54378967965338754 -0.69050499414605859 -0.7266469542147822 -0.87611998699811622 -0.59464654647211812 -0.12300614536260995 -1.3897581227176388 -0.76491928548437371 -0.92562782046283709 -0.44068862520180313 -0.4530223921722224 -0.27074359489621763 -1.0673752063617159 -0.29012650836114945 -1.0146314089458621 -0.88615244848170904 -0.21591024188899416 -0.48558110172233893 -0.7038324143046627 -0.040269278796720355 -0.35372626157400561 -0.45399385978729573 -0.33231877417569339 -0.56400321774772966 -0.70126990228060138 -0.65292053143123063 -0.26653898265537745 -0.18833267828602387 -0.057442327743994846 0.99305144009632573 -0.65645367870115201 -0.47107273074312978 0.82935847733019052 0.8645114459449551 0.58556310947767454 0.96944899617615277 -1.8429809533944821 -0.1094797202927104 -0.79950394107039635 -1.0521159934771986 -0.3968409157508882 0.16707506920662332 0.97078000147087629 -0.72925372170372338 -0.61508250585269286 0.76743592292644847 0.29858899184921978 1.6529740552748378 -1.1797613567756484 0.068900311920298857 -1.2061353966608974 -1.0605727139164534 -0.66261332003864948 0.65538948039221423 -0.47715211361802767 -0.097659578452451323 0.38189494341598418 -0.036079412726479423 0.077231826200680809 0.26948315414145085 -1.2552060840383767 -0.97380155419108527 -1.4840169163898573 -0.38802272128021459 -0.65381379362737946 -1.2847330011569262 0.39737308770950702 -0.34159886801966893 -0.35514146192569412 0.26175005332473866 -0.10174651490172995 0.52374690782358024 -0.38068702334701787 -0.17617689008636919 -0.11831483717249817 0.2982888397700319 -0.15089107995773449 0.12006412912871567 0.11567145371689916 -0.012374952242701322 -0.14656278687696261 0.068445461123390783 0.018849446314388726 -0.050391155913569428 0.094592830880851353 0.15598497500736577 0.16227448854847895 0.15113249790228847 0.13998139804737608 -0.15228379583237026 -0.083690679604580945 0.12769861125276114 0.30550362931066727 0.3435019676966628 0.021565524253732336 -2.200353429111134 -0.73616232999658548 -2.0707200201787117 1.4394835457576181 -1.4315230743505127 -2.3150617718977924 -1.9251731803099272 -1.9006980187815641 -1.5837347548129019 -0.73752556940616176 -1.0360946629295844 -1.1399288678017194 -4.4301933841372438 -0.28473414382010076 -3.195543110408769 -1.2952987020926263 -1.9801089871619018 -0.82834255043700789 -0.57895684084410115 0.4098019615562481 -1.7446976218916748 -0.52214055952607485 -0.90707609672288547 0.18902840111584565 -0.23809092346742128 0.53984306121544545 0.57720868783663681 0.60540382919309188 -0.98049655451258877 0.45037212443651159 -0.77113251236118674 -0.38778190124421286 -0.10998973508373762 -0.56404097596417269 -0.52535242645693614 -1.638800418711041 1.5120454055727379 0.7115509906693015 -0.31953070150107415 0.80404184438195225 0.37754835181476348 0.93726562486912002 -0.48387523616429007 -0.44885537124761571 0.12830088790126712 0.67219617744921745 -0.18475803465525059 1.1166324404963952 0.12051188294659419 0.53773908649255531 -0.078820460263051575 0.68463479469169142 0.48693855118671209 0.48537217419675688 0.37535732780162284 0.18781870902968897 0.58011928704850024 0.4245496816979803 0.81743440408179524 0.17931977698791676 0.34767440332650351 0.15122491874579627 0.29492055815319385 0.37065618225141334 -0.016767278378743509 0.90993916439322931 2.1961969609898846 0.23176702755275772 2.9963823510865022 1.5890744778444801 2.0692088637948247 1.1868944477967029 -0.94339020028041598 2.6384222111221325 -0.068136166091754477 1.2251025974571057 2.815083181366008 1.3004972874978298 -0.8657192243997659 0.38711228040400297 0.45885788883394513 1.792962873592149 0.87619196791002785 0.017819044358319752 -0.2130253793111766 0.93465489394170953 0.45763334732279037 1.2619183362343103 0.44120415387624684 0.77973567162325086 0.99138082683336215 0.89108891394434042 -0.042222900776860223 0.65390014195472523 0.96192795198102898 -0.058213117472959514 0.49121052790794395 0.70671225878437638 1.0404503882754927 -0.42028898808874637 1.2345404427029016 0.60812600704301556 1.0814943227161313 0.80017600956758361 0.92597664086765918 0.9338757119792912 -0.40328431629848738 -0.25769145280892763 0.77558492443190896 1.6419450422628503 0.36715373617365643 1.3838692262647956 0.16066171548009511 0.80006359757274248 -0.057818788978578499 0.62146345886159948 1.0210623311853948 0.066464466783575524 0.30664662277060473 0.60944434381723045 0.79824123947998027 0.39187125278429186 0.43522334583164468 0.21098893597000076 0.42076914650585578 0.29432983358958387 0.23353934623313369 0.11790587912141619 -0.00071859340123576045 0.33264597282953895 1.6213676272695274 2.3258300172680344 0.93713581561917303 -2.7936929323031969 0.031603389330128684 -1.1113749805890136 0.33806578592603598 -1.3396965691904168 -0.075994146190415432 2.8434500836417507 -1.9949041240893961 -1.2841765023519323 2.4714910061943303 1.6408019112551961 2.1862625244030278 1.4848460811887989 0.63480116114760554 -1.4376622079157335 -1.2853427195744753 -0.66892342350347123 2.1064736229112153 -0.63352555602531235 -0.57520419420378666 -0.17833048359548273 -0.52089856648528865 -0.79294719953365933 -0.36093930677337277 -0.78235586264837897 -1.6481638827027998 -0.53389647785262129 -0.29603379931436419 0.14400041905000041 -1.2859944016392675 0.2815036800141717 -0.37590904735684583 -0.4448686835467206 -0.057016389364864535 0.013723351303330762 0.032603060115871385 -1.2164478153567018 -0.58211994493250385 -0.053373555440281682 0.26445804696956049 -0.31480812505677208 0.40155376748903854 -0.27725052431992409 -0.18630909223898987 -0.65953768350457409 -0.30138899063862523 0.053420712849879808 -0.59653205783883134 -0.31024020610922137 -0.041580258672170946 -0.085328340848660644 -0.38491512207798784 -0.093362764123415001 -0.29183594855631606 -0.6179209420035543 -0.23534022584463485 -0.046394356259296554 0.20620673171730428 -0.0011503114426558627 1.7528900939661221 1.000506837776507 0.92298568757968269 -0.67168568788701732 -1.8659096565141573 -1.1059657134437653 -0.20948415732338907 0.33278910521665434 0.95836897545837729 0.1578026466907291 0.39524811232505724 -1.8116279615122715 1.1712057713945234 -0.16895492352880034 2.3906706798279611 -0.06332578196602047 1.2901866468271852 -0.76774611261954484 -1.1208840699136806 -0.61828588725810274 0.55285976886734589 -0.67177127692554051 -0.41682894882807292 1.5921974967233958 1.2910422534847596 0.57219977455975479 0.98876419337431998 -0.19684320534181143 -0.98688641339075889 0.67853518350050079 1.412344902501929 -0.0033821469443012608 -0.71694252804819758 1.3245641676627593 1.1619839007398183 1.1282566504158298 0.81565972088129668 1.4071295742460004 1.725603872507508 0.424043316932328 -0.083487927845785501 0.9069411291207583 1.1601647848267544 0.66254440486764721 1.0528651835956793 0.21570716737222667 0.99987372051055168 0.2415580612666608 1.4556572734399165 1.0288566986980439 0.95922579825950682 0.88926513162789789 0.65163361665684949 0.99212166724767004 1.1528957028646325 0.79737215056358268 0.7153245119397228 0.61913971347802021 0.36543831584275777 0.5017960790182282 0.42337318314239081 0.024865767044918875 -1.3573632408726788 -0.67249697929524455 -2.1622535940971668 -1.3473834608380404 -1.9742952409285741 -1.8016665922831965 -2.5515411480611769 -2.329139544902024 -1.4303897369210525 -1.3952753213264564 -2.2626363915249259 0.0051389952427023863 -1.3390557787712347 -0.61011324814166157 -0.44890386340631894 -0.68364710535978979 -1.690964343149097 -0.30106315494448105 -1.2515856930607991 0.33106932332876393 -1.6498456645689688 -0.63147649485248225 -1.0877158421621294 -1.5899228414934792 -0.91189531492642439 -1.2219475614538764 -1.39329809684579 -1.4641473886494842 -0.90080252229589208 -0.78194422299232191 0.14418498654129955 -1.6519731206205204 1.0237286300098505 -0.3395157558112411 -0.87386078405312606 0.056998517371734517 -0.80456341339215653 -0.15199822860551915 -1.4619058339803097 -1.1507690417455234 -0.78149759758196968 -0.68389362020182798 -0.9164731998321618 0.94404175481459895 -0.95285348540802095 -0.46495161616630731 -0.62696952487484758 -0.47875519734087446 -0.41262282046573662 -0.43929023974511416 -0.82640781522794304 -0.37632529095712702 -0.33158110735995666 -0.61840662469531971 0.17654637288594799 -0.72777200687221144 -0.68857958982639034 -0.49463963711014386 -0.47915337304228289 -0.34583095240048134 -0.11365200203189896 -0.31298734127211164 -1.7199833319585014 -1.8116075433825254 -1.6223106468444404 -0.87943611676814515 -0.63920989935567141 -0.41557045940894333 1.2424458879250038 -0.76016355504295841 -1.0177449108625269 1.7387565534606084 0.39389565037969765 1.8207770235174516 -0.076623261230873985 1.0822689907868452 -1.1638868800237687 -2.8291613701773906 -0.048405475549196074 2.1022403275260459 -1.2232598075927856 0.62737749974864554 -0.034426816085762688 -0.32445490364270418 0.44333640745246866 0.68937151024306043 -0.31779151968894309 -1.3450155706436835 -0.28600556927824095 0.26032001124939452 0.050968540726550847 -1.5181025118437725 0.58667823831522214 -0.33054853086720193 -0.45782093548129993 0.10215446530123104 -0.41299579670106773 0.11916163558482193 -1.1965307064782835 -0.47120558110258998 0.24187905138385901 0.023944397232519739 -0.23667829141161995 0.55148704567189977 -0.25660305634971198 -0.29304395789628102 -0.34730286890266887 0.105814898967297 -0.14650095420786419 0.090027944358729517 -0.28247269100050892 0.12243548467336091 0.18837051140042538 0.04316783424552955 0.42414944527871301 -0.34624384915565348 -0.43955026425885974 -0.14330323046804633 -0.027175525086939076 0.18447433501589447 -0.059258773414307457 -4.2093715736014063 -1.6412783690694612 -1.2393617718608845 -2.9487803035533902 -2.1008614394419518 -0.72012272169813685 0.10359371234574564 0.11820264723462851 -3.4230492151616594 1.3667539853974047 -1.523959185427799 1.8863220118069794 -2.2909549741957131 -0.93034628121942065 -2.0422057398276632 -3.3443649337514345 -0.60840382322667663 1.5229147197396471 -0.91262868616559112 -0.15921384482254172 1.1205195235696284 0.38911053813851476 -0.14745508414935429 0.12982968072554316 -0.89789070839257068 -1.1418697163738418 -0.94018334337096576 -0.93750496108517134 -0.0098705890514276928 -2.1673292235055963 0.57950389057405138 -0.44053300012094976 -0.67953127861225548 0.35026245054662458 -0.0014658773439669484 1.0734116771676236 -0.78604212489632375 -0.48440062773759818 0.12644606726852384 1.0403358090679566 0.0053341170669845709 0.75818687630205384 0.12641706711570569 0.20180174697925257 -0.50877151283252464 0.29547274296223197 0.50359977335549588 0.10792585223167019 0.1013342946812239 0.26573699371251591 0.277423871682066 0.10063189945287453 0.30749378266384314 -0.21774379925883069 -0.21604394593630299 0.040555436659704562 0.38883790421311915 0.38654911493354843 0.016574550624213411 2.2041084570543816 -1.2645063882916232 1.3738254948226272 0.60383145482196587 1.5986543793795045 0.35234873858088667 1.3320060565945311 -1.4072561220482236 3.2703380643723095 1.7122574239288502 2.9145608244448455 1.6109280021247103 1.9786298651789342 -0.25536979959558759 0.51836868938999991 -0.30517386666759988 2.4419910435386978 0.74677328674949583 2.2853009029159375 1.3386398820241401 1.0311906112151805 1.0786806388199988 0.85264365235462491 1.0040085150063049 -0.45683708489279462 1.3177423438534202 0.93704454929299574 0.51340604115655453 -0.99292738476973008 1.8866349755059197 0.90296558045426112 0.6328185032906003 1.2025720037375893 1.548371527557586 1.6000492934478134 0.0097410481460803132 0.040296029804341736 1.1159399747468384 2.2960718849034576 0.36280766871359538 1.5784651633556535 0.13702128131710778 1.2416061023489333 0.13765904067409626 1.2999958135250611 0.83685207788083937 0.47919141383923908 0.62304590208278277 0.83647836664476338 0.83595804872014234 0.67900363558532106 0.86678111627124899 0.24908306401436123 0.26713257672814239 0.22011104290290881 0.49948011886603544 0.44075003882194935 0.0062188674365069429 -1.682679328684219 1.7640637366489766 -0.35558504306305255 0.36834590127530309 2.3066593252412071 -0.69557950241619237 -1.1036586512296302 1.9192761320363176 0.043572539438912601 2.707483935393785 0.98537678594548062 3.2660944536130163 -0.29527918860904445 -2.2094008481621317 -1.5693713333284378 1.5831980627130724 -0.18206327183514046 0.063365879709761389 0.55731003659055101 0.18583768331685169 0.29102191187823823 0.028392755291841942 -0.31557749734249091 -0.92350157797050325 0.50965122237700056 0.23134418117712943 -0.053348605892667489 -1.512843079215866 0.61689899412694149 0.054017034854134401 0.031262630358517916 0.30591481963000206 0.70795282852425589 1.2029312754843626 -1.0157805168409118 -0.4290453317937537 -0.018113272015415113 1.0615820435005867 -0.1897221943538443 1.10667700156282 0.10376535813391477 0.50378927195175727 -0.47049150445059224 0.20768467267964816 0.33824931493436922 0.44376385063593987 0.098498705134867803 0.13881600877863157 0.14803323301378418 0.12745358594968612 0.2138204940460576 -0.13419445372028357 -0.21729783811668021 -0.00073173435969074924 0.3473841704856182 0.42746069598968045 0.020409775391507099 2.0102567984467719 1.579779120500008 1.2762688428792786 2.5886445248824468 0.94114899303700328 0.89955856324705874 1.2623055760282169 0.7368806787868446 4.0822308347322194 1.6700265435559056 3.1839988134086799 0.4973119679064878 0.82218148903379795 0.57373235849216109 2.0569363850694633 0.52471459820328537 1.5982126681659159 0.57419382341197911 0.59248213412343465 0.67021417102617964 0.69688437242194523 1.3772305151159336 0.51424519458107254 1.7170733257571087 1.1172729246407862 1.2269967824331371 -0.051837951777854135 0.90873586744527968 1.0067414309420741 0.82317451115342799 0.66974800652520494 1.166780930625372 0.81115817990492234 -0.58525430483318319 -0.093902215587597579 0.57542032724328396 1.1418444143469324 0.01908397914581076 1.4860129542795169 0.3783793921245015 0.93992737247464608 0.07795573867075542 0.64424761872112002 0.66614685594888412 0.61969878044227067 0.28978348810947852 0.25757047983869491 0.47168027899281001 0.20083539935834707 0.41625187888063037 0.23272859030163198 0.34165919951511858 0.54077947964754891 0.60511661613030243 0.42250003002813213 0.02306380120787254 0.36356099418677906 -1.8618891717057988 -0.43272043030664148 -0.44135176148475508 -3.0657074255883883 1.3430867286469494 1.1394184310039945 0.7157573575995001 0.42008602495621944 1.2318058808388856 -1.3307571013708266 -1.4739188116355209 -1.2317744229818193 1.0821199838985422 -1.5281251731653775 -0.83895483534768522 0.93629510668398386 0.11852032104916096 -0.76960001805161493 0.14708799326326513 -1.3919744886597025 -0.92964195880707834 0.38325846487915149 0.53136786702372052 0.30421830288906249 -1.1469496193232145 1.6432314234019296 1.1940593197289364 0.10591386053796285 0.83623230765184686 0.3434605186252418 1.5086113482387264 0.098249440412634184 -0.28021256949764745 0.47187690839558882 0.58573074304636408 0.63309016254276806 1.4875571022364775 -0.07020831335017913 0.63877001912871079 0.46904805333572741 0.87533750226579843 0.95804396576284545 0.62221772293801791 0.90377913427516843 0.62581963539122276 0.87440093066847402 0.72941784195423298 1.2409142691047548 0.50029291575643609 1.0073629730636846 0.064782154292340313 0.43579545289951227 0.30662774738442272 0.014637059905871271 1.9982380516955685 0.59355463065833214 -0.5217717930659671 -0.58894582873074508 1.8112710947189665 0.4920720170008695 1.8480701335177987 0.97996887703192337 0.97338995391950811 -3.420467339322447 -0.66398020382611589 1.2500479278324261 3.6604321620179054 -0.55788094741203698 1.4025687029726368 0.43540533733116626 0.61335823052368588 0.46803021913068971 1.1394096896394377 -0.42051723820639242 -0.14195509495722794 0.082857675330309674 -0.89560624589676596 -0.35900238943089785 -1.8466547156385853 1.2343491154005399 0.054188547693252966 -0.71184795134423895 0.77117661492579936 0.24280457292651611 0.52160655081466456 -1.1120334448479294 -0.41499189752867344 0.079722614385392507 0.23735929987420737 0.01665548086896701 0.74530911284173162 0.39100478514896864 -0.20545658911668357 -0.1301145733586194 0.30457823844887416 0.23898124803927204 -0.10635001429651893 0.12913579837177808 0.29289632754231187 0.47719741441636415 0.3227607185770956 0.71255355717116531 -0.044430650822750474 -0.029811667267005623 0.50971959475748496 0.56579640457448688 0.48976060638939389 0.010499877106394218 0.95479570620328624 1.050958915036591 -0.72053316434610171 2.6695604310268344 0.86395615138606752 1.7206386875921142 1.4941244291409435 1.6111729558399401 0.82407078160327962 2.1627337867995498 -0.066894791479594845 2.15993103372077 -0.02535220406153978 4.3241289919896779 -0.16681193433331704 -0.79618003267370241 -0.031998206065457009 -0.089160490884257954 0.82334343574757873 -0.9541956398539494 1.460331958125737 0.07221497386547146 1.1919313145063946 -1.1022317317170545 0.61648868696225689 0.79968859917530222 0.420719203368499 0.21687553330134618 0.70710008905185218 0.35834373425070876 -0.8461657899831958 -0.012942983405750504 0.22787171477416163 0.57468789586856317 -0.0098402603060734964 1.566341980859163 -0.45416885146064567 0.5828605871949144 -0.39479874122010933 -2.4731118303098032e-05 0.22189674927038094 0.27570573663168507 -0.27286687507290402 0.45233639224537936 0.20306519208658641 -0.020100101781089733 0.23801385411799145 0.0023421060598891909 -0.30390734102272393 -0.48744154384873678 -0.014472152833802484 0.095670526090347194 -0.035964082426600708 -2.4427819331215015 -1.7495628736448003 -0.5733768867973601 -2.6015398914494816 2.8630148936679274 -0.018201570788637253 1.2391872477169692 -4.8332993914658946 -1.0282994932340199 -0.52859068651897612 -0.81134673566220472 1.5001481998013964 -0.018677568428133097 2.3831110617593776 1.6197295888075731 0.89482745473726011 1.0545821571260907 0.0057295495869965187 -0.95554813820441509 -0.16342667955424497 1.0975476686653465 1.1285328908202572 -1.2991812318938558 1.6060266925837672 0.98916862307921682 1.1996541710425324 1.272168922994124 1.1355881981744511 1.5308916846474983 0.7623356600122736 0.61237641275958765 1.7504713900906912 2.128124833820944 0.56554373009000447 1.1415998626172363 0.34616839294255586 1.5983072556937716 0.72387164568062012 1.6862844657117491 1.4128474413255767 0.98695264825260798 1.0715653979354234 0.69711558710081267 1.0012876850070891 0.83479642796718423 1.0287109007020971 0.62641465668287688 0.76254613992657216 0.32369628980839094 0.51015331716024248 0.43109703512472908 0.0085848822982927831 -2.5271241852755133 2.014339302561388 0.86030501059149433 1.406236637304598 1.5138577720285351 0.61827666511872259 -0.06326354586735787 1.183772981100859 -1.6726823685539212 -0.31509437251940337 -0.18778291475046407 0.01789963910543646 1.1202937860725173 -0.28600470885077722 -0.48542787610794003 -0.25514386984456744 0.10587733465024532 -0.90039709530577106 0.69853897702324641 1.0114118000325871 0.76961302608405524 -0.32995677408072821 1.5561256148656106 1.8207296367633985 0.61302194856572323 0.73568085156309826 0.76640271092031942 2.0328332246466352 0.38758417562836034 0.495554903873831 0.63197790609469451 1.2527808398346816 0.48964914870368093 1.8346568876327962 -0.33460774693285505 1.2554251789256317 0.60232750902205023 1.0785783712320105 1.0835070570728937 0.24217311343814521 0.72755854250420693 0.96504638025919121 1.078739410921481 0.82502325679253907 1.1575121359111527 0.79603535026853978 1.0039275249680615 -0.1010031319942921 0.19924416561290087 0.11298248641221056 0.010797565609505644 3.2204075435953885 0.81329594375886327 3.7355245055616355 -0.98545666681839228 2.1543315560967251 3.6708275451932755 3.3902442324892665 3.5221776900281063 3.7844235451235573 1.0686186285892896 3.0612758189472928 0.96486442476129397 0.98925010359883292 1.0530560674873333 1.7290739041474676 1.4633704370902734 0.97179156903946273 2.075968372428282 0.16487531071081385 1.2043235534099779 -0.83809399454105415 1.1047332992584642 1.4777012510431369 0.41673829366367737 0.70886284204041661 1.7614500512939244 0.56567421086814973 0.098888643203901269 -0.11060560488757386 0.19972114663947726 1.1009543007214351 0.12974148005513475 2.174732642593967 0.31148355414137369 0.73442398153726451 -0.10002956282151905 0.25488168457855592 0.69270402496217287 0.37268259941190596 0.20959852283435385 0.35752718527364596 0.51662733801460503 0.26293561051575209 0.63435345289079959 0.30564014973949916 0.16554298692081063 0.75143847591983992 0.90214784706291162 0.57837119438797424 0.031037885465919797 -3.8151093168864043 -1.1190437768437331 1.13476045244546 -3.5521064882364586 -1.110638238211638 -1.0008719484179756 -2.4954368084010117 -2.1211760955354619 -0.94058623573896782 0.66215398188735863 0.75932871985923367 0.5036114341664677 -0.92044118462220403 0.56895128681350293 -0.99575522662309957 -0.84384672783333114 -0.42916729386836283 -0.53230177425473479 -0.33041711671945911 -1.6451609725243965 0.8071640551755267 0.14943438656532901 -0.29933901191761375 0.61587738655597146 -0.04890286181558888 0.7313097376800245 -0.34122353198771704 -0.3816909035919398 0.1056184498741901 0.5986307444748975 0.28327162170572912 0.44909474302213553 0.28756010912924163 0.1366124164574482 0.06132033963658564 0.43242887520246848 0.70682014727576548 0.33965320064464433 0.36831470834288149 0.49310943499114396 0.62394352800922825 0.2590104504805083 0.52107341045317057 0.040659789186480826 0.2700518106721308 0.080818841645859521 0.36192298831576297 0.30835983129891681 0.0068565496928665289 1.5639786672880693 0.12822144089915277 -0.56300823954459533 -1.5179061368291382 -2.0961745560563241 0.60110498044009653 1.9501454499709048 -0.31159919747971293 -0.17002004353431224 0.59456239851826731 0.43420722364415243 0.14625454738543076 0.46600491400969363 -0.76784256478818558 -0.72202585604524538 -0.79487059565639484 -0.6530506109200902 0.77761914592042891 -1.0039613318534129 0.70510965769416567 -0.39755511490369194 -0.26634084208695941 0.56224920994032368 -0.55821353698678833 0.32567898781186927 -0.49791467248273186 -0.22991526996567041 0.20755351683018039 0.93783075877188216 0.042731515249322956 0.16544493202322177 0.083015642366913958 -0.14604802549044102 -0.051706821496653468 0.31109561411873216 0.49491138572509463 -0.0053004206048039171 0.19919623899899608 0.28348697763756092 0.36998374008708429 0.061291907746649804 0.19347284870408454 0.011864171721989305 0.094843823749004935 0.46927980009422654 0.56014035143785246 0.37505737557336449 0.012013326643976282 -2.0188496550256918 -0.78252472664415806 -3.8794376276259124 -1.9716375856979291 -2.45556136854466 -1.1323195867075682 -1.8371986947371666 -0.70772084137445535 0.13573959467182722 0.31807524828271189 -0.010074547223591765 -0.88172254336516342 -0.45473794054398731 -1.4329753335815789 -0.1694765165917585 0.66135496204294708 0.62234130132384746 -1.1998488292658451 1.1473224333555767 0.15942106933510228 0.82018877040341065 0.63971504266458468 0.38183353185478658 1.176742340862641 -0.10830904798279538 -0.11136939974470816 0.85912251876168644 1.1668358603416111 0.18271502943349147 0.20887185322717863 0.023494963850906894 0.55684385608506781 0.52250288609687046 1.2372779687111277 0.95155543201194082 0.47368037338169877 0.51739622306844857 0.3688340420266758 0.51935889242891498 0.42671768306589025 0.65907113641010673 0.49144962440558082 0.58284000466219821 -0.073571625997256654 0.038408262900066548 0.058900644380548518 -0.019150761062725646 -1.5389212941240327 -3.9050074365265415 -0.46337752388544257 -0.20877960356455913 -0.797016258919094 -0.79117037563059145 -0.28862784046021395 -0.90674829105207044 -1.2317825828548601 -0.16518210594091257 -0.84464504889340042 -1.0204323985457786 -1.8330908141641835 -1.0884655543460682 -0.80482399020246376 0.23465805909849702 -1.4884849778795832 0.22822274663137657 -1.4692795155140503 -0.98429403915059588 -0.26199915913003519 -1.2194592023129081 -0.61194444408309578 -1.5796795917473405 -0.63671673247068217 -0.58838919821515701 -0.29887259863606502 -0.41313695112255477 -0.48580157137917546 -0.58515076414332878 -0.9428301431886229 -0.77676647027232215 -0.75925592324758762 -0.30823837510989749 -0.69311394561257733 -0.59933559925845581 0.017033448404162297 -0.17055023783386775 -0.64286972402898379 -0.35477328073999059 -0.68710964293259458 -0.77630698517379271 -0.342694180808433 -0.02750403465274041 0.011892353409816907 -0.061956601124534771 -3.0354274751805415 -0.79134867006690168 -1.097551389248852 1.3104193069937695 -0.99254194154884423 -0.32817961922032007 -0.98815365534864974 0.30982805847283362 -1.1314695190943347 0.027684595108279815 -1.0621497381890923 -0.93200123951158098 -0.09276641360161543 -0.45746982794017893 0.53544880078013379 -1.0446308444182075 2.2729329156099318 0.31945052623070103 -0.066267236453345132 1.1280683919543055 0.87801979699814592 0.99467202146019063 -0.46807746126127653 -0.29328701112400241 0.51007805995070521 1.2446989500383998 -0.1079445708587162 1.6077739563999136 -0.03144698585842589 0.7959238975687708 0.12047144815232029 1.0241814227027159 1.0665169431883421 0.72839152625963133 0.59114074255788007 0.62573993657993776 0.91757764546296572 0.42425606439057206 0.83427916274698366 0.4131635920773894 0.69794224063489363 0.16458940387730897 0.32750102584879953 0.20193195271335543 -0.017177191675377519 1.7215805072972503 -1.2359296701971443 2.2386880340173789 -0.02547662227058746 1.4428394413738774 0.77925757310029631 0.41452709873991583 0.37432136531508098 1.0402269988142137 0.77236161781859769 -0.021514481131038436 1.7294318117223508 0.3904745622216832 1.1510765440065946 -0.41166885761920197 0.88429747301377548 0.66363303076209468 0.32664744207350827 0.67633451989388316 0.95731417002621733 0.78520942818022743 -0.48878460166040255 -0.24202406211871882 0.38120299617533587 1.2131291044622743 0.20532403357214415 1.7030148186817322 0.26316276726838311 0.58233200674355678 -0.030877657613114302 0.52288124228515032 0.76157303958278444 0.30715875934504666 0.30311175214309427 0.39805700529305427 0.55480943158013218 0.26578525514670731 0.52177827614730266 0.36459324846460128 0.25736010571460582 0.37490761799213557 0.60541234456099502 0.3486862193105949 0.022484090703031021 -2.0771553214991454 -0.24279040948502542 -2.8490850911517338 -1.3531559039843961 -0.28800039888520773 -0.80360877114935592 -1.980459882322517 -0.36303547342585574 -1.1818083448475869 -2.5854773705483876 -0.69645103360897154 0.55113498666076877 0.11679741088228925 -0.28633015111916621 0.64880545332524675 -0.096701388476597816 0.2949412561733139 -0.068289820858174269 0.92600178968122604 1.198302822932553 -0.29515851923936981 -1.1512217111630485 -0.33926882570895128 0.56903195310889509 -0.15767307195686464 1.5398111082799737 -0.47167239827131585 0.27840906371420987 -0.36209546494848743 0.35729803811795374 0.82838216824311228 0.41623118663203434 0.20092422999067733 0.35527588829769602 0.076505948445738131 0.16934600366969596 0.68942309786843292 0.1445091754162369 0.65717527905725481 -0.1153913415521227 0.086193204295889933 0.10195982919485561 -0.023399433842007027 2.960796602352278 -0.5790263683017185 1.1429864574938071 0.49530693319228863 0.14062810885180335 -0.14536843149125411 -0.25557813968059179 0.5533554753882477 -2.7282016104023254 1.8712836835547582 1.5683254230436088 0.83926900741280552 -2.2371988200192705 1.347274614204842 0.45579949384071711 0.68556790838691695 0.21972200366551356 1.4315619897204659 1.0369993386483238 -1.5125007590037167 -1.0375666951140845 -0.10164880103218657 1.4999624147404484 -0.14708304419150678 1.8858781211061209 -0.35009306796184531 0.61966517209192284 -1.1243769559550481 0.23066670240122947 0.76362926760911021 0.36463214251823584 -0.073710623028282643 0.097807979001238304 0.12466772054697062 -0.4058136543172628 0.49491739992161921 -0.069207508220542932 -0.13076005692201992 0.37975104393124332 0.43513349172682542 0.26571636330521758 -0.007835266259929384 -0.82304692557692005 -0.71061966299718138 2.0545031224408898 1.0367682828074036 -0.42204853698135775 0.015786459091092792 -0.18174101013612681 -2.6272006640148833 -0.083435588941015021 -0.7446900379461352 -0.56911368583372468 -2.3898080505184729 1.2691884302918532 0.24905487555753839 -0.26629334310764929 0.2799428280693716 0.20982436301215387 0.8523184339073534 -0.032279074048826455 -0.0081269224461361766 0.0839665107151851 1.0185818367347361 0.61488234109116535 1.2154051997220898 -0.33775141589340657 0.44023427425874395 0.19621187603871176 0.55448685071412707 1.35317155017095 0.63514804005415637 0.56424104972595968 0.86568030089444292 0.87166892707586252 0.29031248586348518 0.68736095652015006 0.20130291632719199 0.091454440949051544 -0.06454724303281778 0.45129345606021215 0.28101073977252994 0.0018676851861167936 0.6266558221900278 0.10222462183824796 0.41951344986196798 0.28512706024073609 -0.45629162244004329 -0.85593463363621258 -0.96371476468336204 0.7553477454096752 1.332600839341352 0.63913718904440453 -0.3789095528996565 2.7677719329535524 0.66992440061212355 1.0546263085975802 0.48735631267899238 1.6573236658912609 1.7816201484532534 0.2471087739096291 -0.85810961789782902 0.97877731373518173 1.4882471022593782 0.29010339729023843 2.9719467525782348 -0.45534121979883529 1.6489110149223625 0.52147947146330331 1.2490442417030438 1.422639911046484 1.1918818311125556 1.0344089803636771 1.2549829884320274 1.2513482703178473 0.79388299086321845 1.3820486411822583 0.65080094084703677 0.98326863978679113 0.046800238911235741 0.081120751893848028 0.16913616710149615 -0.005329018320012085 -0.061204344456459579 -0.23715507789759097 -4.0798613316918138 -0.6798038800046291 0.33100551502025038 -1.741496602923817 0.65810808648279495 -0.23847776550439376 1.3223318016891268 -1.2815047882706889 1.704606604719189 1.2878113892334795 0.72550635637364724 0.86058838466062448 0.86193961034573774 1.2073229636395038 -0.25064677339121888 0.11675222226596893 0.93606892030091116 1.2673412788750162 0.25673405719720277 2.7168856811642925 -0.21558935819044708 0.82580930683987319 -0.10668056620392972 1.0207002979840132 1.1739601746173574 0.14923297589566667 0.66627039937159827 1.2328028738284547 1.0268994738323727 0.26617691245274622 1.0660679038873313 0.68785693062332276 0.48298492255490705 0.40380826120674429 0.52681765231369526 0.26323590739161906 0.0092080813236524554 -2.5817721825398232 -1.8807787765227755 0.29611735367523595 -1.7973650863055517 -0.28728966177749221 -1.6325740942252231 1.3902105958816695 -0.12175929872607985 -1.2850083994489556 1.7786085253329535 2.2246896765914417 0.89176379608761125 0.46856237771222764 1.0837418603111211 3.7081993079791351 1.1146688371279774 0.52225366626621028 1.120493766817634 3.3280049639038003 0.092418015054158961 3.2085194710926208 -0.43400122723083406 2.8320876722727304 1.196283508244339 1.6990502649673129 1.3077592734020784 1.5609895017943045 0.44622510166016083 0.89397956715663385 1.6372997450015059 1.7402191281348471 2.1936624036947228 0.72251753677251551 0.87013406753420774 -0.56367243274309975 0.27999352972519026 0.33375743793257096 -0.033902180896517205 -0.018426267623823815 -0.09174548465837648 0.23802720331800489 -0.48009802621813064 0.74425701124392452 1.5518270878096685 -0.24019615019520962 -1.3688269846835688 1.4221607989171021 2.174282312776155 8.2431699483861889e-05 0.59294504574711682 1.6201076473515172 4.1918394998822235 1.0029813121964266 0.69842342708200544 1.272593568357558 1.9921370646320313 0.55233304337485878 3.1191378028905583 -0.34673345779181658 2.2429894075138899 2.0295770298023359 2.1476343348910216 1.0351083969518697 1.5460900143061957 0.58837169908678055 1.1842546562272656 1.5199427882892804 1.578546221363168 2.3264575240150593 1.1694142433202082 0.67586244801401274 0.082358890743598409 0.45567602217309883 0.37818935156955352 -0.075548689088184823 0.68543205348487379 1.242453071719235 0.60843284093931227 2.5050028034648246 1.4603301708943697 1.5322977438792551 -0.68003380063365071 1.8536634283581161 1.6127958949366479 1.7692646202463678 0.74590671143044462 1.6279323617750436 1.6769958877748257 0.87459934035151821 -0.13829078881054252 0.97771186973199142 2.0689284421385006 0.67122475640639079 3.7408313502669657 0.21220045824914438 1.965867250995587 0.25252221919884693 1.6884862334661783 1.476084948748839 1.9045943050473544 0.49022066673708681 0.46571049498349293 0.5833300404501065 0.14566238558520006 0.6413068201913229 0.50912685403628966 0.49769038562813905 0.40162110394860989 0.76833079207153887 0.47160330475182377 -0.0038112737597221238 -0.38537292125439693 0.0465684862517819 0.064263046132279261 0.82354225030432981 0.56058041558531468 -1.6630562003180576 1.6202039388682268 2.1649071399421778 1.7101042388359506 1.2121096485003382 1.0552224808388517 2.1108353061610678 -1.1391947157422966 -0.80783634106431967 0.51911064078057023 3.0635763453377254 -0.21960007785019986 1.5736725108405529 -0.1208028172185478 1.9846296507446879 -1.2572254938865672 0.54811933873566698 0.50412684877984815 0.89625473888929219 -0.098678433958200459 0.40165933188460845 1.1087461850938702 0.45960379759753084 1.75079819490356 0.13066644770326599 0.032712067357093352 0.33839740204361568 0.79358255451532933 0.33324439112326143 -0.019652547626957274 -0.89508381559022976 1.7253600955195956 -0.031777742069062621 3.9768228490339959 -1.2694070401344892 1.4906648657664803 2.3082317851569769 1.505482777155702 1.2632046464952962 2.3316267722155146 2.2788896187805054 0.1278939971370287 -0.418490378512066 1.1807319961195772 3.134700425303087 0.76662103169895113 2.6505245456627118 0.76450432966067339 2.3131348080178835 0.7068341358167719 1.6949356566920861 1.5056436210521109 1.2923630801095947 0.83944483579407903 0.63586625019702392 1.0423218827751923 1.0823855219034846 1.4810521651354849 0.83866428203814547 0.56314095678119291 0.55199368651876668 0.86795144094545018 0.58082900880691146 0.0080925990067757612 1.2983920584347455 0.0024490588392291346 2.0478450991125379 -1.4305253800814164 2.9330093686196368 0.78179849116405442 0.67677270093724129 1.0580410633615396 2.2752071109627572 0.96416264875814328 -1.5832107092091414 -0.39550478877136314 0.24939595138314011 1.8072307807966757 -0.046999182456367881 2.5885533257333244 0.043011128008427671 1.1389283509271704 -0.87908571234559052 0.39845888805541574 0.4056650831984745 0.83214626868604302 -0.035549266834709124 0.58305199780916461 0.95558394246585665 0.3819792120496 0.62756002863152927 -0.15148475449423759 -0.47568492375772203 0.2608987993074699 0.64615447087865696 0.44091497046157485 0.0010821298611335677 -0.68060407482466956 -0.18954639742441021 -3.2499326891300053 3.9603574077670025 1.1649860616732945 -0.54801860517934442 0.93309663375979279 1.8879152365319354 1.9722530073581679 -0.28174460380360422 -0.031815544527973819 0.54319372451093617 1.3514217684812675 0.95771616584269448 2.7120597993998095 -0.21780077634853065 1.6743178378696446 1.0160637265266814 1.673146153296164 1.5903430313148499 1.3748989536737308 1.0816093082598075 0.7267646599946741 1.5577188804770035 1.0664631356555649 1.6085656588247474 0.98525530477260281 0.93367310880175391 -0.1089759881097089 0.40876984927933147 0.2382175467810371 0.0091940873817359849 0.68197760671202845 -0.50332527185901399 0.66718608017765846 0.61382710812809893 -1.3128391050602968 -0.19393553672283434 0.37697955316898502 1.4644834162985154 -1.7987041279914444 -0.84617578247744052 -0.23376489490352353 0.91373227726605599 -0.13831637340415126 0.69082786525586515 -0.32681425165532801 0.61655669238255639 -0.099522157091474661 0.93643692186993477 0.62227192406013521 0.38222322349352206 0.55803586750139544 -0.28516756375909591 0.74957314305470013 0.95318491536249583 0.38637444055809761 0.60311587510825981 0.4656941116813067 0.12151202522133507 0.36846654598044326 0.24333066585409222 -0.033806770956944183 -2.2444193232883651 1.6973506381109755 -0.49729491802188719 -0.79283279222373282 -1.4004602283745333 0.83977498775431891 0.62721678244809742 -1.130339207528245 -1.3508350606316972 0.019381871882316958 1.4005439941888629 0.067313967348027207 2.4209652014573426 -0.74167579141108886 0.46854459711863128 -0.46991988959301778 0.2351310805406176 0.89622016759818213 -0.60513963787021241 0.36111727486205003 1.0230232837542788 -0.072037935766442324 -0.50431438404338447 -0.12069722646236684 0.36143872271636074 0.033544285739360614 0.22683577612840206 0.26351761333194684 0.058146789391415106 -0.019221835912050372 1.4297052872980949 0.82270460904295617 0.55098972458133866 1.4526969969099741 2.9673069199273221 1.8783876517097973 -0.39167581534615031 0.55432576199941996 1.3574137708049689 4.2807954944810644 0.14711205918706982 1.7750409037690236 0.80987505100810542 2.686597543362808 0.50436273903453632 0.80905617088697501 1.2729311261614407 1.2120507755115086 0.60682677054528478 0.54087304429970551 0.95625817819962933 0.4781896030826342 0.65094759148874204 0.4163163148789108 0.88867304161346672 1.1783573997365198 1.2747726542777849 0.8938177255753772 0.041943095491348198 1.0271820710463035 -0.84342183144247984 -4.083383698490084 -0.88912191211843428 1.4897319864174325 1.1449511786123048 -0.74438096563200706 -0.23882911398903794 -0.31656730999363181 -0.21349474816034411 3.0293244788265712 -1.717629869959328 0.78744152998896633 -0.21928601161151184 -0.045557966377349983 0.74698126533261111 -0.19898833766034649 -0.21940373371215524 1.0322953782280644 -0.14502993413310497 -0.3799693517575562 0.035253059797280384 -0.36057922407032483 0.49564825730142603 -0.6095550905731375 -0.72035648115504891 -0.4447407068045256 -0.11303971600695836 -1.2557338795517834 -0.4994592731103682 -0.85558548894582598 1.4085532391815969 -2.1395091909736133 -2.2504018244306225 -0.69998419609132601 1.7294173681183123 -3.5722703403869085 1.2693184509616344 -1.1379972649509942 0.415397466109166 -2.1847392356952176 -1.2331235956356343 0.26793552945671678 -0.45501685604700187 -0.32973710864412431 -0.06354357839744175 0.23915068543333839 0.28560007935137766 -0.1578800749661689 0.54363100021538646 0.86153285193865581 -0.49472637025421301 0.078287712632016518 -0.082809503530920217 -0.057873475490281913 0.13815757050523883 2.4774902170835431 2.1336789105139857 -1.5883398873326646 -1.8812386253674942 0.41435246850160073 2.6185656199050635 0.59668312446583394 1.7631496153251816 -0.512398595247752 1.5909888309754945 -0.69998800632594937 1.8051620808261555 0.96195104408723453 0.85624868720361702 0.88255950800315364 0.38078492972929207 0.83286886086913159 1.1001974906066738 0.52693286137259976 0.9546204580209201 0.38951324285658073 -0.0040218388370724051 0.33943520460928639 0.27251417594305194 -0.028005738970641507 0.10511691471218633 1.2681679255407565 0.68480030323829932 -0.45746198436344099 0.91985931120553066 1.9413636908777339 -0.28141953041032552 3.3198771595806078 -1.1633498491590735 1.5161879351032133 0.72319875292494096 0.91810273226501316 1.3344802807606519 0.68165624075129916 -0.19382499621216778 1.1864897109671013 -0.47536556501997035 -1.1149871030594145 -0.018242196279933193 0.48072079361576625 -0.12294694736971731 0.43228444174466923 0.36422113570413039 0.67303156660795616 -0.066214752299898677 3.3625244741309412 -1.5414597478772758 -1.0015906825062946 0.80998027710295972 1.4894490828330811 0.28512181671151632 2.6374399499798504 -0.48934863151162755 1.3692598628659984 -0.24054711648913185 2.0373348644653606 0.91210469279151396 0.70276417986157524 0.68826788968860908 0.33071130051146713 1.7534572670755471 1.9892096437072928 1.6431159839441323 0.88926134477453167 0.78743331739316802 -0.67733633568493956 0.1131311017900683 0.21561346749872654 -0.069734949359096174 -3.0041968768869722 -3.0521187810544443 -0.62775418355111945 -1.4920174021893451 -5.0935759506655174 -0.29678015710803513 -2.0766928041389137 -3.9908048400459837 -2.7008098041471835 -1.8576274490236706 -2.0613695318449388 -0.93433742095137573 -3.4983167382259275 -3.1744679743485982 -1.5996492826177975 -1.0324800620687911 -1.5948973601944969 -0.62179941713430464 0.046485730142623388 -1.3435308030309763 -0.14487002729826398 -0.14531600142793064 -0.13088800857125643 -0.083839296504612665 1.4002156028312269 2.2229093108674953 -1.5685701420798794 2.1654990294246779 -0.4303936895795703 2.316284227894847 0.35952216104332468 1.4789467738204627 0.63023987866380882 1.2375598797411549 0.62181637594874095 0.24193833185566743 0.90200381372310778 1.8912883335027109 1.1355056947578692 1.0763530294324013 2.0262610984467164 0.41926887028511406 0.50544027673008307 0.27793433223758812 -0.067003435984320306 0.58033246773457081 2.9687655373695958 -0.7992679021829473 2.4797259846931548 -0.020207392552668447 2.763756883147094 0.62302673434196165 1.650178317821138 1.106089482716101 1.9275933434647232 0.6768791831733636 0.89639761004416463 1.58588455430964 1.5071661367134608 1.1723450366014037 1.7386517148099989 2.1876206510804681 0.30039107675703325 0.43265940882561604 0.36325821603348707 -0.0035620442382074111 1.1188260202959039 -2.01997418398668 1.3975941566981029 -2.3858427048071817 -0.1910213879435862 -1.2073610268932449 1.1599280436068953 0.3840943216774772 0.93672811910635378 -0.46373230896988676 -0.11936060859784539 0.45811956648558405 0.8493533175075314 0.023795919600154664 0.50642856274770998 -0.94616885826704666 -0.10396091797583541 0.46662697235363443 0.61154970540720421 -0.10608137350727344 -1.4340567367809998 1.7365795375611632 -3.8032750685837891 -1.1820419963585045 -1.778101404918345 0.90368439480094742 -0.50717499647237918 0.15804078098344315 -0.896513755684201 0.94597714149002599 -0.44385822276954234 0.020530785407206882 0.036822628853045151 0.056217933575624657 -1.7451366750840469 -1.8713081985577358 -0.70790471256658483 0.025051045580684959 -0.10091634467833473 6.8439518373157799 -0.70753635305170515 2.4550674558728662 2.0522953470545757 3.6349111641204401 1.9145292697138538 1.6327556516695692 1.4676262300110807 0.48744036280147612 2.2879281336250692 3.2460290428477645 1.6694298068152225 3.4150875736136475 2.6522116515250085 0.13916369655392027 0.35954653137934117 0.42940010965414055 -0.046096764039031651 -1.3346693706410424 -3.4444595940722236 -2.63636694193919 -5.3075462305855172 -0.20156207180096228 -1.929370528335882 -1.2687104530210696 -2.0212351414401524 -0.64096569130725367 0.42088787203416911 -0.66314678794264581 0.29936764743578259 0.5971159211718956 -0.74485675501173632 -0.48977171718469331 -0.47634483201389127 -0.099994401774500072 1.4837187391707787 -0.14199079029283582 1.2011736686958514 1.1029511982752449 0.94356115226615489 -0.073483847863046015 0.42926654507094592 1.035553331463416 -0.8912897528224758 0.3558830772015561 0.25698954988510531 -0.048967106249106385 0.46088576566849909 1.3044253749346186 1.0247699522127349 -0.021529511840102052 -3.0813288952687121 -0.70798509909673391 0.11450869021686022 -0.39034559904818789 -0.6777845558428961 -0.5065759072961864 0.36768941683604472 1.5196900769019877 -0.088658711446546815 1.7100352485266646 0.010833428564273384 -1.41568889401424 -0.47461842822273265 -0.23267252062088531 -0.096046728620089547 1.2669878139737205 0.64476054099211466 1.5933740329429118 -1.4832531086943501 -1.7564361198192153 0.64616374749446981 1.6892578430690111 0.88970471612178359 1.0704055431707371 2.7425375789054014 1.7566580255267856 1.1052698205062037 0.49443402125414193 -0.089762071605998625 0.49721784453698931 0.7227291578694881 -2.4085470385070931 -2.2000743666151825 0.039342538793297473 0.73759776775978869 -0.27649412215745672 0.53910056664231532 1.0584215959604062 0.31187174501798381 0.63953702064307616 0.29563450379390671 -0.079925176484185859 -3.1474071930977852 -0.15334484156515379 -0.90432354213508348 2.3334206424614465 2.0753710554243199 -0.37072289676423914 0.66289873202663596 1.0864548333237252 -0.96952203443005935 -0.26820489263311637 0.0077206284352363333 -0.12668086136391773 -1.0233380837920514 -0.77564751331472315 0.36535319582664516 0.27799703138208826 0.15069928416448519 0.098478152489256732 0.26477878626328821 -0.20892732417518278 0.18947198826910749 -0.052563231571012163 -0.089847807924709505 -0.89650592780990357 2.6050883199284045 2.438024306669818 0.54320330238378167 1.5833951475059476 2.653722432272255 0.68828308267846694 0.88190993803305984 0.63738283940258644 -0.084185719025641342 2.1839791960655517 1.633593173780147 0.80335180948467466 2.116469977923503 2.0225950614359056 -0.083307344290935753 -0.22214007654748036 -0.12416939424474151 -0.052032560140129171 1.5944100281893201 -0.30290806899580336 0.5237082774241465 1.9357653988855419 1.2200974773943396 1.1867869961526643 0.11983954183657332 -0.089021533388038948 -2.3817091249595119 -0.57196796978313336 2.1943329984502666 1.8556479052588026 0.9449623215460482 -0.18548532084985148 -0.10067602041505951 0.92753705216559634 2.5718783179982792 1.5272129304499069 0.94211596435587475 -0.23822641703556036 -0.082192095556671008 0.6819917582416386 -0.70151811336718117 0.59670916294049525 0.98020664158107429 -0.13743591656802948 -0.53454234323313798 1.1175719944211171 0.23192179429598761 -0.20270122470591548 0.35476445444395427 0.38396019945196819 -0.05308660889295147 -0.70183301649339003 -0.019522780307612952 -0.067395600522575594
label 1 2 3 4 5 6 7 8 9 10 11 12 13 14 15 16 17 18 19 20 21 22 23 24 25 26 27 28 29 30 31 32 33 34 35 36 37 38 39 40 41 42 43 44 45 46 47 48 49 50 51 52 53 54 55 56 57 58 59 60 61 62 63 64 65 66 67 68 69 70 71 72 73 74 75 76 77 78 79 80 81 82 83 84 85
probA -1.8373076988916448 -1.56464521372749 -1.6598423344822912 -1.6051987725593897 -1.6584526524476368 -1.9255205706773308 -1.6156272326721681 -1.8191051881227358 -1.7219026893132725 -1.4890444456509033 -1.6667416607134984 -2.0216973229832114 -1.70070461956028 -1.3127407678623386 -1.7040455700529267 -1.7809771508866805 -1.725636851839276 -1.8193989124813577 -1.3822201928319564 -1.6451795885483205 -1.7812912659890414 -1.6827018934449327 -1.9295918281090205 -1.8467574032870615 -1.7331296806096357 -1.6568243563561209 -1.8910226778742274 -1.8310924169937954 -1.6958859917197115 -1.6658930702450447 -1.5893763235158906 -1.6691532792852208 -1.6438663304476369 -1.5091282507828632 -1.5835036429257585 -1.7925751198840831 -1.9676845203656759 -1.6983188632552957 -1.7000516813690147 -1.6784243068483213 -1.750453665146402 -1.6881153512029454 -1.720024015734493 -1.6687501746832496 -1.6799520280478999 -1.7780938067907626 -1.7999273141233147 -1.7521867642777196 -1.8161660512889211 -1.6371249279466469 -1.7133912790782442 -1.7269487603636713 -1.6523930551297921 -1.6487733041657546 -1.7389858675685157 -1.8448702234841994 -1.7494184510537985 -1.8109907411772732 -1.8743579816816796 -1.7995024986537704 -1.8678745565394101 -1.5520030800903395 -1.65890207962506 -1.806739424177445 -1.7610221211215262 -1.6808725872248964 -1.7634206566599293 -1.896260036328997 -1.7859680585099131 -1.657781715954356 -1.7187608737144153 -1.6964342511209936 -1.79725700445751 -1.7654533480370587 -1.8168716164798004 -1.7843143088364637 -1.8077153361222544 -1.7745445239483812 -1.6991514521879529 -1.7665403428721629 -1.8701027374458008 -1.7926119414325341 -1.9629951061359818 -1.8103394560780659 -0.10408111703639285 -1.0524558261587615 -0.70161153662817732 -1.3096339017548535 -1.4550412807896007 -1.0241323511096885 -0.82355681940199188 -1.2676034410147095 -0.52289883993442232 -1.6394881345597492 -2.0606792062055375 -1.4013077854146798 -0.90436815478643706 -1.4002278946257665 -1.3480392898164906 -1.1449141912305751 -1.979437661132696 -1.4166767410857903 -1.4323059731189063 -1.3500746146885989 -1.8518160966184323 -1.712944829248491 -1.8437530293068707 -1.1650234041000309 -1.460036858446625 -1.3663129986393627 -1.9443768817260521 -1.9279498143729028 -1.2203545887364007 -1.8506722515274989 -1.6956819126839935 -1.4886993149145806 -1.9572226045944947 -1.9606236104920263 -1.9755967676773041 -2.2755751977746432 -1.5262778935778867 -2.079718487169059 -2.0347387433363924 -1.9211734655796222 -1.4573504502152927 -1.4498282216436509 -1.6479522540812006 -1.8094977264789727 -1.6098065179788001 -1.8374214483741003 -1.9300330219105339 -1.6715909746584223 -1.8114108383195979 -1.8000541177729961 -1.9917403002256722 -1.8930412770408789 -1.7797278898384685 -1.9730581481257117 -2.0610781075632021 -1.9704130410619718 -1.8148431680834376 -2.1079406125331408 -1.9180735100622794 -1.7837959593743955 -1.5932598910946445 -1.559993907143715 -1.9888010485972423 -1.81256070428123 -1.8263054264997396 -1.4301858797412137 -2.0089223208552927 -1.3536859197433775 -1.6348176263606757 -1.6317667885574407 -1.5765761389241906 -1.7903100831384395 -1.6594394104658836 -1.870665881463998 -1.7166515026327058 -1.8110222458272625 -1.8477613019523513 -1.8730180331699282 -1.9068910255374698 -1.7961102175032446 -1.7531695590851402 -1.8990832236922341 -1.8024795363333854 0.058727656305876133 0.70638484472591012 -0.40194296345627295 -0.73894788774608933 -0.80399917096191253 0.068694939601603305 -0.75146486483172903 -0.75345233558089608 -0.86710905919183767 -1.8669180569202206 -1.0844019255437281 -0.29477345050428544 -0.5563810959591784 -0.166744271071949 -0.92016556134011662 -0.86104006396860255 -0.9093081787924201 -1.509524355821912 -0.70348160400406223 -0.43973304455400625 -1.3134084048458186 -0.2737683844835011 -0.23978756537132662 -0.50314187378576314 -0.59538269160141277 -1.3321705052939388 -0.97940587371678889 -0.55681041269779064 -1.1851749126206104 -0.38400615041788227 -0.98321047915811521 -0.99506965709232731 -1.0973525289691946 -0.79305399613380911 0.034469073792186042 -1.5778291881810402 -1.5189033128644629 -1.0636689037097835 -1.1504478101672608 -0.675313902988949 -1.6910131977991905 -0.81363103041014539 -1.0467925235125803 -1.6928079295647236 -1.7636849872621654 -2.0794676758010286 -1.992868847330008 -1.1156593935936912 -1.9264048380121404 -1.7881114493946579 -1.4998415983513247 -1.349305816632369 -1.7471102042082793 -2.0998865330666376 -1.5296039422345082 -1.6141578700522761 -1.9302029448459783 -2.0834272528942823 -2.0635875633893552 -1.3455217215815365 -1.510645902999826 -1.6525435290259438 -1.3626813443686459 -1.8187541826955471 -1.0106644256792978 -2.0157603780235589 -1.8678938599265682 -1.7297806007004566 -1.4183350802929482 -1.6588377360857014 -2.0261820731890579 -1.6281300380648438 -1.8011373229079943 -1.9439781602392134 -1.7101747390523478 -1.8884938731189118 -1.8325240195760752 -1.8610967088899046 -1.741152710749523 -1.5660477108529662 -1.8107560502090292 -1.8155384231364327 0.009240364405843254 -0.019438918199662668 -0.25592263417367944 -0.62386452532079029 -0.37034892457722685 -0.78967824992535474 -0.44986109438931221 -1.121779730510081 -1.1480733040194735 -0.41377295000691083 -0.23923898480184635 -0.40279630085343093 -0.54822092959076851 -1.5237386439850311 -0.30904057427319481 -1.1543738249077118 -1.7687663800353688 -0.65958759825080071 -0.93855326717093446 -1.0436252313253815 -0.78525520230485291 0.19799660415184372 -0.95623032786272566 -0.81426249505094994 -1.9894367686389196 -1.3202113739943546 0.19161392333859337 -0.2767861190244541 -0.42047172027608837 -1.3931115257498765 -1.1131083947112455 -0.93316524903052323 -0.57759601712115438 -0.89669966495734277 -0.2965989362005777 -1.846834271152255 -1.5822469287245584 -1.2118811393852853 -2.8470129920345997 -2.0375870789976407 -1.1956988655590663 -1.8066783685983656 -1.7278751659282874 -1.8060061328097072 -1.9582693547570689 -2.0091138074157846 -1.2527097548987616 -2.0237568867512139 -2.1039874172563224 -1.6337442443961865 -2.0654651564223796 -2.3407728777620398 -1.8793726332690075 -2.0982594008299622 -1.4826170650710144 -1.793567075452791 -1.9703228010642515 -2.1673570787900522 -1.7067583686288108 -1.7975903457056042 -1.8377834115997973 -1.680472473450437 -1.7804774295395351 -1.4697686058892609 -1.7675272422221691 -2.0009454085109848 -1.7422707430083957 -1.5372335914372224 -1.5712248950483978 -2.1788380447755213 -1.4793524351941978 -1.5456761536297583 -1.5491500606797075 -1.5696174581754048 -1.7842116205089358 -1.8591609327664658 -1.9074259623675773 -2.0701247991397089 -1.9589485836890563 -2.0071971197027878 -1.8135667096594144 0.10573590711428157 0.1668093497719344 0.27485160565723782 0.51229511377074199 -0.35863620121474798 -0.30506639049710121 0.11529143769314897 -0.29396961806461869 -0.65393475929070666 0.25616576553300674 0.31284570466169637 0.56739186731427149 0.59622509515565814 0.68884599526919477 -1.3508503226647239 -0.85217591463439613 0.42407546647564448 0.33164290635872012 -1.0052682173857426 1.3449505318074435 1.0387553460859522 1.0027248629451271 0.34429260536836243 -0.81849291455110296 0.0067252493962329154 0.32179147595370267 0.48040498156778816 0.15071396449123012 -0.11636285823724141 0.17456132477337352 0.15806254210304577 -0.48610308294541726 0.18445379543806778 -1.9152905850098616 0.56149658998939167 0.38136883180601555 0.14754338299724726 -0.96661915002189824 -0.031049338098879081 -1.1535477602284809 -0.39744747494926286 -1.1648159031198049 -1.045448174866159 -1.6753330602656682 -1.5277671916861817 -0.47554952042846244 -2.2290281233239693 -1.6059700125351877 -2.2562240959436139 -0.59914085002547401 -2.4505284461190917 -1.7830174021919618 -1.8020901577187722 -0.95297426714337075 -1.5684208440084966 -1.708209019547511 -1.5630720444373576 -0.95963312689334268 -1.5803853791320406 -1.8551162117134545 -1.3842169529950832 -1.7259506911600315 -0.87071561130358333 -1.6428942451739388 -1.5845261970842814 -1.6095035523944203 -1.211131920861787 -1.4266475469091575 -2.1193728321448497 -1.5212472221561761 -1.4280439306973916 -1.3722436637722639 -1.4759103947734777 -1.7464686561457234 -1.9096755474534588 -1.7871777200372865 -2.047223862618448 -2.071333410430817 -1.8950426052218814 -1.8174439471474897 -0.15155710092395841 -0.11288079134047944 -0.052275759400330156 -0.51393616807331699 -0.55025568782640266 -0.20941579667943663 -0.54072157032747847 -0.53083953479904844 -0.46326271292534993 -0.23397606810382854 -0.30267630080076213 -1.0700062061612592 -0.79206430982205334 -0.022247256571927797 0.0071805370411644146 -0.11800720348757365 -0.68059175848809816 -0.24362232051005814 -0.21286241267069539 0.16170985220128078 -0.11154742097344622 -1.0941167088971688 -0.59774396156368792 -0.063821469784049747 -0.1532827227759149 -0.068890898823525157 -0.099843279519009287 -0.54293611150501075 -0.32153173384168915 -0.35204673152847438 -0.15465857665104793 -0.11515317753511632 -0.23846440523224713 -0.44176324112433807 -0.39440775449596199 -0.19808254144911278 -1.7061699505304926 -1.0124428318470986 -0.53382657191285898 -1.6469353316946942 -1.2726414936402162 -1.3608051649090334 -0.65821164483270977 -1.7023662543392635 -1.2923917769137512 -1.3155046936758403 -0.69948653150552764 -1.3703554422404607 -0.50136987846331427 -0.90134482125483262 -2.1019771411710582 -1.2963356375915651 -1.2154105922093337 -1.441039347938351 -0.66388491369950797 -1.8463840527419941 -0.82143563386158769 -1.6933987317846981 -1.5151726264380592 -0.87728727312048194 -1.8122679388704745 -0.35741282566431493 -2.14943553393464 -1.1484579677331923 -1.8435785563543357 -1.2533937408673754 -1.2262946340633727 -1.9894573741250665 -1.6275005851070328 -1.4732337391192221 -1.1447076658444355 -1.9384449296187605 -1.993257687048247 -1.7120548378389537 -1.7916167557592462 -1.9667231233189579 -1.5641298651494238 -1.9699698859139734 -1.9101850434646666 0.32933396981703322 0.55236389355860727 -0.93231700123703332 -0.06468702275252769 -0.19482153039323455 0.55394805995734009 -0.40512040280737494 -0.08562319557948142 1.3476691448488409 0.62096095616903546 -0.32513992295344107 -1.0731702339113571 -0.26765826336222487 -1.2858352167476814 0.93478179308147957 -0.5525500306204113 0.28293980632751042 0.045359301760469151 0.74876986097610587 0.7974195214331089 -1.0183999689664542 -2.3462822449534246 -0.7769387848133017 -0.60653165948959653 -0.42201439088294856 0.94748331029418009 -0.7939569364426815 -0.48156700554702841 0.50576385617095265 -0.81161126669021422 0.29481902841076463 -0.4531750537240507 0.76203009358318019 -0.34250609620407912 0.34724759154270013 -0.97598228673087428 -1.5474981325554598 -0.85168064455030168 -0.83010747985230682 -0.93790619046767598 -1.2457515609172241 -1.0625169147681304 -2.1756930319015337 -1.2289840692980425 -2.2088339859305433 -1.7232030807322758 -0.80699196691526043 -0.64615616659439212 -1.9766671716179178 -2.2502075775267523 -2.4682450040262278 -1.1294162771267036 -1.9695913376889869 -2.6710376790462025 -1.8238053872117772 -1.738354440597679 -2.0425588162121384 -1.8704971406752056 -1.5155192101305599 -1.7327225048083981 -0.90729549314162183 -1.9049804717827605 -1.9463283556820967 -1.824516056860827 -1.1860390210022365 -1.3446316693819218 -2.31419808870504 -1.4837537393131734 -1.9345561673352105 -1.6203489298088016 -1.7685456301552724 -1.7909842793786561 -1.7781336830071144 -1.6729943598857435 -1.7743312365240709 -1.9340005834170553 -1.9767356889088017 -1.8219068392621105 0.56519228459519277 -0.55133251846673581 -0.37869350201594909 -1.3102182999209073 -0.10104223960840369 -0.70256650423063005 -0.49401886554273566 -0.44465023951911475 -0.29117598255110777 -0.40837356344466502 -0.30362419341393271 -0.76984959902629457 -0.41317432879661842 -0.17587321873026207 -1.5096257568221818 -1.3717038518457243 0.38200476149558427 0.52790896584181135 -0.52857378671271726 -0.089791468024319615 -1.5658014719242312 -0.99166222616616673 -0.38266538607737577 -0.3542123431931285 -0.542975793491839 -0.5744190860726367 -1.2823109378080624 -0.22315631246322629 -0.88040638218422695 0.45147228897439923 -3.1531768876924904 -1.2309672603680464 -0.71176454947462853 -0.52169075933807296 -1.0088323129337624 -0.95320867207975057 -1.3228485451950056 -0.49434281448943224 -0.95962611907717998 -0.76381839961367048 -0.77109433286763163 -1.0606903501914957 -1.0412950560093994 -1.7119432104657588 -1.9169147888525289 -1.4707489944973011 -2.2202467663939851 -2.0098623577908623 -1.506822641051353 -2.086246662366801 -1.3054826506445785 -1.6395607808765107 -1.7949765133071123 -2.607422615566763 -1.6297956344971074 -1.5425833026863265 -2.1015664895895791 -1.4941168267914569 -1.6463799639601893 -1.0879087570796984 -1.599026705190348 -1.7330241075563786 -1.6873935242242726 -1.0601641664393273 -1.3754608611606838 -2.039906410843034 -1.1857631931810941 -1.6724176338278103 -1.3455945460467293 -1.5007788662402708 -1.8201621356843338 -1.8784870644160383 -1.9051739247843638 -1.8652294205676372 -1.8513583590387681 -1.8509015361612533 -1.8330869028953536 -0.63867852585121088 -0.020655277774720975 -0.71733794787936433 -0.17254771128537169 -0.71893166939240927 -0.2814149191126834 -0.23160707628296051 -0.06620676183182754 -0.92909185700524155 -0.27016196927576897 -1.140050770087333 -1.6331012677769532 0.11904148296946226 -1.0926262802906852 -2.5063831419007054 0.85086846118194637 -0.2030067934570581 0.26330007582689252 -0.79826907403298375 -1.4886532890584812 -0.050293690022707907 0.18543100654682118 -0.030710573979801221 -0.090900886364223443 -0.46500646566597115 -1.0031156247742077 -0.68646826854592213 -0.11982677102437267 0.31558749621830273 -0.60166429781885511 0.68186424269729351 -1.229182404409116 -0.70147762714088624 -0.70710526494795989 -2.3779572104569504 -0.41911765735654399 -0.33269910990785129 -1.1415429947292148 -1.2425216405439665 -1.6893396220376187 -1.4317553705038302 -0.7363996753042561 -1.4576593841289971 -0.4715610276661466 -1.743928850265595 -1.3069146666964055 -2.0972640657674337 -1.9503575953920813 -1.8890407802453462 -1.2703968595412189 -1.891139395201362 -1.813243296704125 -1.6263847040687363 -0.79910309648729771 -1.5125366030034797 -2.129322860521961 -0.99901528167930165 -1.759770060727198 -1.2597325715383993 -2.1188248267175673 -0.68381775520318999 -1.5424134441884869 -1.3210766448845388 -1.4109099294668381 -1.9380982637056321 -1.6329875784353478 -1.7960852378101533 -1.719255921012202 -1.8362322915662117 -1.9767984267538083 -1.926049130779008 -1.8508810540146017 -1.6914481246680986 -1.4934841353774544 -1.9816382252996552 -1.8218943708085635 -1.5868571542140304 -0.83022134059593689 -0.36721820502584496 -0.91449132122297017 -0.36462240996962136 -0.065589776408398665 -0.58084771910219291 -0.24479826042018918 -0.66645998724534705 -2.2775074125800301 -1.1189692629172585 -0.43239763148779831 -1.23462434618046 -0.81492382362445559 -1.1946038976496496 -0.57661010378331845 -0.48917445896346207 -0.88792078176941325 -1.0897577585243379 -0.75427882579570915 -1.319629440696352 -0.70633615611997924 -0.77270599453401234 -0.79539788897559482 -0.99825725129699427 -0.98328608222841207 -0.8156522167086947 -0.38690278653332588 -0.3467675057106071 -0.4355762468476671 -1.0420275355582813 -0.4266284123543207 -1.5483885645635675 -0.68567255940525929 -1.0143689587209679 -0.92155751733398072 -1.8103367955745109 -1.9852059404078479 -1.4183592544560795 -1.8955358938819242 -1.0664314504582766 -1.8752829585014981 -0.81427626575727119 -1.3481838629677836 -0.52752124590166227 -1.1495194785211387 -1.3651655066866257 -0.76270783609991655 -1.0494261039478625 -1.8373699367645819 -1.0432371388405188 -1.8313132715704903 -0.89492241256129568 -2.1356471065845342 -2.0527799135027509 -1.9479804076695402 -1.8065629997697392 -1.4531280813579803 -2.1996619362682579 -0.73444623135343523 -1.7841525724645948 -0.94811333006895793 -1.6879985405367277 -1.1873834947406301 -1.7441913493763093 -1.8728394149068277 -1.7244868234422877 -1.8768319082330924 -2.0907579897919288 -1.8994266703487508 -2.1407135602302585 -2.1789189277684131 -1.9636767425500075 -1.8711914214723919 -1.813356307779225 0.26411739254086464 -1.2791710085413794 0.59743534586206759 -0.060543072848385858 -0.99865154156956271 -3.5706779525054073 -0.16303558616966501 -1.509498683270039 -0.073866893072566928 -0.53201762939428687 -0.32471111469520436 -2.6736364219528972 -0.26594270754187549 0.4297180283218327 0.23581804690870545 0.4176503338541197 -0.071573111489564648 -2.4901736170929549 -1.4533649328655265 0.93474894677629983 0.32808980669497889 -1.5296724320429931 -1.182587726808662 -1.9302985531086794 -0.79828337833895302 -0.94084657096831137 -0.87575145535416898 0.23918945359372637 -1.5586350922275591 -0.75040879552229867 -1.7808478887967634 -0.61638474800395304 -0.82529055859605271 -1.9565847950174571 -0.95200321407936839 -0.51109164859254774 -0.43207370593411742 -1.8161847129667761 -1.1792802713971453 -3.3170756486950213 -0.27696331682766662 -1.959740288610623 -1.6308985298869925 -2.1405226969053137 -2.6660354012429504 -1.4623898743800579 -2.8252732436369739 -1.6058764132573191 -2.1279851621139767 -1.7478371657503906 -1.3865415707955655 -1.9967504216136145 -2.781829006084271 -1.1588839486850784 1.5455053368106726 -1.909997548983609 -1.4393048238801596 -1.4049906032809676 -0.75182003267715702 -2.603549143603801 -1.2176965667975803 -1.3851747361259985 -2.2589068501776022 -1.638763050442662 -1.9889238471231259 -1.4331486778882414 -1.195750061018096 -1.8358351960788377 -2.0655269293799812 -2.2696354423234362 -2.4807599292544307 -1.8584370278192492 -2.0475257470503232 -1.8446251456580021 -0.88749028019915521 0.036114707522051412 0.041849798668121413 -0.33370829074138975 -0.30731677935628354 -0.35545870964324983 -1.6645224003279104 -0.29742223215803981 -0.42025376130703845 -0.36887874755072159 -0.88296623695556931 -0.1242590382115677 0.21863481097930093 0.12717003726006146 0.55284548824924373 -0.5049105273165384 -1.2117419996660117 -0.23795189758221019 -0.16118139720054653 0.36736735734199821 -0.071280387393361844 -0.17935470251348012 0.54381890199546501 -0.32088098735569476 -0.59425119374970314 0.081722507635024283 -0.44469318431308835 -1.0532410021174488 -1.0043255262158663 -0.2504778368720123 -1.024654705717398 -1.4245971802710966 -1.1590921134070222 0.39546548609102922 -0.44923735554330541 -0.088747763408199787 -0.80561038118428219 0.17079791211637735 -0.39683742456245225 -2.2689146543086078 -0.48199836250572731 -0.65667766597954902 -1.6806374381109943 -1.8831509086675251 -1.6715293564978793 -2.4747429156493483 -1.0256441328602983 -1.8902325198803605 -0.072153471484776285 -1.1671500928664278 -1.7950118682784735 -1.8575775741980425 -1.4983598811811911 -1.8703778652834431 -1.6778702868824846 -0.78036451052803779 -1.4451732264073158 -1.6970191004514352 -1.6287000024349252 -0.96187047148511584 -1.182340777107131 -2.2837364630263162 -1.0908985757290746 -1.9514843676636575 -1.0002538546883404 -1.4061896772529077 -1.3111115404179514 -1.7691698995596459 -1.4270465940222241 -1.5596186018738649 -1.8324425697346307 -1.939299984087498 -1.8571371556285718 -1.13058157456738 -1.7001534272170344 -1.3693658113050606 -0.19789679760707876 -0.32038817179809997 -0.41961665602214832 -1.1190815075647995 -1.5459306655562337 -0.33582271398934971 -0.51399883198577423 -0.72947906889147773 -0.71218666149964638 -0.43157734047810464 -0.43115439204052236 -0.5385940132613749 -1.4310921299757224 -0.86135875295578834 -0.79575605865994814 -1.3611564696452056 -0.1344635123849601 -1.0787712896875103 -0.84013675188411008 0.507939954237286 1.2955363917885174 -0.0089583096257086041 -0.9385258333492188 0.17746398163663171 -0.50126479009433789 -1.1044254498838253 -1.3295099052666206 -1.2089432667720057 -0.58453496784023662 -0.7608638369814783 -1.3928142132492931 -1.903390321700253 -1.1511736770534868 -1.6036489121814133 -1.2761860537395884 -1.43194768218906 -1.8124138618437331 -1.5386336686321556 -1.4732114970254011 -1.7690958899569611 -1.6220740485282099 -1.9578266357346443 -1.2921207151927425 -1.4686303900456552 -1.2433606793139611 -1.7859134662600595 -2.3392713395896618 -1.6463932434637492 -1.5366594456314191 -1.4553224421622049 -1.6082923116471919 -1.7298317217205414 -1.6035524583001106 -1.5321577035422937 -1.8739081344909341 -1.23210231312608 -1.5208862924805948 -1.8060751339794821 -1.6336742684920851 -1.6944402968767283 -1.5507919631695875 -1.6171079767973187 -1.8062047325852641 -1.8332395545061611 -1.9134189183166814 -1.8532595329611847 -1.8003249487949147 -1.8030230973215213 -1.8231423790463546 -0.75604600812374734 -0.53878683538157923 -1.1692196928871532 -0.1483182979675228 -1.3611085465108774 -1.7158079895153548 -0.73447848858024545 -0.63883363471871479 -0.94803624916783702 -0.50895286193732237 -0.12599676211713642 -0.43328388067864304 -0.23125528680324256 -0.50391085526084067 -0.63171188786363075 -0.5417366197613338 -0.50674913688745948 -0.11991106498932855 -0.35456339328847153 -0.86345571311805969 -0.64700138157507736 -0.93764372474224178 -0.763944213262581 -0.92798965789387033 -0.045410028329970466 -0.88741178376196128 -0.7607633690558534 -0.6408050312410577 -0.68832642042659331 -0.93389621546302548 -1.0044789501184228 -0.46133761548662944 -0.89718051826303213 -0.34800406127735184 -1.5275653142379719 -0.48610483513901648 -0.84780166625677567 -0.69990223674874286 -0.84724468018325372 -0.90049066646247755 -0.9121779594592837 -1.1972340683604776 -1.3198598901733074 -1.1763944804296795 -0.90980752453028602 -1.6989850982634807 -1.1737899994932224 -0.80742036396356465 -1.4496684745152701 -1.7857888106144004 -1.2610189647687873 -0.22692569114420255 -1.6895279001213781 -0.79856696565237373 -1.8556992321272159 -0.79821063040866624 -1.4993406767425281 -0.84671863662824831 -1.2517520786126584 -1.3745615359792214 -0.99162933465004155 -1.6428061107804426 -1.3745058724908723 -1.4908683277768839 -1.5686283903039637 -2.0855003780848813 -1.5061811842710047 -1.2371428470725028 -2.1155662344462645 -1.9001082322890885 -1.813980043801648 -0.0428782636727357 -1.029781668075991 -0.53242901790673547 -1.4549196005412157 -0.42147923087128542 -0.77858092879364127 -0.1269091412180218 -1.9084863259353557 -1.1989650347076672 0.3639962523977448 -0.68328402486978257 -0.0061851969366834951 -0.31092059319681153 -1.9354429220553178 -0.091249788503413226 0.14599656761617805 0.14547891754393558 -0.50233404073373245 -1.7976414626811574 0.39174918993872831 -1.6554080102998225 -0.97195654746930649 -0.83950161010559254 0.26932931156218476 -1.5259748526122168 -0.02542898968865219 -0.14928954346419318 -1.662905075035378 -1.6269569111141962 -1.3308343231208752 -0.81339439203440167 -1.484106149691429 -0.9557233096319504 -1.4215396064401566 -2.4003584937991214 -0.8040850433496638 -2.0726755336424731 -1.2431512709004664 -0.65610960470808422 -1.5595791035526718 -1.9092688200351158 -2.2559146609974112 -1.7688720141463736 -0.93401789361691345 -2.1249695300478271 -1.1170036601746061 -2.0756470107163993 -1.6877040579538736 -2.0642511414147924 -2.3238659937331123 -0.7868590089982187 -1.8529752601821134 -1.2101700892288545 -2.0027337267076306 -1.5682138814601121 -1.8115617828313102 -1.4676885035070411 -1.5539878431089438 -2.1332237032674737 -1.6244226947995422 -1.6677054105378604 -1.7083790103437484 -1.7898923565714457 -1.9811868889295501 -1.9478964122241118 -2.1988669023053369 -2.243954678335446 -1.9700062569298022 -1.9451793415898433 -1.8052096292583226 0.31812584345301609 -0.58175736980788872 -0.57266034247524977 -1.6597991085413133 -1.190979024866422 0.15870189058096223 0.10426685246216426 -1.3675181022987868 0.88882325604895551 0.5199635570451081 0.88877445996560944 -0.36222030035813435 -1.3164939238886204 -1.3149616867918652 -0.14769367682440906 0.22169599716890015 -0.13497525030531135 -0.23305948820497616 -0.20355306576652299 -0.60426146791306978 -0.53801214274614373 -1.2157136602352061 -0.69204847122457713 0.048657687776426935 -2.7600179406743028 -0.06934193838053232 -0.92207351896049794 0.12285727682573838 -0.87326204623686465 -0.088909701726172463 -1.4923249419152813 -0.84064055041115471 -1.5158633190053548 -1.411290510235317 0.082698150797776426 -1.9000992443431721 -1.5613062531901352 -1.1190938063213174 -0.68823137132829049 -1.9969593641704215 -1.9621358522401273 -2.0131194679051494 -0.92362343751001053 -1.866020666828321 -0.77063954726977046 -2.758168997853788 -1.5081630300007423 -1.5514734361649993 -2.0642848265781262 -1.066065535619684 -1.8135457150232208 -0.79361197342272904 -2.0363898301082854 -1.5545668753305844 -1.6650709809754889 -1.4754695519733148 -1.5002953173581037 -2.1978567758700387 -1.5970701928679885 -1.911303728173162 -1.622154825380238 -1.6211866388071166 -1.8493427434838761 -1.9626151380155816 -1.984565761733307 -2.1646107568510171 -1.6177167075104348 -1.9341510501360966 -1.8066241423845875 -0.19776109648142684 -0.19576203227599617 -0.65438818815244559 -0.66592112602817144 0.2179489412266559 0.3344938636754069 -0.212008805584984 0.27896149512113871 0.6173392995720155 -0.0121700917519602 0.27626619056133189 -1.0850942857376238 0.10625403138931827 -0.42786059278273991 -0.025235965337895908 0.18282958199962818 0.066544954444951468 -0.53163280015649617 0.20125407779061705 -0.020334138724913971 0.07508086993288636 -0.92397767871076686 -0.19429228170112556 0.44609236656923401 0.1255731993899579 -1.0299533251638189 0.31192437060402634 -0.79575370262703726 -0.45750691507215013 -0.92706742730801561 -1.0443694604359182 -1.7216141744518272 -1.8263643311175619 -1.2941853864117923 -2.1895033699095205 -2.6019104816718941 -1.3037242140243632 -2.0179912992551858 -1.7879070114242965 -2.1562196389218626 -2.2591591649607961 -1.4142864410202787 -2.1943947393171865 -1.5758463523433883 -1.9343313378344884 -0.88338811200880873 -1.5001698002865478 -2.0372867369189263 -1.9933995926694521 -1.7055416624590971 -0.83958761755538069 -2.0361205996690588 -1.9674912861018397 -1.8126080220475984 -1.6401648521891474 -1.526271289146564 -1.1959338820295922 -1.6527449093491078 -1.9102023483447212 -2.1600434118007739 -1.8413723157976516 -1.9243798649457824 -1.7774404146726932 -1.9981647288211259 -2.0638150986104189 -1.9546617827394668 -2.1103234065988619 -1.898117597605284 0.0018488452333792337 -0.03695294074929123 -1.0406653297882771 0.5972983539982909 -0.59228327267445224 -0.57463405939375023 0.12843670945146646 0.43924686680245179 0.036915900236063184 -1.1194916304318574 -1.4678450006544224 0.23849793730799546 -0.93006590212929041 0.049383199104490141 -0.58412736841053792 0.13397355981155937 -0.77486366128950013 0.010978623575046656 -1.3140506654692385 0.0085325923060957619 -0.88294899910465596 -0.28185019775681752 0.007785593939555348 -0.94598033181123231 -0.54927209002928212 -1.3287608490567426 -1.1177825013337059 -0.63012305278882663 -0.37453383707704291 -0.43131112834359264 -1.1817156655293666 -0.43385142240076024 -1.1170182662474275 -1.0686786137966664 -0.86319636291470581 -1.2060317593328356 -1.8128600396976104 -2.1445480214018011 -2.0588710899025551 -1.239403363526661 -0.36546828846771318 -1.393161414997806 -0.96792503151062359 -0.86573985528525776 -1.2368557256946795 -1.4499359826069891 -1.3935314790747182 -1.2453880310210135 -1.388502235029607 -0.8290415086054973 -1.4242247062971805 -1.0084000323344171 -1.6151967333383921 -0.89808179504560093 -0.93971142084329318 -1.7727776947833145 -1.086937215539636 -1.9520384590087483 -1.3187058221012751 -1.116381996643139 -1.5004571804956177 -1.6134613447165249 -1.2650411092853899 -1.1385829772452003 -1.4472117622259506 -1.6441407412566842 -1.8485711094549326 -1.7791120504931661 -1.2302076812871456 -0.17922968576664847 -0.76102274343717458 -2.0595309003736797 -0.0089906264421209924 0.37181417590765281 -0.77469903864907474 -0.76331072111512066 -2.2040032177116964 -0.084859134174847195 0.83345875972708505 -1.6875520594100697 -0.29398589157288785 -0.66761184736938284 -2.0257811530818164 -0.69160684907946834 -0.33159192320404135 