svm_type c_svc
kernel_type rbf
gamma 0.0078125
nr_class 86
total_sv 418
rho 0.41439207437904146 0.612252107985086 0.31086359046911954 0.1694351602511745 0.32861257100506008 0.41612733752099546 -0.0071770555769018578 0.52435211046670427 0.44474214763859793 0.038255481779320512 0.10936772133416664 0.43099760000776532 0.24054859610365781 0.16284228918539684 0.33976863999055446 0.24028884503337503 0.095895841857916636 0.32477034938077004 0.20811049480151128 0.099627499480613099 0.22345422367319159 0.16820569477067435 0.28005504494437389 0.32134865995323286 0.37814156873626098 0.091289600484730879 0.28562138795325492 0.1188566121725768 0.031401359129585693 0.23878954627871607 -0.024497033419918837 0.26884063583878981 0.096653921849537944 -0.03792629416444452 0.3128322822857868 0.20983013125441558 0.37107584453164005 0.16185727161841951 0.15629645271468678 0.10227791931485544 0.56313527122846763 0.44519061049339581 0.26989484410650894 0.28357657067030478 0.098996768953865638 0.1730966909805747 0.13904368393178543 0.4785121581002591 0.14670561890196171 0.060870392788426417 0.4539362344054198 0.030669006354296119 0.016692448411915386 -0.025616115493154134 -0.02563549256564826 0.037063290435567248 0.17197176339534909 0.021251309575050673 -0.023280806768962891 0.17890655356483043 0.11274388036677634 0.19408899925550993 -0.01806217808870229 0.027296120040558369 -0.018799043723619277 0.16181710170893424 -0.012190755042785701 0.16606321667791224 0.11796500755962309 0.09329673753388705 -0.014880113358880313 0.15488150404532766 0.10581972396409542 0.043017644993989176 0.12638673870095585 0.14086834859487998 0.16614471229127933 0.078605554343513726 0.063202229788660441 -0.013184219735025175 0.069581908651712723 0.14559888653724293 0.085865119146307289 0.097883601396849929 0.050498915946029274 1.1894722546494059 0.76708813661933095 0.48564354640710761 0.58171646320281545 0.6686907360824641 0.27794977618124433 1.9693984581161981 0.8449971822069543 1.1936105598605253 0.12751477137475137 0.34408861751599656 0.48041380630363123 0.95524019742053123 0.35085223440831853 0.51901231714975737 0.68362777322545398 0.92540886411635392 1.2689428046492404 0.2425247380162969 1.0275692250560737 0.13910033773913147 0.93798210507560853 1.1547580110411895 1.1830813939272391 0.067870555585782602 0.6148099594548968 0.086633303017938298 0.34516016199249189 0.51115959289738122 0.62596673762998656 0.24975444718293127 0.23996517287340804 -0.33208582777819418 0.40693232970491156 -0.025108875598997316 0.58926580033991782 0.75709528905725709 0.55141006093694334 0.20604312432481886 0.42663077307412139 0.28663633797997107 0.49634633270692141 0.53150198520039516 0.10940764827597518 0.41773415140768488 0.26673502740983185 0.63755021613994134 0.32511426554979378 -0.10214177234681465 0.83435184834851117 0.10283482707169565 0.29807579895728997 -0.016054004658836416 -0.26668108666486068 -0.21217571782554479 0.45054567136520962 -0.064559435038211196 -0.038961614503944433 0.32788591029035735 0.36590966206834485 0.45223957088488403 -0.18658247990524682 -0.12407969663824152 0.028480096702099219 0.34441955060613927 -0.1171502306051761 0.46051903718002613 0.13101881558006065 0.10948539389531586 -0.13124720837917028 0.25457849074679578 0.22466760595979751 0.17427131052047837 0.14885885391271964 0.13566571007684267 0.18805293285698529 0.13209408346436752 0.1289077373029083 -0.014029087473926611 0.0030572978890442146 0.20159906966312097 0.30156689409302329 0.32057047821275642 0.031608400520046619 0.35045047998522094 -0.15908274754581853 0.84793786387341807 1.4553403530312097 0.39083697089403019 2.5641268329058486 2.1666218167332563 0.10189440421512497 -0.17372446921361337 0.95021454207192446 0.28849079954548124 0.68555113887444985 -0.67310249963552626 1.1563145815634961 0.87940658784515457 1.0901988223838543 0.82100418604173198 -0.037503106529470871 1.0270937365925354 0.12526273905956639 0.91073422472988164 1.3261407877200337 2.2032210447784113 -0.25241777743637012 0.49147064327560297 -0.05878685001477385 -0.36156120176234785 0.29831647275548628 -0.26387631532663214 0.82557214442562221 -0.16016205862865571 -1.068727657475272 0.73847967596028663 1.2218493474061705 2.2612556805196244 1.7671745649059969 0.67071929312806988 0.017847592397405184 0.5796753626469815 -0.1261669650713296 0.79178722544765934 1.0264333109729629 0.28267673247881903 0.24877122691982684 0.088661643236755613 0.6541189660533332 0.074741080230994905 -0.41063438475992858 0.73133294004420979 -0.46472661188318537 -0.025194610231995759 -0.4652656576168589 -0.49718178849427402 -0.54169402086396023 0.33314626134600461 0.010543359256618473 -0.31115288662003554 0.19600304050778172 0.28753083429136989 0.21221825217110676 -0.3936020958033844 -0.21788738901849683 -0.10038700131246267 0.25884947302955913 -0.19957474713104686 0.56444234484954947 0.026660125284812219 -0.071083025666514504 -0.18459574217397287 0.052499131590082869 0.10281620156419295 0.023468450985133366 0.042564308570721673 0.15145986055907049 0.1496337196877823 0.0021982997788277518 0.045780115339452879 -0.11730532935998694 -0.065493658490670015 0.088110836186845426 0.22644092093583748 0.1752898839708526 0.023126888738588505 2.4693600235013622 2.0911391290704815 0.96332300406844884 2.4834704056353529 3.0721853327805775 1.8052467013962861 1.1548563575967152 0.41776367644570489 0.19087929092875192 1.2013501980988301 -0.021764671649810212 0.27550159617749009 0.43650779754278274 0.30274007723390101 2.087613027877802 -0.27818286032713996 1.0057039821293663 1.5982874782776897 0.46709222310629261 2.0445399632217724 0.89144845097005465 2.6057747666010029 0.66931424825532371 0.7816509045215646 -0.39254658058720571 0.14677192559297866 0.39633149267443391 0.42343462879857813 0.90318967631881897 -0.050980061501015778 -0.74038226446033695 1.1356961616984176 0.034220749896791358 1.2175467284138817 0.33276337072952533 0.53969187991756828 -0.28349117031235277 0.37133718983699521 1.5291726536500767 1.1805074815693308 0.6914525142466813 0.95334162363132424 0.45228818622672956 0.51730266925909829 1.2516591572684328 0.51618069945240863 -0.16211449352902765 0.71391870043978845 0.54287002451993183 0.32246941379122507 -0.5884413775537698 0.28385255927399428 -0.55753501527301874 0.81441265777620842 0.57964991553931455 -0.3106695112854147 0.75562789769344885 0.36218665303080649 0.68667997612742393 -0.1991964645157436 -0.075697043968525043 0.2258010658932153 0.58885218499797143 0.11586302633808986 1.0209766876512385 0.21722518882218675 0.43830795037874343 0.11309523858843937 0.48006267574152439 0.47338221959964705 0.36196179953792362 0.29428243241887064 0.36630028546622817 0.60061207084568069 0.25970405024879289 0.41118654332752858 0.20849108574790215 0.26109144081268948 0.69107242597857133 0.6428018596227576 0.38772699664613058 0.017835029355450043 2.2158372948501688 -0.84356538370379786 -1.9774019556749143 -1.183828636941717 1.7793847497615978 1.451727144665296 1.0837932966249761 0.54659479969131841 0.70714094134142247 1.3308501453642678 -2.1783030498869316 -2.2627749750152777 -0.95834831890263095 -1.0274950604459268 2.4872401383647795 0.11261903292620171 -0.97474494002669843 -0.74291825727526473 2.3862967919803122 0.66978808082554275 1.1150488433574282 -0.94651904479584315 -0.6684819934758639 -1.1982836750867283 -0.2189849602182877 -0.21584243475984444 0.77469269301830934 0.81074281380119728 -1.0594559298397883 -0.93385496821871838 0.57115769037275899 -0.70928549492982262 1.5420900912071391 0.43450709755147787 -0.69930677589129664 -0.89506498203813378 0.35259241007191428 1.759819981397134 0.36019478649743347 0.17572635413240417 0.59585392244905544 0.88663349639513511 0.57305480082233096 1.6170587396243723 0.68760481577959887 0.49224616691992595 1.322172780644512 0.1900267135258199 0.1899648343763172 0.42297354627228712 0.59450041393266106 -1.1169029127989589 1.2236969713632344 0.75731151050912826 0.42345348587127413 1.0439112789542346 0.56154136237312324 0.77645718370974326 -0.26355378778732069 -0.086470078470462827 0.51022548043264615 0.9813446639962603 -0.012923197060040437 0.75043496555500899 0.32353210645034575 0.66346648324375601 -0.064112710142249521 0.57188578865290229 0.36058285899312831 0.42817261787758804 0.33777178850374623 0.39357916255520675 0.75278776930428348 0.27119338791603315 0.44122536106190458 0.11105492752095247 0.24398431945021018 0.39031886602893229 0.55593719463593849 0.33888009456117013 0.028055319393207739 -2.1876504024678742 -1.8218085907644321 -0.39656904259625853 1.2034808194718729 0.8318881674294647 -2.8503890952996525 -2.3510136097418726 -0.56720201556183514 1.6034168193583695 -1.287838077642355 -0.74810690184568951 0.25420052666983461 -0.55444870713101857 -0.1527347161292634 -1.3654320228815167 -0.86262663501042314 -0.86359872918970937 -0.23594946788397558 -0.82524220465259501 -0.89744875227021692 -1.3884712833191717 -0.99532829300559478 -1.7533187365642819 -1.0939484833197024 -0.89309203814236759 -1.1669817838327521 -1.2290883163294906 -0.32787671804464513 0.22551512569021603 -0.11618136305907036 -1.7566392793250916 -1.344182309050294 -0.54599091923357224 -0.32230564192293781 -1.3427569754196136 0.47702497088836959 0.30858056632391406 0.0069599731052592054 -0.79271266503319704 -1.1350882385676386 0.93707200917897127 -0.13586224274079084 0.35963656201024569 -0.13456188916982487 -0.45703600361975683 0.15007667884752424 -0.55063720081884193 -0.28461521616951285 -0.15010600424815435 -0.049024674076153241 -0.92971564044622357 0.34820798385456342 -0.039832194005594991 -0.38286374654866534 -0.069539743571444365 -0.42650385682814856 0.20316613969068725 -0.59111690344034384 -0.77507488775877831 -0.45104884982095761 -0.28159968776763811 -0.29105740286198156 0.48680134442550527 -0.36141159996150513 -0.33686844868608701 -0.31672274186142613 0.010624219048541659 0.13662843291351087 0.23207493030844523 -0.14592738231845734 -0.41994399352963441 0.038623585789038559 -0.13197387512431291 0.21023213763507742 -0.30055481463483436 -0.18725675020567781 -0.013913661953893826 -0.030107715022705064 -0.037304912918663904 -0.1220696414680372 2.4082828982138289 0.35521347420770905 0.76559776072703101 1.2203897051430082 0.012840127285204509 2.4789233659652274 1.4622196836772725 0.99774161906144054 -0.16791792100274644 -0.45647207463546152 0.033411970289324737 -0.6122483695709855 2.054259420074211 0.22989784525799958 0.61876092771956503 0.22264591112648568 3.8830048641940502 1.1963751886302263 0.49148839740627298 2.2787395604100653 0.22354390530541371 -0.48525396276356975 1.7191518532818735 0.76367241050524015 0.70502336442394209 1.8138492857410071 0.53081898508724412 -0.97319261167530902 0.66093285558830339 -0.76206627186269471 2.3794461941406597 0.60828329574816697 0.77129074767787542 0.3874130328980433 0.86493639002071721 1.2759939720168165 0.79397022598709832 0.45878025906347603 0.70024906409575804 0.9028394567144149 0.41025847391283604 0.43341176017848171 0.59542931430730905 0.29839483541348072 1.3835169009162156 0.016453994058860784 0.9064176420936868 0.57615459722324835 1.1103714740743293 -0.40394014497749392 0.73038806410048918 0.74982602748444993 0.63996408391097159 0.59693962893743946 0.71581484455931321 0.99439035836916612 -0.072871002725950693 -0.15228144754609999 0.621769756484298 1.2176160202092523 -0.12225705776041 0.63698267027584743 0.24459351538719201 0.88514412412744936 -0.15206591659734606 0.57626463246824655 0.55342131007813555 0.68421713399366013 0.1287910157926028 0.2316191242645908 0.40627323349235134 0.1768461197754333 0.42093166591602732 0.13300970612810331 -0.044563630701064651 0.28412431997679061 0.50425563591861511 0.4084423918219251 -0.0055639577698762379 4.9703057742572128 2.4572457389690228 1.7024549365406567 -1.6138466597740686 0.50389842041733601 -0.070073493594323757 0.89040412267475055 -3.2964992437850666 -1.2780766306522748 -0.1326817827467098 0.74945506127094474 2.0815696572933033 -0.73407272855296013 0.013642132859642584 -0.65707332246571704 1.3635353889156601 -0.75642661001263167 0.88269117546493669 -1.9362449897756402 -1.0180238928319167 -1.4550018580011692 -0.76416619876369674 -1.0775496470485275 -0.28487919258284122 0.69008525054635628 -1.2807860639939992 -1.1347162853059372 2.0504450503342042 0.12294930056900798 0.02626092616265812 0.26224961562643945 -0.32916867233861324 -0.51737062570846304 -0.49786238958344586 1.4033725667249228 0.19612248630702886 -0.11460909343996381 -0.38289716932139922 1.0709750920991536 0.76039888314200943 1.6028288332234415 0.76792120072310188 -0.30317956873253282 1.1211406347512756 0.26905477449112075 0.057704300913849475 0.22704377493622455 0.029848215992881129 -0.99972682303795424 1.2380707918020621 0.44788477879607863 -0.0218108292157684 1.0423563728121599 0.45400036494643636 0.78506759526305359 -0.19532647514655194 -0.047685238620510217 0.4696152148865001 0.833393580326387 0.21798990968821214 0.71732046674716221 0.31464943289895053 0.57590945395818582 0.047712897206762979 0.70202425491143083 0.60181783780390952 0.27955478797743366 0.44098325378695835 0.42773282109885619 0.85370437465429672 0.44269168288757194 0.54701569649695769 0.27481620629258052 0.32545259251677888 0.35687153500309132 0.50947639465261907 0.31262223036398851 0.030825224214450542 2.0055956770567547 0.26951774922590016 -1.690435409735864 1.8087312156234912 -0.47890362197423109 -1.1905709947595808 -3.9763866077897725 -2.2983999880526924 -0.95155777505159123 -1.3844544415594844 0.48865677587152512 -2.0245748781763848 -1.445369921342496 -1.1307544973643124 0.62770469826571507 -2.1262394976197458 -0.57540316428241145 -5.2485204834705002 -1.425671780616661 -1.6690555169710648 -3.2398381150867248 -3.3763927243235798 -1.1093373907260993 0.20729471504399494 -1.1416352933221232 -2.7219107659047825 0.67296128917773768 -1.0115925714016993 0.55453034032679149 -0.35247638528737124 -1.7185986357724885 -2.1594148317440367 -1.5754380209808592 -0.57643173655687341 -0.31451886665248241 0.63335067501500408 -1.3987903984580767 0.083498179471878611 -0.13577175843067407 0.39622085586408168 -0.19844273619750297 -1.921882236820619 0.36557159508050607 -1.3878184686814279 -1.3173370558579007 -1.1675177985453338 -0.98616163625953457 -1.9596622898360525 0.17238782924143392 -0.79899720733597146 -1.1626350699684931 -0.010976127551048263 -0.59906130010038461 0.067875219596907121 -0.9774437985030956 -0.60803510815758366 -0.40727356228920691 -0.28095873441587171 -0.25742907820240096 -0.0089528445811473158 -0.16482791300742639 -0.5636024311878477 -0.46594389662394298 -0.29164138412243001 -0.0659270862953482 -0.41930923266609604 -0.077499774563156876 0.041561221248864355 -0.027170484429721708 -0.20305008099369817 -0.036990304740695916 -0.35533973469917252 -0.27716777712119339 0.00090721156301304992 0.14633713898469627 0.26250875826420372 0.0075731518933883774 0.7599761136631491 -0.41075575479132787 -1.8188830931292894 -1.0340088716250722 -1.8962382447564397 -3.5573658139005926 -2.2539634870385146 -1.2660286185530605 -2.3540513439042186 0.31496381288973563 0.17975357068877817 -1.5815715383675235 -0.79806002658599839 0.89240806798597994 -1.5510466356411237 -2.3378380281201738 -2.3375274926699934 -1.41476396187533 -1.9799647591732701 -1.0091361610326615 -1.330895764799952 -1.0687702100945935 -1.6031156964717597 -1.0650697724204357 -0.92512930913646108 -1.9824515814665225 -2.1166155985431847 -1.3828237107185781 -2.0992037174562488 -2.0089886043315577 -1.5454657838599053 -1.3682036706329721 1.0173831502542416 -0.14487087663092216 -1.0518850019556036 -1.1016464482358559 0.61942830426967277 0.19241549809376837 0.33148064366286051 -0.089572756054739952 -0.80006345634979448 0.20036616767980006 -0.37951250778194084 -1.1854311913444262 -0.76245094012680636 -0.40722333418813661 -1.4617032130644321 1.2206440576654327 -0.19261706146207805 -0.6472746437567819 0.33573845434481037 -1.0679181788987557 0.30547186154538425 -0.56651866793862626 -0.38758579381037284 -0.14431254971644478 0.045003185073816905 0.11827237910179579 -0.072353097564852115 0.11780835942571648 -0.28787028476996329 0.16867222015970493 -0.11635951262451108 0.36514465015884789 -0.29242079951748234 0.22373237777872643 0.14857632283767941 0.326476633137184 0.1454386682256078 0.36288111008891616 -0.022466822483223452 0.14069657410553441 0.42583217237402088 0.42778957975645288 0.35714157153828507 -0.013617722334000599 -0.96979176658101229 -1.0399508054967495 0.54921095231072337 -2.0149899043063453 -1.9502348391825013 -1.0631370532162214 0.99445970902124359 -0.070041597443646256 -3.7781190869925414 -0.93176141932797896 1.8546972719193304 -1.0129499028155846 1.2448476434600184 0.12942728258183517 0.07785235297644906 -2.2724621426769005 -0.11928624584962121 -0.91821714311307912 -0.48906373136252856 -0.82095321122867349 1.0067502916597941 -0.74049126108549201 0.13290179505324878 -1.1146857862577437 -1.0673520063951678 -0.69372824781329034 -0.78503875716511395 1.2848796484654406 0.074016752095149255 -1.381695816381838 0.37127199366012781 -0.36522635051915875 0.18319033615665245 0.13602384708496615 -0.41837077321338223 -0.79209106348780234 -1.3079489139713776 -0.85708705410447206 -1.1445943194299713 -0.27642992550557732 -0.33700820893405348 -0.17330630592407328 0.098748668174733073 -0.90075005490034765 -0.67282412966364269 -0.95929261468488547 0.57500478027339885 0.093423647564504594 -0.49400964907504169 -0.47314945825867011 0.20580155360876709 -0.029988568205974675 -0.67268042492296709 -0.6714691075620689 -0.64630363377137989 -0.0048704645737566729 -0.38317234674533596 0.80891979818576132 -0.86711456631710326 0.15867933182134425 -0.81008835070511953 -0.41090290859674511 -0.32798553556015186 -0.077338436089715398 -0.85451631884912793 0.044865402183116521 0.045868496428923149 -0.47320441272288505 -0.091892328223733832 -0.25780649289369628 -0.66152137293922453 -0.2097385910152389 -0.0085145328027501164 -0.064699531400390795 -0.035525384668403222 0.18374289130949484 1.5293078902590724 0.30389285923176307 -0.76514929515575114 0.52937534076700909 2.2427267344281039 0.16251155495338851 1.788884098298114 0.23525488491401411 1.9117786196081614 0.33005986414725114 2.9544978954103676 1.4800234408273087 1.6080053463124604 1.6181443246685685 0.88660872061440199 -0.39683545027161293 2.4745243134835202 0.25860071647867122 2.4524002665132572 1.8739277699573145 1.6785157514859332 -0.25457151369818803 1.5508706473912601 -0.12880252099976616 2.6871562257919499 1.151579602751402 1.8873426266343571 1.0309759277189894 2.8109691028639134 1.7997137867546653 1.1929429704547085 1.2937716383253843 0.77509291022790205 1.1467872849978671 -0.52771154821843547 1.8310467452951036 0.021921951787073585 0.97222909198192697 0.6479249403161681 -0.075405028394490578 1.1615455110579624 1.1528263255834128 1.5152543730821475 -0.519716135521194 0.56082307480340243 0.79163886968261143 0.91749082710131369 0.2377064587498777 0.56699458055010266 0.63868535370658364 -0.49120502137960975 -0.45732549406141909 0.083268857894471457 0.65248467852556125 -0.3200155931914242 1.9278889187886343 -0.64162574925045524 0.78610226465935729 -0.51199543281211157 0.37308848792274218 0.17070999525013525 0.76439516684890296 -0.38894180326614153 0.17162174650020728 0.21768681588923208 -0.1185767128446376 0.27717041705758144 -0.14370109237743373 -0.29558680612219901 -0.27399108332736344 -0.024731341932668516 0.0053008474783605986 -0.019692566501653363 0.48683120494449461 0.66655300796547956 -0.1054191252554207 -0.48546251240500704 -0.54322002733534869 -1.4114621999458075 0.11904318585883614 -0.70734862275952648 -0.68596543601249371 -1.0057397840340325 1.1156881371194738 -0.41840451515665428 -0.15602266860212785 -0.66936198454668794 -1.7453784224129572 -0.98353910187334914 -0.090291289764678123 -0.54417706589063164 -0.025101587058345472 -1.5831976088749489 -0.86961084662617372 -0.46753158221757046 2.1075777475643434 -1.0616349364439284 1.2663718399943718 -1.220759691224554 0.89816530378797965 -1.6138721412532024 -0.13679701023594318 0.86236162871649036 0.054585436337307155 -0.22076642915437028 -0.48285710232292778 0.65890227360294928 0.18048924173890471 1.2009253053064046 0.33390643644471851 -0.38555038166654143 0.87442702092747437 -0.06764152111053065 0.35493282317044911 0.41877658272528517 0.82912889409011625 -0.50064044703963939 0.54187396775030761 0.23820805395466338 0.338925018731974 0.40301567313957454 -0.14952927160529431 0.52326736013234654 -0.35006466718159091 -0.50268246373675141 0.24500533016876205 0.54505279484748659 -0.14189316668072521 0.37303045174489913 0.17868094720675876 0.34432794673605666 -0.066307503390899816 0.46532105810373781 0.40026272121920076 0.43530022751175573 0.11045245221245534 0.043358945634856337 0.22453416715022056 0.20328051905201142 0.37388915696183894 0.13040471802343731 0.15658710499434297 0.24890970676591062 0.24705725768284048 0.15466106122883286 -0.0085766826017874536 0.27192612922576853 -0.53978048501012776 -0.40131868354940403 1.6561450811237555 -0.32511685305129701 0.11244173156397555 0.72270695297204179 0.92561553586407253 -0.27904129761934265 1.4959523224739022 1.8592451511732913 -0.010933682068134595 -0.56509874907065749 -0.43750594152435429 -1.3216722015691995 0.80488197645138237 -0.14038853535405257 2.2969319897273839 -0.4534622096892803 1.0657628527800138 0.71453494577927734 0.41860735189186876 -0.54019743610046478 0.22925157492513315 2.1125253373945272 0.49657181286399005 0.23541189518708916 0.90538384835487973 1.5850966424614723 1.348978056433036 0.34419722199907171 0.094797996531433101 0.6533013017941669 -0.5458648501910992 0.52240982124222712 -0.1422067766590186 0.75900547998316947 0.26737070597436652 0.36611591640408586 0.57260801382850046 -0.017139299111946737 0.4628701652723004 -1.0817527444787873 0.067370316618146839 0.50126849967853671 0.18649767459222236 -0.26987907209997725 0.41074178314129683 0.48411169636069595 -0.45908047732520008 -0.47518178914491982 -0.16821559550467452 0.35066110857186905 -0.39178189228634575 1.1190707510800739 -0.81613499513329379 0.54253430929254054 -0.56864074865025638 0.08497262882087124 -0.017574726182799802 0.19395450042954734 -0.62486133124012166 0.090206439512314926 0.025786398490184399 -0.26328819913816559 0.2045721614899349 -0.41746957456906914 -0.65745677034832573 -0.079888823657938451 -0.048625362545394173 0.024702571084625528 -0.022530548185012572 -0.934558821353483 -1.148698244477798 0.58293552819145456 -0.40301240319280091 -0.43864776200602446 -0.39059313320915479 0.54450162954167447 -0.89473761261898999 2.1814062996126573 0.58049891145092114 0.25480365498203428 -1.7318462996221613 -0.47467542943696966 -2.0605280891784181 -0.56056824706663988 -0.93400774928516184 0.37021942810774111 -0.5848898368234241 0.089107543334512249 -0.36481413284793918 -0.51444670634710266 -0.9546152642953295 -0.089587860056578844 0.42496236510316115 -0.12466546142535534 -0.83918888603131581 0.1931844123454915 1.4498284581257774 1.6281408687509262 0.14237034463859993 0.057919139383922486 0.17295116084696244 0.22392595159160389 1.0022701276895116 0.1361946510847106 -0.37036714222204487 0.51422946618780363 -0.0061228772262681246 -0.20029807894080129 -1.2635486278524224 -1.0046106754003925 -1.5911809211235064 1.0435573515803762 0.30751108537447941 -1.0074594141617177 0.41589081384326304 -0.052271888986123297 0.43655279889869963 -0.86768199564709347 -0.39311104957716742 -0.098194244627534025 0.13528779146838957 -0.017814488996328707 0.76133638422984262 0.17292466163459733 0.07102879450574158 -0.060115817177503847 0.0074250085953501983 0.21726754262245138 -0.092639745436685253 0.21122222655211309 0.25129124283826942 0.43029522607426801 0.14643038628337038 0.45662356054460451 -0.020915858306526005 0.063297442919903898 0.54190201353126899 0.54224732738542036 0.40386580984549031 0.017213503694722368 3.601927899916094 3.3040631378654868 1.7622971445817301 2.6569578527151836 0.65383806694778024 3.5966460914976937 1.1238805202469038 1.9787600659303477 4.098027557064853 3.423805493169338 0.72938164633434388 1.2302609712102841 -0.72046317612073252 1.5160861474128455 1.476986472497839 2.618392740691696 2.0280986071750933 1.8508238538602537 -0.17499116530622555 3.7099571551177717 0.90347513038990157 2.3254188543480128 1.2751145730632616 1.9350897327158492 1.7976279800660468 0.6980976855424329 1.5996593773686136 2.6627891735722344 1.4045239111632382 -0.039191582575039755 0.87344982603882604 0.86106451613653956 1.4621107666799364 0.93749912901302701 -0.20728654530972992 0.82904947717591027 0.18052659198824098 0.86830263427709264 0.8134611194011927 0.58911006679141853 -0.69772899880500161 0.94519792497010746 0.3316052201410456 0.50693253502285041 0.34569462584491423 0.6779185218781405 0.73768721404032112 -0.57366173142649346 -0.14037003662521569 0.13050481398664254 0.45539085065526008 -0.056222328742536978 1.0493144680802773 0.0051599066659835735 0.20227814890459986 -0.029908676733983199 0.36453053150492121 0.37179124789732854 0.4384802602401951 0.12245955853338511 0.20964172462465605 0.32363190319457869 0.13842253981205055 0.32649131477374588 -0.063636352505697963 -0.048045995588360729 0.37474864719895468 0.39872804142027629 0.24775217381148862 0.010407207008174371 0.35277240175493879 -1.5718423934847447 1.5604124020487664 -2.3538515667214255 -1.8689476963673513 -4.7018342333024989 0.34606104934906601 0.043663636555336519 1.1839472119719843 -2.0198431733225286 -3.2431839911381006 -1.2670525644368025 -1.1220742483118624 -0.31103244273549502 0.13590634151522191 -0.12432818804553122 -2.0234968185647992 -1.3791518944967531 1.9201938148513642 -0.68544617809511421 1.2776443008527631 0.17532343722463203 0.25669376984703235 -1.7474272920194804 -1.6544143321914828 0.14968407305070253 -0.086425392267601694 0.3067459086254985 -0.9744212977028196 0.60515053252859585 0.49310042811873406 0.65692260296550353 0.29169658453392139 -0.38883942082981254 0.95031131065858399 -0.73280418042097462 0.089055492087520782 0.55070431795816688 0.013500433879884088 -0.69725853622963463 0.62525693071127053 0.28455432205449255 0.36222134056273908 0.52791701662340274 0.32492055496604122 0.89597322532302526 -0.93227631627323404 -0.420197572766634 0.34320509079301847 0.82263446419650965 -0.24838162647840187 0.20370508740941026 0.25318277311378823 0.34063343597651485 -0.24992894282276251 0.52980826307624984 0.41852614138158745 0.29468659850005957 0.15445295315248472 0.023832153467623126 0.24882525916560497 0.33675797822386716 0.37291552586766036 0.096804567281227369 0.1904372177044944 0.15099818811404317 0.2644638740513261 0.27570913859858093 -0.011836132885173078 0.8892744522233913 -0.27337528689615948 -1.7052624057704326 -0.65590432149110323 -1.5112773144219902 0.012267835099758475 -0.10884052242617277 -0.66762933108429723 -2.5994902331178493 -1.4134518585142528 -1.0085378197380239 -0.29799728674261411 -1.1902760858347636 -0.87804547258693011 1.2175451984781951 -2.6328905045929032 -1.2271964301234877 1.6085539919284084 0.5254964036105747 0.1506952629322581 0.71247164658107387 -0.52134469525045657 -1.896599722030051 -0.65249053552199865 -0.71023081762967555 0.19573013267472072 0.17642830278736035 -0.72772151036940169 -0.12230632274118629 -1.3315080383779838 -0.44082712933080803 -0.98674028029074801 -0.32495524809075166 -0.30560807370887533 -1.1803779142796984 -0.99448480559960983 -0.35428943633376647 -0.62529310114587044 -1.0670887403738676 -0.54502529738207173 -0.65935436705980255 -0.73101211417453715 -0.89262430426147699 -0.58420864222035263 -0.16752198430127149 -1.3870003940752349 -0.77361720636009501 -0.94846913001577104 -0.47957533423417936 -0.45260685685019758 -0.2442839883066126 -1.0882344183527617 -0.27980513804011758 -1.0152676338051949 -0.88199243847982767 -0.23107863167504678 -0.45894073457926376 -0.70258454649782609 -0.05303086996028053 -0.35082906032818312 -0.44377845786905651 -0.33292745067092533 -0.55706399625029757 -0.72173673808308791 -0.70643834554041884 -0.31275059609939337 -0.24729158153609507 -0.057794121806030274 0.98381960478692443 -0.68215371590872065 -0.46022147026077892 0.7886028812959216 0.93587035421322895 0.46851550488938154 1.0762716893503506 -1.9479117664218559 -0.015020560619476063 -0.73329723289904347 -1.1411825126818793 -0.60984276878334231 0.11133320770548449 0.99927569598683819 -0.72675462087409459 -0.71831952577344416 0.60932907238527645 0.31879338585741229 1.6525434771772052 -1.2175143347008546 0.017066662860828075 -1.3204195996184522 0.060880206451057996 -0.47798721281738676 0.64776381075052314 0.64090532259929833 -0.30746322189196268 0.46705192867055023 0.013097968823609276 0.55007113215558023 0.20057182802853854 -1.0101143857525903 0.68236143897921664 -0.98458031721491535 -1.4191270967834484 -0.35272957618726686 -0.66403385563982498 -1.3309227384309363 0.42274573465116672 -0.37047174059551485 -0.3507485052437756 0.26858633431700896 -0.07183243715316398 0.49969814399323231 -0.40084325111427227 -0.17624668760789539 -0.11498975427988903 0.33332600834817033 -0.15565456345948087 0.1424467803885289 0.12321663015008091 0.018527183806107978 -0.17781399037333956 0.090972828610789855 0.035879631967893004 -0.037212928541617722 0.10498272755555413 0.14962293265498403 0.18097603830687276 0.14834666758056891 0.13725024421613904 -0.15769076349462335 -0.083936133207002647 0.084692557806732682 0.27114593438529688 0.30901348955364044 0.022724195771973883 -2.3109089875269038 -0.75255614818242522 -2.0414231330518406 1.5520415456265102 -1.4940242131272017 -2.4354718540811513 -1.9620163309348151 -2.0445618970318176 -1.6740258597544571 -0.73167952757527011 -1.0262030000615299 -1.0706338335921872 -4.5172420448522645 -0.24177919703875675 -3.1900676128695085 -1.2694688050111687 -1.9396275316626777 -1.0429541430415905 -0.50628147325816963 0.5186909211931181 -1.7087546848532043 0.39471074559968833 -0.059128715024513459 0.041881844746019692 -0.21105979666002306 -0.87149714466377848 1.2281582906768835 0.093447872028481066 1.6345324444728437 -0.4771780286984838 -0.34959991811982344 0.73650875043338948 -0.37094500201383285 -0.074108993262026662 -0.51006270894671923 -0.49337809737782012 -1.6160879175876783 1.5057469167087325 0.74330210511795081 -0.29326201796845036 0.83273369621965698 0.38431681713351035 0.93522265793369974 -0.46373893013807654 -0.48257206514979673 0.15729703151664914 0.70889818643828417 -0.18750487178003802 1.1615684141077758 0.13653842904630883 0.56385758682841869 -0.12755864908167422 0.72182908878123231 0.48735647287195588 0.51839466976836102 0.37368508742033413 0.19495065470385894 0.58123671808784916 0.43816905503793341 0.82364033904151468 0.19240574161652071 0.3528487184477424 0.12280996830496589 0.26153603085507288 0.34066375106961255 -0.014784088406463884 0.96120768131902279 2.431930475376614 0.44578573052107057 2.9587275110027833 1.5166857016759994 2.0838818565365766 1.1229753116139987 -0.82543247997179681 2.6742241453846729 -0.13050393168322097 1.2895759826463693 2.767604109336478 1.3022162195907834 -0.97682811168935091 0.36683520497943234 0.36571098180080336 1.8737453784730533 0.85481798104058959 -0.0071277746385899638 -0.27202727007651173 0.93345287233510243 0.89608581310265201 0.8817039605252508 0.066975303055678753 0.77954567124540497 0.9805314192710467 1.20376057325097 1.1236189840087842 1.298455085465779 0.33247615537832043 0.57199734614352005 -0.11887487509309283 0.48157818484331932 0.75950809862798319 1.1149686327117332 -0.44461570735850131 1.2333554764308412 0.59747926137256357 1.1001425847533755 0.84054079523689518 0.93384067651028335 0.91735718797507781 -0.4128097517117833 -0.27950118558647591 0.73977905688598744 1.6440197519745152 0.36542669517567772 1.3892934744083572 0.15725309900773757 0.79391581838858682 -0.09431518584353267 0.62354938892842993 1.0195335202356703 0.066473987620774097 0.31630359207180364 0.5841302562754771 0.80154748017810029 0.39047655434346668 0.42145937912105319 0.20479985829239131 0.41373335927490934 0.25165936075713158 0.20576403712465405 0.094904064779253325 8.9274703010485342e-05 0.20012687294062989 1.6774555339013917 2.5901993289229481 1.0115410301266905 -3.0731659519139525 -0.018564373868268296 -1.0776919222435251 0.27955622515800232 -1.5014299500414601 -0.045575661901341505 2.7774588599174566 -2.0086440239132686 -1.3543175719954093 2.4733239704433427 1.5905745724461937 2.148448732554705 1.654541584015623 0.70126165459942091 -1.5614493410189274 -0.28266718581968719 -0.10904374110256648 1.387889637721998 0.95587635941143889 -0.30804320813591063 -0.068131339674322458 -0.48207923555206367 0.14694539751205346 -0.36009406523489512 -0.63641742126593104 0.21742591268834724 -1.6775740064056557 -0.53312716992922615 -0.23075882843584333 0.16903865301247892 -1.2668200759676493 0.27198944319923407 -0.37066364190325052 -0.4181177259311189 -0.059395946508945308 0.022972542536774374 0.0094309073397113603 -1.2222138036038805 -0.57151215402435607 -0.069424515604058892 0.24360217041730806 -0.31213051263435621 0.4168048746860783 -0.28174229539777279 -0.18954817323431311 -0.67012632992700005 -0.29236920717283427 0.037739163642255803 -0.57971459469696351 -0.31114607412403528 -0.057814009747479765 -0.08606941533050616 -0.38867490628243956 -0.085925125630140931 -0.29861885547463218 -0.63083015002490694 -0.28302660838785365 -0.087813229756912928 0.1586159194592458 -0.00067960784837588499 1.7275245366570147 0.93196326438375798 1.0867043306748385 -0.62341316287034898 -1.8945221778630865 -1.1891511986144496 -0.13410027629989429 0.26234701256422904 0.97678336282385103 0.18159634891574439 0.46201291703212305 -1.8217132229352107 1.2761263507185057 -0.17126971555164253 2.3413632744503214 0.009295903126875258 1.312923012896835 -0.78498194508918107 -0.4732745412653464 0.53604142756148154 0.62565749444481455 1.1366308352042109 -1.4111263860003602 2.005041604170712 0.88711420928273987 2.4158780247685212 0.68437267099555155 -0.813303088692653 1.5249418424985193 -0.90870631074191477 0.79911773094475902 1.4236848757600644 0.014762673450552934 -0.67281416467507671 1.3196252436700924 1.1478523511248278 1.0890765433292602 0.83839794935409573 1.3602526588559625 1.7204967783725156 0.4174940736606666 -0.1416994555177658 0.90379935247235377 1.1830611051812088 0.66174378701223668 1.0763583286855352 0.22936636333166138 1.0306694768043196 0.13108771760621135 1.4708486908007607 1.0504226947067778 1.0047914730515373 0.91280473562729492 0.64813320790490614 1.0255954386990778 1.1861550044889471 0.84327934111390823 0.74079872880037756 0.60946603323959836 0.2984483398019448 0.45543818987769419 0.37847889885009045 0.024648525213302207 -1.4832959432544963 -0.81428321414487836 -2.4900662447147832 -1.4617889531821504 -2.0853015218704996 -1.6981634392518568 -2.7098909991432856 -2.360735912593932 -1.6911934190389668 -1.6248670733879922 -2.5060048580845407 0.1100717874550499 -1.6534085118670803 -0.66123055174662504 -0.52860716220347392 -0.68011936102537407 -2.0660271005737476 0.56971431562278896 -0.3861785836141336 -1.1511690518794615 -0.207406665032942 -2.0541427183206311 -0.060113609621456288 -1.5536425983687083 -0.068465052107511915 -1.2388968169314756 -1.4291264699986237 -0.90688556648966767 -1.6064523620513671 -1.0242694266075707 -0.76565326245740095 0.16675812196686376 -1.7818796484730297 1.0384906681598602 -0.37618660754710492 -0.87341081954906619 0.041790947934593481 -0.9184460738424487 -0.12438817497925762 -1.5412120165876928 -1.2796237923617724 -0.78001665586496027 -0.67883179167506869 -0.94165520102636968 1.0068878449151382 -1.0007684455265222 -0.4477802079805504 -0.68704994442564349 -0.48131165015764088 -0.39220561991576908 -0.42734333157616822 -0.85749444276047415 -0.3181486640204762 -0.34741997363850224 -0.61528847451274804 0.17470346148657051 -0.75924683982854069 -0.72626806237871278 -0.54180803750802642 -0.49173643544628037 -0.34927955325184773 -0.099844524593385151 -0.001579103598581176 -1.4131150989021033 -1.774354326573911 -1.6731691026091515 -0.68292526729202119 -0.97662772203552994 -0.17377332196505749 1.4402441204506435 -0.75954852354495195 -0.81094659222287668 1.7656589690440136 0.52726878435241675 1.6971696133436782 0.1223977715234508 1.1290527913153268 -1.02756293465016 -0.63255654305948128 0.50228775745056187 1.7250784412410161 0.61870961303408434 -0.49821650193772554 0.85157802849904363 -0.053618869817982043 0.85280955343713238 0.23931559024640822 -0.3331172104189864 1.1306330012837995 -1.2756949685610044 -0.17191910345067404 0.27775589715937549 0.10323590272220626 -1.4586676551984636 0.59377155447437036 -0.33443247857696473 -0.46069112782574445 0.11387151082523926 -0.36557573404254845 0.12755861289509263 -1.1547340136516466 -0.45286471264014511 0.24433040275992052 0.0052253853150975183 -0.21353118314164332 0.56500090070016762 -0.25481447912904442 -0.29961949607655602 -0.33755167641235628 0.14596118637301894 -0.12840483424335974 0.090335821525023771 -0.27420788912494581 0.13014571314761211 0.19638728910975323 0.068569732542502884 0.43245147751106572 -0.34540635589854135 -0.45165085743845829 -0.17972903816640254 -0.064095278221972848 0.14630048325773409 -0.055410777238945143 -4.3335741035629267 -1.9048860852775347 -1.2916360177484367 -3.4139692795374299 -2.3759721837251888 -0.79020141582083259 0.10334052553238543 0.15792682345895254 -3.6231076399421238 1.3998457576099905 -1.477420806671399 1.6771525781223957 -2.5045340665258773 -0.98919609402526143 -2.1749344614088777 -2.9249354268214951 -0.25359003156655618 0.7386098862613788 1.1618466461289112 -0.67634690751570015 0.87329092981181955 0.57979315313977131 0.6339472955737907 0.68662362798735477 -1.526748342182199 0.8120084924531582 -1.1106530957972487 -0.99914114093443529 -0.90696795631389471 -0.056491777897494995 -2.1780452135776915 0.5575786241323254 -0.43687835480972265 -0.69103740292805305 0.36435317842272053 -0.088405606061457462 1.068966769130953 -0.76790103379633778 -0.4811393745229024 0.14240682190573292 0.94916415748255856 0.012059438853630134 0.77373183846725979 0.13528857293543356 0.17613279783876706 -0.52211058117326847 0.31668292846779256 0.48992130758165031 0.11046067777830323 0.10967841428823522 0.25422043949114337 0.28004814842615749 0.11292192131699315 0.31649888536927945 -0.21551406011986721 -0.20928041031967665 0.007681680541830496 0.35682796260570621 0.36174227653512087 0.016807460403544566 2.0834186264087524 -1.3514525403357953 1.2162687706565589 0.18373376572547923 1.2972998314177313 0.27480881108332533 1.3335429024453567 -1.4742382549026576 3.1722835938357337 1.7557055338953576 2.6619380102922663 1.6359279958888122 1.8993110498212635 -0.38254217762996978 0.53847968550667691 1.3402889103782778 1.6928337381926912 1.711688799288609 0.0043300402720433239 2.535854084921819 1.069335086615524 3.8002377858612411 1.2235138319518752 -0.30088089187351591 2.1090510696249538 -0.46944635456987227 1.3381288266381342 0.99670844767324274 0.5449617897056247 -1.0021324478498899 1.9424990217991958 0.88597814954286491 0.61762490372562773 1.3023025189018032 1.56308615877141 1.5957209222729436 0.019146760537711718 0.050079849286763338 1.1276505521747275 2.2983232110019109 0.38435427372168701 1.6396310241030516 0.15255387154334518 1.2163198336485921 0.13359944671033405 1.3725735596388977 0.85948727851160245 0.48691798794298918 0.66072432778294554 0.83392305245128373 0.86629869572044582 0.71678748499691114 0.92648987207567701 0.27399597215231131 0.29202308644538111 0.17807755727439331 0.45517119301968734 0.4014985200271341 0.0067293718451474681 -1.6025354641711167 1.8372643100595947 -0.46509899390656156 0.33563144841907966 2.3984556607883163 -0.58506590621137888 -1.0804823371631644 1.956599617065202 0.1139370179857413 2.7365382013657276 1.0269361782408337 3.3539558565953849 -0.23820232688462456 -0.29339495641783858 -0.19894252140443058 1.3018363788251466 1.5765945811235726 0.015157136033541343 0.85074038514699635 0.28895923632846338 0.83992264975273689 0.40338821395440799 -0.58621640663204677 0.83460556458180923 -0.86842497978785593 0.6321643381224995 0.36507980308934124 0.025349202227993722 -1.4771763230062291 0.6266286985578331 0.051712874142066038 0.068177244340856619 0.32510483137670187 0.7061272814426206 1.1581091773906456 -0.98368817356506 -0.4172491004588102 -0.0028836611880039107 1.0922997134375818 -0.17358867225381602 1.1612938013344161 0.13260688341150034 0.47511678816525321 -0.48263861985513518 0.22769799477164501 0.3389568792896917 0.46466777357789585 0.11676258289612473 0.13315351192584099 0.16405738377044937 0.14674684973074956 0.21236251803356251 -0.1309198288350101 -0.20751236959270941 -0.031033290794110508 0.33116409757690518 0.41033579789215019 0.021321848822979227 2.1021286428286174 1.5385025047439798 1.379080742643358 2.6852472973167401 0.93454861841752146 1.1297113980841815 1.2220528620869844 0.7083390435693474 3.9416895689874485 1.7274987509704431 3.3256179550084428 0.49640652592131623 1.401372292712848 3.0775787456615902 1.2892090354888099 1.7502000461600815 1.3331789879233984 0.93473692980451362 0.54135573313873986 1.8908249978380549 0.93416800399056843 1.2977725578722157 1.7988130074229545 0.53756554858451877 1.7441115855370157 1.2617828091411913 1.3656921473670836 -0.069258437268267789 0.91503625684558454 1.0468522738021793 0.89371430890383519 0.70158392629017952 1.1727692530880549 0.82280054238950251 -0.60319419800298901 -0.10481579418693222 0.58164503371719356 1.1726227364204422 0.036485096316086998 1.5475218717034955 0.39094449044250557 0.93660520885038245 0.045955268840659438 0.67167674411310418 0.67237850851217784 0.64858112817716973 0.29114993479012752 0.26994499773346708 0.46933919857012646 0.21356454666395469 0.42114533731250603 0.2235076089824069 0.33450494865810726 0.52795927782581809 0.60105418290405377 0.40279391407685683 0.026497166320410524 0.063372641066537588 -2.2060506221050882 -0.5140133247383416 -0.43031057825376162 -3.2038211930224292 1.397298865937997 1.2282755914429933 0.63599006302335215 0.84362911965557197 1.2527870750280405 -1.4228582813764921 0.18685088245843837 1.3014913120414779 0.99252367324718627 -0.3242634028974562 -1.3094917400203978 0.88430805162174242 0.10948175037302063 1.1568297987429341 -0.42930770065408502 -1.6986713366751922 0.84493054694028435 -0.85962392632274498 0.44499088610503457 0.53211273238597312 0.3567934117785686 -1.0973830111740188 1.6551526064289965 1.1735163014150123 0.055280529893098861 0.90930349155976342 0.36706372088751554 1.5492337772540328 0.12835364621409112 -0.31454053906355339 0.44766946763531834 0.57288478238606488 0.64699867264688626 1.5154933761392253 -0.064350853389142273 0.65612877500395506 0.4021882843390111 0.89520481672235619 0.95992898364801604 0.64495651648512009 0.88479612076801406 0.62921864326223642 0.89522054759822967 0.72589571242237305 1.2739569913867068 0.50545047265637844 1.0171201484620367 0.027755002777187471 0.38682497295047547 0.24910872391582925 0.014679942770413332 2.1873767577360392 0.85903046115704984 -0.47717892477309654 -0.27780331916740841 1.9151356608333363 1.0442729791361189 2.0471052112590167 1.5843589356195134 1.3392389043498878 -3.4207906231072238 0.55560878051404339 2.0589672435838851 3.0762862489775302 0.97169761502093088 0.38631395532946317 0.83608735069521212 0.44733589883547298 0.95758149499502065 0.36407959321502997 -0.20329078141562962 1.2035039837663914 -0.11088945148777771 0.23681827024251587 -0.78513409500606934 -0.25335907312031725 -1.7348348610476181 1.225205461764989 0.056792931328503098 -0.65204573070983229 0.78481997199858899 0.2203772088166808 0.53305521846126735 -1.0931905800830319 -0.40968474219728773 0.11512630160323879 0.28136766627851018 0.010213634501767099 0.83459145219814079 0.38916181054234822 -0.17454349482927037 -0.13481619543194898 0.33486478517961504 0.23123931397112485 -0.094852928008426832 0.13002351969937703 0.2908151080471395 0.46659168576194104 0.33347192314791785 0.70937324770340815 -0.062440509087366348 -0.029173245632634407 0.45022033070793488 0.51836563278384529 0.45089017164087525 0.011695163767713242 1.1081598469780132 1.0892889318558217 -0.52307928870012654 2.6929167763244295 0.95100442785562878 1.8149295349203307 1.5414431184513238 1.7151114385296506 0.95022279857649272 1.9663416921375274 0.87869100767033348 1.7294439136556348 0.97733018295958185 0.88854253391595994 1.0507184153378244 -0.60086713337856168 0.78152957615868801 -0.14037380986543441 0.94800215891632633 0.37453839716153176 -0.91544687450112561 1.5858988599623842 0.17919943416227466 1.2627783408413245 -1.0439924510659113 0.59873980444286301 0.82883181929129612 0.46361435992353889 0.20132431931199482 0.70350484359136067 0.3409670504214401 -0.83425866018663075 -0.044996485564553136 0.24505785526948218 0.54959295541003828 0.0006940733222927138 1.6004242971895262 -0.46845361849677752 0.56214308494979026 -0.43448661084052315 0.037465348533895257 0.23181158848244959 0.26581275553337563 -0.28619716318737459 0.43885415759679075 0.20941962561605218 -0.010956217067175665 0.24003846236917309 -0.0025907954641198991 -0.33032521757719591 -0.54266954030395542 -0.048983682498001273 0.051605130277825109 -0.034262010612775173 -2.4352177602790346 -1.8886126322841352 -0.51176016419437953 -2.5788786081851254 2.8015408220987985 0.035308987864168848 1.2947425713551637 -4.8285209242029143 0.26284478287973073 1.2785370562574929 -1.0274180665919381 1.2095246712378764 0.50319234319136219 2.7475869013592522 1.6133127575643875 3.3907568177355789 1.2272955671210235 -0.6604364940611166 2.0356353972977099 -0.96485103526373628 -0.11186208716355295 1.0939845608854866 1.1313768637155726 -1.3293118079038004 1.6549594747569087 1.0365599494797897 1.2451007651345554 1.4011654871437271 1.1910686616738131 1.5924775245862468 0.77554775168379819 0.62664505850238306 1.7984850643814767 2.2141381801548281 0.56736239083642692 1.179315448699733 0.35651655615197714 1.6462182499715681 0.68210973719618484 1.7614170158688265 1.4891347190110711 1.0358556315771048 1.149866413672388 0.70281224175721313 1.0617395066058775 0.89352880603527629 1.0900331308393225 0.67079599711051596 0.807173343769786 0.26787525626850611 0.45555535440692446 0.39415513251539569 0.0088109471208829854 -2.4431611232755786 2.0122778316592136 0.85818428657656209 1.2891538572650836 1.5955588837765802 0.5903769515639492 -0.053756416879596383 0.74529993316757526 0.53576097118519161 0.77312945287087576 -1.1182088680757822 -0.30436880059856003 1.1313607725486494 -0.14067548744643105 1.6329249396150849 0.18713782884963631 0.021420501487869795 0.37868931652248339 -0.88793169143130601 0.70797007159993697 1.0826230454593322 0.78116761509029276 -0.29523859626746418 1.5414621355375804 1.8249649939439747 0.63353587739366213 0.71628131538176465 0.74521133017775354 1.9963707745992869 0.39449452258777601 0.49746019509571937 0.60937205574877062 1.2306020834861477 0.49363994971775993 1.8652227128079755 -0.34303487063845134 1.2192208598657166 0.58772999950786797 1.0793611038813509 1.0862204843881056 0.21839903160736551 0.72225450832292604 0.94805063703884862 1.0722395828245015 0.82396294063325615 1.1682131899262533 0.79278502340086676 0.99315224335009478 -0.15487488930537599 0.161049127456798 0.067547404491347482 0.010739335667118252 3.4402703722286545 0.9259829690941489 3.6754754075731753 -1.1554502465615759 2.3208483021506217 3.4677955639375928 2.4991466860688827 4.3386320162092993 3.4077016651212229 2.1698333012996023 1.9431757616699403 1.8165307572123879 0.90284741093972887 1.5694442410253282 1.2350622961671838 2.0124347379978733 1.3009472215844429 1.0236244030720669 2.1135236231309955 0.023297783947483858 1.2275686851582592 -0.82705093344384939 1.092445483271784 1.5328020184439819 0.30864402725041018 0.72106424915636591 1.7804323463529017 0.58624459893345537 0.084439664592682123 -0.1113065402399772 0.21884452836505611 1.1183935703488939 0.12969272992630237 2.195227347455607 0.308684126034941 0.71527711577797148 -0.10688372710865202 0.21414672766012499 0.6801688196000516 0.34109383700716467 0.19268714894313235 0.34556610581724612 0.50746759700388577 0.24357444274376053 0.64044479408667876 0.29685233531497901 0.16033091069349209 0.71260611801063722 0.85452551837235868 0.53291619508903165 0.030721649843929645 -4.5501129181314148 -1.3055542013137644 1.5400751671741979 -3.592745814543465 -1.1826423897497367 -1.0486796294754634 0.59017017752735335 -4.485285295997544 -0.30648321766621128 -1.0852847337945479 2.0202127781426333 0.53974048684105946 0.0048610898652745203 0.52055058328363213 -1.4559004146146155 0.66729410029744129 -0.80946447470548544 -0.35703422805088714 -0.51053318842385098 -0.31476192584066637 -1.5974341149667535 0.79011140609984853 0.13867399383118154 -0.29800895590949245 0.62927125499197401 -0.02743345074161831 0.7227120773823893 -0.32480887375223982 -0.39578483405118042 0.10044198352539159 0.58309314973929338 0.28811402414072218 0.44310933786669698 0.30084113013261138 0.1323186438331469 0.052973044576119004 0.45560681478069209 0.70811934561186896 0.35586306737421131 0.36473969205239659 0.48334287883055832 0.62618848520333958 0.27063139770598954 0.52826359456593308 0.03598950465383613 0.25526240496666514 0.049228779783489385 0.32808244790580771 0.27274441127348736 0.0072140279128381337 1.6777778806404406 0.14333173321225209 -0.53355714181135783 -1.4885915893147701 -0.98817313263673812 0.91967613686166394 -0.35645923525185702 0.30944895938186157 -0.19640681126919313 0.71666346340857889 0.49865662576885872 1.1813723151553928 0.35615337933021329 -0.76482661060942914 0.98342194582163989 -0.69936073434345902 -0.80979625914737308 -0.64532478996105058 0.77248590528769323 -1.0064838710835442 0.70181043524224163 -0.42059444413428931 -0.29420873578000573 0.57938129106686576 -0.5485854755295414 0.29988253326809294 -0.48335244910912067 -0.22680679245031049 0.18634746713389497 0.92450665193375325 0.047336166376399508 0.1398116069968238 0.079428082795859237 -0.17327141273938021 -0.057912782298631373 0.32072340727711163 0.485773308288867 -0.0002692452539502013 0.19502280379769585 0.26992186128882401 0.37130473351296844 0.065581412588906485 0.19831500843726477 0.016256643328821353 0.094601691328850365 0.4403003762547808 0.51959502768131127 0.35305476770611088 0.012960865229305951 -2.0172721651360392 -0.60023377529824073 -3.876915981923768 -0.80254517584098006 0.35271337056433555 -2.3355369400549195 -0.93289916728156275 -1.9213717571970794 1.7578423329006696 -0.2367939261512873 2.3140558971891059 -0.064381130683322726 -1.221790096630345 1.7104399476608745 -1.378161141042906 -0.041816088105893115 0.86578399525577765 0.66389809143343914 -1.1724677399093697 1.1441114567624884 0.23044559033600287 0.94442359880872051 0.69054976703922277 0.40470135068819502 1.2238605215637386 -0.065384862735395746 -0.10499437060995938 0.87404450972453118 1.2358299157677992 0.21216094134051997 0.30466330103438483 0.031748561736785925 0.61077667325136586 0.47846524729784817 1.2895576724404603 0.97944215030703974 0.5572314893825554 0.53740382990372271 0.38319810019697403 0.54844233335963533 0.46953267590031295 0.67874470751560989 0.52601248727638195 0.61002165184904544 -0.044496936187697421 0.079738205223895103 0.079662511315171547 -0.011443113686758098 -1.6362790654726851 -4.0232482008174459 0.68061865609866967 0.30734454749244638 -0.75735114128273062 -1.3509797322661259 -0.88971937111366328 0.14324181554924306 -1.0468184156152922 0.4588030823214862 -0.68521777287435115 -0.80447908657525879 0.091933023129185762 -1.828229972776547 -1.0877434747418493 -0.82035501676549871 0.22617530085722293 -1.5077170306627665 0.21984853952677177 -1.5080282230577782 -1.0402327071262478 -0.27525395931387919 -1.2299087932847534 -0.632295242640183 -1.5838979813611411 -0.63893324450443745 -0.61048039819870104 -0.32259256547839399 -0.40540968080849971 -0.51574378003879839 -0.60344094903673962 -0.98604142229914027 -0.78144266346296531 -0.74974344719088415 -0.29022839472695516 -0.74965076382103391 -0.60366951985525841 0.0028404356542536383 -0.16857320326303671 -0.64009026382003165 -0.348017989639895 -0.6901147593293957 -0.78501652690827117 -0.37505196597938806 -0.061362219519534134 -0.029684037156719134 -0.057907124380776887 -3.1268414387120407 -0.25015085898886386 0.18126834402233979 -0.092779026431944384 -0.46578593644849708 -1.4304762004018319 -0.013026188404838449 -0.4151834206796281 1.3619742400042849 -1.0522479606331203 -1.1465314006453828 0.39682468658154241 -0.95955189012972453 -0.065115934884701826 -0.41201361816278181 0.57472800102880939 -1.0182601024349016 2.3644494384225001 0.37880217300906871 -0.062860734951024358 1.2195263905040843 0.89513598336423295 1.0181753429747238 -0.43431986034425146 -0.2694631286702166 0.52371986591871633 1.3249880152364704 -0.085921091746148259 1.6060536863223993 -0.029735349754139818 0.85541197081597609 0.10034913281675682 1.0719983165483906 1.1155064325296353 0.7626789931129907 0.60259196524331637 0.64706620733340769 0.93564329411969971 0.43981794352810283 0.86329604732136345 0.45474998383474147 0.7134996040963929 0.1241862534175153 0.29669307113852855 0.16746545969887081 -0.0157334327851581 1.53742191288524 1.9654273045017423 0.096298361447173214 1.1834018961376245 0.58970684141092722 1.8526385643067691 0.50604252671368088 1.4342156775832728 0.7774296663502207 0.90402063318144921 0.86459529170684091 -8.8611895183948977e-05 1.8201537435200363 0.43285493682273329 1.195695843045073 -0.38402248684188328 0.8706677512057337 0.61644939643606111 0.30679248685508392 0.68272352928678437 0.98541140083633449 0.76451485150699594 -0.48820711291501429 -0.25569552195382567 0.35758886062938833 1.1922439934969569 0.21756859130029649 1.718777078636448 0.26339413440830456 0.56375564774975917 -0.041591328369272693 0.53990625733577358 0.75743427232757277 0.28456165586497634 0.30844186007077479 0.38781190410043737 0.55501737293081199 0.27082118503302233 0.52410772718063547 0.37082407533040079 0.26199865222779828 0.3517563750179532 0.57986671215882046 0.32436803444345613 0.022397367487819259 -1.1252294794813205 -1.2883017691297918 -1.605595128703057 -1.3798525097243468 -0.23781283397708244 -0.81301099556433032 0.7748138962947525 -1.0279197034410825 -1.3994337475531986 -0.69440144976789142 -2.1731082822778824 -1.1848940721198273 -0.31643138576394558 -0.43417541124314374 -0.6593579521092271 0.47151721216329257 -0.45150631949353948 -0.42637852499458828 -0.42378363112586076 -0.21935774786414525 0.74586451481766058 -0.082419137840733625 -1.1306138369625753 -0.53166661187757858 -0.24756935896346902 -0.36049895616404715 1.471261071878605 -0.75850076679248346 -0.026618906924951845 0.016946156054315147 -0.0039054238239692282 0.44848181792551178 0.39294765916757807 0.023699519371657686 0.35012465099713136 0.0011034698824596584 0.16884046137499409 0.48750499437305234 0.04735316934935805 0.50150721511808183 -0.6148746925238231 -0.63816582063770622 -0.41345879671892 -0.072247067996291478 0.36768993534137329 -0.20097731110765835 -1.0131740858561007 -0.28689807768079462 0.03644637889154493 0.12616474861273444 -0.56302970099628247 -1.0098641160338184 -0.19668546650647376 -1.3411805545321958 -0.2914521296015915 -0.48140162484703197 -0.18738058228260013 -2.2107478227884725 1.5553490812634621 0.80547474484765846 0.3277682742121496 0.39326530315800262 1.2505382023282283 0.9222208756208532 -1.5167897860253212 -0.72338786670939925 -0.34908898249387393 1.3977901854455004 -0.41065978851995893 1.0499726410246391 -0.55421087429211824 0.49269118365424752 -1.187690331022498 -0.10363284707359705 0.71311646558523045 -0.11906223483893276 -0.20318042328406966 0.064357395555017696 0.17579713471951738 -0.34825280507445722 0.49764786135823164 -0.045842915760959543 -0.14238479862588535 0.0015666375465635946 -0.17916495386540299 -0.11019535865333611 -0.056963969103618152 0.22337106686315875 -2.5065502762003971 1.9636318066663989 0.14154377215703415 1.1000974654114151 -0.52559222366101555 -0.39851609000762939 -0.29490001042076652 -3.872894096989016 -0.51614894510070464 -0.57933308161473573 -0.13122144542569245 -2.1490685578355975 1.0031614136539384 -0.47031083544984259 -0.64696295958795702 0.092772761470898288 -0.84375408903244542 0.31932911326384017 -1.1073896895877093 -1.3249920697572937 -0.36155741684053722 0.28503771089133595 -0.0062699935077706274 0.13865968096452788 -0.53182004833446328 -0.43389669812871001 -0.79985736536074026 -0.23638496480138182 0.60288856720749207 -0.18747866475722386 -0.087361057358971358 0.098003402862262542 -0.074987573156962542 -0.50344556946953922 0.10931218388944124 -0.13499362102941462 -0.27384159156699961 -0.116749132225897 0.39458914805557949 0.20732747296933693 -0.0065936911141274979 -0.95147287975203088 4.6040254193141701 -0.25564183863533396 4.7962631759086989 -0.043490303089358591 0.14626364229261909 1.4183173282088657 -0.88230204459527994 1.1437873644244032 1.6316731450694937 -0.038825320659423332 -1.1190346587267925 2.4454071659249363 1.5376750088402678 1.2179015851963331 0.22474201362816471 0.7988688350703258 1.9959452247363934 0.87792330501034066 0.45673991504500289 1.0808790753964392 1.2056883933283467 0.38884595629997515 2.4928296385640514 -0.20729232150712956 1.3470198848749571 1.3363762247396964 1.7731267357480403 1.7147203354344449 1.6440413026721918 1.1123066158248025 1.1589777942527502 1.1876896437731328 1.0379375584297794 1.4252723414048878 0.54078688940328956 1.1076104050861968 -0.20483891412052849 -0.1077244320670241 -0.010325974158791036 -0.02375655002199847 1.2454004321269951 0.03181523304333346 2.8282950939642437 -0.29418150520109149 -0.74923766513376866 1.1025371878719368 -1.6491979536053869 0.64483746329164571 0.80030981064276807 1.739892069667043 -1.5891658353840892 2.2609204045295646 -0.25784917496923637 0.68540031137152235 1.2530699159968401 1.4052988873456893 0.74669361957317237 -0.3209790364055265 -0.75907668621715807 0.75791639663488752 1.4874937184184274 0.33094965435991253 1.8621979896136538 -0.23235241000441711 0.33757876231634698 -0.29297133088567134 1.0324228472532819 1.2473429997545555 0.20287324344361837 1.1738370907372122 1.0298029160751494 1.0492724698747302 0.44605736259906065 0.844878120626115 0.68874809357504674 0.29738156562936136 0.52265264975294667 0.54784293068697854 0.36205883784770176 0.013291521582535142 -4.130809882048518 -0.051957216705713329 -1.932406901665346 -0.19764691308421711 -0.50239296496729036 -0.87682449253118067 -2.8566885690275039 -0.32651180077519321 0.17919283212798329 -0.86006484060641264 1.6894923140694165 1.9860091622496077 0.36396677247209813 0.48484510246200807 0.62753338163222205 2.8651689529777724 1.6696270442993693 1.1422095695844325 1.088938442111683 2.4438902972412269 0.11883509447979883 3.3528579978578916 -0.27926029430603222 2.9235609464501953 1.2826664324724133 1.8105073621752625 2.0123822814759817 1.3066239716296701 1.2118975943823609 1.0029109266050866 1.8073374056090681 1.6306004834827075 2.3528629408487087 1.3876624352022964 1.5335635435028712 -0.020334132030658193 0.26025102853884269 0.15014666852300937 -0.012515253048260741 2.2172870051170777 -0.68772557286002933 -0.072480014531867629 1.9212631699179521 -0.37260020501691293 0.75132513119791811 2.1208608381491607 0.4291385184353419 -1.2340170394031098 2.1826181698552651 2.77636113012547 1.5546618093024167 1.1974006392210665 2.2997008505064418 4.5454023030885118 1.606736607333592 1.3185326766109118 1.898306360964507 3.4821520395255301 0.62143308907395212 3.0778002883652569 0.015634387400295498 2.5961874737021695 2.1851402024924069 2.6277491547137384 1.2261300593558651 2.0782285927537365 1.1147345891400537 1.2207221124011605 1.9511799132161984 2.0506198898418102 2.4550744621814276 1.0414528094522122 0.83513338539316928 -0.22626694938830885 0.44441694694096617 0.47217158285727784 -0.016573124657856937 -1.8705022859650675 -1.2750331800796895 -1.1944081964898168 -0.55508081284074806 -2.0584696511834917 -0.80608447946065387 -0.7459965359966485 -1.1576639499195689 1.1363643646087522 0.75003692480281081 -1.1185596707193057 -0.024188240444226947 -0.97391571203371308 2.590193384567002 -0.43894148920312553 -0.19125070166522595 0.11198603558980588 0.26595759618704556 0.16419163227505365 2.2699429457606395 -0.53085439370785625 1.1228983479837276 0.17132231794833788 0.066264973691482681 0.8143302543427362 0.45652550418388715 0.10355551917302812 0.56421723105305199 0.44297163253360561 0.19758399691092499 0.83719683084799845 1.247642611278472 0.85134276565078093 -0.29509515340682252 -0.45428053092919835 -0.28267508414961762 -0.10544719074528437 0.57797687242255258 2.6040032696904483 -0.0049816192458479866 1.2201441620758255 1.5574068443819691 1.217646022035676 -1.4494213858979264 1.2468409822002826 1.7147287944503122 2.7497506907289635 0.75375753907548393 2.4046315150596969 1.5223368495362963 0.39819218531199169 -0.59994644544761555 0.30411891339871827 2.8382659941224517 0.67466409522177062 3.2630088195333751 0.15507753500475016 1.9903096766759811 -0.85739766222400016 1.0121760057257023 1.0072457362807412 1.6812720681249234 0.0068021691930731454 0.48101883526883349 0.38762552237480985 0.23925824622650818 0.31007424192662703 0.19824788433531992 -0.30180881658344905 0.15294255584137728 0.66748481424872674 0.4772932772271159 -0.0086511334677160153 1.2374512704041936 -0.7170205218258251 1.8208682806158984 1.0632775690097889 4.2221019354204321 -2.2467272421448223 1.61252070472904 2.4599679212662044 2.109664887942361 1.430568159973971 1.5987263691834224 1.6712410899164563 -1.507344898844859 -1.207565051695392 0.55180006657890124 2.9555475933588204 -0.07787088664490345 2.2879179565554986 -0.14529293480970279 1.521725530551852 -0.97573530697329935 0.57979410204160731 0.86618678040591346 0.78949309854797789 0.47567322603377676 0.39556394166810699 0.91353662447467265 0.5771629578340195 1.9217294342982971 0.33365577158871196 0.64651734531258054 0.75408517884351278 0.83865897861090066 0.32235354799189758 -0.013552204496163126 -0.42319090476857907 -0.8540792571763075 -0.88047670846713366 -0.34997978823127457 -1.3972689925144077 1.2403454840398402 1.6183245431759705 -0.39830959538025246 1.0659297996137151 -0.041155387854133633 1.5499699786195331 -0.32973211439345879 0.10436408897713439 0.21455475928204917 0.55185354815177379 0.11677457367152257 1.1762009281569035 0.74160940028875522 1.4450234480017929 0.92232378229432843 0.82401830214885063 0.94813372668071405 0.6245578443839499 0.44234999372316297 0.27119017844477267 0.73437898340391683 0.99323025799851139 1.4819663232118077 0.48958464630100423 0.59713132296102767 -0.10867863812677239 -0.39886191166757218 -0.087283127111053072 -0.08482215036723563 1.2984114651718697 0.10139044848055605 2.0206914241418219 -1.4172682464110788 2.9680624377057927 0.80663555805701659 0.72079353314264005 1.0886698930828618 2.2820097862099118 0.91689150681479659 -1.6149105920643987 -0.40250883226727324 0.24151480943143575 1.7664652243638923 -0.041137751673351236 2.6078456151520104 0.05962186499445761 1.0879542354738072 -0.88503727125555542 0.41200939976899525 0.41574388562663384 0.81963170630018012 -0.037253016858221071 0.57876862252614114 0.95653720777987672 0.39862315548355221 0.63509576764804299 -0.14254210022059247 -0.46315461267515817 0.23902224121465765 0.60933970288189343 0.41342867753515233 0.001572873581241128 -0.58670370956124507 -0.25186649912469261 -3.357171546946188 3.9348156369184726 1.1008882772280679 -0.66224143790404533 0.93808131648188731 1.8004767982770806 1.9849074830478888 -0.2525426005116162 -0.061629957293927021 0.51425679333257257 1.3012624448572148 0.96534443855377494 2.7580395828948494 -0.22227795758810998 1.6315294433938772 0.97698052264794422 1.7544511486417882 1.5818287225236531 1.389034244366105 1.0834249375947638 0.69516809945886271 1.5473833487184356 1.1202224896602229 1.6176677852993071 0.98559954514888337 0.92788506319191888 -0.17597457673096223 0.35647865127054046 0.18978103768754453 0.0093115032989172335 0.68994178898025504 -0.72560580873562008 0.65962688413378534 0.61245461576419702 -1.6061705762854934 -0.18357606724466713 0.3282326371311724 1.5889150432760335 -1.8379429722638752 -0.95895571012762526 -0.21296634184009836 0.87607488912121179 -0.011818411699773016 0.66095203763515542 -0.36416919863309266 0.69310514627682518 -0.16115967106829851 1.110980747747639 0.6835812861190631 0.44265584091464022 0.67341525974283822 -0.20785540352570656 0.88808761961328586 1.0971512930760607 0.45794374697231927 0.71109070462311008 0.50688642168631859 0.031896378560477466 0.30875080577801217 0.18580977917925709 -0.033531536716790322 -2.382116564433673 1.7730394741121542 -0.52645034020582393 -1.0444022835434843 -1.343217476132067 0.81505129417632527 0.62633487944488042 -1.1205444847295793 -1.4124875549187061 0.031520703493451575 1.548307632007843 0.079286507594338057 2.5046867997381401 -0.73975709779684407 0.53653248116973673 -0.58574563420030912 0.24768633158912101 0.92560003476284769 -0.52502353653299605 0.38367234199413974 1.0572270897087019 -0.072376335887527538 -0.48553717133210716 -0.11759384851221746 0.39111169882796254 0.043214814519146549 0.15543901205972863 0.19227118061766044 0.0018356502955794551 -0.018747855617671536 1.4251816704039904 0.74360422689011041 0.3541820164650899 1.4441041075125634 3.2298235917629703 1.8700946703400312 -0.38363461470384613 0.54810242795259601 1.3179601632829878 4.3185985003909577 0.14426028961643753 1.7770278160617743 0.80350195331278074 2.7446864461027096 0.48116343896656288 0.82155126711342008 1.2892026747588126 1.1819098024996382 0.60998336675067766 0.52101001712755701 0.96997480614175779 0.47705791973751771 0.66394716840275259 0.41466524166496116 0.89102500480280589 1.1277568206852442 1.2252484092714926 0.84804953818190243 0.041468766945855343 1.1104858128061252 -0.85562755734164742 -4.3109226324315042 -0.90153299336449477 1.5711702716576756 1.2348572923053243 -0.68625374052290045 -0.22796333568145555 -0.2823624597329234 -0.15453315897885198 3.058418807550594 -1.7312737021665126 0.82885993176428463 -0.20401121424794186 -0.0090185309938770036 0.82160278188012426 -0.162402640796588 -0.213380386362371 1.0940691864893788 -0.083678826237774465 -0.32491225185814476 0.042811504831752348 -0.27389159489685444 0.54984692067058971 -0.68602783666805034 -0.81493688282082888 -0.54448839056298981 -0.11088356360447005 -1.2543041534792057 -0.52340950232739791 -0.8836023779152492 1.4267446587032067 -2.1681236616347439 -2.4033924785458325 -0.68454222578063217 1.7776806703111072 -3.5334864048398069 1.2883585992052971 -1.1451990578267 0.43719996694695429 -2.2648109016236031 -1.2341558979360587 0.27691844622624706 -0.47199221421233134 -0.29158546431817683 -0.021433465289667095 0.29674392191881727 0.32422834826463037 -0.10908943173248417 0.63017799389973295 0.86946478365960433 -0.59246270646912169 0.0018558004337546504 -0.1290332527946832 -0.055758007680230183 0.14887243376750373 2.5414888053119422 2.2229240534816297 -1.6221536812347879 -2.013250727006231 0.46448579790756295 2.6293075485285331 0.72820862128742647 1.8291678078473306 -0.52286174639110605 1.6883987137786798 -0.81309561979784506 1.9120623193501642 1.07562239788934 0.96342812770793473 0.94088921375851653 0.46314717698605712 0.97971166034966573 1.1682416235603179 0.62685024895020891 1.0859895402913768 0.43584773314906033 -0.086066480146077248 0.28280864572533926 0.24097338752158964 -0.027044249636534051 0.09732320356331392 1.3120813677823684 0.71972447501157211 -0.46499682235823592 0.98011502322661137 2.0020008032451337 -0.30682826746487396 3.3537380664798264 -1.19909869360039 1.5261297677516166 0.73622669645996619 1.0065345230391025 1.3646166516969669 0.71263944750636354 -0.15381886123814295 1.1961482884403813 -0.45350775310139518 -1.0685746898604156 0.034693798257098153 0.49932967070698786 -0.1018533028817324 0.40316179816378378 0.31363738030535371 0.61482274914138302 -0.066017298907540906 3.3425215455797543 -1.646559494045472 -1.0543520966856013 0.85845382112564139 1.5382783329879401 0.36208438184305908 2.6610459952492698 -0.4653549360430016 1.4126769804332275 -0.40482224598457733 2.1568949123537777 0.97650995567611254 0.73965165607175609 0.72818819635067689 0.3765308202482564 1.8033362160746211 2.0325382181211213 1.7010587366114429 0.95263494255051762 0.78673667974035444 -0.72750603105514489 0.076308075477607859 0.1822468620649102 -0.068226658004675519 -3.1694171241900255 -3.1516587038410031 -0.64340175648899223 -1.4698100609552116 -5.1900150070010582 -0.31037488712335565 -2.1086006428648258 -4.1257908165746873 -2.8141236378531453 -1.836575165155373 -2.0260944190037464 -0.93563412705423932 -3.5484306875659417 -3.23029914193694 -1.6506998038153315 -1.0323309469231086 -1.6927394906698012 -0.55477800830233104 0.0012678657696194669 -1.4565611765529458 -0.20681354166188198 -0.22172218906145125 -0.12692450799362784 -0.028548992698884234 1.6271268853381196 2.2875274580301088 -1.3178999073205195 2.2427268228437112 -0.43494599667204453 2.4236769906974645 0.28476597288739147 1.597961727297309 0.81820381927126362 1.329443957162622 0.718473053837833 0.40821863754207627 1.1153415773372182 2.0328315546614038 1.3138721204564248 1.2622537714807003 2.0744721243904221 0.33427303654332191 0.45670486174495217 0.23595746471724302 -0.063500788315562967 0.73396950553346008 3.060903227742767 -0.78208648679786297 2.5092919829142382 -0.013382623868809578 2.7909742667347306 0.63399206702980371 1.7095644979036058 1.1452552865029964 1.9723691802878551 0.72728883572837588 0.95989735668276199 1.6360889380540342 1.5681634142777647 1.2256274070862239 1.8219127998172822 2.2329337904813067 0.28073777277698314 0.41562964433206678 0.36177603783361778 0.00025765040273973788 1.0320405423305392 -2.2159999219773927 1.3752135700053951 -2.4242031913730822 -0.26371229407401331 -1.4452504827042574 1.2146198501538614 0.44873279000029742 0.99304887374604545 -0.48574880520379349 -0.053046565161758673 0.53894093214843464 0.89684237978693238 0.054681294535843833 0.59202836877846399 -1.0239383748390158 -0.21855989845531765 0.39390953486781199 0.51241391073892317 -0.10476894576657726 -1.4832174737875645 1.7442339663854778 -3.8214906770761599 -1.5438458367762229 -1.8771757263774491 0.97652709526534309 -0.45682282004640362 0.27790581471386705 -0.88518038171135127 0.94538753249094465 -0.38918383079567231 0.046063316020987961 0.09903337530659774 0.13730139266033015 -1.7366841103066144 -1.9478455923406734 -0.79958581350799762 -0.078798288090401347 -0.099652927049012713 6.8778651634393908 -0.7978061980152813 2.567230308117153 2.0639858945799183 3.9292993356758239 2.097232265376344 1.6731003195708847 1.435200972608017 0.60317638107349203 2.3843588612968745 3.3123428904813625 1.7655471607554816 3.5911779020919639 2.6826586624101578 0.10451741365372214 0.32916049412821902 0.39433071339538028 -0.044484346029035393 -1.3344090987831345 -3.5470546947499848 -2.6599140805463843 -5.4936057840507546 -0.23941872272474068 -1.9641980394022178 -1.2539541093572937 -2.0288895359095438 -0.61261720793732644 0.46409242484496449 -0.74810641246026477 0.30052235804930572 0.61189360833901774 -0.83227403804881617 -0.52976152510147112 -0.52912741249937034 -0.10018712042494847 1.4578689918355527 -0.140333306717939 1.2405781299822343 1.1067098015857078 0.93001088416665123 -0.055971877052693075 0.41093700257392268 1.0909540756988729 -0.88391761669014346 0.39876244506923875 0.26237070836563142 -0.076702401149458935 0.44535962693878611 1.26929311643283 0.93231471575075819 -0.021317033224696743 -3.1988385637159218 -0.66830114542927932 0.21072466690758598 -0.32420680274080749 -0.59425815356935163 -0.43585296372270044 0.43929340587122084 1.6392740784945827 -0.016439216980280603 1.7726760773883381 0.0092277858935461456 -1.518329982178549 -0.53660643639655858 -0.27297824551601962 -0.09339495745384567 1.3175074856651621 0.62500379904305658 1.6006842077299668 -1.5132899675273066 -1.7633674228209555 0.60825361278018575 1.7127505182904081 0.79312938498644669 1.1133684508528909 2.7690125681989883 1.5978002994699725 1.0500213137837116 0.4055873570365075 -0.090320780612596629 0.49467809562828802 0.73552359060496064 -2.4541581152119432 -2.2809673911178572 0.0079993090606700415 0.77491913136623769 -0.22037575104532506 0.57903059942468038 1.0543592019010175 0.2350136902047342 0.58068036777613841 0.24992575628599253 -0.080047986162984086 -3.2455235311374153 -0.13398811603036223 -0.92120186116812786 2.3251972952126292 2.2000712652562724 -0.36436022560203613 0.71873317054486685 1.1478652392109709 -1.0556054653563376 -0.32987131202432257 -0.07533461304930765 -0.1252532282048209 -1.0393138110062725 -0.82063572606961166 0.40654199435246663 0.32645042264302027 0.18764165235284436 0.1248092346451429 0.27590699090443249 -0.28213982390358167 0.10048806093736683 -0.11954367004785735 -0.089747981357811701 -0.90953125752607522 2.808527900721161 2.4859422799080719 0.55929724136457204 1.6613799703405727 2.6785853873444831 0.64241671864214744 0.85051183393218288 0.58106228628276935 -0.083635669663078296 2.2929131236719424 1.6641591771148121 0.87164362076895252 2.1695200770729244 2.0737688495430042 -0.10570599888231741 -0.24560535796517716 -0.16343347604535927 -0.050695686074640103 1.6809692723595295 -0.23855401995166922 0.55466641575602493 1.9810998413229506 1.1690357730734771 1.1216230479420495 0.11762756645990693 -0.087992953660417872 -2.4872104404688549 -0.61816382062828534 2.2061285218948554 1.811736096709212 0.90140679671652391 -0.25415745245545524 -0.099972220388306526 0.99404916798524989 2.6975387952060164 1.5246541649610361 0.93218402262671551 -0.30556413182753045 -0.081296791380509631 0.66261495120475444 -0.79346529126889387 0.50044562691356176 0.9292547222256613 -0.13692108977102685 -0.58138336212552333 1.1129056068641612 0.17006087968782371 -0.20323314914856613 0.26957404808097163 0.32948376725122541 -0.04788921677189354 -0.8678411345960112 -0.007633588156865251 -0.048450577797143048
label 1 2 3 4 5 6 7 8 9 10 11 12 13 14 15 16 17 18 19 20 21 22 23 24 25 26 27 28 29 30 31 32 33 34 35 36 37 38 39 40 41 42 43 44 45 46 47 48 49 50 51 52 53 54 55 56 57 58 59 60 61 62 63 64 65 66 67 68 69 70 71 72 73 74 75 76 77 78 79 80 81 82 83 84 85 86
probA -1.8237115859406703 -1.5448277038790301 -1.6456136828304286 -1.5832084630575425 -1.6539828803814354 -1.9206536994426113 -1.614317199795378 -1.806248550502713 -1.7166010984327029 -1.4760560527462303 -1.6557319166476112 -2.0135689889169952 -1.6772104959909953 -1.2972552857005062 -1.6845122427563073 -1.7738881118382344 -1.7164946074967737 -1.7919443687378951 -1.3955399864034497 -1.643801654178269 -1.777744529090475 -1.6741170512958543 -1.9157066474168529 -1.8343377637040033 -1.7248117075838876 -1.6513247364087278 -1.8745988957276174 -1.8272640080782117 -1.6927079862806735 -1.6386647498079787 -1.5732465614901576 -1.6601075309783748 -1.6416624325198435 -1.491894588396625 -1.588069185343616 -1.7815067736577372 -1.9422981944835662 -1.698278425183132 -1.6909772876405569 -1.6779408181353623 -1.8764877580381196 -1.8872252727895924 -1.7816443513717199 -1.7810420801164837 -1.684328892169215 -1.4634309514931287 -1.7329131299663325 -1.6728374410634006 -1.7739620508283593 -1.6376912412189351 -1.7261322446798619 -1.7101362294054829 -1.6882410621203032 -1.6804675737528256 -1.6684650051068235 -1.7192467104655453 -1.8632253845947284 -1.6940509149326013 -1.6367017090115947 -1.8848332186846031 -1.8079150524704029 -1.8074026430733594 -1.6100176914669579 -1.6243182386151656 -1.7967650000518138 -1.7073057854793909 -1.7096091035320773 -1.6985836324876054 -1.8485226695259294 -1.7951235384294513 -1.6719229045177655 -1.7719059979356511 -1.7542298982143056 -1.7664409235323635 -1.6937643009603676 -1.8150458851447471 -1.7415630105525077 -1.790406841464262 -1.7756198461557127 -1.699832450714436 -1.7835360088692811 -1.8625048451831825 -1.8508574119777434 -1.8869742113554453 -1.8022478684410792 -0.28019071064892276 -1.5042419824888615 -0.50808746074848976 -1.1862718141179929 -1.5986151664698092 -1.1057924222697422 -0.85256420298167779 -1.3169640554247832 -0.74117482989170436 -1.4326973074999352 -1.8396940677142459 -1.311869881238894 -0.80937625483455078 -1.0800773397546701 -1.1681439668629869 -1.383286306512048 -1.9054854113482236 -1.1436240077024045 -1.4036719328549736 -1.3430590218646252 -1.5876893364582065 -1.9866306658268895 -1.6493698764460103 -1.3255852453747314 -1.3991093822648311 -1.2589758384547638 -2.0000995577412071 -1.8980111105663653 -1.1670904236909283 -1.749017207418706 -1.6674782515634785 -1.6574160894243117 -1.980450498684867 -1.2351892648208787 -1.9611140290889619 -2.3001731173661715 -1.6729617115385433 -1.8859505748723613 -1.9976126691464042 -2.0436814850236829 -1.5443538875748895 -2.0743351274956332 -1.654421773249287 -1.9485451597602976 -1.3100764519201336 -1.7561434214733378 -1.5275974597769684 -1.9154166666632915 -1.8975092873842629 -1.8807402917901279 -1.7788154558027034 -1.9826190799678405 -2.0861265415636083 -1.8029316484416493 -1.992321895465238 -2.0772899316717184 -1.9059778809056969 -1.8160541215783579 -2.0349314059224879 -1.8788516731063869 -1.9431410497524364 -1.5300647317315785 -1.5679874508421812 -2.0482375859245154 -1.7553462527679682 -1.7025193458814758 -1.3957385992474987 -1.9963049121931165 -2.0247700823291486 -1.6402861938537907 -1.5281169730969943 -1.5649592742435687 -1.985609603684215 -1.6754525026803322 -1.903719008741539 -1.9026406176215245 -1.8110868547267682 -1.8950759059036084 -1.8323692963645302 -1.7909202857233224 -1.8254235438182917 -1.749634629772205 -1.9046440660808739 -1.8060922587237189 -0.087550106864515448 0.36852270226944683 -0.41891167776660548 -0.2829439331720478 -0.67269469892563638 -0.20428704581855986 -0.75469246847429883 -0.72339195808472656 -0.73256496413104233 -1.0799436928908694 -0.57942737825464929 -0.32346997972032798 -0.56335849820554007 -0.57222260767942568 -0.9155466130290566 -0.3515612740423662 -0.42620796673386224 -1.7958960575336458 -0.91847644028731323 -0.47086172355847949 -1.3563082909519928 -0.52836882521702266 0.44605811573660287 -0.98208090549465443 -0.69041796884621365 -1.5832102824555006 -1.1464268644505227 -0.33641942373050276 -1.0385486482190744 -0.45206995635335806 -0.93827246942050346 -0.99465604505238259 -0.9733135222230147 -0.11345179809722972 -0.70286573628675486 -1.5172986514649285 -1.6030427932552855 -0.98050910909061273 -1.3408552369812656 -0.90587147292041204 -1.1063290590866721 -0.96331534549017184 -1.1143755484449576 -1.1186583957674088 -1.9744205100715033 -1.1119262189356713 -2.393548934648476 -1.1289050225943504 -1.4364608691618324 -1.8691812815461737 -1.7216141789834691 -1.3918540028644617 -1.7657709933203687 -1.6908705091659249 -2.0586659563486256 -1.5319724245953108 -1.6863499170632461 -2.0631953889255703 -1.7043630655038735 -1.8653014448016683 -1.3565651578999904 -1.612020844115108 -1.8020133940582288 -1.4545711187683292 -1.7592774109395668 -1.1125712438112196 -1.9232253929043837 -1.6102998141935987 -1.6446957105272404 -1.398584026850243 -1.5753620465477798 -1.8531098358233247 -1.6168598846266007 -1.7640703048266062 -1.671565266479625 -1.7734799354324775 -1.869033098448371 -1.8063422157146019 -1.8147110719669746 -1.744109525263021 -1.6363249061603586 -1.9440879725305185 -1.8149708356833987 -0.1309690497361628 -0.088641350571286151 -0.23850066739709536 -0.14581204526414931 0.23034160603592391 -0.80365378871284576 -0.66144805468892787 -1.1598922011634769 -1.0075654146794029 -0.90198009932900769 0.00073389801471106285 -0.83685695438804086 -0.1457381970429916 -1.1521195005224867 -0.58421863266396645 -1.2462114421712849 -1.3713498073987032 -0.70593910541778215 -0.9075986907183573 -1.3329582438966965 -0.34885073231734287 0.9810817492532683 -0.4404060113208299 -0.62419742476556428 -2.3067080996456442 -0.73320572854882293 -0.16154259609325247 -0.96245542393565109 -0.34559229513669298 -1.3786748789446046 -1.0426008098612043 -1.1381830156701049 -0.6591898144123346 -0.40921309588326871 -0.55694176101120074 -1.9595197552147805 -1.8551798907259818 -1.9971064990270913 -1.8672544244482943 -1.8846157347585757 -1.4901212321417934 -1.9240466999280059 -1.4476537964636524 -2.0875889843759254 -1.7010382866833478 -2.7082020505991284 -1.8632242684617555 -2.0692929552300048 -2.0675525695942407 -1.8045297003898346 -1.5459515161972368 -2.4125107852514174 -2.153805491732101 -1.7784986077053431 -2.1439149394682016 -1.6129578241949569 -1.6924701594629865 -1.2717969082463358 -2.0716194270025521 -1.7211894326710413 -1.8041368102799602 -2.095727439953889 -2.1012611719486052 -1.7774792516550821 -1.207876176423337 -1.8153605150212684 -1.9851573674613265 -1.6977386941519446 -1.5823948998300292 -1.5626737823675136 -2.3634453871531518 -1.4986100681116161 -1.6420940688091432 -1.5982672293140474 -1.5656671310951733 -1.8409108547392836 -1.9343042511438355 -1.950345025729225 -2.1057480438960643 -1.8507093735668467 -1.8415675535097416 -1.8043096414138085 0.048733773395890086 -0.11822167307666739 0.77011095632967896 0.98342406867078269 -0.43919421745520149 -0.35967763900523708 -0.50311265108906822 -0.069849622692972221 -0.31604320305808348 -0.1919135038166922 -0.061336367410863152 0.91882251977126295 -0.080893460047221394 0.59202589238334813 -0.89001261157589073 -0.92547697317437283 1.2078621355322223 -1.5770223984317591 -0.86934781290438279 0.95302464157068478 1.0000852101223823 0.80533485681555306 0.09546889688228645 -1.5293492432013336 -0.23287279732110289 0.90288521809319766 0.15452698389844843 -0.21548021417745833 -0.35334295256278886 0.046171966103966892 1.0736062744355082 -0.16856043930604189 0.83570943717773127 -1.6128349316512398 0.17729811843339316 -0.30972551694435252 0.72252106045414943 0.3560188071126873 0.072231451948874995 -0.80863735883089316 -1.1044123304002955 -0.85648482224510536 -0.80201377732983536 -0.62694871069988389 -1.1723514257368093 -0.73180905013765107 -1.5133103067765887 -2.2204928672316404 -0.38733447887921429 -1.0429953933654736 -2.095864514325998 -2.4022097797297222 -1.5488980008588558 -1.9933721209191271 -0.97311995222910375 -1.7587874412142064 -1.9336473191022994 -1.4619141774674356 -1.5743650031718199 -1.8859800810475413 -1.7407096280406165 -1.469282238092575 -1.6824718107254075 -0.65340627533284634 -1.6235469732560173 -1.7334499501856993 -1.7436770984934664 -1.5163203206464881 -1.3685283998365743 -2.2382613276532961 -1.528086352126653 -1.5388519980243569 -1.4510646955696658 -1.4171889290527753 -1.7937359495570713 -1.8505255808798187 -1.7794554828013629 -1.9937668223537379 -2.1002070669903636 -1.9739670322448222 -1.8201480145472442 -0.12578592623242707 -0.5596185367928479 -0.25259000913206286 -0.49585303403957293 -0.83946042273833943 0.075305994748337712 -0.44640212236918281 -0.66248375391358627 -0.66355325668484777 0.11908905063096867 -0.58020302444565708 -1.435202091936431 -0.80501044355223073 -0.038464209565705079 -0.66620080512415181 -0.39500767069539955 -0.74948961947782056 0.10621861308972302 -0.11049957569705224 0.060795908365979617 -0.0094009875225045739 -0.58094384972047342 -0.59516415243671783 -0.063277513666676791 -0.23009358019230575 -0.054122261603244126 -0.22579669461149665 -0.76079264227299892 -0.39062088699049291 -0.70727122951051524 -0.34875730298546248 -0.34511467063457296 -0.28122488035824972 0.041262470928841312 -0.30323366716095462 -0.017874133715906536 -0.3392534692135159 0.15550198682559493 -0.76310547146346086 -0.43286029185114416 -0.94511227347843385 -1.8191000417800565 -1.0635578058374267 -1.7578812832817519 -0.59823933895930392 -1.3461532959763964 -1.4096105966178352 -0.69597927584407837 -2.0863073938212726 -0.78752982028732521 -1.0740872978468063 -2.0800391570618451 -1.2340829209108912 -1.2378404354465999 -1.7046455680725876 -0.7751018252132118 -1.9184499764335496 -1.5791658628529475 -2.0870565208444747 -1.5129379101583014 -1.0124769649606626 -1.6894590099356326 -0.44486356001573418 -1.9166961925643724 -1.1678177678476283 -1.9145139368162114 -1.3856041975409465 -1.1340710710280433 -1.5791466297422661 -1.6347377715020419 -1.2387251515476918 -1.1322999258159232 -1.878514614856283 -2.1865582320285708 -1.8064583552574363 -1.798497600798195 -2.0007148092290974 -1.6129279773189247 -1.9228021710593419 -1.8560577053313034 -0.026122751977413834 0.31519845121282269 -0.78373455249826363 -0.13265826037522854 -0.38782511544636178 0.61560819689788282 -0.45560462438272209 -0.40433238076504796 -0.24266940376213528 0.62541252582240414 -0.63362223266518947 -1.4790159423065081 -0.58539098099449793 -0.38660514077044905 0.35050085201542075 -0.75804813517532876 -0.49600232120179699 -1.1342487500564959 0.36172641833954761 0.50236591194373381 -0.88065061410471934 -2.2524163005406335 -0.60642418373876161 -0.70888534903759459 -0.58965642630204829 0.71785329940180009 1.8032561191758767 -0.16577778689720887 0.86614280085343109 -1.2180628517658141 0.23611226735350851 -0.86433081126304667 0.7326849151151974 -0.36872360088309919 0.63455403582995107 -0.28713626501975714 -1.6970931934945743 0.12838646127864412 -2.2215159289321762 -0.82732239053232648 -1.501754632964678 -0.94366336133159068 -1.4000154001761922 -1.9453267774262253 -1.5678629812847888 -2.2976676029478167 -2.2489872802561277 -1.3184978493785844 -2.1582927830888576 -2.2552699893351584 -2.1730904364336125 -2.5980764657800064 -1.0496301609234122 -2.0804434209600555 -1.0529404688275243 -1.6070202010383483 -1.6675281041973067 -1.9951212384715669 -1.7411508280280077 -1.6330161845193896 -1.6599398651752344 -0.98540690896393301 -1.9220679342189575 -1.9873485754834084 -2.0267698758770329 -1.2071836246432999 -1.3807789314026486 -2.351825623922799 -1.4015029379414348 -1.9417751588372161 -1.6682695659609692 -1.7610235677598174 -1.8383539020317723 -1.9027509703122154 -1.8390902037735091 -1.531321832423415 -1.9443468905415859 -1.9201686100872459 -1.8225493491207654 0.47220816971292423 -0.55568809865500135 -0.26495014513512993 -0.47986105040834842 -0.25064556861985104 -0.22897304587603037 -0.4760453453501895 -0.35662725542945101 0.18440005211638588 0.77315770454510102 -0.6993757745663054 -0.81581775152926828 -0.43831629382899456 0.11048309864412101 -1.5475949299169354 -0.93197135041252988 0.041370226016565578 0.62842034466908714 -0.12617552952855612 -0.21441748355999804 -1.3188382650701798 -1.1024040743813122 -0.30857702871770964 0.94863815415473918 -0.8441859909259366 -0.24686600856571164 -0.54537096572200705 -0.30642511233774916 -1.202970590023088 0.12327633686486585 -0.30216390855343089 -1.2856056119769754 -0.89961396706492536 -0.43597687412289388 -0.76781363159451066 -1.5474837366205638 -1.392493043297071 -1.0179418266459237 -0.62784108449914822 -1.3137104250683171 -0.83324980878494204 -1.5184727932810096 -1.4261080954793399 -1.3064126498642206 -1.708789462243087 -1.7731236211756443 -1.8213679558013323 -1.9122376837694417 -1.9865793505367646 -1.765411643220983 -1.826142660374054 -1.225081700682721 -1.6849129214852083 -1.6875427245994379 -1.5155200828605322 -1.4736670363302997 -1.8123901950618537 -2.0490823424288438 -1.6624763062506471 -1.6722056483986358 -0.98743211841525802 -1.6507133767602509 -1.7641699419169858 -1.7818262130210911 -1.0975399780044444 -1.3370971456355012 -2.0989428974106934 -1.3584443662723247 -1.6755441138696292 -1.3441896867020031 -1.2908424802774596 -1.6783101222291374 -1.8433272791584001 -1.64234487856933 -1.8879086592212126 -1.7915024395930541 -1.9337407554741219 -1.8190826650799199 -0.79480912902106848 -0.21342641692380385 -0.90469667956703692 -0.32180983346998127 -0.88426206520962114 -0.26705924517102231 -0.1847916476994324 -0.15558814452887623 0.36403606974625519 -0.27236559655236259 -1.2601065285221771 -1.1780428982597113 0.67210915838412355 -0.82559446835304728 -1.2568328211035036 0.27905672742962634 0.43243863612368638 0.17910290709310561 -0.81577293335716483 -1.3795424233063678 -0.13149008803264028 0.09415634879446344 0.49432323278600127 -0.064750179273743741 -0.82137301365266147 -0.72414972934038202 -0.48817917584362125 0.97102122479847941 -0.17771368595314213 -1.727616069152595 -0.053131924807176642 -1.2027522407985927 -1.6018513518391346 -0.34066224987434546 -0.39453151492149841 -0.70175627482712566 -0.84693513842520884 -0.93567326676031892 -1.5929685782529106 -1.1998662491275474 -1.5697832355001526 -1.1205411312787954 -1.798033837549067 -1.8065280938062116 -2.4375639881064619 -1.2893717330249048 -1.6143659822904131 -2.7714687124861959 -2.3164642594720126 -1.9097038133877662 -1.2524890480358777 -2.0418068967242049 -0.5773712316095958 -1.3904689015359004 -0.81306060195147378 -1.4710881723843756 -1.8432797762770645 -0.65894770139093906 -1.7908892577375539 -1.4434086348082422 -2.011876459804939 -1.454287574713848 -1.533051930137495 -1.3902804169689429 -1.3209083923546923 -1.8885639003187185 -1.512550390212694 -1.7609163886024224 -1.8205435239328958 -1.7149227896536361 -1.8902566115877975 -2.0289287474694429 -1.7362364276650555 -1.7993887387466379 -1.6270280697722315 -1.9698805834178017 -1.837839270495236 -1.4826476070944952 -1.1162325456028945 -0.23155766735311414 -0.93075420943873421 -0.32916769499494936 -0.26135053616955672 -0.63729276653621303 -0.67437897030672889 -0.71828612846867501 -1.8263203073863201 -1.1446720473629157 -0.25821417130095525 -1.209849353857011 -0.63726200972643166 -1.0781228278174793 -0.65381498243656011 -0.55727178625947782 -0.99941766971925505 -0.95123072739599235 -0.86566008747725687 -1.2825163435242108 -0.46320248529830932 -0.79635335959929299 -1.3600654853229082 -0.71637626479762051 -0.94485482573311597 -0.9240331071720147 -0.39986109430046646 -0.16470474019208661 -0.42125976727321601 -0.67540167193619782 -0.42449754134407458 -1.3182193981909667 -0.59807868435532496 -0.68301199111223121 -1.0733119730023024 -1.3060598215760535 -1.9811607286459214 -1.695806920011484 -1.6098487483661497 -0.83265762561986278 -1.8733061471362942 -1.0444226707071895 -0.97487681055183784 -1.5594890499216403 -0.49953043937994096 -1.014157525644019 -1.6465638616820586 -0.48646833748527218 -1.0416405965007942 -2.2818414246704868 -0.98003722519292713 -1.986064334332482 -1.4535512560527197 -2.0251299310776978 -1.7221011657580503 -1.3877463003079866 -1.82273656179271 -0.58572407758062661 -1.8698076180850656 -1.1640686432130212 -1.8868876556207064 -1.4408678830167039 -1.5684377132649714 -1.2013430878703408 -1.7028855855541774 -2.0383378527302289 -1.6361652807474421 -1.5490342826957149 -2.1390124305019835 -2.1216555902018155 -2.1226033705626057 -2.1120947757251591 -2.0134038019097349 -1.9689548134600177 -1.8386101153563681 0.46857947764639157 -1.382010692810558 0.89795960380885287 -0.13093812624582651 -0.57499837629763451 -2.3906961561965177 -0.147124779645145 -1.2292359482982227 -0.020227922585915662 -0.36626316206738357 -0.5061029738910181 -2.3771274319779607 -0.19524422322949397 0.58130461114561782 0.38407882784566699 0.519284663712552 -0.41225394588654407 -1.2852323005208031 -0.94549693079763453 0.093601286555173399 0.41587389886655257 -0.67439875175737363 -1.4409836227987796 -1.5446848334672361 -0.86204221114026425 -1.1326891529371306 -1.4845344798189251 -0.0094800593944919642 -1.1885053217636001 -0.63015161707044076 -2.0521706030437694 -1.1036749421024379 -1.172743029672229 -1.3193758449431405 -2.7313679297822415 -0.82534094993792284 -1.6096966400243189 -0.77060769322763911 -0.68581933434702425 -2.4098499398596225 -1.609823185869161 -1.0889350637949393 -1.4143242661002746 -0.34283861598223619 -1.8702254599928083 -2.5080201636882729 -1.1375289505145605 -2.3630807493257446 -1.7068321332805503 -1.3778123162158802 -1.421392526837657 -1.8679135314635344 -2.0324784478959481 -2.2470586277585243 -1.0026524445667229 -0.20628135648598006 -1.9099638767951022 -1.2613145358994691 -1.1243281161076755 -1.3221925303022488 -2.3243612624844419 -1.0324090180421877 -1.3414422744007963 -2.5323084385262105 -1.3427846783817683 -2.1572790266906576 -1.491589043498442 -2.0056555950528137 -1.8555205067173768 -2.147974904437449 -2.0928646983157222 -2.5078903365443002 -2.0200907024214207 -2.2225530986239357 -1.848702926199663 -0.8053335171923709 0.26863079855063032 -1.3673376503967924 -1.4855310172208112 -1.0319840214320861 -0.34528494314117747 -1.3861707699140156 -0.71128501423971191 -0.53951312585429034 -0.36527067105973221 -0.68222872577915095 0.32013831769271339 0.14498302768484578 0.48142388300032007 0.62854720107327389 -0.49361807912422356 -1.1306845551394269 -0.26605565422989946 -0.20247867357827282 0.35965129166064103 0.27401202996052509 -0.3450408628272093 -0.45773473126533204 -1.3872006437632523 -0.89745855467465374 -0.055340592321414299 -0.30643326045941943 -1.1789215838473275 0.1974613152402406 -0.17855160543604259 0.4754898654912299 -0.71496632747034849 -0.58883212351594427 -0.2062982344289721 -0.8621143402652317 -0.72775853234231624 0.17184834431544713 -0.73115659661515064 -1.2871868502098649 -0.07895138490642227 -2.2049068651528496 -0.32251078317729454 -1.3091403806390833 -1.6433852682089201 -1.9387355992437947 -1.3199937404656201 -1.6519698060342638 -0.83368134364490887 -1.3308020321937775 -1.5740853572880713 -1.1430747887252526 -1.7372934072216639 -2.3488541498291533 -1.3228886981846888 -1.8161463682579959 -1.4833227823508495 -0.55411235639539858 -1.5652157276597078 -1.1379536318044883 -2.3790286809598102 -0.71286166898927683 -1.2099373709693217 -2.2569631943044861 -1.0536001113212061 -2.0399969296545892 -1.1878849698101865 -1.7197177646961106 -1.3422731253172953 -1.7249501671997918 -1.6408833568623062 -2.0650173636722773 -1.6927194528729153 -1.9617838276063868 -1.8669537151139934 -1.0184360930858118 -1.4945164388559151 -0.85594352939623264 -0.16115624021747299 -0.57109667579689516 -0.24300751890127215 -0.53411153471123618 -1.5721648135502606 -0.51551521815721901 -0.53117812845822698 -0.44544777929968421 -0.31843661287861003 -0.24172574958637999 -0.062015317114801349 -0.26067768180676348 -1.4428049145790809 -0.8853185595359454 -1.1150401375118069 -0.74699908814788363 0.55398512635398256 -1.053689473962993 -0.90732696517559452 -0.22727087608252405 -0.28555067907391207 0.082520503829121031 -0.77108593889866117 0.8716258486365086 0.014639480726951922 -0.94420147075416494 -1.3118132440930428 -1.0452741685292264 -0.42989809071221841 -1.474392275813974 -0.97661701040625259 -1.3181804326904072 -0.99979630622095383 -1.3078321446633143 -1.4465312858428432 -1.3470608136142812 -1.6760342504544132 -1.6766067379083065 -1.3703997135543386 -1.6142299825773412 -1.8034828419893629 -1.817476584307296 -1.9734437338059094 -1.3209438135325893 -1.7422363962823793 -1.2591553188684592 -1.8418550676334293 -1.6645207489696852 -1.5626498234440658 -1.4802169967147298 -1.302499035916159 -1.648828999892447 -0.87091418159100054 -1.6098183626570519 -1.4479135686599443 -1.6962192176851429 -1.8736064858411072 -1.4824464072844978 -1.749212034096354 -1.70574204859259 -1.8321369115476598 -1.5659977159410705 -1.6237732976983126 -1.8578601119051166 -1.6473022308522363 -1.8632142208350617 -2.0113881575733159 -1.7640488878684362 -1.8550594972511478 -1.8659200512549816 -0.48998027733732186 -0.98375316224782972 -1.2757873043152643 -0.90634350700197031 -1.3483944280383944 -1.082421720416969 -0.74818146159849208 -0.5283694062144515 -0.85255435786792699 -0.53002521651096723 0.10058658540405971 -0.38052058495316743 -0.35192408892957056 -0.45751309874656876 -0.67445127691487439 -0.52290935348449752 -0.53412221755766964 0.23097353336729251 -0.56912212405578766 -0.7660918803584752 -0.13514592048551621 -1.1209610960827017 -0.91119678863671172 -0.85091527153404389 0.049544242615462447 -0.96552525683799917 -0.68458319904663112 -0.85165456391008632 -0.5357264673773835 -1.0967237205004807 -1.3114347265313502 -0.62303610361746986 -1.1448687025257953 -1.1895330851155288 -0.9987439303138872 -0.5365547660875718 -0.74629864298774728 -1.2701892217281441 -0.91039165190424531 -0.7188506524805196 -1.0175707802951419 -0.46972833833230548 -1.0057245712895588 -1.3222788036346889 -1.2778084607078406 -0.79433459978332355 -1.8468274620492093 -1.0457474600610666 -1.1997862921258147 -1.5578171056094092 -1.5748130719585245 -0.83706457922607458 -0.88531324323572658 -1.7739558478728099 -0.84542896648009136 -2.0086340260273383 -1.2113879888773471 -1.4625145437490756 -0.91463650443285249 -1.2614934490069118 -1.3552039019807343 -1.2140237006353842 -1.8973653227953644 -1.2473474766680863 -1.5324850550203533 -1.601019395450008 -2.0308561929749338 -1.599702347778865 -1.9450557175103638 -1.9046006800466928 -2.0528540213980957 -1.8601885826979172 -0.47885971370347841 -1.1148885998424358 -0.33658244083075994 -1.2511037086844501 -0.35648804897542757 -1.0772791197793852 -0.40969006324212454 -1.4700217174802193 -1.2364102860629105 1.075096987323799 0.033006538214493564 0.2315006203662229 -0.3751788923694887 -0.51754843575402432 -0.26102582924442991 0.19664755400197625 -0.041994036017893498 -0.60257543978718142 -0.944356735592497 1.461980767786879 -0.96410027785833008 -0.80075610148338339 -1.5326718145639857 0.11119384472547128 -0.86177215406823404 -0.93552756577587959 -1.5076318847493086 -0.73542172127971828 -0.76147472675795047 -1.6128673658017922 -0.93162958619293079 -1.0710182167396272 -2.2895637647552189 -1.2069551611279501 -2.148292470794138 -0.57047271548603029 -1.5661760360766597 -1.3244783467532397 -1.3152470627092046 -0.68988443154148038 -1.2027591487252327 -1.8112072752628017 -1.8466853792884219 -1.8275019445587941 -0.95975217371011989 -1.8294921558846793 -1.3107618532010894 -1.8427478985121448 -1.6083045134570586 -1.8219808967034501 -2.3175900519932453 -1.4585461783184712 -1.860940192156455 -0.90931612684345897 -1.9255790053367663 -1.866718432076006 -1.6940366973597953 -1.4414075482228035 -1.4662478938468246 -1.2120215387457736 -1.6093217652629239 -1.7435005375227071 -1.6630750056643555 -1.6773731380772743 -1.9198092417165076 -1.8966192942830744 -2.1027269245331959 -2.2276217053289367 -1.9063713424474062 -1.97769624004531 -1.8069503658033994 -0.19690903207024665 -0.36022583644125727 -0.25159998263593764 -1.0734866431440551 0.45684924960613449 -0.48817527628768126 -0.13265622457877696 -1.1182813100707367 0.53830193240626478 0.62629732193514109 0.33237010068202044 -0.56267261280345393 -1.2683280416174358 -1.0140335613160687 0.67023728372276636 0.044877874131141443 0.25678120453626618 -0.5322818706002409 -0.18119662558259705 -0.12550872103760985 -0.46607198544004841 -0.37507869321522402 0.042435536262616369 -0.40067305368735062 -1.9992502995658998 -1.4259790071701317 0.58110805826853107 -0.2095799948051778 -0.9687573035039897 -0.35813931307023378 -1.0324198310358477 -1.650930605700722 -0.89892226334885827 -1.8882163174777533 -0.24043250648972911 -1.7835138536384894 -2.2270026221983645 -0.84358528935738342 -1.836452054072391 -1.7273370303726063 -2.0589510170786469 -2.0610523595435577 -1.8047027030433485 -0.82477672549449732 -1.9811879010328886 -0.79679910199647697 -1.8863196700384868 -0.90118067031460347 -1.7448208860087593 -1.779409585140566 -1.1034006741833373 -1.776487178951661 -0.94127179614207601 -1.9008798278272423 -1.6026310713304477 -1.611101113310629 -1.4677964921070121 -1.5011128256975286 -2.0214654313616407 -1.592456010105445 -1.8838982339969972 -1.6454316007585379 -1.588413267237593 -1.8478083049368956 -1.8669774813341073 -1.9634484872448181 -2.0261090336610108 -1.7850988835177546 -1.9348404925207594 -1.8043610476898408 -0.43717682455166429 -0.0092361113750583368 -0.6989493338965781 -0.69303893066275135 0.30845855827120167 0.29549232656818752 -0.21745687920481901 0.19808993954239135 0.63381879244823736 0.6595885713800701 0.81928525144173892 -0.92225650551172544 0.21157575098821962 -1.444355425965743 -0.82205664719728533 0.082230559401456696 0.80628731449733526 -0.20468520876046448 -0.063044849819160587 -0.010901754296437203 1.8672916830684694 -0.97266664102285072 -0.2929837609071389 2.3305999877856696 -0.3216618704173449 -1.1355963912953608 -0.87753185778216114 -0.33457821174946106 -0.64207473741120047 -1.1433887794107347 -1.3325087080047104 -1.4103360469082207 -1.5748270995811569 -1.7386378467047123 -1.6955170303968279 -2.1980923987923635 -2.1832184777192696 -2.2108543083821144 -2.104063977601681 -1.7763608822149162 -1.8433879112905307 -2.2103877886290277 -1.4230246771682509 -2.3286370485905357 -1.441379913916643 -1.925631705080429 -0.82399046576740975 -1.5618388618486558 -2.0029211864616085 -1.5800290215255799 -1.722091369574692 -0.80075907432752236 -1.9797385231183735 -1.8586231149740218 -1.7419967835380283 