svm_type c_svc
kernel_type rbf
gamma 0.03125
nr_class 88
total_sv 425
rho 0.3764556395795291 0.1489936513402717 0.7174770098453449 0.36735965389729852 0.32285267112417881 0.38733873231067917 0.42146554226273353 -0.029091957380834303 0.44304395670044294 0.40659094895141817 0.19800315450579767 0.15615125897973325 0.39899289090925627 0.18684136559567732 0.19644617629563838 0.29864810825055654 0.29449760846868583 0.33503930821343159 0.29974073255332473 0.2707235654279937 0.1334577603919018 0.31020825038341204 0.12410697731280719 0.38155062868057416 0.4388448714111513 0.38151498665648365 0.097156375782408891 0.24227720590462623 0.15226196736570019 0.16995102742155374 0.22411472514482011 0.17389373283704535 0.28691922898512234 0.0897111925595971 -0.027637961000297324 0.3151649536859048 0.24181664334901623 0.38933056402035682 0.38187548802201321 0.28168296142221949 0.11176718247392181 0.16274944125993346 0.17175281947346011 0.24140019849513117 0.18957593977518794 0.1638985805508886 0.26470283014398283 0.27476777764807425 0.12934705588871961 0.20368711660157365 0.050068538711467839 0.070365764449790258 0.17013499657280673 0.20669307002393322 0.13476458329256177 0.015667106394150587 0.34346963468553826 0.24661992036752789 0.17986237516464268 0.26436933249740135 0.34285479272467595 0.42608099214375861 0.21867073346082549 0.12991581988646514 0.24440740325298546 0.32173033004478102 0.10448412129387219 0.41618770714088138 0.14018132654250789 0.35007468254519442 0.20376776472438976 0.4050213067813952 0.3700135018841661 0.28654462238983819 0.48087947952197901 0.22435687297544743 0.26724221124241254 0.31077370442281255 0.24686301703849753 0.30433230110355797 0.3594686587217904 0.2340331385660106 0.2303691121891499 0.2587585252268691 0.44052967287637906 0.41908274667456569 0.44820503546949109 0.43052407016752287 1.142078942902329 1.5253842388056438 -0.27818699929875573 0.31441375370986507 0.50613428788912673 0.079078203120383772 1.2103370528440454 0.59184320610469765 0.99851468247966668 0.17038192496370738 0.36275774540551814 0.21678720752436589 0.84300265370042737 0.40017857471924811 0.52830069529312729 0.57958158854819697 1.0023841675145246 0.8787312637031488 0.1974899362635964 0.80958902210580297 0.30746623242644455 0.58230318662535441 0.86179763037334578 1.086759187165192 0.18211644639647984 0.57388610743953872 0.07574777021978471 0.25506200031705833 0.41353112282615606 0.46920744001448628 0.30958238966649293 0.23164050908716347 -0.23257535234146864 0.42301890976269996 0.085611526684546177 0.49850177281292374 0.55026643918847029 0.50981213430564098 0.099073512916806675 0.03166107194233915 -0.18716386588124803 0.50369241013248234 0.054142650505090248 0.28969985322414121 0.40259063935921835 0.29577419495709611 0.12163425608442639 0.27569376001743695 0.0012714669031246989 0.0672306882122998 0.32937042070441613 0.17793808339981582 0.0086155526798058716 -0.14759646484378589 0.41508399486661957 0.22239570498073882 0.15098289184948244 0.34253423303787411 0.45168342511172288 0.52865175237817008 0.088706680418947276 -0.047871900774014098 0.25897055275863079 0.36738669931288143 0.0083756807900328464 0.45773116024886912 0.16271313947286442 0.38400146527034751 0.071268629176895387 0.39427700564476492 0.40127790654501438 0.31459156701096563 0.44023310537287452 0.22395530391160626 0.24420028584948197 0.30788924783132782 0.24943808203017973 0.28980469145579402 0.36703634755140258 0.29216182345333275 0.27703933955434246 0.3163162651792602 0.50459414866982666 0.39017301750768224 0.41980595184140435 -0.027035045692074752 1.7423903248397785 0.87204767315797616 0.31073444330742628 0.90363527763014617 0.18709240629734306 1.5181498355476761 1.181033294170958 0.29024266130467674 0.18071383497068955 0.6852937697993714 0.18535072875182981 0.66771392259634887 -0.43966215076983023 0.76423706744412334 0.67809333607767308 0.85301920782817864 0.49810713614635027 0.21996674936066127 0.93334974189836994 0.48932570990059659 0.48467599918746246 0.91681769057186224 1.9795601406262122 -0.16996971348466855 0.50905405592789621 0.16490510126735744 -0.4747020304748456 -0.086998066604352831 -0.03571555885088442 0.89401440003811439 0.18416463973138492 -0.59964470616373766 0.78929368721240045 0.90413521752931381 1.2695142964717476 0.83960277092899005 0.43364716934480513 0.15760001625018488 0.10863653438230329 0.08414434113366738 0.90339949878629289 0.26146872544169808 0.25007420370904077 0.30825539393068918 0.23328261522337695 -0.011310534844389711 0.18299051183927298 -0.3096530853488878 -0.28446790460951349 0.15225791694353771 -0.10358964088154617 -0.10841228219426076 -0.47087783349705276 0.38292992719348895 0.39513031820337563 -0.0026387306601202824 0.29772360774420448 0.47815513853290392 0.4362105878871903 0.04724185443075074 -0.080955575644063194 0.19634780536066304 0.34054499462432547 0.018934567737072486 0.54879613459676557 0.12375524437630543 0.30770897569989991 0.10508126700614166 0.38894701125975167 0.35393424320870964 0.22842728283104941 0.4365587213745285 0.21541166028928888 0.28138876567004029 0.34777462321552222 0.23165982717987199 0.32994087308005587 0.35596340832916235 0.33015382281269529 0.31469573020028646 0.25624339226741022 0.50057566001536469 0.38774024476932478 0.42629320035510693 0.63812443229790738 -0.54329892106333721 0.091513283374830709 0.11959965052650497 0.068226011580937759 1.3201737418172599 0.74210970951521815 0.9716139643954409 -0.05206698206642682 0.15632356681981563 0.25593528660321546 0.69419591096513855 -0.1376504240278105 0.27024919733175684 0.30115792518251228 1.4977144201563746 0.7566486323269086 0.65258609727109884 0.64764698666317033 -0.25048256812799774 0.92540194910480389 0.45200269209256488 1.5750106401889263 0.15840427856146186 0.29326554540782285 -0.45007032657433277 -0.16288443712079012 -0.08039906023596026 -0.39610800721800837 0.088026374004569072 -0.16142916106456054 -1.4776533111626187 0.60553634071040996 -0.17844607368693752 0.53767358749055272 0.16421893931424711 0.41430711923941049 -0.46905215232873243 0.1438623929573038 0.17185706434082504 0.86851726610777102 0.034316134399923509 0.65515358758497311 0.27905759313361078 0.45944433220624947 0.023839845427435918 0.44753086613472387 -0.35557514557219244 0.064394237049592504 0.34222690616280199 -0.18143445902338887 0.17890763164235776 -0.56853799176771092 0.63950555884676408 0.20907888271085154 -0.0802319914553936 0.64313439971491349 0.35334166391285965 0.51135317529795909 0.021759356394425472 -0.12595632278973873 0.24914312077505604 0.29676846574640853 -0.028908172594431784 0.661622299264226 0.13529148740074071 0.3445707467634605 0.10648253456184599 0.35564849236583435 0.44024336011685689 0.24873121339862314 0.37083247914633422 0.27066661136727194 0.42404304776205964 0.3742438641884302 0.28757474520181397 0.41132470477659078 0.37976447254013934 0.31346023177157678 0.34130508316260905 0.21181322988287468 0.47895609601009603 0.31926025594730356 0.3829920655250057 -0.15379177931079285 0.38580796943277312 0.66460708371473354 0.70953604399580983 0.90256492660439691 0.97481125727262707 0.68630295223412385 0.36503938672502373 -0.034061282241754122 0.39036205274066277 0.23339559296052309 -0.88469846409781661 -0.45594927998168649 0.57125160666774044 0.47795221326531789 0.046508391750825065 -0.072730309588993111 0.66535462595189809 -0.70120909161660838 0.94648037437538701 1.1024643762515034 1.5251232484866106 0.072070242160397646 0.16070838881388308 -0.28581636815994249 -0.44759281245167643 0.13077224792560438 0.79554384855578952 0.39546356171106162 0.32104490121980644 -0.55365540911256794 0.50338671418059111 -0.32987683429353754 0.47092175871433872 0.5174382109951482 0.052078106625743574 -0.020045590564476072 -0.16362199287719154 0.43310755657339201 0.92011053374813956 -0.18638006063386589 0.47182938162527838 0.4196038215974956 0.66930192058413751 0.0031298121564460207 0.53983223189614404 -0.25825034550819909 0.13928537569752317 0.096975708826909229 -0.08054894299343289 0.018459556205192417 -0.68245633216255308 0.60944353961508202 0.25313138352759784 -0.11070230506027424 0.55709515988916136 0.35636687223233454 0.57363267134133833 0.033873430605674715 -0.036034985161606761 0.31244676702936303 0.38506281082287142 0.01277196660866022 0.50607327242062849 0.2389135334584323 0.37963095617798487 0.13049253299555619 0.34495899800462282 0.41924971238276593 0.21581689023478215 0.34888168489014226 0.26271738889910146 0.35537212977027755 0.33884787951320172 0.26272063889225 0.40409378135360752 0.36957682880133202 0.37807718618136998 0.33737324865623036 0.20814255718106969 0.49552451955662669 0.32055962883736161 0.36399192082444759 0.66250672457486159 -0.085302356001600632 -1.1875018875896692 -1.5164166066363645 0.89032621891744845 0.40173457083416964 1.1962200726201753 0.65092935287839404 0.072436288482749536 0.67410262421084022 -1.1585607488242982 -1.5370994789635906 -0.60447718028264974 -1.1391399825276323 1.2699778709541611 0.52565564665803088 -0.83438146469109031 -0.82218468988658211 0.75422551923593661 -0.21302310457379706 0.74674981152404152 -0.40478983492854748 -0.56149130593725094 -0.53974217311056516 -0.67081507684175967 -0.91532143964909496 -0.73124519986581671 0.42762564860342817 -0.24555353405584343 -1.3619850374523641 0.24240981743229501 -0.85708528551040486 1.0543343204781304 -0.037845077008258357 -0.43276561994470453 -0.85483242627547484 -0.17468487767333354 0.43535386766673811 0.40240414334569352 0.031929490696456599 0.37940424542803114 0.55444413250909386 0.71832059531001213 0.22772667399225124 0.70724411871080384 -0.35053051839155935 -0.26552117194657943 0.11090827745611452 0.070012366353972538 0.52694673800447345 -0.76545289039441022 0.7728091651021165 0.31407639804486254 0.1497794295368535 0.78018266049370955 0.23499964093053805 0.56061406066872488 0.068584585417081192 0.022399136132991642 0.30425619865869447 0.56610299704452516 0.077457504861197221 0.4176266564389034 0.31194813237594959 0.29473245680058258 0.25204449836210929 0.40338497580646576 0.50840827856230975 0.29546569647228715 0.48508492086329946 0.45432351111104141 0.51762618752331291 0.40993852427301264 0.38281121519431449 0.42485941043824538 0.43262537555425779 0.38371104534474526 0.39984572653402173 0.24016725135812594 0.50663911678587303 0.34008800295130476 0.3740811868372691 -0.74131508287595649 -0.56852117670428171 0.15948658817575681 0.1581010927054701 0.37174808314404872 -0.8378869760141272 -0.92401692155938309 -0.59276916603408336 0.79533604880068764 -0.44644906318014815 -0.19458314693739265 0.095829858656086217 -0.16839505568319169 0.29951923704775463 -0.36032611310994439 -0.057765387021109185 -0.037149587475542138 0.23195864214555928 -0.069316545640700417 0.25699936793831851 -0.0075445730415138555 -0.30330951988567395 -0.68244288450510115 -0.04923810903082277 -0.058895887148846963 -0.19343899997388911 -0.1618634904141539 0.066637913434346746 0.52545533460328064 0.012905858165701991 -0.38956125073982106 -0.27216740796558769 0.20446114650428454 0.083876353435898263 -0.40296192613535337 0.34253930726254983 -0.090723453548742602 0.43985210394265606 -0.22816446386992603 0.087230966577707611 0.032227927562321304 -0.080477543443785632 -0.46013628223053732 -0.019239082317845921 -0.16798353942274172 -0.20927369289890163 0.061303798706795642 -0.041137607340119557 0.29114301777983098 -0.40855784779655363 0.22869381407987741 0.016984364976337422 -0.10817230941444241 0.14464095598284049 0.0031936938060447427 0.18502683841177933 -0.19212982174528306 -0.32355387377893113 -0.079566724382388515 0.03922115088541471 -0.20970711077127949 0.40386405678408588 -0.26797716175961234 0.027515542549203711 -0.13817167271152378 0.18151330031875459 0.092838127544602675 0.033793075691556068 0.096387345947912359 -0.034637526368434916 0.1058033302820353 0.020531297742377583 -0.092772927724276699 0.026486219315330815 -0.00020018752312453612 -0.014699582476261835 -0.02225865174243857 -0.099566878594324087 0.2350347808580677 0.12681932919070343 0.17296475265641975 0.36334140964581957 0.10766115871774573 0.30495843521087751 0.77327928513369437 0.051577930328238618 1.2278992785541891 0.41537948153099086 0.53833248370228659 -0.048452680463658138 -0.22286200574501819 -0.18502373807882935 -0.46447266949938953 1.6227685868783683 0.35808985712716634 0.31304821420899326 -0.019492294759988333 1.1642524734890882 0.55566415807690528 0.69223807565019024 1.1250296988652833 -0.054533012047252916 -0.56934404679799533 0.38446565789363141 0.088044431719974739 0.52530346283214135 0.76946919562421079 -0.0062325939736803428 -0.79870703777357643 0.018905657226533489 -0.36471760555359667 0.95303572443800422 0.37566677381369507 0.63767267519837023 -0.12475517197791694 0.34022125251350671 0.46887308673964107 0.10054428058583158 0.35175692878216663 0.50857745559225009 0.58271781319558413 0.48209350881909568 -0.26509537791405058 0.41076342042198288 0.10793231179013438 -0.18957921908354905 0.39090130997277833 0.25836952355809201 0.57173336252264995 -0.4446027299292955 0.52865662265915014 0.23780311743639496 0.20410963533071566 0.48091669871968162 0.2821573152106745 0.57257399998768088 0.024849936194128373 0.022306102713432561 0.39758887465059833 0.65029616780446609 -0.048367302529769271 0.40933318950751663 0.22160685441897035 0.39844104517228601 0.072736951748933451 0.28864973526978138 0.45153194748897763 0.33755895861713953 0.39032927097668513 0.21500576224228091 0.26869941316391355 0.21204299635196838 0.22260874126751057 0.26114091731154249 0.30506214489086975 0.26407841444206676 0.22546289480189077 0.26437425038830586 0.45862241126837611 0.25642956734924566 0.2961073940100295 2.0988188870030644 0.89704688587745485 1.1663080895593294 -0.82475349110758811 0.88156212081208196 -0.36642043228015692 0.70233123326354097 -2.0596476641183403 -0.26626792071209993 -0.046456413805399638 1.0408826346109485 1.7677727735501978 -0.75208115139331111 -0.12252587214949941 -0.22792259012118432 0.52155130264945093 -0.11541704661830096 0.91749165169177394 -0.94689513288425253 -0.6757168652772404 -1.1318013449720949 -0.34953207509228362 -0.83180219852908965 -0.22361500530754716 0.83408603371436152 -0.54283434944487752 -0.91411407497518482 1.3897772505536419 0.058985728409709268 0.35358297723987792 0.34466285494781967 0.090183134336531662 -0.78755024628385639 -0.38495103070134395 0.005836574424494762 0.68845825253805704 -0.22454137028963489 0.33461767580641955 0.53368591319048619 0.76489799899156841 -0.12417745960039468 0.64013594781124628 -0.25938280649682172 -0.064767947648196086 0.080688632708161651 0.25170087064976682 0.2981229285676717 -0.72791679524340402 0.78512247018617443 0.25260211100178681 0.059976688447469485 0.74988398451621563 0.27393014984052683 0.65852374353264032 -0.01246539082044504 -0.027703838620894147 0.3417599709612098 0.57802808112673976 0.13865137557974511 0.44369174011247597 0.24439375847655417 0.38235657915167992 0.13742745951287585 0.43926849035850979 0.52702939019971973 0.24530621909128075 0.35320717258016976 0.41208540372478164 0.53431231203300744 0.35009879633907182 0.33801786282516694 0.39816534912389939 0.39282483718756056 0.3915361693426076 0.33812303886710732 0.22143603368863737 0.52634289474876195 0.33859948512798121 0.38232615897481137 0.85041295496887415 0.55157795950859501 -0.81692041453444963 1.0516150304805496 -0.45322485744881796 -0.32392652537419808 -2.4316233062906631 -0.53120619541433411 0.32311980751672442 -0.41486283348456715 0.71011467265481187 -0.9796897904034586 -0.22715370265232268 -0.81948262847462805 0.30879304926022483 -0.60543896896197624 0.53333153709783354 -2.8404382644296859 -0.8628905038389163 -1.0206702309335207 -1.7325992766012763 -2.2344105648662684 -0.4639285321297682 0.61956705422129166 -0.61046727486789032 -1.4794012044023848 1.0337678296575579 -0.055273635823514175 0.41489617923307731 -0.03120548011158826 -0.49312475522579263 -1.3130343984975024 -1.353746883826807 -0.6774565385822866 0.65773757474389094 -0.83992330488372879 -0.49035981526284095 0.22099151995159341 0.10049263300794727 -0.25151262999433516 0.16459401832418338 -1.0485687065585525 -0.7930551433902947 -0.53426802589937383 -0.37095121993707558 -0.34506283999522225 -1.2509072968707469 0.30091212132674439 -0.25513334727325815 -0.44734325248747087 0.146407967365697 -0.1100442845684622 0.35881380708130889 -0.36074573471420796 -0.36616711034022498 0.030770326285539835 0.024592249550812111 -0.09836456084690956 0.22054220379196518 -0.027910079723134393 0.0065269563848195447 -0.14988143983284008 0.32734615870612066 0.17289690808792685 -0.018037604465259434 0.23411007638539291 0.059741087947748205 0.17516148726413983 0.1864152762987854 0.085628850948438348 0.13792255974395179 0.21829192674708378 0.21955765076939487 0.15715131111856837 0.23271375011190559 0.49231050849746089 0.2990155981057791 0.37880390423138827 0.3590850487939215 0.0099218185401162302 -0.8498955265148147 -0.487309577418441 -0.93696627274195821 -1.556093175671986 -0.82203460143475049 -0.39884891975140491 -1.0509473793208295 0.18250562024538305 0.1881070505199669 -0.61298959311763068 -0.45809056585997582 0.63333977147886644 -0.36932706821604333 -0.80053738563226429 -0.72671602485357578 -0.77268483472858762 -1.0195772667057486 -0.30938755998178286 -0.83071544302514777 -0.3076951689850102 -0.81324155559806777 -0.32049359931799626 -0.38401983373522403 -0.62285691732907933 -0.89713604895323573 -0.70420663669632344 -0.24882710097814825 -0.68906927846694666 -0.5495907016517636 -0.28494147395144764 0.35742510080941597 0.16388551422845182 -0.24248949202371797 0.095348187222394687 0.20406432034791233 0.19730114616434014 -0.1279450240277685 0.17454258863409558 -0.28607979260877264 -0.29250371271118952 -0.40875760148117563 -0.27551406361306835 0.13476999268265316 -0.79948857177282506 0.62011813559676199 -0.029193436980757104 -0.25495739153747576 0.37781247006817298 -0.3735278922500424 0.24210255813415624 -0.15434309821549469 -0.18114289428938588 0.064068701292543162 0.15990389835988886 -0.072784133336576545 0.23300833687739309 0.004778077771000493 0.00015379586327720135 0.0579270581983218 0.25561168842640136 0.038285165200934161 -0.094425608851030463 0.091517623047787225 0.14225710600639532 0.21500192107711466 0.19523401858338782 0.068425327310704442 0.2198810924001397 0.22298751387574534 0.21771666769744583 0.23083698657558666 0.092459334030047496 0.39026852563518111 0.24117645182860997 0.283168374857795 -0.45352323078847656 -0.50533156449759609 -0.48614258392611898 -1.7212546116402181 -1.4305465625607365 -0.57433628182968 0.27866673000389025 0.14632247248682084 -2.3368143732561601 -0.81965773337584713 0.62226425801017682 -0.59043439715732071 0.48870120535278411 -0.29257808317476997 -0.025236143989475556 -1.2281006860837314 -0.1234654141950501 -0.72576183424147012 -0.3673613553733564 -0.64312864446950913 0.25298670912471599 -0.48281834228407777 0.078664769484206892 -0.89055408247968926 -0.55013440981011297 -0.73510692132109112 -0.31312473295435617 0.1781064672515435 0.10142733455332603 -1.0367622418043614 -0.079645368372943656 -0.27692835187852521 0.13995450960062961 -0.021706775705226142 -0.43450950570695807 -0.52797317835354007 -0.72207413488405225 -0.60450425078602765 -0.59690781805387638 -0.36889827638315498 -0.20350216771518298 0.070776479054194485 -0.43842926659973214 -0.31548039089418739 -0.9159314485160488 0.33934809547897998 -0.12566895836958608 -0.36333407954601343 -0.196155432459684 0.12135143050335426 0.073068347902474212 -0.27551986705206577 -0.38384800912291039 -0.29838774127789247 0.0098543041597478117 -0.33125138917273483 0.50796930514022998 -0.59495300981074695 0.14427379445714417 -0.36842450989128134 0.14473514282106023 -0.070041788188071247 -0.011538085917014031 0.053233552455990547 -0.30659354854480864 0.076876367928795208 0.073684151123594638 -0.1560635430113663 0.036852141963106801 -0.047121147550594947 -0.089190265923283357 0.0096516519708966676 -0.020930966571942794 0.31798679844750821 0.17325403488895319 0.25530358870000724 0.006888092658968524 0.026989529003100449 -0.06058287586135401 -0.8916111749757164 0.10159415373062375 0.95294363846731833 0.017276467672666818 0.91671786958358381 0.26676506476428491 0.87678488825832379 0.15253156196097326 1.2225767339936926 0.47853580435481441 0.68913323816742655 0.85711250845075282 0.48324807701630562 -0.38961907027490356 1.0850094037034286 -0.14140333200832766 1.2313024088682087 1.1346215814684637 0.70553047012755743 -0.52491822150706147 0.87138593933582631 -0.24392741499707657 1.2680131410861881 0.49568054077517293 1.223445771333618 0.29390864575429648 1.0553049781183637 0.10413609531122502 0.81473085973576542 0.6195364208355929 0.78333803170765248 -0.2023299206566111 -0.3638366522963114 -0.074479522093561179 -0.14512028010792496 0.23074426553999852 -0.13449318893251574 0.7493955748569856 0.47840154723771616 0.90045001230953992 -0.71779916819934064 0.52413517383515007 0.20850046277355777 0.36090327369402181 0.1851148564201992 0.31768967116429153 0.29080235640435781 -0.28902050692651204 -0.33667466888106734 -0.041342782814730021 0.36452718284858721 -0.29369257121276932 0.92717782044616259 -0.46722817687477669 0.40802792442331209 -0.30699496630022183 0.24420749200032826 0.23805449586970009 0.4204193192887789 0.29110532205236306 -0.12519899140236748 0.1753789264512271 0.11068348387482099 -0.054774716313602513 0.080451880319126368 0.025659414815144787 -0.032690198738954727 0.030552986841426599 -0.005762244882280743 0.39562692788254927 0.24406955078598327 0.31266126586203896 0.064617161429341624 0.36474339625247748 -0.19173960470259935 -0.23023313896541966 -0.48913715002530178 -0.89763134051349902 0.23559203593160857 -0.46504057128300841 -0.60465711708470127 -0.61154472607586696 0.40887506862922984 -0.22313033444620725 -0.01837470576221539 -0.33926797400522307 -1.3452318830495085 -0.80509780098660932 -0.073449179904458178 -0.51420709135175569 -0.040947920536706837 -0.53087637962636691 -0.48149341709683657 -0.36269274936038826 0.63373429443994567 -0.60798897106304484 0.67809960175960116 -0.34555519114776823 0.67887813159241361 -0.84832317637299448 -0.40562352833583348 -0.14311799601419831 -0.15705903165031102 -0.20019168494841796 0.081632379489780985 0.25410426157699001 0.23432807567319566 0.072726268725403886 0.12485412097188031 -0.16376185355773343 -0.19835898413673309 0.1616479484849741 0.24737055229815288 0.60502765616174858 -0.49143568646855057 0.46459944485584381 0.11462103758742485 0.15619115704368602 0.34591838522762702 -0.1029342411769133 0.34438023501527543 -0.055512422171805131 -0.15458947533359579 0.16971433281542689 0.36068614690997391 -0.042687529870690057 0.25917370816103497 0.095805277061616206 0.1506993768078892 0.10494259387969435 0.3875582391058251 0.28496155697053049 0.21387176370167701 0.42497461415539478 0.17982771144144885 0.1978405820620622 0.20079113698683837 0.15741317210641115 0.23784753721219598 0.2664800521817316 0.14888129487914795 0.14794911201990532 0.080352846812496506 0.37643940223184846 0.28915593761615965 0.29725111982402325 0.38700804167440789 0.025538170112224461 0.023083652875341986 0.66932214777894339 0.0057579748285391287 0.2665175835234716 0.64742117030838475 0.42337293479850385 0.21463609375404707 1.0032988356026125 0.79332789785128555 0.26450399866750224 0.032758080014958918 0.07007464399694649 -0.52831735712804606 1.0306199196283092 0.47203073149190677 1.2948442599032612 0.22801040901014949 0.6469553192042572 1.2342187147549213 0.54936957494028216 -0.17000880336410379 0.48163095384697796 0.90412884786671255 0.57734842664165897 0.55717790214754781 0.70879231078394334 1.0935771853333998 0.96836185393340202 0.43455287902959899 1.0614556954350443 -0.24263968103167963 -0.13380707804314931 0.2750050590967511 0.19261561524176521 0.49271350452234486 0.44331988692723773 0.71258719784276081 0.39621892210575899 0.82142027053604982 -0.55563142690843237 0.23610226898306097 0.33691217276189755 0.37718238886707017 0.062361287731786993 0.42428439013571073 0.34529627224991299 -0.1005254481366777 -0.18376310304591836 0.03154810673494348 0.30866205454417384 -0.25039025605277559 0.76265690462137592 -0.35335980042625664 0.4679336423107423 -0.11169545121857355 0.22752358199328185 0.3101795442866162 0.37540297060158273 0.35539444329758718 -0.20862392121494683 0.14712037220636043 0.1708644571628142 0.049460133738387167 0.13955152529175338 0.086088151698799451 0.10747082454646785 0.18044376023298531 -0.026780998148869053 0.44151000204920238 0.23965011571169706 0.31323297739178912 -1.0942839644877023 -0.69543778507070186 0.16032146385899371 -0.2882449620638633 0.50927033871232075 -0.18891637921214272 0.21648077348761571 -0.53393547694856758 1.2347723319599158 0.11499257628803272 0.3510560481783796 -0.84364222632136865 -0.43461245324935682 -1.5232340577056627 -0.41143774904905023 -0.52104729844455255 0.17980435974782691 -0.35135881588625545 0.084877512532507443 -0.0078304783256798807 -0.260238892944745 -0.94720811909821068 -0.0058531945408904738 -0.070046397052530268 -0.098913850799372857 -0.64876993172445074 -0.25047069380618647 0.6192759092241843 1.3047460089082368 -0.27131324432959397 0.73941515692494231 0.25135339573114013 0.54401502769555043 -0.15645617741979162 0.74399356207907275 -0.49973330921890968 -0.052035582009310223 -0.010234829588351639 -0.51928725979765322 -0.33732842468463559 -1.2668708993963353 0.76679203467327228 0.052106566909283565 -0.5576188707578692 0.63378673789107809 0.13037271972296072 0.4718565266659806 -0.22132456669340775 -0.1967545279868318 0.16163133857757042 0.15044906410439321 0.010337823984315601 0.560428933237057 0.30333806466233854 0.27301458785577049 0.14051713834745716 0.35773352107237461 0.27702607858361078 0.12736565752883738 0.28123161245031236 0.33761247900740171 0.38359142428252674 0.38029069992387848 0.3281227712168836 0.43957175364710543 0.39375003087621352 0.47824072190304262 0.41336498890493428 0.25376322169931403 0.58442174322281604 0.31884533818463051 0.38736122310275928 3.0522798018129103 1.8552245553830728 1.3966190354831642 1.8586897135493097 0.72607429909018861 1.9722469210496776 1.3115264772056543 1.310445426447483 2.4117190668474247 2.6643699796961826 0.60579772776456409 0.77496848536779295 -0.4486507508097573 0.64024553511924076 0.72112228269795953 1.3460649573778556 1.4234084923128205 1.3515125278855591 0.03816513146460658 1.9761129919304763 0.8846411341175886 1.4200541663122397 0.59846136137518835 1.1650703840553105 0.92499215417048264 0.38265896554349904 0.8355179675989195 2.07922761179635 -0.20594000399325416 1.3093830621810378 0.64201194223126357 0.77153741216532479 0.21035648031344217 0.88431540245871598 -0.13834193062670339 0.06808556229769161 0.66687992650270367 0.54497226322632286 0.60965701820841078 -0.51446239553313833 0.78473059842281123 0.24553083216723126 0.40155319952580132 0.47352108881329003 0.56880669049695232 0.58907347017990264 -0.076304779031955164 -0.058857166411101607 0.32328128243983917 0.44656380023186293 0.038917610140786985 0.73439633632698254 0.067427027739449516 0.32431436701206789 0.10416168122119281 0.4043631888074451 0.44434277008991901 0.36592236057163308 0.3991552642094518 0.19368301253619824 0.37001242167764459 0.29598690894609586 0.18670640017099788 0.37634118165648467 0.27194389658704554 0.43396654940731028 0.33922156936710246 0.29371984199503826 0.56197400761188054 0.33778359628545968 0.40476122855728541 -0.1936222485704098 -1.2309574021434042 0.92220686097084259 -1.5588854750262271 -0.91471271897497841 -1.5318378159729114 -0.10088709788646653 0.15210039479792475 1.0814550005321846 -1.3201077775042622 -1.9773198213607932 -0.92348707863733337 -0.82899812424776986 -0.73218182523063458 0.13863363274553023 0.16602152621469102 -1.3871696313184338 -0.98089027902910875 1.1558341065609317 0.029531386690707678 0.70730457701358906 0.284758218778489 0.2482909933454652 -0.9955733707888117 -1.235156416082464 -0.83942086710608288 0.07190788541951243 -0.72774059122464507 0.11664332758701623 0.32258888990652101 0.50036716007698578 -0.13476035529224833 0.24559851475646668 -0.16286208044116912 -0.61017269962672427 0.12282249733489181 0.33060349302875797 0.090398509843511707 -0.56366495430316643 0.40628068075452489 0.22324145851679239 0.18840728995207512 0.33883249415010197 0.26407634889833687 0.57523565798803544 -0.29623657209796772 -0.27749108296714564 0.28996616819059146 0.47820362068260902 -0.13362426729293619 0.27598763108312213 0.081756576915413173 0.26540484223632965 -0.065415294982128377 0.33129702062965666 0.43239459869864216 0.22960177071964441 0.36082165641133024 0.17617498607367862 0.12419115437912119 0.23930369607691274 0.18839167096212939 0.25936691655277022 0.30773603174634401 0.18649409927369834 0.13712322916043734 0.071878366024434981 0.40824019991844229 0.29493577530555837 0.32335892877650313 0.15056883168342008 0.24332007842005765 -0.89503354830101123 -0.33328821504804185 -0.55129260542986092 0.025678607216931899 0.2736901989043285 0.42370251758150995 -1.2092971208537133 -0.56943153030171112 -0.46384474387287578 -0.29265918983521061 -0.59030219429643338 -0.24366084769644628 0.72022122280741685 -0.94745951425073871 -0.7397019698274041 0.89132093102347931 0.37515129663311286 0.46744571804385604 0.43010606654323336 -0.13601419818870777 -0.83048299283958771 -0.58965071127150326 -0.78302438591204071 0.25795272197255631 -0.52528941137785534 -0.34494363991311627 -0.37199037756084136 -0.398035017081322 -0.36680297749513424 -0.42927673271178041 -0.34310975076281802 -0.73188328433426253 -0.36486070755642741 -0.13866925984193293 -0.29010315152789146 -0.76539432500985694 -0.073326275992260298 -0.24425885348581985 -0.35457736616913355 -0.30500257837145139 -0.15749637195604513 0.069708659831188735 -0.48109380851813871 -0.45524921774438609 -0.31816181834884899 -0.10079688939629414 -0.33008106551415806 -0.081562597174363538 -0.53667245714952327 -0.064686739114551972 -0.37530251309708135 0.12803973787400277 -0.1273578642703721 -0.14637343878202683 0.063674403698342999 -0.21760835026578093 -0.042452830267004166 -0.020188179108196674 -0.19312082615042336 -0.10394645231847469 -0.056080177436893128 -0.19770386351513608 -0.17259560194334062 -0.074444678706412123 0.25061029423481712 0.17478259245218636 0.23091482039817302 0.70202627033431642 -0.4828096894957743 -0.12179087822206272 0.46624050050063942 0.47621412832649501 0.11306148182176762 1.2648697849257471 -1.323454119004758 -0.14100492832393302 -0.45369152290075315 -0.67838355483300961 -0.75913168763252914 0.19428387073857692 0.98128246901431104 -0.50711083291697767 -0.4455383559305951 0.83060365645798973 0.41798639512924951 0.92616765195959816 -0.25018452408141001 0.16212784160812424 -0.6252484761508289 -0.69415933856677126 -0.53003509419590944 0.64065773995590602 -0.48019229557622484 -0.090805079190267687 0.33734670789685389 0.017098011263536696 0.066646647821526642 0.24559325825294076 -0.76803960346209688 -0.75587398790053562 -0.66733004214983505 -0.11115225579944597 -0.39465459967976707 -1.1088145444535678 0.38201882627611355 0.0092795638864327894 -0.14109778019659058 0.27612988620326656 0.064674729443227483 0.49602406183803494 -0.11596653843091927 -0.060587296888710354 0.12554776544329879 0.21993569433765969 -0.0052760461066993988 0.2170854122687039 0.12975072849632213 0.20339295332054044 -0.0023560153302894793 0.36776495622280259 0.29264104255425427 0.13752962026241847 0.36787584858446654 0.18948800463407819 0.23616028122303234 0.2837804924513409 0.20116387975595282 0.24627995769216812 0.33323832367998096 0.28489176568284463 0.2321997774391458 0.25679356205271225 0.5069633601113237 0.35020987513796115 0.40526841392392271 -1.6095041854001295 -0.5458548112043855 -1.1765996292554688 0.67189615841256001 -0.70835359819519228 -1.4169695931987867 -0.84200208156329448 -1.3655361257043941 -1.1999210563720843 -0.62121576201392736 -0.93941573459126571 -0.62703737646477853 -2.0244663536535281 -0.4462211276330591 -1.869000415145134 -1.0390454075658249 -1.3135579218971489 -0.72568574548107856 -0.31106999657333867 0.4177890628819787 -1.2882117844957763 -0.50052505008861237 -0.67457018145175507 -0.064202176229893784 -0.048483783315382611 0.19103319978087971 0.32329545189541031 0.48025872584012536 -0.9758638400615981 0.21968304246289844 -0.65052032258399406 -0.37602346497311939 -0.021242153932446408 -0.36620588476764632 -0.13379800366989913 -1.2534780293805545 0.88575092624889917 0.19343281637987411 -0.30492263773800937 0.70655712388881475 0.18566275616223715 0.47546124402135526 -0.23297429158932451 -0.28987738792811552 0.17895331637541312 0.35714433714132737 -0.086339806938744879 0.64441561575054807 0.091970373521561385 0.25518953623557716 -0.096613551510677492 0.37245919482438516 0.40262207491274427 0.22438049285084238 0.32418248143146045 0.32751480243953984 0.31312344928392666 0.33547949128814852 0.31709269014266694 0.35730508343926448 0.34294292397745224 0.095604526025904801 0.16280823891141988 0.026181684603230681 0.42008788688255816 0.24728200764269923 0.31448864320905756 0.5793386497502867 1.669721875526331 0.1631463052401794 1.7567950136762034 1.3052669615117123 1.6454498414665777 0.21803314993517323 -0.76672495693025178 0.94390073098798954 -0.21412472894301476 0.82549033004877759 2.2907691706390976 0.81162968874302743 -0.89895701925242555 0.40035358701799245 0.17041179092236644 1.1671923840474578 0.49314901502641573 0.74491121659737913 -0.23077236024194514 0.59813615280607224 0.030327011861273203 0.9850586245118913 0.26290595477614631 0.83654116462101469 0.78375593525148302 0.81809175436383286 -0.0016529604698817843 0.45767378673656228 0.35489359908768658 -0.25615018245953358 0.49786592400198709 0.40875409224892162 0.81111184767764943 -0.43680106244373129 0.76645527467053665 0.29319750879706025 0.50015995361891541 0.62865226364487092 0.57113385139277317 0.51329589757487337 -0.093867339853105677 -0.11233032992896903 0.34373674393243381 0.68192104584718527 0.15878826977018889 0.87312943860312797 0.087573877121339974 0.36646512143895332 0.029605329373418643 0.44417543697513601 0.46996818610434155 0.15975788980343342 0.32064150279711123 0.27442957025026155 0.67739031673069305 0.28374688877347187 0.19673765132331369 0.19004880199359198 0.25844683802690221 0.22770654706465007 0.24166544475668703 0.13343613807859225 0.41421844040227168 0.30391074524718886 0.3454933373490644 0.089781843474334252 0.8410184344650089 1.1985096581646191 1.4851708042241309 -1.6731130186659204 -0.53729854995007942 -0.92966300374126298 -0.15655472877369783 -1.3760957735135486 0.044958248635737219 1.3098460407449011 -1.3514488734313495 -0.94156802313441479 1.335952526161766 0.99879062561897403 1.1919814449203143 0.67717933411955045 0.70093363834308042 -1.1393307290350958 -0.92181433666244139 -0.52265903438047578 1.0763872355036792 -0.62615106100444451 -0.51281369634597607 -0.072223322139349441 -0.15929101472137239 -0.58271185776724899 -0.26786268394787061 -0.67253110186656373 -1.225037775487906 -0.22723305601292357 -0.15094701296288773 0.1657526866403726 -0.97953753937194976 0.28737108319920074 -0.22145118885478834 -0.27501559836564632 0.031522207984266533 0.00062760484256597991 0.14478704533853426 -0.55905233061554471 -0.44204963999422542 0.030577052115473551 0.1620643143030995 -0.20691960110445259 0.32174276151983811 -0.19642839868971004 -0.071093011290876335 -0.25793243927908893 0.25296889655242832 0.040392206259743636 -0.18544502493369397 0.18328887899150242 -0.065730999292860595 0.065858218439004704 0.096203204212639129 -0.097252103882357721 0.026625398065227002 0.08469788248676742 -0.070459821291220706 0.053069995627950006 0.016947800789441907 0.430702709835182 0.26465397464082102 0.33022475385924011 0.64859242392531224 0.35896102110447636 0.72036413101099883 -0.87095979939218937 -1.4763660164568839 -0.8764905365563731 -0.50891858759504582 -0.54217219479921219 0.37607090347958072 0.33157328253203072 0.083663220551207451 -1.5718213056984098 0.69739046033312091 -0.14202134103325226 0.95569223897275479 -0.094770760629341755 0.68905839029300209 -0.90162458807429569 -0.80829336579559063 -0.92247781137717233 0.21127776664449976 -0.1448735653933135 -0.10151458124907831 1.2649325064847159 0.96883929087638665 0.1858818958316871 0.61318920278550915 -0.27186280405089791 -0.70200079164504092 0.3080486746184854 0.53404129433196623 0.0080003974739205792 -0.68470729629674143 0.79432702472195882 0.6101495855315745 0.5033335936532054 0.63175003389863815 0.82956532924294213 0.81420400790155367 0.28679898934767467 0.13956161049475549 0.6031855941844334 0.73598339307492033 0.45201599355526795 0.64772030296490157 0.18019542689606732 0.61036865166207532 0.26552748358469724 0.59303245280676198 0.72191518917799058 0.52342865785056869 0.58570373551230259 0.57251265115583516 0.41672005875586909 0.46836346799963646 0.55326519837003074 0.55352016078655275 0.45118436084177876 0.40586687030414598 0.23623742409156101 0.22012425434185823 0.54977633858802855 0.32653239144740115 0.3671742170437241 -0.39595850943512051 -0.21047222211089681 -0.89709146549143592 -0.85741213755066603 -1.209819634388009 -0.59161315442307816 -1.310355796802473 -1.1489712075920242 -0.24482027529196648 -0.64992247773286893 -1.246535113277411 0.28537295587579947 -0.3056759989379102 0.14753047974624028 -0.013578253800527613 0.046953505490538783 -1.0827290038023432 -0.12941654454190335 -0.76458589398565246 0.22296117748314254 -0.63366783578004848 -0.25718408395778097 -0.58938636146372514 -0.720980412077594 -0.70348415800948916 -0.671107079336004 -0.79511784200722058 -0.85724012619475243 -0.35730760759076369 -0.43055985114405093 0.21684971928918595 -1.0265740354990791 0.49064624027998011 -0.20896729269481015 -0.41424227419237231 0.089157437884940724 -0.34675801373531068 -0.055293401361230857 -0.69270727164027479 -0.68302644089824727 -0.35173048445553956 -0.21402701342237718 -0.56646214415096641 0.47743744823008344 -0.59862594065459807 -0.17323545813052313 -0.37847638515272763 0.019775204153801282 -0.128113010073381 -0.18812979966786589 0.0065204615558240499 -0.33350366932233405 -0.17254817750165216 -0.0048497599698648503 -0.30568425026638829 -0.076409501037331171 -0.16303721099391894 -0.40805173345838786 -0.17970037097892286 -0.36828822922534982 0.11316673571103604 0.050934697108293431 0.14229848552526814 0.40339804664034684 -0.70423942318339627 -1.3498624389411944 -1.105222449419166 -0.46335789681843575 -0.95980155246594245 -0.45709605880845167 0.80490341394477438 -0.35919334634693917 -0.43626663252715125 1.030801485086595 0.50244885228025737 0.93388451414213536 0.18665172738645658 0.59923163066299945 -0.48791431038772071 -1.0834258456425674 -0.31557670544674504 0.87072971892774664 -0.82625825543449927 0.29463287051285558 0.024749857146259557 0.13867661013066496 0.18217046142855967 0.41770226679326539 -0.41631933529482396 -0.74677542555574583 -0.078224947050623314 0.08572116738626738 0.10152760305545791 -1.027967001778195 0.29645397314611738 -0.21007484096352841 -0.32190398363483663 0.16767676517455302 -0.18842867640973482 0.14949125710147312 -0.50809023662254404 -0.26677022309468418 0.11792757861722197 0.11290783070150494 -0.18574640732222139 0.27974204913845696 -0.12801687335611142 -0.072425953915189342 -0.14022068025001752 0.16101229581096135 0.11338450746341661 0.00089629774255654815 0.098044203671076038 -0.044144990066449709 0.030800347902843583 0.099373650607764361 0.079338062774659032 0.056399152235998957 0.14423730096231124 -0.01900068210048373 -0.026147657998072314 -0.14728585755763648 0.30271036835067328 0.11847965068913473 0.18535901164372201 -2.4719750450408315 -1.3500372553393096 -1.0304176885560214 -1.988844994676888 -2.1218868834273685 -0.60247671470670827 0.013108878500013669 0.26224614404828617 -2.676242627797401 0.71318278304236082 -1.421355332458268 0.63683123811875442 -1.2638985197822643 -0.85011056630252779 -1.6485758338221566 -2.1951366144408668 -0.65414381268218857 0.56224697067884621 -0.90060713951014515 -0.32804789718142591 0.89587183488158417 0.54648383566508441 -0.31629619764069855 0.13300736479584008 -0.96052237575959798 -0.93791137892013443 -0.62708853691732802 -0.594700995298857 -0.073498393503858062 -1.8344272997237538 0.48069398739007568 -0.14880013949172033 -0.55879530048635684 0.38971924669678704 -0.05866403780224879 0.63419483414052058 -0.23447919158627972 -0.23409007903908957 0.20904590970489306 0.49629266652600462 0.080452479018725001 0.44542283831577983 0.14317138025273568 0.17675050561905067 -0.1325649920012871 0.42692316093168436 0.39247833882889521 0.017560704753906375 0.21835853493503624 0.20864144039321006 0.33682848144823002 0.26709807619253706 0.18829195832156231 0.23913029121469911 0.2894915547176824 0.19131110941380858 0.22556474500906359 0.27033491934208692 0.52982345693715027 0.31025982365565907 0.37671676150688144 1.1179924571856334 -0.94709967744276669 0.27868223068635234 -0.90808084108356979 0.38603839561696102 0.55786084618610698 0.57217311456001618 -1.146885949027419 1.7969866751998105 1.1839965955297884 1.5576311141952208 0.87000881374580885 1.4470833377282859 -0.95268130186532574 0.26374466861703044 -0.67453817022261564 1.3177316881358863 0.49090697763816493 1.1714965753052973 1.0084227753739434 0.84252312428552456 0.26965227680863868 0.49578837842193341 -0.039755407365826549 -0.48195002496202255 0.7961622068942078 0.36651464001945433 0.45618701524511274 -0.81482143910966864 1.061724917374818 0.32430156477475969 0.18551123108784304 0.88824739655134854 0.83223574819549873 1.0054504228020189 0.078558908824475665 0.062839491375055567 0.60761560553954352 1.1591535640736901 0.21500117352249409 0.95633663512605083 0.11498123696230711 0.61799574042391803 0.10866290930865417 0.54350298147885456 0.76743552391898406 0.31790155348948912 0.43584999198377999 0.50596136899319255 0.62496733469541044 0.37230361230488329 0.39721070263510044 0.36864075542688313 0.36079551211981997 0.25316024844564589 0.25037303685727164 0.25491987508929703 0.59132757751829435 0.32558681807742335 0.38252988148652101 -0.71448703995654683 1.1095313508303775 -0.52160303416764064 0.31922654610154511 1.7318784741378752 -0.25883159329639127 -0.71545408409730427 1.1418133899326091 0.39857091502559555 1.9665485929471569 0.62361471778388988 1.9215192253285691 0.13372785924270519 -0.87052825861631133 -0.95050149504080639 1.2830490773168584 0.15108763506557962 0.29063136736860745 0.43970406549742896 0.26025596627157577 0.20934455623597892 -0.0035228025919719955 -0.21397007756928463 -0.75623000365581872 0.51773191786451922 0.20794362192518223 0.0089775292507082195 -1.0673776968543389 0.52363784289035764 0.080674109677927111 0.0557194445284942 0.36117540244042395 0.55163392523616095 0.83966759465105545 -0.40518294287339046 -0.28535737683858814 0.19778927393723728 0.66539918734252967 -0.045622017954487358 0.78479196670640938 0.14477249852508853 0.44243330281992588 -0.18544948180178894 0.38262830288645805 0.40096135279914263 0.30198968061799308 0.39227843416351466 0.18777136314536794 0.26349360645564068 0.28698766269045789 0.21550919998097751 0.25016356365454878 0.33426745625500848 0.2255329816966421 0.25469511293798403 0.30648594875500434 0.59979836707996881 0.35341646965165791 0.41950496707655205 1.1086338659452915 1.0672861571671264 1.002406962072584 1.771999698359054 0.55372709793616226 0.80057683611241193 1.2225086393719575 0.5935033285771637 2.5878252862346254 1.1042381593371158 1.8705569926385606 0.40236115026557051 0.5881205216539086 0.43425319928323597 1.4061064974416624 0.56754716152066398 1.0722199608833078 0.48886243552173198 0.57093130101779566 0.6180336701391923 0.5740828975865726 0.91972160152664706 0.28439850466720612 1.3132744343889156 0.85010955970174162 1.1011661629619556 -0.069902747045469588 0.68226526391999909 0.60214601451255234 0.5509515633694817 0.58510781244347809 0.98147938495232445 0.61732607839694076 -0.27661445537017804 -0.16125525107560154 0.4463595687711388 0.77472675098486132 0.054391825988478214 0.99941945337271176 0.33696593524148222 0.70196046814508772 0.112735657386884 0.45331894075132434 0.59299154238462382 0.5136490006312382 0.63375715970765367 0.31547927432826123 0.4135134413832528 0.37245194438329837 0.31242198185924125 0.43178269582511908 0.4391575936029759 0.61030556389779655 0.40682076746847712 0.40054749042427035 0.67258129206576667 0.39789731812887885 0.43607245349875284 -0.2076771860592439 -0.86813771497395542 0.30774551167898062 -0.090091021230106774 -1.0391972971145733 0.87581456991558704 1.2971221202830931 0.43845427488040106 0.93676265298651484 0.83751430519677927 -0.61989921682433313 -0.23054159843851435 -0.7712696331447082 0.77207783181692669 -0.46215672705868877 -0.0012109409994330734 0.70371425059314252 0.20293861870529817 -0.64611198464925912 -0.014349170236533123 -0.78582951900619158 -0.5626646614056332 0.6074235299102192 0.31105082437716564 0.75395708020103303 -0.60720992289608877 0.99385580403313578 0.63780030850845404 0.22369203549569291 0.79645640030254949 0.4247665740264952 0.68728191299936214 0.10998348435429695 -0.014416439743469438 0.35969257703888413 0.51780886550797611 0.27991113764038927 0.91980359250233357 -0.036911350390366027 0.48126396530543036 0.17981424443278129 0.45442546024045011 0.59710493482190841 0.51451097229155451 0.46632153626891948 0.64202712249606186 0.55232028698722213 0.44774967909370522 0.52830244891186484 0.46848776178014834 0.4432600660121559 0.26175474328463627 0.17520024600722259 0.19428510206236888 0.55032419401193666 0.28529651483638985 0.3410853397344808 1.1500696672497872 1.0232212031765806 0.035217048850749694 0.13110232959934282 1.7062928654394949 2.382550081431738 2.0446636082267426 1.6374864585514934 1.7687904601595201 -1.550885482330596 0.55727199004447636 0.82763440410319444 2.4279760784375455 -0.13875139832251024 1.1715784184128459 0.37033326266681255 0.64107044771700472 0.26126131315755935 0.8357372469976535 -0.30604616190101291 -0.18057090281131391 0.63296752159275982 -0.2479533056015798 0.30663097098103392 -1.1443931915577927 0.83937452331160745 0.011283399214228605 -0.30304117659136931 0.80365819405943684 0.45908777829389935 0.48469215506384661 -0.29790408893020748 -0.15643457897875937 0.25282367103340775 0.29261309688425591 0.052392542788904685 0.80052721682919248 0.36855205587085887 0.14973279229708394 0.12092655437806009 0.39701911324168698 0.38297553414788632 0.15384580215760338 0.37275426486426383 0.28575485878369156 0.43788736674432555 0.40568386552937608 0.41299478702901687 0.44882801756524604 0.39305579325020673 0.52151951898647009 0.39121721258032927 0.3709681329893238 0.66107699473370451 0.33462534706764219 0.42458561159021446 0.76834374925520899 0.32226267457764146 -0.032424183047474915 1.8077385591014072 0.79564919905969889 0.85825211196630691 0.899499305266103 0.93599043357392109 0.18239429689431033 0.81075191416584613 -0.48164078803359123 1.1404304847511155 -0.084010893342281831 1.7843916458865008 -0.045665257317808419 -0.3184429709599722 -0.20224963701986845 -0.18551680731070877 0.22873312561082157 -0.70905357530792723 0.83856627823186058 0.11724036100614529 0.71471173957729839 -0.98158003203468336 0.382574391989212 0.10873097430823049 0.075065905944282599 0.12223889332631475 0.31347968213240629 0.11106812774983757 -0.43318801343922975 -0.13730922409930457 0.062311604062871936 0.21796821155650184 -0.12392923306607904 0.7479372168968299 -0.36488283459958265 0.083071918120630972 -0.27984388867536253 0.24397205856697177 0.10907759853156504 0.15620460147880777 0.22957986768822256 -0.066111460331141306 0.12525281092360366 0.16260529889109646 -0.03478754451726225 0.092643429302322111 0.086790816818751518 -0.1260644807251568 -0.02715795809096707 -0.014748423082881004 0.39160397255710294 0.22357085153299439 0.30246971623018992 -1.4242405523878983 -1.4362108995091742 -0.32552495726565317 -2.1019513294548675 1.1983636461743206 0.095585046182746339 0.54577929357585664 -2.6729264873075662 -0.76360376758801063 -0.71343555963583194 -0.7640751155656802 0.60381152823857687 -0.14137473913608789 1.3128304758837772 1.0189664812604216 0.40205114431308003 0.47642566914301915 -0.32776523892823545 -0.71769171259280529 0.092314655438411594 0.55866946754453195 0.56814555728336524 -1.0047844633402441 0.84748213975679243 0.42019542275570154 0.41854913997087673 0.82082972879835236 0.42397908933627898 0.64232428798725916 0.23771804922455139 0.14759508759351914 0.59958048480322113 0.87593904537639022 0.37003399293624911 0.56782684444331055 0.27529274485504196 0.55818013626552998 0.24582570659060393 0.5851520082668572 0.66255361251232681 0.43735479615959794 0.60103876452799665 0.57861112544485782 0.56679591013835418 0.39564896240224784 0.43627580540574368 0.38437179569947172 0.38755352016646527 0.23426628872043004 0.20464098881864282 0.093567854135626641 0.50127186856486339 0.30131496345556674 0.33748592566836255 -1.4446137347793764 0.82736843940773641 0.82052208092115453 0.86233087549368403 0.97662658701710681 0.40057089028273574 -0.15432929738986428 0.75379416251244591 -0.98451174236618666 0.016442428104130651 0.090564228268298408 0.11549619748386258 0.9136213834593746 0.26882624625195184 -0.18128003724162178 -0.097410657763246186 -0.12931758057025175 -0.67335327866417016 0.63900536777126726 0.52609430128216972 0.47466838203703288 -0.30583276385054564 0.95144021252155841 0.89794992120938211 0.27644650455325931 0.55337994987069405 0.51839958996297342 0.77689581944873431 0.13153526629578621 0.2271064901043256 0.34216537494424715 0.67796057794281461 0.3385726048033495 1.0258296839369139 -0.21454173849254055 0.53941095233612157 0.18422792765399085 0.49536899725972322 0.56000775828733762 0.2955665170653945 0.36147784025313512 0.74332113572439495 0.58370057712365608 0.43998227430924897 0.46367793587868694 0.50105663694528335 0.39623276946357738 0.031697099617099357 0.035962275479713354 0.12342556295893584 0.42895963389049585 0.28725370792520888 0.34171185805073589 2.2273617401843637 0.69005850774374011 2.3246859901799191 -0.84812074035389406 1.4153246750340829 1.7688596125105314 1.9311757063292938 1.77727150439093 2.4569531489769743 0.83705542263872157 2.1977963330575379 0.78420652866428409 0.95039300310567576 0.63500348213331148 1.3059887214786217 0.75910047378215151 0.71891330905521778 1.4288594389028506 0.019921316672197785 0.85556363682434466 -0.72544628704667602 0.82084559319926342 0.57714802675813659 0.075336029773502095 0.76009124794530369 1.1828587928839223 0.4784899712748274 0.22188621421327076 -0.021060615006798601 0.24362497439550701 0.60105835052522649 0.17494818190647068 1.1583743926321834 0.41635523107738504 0.46075343039446415 0.20443901116496546 0.50135950076452718 0.42652247514131852 0.2757110944634264 0.41756804161850408 0.37829210215720305 0.52902558696121438 0.48435336136193435 0.37903833951058546 0.55972783701681406 0.42526562810056351 0.73369230043535993 0.56037957894627122 0.37527268302814687 0.71084009073693732 0.37497574257829086 0.43498903273353923 -1.5951650891030511 -0.43210135656186449 0.77355131599995519 -1.6199827693707516 -1.6682137193129285 -0.62665732855379463 -1.7665906339141859 -1.2083484076308406 -0.61403107725997297 -0.24635055679191056 0.52427681581927543 0.40502365005101781 -0.83330917763904322 0.28297196597887708 -0.76043811807135075 -0.76814460204989665 -0.080509566807100114 -0.16839127015646163 0.024208825644140338 -1.1976840007419134 0.61872962791577046 0.15756740088833696 -0.12868433408093269 0.54624553391651598 -0.0072596784855741125 0.50410341031231887 -0.074186978239388496 -0.14497901978804628 0.18666575794947746 0.41167778565481739 0.1348853050428202 0.3652435816512335 0.14916157663919763 0.14921111892061653 0.091112623371094381 0.40687156973824407 0.41512137798639792 0.27047145008079554 0.26283542229135609 0.31556590916774502 0.44749976552814341 0.28429887633270323 0.26985169834259526 0.2884380528150351 0.34006601263407144 0.21141442080304987 0.16685547979238274 0.10350242861840724 0.44301195320346998 0.29206367965015029 0.34079953308780453 0.65043541338088329 0.23783217271925811 -0.67304126394321551 -1.1057263370257331 -0.96673568965620882 0.28335590343472211 0.67080811200028567 -0.41392043971269993 -0.13410302981204328 0.43529021389474276 0.46627067156334251 0.11526899693312846 0.41982942340666646 -0.91156643463611886 -0.53289124248863406 -0.43907597865572917 -0.13133737999655062 0.7125003704422469 -0.78238342221141999 0.53291082195129991 0.027003962120082339 -0.048211250493621904 0.45934189701219635 -0.11126296946564082 0.54345200813241801 -0.10612702071713261 -0.17815910968117041 0.32205682385373402 0.5657861174331219 0.020358976557606604 0.32622649070012422 0.15612037445295918 0.1932852167795123 0.081514098217210007 0.37719612394966467 0.45007107829717735 0.13494562524278436 0.41281467477483297 0.23003121843708599 0.34910716696217764 0.26218947829804817 0.1846024343231609 0.29376225515274185 0.31180270136789523 0.36210881067622874 0.29455121355264974 0.16044956811364203 0.4900812915619811 0.3156027383771563 0.3488796866081178 -0.86110239567714075 -0.09804878592412325 -1.9393402129281094 -1.0659547900534434 -1.7127315714180178 -0.82592798621139818 -1.1464122167955832 -0.4797106395512552 0.59459483307140959 0.45203085844005947 0.057220025404002443 -0.47523019691199253 -0.56126636197939483 -0.90094753960040896 0.10028386295511123 0.28449785079580564 0.57326448629180948 -1.0006659054381652 0.82808900460725265 0.064126031347984128 0.37244816213434623 0.67063360416867723 0.19067401754365793 0.46557011375080098 -0.073256980886593964 -0.10869953500968246 0.33765680673881521 0.67474733560343347 0.28665466518791471 0.13763095979071474 -0.025079589214234414 0.21460352963785989 0.23200620980171496 0.63046584715167098 0.45467346970010714 0.29823570531254739 0.565179965811063 0.45922993203350732 0.3458538565955378 0.25797216836530928 0.2618922545126352 0.281942659721098 0.26050854616838048 -0.050833231531809353 -0.0078055623389308446 -0.066622118447130077 0.33575331330551478 0.21488275186720626 0.26836957555243129 -0.87498345230371632 -1.9394726910406579 -0.41869355102155004 -0.16724484268653397 -0.66594500285114921 -0.65005153639872104 -0.5389481524691051 -0.35452802187319671 -0.43917835221379853 -0.17546250180094905 -0.38149807136201347 -0.94927351167947394 -0.99244314239762998 -0.52818332215919983 -0.40891022869329108 0.36188738206463222 -1.1435313841662134 0.1283239516856555 -0.63450685847104416 -0.59707116034033147 -0.061588957956585838 -0.61781302982063258 -0.052715341977056129 -0.63652083519452007 -0.45069039806569761 -0.21147152825878393 -0.083782486886874882 -0.33353451368305104 -0.14860250739829725 -0.35392053392516393 -0.4053722398727892 -0.36979994441156067 0.063977054154720839 -0.11199539975532197 -0.32791408928899302 -0.056325075412301057 -0.22617512866691855 -0.025763846896485688 -0.044811634849857417 -0.21862190472669077 -0.17589944164409357 -0.012532043908338328 -0.10283256484163279 -0.068251932551412847 -0.19945388682975382 0.26063063220934862 0.11056166933066114 0.17765610040708635 -2.1590280351204996 -0.03510400366461882 -0.77884477026740284 0.59515504326140956 -0.40233786826029377 -0.38529616356574153 -0.50455858515992635 0.13941958894952697 -1.0207966285259831 -0.14138241084522959 -0.93799326859943799 -0.96946203501404749 -0.02863074660746396 -0.25595973874035366 0.31181080908967324 -0.88798736689758107 1.1825989368281937 0.31837849995718381 -0.14836213297492143 0.74987202842863809 0.45153571616219818 0.48545641895808322 -0.21360047807240146 -0.27423311035182069 0.13237074769454296 0.45839327806941566 -0.035002250854923603 0.79935843190900868 -0.11782909378657072 0.19562566350885124 0.041359103202769421 0.55544618840716276 0.43386418825885464 0.4642428152022065 0.3936151836627591 0.30543883724300952 0.58412231813294346 0.28262167255303955 0.28438157918904494 0.37080715502845513 0.35706373168833083 0.0043911631363801251 0.12586921625068129 -0.048870704212483573 0.3554543542062556 0.25887958531787431 0.29873092820468256 1.1717202005187741 -1.4869161441666605 2.0014718414716466 0.086678025506541495 1.0419085105250918 0.75378822670944723 0.61352906635808713 0.21623680861985142 0.80819365319022374 0.5129531166770932 -0.067882647650016684 1.607957821747148 0.45936384852834056 1.3658013084063609 -0.21086293687795063 0.75778143280212462 0.52266312829344297 0.31689711061828774 0.72174106772276825 0.81678604930896814 0.69228104114742772 -0.12516131966172714 -0.072080457359366162 0.39907048823205771 0.84523904238012493 0.23453821180625214 1.095684976729334 0.26939694228815492 0.51377470378888146 0.13635446863038506 0.49257429787630513 0.62531792726578117 0.38907489953012059 0.47420640241268902 0.38562318783874677 0.56081680472434858 0.39147705836959756 0.34455415687501417 0.47224779891708163 0.39865198494552972 0.48530899243997261 0.36645417231778704 0.28164994189464293 0.61690397137849107 0.37332825258293101 0.41213617359707505 -1.0619532834557532 0.022989526779886384 -1.4178948624527115 -0.81842414817739839 -0.0051523287377257731 -0.14967805320878294 -1.2820748089520715 -0.2229154512356083 -1.0269950991792045 -1.6501988024990339 -0.01221374706909332 0.14064760773921242 0.15474733670257487 -0.55902042583925227 0.41139141099832127 -0.073275656585960136 -0.0081362593370306359 0.15750611802506173 0.51111219021661258 0.56215528266236947 -0.18967646017068099 -0.49098938625352945 -0.093275568328366365 0.27824114050321813 -0.075307895869911018 0.88200969418324493 -0.33190421797060782 0.19295479880264818 -0.14459323345314462 0.37753747554434397 0.39964516403654127 0.03197646254432835 0.36801001815178513 0.35297899667145533 0.47247324653798878 0.21181669863374442 0.15551510079492625 0.25328422596547745 0.27724862684923546 0.10720587964487119 0.010298397305154397 0.092569046711194092 0.41746070497067794 0.24561861966247045 0.32639805524855209 2.1769085906845236 0.085264073639758409 1.2822318988848913 0.45841016123368866 0.35475767121116697 0.051173837790442163 -0.30292048456354309 -0.00058461186090271204 -1.5218363981143799 1.1701773989778417 0.67634470539117308 0.79611055381145213 -1.6468487729418211 0.99253241921269553 0.11510100925872527 0.30104957333377108 0.63387881146381764 1.0635184043074402 0.56092322104171854 -0.6420532519340485 -0.6029552750362569 0.060240135412437348 0.78580446717764763 -0.081413409338561643 1.0422708886371441 -0.16478473912389485 0.39853857715852214 -0.39716748407152869 0.3404982097741156 0.43608645591495943 0.34673775318920408 0.31875667294689314 0.18228002527827034 0.37946595247500475 0.30714940941783997 0.08516205712670244 0.27677201666455231 0.21845928797178837 0.33055523289828442 0.30416038732121758 0.22880083579691307 0.53466228732239029 0.28960923055845489 0.36007220942785784 -0.17745092729494211 -0.2640069108959503 1.579105415944444 0.82674159074352482 -0.1357437426183809 -0.23290919866913448 -0.32621459031515831 -1.7948715623995188 0.069203495272779247 -0.29692749147909936 0.065007488570596669 -1.7168731733423559 0.86304800949593852 0.062220487894122177 -0.1716708238902018 0.59820591834202042 0.1118968829580385 0.31086843089602484 -0.021571068412454975 0.010223800859784063 0.19007041572073349 0.48777149893457433 0.38157171191044398 0.47263800865360595 -0.1110124465308365 0.044759177148545333 0.027580206426140688 0.54851554641653999 0.22674661635264509 0.22043986505835303 0.11968882969242191 0.37899001021438622 0.55008279488086598 0.204672479656651 0.26746934711630832 0.20435859604516587 0.23137714489363539 0.063447148159926817 0.11985567769115643 0.11406348930919617 0.48479057171583256 0.261159729417487 0.31497571682145964 0.064091247630341297 -0.16420421348778855 -0.16466985064438375 -0.20004107599702703 -0.31771460776685373 -0.71913569228462382 -0.74603043780828249 0.61643791019224881 0.6624489440305017 0.2458960750015983 -0.33776161029560364 1.2894714543050858 0.45586223940382076 0.4174789327144024 0.45462208751444444 0.74753618043828141 0.69262579554237957 -0.059384998797678112 -0.46948735479167958 0.41183495948253979 0.72226500859174037 0.25095588037939787 1.233658617766398 -0.27578890206536105 0.66076174162480106 0.080340237699212808 0.5195356034039289 0.58673079651165783 0.55009590450525125 0.58031281892735254 0.7508864304158348 0.61529620196928592 0.36537504823047862 0.45863012274076198 0.50103788627933143 0.32815299709845547 0.0281084426600537 0.0580657681475873 0.052256251671246715 0.44021626972902106 0.26265104453019383 0.3208041778414088 0.15172498718652583 0.090023731585820929 -2.321578783262416 -0.37542541871204582 -0.21431390821842833 -1.23165767437172 0.71162425911711069 -0.0098735537729959851 0.98831453317997764 -1.0609534068229667 1.0881187885416814 0.6400882142307549 0.34949063727308838 0.88574263094219208 0.71498618432504135 0.52656604069511048 -0.13359231123675891 -0.076830769785256561 0.36403902344567907 0.68593011146022431 0.22206342994564823 1.4923718200833551 -0.083701031077096033 0.3407953612696587 -0.072421972326381645 0.49446740021915941 0.50706741002958144 0.19749367136801366 0.25187768247618231 0.64170482512287808 0.52541094274359945 0.40283120588617427 0.3401787031730148 0.55052734893134592 0.33088584668589716 0.28893608598581616 0.3293582188621576 0.14780150281404805 0.56985210004159259 0.3086514602983314 0.35871068825259161 -0.96948254739034845 -1.606726262807044 0.064373666893418433 -1.3320775703407479 -0.33508574678905884 -1.250410272717331 0.41591123570121347 -0.54512498693335865 -1.0564626983939813 1.0370679180024425 0.8290245553187845 0.20215977884809791 0.3386102334238501 0.17940494721959077 1.361739232882641 0.27202140865234747 0.19955993211435855 0.62516875193721322 1.6988625315291301 -0.11240114681164967 1.0602302862821202 -0.32157718614316066 0.80250795194324132 0.067200354475369414 0.39305726674550878 0.85027621338149229 0.61382438613811874 0.34750696389990871 0.63031500062119761 0.4431418764396477 0.5434810621392141 0.64705415739555616 0.51714827355712145 0.47959483544031756 -0.38140755565019591 0.06340668523028814 -0.029231055653854667 0.46767754725345745 0.23007992425994361 0.30795258991728852 -0.19405054538479657 -0.45549646767996205 -0.56558023690939341 -0.52141513880669321 -0.20283027021254038 0.26682474222724717 -0.30020844127774399 -1.3469825156889763 0.85919110713524294 0.6434384498532093 -0.18916067054100666 0.53969393398359766 0.58605548632862015 1.5152929268889741 0.20309071965598166 0.36070595419596374 0.60302860728815766 1.0533373725970796 0.12156965602146573 1.1075671567336842 -0.28212249764801683 0.81405734328476131 0.36429474391494576 0.39575336683260431 0.85300504672731192 0.51849675622442826 0.34238548371020178 0.55745795093673911 0.33701328678952502 0.43305993619304362 0.43511722100637584 0.61720957088766415 0.27772067298898945 -0.030234571682793133 0.18717957909679095 -0.00099511521734989327 0.52502648959179454 0.19138027625997403 0.26820965519912804 0.38163270012680189 0.98138147257278074 0.63560823507448128 1.8620941215713871 0.81120273339238713 1.1835002230968632 -0.73791808688633009 1.2419190409856813 0.90566695256707164 0.95497278894610937 0.77198478207012722 1.1174918912989347 0.8209993207902393 0.56822081246469325 -0.15165716969395349 0.72682218159920786 1.2750160773428647 0.44175556357931317 1.7498617736788156 0.24876057295493825 1.0213145282497507 0.24485406458239892 0.65421234638817227 1.0761482856211184 1.1805419409387867 0.71843541741761219 0.39869326723075416 0.3939598267933121 0.43709318688732884 0.30463741813334949 0.52763600279076284 0.39768611431217932 0.59929956867448797 0.4557456328063561 0.2514930728494057 0.68780126305335931 0.35071995410601803 0.39981943933351305 -0.23943814942663463 0.11455722201141857 0.28698085529267858 0.31793133390182027 0.33915649274295606 -1.5531539524261744 1.0441978906572227 0.60506560047242264 0.66981776348613986 0.99702424445842452 0.75537611685244122 1.1831079227695886 -0.67852976840867996 -0.52903408772090044 0.43264503300939594 1.7051381176689522 -0.19391502089065629 0.9357651971148131 -0.060253972196006957 0.92537562159107511 -0.6166834259581051 0.31219690406079059 0.774602473657376 0.34809658330022669 0.36554166750986905 0.071278697523875598 0.41172862308788 0.64679701972334114 0.24023999235862148 0.66135372975578322 0.34343181414611246 0.31396746677766263 0.37373674255324041 0.21551361573766475 0.60226553599844967 0.2646882995787439 0.36149908136483755 -0.38794193583880709 1.958981048297586 -0.066742059381431712 2.5108869989941511 -0.64096525099049195 1.0278465992175365 1.0942952560683694 0.83061048114674507 1.2644317373946314 1.8902327880602949 0.88771003012781424 0.22487784585454287 0.16691186431145599 0.79817994992224872 1.3379184503444177 0.81383468503979284 1.4898865039080798 0.64965340059663879 1.0773914649234879 0.33751019752860029 0.63851408086511374 0.87320483204334631 0.78429010308092983 0.80996326076194114 0.76257158026439897 0.6023490319165542 0.6522298502629239 0.77332261008428482 0.83242672893217817 0.52826000916676019 0.68608501495148355 0.50198751520483376 0.31751021722493578 0.73708455278329488 0.33175037716515304 0.3848287479085209 1.268242577288212 0.00086584079178196518 1.2323686904729789 -1.116587762398219 1.7231424136140205 0.19295670303161935 0.26694556624529342 0.92093622089321014 1.580349224538995 0.83058764311349043 -0.65343789339518066 -0.3013794546479866 0.25832394958337068 0.99242385208043626 -0.018774563449391286 1.4875034339895594 0.079819685857170433 0.80137408764344631 -0.44146779724606333 0.37011093131428624 0.55137605822547087 0.30769755710240104 0.40467171509332356 0.15334936475793948 0.6750661969741012 0.32444705406685137 0.36806042627226987 0.3267334925917853 0.30414313094102624 0.39202923671612683 0.32460306101144576 0.32087251286036017 0.65823317101687451 0.32639475420767144 0.40642953830537221 -0.54026119733089495 -0.14239057686007614 -3.3774123900066968 2.1577334273647364 0.7840466220132376 -0.49953479573003495 0.88958540329922697 1.4199132622370914 0.80742731243315968 -0.045580371079909698 -0.051453243173817262 0.39381878094495959 0.767652256506409 0.86880756081868149 1.338339301752915 -0.21591888715126215 0.66634484239917924 0.2217934905566564 0.71208718561409778 0.82670486955505185 0.7384719866896694 0.52821741258690813 0.75614056259754869 0.80053487573428384 0.51713390483209598 0.6160829073982248 0.5763961229183352 0.37634397974847872 0.060578924059843019 0.11911818128486293 0.071276171731348287 0.47829441915630455 0.28263313564807202 0.34925062235265802 0.31693835663453562 -0.49307089932566395 0.41585160606540295 0.29749818014495083 -1.2735530016214347 -0.0035409271661872794 0.62682369935617133 0.66956506147214867 -0.68868637371780705 -0.53368185443640426 -0.052184864010708931 0.60040016873211532 -0.028690549478359483 0.73842115973842437 -0.24593899680418652 0.43045237703571887 -0.036487874309808911 0.64157826433458809 0.45962532087364483 0.29794029150210044 0.5629464875846647 0.21018110425859479 0.21916232639504687 0.39438198716459338 0.22896901337038048 0.39370687864381487 0.31925047058377859 0.30599168529896847 0.17107419154638698 0.050906602685370901 0.48306342784302408 0.21691438928607518 0.29608474113672384 -1.3888252073520633 0.79024846686593175 -0.036497295919821586 -0.44895067960198748 -0.37063926867643937 0.93773496100199105 0.54076537568001182 0.12236321266674344 -0.52475518147172806 0.14679507230990835 0.881228018351912 0.40444968154645705 1.2657794149396286 -0.51790273761390115 0.49708670406806083 0.017637712822452439 0.79022084446676866 0.45963823152754618 -0.1794828118285911 0.56021837170293898 0.58509861277029163 0.6004184924499163 0.19401658825933646 -0.067743758233625384 0.13736212722591598 -0.057896198780286859 0.14979082288341469 0.18263367561192861 0.035468468852505007 0.39765598953902287 0.24830414596020695 0.32036899275014991 0.98871222119643798 0.44614714031956176 0.099752066335323145 1.1284529104430583 2.3059134096893907 1.2628224676543252 -0.030898549761905085 0.49780467959468594 0.98273604194594988 2.0667403307523133 0.21348020272315907 1.0960298853252035 0.76484668429230995 1.4889528138939097 0.54489860065330864 0.5388012486312177 1.2862446361667965 0.4630231955753274 1.0139979627626761 0.54214957543960252 0.71696358229649237 0.58319623636404694 0.53859278452971426 0.79347330155818896 0.71677457435870273 1.3786088154128435 0.75854586256431 0.74343233497760697 0.95235207502207464 0.42462073586083793 0.48777493065653815 0.63307339772721893 -0.58264282258004851 -2.1081793605450567 -0.54762037556752663 0.41426494049305002 0.64972556003219162 -0.26179031544562809 -0.25880450449457637 -0.22861101318231455 0.027637993167353624 1.1701700805293611 -1.0796359797779465 0.22848768446000595 -0.079974914509831782 0.36597232872838498 0.2034155019506364 0.0052036639225745713 0.11805496485915146 0.260483260175082 0.4603674570606261 -0.10614069967182548 -0.20859022871218005 -0.1767691684078572 -0.31199157484001155 -0.60374014167201895 -0.24502417926714073 -0.41749537100699319 0.042761659222682574 0.097708423776305314 0.18038027872471393 -0.59707389491373952 -0.27701348257269248 -0.069828769226230547 0.60600484195757565 -1.1416833190406559 -1.1704843053260141 -0.15093723763361797 0.69875414438254235 -1.7900360232155332 0.71198122381791129 -0.59546810400645078 0.22274265696514961 -0.84714389148178859 0.32229999025923556 -0.014189082059732318 -0.64459362861514014 0.21122049957756606 0.18655363404205236 0.24700066900418768 0.089052744521576105 -0.33000915797761698 0.16236848003759261 0.25423020634706461 0.069248847244994305 -0.143289667305875 0.01288016405033464 0.36456411564814051 0.17555649545903848 0.24141689717857892 0.11908328875125639 1.7570202380702575 0.95995886746845849 -0.47857327792001564 -0.60156377704210307 0.58567836112062188 1.5688562714332792 0.5360409688878468 1.218492852048781 -0.30177737822851908 1.0836184490403629 -0.096997501477189024 0.93193006508324816 0.87484076778688213 0.68575899356742631 0.92281782005267821 0.78354881870282411 0.48196822865892014 0.52798281828027593 0.43689092540637564 0.54447550834636815 0.36022393565447619 0.39029858568284787 0.18066936208181925 0.11830424531058539 0.55496608307389417 0.26073952919178034 0.33326631022225189 0.069176526650142706 0.62116509619672389 0.34359045601033394 -0.23504238112359149 0.9070882885405771 1.2452742226684039 -0.069430049824414364 1.4254183991273459 -0.81373390897363462 0.73268593646549907 0.27084289289049501 0.5790155647766031 0.7662878970492889 0.39322187641301637 0.41980550639922604 -0.026911545105757752 0.33276223683541961 0.074839860540789185 -0.40046599246046632 0.12249105167744877 -0.20819478405640929 0.20030297486602214 0.29143984820079888 0.025087422572971405 0.54687447737359696 0.22304344740653168 0.3013522185355339 1.327631495144709 -0.88233293115885658 -0.54626554503483027 0.13910456046931058 0.31662608571446277 0.18301131097063922 1.3093958125566754 -0.30534349957181361 0.35636739317440408 -0.41999491258820221 0.77758385362144244 0.66032400402523495 0.21830646520402308 0.19994541200074506 0.59087338592327043 0.53938565548857109 0.32663934747456463 0.52313555792156985 0.32550719845037657 0.32950499010067158 -0.18789080103044548 -0.037145445941066446 -0.071126452316457367 0.44422993647763065 0.15000795673656259 0.23784746366869045 -0.95477287464830285 -1.2990582353556019 -0.23647197527408295 -0.75122909045056163 -1.9910604888154668 0.068538291202958332 -0.65392507023085322 -2.0762651122810682 -1.2117164829764959 -0.2800037693573289 -0.85544500771976895 -0.76229608381354419 -0.58106932702256298 -1.205789672843032 -0.39494142261267956 -0.2218370788733082 -1.2266978058300688 -0.35841579357786629 0.15096388736434804 -0.21676246019571654 -0.074169610305871991 -0.24380132273588323 0.27221861535050085 0.036898064814179607 0.14930317497580539 0.32286330907245236 0.72027077129249995 0.78354889773233016 -0.50861490180415569 0.9898385337158333 -0.23997797117869535 0.76956567593660408 -0.096936445173793656 0.086059173212294449 0.83433013056650851 0.41490214901800154 0.65272704433191475 0.8403047972303247 0.35995812622253964 0.47283699736945572 0.30299456510063477 0.7724585439451418 0.57187020903505703 0.38432008295689046 0.17137398490129682 0.19435511685299228 0.53301218205873302 0.22777467149802375 0.26054607611881075 0.40534971635202438 1.1876024862368162 -0.48343172674133222 1.2491788555141614 -0.034717838029058284 1.1333146883873431 0.0024820168345940155 0.20440906403815046 1.1239115451744701 0.73076982966417614 0.73655286758887673 0.95079933447190312 0.43427947712586723 0.55590609767402621 0.51692112447987004 0.9508026810841339 0.67567219284747027 0.33027772176932679 0.16106204593046289 0.17582829532804181 0.55729025221184636 0.30212979556593916 0.32997972726499636 0.39254412230722557 -1.0895630728327876 0.93993923255028733 -1.0935805474667224 0.16837691680132835 -0.85787781335423308 0.61670591376661532 0.48827600402744714 0.0659570680389404 0.54669467951852635 -0.15651943308235416 0.14923584620465913 0.23677408335206418 -0.23378155535127565 0.023390893269274984 -0.098254048230602575 0.14369526051621029 0.10013088098097064 0.020961495649507517 0.55972822099024089 0.16970031143209291 0.25347688917969091 -0.57186925917903564 1.0446025227077858 -2.0683921780768078 -0.25254944624904063 -0.69642284013411193 0.78870367474566705 -0.55376317571587985 -0.15327483997734881 0.47850556733604399 0.24703334360868415 0.1049759773763366 0.12882403543015486 -0.21663943847906322 -0.12128757949629899 -0.29452738846699478 -0.65805336439005002 -0.10333957317037709 -0.46279588383317349 0.34290191517920543 0.10099557417418932 0.23594509014924778 2.409539659197951 -0.65655380965979071 0.9687927006324758 1.0902045805437439 1.1270596500601213 1.2603290525271658 0.98949848064179768 0.93471216947043978 1.437421329494684 0.43208520023190122 0.8162870166921754 0.79519183439401364 1.4435931766917061 0.79244005427664754 0.17400371046132912 0.21138250852940635 0.29999598092401797 0.60657700646952861 0.39289840901136858 0.36481752949729152 -0.89758196550945157 -1.7666511788480217 -1.3504221433321222 -0.79297089458976344 -0.58411752330292344 -1.4692703586946962 -0.64811739964975934 -0.79339601913792657 -0.2995413095578221 -0.4898528457166032 -0.91338076632867549 -0.23130203809705052 -0.20073340892425176 -0.47515085550029684 -0.39439397999816234 -0.22537975395315968 0.038342328441021326 0.047245524402893958 0.1077456886428039 0.7199278331268617 -0.051078659004748686 0.560871305653039 0.75234472894937499 0.56634076818150436 0.6144759211479085 -0.58372690030276975 0.27266925426724864 0.40914808038798117 -0.28051819421925822 0.32410598575730271 0.012206652885059802 0.21181036250888907 0.71295413550571118 0.30213474031008075 0.87694633210994899 0.32592377283593571 0.3926340228890664 -1.6672841577341277 -0.11706762899242548 -0.015319399417697974 -0.68343578950915229 0.035000335154260404 0.20938678086611504 0.14816960048543662 0.26229184280088319 -0.25284348096253967 0.5033603645239747 0.13937404472409964 -0.41492093162065558 -0.15210275508798549 -0.27914287383346653 0.27516398047437512 0.10076095758804621 0.20010151112169897 -0.16047077831736226 1.0689164752921232 0.34209458525526515 -0.066633846691032117 -0.58252903217530194 0.15563276288696859 0.086242160410138394 0.3397211681013575 1.1240376808982955 0.73484165182303751 1.2634857611771229 0.7940042285363843 0.21419117328065515 0.56697373877517465 0.2212154056432305 0.25649261939796031 0.33115159160639573 -0.55671692230219894 -0.9637025804831626 -0.84239171604544882 -0.22001018881251261 0.015828152891344781 -0.19306682546095708 0.060119358148905996 0.20009915292795524 -0.29566034362237931 -0.23342623426469519 -0.16183359838836436 0.16881540305341555 0.058187519686209763 0.046922862517096015 -2.0025336162245648 -0.38421209435545634 -0.78032920312413256 -0.18194038471636861 -0.27061727062784935 -0.87699645285357719 -0.052069608618773265 0.074607426669826657 0.0069949772560879489 0.0824086790016684 -0.19589049725568297 0.34541031760403934 0.087398771525246874 0.19265498246427301 0.47565579319590245 -0.034942381319633779 1.0843310310971332 0.83959777530583357 0.40613847019378491 0.40931055825158974 0.25456000073616514 -0.0025140394208084732 0.041629294757216759 -0.054980417635086841 0.33998910441811359 0.17465329995107101 0.25445191003719736 -0.34863392548407213 -0.40003631084642466 0.44612982705270532 -0.10820274747862374 0.34861005316819227 0.11230196910929538 -0.41325742967796919 -0.33783939260866447 -0.49177536878471473 0.18368979240888664 -0.12756229889856488 0.028691195588881335 0.53089154174097075 0.71745623288050098 0.13411973351798701 0.7309058266486439 0.92862745725252194 0.13637768271773851 0.25782257367387446 0.091186194861907044 0.53836599689508213 0.24174724731959399 0.27572579858290669 0.47856793981360202 -0.23965875263673883 0.13857037045428916 0.14920599814117069 -0.15234011899398389 -0.088769347592438083 -0.0089070500112503059 0.32069872727642162 0.21794184599047969 0.21598380567027006 -0.71500247510034642 -0.014471576134062454 0.33408357256221494 0.041815968328271468 0.42099556930603632 -0.0292469893086394 0.089299437339295629 0.1500525157821303 0.19047410540806864 1.1125818464796171 1.1527370947543103 1.0310628367488104 0.82981709570164564 0.086433516900977073 0.64028883109606838 0.21932318107016902 0.27555399486047355 0.2040258259222891 1.1083441199775734 0.78399637316861193 0.20721862138361202 0.47665638241486363 0.16115763173451805 0.21460647012268372 0.0052284710320102271 0.19076293649369272 0.20311922953715916 0.63268106918290545 0.08162146439749543 0.15708758914499027 -0.59036800633325814 0.7080958862639275 0.85044173163764891 0.15182942750878484 0.32853555045514826 0.5061800531805335 0.23361219728117077 0.2841550646267848 0.30854072992366577 0.26147487076612835 0.11985654880919665 0.25957446207884893 0.0033766629883449453 -0.13297870285372843 0.82940246038850907
label 1 2 3 4 5 6 7 8 9 10 11 12 13 14 15 16 17 18 19 20 21 22 23 24 25 26 27 28 29 30 31 32 33 34 35 36 37 38 39 40 41 42 43 44 45 46 47 48 49 50 51 52 53 54 55 56 57 58 59 60 61 62 63 64 65 66 67 68 69 70 71 72 73 74 75 76 77 78 79 80 81 82 83 84 85 86 87 88
probA -1.7925189192922042 -1.4179122732029104 -1.3796964872125228 -1.7725681583865136 -1.5185913170594918 -1.7486806955455489 -1.9839261149496634 -1.6721418113101969 -1.9802910245454979 -1.7592711235810146 -1.7930181739514732 -1.8870571955011717 -2.0625746274816565 -2.0435774036319843 -1.6233032186675802 -1.7547451175773703 -1.9116151795035139 -1.9354083122421415 -1.7829530585536488 -1.5899716492324718 -1.9269736704836435 -1.9903932269250384 -1.8261628312618081 -2.0827692622685765 -1.995978844416332 -1.8358450350198301 -1.7903583206386475 -1.9796745796079673 -1.8526838128736152 -1.7660905686079245 -1.7186516580287372 -1.7700842841566509 -1.8803373695781573 -1.8078782928959634 -1.7350643877806891 -1.8326338867064349 -1.8698276312151096 -1.9635283151632101 -1.886745102121846 -1.857342720432801 -1.783326329125605 -1.8916447021532481 -2.0097420757643287 -1.7856370589752608 -1.8760275612081712 -1.8885162458293157 -1.9499017403813599 -1.9328086728287885 -1.8154506251948934 -1.9160686548099131 -1.8253996821813907 -1.8502891188682529 -1.7886040119086553 -1.842846283779725 -1.8681288148821744 -1.7789217987633967 -2.0298084766735753 -1.8619696253987938 -1.7949235160227575 -2.0006568457397136 -1.9336001721742953 -1.9822430704564531 -2.1213147019106469 -1.8483415301648649 -1.9512677842546928 -2.0970136274885336 -1.9155056173050418 -2.0162846658261064 -1.8950198289605447 -1.985721828148949 -1.8787946066278916 -2.0153739363180607 -1.9838553307519753 -1.8593313913846319 -2.1827425723863021 -1.9453039628438997 -2.0220518868828363 -1.8680138741197521 -1.8767709270809658 -1.9033972276534683 -1.9514393620870745 -1.8766630967777642 -1.8326809076400832 -1.9426807575400684 -2.0625812012573763 -2.0083047562508383 -1.9107230365765144 -0.76693701793524272 -0.2318541600332141 -1.2623774960404752 -1.0814716538871338 -1.5328349526810596 -1.5470336067593615 -1.1518071541494423 -0.98591750669801936 -1.4992888865885028 -0.78987157171571265 -1.4054547505479866 -1.9581333600879047 -1.7200560624095476 -1.0311915395963465 -1.3003213519296046 -1.4098589309217777 -1.5585659019181815 -1.1498458882294762 -1.5625925993898635 -1.7934035813074767 -1.617899389250639 -1.5414573385231685 -2.1482398318213138 -2.0617451260573438 -1.3067393173558945 -1.5006830565996649 -1.4037076421666324 -1.9233567181563902 -2.0949925398815474 -1.6175528204869929 -1.8994169573778406 -2.0930698782896235 -1.8578071195474077 -1.8671675767705054 -1.889101066240559 -2.0853071907505902 -2.6200944160315922 -2.0687407179236477 -2.7403033478712295 -2.1036469907071687 -2.172131264126298 -1.6726524097372852 -1.9477423848144362 -1.8205026572947696 -1.7954203941461364 -1.693696465792744 -1.8314038848706595 -1.971951785557839 -1.9178116751975527 -1.9398792032635483 -2.0459660108253979 -2.0720653458981206 -1.8932269989384127 -2.2041328607884854 -1.9345422406226092 -2.1446491151307474 -1.9580130242465514 -1.8749023806383289 -2.1201503251639835 -2.2366371202936626 -2.1404058964705621 -1.7100903226306694 -1.9681461105091722 -2.0445746781577454 -2.0825907640615773 -1.9427064518994681 -1.7442812670950611 -2.1526148519489618 -2.091323596116335 -1.8971410674661671 -2.0914909034206519 -2.1643976282616517 -1.8003352484320334 -2.1484134253125919 -1.8415437837378608 -2.0838220866030817 -1.890710462544235 -2.0873793374741152 -2.0006897345087133 -2.0274494792238715 -1.8604969862276928 -1.9128082211669726 -1.9053566265160737 -2.2420073950756629 -2.0820126538559274 -1.9314938765998453 -0.049941972996523996 -0.29764072782627637 -0.032221523322139761 -1.0030961363418252 -0.98714658634698782 -0.80387037883946921 -0.93527942910230843 -0.95174827002167339 -1.4694286604677858 -1.3273104654324575 -1.1975363053365708 -1.3059284872754067 -0.86448823346437453 -0.47285957526063305 -0.51858214597983632 -1.4027788376800352 -1.0831927452467989 -1.4120540774021064 -1.3480105075126867 -1.1188374672521395 -0.64662977457804272 -2.0681043742833811 -0.59790164455664796 -1.1810601570886077 -0.89395917800367586 -1.3187417063659033 -1.6397205393974867 -1.1065293477347216 -1.0107234393865168 -1.5157567802388987 -0.55098097403615187 -1.1811462064203608 -1.3741936642130186 -1.2683647849866533 -0.45588548602676043 -0.87362889399757759 -1.4337481004618609 -1.5500878191016894 -1.2648839412325761 -1.2329531107269827 -1.726629246120452 -1.8577351034282044 -1.046566337498879 -1.2415969378552769 -1.7298748367539571 -1.909880525145111 -1.7734729430077698 -1.9020908825135232 -1.4187288545981251 -1.5052207098725885 -1.7782089199582327 -1.4760580188303685 -1.7354126006223987 -1.7291802477702747 -2.112554177064712 -1.7845314205356078 -1.5301942847553398 -2.1551835989478079 -1.5392798410502058 -1.836646865528019 -1.7129279411540623 -1.88526442756907 -1.7559437911935065 -1.694330287594215 -1.9498853952802864 -1.3407808167580819 -1.9328235422615516 -1.2327492665501962 -2.0170064366280522 -2.0625115804997924 -1.9339783599250671 -1.4678021486771351 -1.7917691166023848 -1.7842328185479108 -2.0449808112763135 -1.8756072359526592 -2.068616222832099 -2.2758360475776152 -1.9986073213779132 -1.8508194896273042 -1.8949167751189369 -1.9002298225453158 -2.4211955383640538 -2.0601509680935717 -2.1544231610667093 -0.20362168355263766 0.55431115245125939 -0.41721375670915428 -1.4243788693880968 -0.75861148483691521 -0.30814035753674479 -1.341320825994986 -1.5688901040165173 -1.2978942648236871 -1.1414559733202161 -1.0585488834186478 -0.79276304929365626 -1.1145571797595353 -1.037387560844627 -1.7352462264170254 -1.5133306965461018 -1.9739784741042796 -2.3178721335679802 -0.82827590655634364 -0.7447532698511693 -1.3825482251731791 -1.4135019041548957 -0.12135774821557092 -1.6860075165245483 -0.52487584368768914 -2.4588634150671167 -1.2535664782677274 -1.2646848115897991 -0.70621235386241199 -0.43815962658714736 -1.5344219863733519 -1.0195280560637989 -1.3469166572152445 -1.0615713002932663 -1.0464038939557756 -0.98144166286365675 -1.434188811561234 -0.77189190257803864 -1.9793106249457095 -1.8227695435440252 -1.8186363991528276 -1.8100889572840875 -1.5928453535108351 -1.6013407497532335 -1.6146348538568516 -2.0007024766222119 -2.1348102905461528 -1.9116756696902419 -2.3153013697002254 -1.9423564513737803 -2.4247572483950561 -2.4314698022068759 -2.4367340109129878 -2.0891830552964548 -2.1885963276816973 -1.4337641034648152 -2.0083026389323013 -2.5653986148411114 -2.1245264867715141 -1.5636792625392313 -2.1637500715724527 -2.379747166023785 -1.8801370128146466 -1.9282924611948973 -1.4177846443775539 -1.9016262494533114 -2.097117378864231 -2.0112400333438467 -2.0366123705151771 -2.2427396229461922 -1.3296328794316725 -2.0373863169584587 -1.6149620309544841 -2.0280939092369907 -1.9068496934214847 -2.0106829396422405 -2.2243015430374804 -2.262652457277802 -1.8396687332406871 -1.9337479088168692 -1.7313513479082425 -2.2556522085607873 -1.9933779037341695 -2.1821340434958802 0.40526240963314636 -0.84900907959930916 -0.2563988871111581 -0.59183857328922607 -0.23842433595251958 -0.98184568620459622 -0.86459626163977854 -0.56584081242080397 -0.98305640781029502 -0.90693261479049614 -0.092503173317953616 -0.24132649212390916 -0.57978498740236828 -0.41751642498707464 -1.2148418197630719 -1.3503668840042631 -0.63030545009744909 0.41087916437883876 -0.90270252664885875 -0.95816214967040081 0.70472698224741048 -0.13801475030802662 -0.99753955825664031 -0.95532140694875889 -1.8385773935501466 -0.97558127330967481 -0.66175817009331761 -0.95017913444491353 -0.98711886478623034 -0.98671280481925694 -1.3381077619579822 -1.5940679039977528 -1.5240005614434098 -1.0738605401334709 -0.75738678288157324 -1.974904579407512 -1.3717812045916924 -1.4532984865685143 -2.2297333966243968 -1.6171618594845398 -0.80114773011453888 -1.1552330833358926 -1.5646052338859169 -1.6724255279788149 -1.8919687263846474 -2.0846648345641294 -1.8835642695667292 -0.77381084453542104 -1.1639090102790925 -2.0763854878267596 -2.4846847317921728 -2.1704103491057833 -2.0666528972737948 -2.1120143021701945 -1.9675478702752398 -2.1351150550362012 -1.1447693787571591 -2.1614960275112365 -1.0137090195591505 -2.0235590336367308 -2.1684836429647043 -2.7946599997128847 -2.0712536067794205 -1.456266288602984 -2.0270882148786207 -1.897163078393274 -1.9393534005845345 -2.1175733084860378 -2.1667094827873501 -1.4990607070569095 -1.8792711109229976 -1.6612558161415907 -2.1903776477477881 -1.9457890473419497 -1.9396649027810893 -2.1326062027613135 -2.099102212008364 -2.0350045349334214 -2.0141565089172517 -2.1347153620025772 -2.3186074929646638 -2.1502427825827399 -1.9477027412677372 -0.59687570492689046 0.4664118696559606 0.58194799454545831 0.63671465179459052 -1.0058082852879848 -1.2644822897069143 -0.86637843246157054 1.1395355241528988 -1.1409167642801012 -1.2267187738779384 0.15049745630844691 0.38472175783866441 -0.84076135472269464 -0.038054684614904785 -1.1292703868137868 -1.3666350761876163 0.1885398907743874 -0.74179162673671828 -1.0254807096066072 0.29502470851102558 0.32176026917994754 0.51717754366084978 -1.0273348255955754 -1.9604620800894059 0.064437850542315156 -0.93976728071441729 -0.23848684369174727 0.74530643474516567 -1.4953672001040013 -0.68852390558890775 1.4968282807828217 -0.047790168251068264 0.40846788799491923 -1.4734764775806892 0.14807505841031113 -0.71150451060713615 0.12685926673848716 -1.4029246768884256 -2.0797631453268952 -0.84693711379655867 -1.3434657062695681 -1.7150626476292257 -1.9333892610037373 -1.9743587995993122 -2.4327540963219887 -1.5094649381762737 -2.2882276817658003 -2.3012460288338987 -2.1158207431349925 -2.2431725055599303 -2.3867092838978303 -2.1281912523095152 -2.2864719395508248 -1.8856123099167772 -1.9407670487136865 -2.2410620939232468 -3.077375091417156 -1.9563532691106258 -1.9355241868133699 -2.1576792073796067 -1.7724028465350092 -1.9948166549695987 -1.4221723708993916 -2.18122332220294 -1.9172227968155697 -2.3312992687729763 -2.0854130161308442 -2.1039780940477315 -1.5075323823037245 -1.8688343097363895 -1.8038577018304138 -2.0358380831656229 -1.9200668498938118 -1.9482866646400678 -2.0514633579137302 -2.0746557118242763 -1.7941713720319847 -2.0862075412834931 -1.6947664700825693 -2.5784926249520725 -2.070243454597462 -1.9455946364737491 -0.7069044346336496 -0.14350023081726393 -0.37396584306152131 -0.7042802132193634 -0.66525462578425509 -1.0464981967084375 -1.2487298859997404 -1.1154065698785181 -0.50145119042476183 -0.97088248452497239 -1.0784300434344296 -1.1247133108704936 -1.1910288463726597 -0.44383703708607769 -0.40977748904554234 -0.49818403868227917 -0.99454245959637788 -0.64194077780359482 -0.73695575193391172 0.015491523339154325 -0.77421013113624315 -0.84305958800022984 -1.3889050673323657 -0.12256028113285432 -0.69188975792231866 -0.69439011485829105 -0.71301956690686896 -1.1209156343843352 -0.6222406102853103 -0.71852716347447221 -0.44951088526316396 -0.57787412749420575 -0.91637511261412707 -0.31289079958498522 -0.89963162259385576 -0.58050952302759251 -0.74209224030387 0.30033481795350175 -1.0943629193270881 -0.76159599833407254 -1.1949821174941202 -1.6861262312629788 -1.8541750694564405 -1.6925278224920686 -1.2635293247928654 -1.6539598521405083 -1.0687711229439782 -1.7930669299159414 -0.86868555455683949 -1.5118604706024175 -1.9194893073039059 -1.7356864940890462 -1.0533434374578206 -1.4362492125797315 -1.2200997808764122 -1.7080298329761707 -1.7087188276947429 -1.8623959125782885 -1.7703207933496008 -1.6683870968693242 -1.8197599696325013 -0.78914398600102298 -1.9625510506824977 -1.5130781480336473 -1.9237426726435218 -1.358870024440483 -1.6649373026350998 -1.5991560880687292 -1.5064457947752934 -1.441721355084508 -1.4297705151362716 -2.0070588694782345 -1.802750010703476 -1.7522380392762102 -1.7093796776798438 -1.834077793373132 -1.4161107566271873 -1.8153890811813154 -1.9513679334081502 -1.7095069564790337 -1.5012238671565998 0.51067292275781229 0.14688698011539494 -0.97020091002316833 0.23286805164799942 -0.6002531867970351 0.24961076727922835 -0.80084602946564332 -1.0340123960428329 -1.1245249750596913 0.50946106279310421 -0.98669963369879499 -2.2782154768114209 -0.45463910199019691 -0.76146482172917018 -0.21578088447768276 -1.3014019538920794 0.20096187032237636 2.1273568874042015 0.617894940924134 1.1048511049086804 -1.2782221176364961 -1.2204264462891596 -0.90765278469498856 -0.96048627362111838 0.047043523896455566 -0.079206984185326651 -0.056536795804972312 -1.2960535904906241 -0.82126648658885526 -0.052194687175163762 0.11387326138037877 -0.19588797563271496 0.79840632744230944 -2.1187655932607572 -0.26352439266290034 -2.5312099417629459 -1.5097149268187153 -0.92037352864903821 -1.0595081483228073 -1.4876197686202473 -1.6722835408198735 -1.7599901949054488 -2.1820046859099929 -1.7372181496835857 -2.3869587892278736 -1.8463811446686844 -1.9266022406135055 -2.7354660916159497 -2.0578929525987806 -2.7192613955594829 -2.5054577109218292 -1.4135123815605533 -2.5456111194536004 -2.43337345744678 -2.341998892155341 -2.1555215161263286 -2.1606093667752178 -2.3546198565215932 -2.5062882016631649 -1.9703251341925139 -0.97405614913244731 -2.2643706355869084 -2.1077949283720576 -2.1177871884103654 -2.1716573320810939 -2.2690763165268817 -1.5777580601307881 -1.9412034284764335 -1.727867942433414 -2.0918704723242554 -2.0711739732259717 -2.1546848473476117 -2.1481999861724339 -2.3182404057116277 -1.7176938552913847 -2.1425102552218331 -2.0283378463937534 -2.49648421611119 -2.1572233336199651 -1.9147561937191582 0.79034580119636266 -0.89202593435639344 -0.42910668278775038 -0.35586950083536234 0.056096053102541087 -0.84674952642233492 -0.010352667753017812 -0.91288819346039718 0.22959982085623515 -0.21514406318011903 -0.24247292559621636 -0.96682902445458163 -0.14484145979395177 0.64628725118522212 -1.4241158149625113 -0.79043732583848314 0.54962956789619932 1.3991170218415185 0.45541433645007823 -0.14204672928106968 -1.650271037215066 -0.22488108726808076 -0.32964901911126593 -0.30387958422274869 -0.18234657211760008 -0.5856649212507723 -0.40227005533964133 -0.0040165054152719402 -0.32668147699756744 0.545894623299507 -0.43219825941482487 -0.38259233248663332 0.091184718619839372 -0.20873112954485343 -1.5606364983589935 -1.5094080597433071 -1.243035816855772 -0.18533498136358068 -1.1504264342696031 -1.2464524334707325 -0.86188631030643492 -1.2688219025666034 -1.2406633908422227 -2.0135553028884283 -2.7369012402695971 -1.7382739365245221 -1.7363435803252079 -2.3130972021964649 -1.9188112516537656 -2.0751995765563027 -1.289701705858084 -1.7298058909568954 -1.5022016933879367 -1.6207459927810093 -1.8246752645418702 -1.7503499456780742 -1.7605926118860729 -1.6137213235143577 -1.8330053452503074 -1.130634408720866 -1.7149691174506332 -1.5881444905872701 -1.8608108027285213 -1.9454712412995083 -1.6517769655498424 -1.3942061184419643 -1.6596859158736326 -1.4291756079926365 -1.8088184077606357 -1.8813694025174954 -1.8840175281790117 -2.3592721806381536 -1.8417796611112438 -1.8867652900061067 -1.9505442287172949 -1.9678748955143424 -2.264260600421335 -2.0197303135623801 -2.1464370813254274 -0.95209212183423675 -0.16269132468543765 -0.29555834363944922 -0.6607084244406588 -0.95826037411779119 -0.072255827848585641 0.31753433575438728 -0.20619838682196948 -1.800598099680025 0.82439896253002498 -1.560702845302818 -1.1207032656415021 -0.28148249602145053 -1.7068038321462724 -1.3411032678440553 2.1402678232252561 0.39387817358601085 1.1165397300262168 -0.41441622931806815 -1.875530701967002 -1.0255348607044703 0.0044179097569889718 -0.0036125263161182306 -0.44738852873355989 -0.55722423258726639 -0.84989364897105857 -0.63001868021730167 -0.26550602649878147 -0.55566423784745156 -0.60480861882844994 0.3125973028810648 -1.5843865712889553 -0.73002762182334757 -0.6794504160839705 -2.3540363366942341 -1.2387902038072129 -0.83666275447740579 -1.2330060647877663 -0.94897299856695094 -1.9067679346027471 -1.3644725003218028 -1.2129480199702281 -1.6819569344871557 -2.9011679266241686 -1.2389013215822311 -1.3689200077820431 -2.1317861312656823 -2.2391249926982106 -2.2139015304344132 -1.3590922458827281 -2.127505716052378 -1.7972527055050351 -2.0046897152898011 -1.8087626043780547 -1.972888935967898 -1.9393187190221093 -1.6322279812074785 -1.9965381030451193 -1.4742763671968981 -2.0419137297246897 -1.5320901745116993 -2.0053114150167923 -2.0206373799822321 -1.8879539878635649 -1.4492605423401823 -1.8931140848270731 -1.8010440154097613 -2.0523069655339428 -1.5104149629031549 -1.9951949874717958 -2.0605995345772401 -2.0273698541828917 -1.6114622456133505 -2.0094292629389616 -1.954765010517636 -2.6225781417353269 -2.0685446468813811 -1.9278176387640684 -1.243609558773495 -0.62974271914114666 -0.77983653707749367 -1.2035582709910393 -0.76052860137368805 -0.57946827287247105 -1.467258254190051 -0.70567997443136032 -1.1182419401044559 -1.7812387171106849 -0.79986267755236995 -0.30912040371133437 -1.1564777749022583 -0.62452174313306452 -1.3331770386983477 -0.78541510909244738 -1.0316580714675057 -1.1055158325786203 -1.2635809145822499 -0.6173834916574058 -1.6215429134467894 -0.70008825213180881 -0.99412760635717612 -0.56620466278181891 -1.0444911916736099 -1.1283568001092141 -0.86129493734706841 -0.92882053664775632 -0.80713061655134832 -0.6845821479271923 -0.88377859634328226 -0.67936499072870626 -0.86782918366890316 -0.73369881984199947 -0.89940973674106106 -0.93108994488820684 -1.729805268207794 -1.9945049094877225 -2.088405099731188 -1.6232796892060368 -1.3260055958476071 -1.4401127437775538 -1.0508972284852871 -1.5198700422080194 -0.79521111355366658 -1.488977380548852 -1.7362304386980312 -1.0066191917581846 -1.1701462270132705 -2.2193078932647503 -0.93748281945708578 -1.5492528696445849 -0.96597408332325729 -1.7680665963233499 -1.7624956333688628 -1.436763821698144 -1.9640781584263662 -0.57280840339910877 -1.9902282935385935 -1.1492947828286642 -2.1523901773723182 -1.8600837937622694 -1.4402785825517082 -1.6918368450790222 -1.4339009410034094 -1.7236372452542827 -1.8726010397930024 -1.9664922460649716 -2.031268733693897 -1.9989264638816038 -2.0700220613843907 -1.8474165074098057 -1.9888452466969468 -2.0157041383732337 -2.1656342935804562 -1.9024231529258031 -1.8920493521448754 0.67022833434176954 -1.8366646003257789 0.83613900034148836 -0.035722831493618892 -0.87470615566251753 -2.2736311268010572 -0.13667240676215484 -1.9212360503889541 0.056308742614342704 -0.35560361647982425 -0.67614531211791029 -3.6132313796663502 1.4532382810062083 0.060244007124288006 0.58605576388548808 1.3567699825613979 -0.45641325772371627 -3.2413442031942878 -1.1011913000995854 1.782571303308023 0.68268434244083598 -1.4806782356696904 -1.8110490727886386 -0.74419699049702903 -1.303968525530266 -2.205751098515885 -1.7716906537993937 -0.39118750900154087 -3.1445315075439231 0.58374633733596171 -1.9244160841661417 -0.5791756374934226 -0.89708357431886021 -1.5538182098845186 -1.8636363807410032 -0.55407768118347445 -0.4879620652513994 -2.0566711647214011 -1.5469424545936148 -2.8520187763966742 -1.0492473022548228 -2.1534827243968735 -1.266068246631223 -1.0441037127313832 -2.5252681752885957 -0.56055446159918065 -2.9961572481866279 -1.5568992121801271 -1.3616892783572661 -1.5448122659934811 -1.8466488528659637 -2.3180735894987308 -2.7094025414979179 -1.3213456387719906 -1.3351008441033145 -2.0581231012927153 -1.458217629836402 -1.3505131501389871 -1.3501722857314906 -2.4044836370051925 -1.9454537918733883 -1.9621250126589023 -1.4930597120794662 -1.8238881463596888 -1.1409393762369922 -2.1601619638643141 -2.2693643014391007 -2.4489431795469545 -2.3301108194653635 -1.6102953528757282 -2.0647175314836614 -2.336390690539536 -2.3527752399951334 -2.9561296834357234 -2.2918740386672387 -1.887820623606423 -1.186223567612076 1.3111043259283734 -1.1311773133665108 -0.80435317291074337 -1.4189597291162406 -0.57838292555402915 -1.3745327220468486 -0.077599204901853444 0.52229779412166155 -0.59095094093161116 -0.92903646073475787 -0.29656719444009944 0.32881047834005289 0.32372544122810487 0.45530271360480512 -0.79610516158560929 -0.85169019643484667 0.22375457763470499 -0.14347770213501551 0.28151278189028833 -0.16033193815859545 0.086914088473452111 -0.4192417410321384 -1.4567638136440964 -0.82288252065415957 0.00021802558498942382 -0.88158158185211033 -0.56681323308172604 -0.27553964544681286 -0.78578615889088932 -0.52308640963521214 -0.68626534199566847 -0.86601960267255684 0.33290610030345008 -0.61588121845316801 -0.32762258877817368 -1.1847936543702566 -0.74270170951846415 -0.50496087184913363 -1.9041447603964243 -1.0935698860350687 -0.38709584229276139 0.24293280793746519 -1.7092221464172852 -1.3034165781258278 -1.6565221697603008 -0.78177648905998309 -0.85918274364037883 -1.4042965438708253 -1.4145258928339344 -2.065817619752218 -1.8771172207968487 -1.6570629168282345 -1.4451552925033284 -1.8199219921096543 -1.1305951932319485 -1.6384814813182111 -1.7928963952983779 -2.4447730910104566 -1.7259041569324662 -0.64967263523619001 -1.2166739779177684 -1.3617308789568601 -1.1300744014538169 -1.827062503532326 -1.9974155752846761 -1.0776324845216951 -1.6523631833760954 -1.4259475446992032 -1.452450312282791 -1.364073534580077 -2.0169465718221837 -2.1748305745410255 -1.9956229649489103 -1.9345246667962768 -1.5273550650544208 -1.6686555113281305 -1.2964567348402538 -0.11920309925861626 -0.62172904262850348 -1.0804794064015493 -0.99270149859593393 -1.5126165485455236 -0.42961756769123455 -0.545868168881261 -0.48413653413671331 -0.94629005221318374 -0.39123050477057564 -0.28406872340487405 -0.93685567553148885 -1.6962934623688408 -1.4142326610162268 -1.1974948833142078 -1.5408058550781911 0.17868127705717621 -1.4045837785988864 -1.1819073485897096 -0.076680000506002655 -0.14250503071952023 0.3083669828288933 -0.67826933489167063 -0.71882396296961115 -0.7653184580976875 -1.1463689538012318 -1.2451405631262176 -0.99531215121229055 -0.74907629742487492 -0.84154324457058372 -1.8975733446085656 -1.8453069975016116 -1.4321255635313817 -1.9244424462275829 -1.4168376024932889 -1.6734128696261275 -1.6786268036080576 -1.7616226617838073 -1.7672484112804057 -1.8734155952998306 -2.0759486726986318 -2.0569781251759411 -1.5272999791122583 -1.9032896889657633 -2.1857049197082725 